~o
<STREAMINFO> 1 39
<VECSIZE> 39<NULLD><MFCC_D_A_0><DIAGC>
~s "silst"
<MEAN> 39
 -3.665622e+00 3.286522e+00 -1.917324e+00 4.543900e+00 -1.555775e+00 2.453856e+00 -2.968816e+00 1.943813e+00 -2.519169e+00 -1.935185e+00 -1.993737e+00 -5.401021e-01 5.032208e+01 -5.807206e-02 -1.687871e-01 1.674530e-01 -7.395121e-02 9.648166e-02 -6.710289e-02 5.710825e-03 -1.521832e-01 -3.420062e-02 9.240428e-02 -4.796140e-02 -9.269235e-02 1.984144e-01 2.727734e-02 -6.738276e-02 6.351800e-02 -7.771763e-02 -1.468018e-02 -6.814139e-02 -3.080865e-02 -5.434999e-02 -6.269466e-02 1.665641e-02 1.195109e-03 -5.117269e-02 1.360981e-01
<VARIANCE> 39
 1.118684e+01 2.202709e+01 1.629491e+01 1.647645e+01 2.313258e+01 2.621044e+01 2.360430e+01 2.523032e+01 2.295366e+01 2.330323e+01 2.003313e+01 1.916243e+01 1.150432e+01 5.474782e-01 1.109538e+00 1.223258e+00 1.480157e+00 1.879054e+00 1.912598e+00 2.011429e+00 2.167964e+00 2.016981e+00 1.940746e+00 1.871465e+00 1.692717e+00 3.865975e-01 1.155947e-01 2.223627e-01 2.634888e-01 3.227638e-01 3.842599e-01 3.932603e-01 4.076749e-01 4.337002e-01 4.058813e-01 3.829545e-01 3.783515e-01 3.409407e-01 1.109673e-01
<GCONST> 9.880727e+01
~h "@"
<BEGINHMM>
<NUMSTATES> 5
<STATE> 2
<MEAN> 39
 9.307593e-01 -3.605758e+00 1.718980e+00 -1.967319e+00 -6.369037e+00 -5.345432e+00 -9.367934e+00 1.761550e-01 -1.918510e+00 1.187419e+00 6.270946e-01 -7.851145e+00 6.441531e+01 8.227983e-01 -1.039477e+00 3.576045e-01 -5.622520e-01 -9.276015e-01 -3.212346e-01 -6.458378e-01 5.818016e-01 2.653202e-01 2.820806e-01 2.987959e-01 -6.978090e-01 1.159602e+00 -8.752497e-02 4.320849e-01 3.487763e-02 3.682154e-01 8.952489e-02 4.674613e-01 3.143286e-01 -1.483274e-01 -2.450246e-01 -1.607656e-01 -2.260751e-01 2.306156e-01 -5.002535e-01
<VARIANCE> 39
 2.220025e+01 4.679226e+01 5.059109e+01 4.794984e+01 6.426741e+01 7.404929e+01 7.341000e+01 7.540203e+01 6.368486e+01 4.860738e+01 4.581431e+01 4.991124e+01 3.630259e+01 2.759924e+00 3.523076e+00 3.600528e+00 4.552270e+00 4.543540e+00 5.920786e+00 5.147564e+00 7.423100e+00 6.052330e+00 4.555070e+00 4.633304e+00 4.042649e+00 3.668367e+00 4.068410e-01 5.546288e-01 5.129405e-01 7.038231e-01 7.742917e-01 8.086205e-01 9.065462e-01 9.529591e-01 8.371159e-01 7.429718e-01 6.874014e-01 6.000161e-01 5.486169e-01
<GCONST> 1.373382e+02
<STATE> 3
<MEAN> 39
 1.822094e+00 -5.253912e+00 2.393839e+00 -2.814265e+00 -7.687210e+00 -5.094056e+00 -1.054070e+01 1.222532e+00 -1.319704e+00 1.030115e+00 1.360837e+00 -8.856292e+00 6.605219e+01 4.694166e-01 6.991179e-02 2.945440e-01 3.720701e-01 -4.030669e-01 4.791122e-01 -4.465425e-02 -9.997125e-02 -2.102759e-01 2.513175e-02 -1.016714e-01 4.637877e-02 -1.301087e-01 -2.478707e-01 5.720197e-01 -2.472319e-02 4.919231e-01 3.311686e-01 3.368743e-01 4.139179e-01 -3.861132e-01 -3.039153e-01 -1.555747e-01 -3.236155e-01 3.663483e-01 -6.521885e-01
<VARIANCE> 39
 1.557245e+01 4.869406e+01 5.049885e+01 5.527619e+01 6.610074e+01 7.457432e+01 7.136750e+01 9.236266e+01 7.594032e+01 5.818920e+01 5.149979e+01 5.642759e+01 3.108056e+01 1.578288e+00 2.145916e+00 2.286798e+00 3.230690e+00 3.156705e+00 4.039452e+00 4.259064e+00 4.408483e+00 4.124732e+00 3.285452e+00 3.721652e+00 2.872953e+00 2.038829e+00 3.594893e-01 4.511479e-01 5.547285e-01 7.047810e-01 7.686508e-01 7.609809e-01 8.821348e-01 1.199604e+00 9.556349e-01 8.723159e-01 7.656422e-01 7.074807e-01 4.401876e-01
<GCONST> 1.328768e+02
<STATE> 4
<MEAN> 39
 1.931440e+00 -4.501371e+00 3.287309e+00 -1.210555e+00 -8.311687e+00 -5.097279e+00 -9.977364e+00 1.541587e+00 -2.459487e+00 4.189068e-01 5.752697e-01 -7.758750e+00 6.446829e+01 1.278843e-01 8.395947e-01 8.317530e-04 9.601651e-01 1.794906e-01 6.986240e-01 4.379659e-01 -6.862497e-01 -4.503891e-01 -8.344877e-02 -5.430266e-01 3.921739e-01 -1.028043e+00 -1.760825e-01 1.528981e-01 -7.210514e-02 1.026070e-01 1.605463e-01 4.661936e-02 1.742273e-01 -9.327545e-02 -5.732647e-02 -8.074297e-02 -1.151013e-01 7.782874e-02 -1.753514e-01
<VARIANCE> 39
 1.271302e+01 5.154673e+01 4.838804e+01 4.921171e+01 6.429958e+01 6.768223e+01 6.250734e+01 9.109386e+01 6.757487e+01 4.954005e+01 4.889723e+01 5.291665e+01 3.422547e+01 1.057172e+00 2.055384e+00 2.126761e+00 2.674012e+00 2.959453e+00 3.004767e+00 3.621246e+00 3.618366e+00 3.250574e+00 3.083266e+00 2.918451e+00 2.387224e+00 1.956325e+00 2.453584e-01 3.397420e-01 3.959468e-01 5.066005e-01 5.341060e-01 5.459096e-01 6.476662e-01 8.163579e-01 6.778015e-01 6.039173e-01 6.613235e-01 4.956073e-01 3.238772e-01
<GCONST> 1.255631e+02
<TRANSP> 5
 0.000000e+00 1.000000e+00 0.000000e+00 0.000000e+00 0.000000e+00
 0.000000e+00 1.447907e-01 8.552092e-01 0.000000e+00 0.000000e+00
 0.000000e+00 0.000000e+00 1.507080e-01 8.492920e-01 0.000000e+00
 0.000000e+00 0.000000e+00 0.000000e+00 3.811187e-01 6.188813e-01
 0.000000e+00 0.000000e+00 0.000000e+00 0.000000e+00 0.000000e+00
<ENDHMM>
~h "a"
<BEGINHMM>
<NUMSTATES> 5
<STATE> 2
<MEAN> 39
 1.980596e+00 -1.030383e+01 -7.192746e-01 -7.513878e+00 -4.864736e+00 -1.545498e+00 -9.399779e+00 5.441199e+00 -6.336634e-01 3.348945e-01 -1.708444e+00 -1.230506e+01 6.928271e+01 1.544161e-01 -9.937978e-01 -2.245111e-01 -5.520763e-01 3.691243e-01 3.430710e-01 1.097521e-01 8.383928e-01 1.043258e-01 -2.091638e-01 -5.288182e-01 -7.024499e-01 7.671608e-01 -1.037535e-01 7.458991e-01 1.978586e-01 6.325409e-01 6.942656e-04 -5.674663e-02 1.555016e-01 -5.625061e-01 -3.645500e-01 3.480052e-03 1.001433e-01 5.631111e-01 -6.704084e-01
<VARIANCE> 39
 9.830774e+00 2.658333e+01 4.185595e+01 4.273769e+01 5.655163e+01 7.916998e+01 5.948767e+01 6.297341e+01 7.212786e+01 6.754396e+01 4.683113e+01 5.248291e+01 2.116951e+01 9.992391e-01 2.471790e+00 2.488163e+00 3.037635e+00 3.400716e+00 3.951085e+00 3.610958e+00 5.007426e+00 3.504448e+00 3.629008e+00 3.424780e+00 3.337179e+00 2.011679e+00 1.919583e-01 3.667817e-01 3.632778e-01 4.851070e-01 5.680246e-01 6.074714e-01 6.270483e-01 8.178951e-01 6.974224e-01 7.083099e-01 5.979040e-01 5.621572e-01 2.886132e-01
<GCONST> 1.256567e+02
<STATE> 3
<MEAN> 39
 2.041026e+00 -1.058927e+01 -3.240867e-01 -7.598528e+00 -4.507659e+00 -1.880044e+00 -9.278921e+00 6.129098e+00 -1.335369e+00 2.524750e-01 -2.124156e+00 -1.210684e+01 6.949449e+01 1.781282e-01 9.703600e-01 1.407821e-01 9.798334e-01 -7.466946e-03 -6.706674e-02 2.216203e-01 -6.239140e-01 -5.374653e-01 2.500897e-01 7.925093e-03 6.432199e-01 -9.309848e-01 5.168905e-03 5.207344e-01 1.014403e-01 4.181070e-01 -1.305458e-01 5.110519e-02 7.519799e-02 -4.237250e-01 -1.249955e-01 3.794010e-02 6.640607e-02 2.414626e-01 -4.756727e-01
<VARIANCE> 39
 8.577234e+00 2.601963e+01 4.204432e+01 4.058366e+01 5.228737e+01 7.804263e+01 5.742756e+01 6.560151e+01 7.557281e+01 6.877711e+01 4.844435e+01 5.243963e+01 1.673183e+01 4.872161e-01 1.534092e+00 1.527669e+00 1.826372e+00 2.199103e+00 2.961461e+00 2.579569e+00 3.241606e+00 2.468274e+00 2.613477e+00 2.445788e+00 2.169781e+00 1.110210e+00 1.183839e-01 2.215521e-01 3.253539e-01 3.153669e-01 4.288143e-01 5.372093e-01 5.417606e-01 6.879081e-01 5.163543e-01 5.678738e-01 5.328651e-01 4.379888e-01 1.407773e-01
<GCONST> 1.156435e+02
<STATE> 4
<MEAN> 39
 2.189731e+00 -3.404065e+00 -2.110744e+00 -9.938449e-01 -3.887591e+00 -1.525343e-01 -6.342811e+00 2.747320e+00 -2.839827e+00 5.582479e-01 -2.959362e+00 -7.574919e+00 6.076503e+01 1.079614e-03 1.074901e+00 -2.593706e-02 1.019079e+00 -1.161266e-01 3.127070e-01 4.042621e-01 -6.174160e-01 -2.516649e-01 -8.047627e-02 -1.435796e-01 4.883334e-01 -1.201177e+00 -7.586090e-02 -6.037439e-02 4.869258e-02 -1.057200e-01 -3.063403e-02 -8.856690e-03 -1.228314e-02 -5.772080e-03 3.155805e-02 -4.240637e-02 3.870746e-03 -5.051605e-02 9.743811e-02
<VARIANCE> 39
 1.089120e+01 3.524420e+01 4.055500e+01 4.385332e+01 3.816504e+01 5.481263e+01 4.626678e+01 4.699412e+01 4.769038e+01 4.424756e+01 3.836699e+01 4.521524e+01 4.625183e+01 5.421860e-01 1.311787e+00 1.539114e+00 1.944957e+00 2.030291e+00 2.336729e+00 2.376294e+00 3.079134e+00 2.504117e+00 2.463199e+00 2.221723e+00 2.045978e+00 1.107383e+00 1.034623e-01 1.891802e-01 2.249393e-01 2.842581e-01 3.146594e-01 3.986833e-01 4.087636e-01 5.095770e-01 4.071073e-01 4.098591e-01 3.970188e-01 3.647854e-01 1.329632e-01
<GCONST> 1.110583e+02
<TRANSP> 5
 0.000000e+00 1.000000e+00 0.000000e+00 0.000000e+00 0.000000e+00
 0.000000e+00 4.854844e-01 5.145156e-01 0.000000e+00 0.000000e+00
 0.000000e+00 0.000000e+00 5.508470e-01 4.491530e-01 0.000000e+00
 0.000000e+00 0.000000e+00 0.000000e+00 6.734621e-01 3.265380e-01
 0.000000e+00 0.000000e+00 0.000000e+00 0.000000e+00 0.000000e+00
<ENDHMM>
~h "b"
<BEGINHMM>
<NUMSTATES> 5
<STATE> 2
<MEAN> 39
 5.034816e+00 7.168877e+00 1.908262e+00 5.065002e+00 -4.182290e+00 2.393084e+00 -6.833715e+00 -3.744237e+00 -7.744917e+00 -2.250121e+00 -2.152241e+00 -5.097813e+00 5.565300e+01 2.668685e-01 -2.534193e-01 -3.334374e-01 -8.400999e-01 7.509495e-02 -3.349462e-01 -7.286139e-01 -4.013874e-01 1.151302e-01 2.129820e-01 6.522862e-01 2.435524e-01 6.057898e-01 -1.250599e-01 -7.911530e-01 7.400091e-02 -8.740901e-01 -3.054301e-01 -2.752912e-01 -6.667284e-01 5.160636e-02 2.635798e-01 4.950846e-01 5.207440e-01 -2.001286e-01 7.004415e-01
<VARIANCE> 39
 7.557073e+00 2.110874e+01 1.926168e+01 2.247816e+01 2.777090e+01 2.920898e+01 3.196385e+01 2.846676e+01 2.662612e+01 2.244138e+01 2.320940e+01 2.480497e+01 1.252418e+01 7.191419e-01 2.902296e+00 1.671216e+00 5.413773e+00 2.715719e+00 3.167499e+00 4.483766e+00 3.283664e+00 3.544549e+00 3.423792e+00 3.808379e+00 2.370650e+00 2.272427e+00 1.256284e-01 4.153625e-01 3.542458e-01 5.602981e-01 4.881743e-01 6.223780e-01 5.969098e-01 6.822075e-01 7.548466e-01 6.592765e-01 6.218273e-01 5.855052e-01 2.283921e-01
<GCONST> 1.150603e+02
<STATE> 3
<MEAN> 39
 5.778632e+00 1.642220e+00 6.062785e-01 -4.101170e+00 -5.810925e+00 1.287757e+00 -1.330886e+01 -6.983150e+00 -7.159147e+00 2.387167e+00 4.364062e+00 -4.794125e+00 6.195147e+01 -2.734366e-01 -2.703170e+00 1.134255e-01 -2.793399e+00 -8.004994e-01 -7.312525e-01 -2.515587e+00 6.764865e-01 1.636320e+00 2.082299e+00 1.550722e+00 -1.588668e+00 2.493793e+00 -3.046688e-01 -1.472613e-01 3.236985e-01 4.730718e-01 -1.181572e-01 -1.228945e-01 3.363657e-01 7.688959e-01 3.573183e-01 -2.341312e-01 -6.311342e-01 -4.809319e-01 -4.077563e-02
<VARIANCE> 39
 7.132877e+00 3.450480e+01 2.254329e+01 8.011802e+01 4.688008e+01 5.370167e+01 5.146949e+01 3.562280e+01 5.034755e+01 5.673439e+01 5.282497e+01 3.282294e+01 2.247383e+01 9.285837e-01 4.171714e+00 3.190987e+00 6.987775e+00 3.873871e+00 6.185886e+00 4.756613e+00 5.510475e+00 7.566571e+00 6.909303e+00 5.775087e+00 5.618680e+00 1.999672e+00 1.345319e-01 4.355371e-01 4.009526e-01 1.116158e+00 7.291024e-01 7.112625e-01 8.929753e-01 8.001298e-01 1.059851e+00 1.074671e+00 1.099259e+00 7.026641e-01 3.290341e-01
<GCONST> 1.317118e+02
<STATE> 4
<MEAN> 39
 4.458803e+00 -3.555032e+00 1.860402e+00 -5.607058e+00 -6.748307e+00 -1.306628e+00 -1.642455e+01 -1.487100e+00 -1.811483e+00 4.756128e+00 3.019962e+00 -1.031463e+01 6.537032e+01 -7.265736e-01 -1.740370e+00 8.720766e-01 -6.108963e-01 -8.244995e-01 -1.200751e+00 -5.795799e-01 1.944932e+00 1.320809e+00 -1.384596e-01 -4.220371e-01 -1.182189e+00 1.464399e+00 -1.258608e-01 7.145182e-01 1.451865e-01 8.010070e-01 1.206029e-01 1.364933e-01 8.989729e-01 -3.407694e-02 -5.237255e-01 -7.391962e-01 -5.007879e-01 5.228406e-01 -6.260858e-01
<VARIANCE> 39
 7.043193e+00 4.823717e+01 3.339219e+01 9.466517e+01 5.494792e+01 6.964646e+01 6.039299e+01 4.853079e+01 7.129500e+01 7.587539e+01 7.274298e+01 6.479407e+01 2.636390e+01 9.795450e-01 2.836407e+00 3.925690e+00 5.472006e+00 3.883827e+00 4.903109e+00 4.618244e+00 6.024253e+00 6.677363e+00 5.439941e+00 6.493278e+00 5.031277e+00 1.876078e+00 1.310659e-01 5.285993e-01 3.781386e-01 1.175661e+00 7.652547e-01 7.916297e-01 8.799868e-01 7.548658e-01 9.668378e-01 1.216608e+00 1.243446e+00 8.909846e-01 3.469191e-01
<GCONST> 1.350083e+02
<TRANSP> 5
 0.000000e+00 1.000000e+00 0.000000e+00 0.000000e+00 0.000000e+00
 0.000000e+00 6.908785e-01 3.091215e-01 0.000000e+00 0.000000e+00
 0.000000e+00 0.000000e+00 3.531284e-01 6.468716e-01 0.000000e+00
 0.000000e+00 0.000000e+00 0.000000e+00 2.436885e-01 7.563115e-01
 0.000000e+00 0.000000e+00 0.000000e+00 0.000000e+00 0.000000e+00
<ENDHMM>
~h "c"
<BEGINHMM>
<NUMSTATES> 5
<STATE> 2
<MEAN> 39
 -2.630892e+00 3.903533e+00 1.072336e-01 8.527864e-01 -2.927055e+00 -2.749256e+00 -5.159700e+00 1.593820e-01 -3.062080e+00 -1.203654e+00 -1.854586e+00 -2.924235e+00 5.556091e+01 -2.749293e+00 3.440642e-01 4.876226e-01 -1.346719e+00 1.293644e+00 -8.367147e-01 8.144412e-01 -3.498557e-01 2.574551e-01 -2.008227e-01 5.350860e-01 2.517568e-01 1.254587e+00 -3.710974e-01 -2.439258e-01 5.330607e-01 -3.415930e-01 -1.175580e-01 -5.195885e-01 -2.015762e-01 -1.609604e-02 2.153194e-01 -1.226463e-01 1.870890e-01 3.481349e-02 8.180840e-01
<VARIANCE> 39
 2.581678e+01 2.112092e+01 2.888435e+01 2.734977e+01 3.869610e+01 5.194300e+01 3.484707e+01 4.441727e+01 3.076597e+01 2.443526e+01 2.791730e+01 2.518158e+01 2.258961e+01 3.355603e+00 2.636167e+00 2.876224e+00 3.435997e+00 3.317135e+00 4.018409e+00 2.635983e+00 3.470143e+00 2.772337e+00 2.604575e+00 2.659887e+00 2.181624e+00 2.833007e+00 9.259585e-01 4.368738e-01 4.356304e-01 6.182818e-01 7.357509e-01 6.420445e-01 5.621664e-01 7.137651e-01 5.705947e-01 5.448528e-01 4.871316e-01 4.469323e-01 3.226810e-01
<GCONST> 1.222432e+02
<STATE> 3
<MEAN> 39
 -1.398506e+01 4.684725e+00 5.104851e+00 -4.578223e+00 -6.343877e-02 -7.473430e+00 -3.162918e+00 -9.074864e-01 -7.093328e-01 -3.943968e+00 6.907270e-01 -1.472428e+00 6.309847e+01 7.911203e-01 -1.418006e+00 1.303043e+00 -2.200053e-01 -1.444523e+00 -1.392373e+00 -1.338407e+00 3.605950e-01 6.842908e-01 -3.884447e-01 2.934138e-01 1.385798e-01 1.940654e+00 1.906731e+00 -6.897990e-01 -3.238782e-01 4.244383e-01 -8.255116e-01 4.636278e-01 -7.739013e-01 1.795003e-01 -1.671203e-01 2.986057e-01 -6.714396e-02 -3.190694e-01 -2.779321e-01
<VARIANCE> 39
 1.863578e+01 2.762262e+01 2.896584e+01 2.885913e+01 4.092538e+01 4.849935e+01 3.501159e+01 3.634349e+01 2.923348e+01 2.736388e+01 2.423356e+01 1.842716e+01 1.566140e+01 9.751690e+00 3.670691e+00 3.482492e+00 3.736556e+00 4.889302e+00 4.010283e+00 4.549270e+00 4.228982e+00 3.595381e+00 3.340535e+00 2.546475e+00 2.441630e+00 2.128757e+00 6.140078e-01 7.190380e-01 5.972327e-01 8.666850e-01 8.917173e-01 7.229878e-01 6.391954e-01 7.569443e-01 9.099683e-01 6.026055e-01 6.786509e-01 5.517658e-01 2.766849e-01
<GCONST> 1.265650e+02
<STATE> 4
<MEAN> 39
 -1.301150e+00 -4.709227e+00 5.730384e+00 -3.254817e+00 -7.944880e+00 -9.779828e+00 -1.209550e+01 1.862519e+00 1.239933e+00 -2.683632e+00 3.202175e-01 -3.410944e+00 6.818826e+01 3.489291e+00 -2.420586e+00 -6.439574e-01 -5.108108e-01 -1.549411e+00 8.640378e-01 -1.879543e+00 3.477816e-01 -1.610534e-01 9.538764e-01 7.655829e-01 -1.382446e+00 1.148172e+00 -4.131290e-01 6.932716e-01 -4.843457e-01 -5.069220e-02 6.338624e-01 8.718005e-01 7.792585e-01 -3.281446e-01 -5.375848e-01 1.316082e-01 5.347303e-02 -1.542788e-01 -7.576966e-01
<VARIANCE> 39
 1.417796e+01 3.444035e+01 4.672084e+01 2.878189e+01 2.761275e+01 3.869678e+01 5.544230e+01 6.931666e+01 4.248743e+01 4.149776e+01 1.988713e+01 1.871103e+01 1.969756e+01 2.565731e+00 4.001520e+00 3.447706e+00 2.999760e+00 4.116966e+00 3.444639e+00 3.870586e+00 5.934581e+00 5.339585e+00 3.659369e+00 3.656406e+00 3.413151e+00 1.381232e+00 8.021437e-01 5.489425e-01 5.156139e-01 5.232846e-01 6.323645e-01 6.258314e-01 7.560867e-01 6.780666e-01 6.319088e-01 7.095273e-01 4.961175e-01 6.010073e-01 2.827539e-01
<GCONST> 1.259447e+02
<TRANSP> 5
 0.000000e+00 1.000000e+00 0.000000e+00 0.000000e+00 0.000000e+00
 0.000000e+00 6.917099e-01 3.082901e-01 0.000000e+00 0.000000e+00
 0.000000e+00 0.000000e+00 6.408932e-01 3.591068e-01 0.000000e+00
 0.000000e+00 0.000000e+00 0.000000e+00 4.507987e-01 5.492013e-01
 0.000000e+00 0.000000e+00 0.000000e+00 0.000000e+00 0.000000e+00
<ENDHMM>
~h "d"
<BEGINHMM>
<NUMSTATES> 5
<STATE> 2
<MEAN> 39
 3.985104e+00 5.084954e+00 4.976246e+00 7.657341e+00 -7.195368e+00 -2.029914e+00 -7.628866e+00 7.434728e-01 -4.505842e+00 -2.674563e+00 -4.232158e+00 -5.340826e+00 5.602830e+01 -6.458355e-02 -3.175309e-01 3.506179e-01 1.022232e-02 -5.341545e-03 -4.017804e-01 -2.855302e-01 3.008637e-02 6.571271e-02 -3.821224e-01 3.006451e-01 3.390376e-01 3.314452e-01 -3.619019e-01 -9.397103e-01 5.400636e-01 -8.790211e-01 -5.338089e-01 -5.761423e-01 -6.350497e-01 1.119472e-01 2.267469e-02 8.097975e-02 7.797120e-01 1.720149e-02 9.620359e-01
<VARIANCE> 39
 7.779095e+00 3.060803e+01 3.123080e+01 2.149568e+01 3.678076e+01 2.767678e+01 3.643886e+01 5.042439e+01 3.166355e+01 2.772978e+01 3.670448e+01 2.960117e+01 1.544970e+01 9.516029e-01 3.399947e+00 2.958061e+00 2.735402e+00 3.407073e+00 3.716248e+00 4.217355e+00 4.386142e+00 3.374811e+00 2.588974e+00 3.566334e+00 2.450007e+00 2.441030e+00 1.539755e-01 3.396721e-01 5.733478e-01 4.387175e-01 6.222321e-01 6.383636e-01 7.767597e-01 1.133431e+00 6.974605e-01 5.778676e-01 6.325011e-01 5.135479e-01 2.328824e-01
<GCONST> 1.196837e+02
<STATE> 3
<MEAN> 39
 2.295575e+00 -7.369975e-01 6.957328e+00 5.006758e+00 -7.515841e+00 -4.912138e+00 -1.019214e+01 -9.501183e-02 -3.894985e+00 -3.470449e+00 -1.483755e+00 -2.959693e+00 6.054562e+01 -8.543831e-01 -2.574850e+00 1.928926e+00 -2.449728e+00 -1.746422e+00 -1.973554e+00 -2.292098e+00 8.559867e-01 1.322815e-01 6.711958e-02 2.469240e+00 -1.378525e-01 2.903378e+00 -9.418385e-02 -2.462653e-02 1.097766e-01 -6.111431e-01 -3.458686e-01 3.432868e-02 -2.408930e-01 3.203985e-01 -1.009282e-01 3.338610e-01 3.063344e-01 -5.990017e-01 3.445980e-01
<VARIANCE> 39
 1.119250e+01 3.335378e+01 4.069175e+01 3.565310e+01 4.522776e+01 5.207511e+01 6.556969e+01 7.000218e+01 4.746447e+01 3.586501e+01 3.109218e+01 3.415046e+01 2.159220e+01 1.232597e+00 2.760176e+00 5.577744e+00 3.453773e+00 4.043950e+00 4.639873e+00 5.313497e+00 1.088549e+01 6.649052e+00 4.981549e+00 5.438294e+00 3.558796e+00 1.567817e+00 1.587822e-01 4.515457e-01 5.252649e-01 5.358139e-01 8.976219e-01 9.081472e-01 9.579180e-01 9.976217e-01 7.472513e-01 7.495454e-01 7.329005e-01 6.124717e-01 2.934411e-01
<GCONST> 1.298809e+02
<STATE> 4
<MEAN> 39
 1.088896e+00 -5.470534e+00 1.073695e+01 -1.561212e+00 -1.280422e+01 -9.051979e+00 -1.611127e+01 5.011492e+00 -3.337629e+00 -2.074324e+00 4.109411e+00 -6.348852e+00 6.678768e+01 -6.247663e-01 -1.278072e+00 8.611476e-01 -2.245621e+00 -1.241776e+00 -7.210486e-01 -1.242100e+00 1.065794e+00 4.333536e-02 5.889469e-01 1.505810e+00 -1.297739e+00 1.986864e+00 1.501664e-01 7.166524e-01 -5.460862e-01 4.461590e-01 4.794156e-01 6.377544e-01 6.852755e-01 -3.376366e-01 -1.487787e-01 8.017335e-02 -6.270690e-01 -1.219102e-01 -6.685159e-01
<VARIANCE> 39
 1.073227e+01 3.426342e+01 5.615584e+01 3.973242e+01 4.279519e+01 5.238593e+01 8.494672e+01 1.197856e+02 8.212058e+01 5.778331e+01 4.918587e+01 5.245068e+01 1.856610e+01 1.138842e+00 2.563433e+00 5.797277e+00 3.769217e+00 4.448657e+00 5.026959e+00 5.230270e+00 7.843074e+00 5.538383e+00 5.181487e+00 6.162567e+00 3.871407e+00 2.294380e+00 1.193841e-01 3.821159e-01 4.825658e-01 5.723268e-01 7.672094e-01 8.127533e-01 1.086087e+00 1.253559e+00 8.881023e-01 6.539645e-01 7.464364e-01 6.719306e-01 2.963047e-01
<GCONST> 1.328282e+02
<TRANSP> 5
 0.000000e+00 1.000000e+00 0.000000e+00 0.000000e+00 0.000000e+00
 0.000000e+00 6.292447e-01 3.707553e-01 0.000000e+00 0.000000e+00
 0.000000e+00 0.000000e+00 2.000603e-01 7.999398e-01 0.000000e+00
 0.000000e+00 0.000000e+00 0.000000e+00 3.786556e-01 6.213443e-01
 0.000000e+00 0.000000e+00 0.000000e+00 0.000000e+00 0.000000e+00
<ENDHMM>
~h "e"
<BEGINHMM>
<NUMSTATES> 5
<STATE> 2
<MEAN> 39
 -1.870739e-01 -6.288030e+00 7.010968e+00 -1.700833e+00 -1.049449e+01 -8.746143e+00 -6.092231e+00 5.636895e+00 -4.668736e+00 -9.705532e-01 1.612522e+00 -6.369775e+00 6.583324e+01 1.220110e-01 -1.289438e+00 1.377455e+00 -1.097588e+00 -1.305024e+00 -7.178181e-01 -1.814770e-01 1.534896e+00 -1.813252e-01 -2.256051e-01 6.570727e-01 -3.613499e-01 1.446585e+00 -1.070670e-01 4.729654e-01 -3.416673e-01 2.268743e-01 4.163616e-01 3.303082e-01 2.457503e-01 -4.223557e-01 -4.374478e-02 1.081558e-01 -1.938098e-01 2.072985e-01 -4.530298e-01
<VARIANCE> 39
 1.337620e+01 3.613543e+01 5.658080e+01 3.494623e+01 4.466926e+01 7.459414e+01 9.603311e+01 5.929652e+01 8.159033e+01 8.108115e+01 5.062016e+01 3.931102e+01 3.962521e+01 1.320951e+00 2.122303e+00 3.957344e+00 2.312704e+00 4.151738e+00 4.126470e+00 5.332098e+00 5.158142e+00 4.132569e+00 4.488154e+00 4.020503e+00 2.814938e+00 2.104191e+00 2.567202e-01 5.475411e-01 7.789622e-01 4.671530e-01 7.266172e-01 7.381618e-01 9.452386e-01 9.600622e-01 8.123689e-01 8.379531e-01 6.707761e-01 5.086474e-01 4.458958e-01
<GCONST> 1.318087e+02
<STATE> 3
<MEAN> 39
 1.072538e-01 -8.763961e+00 7.681747e+00 -3.924481e+00 -1.240355e+01 -9.817610e+00 -7.869125e+00 7.674740e+00 -3.968515e+00 -1.648162e+00 2.919869e+00 -8.211996e+00 6.868941e+01 1.601001e-01 6.988952e-01 -4.211193e-01 6.969597e-01 4.416730e-01 4.312880e-01 3.290966e-01 -5.348161e-01 -5.949751e-02 1.037722e-01 -4.839790e-01 2.055598e-01 -7.509851e-01 -1.452638e-02 4.553275e-01 -2.379394e-01 4.035578e-01 3.000215e-01 2.225858e-01 1.803683e-01 -4.478620e-01 -2.175058e-02 3.283423e-02 -1.593201e-01 1.275341e-01 -4.075073e-01
<VARIANCE> 39
 7.594295e+00 2.536420e+01 4.340782e+01 3.349288e+01 3.895802e+01 8.783176e+01 7.141684e+01 7.534613e+01 7.698202e+01 6.360386e+01 5.866028e+01 4.142281e+01 1.836880e+01 5.287603e-01 1.633261e+00 1.486190e+00 2.163790e+00 2.163834e+00 2.175933e+00 2.901532e+00 2.689068e+00 2.452847e+00 2.560075e+00 2.053748e+00 1.763464e+00 1.439368e+00 1.411012e-01 2.929890e-01 3.296089e-01 3.517131e-01 4.083293e-01 4.285142e-01 5.837471e-01 6.447003e-01 5.034367e-01 5.765048e-01 4.531107e-01 3.496212e-01 1.979101e-01
<GCONST> 1.155040e+02
<STATE> 4
<MEAN> 39
 -1.054884e+00 -8.316473e-01 5.574147e+00 2.739847e-01 -8.366342e+00 -4.436844e+00 -3.791306e+00 2.896219e+00 -6.389046e+00 1.500730e+00 9.202877e-01 -3.538649e+00 5.871456e+01 -1.718743e-02 4.458978e-01 -3.416770e-01 4.026071e-01 2.878517e-01 3.999307e-01 2.520688e-01 -2.677930e-01 6.678674e-02 -7.054630e-02 -1.930464e-01 1.472937e-01 -5.442271e-01 -3.116384e-02 -4.739240e-03 1.118721e-02 -5.713955e-02 1.647388e-02 9.502403e-03 -1.479259e-02 -2.245331e-02 1.988718e-03 -6.416143e-03 1.384998e-02 -1.257362e-02 3.609236e-02
<VARIANCE> 39
 9.502252e+00 3.211095e+01 8.470599e+01 4.791615e+01 4.720913e+01 6.624023e+01 3.723452e+01 4.313392e+01 4.403936e+01 5.128791e+01 5.909687e+01 2.612899e+01 5.677199e+01 3.820390e-01 1.114884e+00 1.239074e+00 1.385512e+00 1.552854e+00 1.548022e+00 1.949949e+00 2.126640e+00 1.853851e+00 1.938968e+00 1.808528e+00 1.538016e+00 6.148809e-01 7.563652e-02 1.430051e-01 1.887985e-01 2.251509e-01 2.554803e-01 2.561281e-01 3.375123e-01 3.546794e-01 3.341455e-01 3.451663e-01 2.982442e-01 2.774191e-01 7.826016e-02
<GCONST> 1.043084e+02
<TRANSP> 5
 0.000000e+00 1.000000e+00 0.000000e+00 0.000000e+00 0.000000e+00
 0.000000e+00 5.875407e-01 4.124593e-01 0.000000e+00 0.000000e+00
 0.000000e+00 0.000000e+00 7.025450e-01 2.974550e-01 0.000000e+00
 0.000000e+00 0.000000e+00 0.000000e+00 8.452181e-01 1.547818e-01
 0.000000e+00 0.000000e+00 0.000000e+00 0.000000e+00 0.000000e+00
<ENDHMM>
~h "f"
<BEGINHMM>
<NUMSTATES> 5
<STATE> 2
<MEAN> 39
 -5.955705e+00 1.233449e+00 2.293421e+00 6.734225e-01 -4.001837e+00 -3.780871e+00 -2.869996e+00 -2.289052e+00 -9.770116e-01 -1.682235e+00 -1.281687e+00 -4.509976e+00 5.985433e+01 -1.166833e+00 9.887810e-02 6.154376e-02 2.020381e-01 3.186592e-01 -5.054109e-01 2.518451e-01 5.048480e-02 5.892896e-01 -2.106487e-01 -2.815479e-01 2.842072e-01 -7.202546e-02 3.367037e-01 -3.344080e-01 2.314568e-01 7.795960e-02 -3.018638e-01 -8.803523e-02 -2.882241e-01 8.487300e-02 -7.105347e-02 -3.727423e-02 1.584047e-01 -5.377274e-02 2.480258e-01
<VARIANCE> 39
 2.460889e+01 1.645564e+01 3.507946e+01 2.194147e+01 3.112240e+01 4.722661e+01 2.738416e+01 3.637383e+01 3.317944e+01 2.986895e+01 2.248244e+01 2.191526e+01 1.257594e+01 1.977287e+00 1.596443e+00 1.633508e+00 1.983972e+00 2.166226e+00 2.699877e+00 2.281234e+00 2.879884e+00 2.364837e+00 2.252018e+00 2.061529e+00 1.843349e+00 7.547373e-01 3.746283e-01 2.291474e-01 3.432948e-01 3.361049e-01 5.424106e-01 5.128143e-01 5.677377e-01 5.336756e-01 5.663416e-01 4.063225e-01 4.565370e-01 3.672186e-01 1.396309e-01
<GCONST> 1.105422e+02
<STATE> 3
<MEAN> 39
 -9.304005e+00 -7.283617e-01 3.413925e+00 4.152363e+00 -2.156335e+00 -7.324200e+00 -3.586458e+00 -1.660350e+00 1.698061e+00 -1.560164e+00 -2.384303e+00 -3.045131e+00 6.050114e+01 1.893950e+00 -1.107631e+00 1.938034e+00 3.599506e-01 -1.718020e+00 -1.465342e+00 -2.148345e+00 9.587521e-02 -8.366015e-01 -7.130343e-01 1.149391e+00 1.233839e-01 9.130798e-01 8.374697e-01 -1.761260e-01 7.012342e-01 -4.885927e-01 -1.138510e+00 1.648877e-03 -7.781671e-01 1.326286e-01 -7.095862e-01 -2.786869e-01 8.573887e-01 -2.902863e-01 4.312262e-01
<VARIANCE> 39
 2.009923e+01 1.292169e+01 3.674001e+01 2.095176e+01 2.203291e+01 3.939836e+01 2.684202e+01 2.131501e+01 3.651517e+01 1.748884e+01 1.975793e+01 1.861615e+01 8.960055e+00 2.108747e+00 1.193178e+00 3.894804e+00 1.876452e+00 3.513012e+00 3.396965e+00 4.048790e+00 2.758912e+00 3.681466e+00 3.208820e+00 3.128117e+00 2.320654e+00 9.438815e-01 3.074183e-01 3.349885e-01 5.577448e-01 3.270944e-01 4.940129e-01 5.241251e-01 6.474063e-01 5.262421e-01 6.805181e-01 6.182477e-01 4.615555e-01 4.121347e-01 1.150192e-01
<GCONST> 1.126657e+02
<STATE> 4
<MEAN> 39
 -1.500727e+00 -1.937919e+00 8.742708e+00 3.702126e+00 -8.937233e+00 -9.984242e+00 -1.000079e+01 -1.271206e+00 -3.481340e+00 -5.028665e+00 1.941429e+00 -3.807540e+00 6.260249e+01 2.477674e+00 -1.481761e+00 2.519219e+00 -9.367388e-01 -3.603964e+00 -7.815058e-01 -2.867854e+00 5.843136e-01 -1.350267e+00 -1.069889e+00 2.628767e+00 -7.925392e-01 1.909529e+00 -4.002361e-01 -1.837948e-02 -1.118318e-01 -4.936079e-01 -2.155961e-02 4.057086e-01 1.797000e-01 1.498610e-01 2.127979e-01 2.312867e-01 1.549166e-01 -3.910310e-01 1.608948e-01
<VARIANCE> 39
 1.365499e+01 1.391990e+01 8.132988e+01 3.050215e+01 3.471112e+01 4.496843e+01 5.089658e+01 2.281657e+01 2.943898e+01 3.924480e+01 3.204401e+01 2.202996e+01 1.294854e+01 1.427771e+00 2.222172e+00 7.735609e+00 2.234233e+00 3.833968e+00 4.090455e+00 5.424294e+00 3.777833e+00 5.890932e+00 4.863793e+00 3.926957e+00 2.939386e+00 1.186349e+00 2.717564e-01 1.733707e-01 4.431414e-01 3.115641e-01 6.015452e-01 5.273206e-01 4.954707e-01 3.619194e-01 5.026642e-01 3.820046e-01 6.219128e-01 3.530584e-01 1.330253e-01
<GCONST> 1.179875e+02
<TRANSP> 5
 0.000000e+00 1.000000e+00 0.000000e+00 0.000000e+00 0.000000e+00
 0.000000e+00 8.340913e-01 1.659087e-01 0.000000e+00 0.000000e+00
 0.000000e+00 0.000000e+00 4.752048e-01 5.247952e-01 0.000000e+00
 0.000000e+00 0.000000e+00 0.000000e+00 2.205570e-01 7.794430e-01
 0.000000e+00 0.000000e+00 0.000000e+00 0.000000e+00 0.000000e+00
<ENDHMM>
~h "g"
<BEGINHMM>
<NUMSTATES> 5
<STATE> 2
<MEAN> 39
 3.284125e+00 4.463769e+00 4.140083e+00 3.406295e+00 -5.382128e+00 -6.423588e-01 -9.392958e+00 -1.848785e+00 -8.124050e+00 -1.097958e-01 -7.957389e-01 -7.225226e+00 5.753936e+01 -6.433722e-01 -9.262670e-01 3.477052e-01 -1.009930e+00 6.398206e-01 -1.250494e+00 -1.208662e+00 2.403097e-01 3.040025e-01 2.581913e-01 6.887572e-01 -3.388157e-01 1.145475e+00 -2.737458e-01 -5.648603e-01 5.709761e-01 -7.348257e-01 -5.737324e-01 -3.782801e-01 -5.086768e-01 1.379996e-01 2.195902e-01 6.237581e-02 6.723889e-01 -3.204012e-01 8.042372e-01
<VARIANCE> 39
 8.889221e+00 3.093780e+01 3.619138e+01 3.475343e+01 6.326667e+01 4.665906e+01 5.112169e+01 4.345971e+01 3.866050e+01 3.610478e+01 4.651813e+01 3.125881e+01 1.779369e+01 9.957311e-01 2.988219e+00 4.016980e+00 3.749053e+00 5.654819e+00 4.953136e+00 5.410226e+00 4.309481e+00 4.508789e+00 3.685134e+00 5.340330e+00 3.228220e+00 2.426461e+00 2.175210e-01 4.574723e-01 6.433598e-01 5.752547e-01 1.133844e+00 7.050776e-01 8.051224e-01 8.545076e-01 8.085487e-01 6.621517e-01 9.084275e-01 5.024034e-01 2.533958e-01
<GCONST> 1.276764e+02
<STATE> 3
<MEAN> 39
 8.324926e-01 -3.802981e-01 7.835628e+00 -1.931278e+00 -8.388133e+00 -6.540727e+00 -1.529187e+01 -5.251787e-01 -5.780578e+00 9.478992e-01 5.957934e+00 -1.030798e+01 6.441006e+01 -6.709654e-01 -1.593341e+00 1.104201e+00 -2.148100e+00 -1.871760e+00 -1.188274e+00 -1.167699e+00 1.107780e+00 1.510629e+00 3.400798e-01 1.688965e+00 -1.093640e+00 2.344784e+00 1.370764e-01 1.558464e-02 -2.351757e-01 9.220344e-02 -1.855755e-01 5.665479e-01 6.157610e-01 1.527313e-01 6.917853e-02 -3.116775e-02 -5.522931e-01 9.698168e-02 -1.717308e-01
<VARIANCE> 39
 9.495702e+00 3.236351e+01 4.191452e+01 3.495553e+01 5.408778e+01 6.441403e+01 7.067003e+01 4.888566e+01 5.517846e+01 5.420871e+01 9.173431e+01 4.677843e+01 2.428427e+01 1.477965e+00 2.376580e+00 5.541308e+00 3.270856e+00 6.751237e+00 3.998075e+00 4.595160e+00 6.854334e+00 5.763888e+00 4.867516e+00 6.090808e+00 3.592489e+00 1.500961e+00 1.427327e-01 3.022247e-01 6.610481e-01 4.694076e-01 1.190160e+00 9.660617e-01 1.036704e+00 8.700198e-01 8.366540e-01 6.517562e-01 1.533936e+00 6.307564e-01 2.976706e-01
<GCONST> 1.321524e+02
<STATE> 4
<MEAN> 39
 5.397975e-03 -2.864166e+00 7.969240e+00 -5.398111e+00 -1.062234e+01 -6.113376e+00 -1.428750e+01 2.329113e+00 -3.112011e+00 2.375568e+00 4.809166e+00 -1.166289e+01 6.733530e+01 -4.527928e-01 -1.091321e+00 3.717084e-01 -1.289323e+00 -5.705520e-01 6.450355e-02 3.291071e-01 8.285533e-01 6.184697e-01 -3.048937e-02 -3.626330e-01 -3.960559e-01 1.220655e+00 1.970299e-01 2.329647e-01 -2.035973e-01 5.595990e-01 2.937039e-01 2.857742e-01 2.765804e-01 -2.693177e-01 -4.602270e-01 -2.273146e-01 -3.740685e-01 3.278787e-01 -4.666145e-01
<VARIANCE> 39
 1.222667e+01 4.430223e+01 4.961169e+01 3.333260e+01 6.140900e+01 4.994957e+01 7.737989e+01 6.318312e+01 8.004546e+01 6.388621e+01 7.864236e+01 6.128802e+01 2.775965e+01 1.247595e+00 1.632833e+00 6.365460e+00 2.836327e+00 3.720661e+00 3.827099e+00 3.831227e+00 5.533738e+00 4.376128e+00 3.463074e+00 6.323082e+00 2.862313e+00 1.221006e+00 1.615082e-01 2.852384e-01 5.066137e-01 4.278161e-01 1.115915e+00 6.343722e-01 9.239184e-01 7.876088e-01 7.433429e-01 6.390765e-01 1.163261e+00 6.095622e-01 2.427048e-01
<GCONST> 1.296045e+02
<TRANSP> 5
 0.000000e+00 1.000000e+00 0.000000e+00 0.000000e+00 0.000000e+00
 0.000000e+00 6.064230e-01 3.935770e-01 0.000000e+00 0.000000e+00
 0.000000e+00 0.000000e+00 3.696477e-01 6.303523e-01 0.000000e+00
 0.000000e+00 0.000000e+00 0.000000e+00 2.868487e-01 7.131513e-01
 0.000000e+00 0.000000e+00 0.000000e+00 0.000000e+00 0.000000e+00
<ENDHMM>
~h "h"
<BEGINHMM>
<NUMSTATES> 5
<STATE> 2
<MEAN> 39
 -4.036256e-01 -6.300570e+00 1.795220e+00 -4.553197e+00 -2.266520e+00 -2.505281e+00 -3.951114e+00 3.886706e+00 -2.977879e+00 -1.709055e+00 -4.297240e+00 -6.896927e+00 6.678782e+01 -2.274054e-01 1.593034e-01 -1.288013e-01 4.960163e-01 4.509839e-01 1.386860e-01 5.632161e-01 -1.685383e-01 1.011969e-01 -1.985205e-01 -2.722049e-01 3.313750e-01 -4.496427e-01 6.193617e-02 -1.335045e-02 -1.524362e-02 -3.604450e-02 -1.952128e-01 -2.658195e-02 -1.879221e-01 -4.359052e-02 -1.274651e-02 3.291972e-02 1.531247e-01 -4.784354e-02 -4.489545e-02
<VARIANCE> 39
 1.323769e+01 4.184823e+01 4.774168e+01 5.395720e+01 6.916344e+01 8.169461e+01 6.662539e+01 6.565115e+01 7.539304e+01 4.871886e+01 5.958598e+01 4.039039e+01 3.221476e+01 7.041446e-01 1.458621e+00 1.718739e+00 1.745117e+00 2.141908e+00 2.177229e+00 2.147011e+00 2.463984e+00 2.316148e+00 1.681797e+00 1.899454e+00 1.682026e+00 8.582127e-01 9.267358e-02 2.621809e-01 2.444642e-01 3.160661e-01 3.711042e-01 3.752341e-01 3.976879e-01 4.217170e-01 3.796023e-01 3.091149e-01 3.432878e-01 3.113510e-01 1.119778e-01
<GCONST> 1.124346e+02
<STATE> 3
<MEAN> 39
 -1.238323e+00 -4.954311e+00 2.415549e-01 -4.397511e-01 -7.486793e-01 -2.134704e+00 -1.302978e+00 9.897268e-01 -2.021727e+00 -2.050413e+00 -4.490155e+00 -5.173117e+00 6.323552e+01 1.449192e-01 3.002497e-01 -2.144511e-01 3.881351e-01 -2.353937e-01 8.759993e-02 -9.491693e-02 -9.139401e-02 -8.468513e-02 1.064148e-01 8.422538e-02 7.787916e-02 -6.946102e-01 7.532445e-02 1.910514e-02 -5.806121e-03 -6.079162e-02 -1.576512e-01 -7.490540e-03 -1.314982e-01 3.172649e-02 -4.721237e-02 8.421489e-03 6.304053e-02 -5.449804e-02 3.160817e-02
<VARIANCE> 39
 1.788688e+01 3.059904e+01 4.338677e+01 3.103629e+01 5.098078e+01 5.472699e+01 6.739674e+01 5.230326e+01 7.275290e+01 4.576931e+01 4.332218e+01 3.006140e+01 2.671950e+01 5.718231e-01 1.017538e+00 1.419454e+00 1.428650e+00 1.740392e+00 2.172163e+00 1.953209e+00 2.279992e+00 2.115092e+00 1.985386e+00 1.738883e+00 1.642863e+00 7.942719e-01 8.861136e-02 1.766111e-01 2.222094e-01 2.484146e-01 3.291396e-01 3.664539e-01 3.749955e-01 4.050255e-01 4.082685e-01 3.595673e-01 3.539556e-01 3.126084e-01 7.585153e-02
<GCONST> 1.073473e+02
<STATE> 4
<MEAN> 39
 -1.256424e+00 2.168917e+00 -2.110258e+00 4.037949e+00 -3.515648e+00 9.885609e-01 -3.308522e+00 1.652651e+00 -3.989151e+00 -1.462477e+00 -1.922493e+00 -1.581034e+00 5.259187e+01 -7.599586e-03 1.766172e-01 -1.368683e-01 1.288971e-01 -5.474607e-02 7.571196e-02 -1.955512e-02 1.976278e-02 2.665700e-02 -4.527075e-02 8.740561e-02 5.765479e-02 -2.358542e-01 -9.465390e-03 -3.528947e-02 5.072340e-02 -5.534689e-02 -4.477606e-04 -2.164167e-02 -1.798296e-02 -5.064809e-03 2.630192e-03 6.036371e-03 1.819177e-02 -3.363005e-02 8.008034e-02
<VARIANCE> 39
 9.693015e+00 2.569489e+01 2.809448e+01 2.242854e+01 2.989400e+01 3.498548e+01 2.916144e+01 3.207954e+01 3.196542e+01 2.630853e+01 2.506602e+01 2.340970e+01 2.838297e+01 3.597665e-01 7.779777e-01 1.054729e+00 1.149410e+00 1.431729e+00 1.624624e+00 1.757284e+00 2.021599e+00 1.965738e+00 1.782317e+00 1.776498e+00 1.575688e+00 3.855390e-01 5.913332e-02 1.197221e-01 1.772816e-01 2.119557e-01 2.582320e-01 2.915824e-01 3.424993e-01 3.806714e-01 3.860879e-01 3.489828e-01 3.399635e-01 2.980395e-01 5.920088e-02
<GCONST> 9.627419e+01
<TRANSP> 5
 0.000000e+00 1.000000e+00 0.000000e+00 0.000000e+00 0.000000e+00
 0.000000e+00 6.098201e-01 3.901800e-01 0.000000e+00 0.000000e+00
 0.000000e+00 0.000000e+00 6.742263e-01 3.257737e-01 0.000000e+00
 0.000000e+00 0.000000e+00 0.000000e+00 8.589638e-01 1.410361e-01
 0.000000e+00 0.000000e+00 0.000000e+00 0.000000e+00 0.000000e+00
<ENDHMM>
~h "i"
<BEGINHMM>
<NUMSTATES> 5
<STATE> 2
<MEAN> 39
 -1.936455e+00 -8.498527e-01 1.637344e+01 -1.214838e+00 -1.474493e+01 -8.322309e+00 -1.095325e+01 -1.217236e+00 -1.015975e+01 -3.613536e+00 6.064414e+00 -6.661991e+00 6.506776e+01 -1.709941e-01 -5.103948e-01 2.687046e+00 -1.040248e+00 -2.303835e+00 -4.556040e-01 -1.481019e+00 4.933125e-01 -1.138890e+00 -4.418490e-01 2.006536e+00 -6.167514e-01 1.240122e+00 4.911207e-02 2.788925e-01 -8.652864e-01 1.445631e-01 5.740901e-01 4.776692e-01 3.278095e-01 4.999164e-02 3.247017e-01 2.855133e-01 -4.878423e-01 1.769048e-02 -4.218338e-01
<VARIANCE> 39
 1.252973e+01 3.215508e+01 5.070792e+01 4.147342e+01 4.965558e+01 5.387036e+01 5.968437e+01 6.020617e+01 5.651781e+01 5.510968e+01 4.729453e+01 3.287145e+01 1.704015e+01 2.185554e+00 2.049643e+00 4.970011e+00 3.826497e+00 4.086766e+00 4.170292e+00 5.073211e+00 5.132334e+00 5.332956e+00 4.544221e+00 3.922541e+00 2.945650e+00 1.491539e+00 3.334297e-01 3.434833e-01 9.679350e-01 6.698543e-01 9.344918e-01 7.376621e-01 8.885889e-01 8.599483e-01 8.221281e-01 6.764381e-01 7.720504e-01 5.426326e-01 2.859716e-01
<GCONST> 1.302589e+02
<STATE> 3
<MEAN> 39
 -2.787977e+00 -1.450334e+00 1.993611e+01 -3.232600e+00 -1.839172e+01 -8.031737e+00 -1.365608e+01 6.695904e-01 -1.139858e+01 -4.135754e+00 9.420115e+00 -8.551742e+00 6.682697e+01 2.142343e-01 1.880525e-01 -6.786579e-01 1.709137e-01 4.777248e-01 1.284373e-01 2.948749e-01 1.814405e-01 1.525875e-01 3.988152e-01 -4.950487e-01 6.752755e-02 -3.362442e-01 1.518825e-01 1.906424e-01 -8.196362e-01 3.877493e-01 6.998729e-01 2.028440e-01 4.558388e-01 -1.512946e-01 2.654881e-01 1.316765e-01 -6.550238e-01 1.665966e-01 -4.492728e-01
<VARIANCE> 39
 7.958968e+00 2.963123e+01 3.596082e+01 3.852676e+01 3.870562e+01 5.168335e+01 5.741342e+01 6.687334e+01 5.883603e+01 6.403653e+01 4.477771e+01 3.468011e+01 1.130796e+01 8.316298e-01 1.652005e+00 2.881883e+00 2.421331e+00 2.614222e+00 2.970134e+00 2.906360e+00 3.449680e+00 2.824615e+00 2.280180e+00 2.411804e+00 2.054775e+00 1.128312e+00 1.615805e-01 2.546561e-01 5.580828e-01 4.218194e-01 5.596561e-01 5.998201e-01 6.448663e-01 7.132117e-01 6.561183e-01 5.495611e-01 5.542987e-01 4.232487e-01 1.842145e-01
<GCONST> 1.177681e+02
<STATE> 4
<MEAN> 39
 -9.563334e-01 2.309291e+00 1.291208e+01 -5.656482e-01 -1.192957e+01 -3.982916e+00 -9.226448e+00 -1.752964e+00 -1.070315e+01 -7.056035e-01 2.679079e+00 -5.600567e+00 6.007395e+01 2.734457e-01 4.497814e-01 -1.475071e+00 7.270868e-01 9.341195e-01 6.536272e-01 7.414699e-01 -1.288500e-01 3.514031e-01 1.847600e-01 -8.828629e-01 2.906430e-01 -1.027691e+00 -9.451134e-02 -5.789042e-02 -4.186790e-03 -5.692410e-02 -1.867175e-02 2.178818e-02 3.991419e-03 -4.903429e-02 6.667366e-02 -5.021459e-02 4.304876e-02 -2.321398e-02 8.059607e-02
<VARIANCE> 39
 9.841250e+00 2.914685e+01 5.154563e+01 4.524670e+01 4.144673e+01 5.580320e+01 4.271102e+01 5.364644e+01 4.984833e+01 4.729626e+01 4.190994e+01 3.342389e+01 3.092260e+01 7.601706e-01 1.331432e+00 2.335111e+00 2.040838e+00 2.541689e+00 2.649748e+00 2.787896e+00 2.897526e+00 2.920939e+00 2.480944e+00 2.597887e+00 2.038484e+00 1.136147e+00 1.097800e-01 1.944156e-01 3.781816e-01 3.410638e-01 4.414758e-01 4.955957e-01 4.554038e-01 4.889202e-01 4.653803e-01 4.059354e-01 3.895382e-01 3.339177e-01 1.542799e-01
<GCONST> 1.138686e+02
<TRANSP> 5
 0.000000e+00 1.000000e+00 0.000000e+00 0.000000e+00 0.000000e+00
 0.000000e+00 4.999159e-01 5.000841e-01 0.000000e+00 0.000000e+00
 0.000000e+00 0.000000e+00 6.569613e-01 3.430387e-01 0.000000e+00
 0.000000e+00 0.000000e+00 0.000000e+00 7.202504e-01 2.797496e-01
 0.000000e+00 0.000000e+00 0.000000e+00 0.000000e+00 0.000000e+00
<ENDHMM>
~h "j"
<BEGINHMM>
<NUMSTATES> 5
<STATE> 2
<MEAN> 39
 1.093176e+00 5.731228e+00 6.358724e+00 3.863699e+00 -4.310077e+00 -2.343114e+00 -6.128747e+00 6.124371e-01 -4.724600e+00 -2.484326e+00 -2.532650e+00 -3.763895e+00 5.741031e+01 -1.267445e+00 4.597960e-01 8.288526e-01 -7.511725e-01 7.543698e-01 -7.996059e-01 1.489261e-01 -6.651670e-01 -8.456007e-03 -4.157376e-01 3.485803e-01 4.665487e-01 5.562527e-01 -3.218955e-01 -5.001639e-01 6.797196e-01 -5.110666e-01 -5.457357e-01 -6.963795e-01 -6.655877e-01 -2.141128e-02 -1.831046e-01 -3.497372e-02 5.207292e-01 1.213940e-01 7.772997e-01
<VARIANCE> 39
 1.835422e+01 2.773920e+01 3.570139e+01 2.855948e+01 4.577859e+01 3.784579e+01 3.759298e+01 4.139388e+01 2.971712e+01 2.605085e+01 2.915012e+01 2.515420e+01 1.912269e+01 2.548882e+00 2.022177e+00 4.321671e+00 3.579468e+00 3.671989e+00 5.400012e+00 3.531935e+00 3.440675e+00 2.780693e+00 2.940296e+00 2.675685e+00 2.192985e+00 2.658292e+00 5.011854e-01 3.709118e-01 5.449870e-01 5.724521e-01 9.551639e-01 7.449729e-01 6.986623e-01 6.535962e-01 5.868980e-01 6.291740e-01 5.049769e-01 4.587733e-01 2.607555e-01
<GCONST> 1.227818e+02
<STATE> 3
<MEAN> 39
 -5.100299e+00 4.943781e+00 1.400717e+01 -6.163888e-01 -5.753221e+00 -8.530771e+00 -9.170843e+00 -2.763173e+00 -6.183035e+00 -5.416298e+00 1.279519e+00 -9.256815e-01 6.329671e+01 -1.787424e-01 -1.832273e+00 2.581321e+00 -8.504404e-01 -2.918275e+00 -2.207963e+00 -2.910303e+00 4.345042e-01 -7.440620e-01 -8.504137e-02 2.014614e+00 2.668952e-01 2.355218e+00 8.671729e-01 -5.298011e-01 -7.362947e-01 1.873796e-01 -4.555073e-01 4.520153e-01 -4.270355e-01 7.212847e-01 9.151327e-02 5.781329e-01 6.560695e-02 -4.984422e-01 -1.286602e-01
<VARIANCE> 39
 1.686897e+01 3.269549e+01 4.613124e+01 2.850994e+01 5.135281e+01 4.552998e+01 6.250696e+01 4.239650e+01 3.288726e+01 3.426726e+01 2.806000e+01 2.350898e+01 1.428066e+01 2.692378e+00 2.445364e+00 3.359719e+00 3.728100e+00 4.112611e+00 3.848847e+00 4.037740e+00 4.985116e+00 3.813563e+00 3.839392e+00 3.144815e+00 3.035736e+00 1.339360e+00 3.345982e-01 5.338028e-01 7.317489e-01 6.156843e-01 1.189702e+00 9.566020e-01 9.696597e-01 7.878243e-01 7.344598e-01 6.507540e-01 6.973901e-01 5.595155e-01 2.181466e-01
<GCONST> 1.265359e+02
<STATE> 4
<MEAN> 39
 -1.524381e+00 -2.406579e+00 1.554607e+01 -2.774903e+00 -1.339831e+01 -1.203147e+01 -1.669968e+01 4.020505e+00 -6.835581e+00 -1.752953e+00 5.601256e+00 -2.483295e+00 6.789394e+01 9.181587e-01 -1.656797e+00 -1.087954e+00 -7.558506e-01 -6.119862e-01 1.094019e-02 -1.256393e+00 1.631005e+00 5.639333e-01 1.227373e+00 3.766225e-01 -1.169339e+00 9.145636e-01 1.122964e-01 5.147038e-01 -9.161609e-01 1.390271e-01 1.041576e+00 8.468227e-01 8.610001e-01 -2.596343e-01 1.862112e-01 3.350168e-02 -6.682186e-01 -2.848658e-01 -6.661896e-01
<VARIANCE> 39
 7.067681e+00 2.539374e+01 3.802402e+01 3.599438e+01 3.301491e+01 3.158692e+01 6.304633e+01 6.476346e+01 4.884884e+01 6.512301e+01 3.716523e+01 3.092556e+01 1.693766e+01 8.309408e-01 2.280690e+00 3.660105e+00 2.259740e+00 4.610568e+00 3.413661e+00 5.209475e+00 4.220930e+00 3.924727e+00 3.302350e+00 4.385222e+00 2.972385e+00 1.197829e+00 2.295875e-01 2.591279e-01 6.161805e-01 5.652258e-01 6.000717e-01 6.408204e-01 7.421733e-01 7.874812e-01 6.861622e-01 6.549898e-01 6.464989e-01 5.273091e-01 1.839441e-01
<GCONST> 1.222649e+02
<TRANSP> 5
 0.000000e+00 1.000000e+00 0.000000e+00 0.000000e+00 0.000000e+00
 0.000000e+00 6.939498e-01 3.060502e-01 0.000000e+00 0.000000e+00
 0.000000e+00 0.000000e+00 5.220973e-01 4.779027e-01 0.000000e+00
 0.000000e+00 0.000000e+00 0.000000e+00 5.943875e-01 4.056126e-01
 0.000000e+00 0.000000e+00 0.000000e+00 0.000000e+00 0.000000e+00
<ENDHMM>
~h "k"
<BEGINHMM>
<NUMSTATES> 5
<STATE> 2
<MEAN> 39
 3.071166e-01 2.302326e+00 -3.349695e+00 1.972944e+00 -4.615194e+00 1.074664e+00 -4.709712e+00 -1.310022e-01 -4.675499e+00 -1.520522e-01 -1.158058e+00 -3.699432e+00 5.381078e+01 -5.645996e-01 -4.346254e-01 -7.921687e-01 -2.927880e-01 1.200608e+00 -4.701702e-01 -1.846149e-01 -2.971679e-03 3.704155e-01 1.716739e-01 -1.114233e-01 6.568897e-02 3.992051e-01 -2.518863e-02 -4.200149e-01 2.254423e-01 -5.685254e-01 1.674814e-01 -3.349138e-01 -2.550471e-01 -3.076952e-02 -4.093504e-02 1.881052e-01 1.250974e-01 -2.264342e-01 7.844249e-01
<VARIANCE> 39
 9.680155e+00 2.189966e+01 3.106308e+01 2.974416e+01 3.500041e+01 4.127419e+01 3.135368e+01 3.410471e+01 3.149524e+01 2.688716e+01 2.710934e+01 2.709258e+01 1.798171e+01 1.267307e+00 2.844875e+00 2.741776e+00 3.255390e+00 4.517679e+00 4.142704e+00 3.548167e+00 3.901856e+00 3.693027e+00 3.119462e+00 2.725596e+00 2.636722e+00 2.424952e+00 2.270561e-01 3.586689e-01 4.586335e-01 5.125700e-01 7.358441e-01 6.500319e-01 5.762839e-01 6.440383e-01 6.524243e-01 5.575033e-01 4.849410e-01 4.999357e-01 2.735520e-01
<GCONST> 1.192645e+02
<STATE> 3
<MEAN> 39
 -2.730108e+00 -2.077754e+00 -5.491657e+00 -1.329484e+00 2.300148e+00 -2.731991e+00 -6.486766e+00 -9.114643e-01 -3.130823e+00 1.975772e+00 -1.097309e+00 -4.518811e+00 5.950922e+01 5.033232e-02 -9.127144e-01 4.915854e-01 -1.711609e+00 1.818723e-01 -1.027278e+00 -5.880390e-01 2.858666e-02 -7.358586e-02 4.372481e-01 2.921707e-01 -7.264456e-01 2.053873e+00 5.724702e-01 1.137531e-02 7.011730e-01 -3.080927e-01 -1.170673e+00 2.694646e-01 -9.334531e-02 2.018154e-01 -3.221402e-01 -1.393507e-01 2.388912e-01 -3.088231e-01 2.264289e-01
<VARIANCE> 39
 2.307902e+01 3.268864e+01 5.244760e+01 4.426010e+01 5.825107e+01 7.086002e+01 6.410059e+01 6.287117e+01 4.809115e+01 4.170414e+01 4.092617e+01 3.432742e+01 2.441322e+01 2.441974e+00 3.586012e+00 4.402866e+00 4.729688e+00 6.192881e+00 5.039645e+00 4.503494e+00 5.098022e+00 5.164805e+00 3.691713e+00 3.341642e+00 3.739536e+00 3.031539e+00 4.130641e-01 6.525613e-01 7.011420e-01 7.745487e-01 1.123736e+00 9.771168e-01 1.170758e+00 1.294559e+00 1.127394e+00 9.068314e-01 8.311791e-01 7.894362e-01 3.848839e-01
<GCONST> 1.363232e+02
<STATE> 4
<MEAN> 39
 4.123183e-01 -1.271674e+00 -2.454770e+00 -4.412712e+00 -3.128802e+00 -2.980292e+00 -6.727815e+00 -1.197831e-01 -5.187496e+00 1.438863e+00 -3.921590e-02 -6.403098e+00 6.145808e+01 1.134545e+00 -7.390336e-01 1.513126e+00 -1.785662e+00 -2.097003e+00 -1.049260e-02 -8.123195e-01 3.555482e-01 -5.532458e-01 -7.732406e-02 7.777202e-01 -1.059362e+00 1.899523e+00 1.114718e-01 -3.774785e-02 1.590924e-01 2.240712e-01 -3.575397e-01 3.608500e-01 -5.887565e-02 3.112768e-02 1.789846e-02 -1.431188e-01 7.757562e-02 3.744692e-03 -1.402793e-01
<VARIANCE> 39
 2.306350e+01 3.694756e+01 5.130932e+01 5.854430e+01 4.618537e+01 6.575745e+01 4.966152e+01 4.182731e+01 4.768144e+01 3.785260e+01 3.812394e+01 3.658884e+01 3.335465e+01 2.496608e+00 3.874158e+00 4.575263e+00 5.214405e+00 6.236948e+00 4.888894e+00 6.040926e+00 6.732609e+00 6.448928e+00 4.688792e+00 4.756123e+00 4.751058e+00 2.420997e+00 3.377705e-01 4.807580e-01 5.436545e-01 7.087705e-01 7.969157e-01 8.070582e-01 7.894731e-01 7.713697e-01 7.699196e-01 7.050589e-01 6.124563e-01 5.484738e-01 4.638513e-01
<GCONST> 1.341326e+02
<TRANSP> 5
 0.000000e+00 1.000000e+00 0.000000e+00 0.000000e+00 0.000000e+00
 0.000000e+00 5.984577e-01 4.015423e-01 0.000000e+00 0.000000e+00
 0.000000e+00 0.000000e+00 4.078324e-01 5.921676e-01 0.000000e+00
 0.000000e+00 0.000000e+00 0.000000e+00 1.968914e-01 8.031087e-01
 0.000000e+00 0.000000e+00 0.000000e+00 0.000000e+00 0.000000e+00
<ENDHMM>
~h "l"
<BEGINHMM>
<NUMSTATES> 5
<STATE> 2
<MEAN> 39
 2.718757e+00 -4.470697e+00 4.166093e+00 -7.025538e+00 -7.213975e+00 -2.754802e+00 -1.572910e+01 -5.092215e+00 -7.730059e-01 5.262779e+00 2.929490e+00 -1.087256e+01 6.666094e+01 1.325469e-01 -1.107414e-01 7.279828e-02 -4.356404e-01 -4.180967e-02 2.889255e-01 -7.877916e-01 -3.712988e-01 3.078738e-01 7.789450e-01 2.918906e-01 -5.930361e-01 1.038452e-01 -1.201953e-01 -1.175275e-01 -1.052911e-01 -6.344117e-02 -3.458624e-02 1.283306e-01 3.863239e-01 5.251437e-01 -2.994387e-02 -4.488683e-01 -1.230887e-01 5.140614e-02 6.687852e-02
<VARIANCE> 39
 9.597818e+00 3.765109e+01 7.231823e+01 5.757426e+01 5.239973e+01 5.657792e+01 8.930632e+01 9.878869e+01 8.732181e+01 4.780282e+01 5.230217e+01 5.870546e+01 1.882915e+01 4.655224e-01 1.542384e+00 2.264136e+00 2.957052e+00 2.433366e+00 3.714704e+00 3.795582e+00 4.617474e+00 3.447298e+00 3.062628e+00 3.094955e+00 2.459844e+00 9.497282e-01 9.312703e-02 2.719188e-01 2.987672e-01 4.845729e-01 4.561943e-01 5.764526e-01 7.583496e-01 7.637820e-01 6.336843e-01 5.436783e-01 6.632544e-01 4.697371e-01 1.189655e-01
<GCONST> 1.214019e+02
<STATE> 3
<MEAN> 39
 2.646672e+00 -5.725616e+00 3.675876e+00 -9.114604e+00 -7.607519e+00 -1.623830e+00 -1.630535e+01 -3.178493e+00 3.597677e-01 6.256004e+00 3.399272e+00 -1.302851e+01 6.757109e+01 -1.337845e-01 -5.579938e-01 -2.796984e-01 -4.306499e-01 -1.016486e-03 4.574485e-01 4.984915e-01 1.069053e+00 3.177021e-01 -6.402193e-01 -5.588802e-01 -2.599214e-01 3.724337e-01 -8.794700e-02 -6.064869e-02 -6.711808e-02 1.349578e-01 8.277775e-02 6.858820e-02 4.347005e-01 3.284000e-01 -1.899720e-01 -5.142866e-01 -2.713439e-01 2.581160e-01 -8.999705e-04
<VARIANCE> 39
 8.294968e+00 3.541037e+01 6.364146e+01 5.663435e+01 5.236596e+01 5.082890e+01 8.314108e+01 7.635992e+01 9.128333e+01 4.632202e+01 5.325277e+01 6.428575e+01 1.774997e+01 4.319866e-01 1.656059e+00 2.270788e+00 2.339998e+00 1.909657e+00 3.102272e+00 3.551361e+00 3.992813e+00 3.421742e+00 2.859903e+00 3.636813e+00 2.188288e+00 8.734469e-01 6.494964e-02 2.640945e-01 2.625969e-01 4.162387e-01 3.521633e-01 5.210007e-01 5.481992e-01 6.210189e-01 6.050756e-01 4.585444e-01 6.079671e-01 4.009416e-01 1.199717e-01
<GCONST> 1.176763e+02
<STATE> 4
<MEAN> 39
 2.148272e+00 -6.968995e+00 1.663556e+00 -9.019907e+00 -6.980709e+00 3.280062e-01 -1.293297e+01 -8.312334e-01 1.357081e+00 2.090537e+00 1.159109e+00 -1.288223e+01 6.828901e+01 -1.314102e-01 -1.554341e-01 -8.937937e-02 3.104556e-01 2.433659e-01 4.248906e-01 9.066370e-01 7.522044e-01 -6.968157e-01 -1.031210e+00 -5.427847e-01 3.657106e-01 -6.149326e-02 4.845335e-03 2.542970e-01 1.334428e-01 2.500191e-01 3.142527e-03 -1.402864e-01 7.347231e-02 -1.960124e-01 -3.765825e-01 3.528435e-02 1.277997e-01 2.228378e-01 -2.089129e-01
<VARIANCE> 39
 9.851999e+00 3.910269e+01 5.660604e+01 6.295642e+01 4.591293e+01 6.141526e+01 7.267727e+01 7.917905e+01 1.009502e+02 5.894604e+01 5.547903e+01 6.088619e+01 2.156987e+01 5.004064e-01 1.896007e+00 1.916860e+00 2.509663e+00 2.163975e+00 3.484528e+00 3.177445e+00 3.910068e+00 3.927716e+00 2.869279e+00 3.906327e+00 2.141544e+00 1.190151e+00 8.095435e-02 2.322984e-01 3.568429e-01 4.063880e-01 3.915077e-01 5.287455e-01 5.358979e-01 6.936325e-01 6.355677e-01 4.925511e-01 5.812001e-01 3.868764e-01 1.441416e-01
<GCONST> 1.200180e+02
<TRANSP> 5
 0.000000e+00 1.000000e+00 0.000000e+00 0.000000e+00 0.000000e+00
 0.000000e+00 4.297881e-01 5.702119e-01 0.000000e+00 0.000000e+00
 0.000000e+00 0.000000e+00 3.966903e-01 6.033097e-01 0.000000e+00
 0.000000e+00 0.000000e+00 0.000000e+00 4.183472e-01 5.816528e-01
 0.000000e+00 0.000000e+00 0.000000e+00 0.000000e+00 0.000000e+00
<ENDHMM>
~h "m"
<BEGINHMM>
<NUMSTATES> 5
<STATE> 2
<MEAN> 39
 4.578969e+00 -2.067423e+00 4.256950e+00 3.921636e-01 -8.510971e+00 6.310272e+00 -5.828319e+00 -6.890833e+00 -1.212697e+01 8.970493e-01 5.822241e-02 -9.269977e+00 6.211609e+01 -1.443281e-02 3.332220e-01 1.010875e+00 1.106600e+00 -8.609605e-02 9.588767e-01 5.502605e-01 -1.303093e+00 -1.477844e+00 -5.017827e-01 -7.778920e-01 -1.589346e-01 -4.319844e-01 -8.385929e-02 -2.395947e-01 -2.050255e-01 -4.449337e-01 4.697524e-02 -3.327507e-01 -2.902326e-01 4.923104e-01 5.841122e-01 -1.345052e-02 8.066848e-02 -3.327800e-02 2.706536e-01
<VARIANCE> 39
 6.778204e+00 2.657691e+01 3.093903e+01 3.545374e+01 4.505799e+01 4.213728e+01 4.371718e+01 3.686585e+01 4.487231e+01 3.116665e+01 4.298070e+01 3.984458e+01 1.665436e+01 4.736218e-01 1.260260e+00 2.038192e+00 1.940410e+00 2.157796e+00 2.389908e+00 2.388885e+00 2.539890e+00 4.074636e+00 2.296420e+00 2.876395e+00 2.060077e+00 9.408836e-01 8.770099e-02 1.493027e-01 2.849323e-01 2.976999e-01 3.738970e-01 3.720273e-01 4.110563e-01 4.202003e-01 5.469559e-01 4.279005e-01 5.298784e-01 3.643538e-01 8.732668e-02
<GCONST> 1.084970e+02
<STATE> 3
<MEAN> 39
 4.120039e+00 -2.263733e+00 6.841310e+00 6.220711e-01 -9.477698e+00 7.699893e+00 -6.036308e+00 -8.468251e+00 -1.428157e+01 -9.615071e-01 -6.768982e-01 -9.854660e+00 6.243113e+01 1.732287e-01 -1.970936e-01 -4.221759e-01 -5.525004e-01 -2.957138e-01 -2.527685e-01 -2.534229e-01 3.542136e-01 7.073740e-01 1.683512e-01 4.010486e-01 1.086092e-02 2.328849e-01 3.581047e-02 -1.632354e-01 -4.875198e-01 -4.309124e-01 -1.987452e-02 -3.364280e-01 -1.652554e-01 5.832385e-01 7.523392e-01 2.070058e-01 2.077149e-01 -1.255036e-02 1.660497e-01
<VARIANCE> 39
 5.655444e+00 2.464998e+01 3.533792e+01 3.065868e+01 4.341182e+01 4.659485e+01 3.714679e+01 3.926526e+01 5.619013e+01 3.217710e+01 4.443701e+01 4.027050e+01 1.484138e+01 3.567388e-01 1.110744e+00 1.735453e+00 1.831860e+00 1.594439e+00 2.064054e+00 1.830540e+00 1.976096e+00 3.046443e+00 1.855263e+00 2.217577e+00 1.885141e+00 7.603583e-01 7.541147e-02 1.687524e-01 2.725457e-01 2.916196e-01 3.384818e-01 4.169399e-01 3.443603e-01 4.570118e-01 6.794643e-01 4.272759e-01 4.906963e-01 4.024543e-01 8.036480e-02
<GCONST> 1.056996e+02
<STATE> 4
<MEAN> 39
 5.388018e+00 -2.906070e+00 1.533617e+00 -3.619722e+00 -1.034101e+01 6.189046e+00 -7.259329e+00 -4.193529e+00 -7.732468e+00 9.315411e-01 1.037157e+00 -9.310289e+00 6.353597e+01 2.734117e-02 -7.006642e-01 -1.061214e+00 -1.005704e+00 2.637680e-01 -3.971978e-01 -4.034917e-01 1.473875e+00 1.629112e+00 6.979391e-02 1.522768e-01 -3.431321e-01 5.599303e-01 -1.777897e-01 -6.146936e-02 2.070923e-01 1.466831e-01 2.358993e-01 -1.112070e-01 3.456636e-04 1.018208e-01 -1.142461e-01 -1.431142e-01 -1.890908e-01 -3.819861e-03 1.593785e-02
<VARIANCE> 39
 7.718007e+00 4.106690e+01 3.731579e+01 4.533382e+01 8.296896e+01 4.876460e+01 4.709639e+01 4.340161e+01 4.377576e+01 3.582481e+01 4.084230e+01 4.872601e+01 2.296374e+01 4.779321e-01 1.920547e+00 2.381565e+00 2.685137e+00 3.248086e+00 2.995962e+00 2.746399e+00 3.149082e+00 5.340735e+00 2.754800e+00 3.035329e+00 2.937433e+00 9.984681e-01 9.239734e-02 1.943593e-01 3.292131e-01 4.173038e-01 5.195929e-01 4.551644e-01 4.235799e-01 4.860170e-01 5.820670e-01 4.228441e-01 5.031598e-01 3.919754e-01 1.097543e-01
<GCONST> 1.157009e+02
<TRANSP> 5
 0.000000e+00 1.000000e+00 0.000000e+00 0.000000e+00 0.000000e+00
 0.000000e+00 5.399736e-01 4.600264e-01 0.000000e+00 0.000000e+00
 0.000000e+00 0.000000e+00 5.997282e-01 4.002718e-01 0.000000e+00
 0.000000e+00 0.000000e+00 0.000000e+00 5.197900e-01 4.802100e-01
 0.000000e+00 0.000000e+00 0.000000e+00 0.000000e+00 0.000000e+00
<ENDHMM>
~h "n"
<BEGINHMM>
<NUMSTATES> 5
<STATE> 2
<MEAN> 39
 3.675092e+00 -4.270032e+00 6.983116e+00 2.621791e+00 -1.063899e+01 -1.724143e+00 -9.486670e+00 -2.072363e+00 -5.995961e+00 3.260740e+00 -4.524210e+00 -1.061549e+01 6.340845e+01 3.621620e-01 1.358074e+00 9.229741e-01 1.324225e+00 -5.737432e-01 9.380375e-01 3.758607e-01 -2.669148e+00 -9.922334e-01 1.050920e+00 -1.141948e+00 6.180711e-01 -1.194170e+00 -1.276263e-01 -1.854135e-01 -2.446161e-01 -4.089486e-01 1.428824e-01 -9.636706e-03 9.090982e-02 4.300635e-01 1.573654e-01 -3.023805e-01 2.567036e-01 9.878635e-03 2.159746e-01
<VARIANCE> 39
 5.355646e+00 2.956208e+01 3.397503e+01 2.481484e+01 4.257319e+01 3.800063e+01 4.602974e+01 6.951376e+01 4.963885e+01 4.528408e+01 3.917513e+01 4.344941e+01 1.492127e+01 4.219526e-01 1.275650e+00 2.606531e+00 1.754254e+00 2.177220e+00 2.523323e+00 3.058447e+00 4.935448e+00 2.859714e+00 3.373828e+00 2.992923e+00 2.445625e+00 7.248397e-01 7.334407e-02 2.393710e-01 3.282782e-01 2.944602e-01 3.275793e-01 3.855961e-01 4.217202e-01 8.862745e-01 4.427818e-01 4.803900e-01 4.469420e-01 3.624128e-01 1.243366e-01
<GCONST> 1.111680e+02
<STATE> 3
<MEAN> 39
 4.323309e+00 -1.947016e+00 7.995316e+00 4.858295e+00 -1.222420e+01 3.265625e-01 -8.057596e+00 -7.085757e+00 -7.750379e+00 4.687227e+00 -5.783135e+00 -9.013988e+00 6.147827e+01 5.457931e-02 5.108720e-01 -2.424953e-01 2.501669e-01 1.446692e-01 3.169071e-01 4.014395e-01 -2.671430e-01 -1.439946e-01 -2.306303e-01 -1.174527e-01 2.433489e-01 -4.469888e-01 -1.887067e-01 -2.973976e-01 -3.515701e-01 -4.530000e-01 3.186535e-01 -2.620656e-01 -3.017961e-02 9.187859e-01 2.962450e-01 -5.171103e-01 4.056450e-01 -1.202020e-01 2.696126e-01
<VARIANCE> 39
 4.324530e+00 2.165033e+01 2.722006e+01 2.395187e+01 3.912035e+01 3.764545e+01 3.727853e+01 5.266554e+01 5.131247e+01 4.048637e+01 4.042765e+01 3.575109e+01 1.018431e+01 2.937459e-01 1.428314e+00 1.569809e+00 1.392565e+00 1.747557e+00 1.986636e+00 2.121231e+00 3.360658e+00 2.493596e+00 2.433118e+00 2.112655e+00 1.831773e+00 8.155054e-01 9.239011e-02 2.746265e-01 3.917635e-01 3.606558e-01 3.931166e-01 4.153470e-01 4.651812e-01 8.289869e-01 5.030282e-01 5.459176e-01 5.520342e-01 3.878866e-01 1.489354e-01
<GCONST> 1.077501e+02
<STATE> 4
<MEAN> 39
 1.673377e+00 1.922383e+00 1.912646e+00 5.283515e+00 -6.196567e+00 1.377638e+00 -5.313689e+00 -2.084004e+00 -4.607114e+00 1.928352e-01 -5.218091e+00 -5.248499e+00 5.571782e+01 -2.505424e-01 1.238788e-01 -3.917118e-01 -2.354050e-01 3.253504e-01 -1.215276e-02 1.449250e-01 5.509736e-01 1.440129e-01 -4.906379e-01 3.442096e-01 9.704935e-02 -2.093812e-01 -9.022741e-02 -1.626823e-01 3.079310e-02 -2.117882e-01 1.066094e-02 -9.133106e-02 -7.899970e-02 1.783784e-01 4.372432e-02 -4.031458e-02 1.366001e-01 -4.139048e-02 1.672069e-01
<VARIANCE> 39
 1.159020e+01 2.651497e+01 3.620142e+01 2.183503e+01 3.695158e+01 3.098629e+01 3.641978e+01 4.927698e+01 3.650534e+01 3.526259e+01 3.599421e+01 3.473760e+01 2.935736e+01 4.660214e-01 1.455427e+00 1.650735e+00 1.735689e+00 2.018319e+00 1.906083e+00 2.137139e+00 3.772848e+00 2.268593e+00 2.681673e+00 2.406124e+00 1.927516e+00 9.298292e-01 1.116819e-01 1.975269e-01 2.569786e-01 3.240859e-01 3.539214e-01 3.767615e-01 3.985237e-01 6.010258e-01 4.385990e-01 4.603274e-01 4.438710e-01 3.460307e-01 1.103379e-01
<GCONST> 1.082295e+02
<TRANSP> 5
 0.000000e+00 1.000000e+00 0.000000e+00 0.000000e+00 0.000000e+00
 0.000000e+00 4.047831e-01 5.952169e-01 0.000000e+00 0.000000e+00
 0.000000e+00 0.000000e+00 5.510945e-01 4.489055e-01 0.000000e+00
 0.000000e+00 0.000000e+00 0.000000e+00 7.381245e-01 2.618754e-01
 0.000000e+00 0.000000e+00 0.000000e+00 0.000000e+00 0.000000e+00
<ENDHMM>
~h "o"
<BEGINHMM>
<NUMSTATES> 5
<STATE> 2
<MEAN> 39
 3.918195e+00 -1.902568e+00 -3.741422e+00 -1.173544e+01 -7.258168e+00 4.407468e+00 -7.953825e+00 -1.729843e+00 -3.827704e+00 2.497403e+00 3.063578e+00 -6.179997e+00 6.426517e+01 8.569744e-01 -7.564789e-01 -1.311341e-01 -1.923014e+00 -6.025968e-01 1.130255e+00 -4.465112e-01 7.408558e-02 -3.188006e-01 4.996666e-01 6.956742e-01 -4.493836e-01 1.179800e+00 -2.670023e-01 2.160361e-01 1.926014e-01 7.010278e-01 2.100099e-01 -1.967098e-01 1.534092e-01 2.797901e-02 -5.197280e-02 -1.081704e-01 -2.661663e-01 9.610602e-02 -4.099993e-01
<VARIANCE> 39
 1.163827e+01 3.468826e+01 2.603707e+01 8.130655e+01 5.052448e+01 6.636086e+01 6.445248e+01 4.884975e+01 6.067973e+01 4.601880e+01 4.411462e+01 4.038472e+01 3.803589e+01 1.806617e+00 2.583426e+00 2.341382e+00 7.633526e+00 4.094255e+00 5.082992e+00 4.590194e+00 4.442382e+00 4.211342e+00 3.873456e+00 3.472914e+00 2.671264e+00 3.230180e+00 3.095468e-01 3.986003e-01 4.277142e-01 1.169789e+00 6.741120e-01 8.565663e-01 8.797255e-01 7.254735e-01 7.026224e-01 6.833760e-01 6.182617e-01 5.325276e-01 4.423822e-01
<GCONST> 1.307894e+02
<STATE> 3
<MEAN> 39
 5.130979e+00 -4.698153e+00 -3.278017e+00 -1.311880e+01 -9.374511e+00 6.906986e+00 -8.911244e+00 -2.008859e+00 -4.452933e+00 2.851358e+00 5.356547e+00 -8.858775e+00 6.670897e+01 -1.912844e-02 2.944439e-01 1.241050e-02 9.693323e-01 3.747793e-01 -3.170509e-01 2.392310e-01 -7.170333e-02 -1.054846e-01 2.868646e-02 -4.800519e-01 5.207271e-02 -4.905950e-01 -1.629028e-01 2.612017e-01 7.864288e-02 6.194527e-01 1.762742e-01 -3.183755e-01 1.033677e-01 -1.101523e-01 8.535017e-02 -1.098321e-01 -2.978952e-01 1.145499e-01 -3.339505e-01
<VARIANCE> 39
 6.578740e+00 2.999555e+01 2.256965e+01 6.360315e+01 4.755009e+01 6.004719e+01 5.316906e+01 6.435559e+01 6.555241e+01 5.366236e+01 4.796338e+01 4.394143e+01 1.622118e+01 5.127278e-01 1.685920e+00 1.359463e+00 3.460038e+00 2.308405e+00 2.742780e+00 2.950835e+00 2.556412e+00 2.594059e+00 2.679448e+00 2.767650e+00 2.121150e+00 1.270383e+00 1.124439e-01 2.265664e-01 2.983414e-01 4.734977e-01 4.879466e-01 5.689999e-01 5.482016e-01 5.876455e-01 5.646946e-01 5.400291e-01 5.092767e-01 4.123871e-01 1.606495e-01
<GCONST> 1.155303e+02
<STATE> 4
<MEAN> 39
 1.752663e+00 3.175195e+00 -3.914214e+00 -1.239250e+00 -5.078620e+00 3.692822e+00 -4.281220e+00 2.129220e-01 -4.415062e+00 6.582881e-01 -4.610869e-01 -3.094154e+00 5.490201e+01 -2.146398e-01 2.975726e-01 6.318109e-02 8.211752e-01 1.665918e-01 -1.607455e-01 1.784292e-01 -5.793350e-02 1.267326e-01 -1.581335e-01 -2.395134e-01 1.405153e-01 -5.312941e-01 -1.760541e-02 -4.378239e-02 5.033305e-02 -5.137061e-02 -2.563684e-02 6.007170e-03 -2.221918e-02 -1.217520e-02 -2.082508e-02 8.946080e-04 1.476368e-02 -5.131112e-03 5.507081e-02
<VARIANCE> 39
 1.751775e+01 3.073868e+01 2.027583e+01 8.310473e+01 3.182056e+01 3.321687e+01 4.284962e+01 3.532450e+01 4.174261e+01 3.412107e+01 2.803444e+01 3.393195e+01 4.851575e+01 3.609157e-01 8.369257e-01 1.104140e+00 2.227363e+00 1.645076e+00 1.872784e+00 1.933622e+00 2.058216e+00 2.120034e+00 2.242365e+00 1.946011e+00 1.583746e+00 6.349496e-01 6.868279e-02 1.466401e-01 1.687480e-01 2.721186e-01 2.919152e-01 3.249523e-01 3.666012e-01 3.949820e-01 3.960969e-01 4.299629e-01 3.274966e-01 2.981073e-01 7.165802e-02
<GCONST> 1.034223e+02
<TRANSP> 5
 0.000000e+00 1.000000e+00 0.000000e+00 0.000000e+00 0.000000e+00
 0.000000e+00 5.995572e-01 4.004428e-01 0.000000e+00 0.000000e+00
 0.000000e+00 0.000000e+00 7.034290e-01 2.965710e-01 0.000000e+00
 0.000000e+00 0.000000e+00 0.000000e+00 8.284322e-01 1.715678e-01
 0.000000e+00 0.000000e+00 0.000000e+00 0.000000e+00 0.000000e+00
<ENDHMM>
~h "p"
<BEGINHMM>
<NUMSTATES> 5
<STATE> 2
<MEAN> 39
 4.370992e-01 3.791848e+00 -4.041018e+00 3.120415e+00 -3.900425e+00 2.839075e+00 -4.584547e+00 2.339424e-01 -3.746700e+00 -7.523185e-01 -1.871618e+00 -3.686036e+00 5.197663e+01 -2.885559e-01 2.384324e-02 -9.591600e-02 1.063139e-01 1.479550e-01 -2.701045e-01 1.963197e-01 -3.144986e-02 2.967548e-01 -5.666120e-02 3.991864e-02 2.534279e-01 -1.283752e-01 4.846846e-02 -3.703295e-01 1.872168e-01 -3.828188e-01 -3.662860e-02 -1.580547e-01 -1.962028e-01 -1.182135e-01 2.557831e-02 8.222301e-02 1.636455e-01 -1.097847e-01 5.458345e-01
<VARIANCE> 39
 1.089116e+01 1.534305e+01 2.011212e+01 1.832781e+01 2.242708e+01 3.210292e+01 2.513106e+01 2.543173e+01 2.696504e+01 2.210427e+01 1.994639e+01 2.269986e+01 1.341515e+01 7.191621e-01 1.230281e+00 1.177004e+00 1.703507e+00 1.744808e+00 2.190512e+00 1.949117e+00 2.222361e+00 2.118104e+00 1.858243e+00 1.842738e+00 1.689085e+00 1.085766e+00 1.272554e-01 2.769809e-01 3.398681e-01 4.527795e-01 3.855770e-01 5.035787e-01 4.612890e-01 4.788893e-01 4.672617e-01 4.349809e-01 4.317349e-01 3.896749e-01 2.949976e-01
<GCONST> 1.038524e+02
<STATE> 3
<MEAN> 39
 -4.298320e-01 1.408315e+00 -2.802559e+00 1.008529e+00 -2.759008e+00 -8.340914e-01 -4.426598e+00 -1.794157e+00 -2.863454e+00 -4.801813e-01 -1.667979e+00 -3.356952e+00 5.570197e+01 4.589413e-01 -1.829945e+00 6.006037e-01 -1.983478e+00 -4.902146e-01 -9.165117e-01 -1.062473e+00 -6.151952e-01 2.606599e-01 3.367416e-01 9.306175e-01 -4.352937e-01 2.650548e+00 3.699338e-01 -4.772053e-01 3.274836e-01 -5.286986e-01 -5.564258e-01 1.252347e-01 -5.811041e-01 1.783550e-01 -2.192327e-01 1.434571e-01 3.229666e-01 -4.823094e-01 7.071646e-01
<VARIANCE> 39
 1.689008e+01 2.238725e+01 2.562495e+01 2.856096e+01 2.799307e+01 4.420541e+01 2.518725e+01 2.991730e+01 3.287133e+01 2.079855e+01 2.099546e+01 2.413119e+01 1.778238e+01 2.262334e+00 3.428414e+00 5.173547e+00 5.864059e+00 4.474441e+00 6.398246e+00 5.094064e+00 4.303529e+00 4.888852e+00 3.994341e+00 3.469478e+00 4.046339e+00 2.528895e+00 2.883344e-01 5.056296e-01 7.511936e-01 7.411296e-01 7.428440e-01 9.233029e-01 6.525766e-01 8.616130e-01 8.195196e-01 6.232501e-01 6.741936e-01 5.716178e-01 3.257356e-01
<GCONST> 1.258202e+02
<STATE> 4
<MEAN> 39
 2.572446e+00 -3.546367e+00 -2.602247e+00 -5.464589e+00 -5.385304e+00 -3.738180e-01 -8.106917e+00 -2.657362e+00 -2.976784e+00 9.316241e-01 1.478244e+00 -5.924545e+00 6.273401e+01 7.672108e-01 -2.177273e+00 9.020352e-01 -2.065602e+00 -1.093616e+00 -2.650498e-01 -1.574682e+00 2.239703e-01 -8.731853e-02 5.126405e-01 1.044144e+00 -1.345374e+00 2.926198e+00 -1.063591e-01 3.148704e-01 2.789738e-01 5.200400e-01 -9.492224e-02 6.016265e-02 -9.320490e-04 3.694924e-01 -1.504802e-01 -9.030633e-02 -2.472679e-01 -9.158430e-02 -3.983827e-01
<VARIANCE> 39
 2.159913e+01 3.551762e+01 3.427163e+01 6.739889e+01 3.439120e+01 8.235188e+01 4.739317e+01 3.698886e+01 5.112461e+01 3.628386e+01 3.324034e+01 3.387933e+01 2.919314e+01 1.974568e+00 3.969810e+00 7.231403e+00 6.374920e+00 5.593435e+00 7.791530e+00 5.537022e+00 5.993894e+00 6.169327e+00 4.663802e+00 5.381223e+00 5.093004e+00 2.756916e+00 3.888573e-01 5.165295e-01 5.294155e-01 1.185479e+00 7.451270e-01 1.020090e+00 8.167987e-01 8.401209e-01 8.374802e-01 6.459138e-01 8.303539e-01 6.784871e-01 5.049676e-01
<GCONST> 1.356665e+02
<TRANSP> 5
 0.000000e+00 1.000000e+00 0.000000e+00 0.000000e+00 0.000000e+00
 0.000000e+00 7.637284e-01 2.362716e-01 0.000000e+00 0.000000e+00
 0.000000e+00 0.000000e+00 3.506930e-01 6.493070e-01 0.000000e+00
 0.000000e+00 0.000000e+00 0.000000e+00 2.674349e-01 7.325650e-01
 0.000000e+00 0.000000e+00 0.000000e+00 0.000000e+00 0.000000e+00
<ENDHMM>
~h "r"
<BEGINHMM>
<NUMSTATES> 5
<STATE> 2
<MEAN> 39
 3.063323e+00 -4.988072e+00 -1.265995e+00 2.522387e+00 -6.593306e+00 -4.552989e+00 -1.079674e+01 -7.742752e-01 1.570553e+00 9.522589e-01 6.183936e-01 -8.228569e+00 6.352113e+01 2.634725e-01 2.399978e-01 -1.521304e-01 1.130953e+00 7.244749e-02 -3.914418e-01 -8.131602e-02 -2.604054e-01 2.298455e-02 -3.357534e-01 -3.252497e-01 5.451385e-01 -6.308299e-01 -8.627617e-02 -8.229999e-02 1.494438e-01 -5.224698e-01 -1.152002e-01 1.304467e-01 1.262158e-01 2.036845e-01 -3.646546e-01 3.506465e-02 1.274624e-01 -1.677159e-01 2.418324e-01
<VARIANCE> 39
 1.377108e+01 2.723860e+01 3.811423e+01 3.935068e+01 3.899322e+01 4.720655e+01 6.513071e+01 6.641501e+01 5.184628e+01 4.354265e+01 4.877225e+01 5.764214e+01 2.615535e+01 1.204758e+00 1.918777e+00 2.057383e+00 2.745413e+00 3.430215e+00 3.373445e+00 3.434001e+00 4.191737e+00 3.627480e+00 3.548586e+00 3.897208e+00 3.419275e+00 1.878985e+00 1.937157e-01 3.536188e-01 3.684341e-01 5.869955e-01 6.812040e-01 5.836120e-01 6.562197e-01 7.353587e-01 6.596080e-01 6.734982e-01 7.588311e-01 6.859336e-01 3.814807e-01
<GCONST> 1.249043e+02
<STATE> 3
<MEAN> 39
 3.630750e+00 -4.488115e+00 -1.563028e+00 3.929221e+00 -6.753118e+00 -5.007346e+00 -1.039043e+01 -1.394876e+00 6.084021e-01 5.481275e-01 1.259272e-01 -6.637473e+00 6.255095e+01 4.399282e-02 -5.859556e-02 2.583697e-01 -9.715546e-02 -3.334646e-01 1.268683e-02 3.453410e-01 3.332664e-01 -6.803660e-01 -2.396901e-01 -1.475021e-03 -5.139348e-02 2.977709e-02 -1.812821e-01 -1.316844e-01 2.477730e-01 -6.681012e-01 -9.880673e-02 2.171820e-01 1.379148e-01 2.862245e-01 -3.440595e-01 8.434954e-02 1.982636e-01 -3.120515e-01 3.504857e-01
<VARIANCE> 39
 1.452357e+01 2.880615e+01 4.496875e+01 3.406581e+01 3.810334e+01 5.041820e+01 6.810650e+01 6.584802e+01 5.252618e+01 4.246404e+01 4.305519e+01 4.585845e+01 2.277715e+01 1.167230e+00 2.639551e+00 2.511412e+00 2.403785e+00 3.569245e+00 3.675292e+00 3.584246e+00 4.560406e+00 3.593166e+00 3.276185e+00 3.562352e+00 3.413673e+00 2.057199e+00 1.995447e-01 3.944882e-01 4.407546e-01 4.772409e-01 8.016533e-01 6.447120e-01 7.171305e-01 8.083530e-01 6.936864e-01 7.020056e-01 8.131596e-01 6.172305e-01 3.648775e-01
<GCONST> 1.256938e+02
<STATE> 4
<MEAN> 39
 2.603375e+00 -3.606874e+00 -6.108045e-01 2.954728e+00 -6.682119e+00 -3.570506e+00 -8.310194e+00 -6.848613e-01 -8.255152e-01 2.450158e-01 -7.019468e-01 -6.583542e+00 6.204384e+01 -2.245002e-01 1.098536e-02 4.993734e-01 -6.435533e-01 -2.219032e-01 3.609091e-01 3.200233e-01 4.617677e-01 -7.748355e-01 -1.087431e-01 1.558615e-01 -3.057561e-01 2.089531e-01 -9.122825e-02 -2.748528e-02 1.013006e-01 -2.580287e-01 3.389837e-02 8.380719e-02 -5.591029e-02 4.266874e-02 -8.025526e-02 6.975674e-02 1.244897e-01 -1.002915e-01 1.398263e-01
<VARIANCE> 39
 2.056431e+01 4.151941e+01 4.741929e+01 3.860495e+01 4.400019e+01 5.887265e+01 6.446480e+01 7.140694e+01 5.334546e+01 4.242968e+01 4.301550e+01 4.711416e+01 3.410473e+01 1.241506e+00 2.922154e+00 3.058316e+00 2.496999e+00 3.886687e+00 3.878110e+00 3.574703e+00 4.661256e+00 3.760380e+00 3.306466e+00 3.481548e+00 3.190519e+00 2.193909e+00 2.374890e-01 3.076447e-01 4.032505e-01 4.268220e-01 5.868212e-01 5.990106e-01 6.495104e-01 6.982341e-01 6.297425e-01 5.933691e-01 6.908790e-01 5.251587e-01 2.557226e-01
<GCONST> 1.260889e+02
<TRANSP> 5
 0.000000e+00 1.000000e+00 0.000000e+00 0.000000e+00 0.000000e+00
 0.000000e+00 3.252798e-01 6.747202e-01 0.000000e+00 0.000000e+00
 0.000000e+00 0.000000e+00 1.683069e-01 8.316930e-01 0.000000e+00
 0.000000e+00 0.000000e+00 0.000000e+00 3.742797e-01 6.257203e-01
 0.000000e+00 0.000000e+00 0.000000e+00 0.000000e+00 0.000000e+00
<ENDHMM>
~h "s"
<BEGINHMM>
<NUMSTATES> 5
<STATE> 2
<MEAN> 39
 -8.484329e+00 5.964221e+00 1.695058e+00 -1.436471e+00 2.339304e+00 -8.217937e+00 -1.712040e+00 -6.979896e-01 -1.531364e+00 -2.202115e+00 -1.363059e+00 -3.437955e+00 6.311139e+01 -3.308989e+00 2.250347e+00 -8.515481e-01 -6.436119e-01 1.782937e+00 -9.046109e-01 1.192384e+00 -2.151344e-01 4.769208e-01 -1.034349e+00 2.337757e-01 4.088915e-01 1.932767e-02 2.093101e-01 -4.870761e-01 7.502295e-03 -1.033989e-01 -5.512913e-01 2.588466e-01 -5.106104e-01 1.339792e-01 -1.841856e-01 4.531446e-02 8.671337e-02 -2.622992e-01 1.040190e-01
<VARIANCE> 39
 4.186083e+01 3.612804e+01 4.157612e+01 2.704017e+01 4.236595e+01 5.474401e+01 4.961892e+01 4.753725e+01 4.585735e+01 3.376212e+01 3.183216e+01 2.938645e+01 1.892422e+01 1.875849e+00 2.519096e+00 2.812478e+00 2.468618e+00 3.546246e+00 3.460909e+00 4.498409e+00 3.871264e+00 3.452478e+00 3.214991e+00 2.536944e+00 2.583784e+00 8.947306e-01 8.427384e-01 5.456449e-01 4.058191e-01 5.054429e-01 5.662438e-01 5.750100e-01 6.843784e-01 6.231821e-01 5.576695e-01 6.094831e-01 4.550731e-01 4.900058e-01 1.121851e-01
<GCONST> 1.225933e+02
<STATE> 3
<MEAN> 39
 -1.611281e+01 8.052831e+00 2.746768e-01 -2.477022e+00 3.587585e+00 -8.731703e+00 -1.929286e+00 6.562367e-03 -8.010459e-01 -4.904168e+00 -5.419922e-01 -2.767616e+00 6.287962e+01 6.914170e-01 -7.633344e-01 2.691150e-01 1.581875e-01 -4.384711e-01 1.069886e-01 -3.760892e-01 2.090761e-02 1.282071e-02 1.318100e-01 -7.773826e-02 -3.718299e-02 -2.060859e-01 9.488450e-01 -4.663307e-01 2.176060e-01 9.852619e-02 -4.339752e-01 9.549723e-02 -2.935025e-01 -9.159712e-02 -8.045729e-02 2.523360e-01 -2.283640e-02 -1.118470e-01 2.567355e-02
<VARIANCE> 39
 1.422267e+01 2.805272e+01 2.669184e+01 2.787983e+01 3.315273e+01 3.567132e+01 3.847099e+01 3.228365e+01 3.055356e+01 2.459056e+01 2.442736e+01 2.233281e+01 1.042504e+01 3.600334e+00 1.767592e+00 1.994170e+00 1.558234e+00 2.205508e+00 2.368659e+00 2.601092e+00 2.355241e+00 2.301970e+00 2.120014e+00 1.919741e+00 1.775783e+00 7.049100e-01 4.099601e-01 3.850917e-01 3.676865e-01 3.583227e-01 4.476611e-01 5.072927e-01 5.752949e-01 5.547525e-01 5.192481e-01 4.839804e-01 4.138524e-01 3.896978e-01 1.456941e-01
<GCONST> 1.110291e+02
<STATE> 4
<MEAN> 39
 -5.179440e+00 2.869553e+00 4.584357e-01 -1.226807e+00 5.508846e-02 -6.977800e+00 -4.665656e+00 -6.491767e-01 -8.901902e-01 -1.779927e+00 -2.132862e+00 -3.920415e+00 6.099038e+01 3.027874e+00 -1.807766e+00 2.729113e-01 -1.186443e-01 -1.911139e+00 6.900423e-01 -1.377311e+00 -2.876642e-01 -3.411880e-01 8.756488e-01 1.268620e-01 -7.336652e-01 6.025134e-01 -3.284031e-01 4.578587e-02 7.448458e-02 -1.821173e-01 -7.478441e-02 2.101778e-01 4.435217e-02 6.121036e-02 -1.334205e-01 -1.023274e-01 2.427746e-01 -1.072935e-01 1.973367e-01
<VARIANCE> 39
 2.571750e+01 3.209964e+01 3.937765e+01 2.704333e+01 3.806900e+01 5.059069e+01 4.632731e+01 3.207731e+01 3.821253e+01 3.130383e+01 2.598874e+01 2.502262e+01 4.309256e+01 3.000085e+00 3.893769e+00 4.210789e+00 3.103000e+00 3.805054e+00 3.580244e+00 4.504094e+00 4.627346e+00 4.419968e+00 3.402675e+00 2.880131e+00 3.019090e+00 2.582518e+00 4.553852e-01 3.844380e-01 3.386997e-01 3.498129e-01 4.235404e-01 4.923909e-01 5.955440e-01 5.667543e-01 5.347019e-01 4.691243e-01 4.108146e-01 4.286335e-01 2.429606e-01
<GCONST> 1.229938e+02
<TRANSP> 5
 0.000000e+00 1.000000e+00 0.000000e+00 0.000000e+00 0.000000e+00
 0.000000e+00 6.974953e-01 3.025047e-01 0.000000e+00 0.000000e+00
 0.000000e+00 0.000000e+00 7.968950e-01 2.031050e-01 0.000000e+00
 0.000000e+00 0.000000e+00 0.000000e+00 5.205029e-01 4.794971e-01
 0.000000e+00 0.000000e+00 0.000000e+00 0.000000e+00 0.000000e+00
<ENDHMM>
~h "t"
<BEGINHMM>
<NUMSTATES> 5
<STATE> 2
<MEAN> 39
 8.435142e-01 2.840656e+00 -1.768041e+00 2.755884e+00 -5.647753e+00 -6.671057e-01 -6.389568e+00 2.822773e-01 -4.388511e+00 4.030113e-01 -1.622936e+00 -4.509988e+00 5.379904e+01 -4.523368e-01 2.628503e-01 -5.364891e-01 1.050309e-01 4.096890e-01 1.292716e-01 5.616257e-01 -5.653128e-02 2.992153e-01 -3.312384e-01 -1.108885e-01 5.063268e-01 -5.639121e-01 -2.847663e-01 -3.835290e-01 3.004442e-01 -5.434096e-01 2.672116e-01 -5.391312e-01 -9.996887e-02 -1.015964e-01 3.084014e-01 -2.345304e-02 1.237872e-01 -1.242020e-01 7.945683e-01
<VARIANCE> 39
 7.868086e+00 1.735954e+01 3.232051e+01 2.008952e+01 2.841371e+01 3.360153e+01 3.052396e+01 3.310565e+01 3.794749e+01 2.535258e+01 2.999853e+01 3.019682e+01 1.375533e+01 8.608899e-01 9.369823e-01 1.436250e+00 1.741905e+00 2.408804e+00 2.962077e+00 2.490349e+00 2.451890e+00 2.586699e+00 2.393490e+00 1.891951e+00 1.825493e+00 1.392711e+00 1.596190e-01 2.206302e-01 3.187799e-01 3.796344e-01 4.548121e-01 5.824504e-01 5.253716e-01 5.427332e-01 5.799628e-01 4.925632e-01 4.270938e-01 4.253686e-01 2.904645e-01
<GCONST> 1.087834e+02
<STATE> 3
<MEAN> 39
 -2.110575e+00 2.647532e+00 -1.637374e+00 1.339226e+00 -2.166836e+00 -2.976254e+00 -4.190979e+00 -1.032703e+00 -2.744286e+00 -9.554609e-01 -2.014652e+00 -3.190810e+00 5.520864e+01 -1.283573e+00 -1.050371e+00 4.184497e-01 -1.742888e+00 1.391101e+00 -1.815309e+00 -2.210454e-02 -5.493079e-01 1.485537e+00 -3.434310e-01 2.101084e-01 -2.580965e-01 2.219393e+00 4.053622e-01 -4.951800e-01 3.610806e-01 -5.574002e-01 -4.499901e-01 -1.767965e-02 -8.077902e-01 2.561999e-02 -2.081129e-02 2.828450e-01 2.588919e-01 -5.767813e-01 8.626336e-01
<VARIANCE> 39
 2.033394e+01 1.976629e+01 2.811020e+01 2.572829e+01 3.651259e+01 5.337447e+01 3.723756e+01 3.746657e+01 3.908421e+01 2.852974e+01 2.935324e+01 2.753941e+01 2.252088e+01 1.906998e+00 2.468867e+00 3.176152e+00 3.353846e+00 3.701355e+00 4.580730e+00 4.668083e+00 4.477962e+00 4.906441e+00 3.711170e+00 3.350778e+00 3.327594e+00 2.564471e+00 4.265043e-01 3.753632e-01 5.923089e-01 5.057449e-01 7.304732e-01 1.091746e+00 7.755827e-01 1.020809e+00 9.251758e-01 6.819734e-01 6.418960e-01 5.735487e-01 3.501265e-01
<GCONST> 1.259332e+02
<STATE> 4
<MEAN> 39
 -4.528490e+00 1.391636e+00 -9.402479e-01 -6.072065e-01 -1.055604e+00 -4.026140e+00 -4.282439e+00 -5.526083e-01 -4.740286e-02 -1.490366e+00 -1.292536e+00 -3.407178e+00 5.743007e+01 3.273872e-01 -9.862685e-01 6.562655e-01 -1.370237e+00 -2.915702e-01 -5.309629e-01 -1.243740e+00 -2.279823e-01 4.081395e-01 2.691142e-01 4.973772e-01 -8.997917e-01 1.945218e+00 5.375034e-01 -7.221533e-02 7.841387e-02 3.078614e-02 -5.408010e-01 4.636813e-01 -4.234810e-01 7.116814e-02 -3.929188e-01 2.026903e-01 1.361037e-01 -2.053802e-01 1.781788e-02
<VARIANCE> 39
 2.177762e+01 2.663433e+01 2.546614e+01 3.625069e+01 2.911732e+01 6.081736e+01 3.804905e+01 4.050410e+01 3.638437e+01 2.891155e+01 2.346742e+01 2.630240e+01 4.603166e+01 2.148896e+00 3.342556e+00 4.127400e+00 4.248163e+00 3.096219e+00 4.803836e+00 5.406793e+00 5.216324e+00 5.042584e+00 3.389306e+00 3.527280e+00 3.856246e+00 4.281660e+00 4.355499e-01 3.815176e-01 4.624014e-01 4.719027e-01 6.644724e-01 9.584285e-01 7.798931e-01 7.439403e-01 7.724468e-01 6.521519e-01 5.508905e-01 5.036208e-01 3.395952e-01
<GCONST> 1.273181e+02
<TRANSP> 5
 0.000000e+00 1.000000e+00 0.000000e+00 0.000000e+00 0.000000e+00
 0.000000e+00 5.956774e-01 4.043226e-01 0.000000e+00 0.000000e+00
 0.000000e+00 0.000000e+00 3.558263e-01 6.441737e-01 0.000000e+00
 0.000000e+00 0.000000e+00 0.000000e+00 4.489739e-01 5.510261e-01
 0.000000e+00 0.000000e+00 0.000000e+00 0.000000e+00 0.000000e+00
<ENDHMM>
~h "u"
<BEGINHMM>
<NUMSTATES> 5
<STATE> 2
<MEAN> 39
 3.854357e+00 8.473320e-01 2.115049e+00 -7.351101e+00 -8.380210e+00 6.035437e-01 -1.640532e+01 -6.922455e+00 -6.239707e+00 1.293369e+00 5.121520e+00 -6.806164e+00 6.396544e+01 7.842758e-01 -1.423778e-01 3.604881e-01 -9.063824e-01 -9.100804e-01 1.164361e+00 -1.367367e+00 -7.712418e-01 -6.739874e-01 5.161363e-01 1.244574e+00 -3.064508e-01 5.883486e-01 -2.711239e-01 1.313110e-01 -1.233210e-01 6.240299e-01 2.724208e-01 8.844683e-02 8.305655e-01 3.480925e-01 4.900379e-02 -1.995453e-01 -5.030986e-01 2.189076e-01 -5.227328e-01
<VARIANCE> 39
 1.349166e+01 2.753329e+01 3.528488e+01 6.825670e+01 6.233948e+01 6.307423e+01 7.534486e+01 5.753258e+01 6.656772e+01 5.383720e+01 5.717924e+01 4.516301e+01 1.665378e+01 1.989165e+00 2.608010e+00 3.134686e+00 5.738224e+00 4.960556e+00 5.477143e+00 6.754534e+00 5.182846e+00 5.882460e+00 4.667933e+00 4.884418e+00 3.809949e+00 2.039946e+00 3.081146e-01 4.495083e-01 4.433095e-01 9.220963e-01 9.087213e-01 9.946887e-01 1.119589e+00 1.003093e+00 1.061337e+00 8.887914e-01 8.977414e-01 7.622788e-01 3.081153e-01
<GCONST> 1.347575e+02
<STATE> 3
<MEAN> 39
 4.611998e+00 6.651884e-01 2.256855e+00 -8.183672e+00 -9.968413e+00 4.155207e+00 -1.692636e+01 -7.809220e+00 -7.411095e+00 1.276287e+00 7.029635e+00 -6.925282e+00 6.380866e+01 -1.971131e-02 3.413717e-01 -1.180471e-01 7.504224e-01 3.437212e-01 1.411474e-01 8.865315e-01 3.408744e-01 -7.148028e-02 -2.047308e-01 -7.741394e-01 3.459704e-01 -6.411154e-01 -2.547412e-01 1.118460e-01 -6.034975e-02 5.199589e-01 3.234504e-01 -3.777373e-01 5.500880e-01 2.962843e-01 2.580097e-01 -1.931519e-01 -5.824518e-01 5.696255e-02 -2.831058e-01
<VARIANCE> 39
 8.587087e+00 2.789225e+01 3.314546e+01 7.413763e+01 5.226434e+01 6.044128e+01 6.236689e+01 5.763370e+01 6.176914e+01 5.649504e+01 6.557372e+01 4.903147e+01 1.487033e+01 7.352678e-01 2.199295e+00 1.803541e+00 4.294495e+00 2.985979e+00 3.565727e+00 3.760043e+00 3.420505e+00 4.077788e+00 3.417512e+00 3.322425e+00 3.147455e+00 1.645775e+00 1.945522e-01 3.241723e-01 3.422068e-01 6.220159e-01 5.813617e-01 6.900202e-01 7.462336e-01 7.383765e-01 7.547894e-01 7.032838e-01 6.997755e-01 6.196588e-01 1.734863e-01
<GCONST> 1.240269e+02
<STATE> 4
<MEAN> 39
 3.383877e+00 5.017778e+00 -4.949477e-01 -2.409284e+00 -6.910237e+00 2.641039e+00 -9.647844e+00 -3.681160e+00 -7.167651e+00 -7.019654e-01 1.071276e+00 -2.840267e+00 5.659003e+01 -2.657089e-01 1.941037e-01 -1.056513e-01 8.397110e-01 3.434596e-01 -9.347598e-02 7.199993e-01 3.022634e-01 2.506882e-01 -1.154789e-01 -5.689362e-01 1.430626e-01 -5.854052e-01 -8.123940e-02 -9.786633e-02 3.270140e-02 -7.115515e-02 2.307988e-02 -4.389509e-02 -6.087553e-02 -1.298286e-02 4.029784e-02 2.067994e-02 6.079947e-02 -6.842915e-02 1.072441e-01
<VARIANCE> 39
 1.567166e+01 2.823990e+01 2.438644e+01 7.002992e+01 4.318137e+01 4.362656e+01 5.094320e+01 4.277427e+01 3.996214e+01 3.982991e+01 4.279270e+01 3.496661e+01 3.429290e+01 6.032883e-01 1.198660e+00 1.266939e+00 2.172355e+00 2.086897e+00 2.400741e+00 2.520532e+00 2.476197e+00 2.404988e+00 2.363782e+00 2.401525e+00 2.106125e+00 8.350617e-01 1.104305e-01 1.953661e-01 1.976675e-01 3.669550e-01 3.615722e-01 4.147670e-01 4.475764e-01 4.438842e-01 4.315701e-01 4.443588e-01 3.990825e-01 3.665749e-01 1.184688e-01
<GCONST> 1.102881e+02
<TRANSP> 5
 0.000000e+00 1.000000e+00 0.000000e+00 0.000000e+00 0.000000e+00
 0.000000e+00 4.424180e-01 5.575820e-01 0.000000e+00 0.000000e+00
 0.000000e+00 0.000000e+00 4.725729e-01 5.274271e-01 0.000000e+00
 0.000000e+00 0.000000e+00 0.000000e+00 7.638581e-01 2.361419e-01
 0.000000e+00 0.000000e+00 0.000000e+00 0.000000e+00 0.000000e+00
<ENDHMM>
~h "v"
<BEGINHMM>
<NUMSTATES> 5
<STATE> 2
<MEAN> 39
 7.903662e-04 -6.079456e-01 1.670089e+00 -6.705837e-01 -5.929818e+00 -8.820225e-01 -6.906881e+00 5.931143e-01 -4.574426e+00 -3.940755e-01 -3.854154e-01 -5.847453e+00 5.993814e+01 5.024984e-04 -6.478592e-05 9.522401e-04 -6.048587e-04 -1.305029e-03 -9.148303e-04 -9.999124e-04 -6.995694e-04 3.150678e-04 8.832195e-04 -1.229102e-04 -1.829845e-05 4.304752e-04 -1.024714e-04 5.090495e-05 -4.314321e-05 5.499199e-04 2.475645e-04 2.544455e-04 -3.161734e-04 -1.009587e-04 -7.179174e-05 -5.594532e-04 -1.336834e-04 -6.698545e-06 -3.952787e-04
<VARIANCE> 39
 2.681136e+01 5.325134e+01 6.824250e+01 5.887592e+01 6.062508e+01 6.608533e+01 5.928268e+01 6.068991e+01 5.916120e+01 4.597362e+01 4.705821e+01 4.804106e+01 6.619385e+01 1.372020e+00 2.288023e+00 2.566274e+00 2.987463e+00 3.078158e+00 3.116328e+00 3.250192e+00 3.738113e+00 3.266875e+00 2.829993e+00 2.967949e+00 2.476121e+00 2.021681e+00 2.264445e-01 3.584008e-01 4.122588e-01 5.086471e-01 5.519696e-01 5.562619e-01 5.942494e-01 6.847889e-01 5.904057e-01 5.307208e-01 5.528100e-01 4.553457e-01 3.018115e-01
<GCONST> 1.265182e+02
<STATE> 3
<MEAN> 39
 7.903662e-04 -6.079456e-01 1.670089e+00 -6.705837e-01 -5.929818e+00 -8.820225e-01 -6.906881e+00 5.931143e-01 -4.574426e+00 -3.940755e-01 -3.854154e-01 -5.847453e+00 5.993814e+01 5.024984e-04 -6.478592e-05 9.522401e-04 -6.048587e-04 -1.305029e-03 -9.148303e-04 -9.999124e-04 -6.995694e-04 3.150678e-04 8.832195e-04 -1.229102e-04 -1.829845e-05 4.304752e-04 -1.024714e-04 5.090495e-05 -4.314321e-05 5.499199e-04 2.475645e-04 2.544455e-04 -3.161734e-04 -1.009587e-04 -7.179174e-05 -5.594532e-04 -1.336834e-04 -6.698545e-06 -3.952787e-04
<VARIANCE> 39
 2.681136e+01 5.325134e+01 6.824250e+01 5.887592e+01 6.062508e+01 6.608533e+01 5.928268e+01 6.068991e+01 5.916120e+01 4.597362e+01 4.705821e+01 4.804106e+01 6.619385e+01 1.372020e+00 2.288023e+00 2.566274e+00 2.987463e+00 3.078158e+00 3.116328e+00 3.250192e+00 3.738113e+00 3.266875e+00 2.829993e+00 2.967949e+00 2.476121e+00 2.021681e+00 2.264445e-01 3.584008e-01 4.122588e-01 5.086471e-01 5.519696e-01 5.562619e-01 5.942494e-01 6.847889e-01 5.904057e-01 5.307208e-01 5.528100e-01 4.553457e-01 3.018115e-01
<GCONST> 1.265182e+02
<STATE> 4
<MEAN> 39
 7.903662e-04 -6.079456e-01 1.670089e+00 -6.705837e-01 -5.929818e+00 -8.820225e-01 -6.906881e+00 5.931143e-01 -4.574426e+00 -3.940755e-01 -3.854154e-01 -5.847453e+00 5.993814e+01 5.024984e-04 -6.478592e-05 9.522401e-04 -6.048587e-04 -1.305029e-03 -9.148303e-04 -9.999124e-04 -6.995694e-04 3.150678e-04 8.832195e-04 -1.229102e-04 -1.829845e-05 4.304752e-04 -1.024714e-04 5.090495e-05 -4.314321e-05 5.499199e-04 2.475645e-04 2.544455e-04 -3.161734e-04 -1.009587e-04 -7.179174e-05 -5.594532e-04 -1.336834e-04 -6.698545e-06 -3.952787e-04
<VARIANCE> 39
 2.681136e+01 5.325134e+01 6.824250e+01 5.887592e+01 6.062508e+01 6.608533e+01 5.928268e+01 6.068991e+01 5.916120e+01 4.597362e+01 4.705821e+01 4.804106e+01 6.619385e+01 1.372020e+00 2.288023e+00 2.566274e+00 2.987463e+00 3.078158e+00 3.116328e+00 3.250192e+00 3.738113e+00 3.266875e+00 2.829993e+00 2.967949e+00 2.476121e+00 2.021681e+00 2.264445e-01 3.584008e-01 4.122588e-01 5.086471e-01 5.519696e-01 5.562619e-01 5.942494e-01 6.847889e-01 5.904057e-01 5.307208e-01 5.528100e-01 4.553457e-01 3.018115e-01
<GCONST> 1.265182e+02
<TRANSP> 5
 0.000000e+00 1.000000e+00 0.000000e+00 0.000000e+00 0.000000e+00
 0.000000e+00 6.000000e-01 4.000000e-01 0.000000e+00 0.000000e+00
 0.000000e+00 0.000000e+00 6.000000e-01 4.000000e-01 0.000000e+00
 0.000000e+00 0.000000e+00 0.000000e+00 7.000000e-01 3.000000e-01
 0.000000e+00 0.000000e+00 0.000000e+00 0.000000e+00 0.000000e+00
<ENDHMM>
~h "w"
<BEGINHMM>
<NUMSTATES> 5
<STATE> 2
<MEAN> 39
 -1.846784e+00 3.167600e+00 -2.687626e+00 4.747517e+00 -3.610605e+00 3.656684e+00 -3.293048e+00 1.462341e+00 -2.796791e+00 -1.040742e+00 -1.690686e+00 -1.414314e+00 5.071876e+01 3.002910e-02 1.161839e-01 -4.695423e-02 -3.676980e-02 -5.562150e-02 4.410463e-02 4.942676e-02 1.533953e-02 -1.127738e-01 2.693902e-02 1.274939e-01 1.334468e-01 -1.007572e-01 2.969262e-02 -1.387605e-02 8.299131e-03 -6.825687e-02 -2.068227e-02 -6.533622e-03 -2.447770e-02 -1.536258e-02 -1.453050e-02 2.172388e-03 1.625683e-02 -2.134200e-02 5.311713e-02
<VARIANCE> 39
 9.888952e+00 3.264945e+01 1.600425e+01 2.691474e+01 1.818077e+01 1.846615e+01 2.393418e+01 2.708236e+01 1.939493e+01 2.404807e+01 2.631509e+01 2.210448e+01 2.941299e+01 2.795761e-01 5.998123e-01 7.948312e-01 9.790359e-01 1.033555e+00 1.240017e+00 1.462194e+00 1.553406e+00 1.780743e+00 1.727584e+00 1.513689e+00 1.362059e+00 2.518291e-01 5.513956e-02 1.113577e-01 1.350373e-01 2.203101e-01 1.966795e-01 2.528636e-01 2.991941e-01 3.025163e-01 3.590659e-01 3.362849e-01 2.778432e-01 2.583169e-01 4.688111e-02
<GCONST> 8.938364e+01
<STATE> 3
<MEAN> 39
 5.180499e+00 1.598631e+00 -3.018003e+00 -7.171868e+00 -9.822159e+00 5.857809e+00 -7.103740e+00 -2.545805e+00 -8.173253e+00 6.789207e-01 4.738999e+00 -4.413059e+00 5.951323e+01 7.140269e-01 -9.429084e-01 -2.115600e-01 -2.452230e+00 -2.972713e-01 9.569795e-01 -8.925785e-01 -1.394410e-01 -3.138886e-02 6.642437e-01 1.232274e+00 -8.435023e-01 1.740391e+00 -2.250296e-01 -4.347613e-01 -2.702748e-02 5.125175e-02 3.004949e-01 2.785146e-02 -3.043202e-02 1.820599e-01 4.205299e-01 1.515822e-01 -1.116631e-01 -4.094045e-01 2.229741e-01
<VARIANCE> 39
 1.751145e+01 3.620520e+01 2.391279e+01 9.086149e+01 5.654830e+01 4.828616e+01 4.795006e+01 2.924834e+01 3.338907e+01 3.621969e+01 4.638860e+01 4.134585e+01 4.228916e+01 1.635096e+00 3.518869e+00 1.558927e+00 4.961044e+00 3.028310e+00 3.111475e+00 3.734204e+00 2.768933e+00 3.648065e+00 3.048442e+00 3.459356e+00 4.594007e+00 2.580454e+00 2.793730e-01 3.530543e-01 2.621117e-01 1.139997e+00 4.700043e-01 6.359032e-01 5.498756e-01 4.831959e-01 5.386123e-01 5.076840e-01 7.828345e-01 6.338115e-01 3.118170e-01
<GCONST> 1.246495e+02
<STATE> 4
<MEAN> 39
 4.790383e+00 -4.467462e+00 -3.565502e+00 -1.633444e+01 -6.944085e+00 1.051394e+01 -1.273796e+01 -1.876738e+00 -2.825307e+00 4.544156e+00 6.411499e+00 -1.077382e+01 6.668446e+01 -2.086750e-01 -5.535529e-01 -1.454242e-01 1.045473e-03 5.118011e-01 -1.271743e-01 1.816177e-01 1.843128e-01 4.459808e-01 -1.051635e-01 -3.858139e-01 -5.839242e-01 3.347867e-01 -4.807716e-02 9.065617e-02 4.289611e-02 2.755465e-01 6.330597e-02 -2.107417e-01 1.157599e-01 2.952695e-03 2.923386e-03 -1.350828e-01 -1.567046e-01 6.324293e-02 -1.207620e-01
<VARIANCE> 39
 7.316276e+00 3.198322e+01 1.607280e+01 4.846016e+01 7.533808e+01 6.224123e+01 3.348570e+01 2.996362e+01 3.874761e+01 6.284223e+01 5.879779e+01 6.163466e+01 1.971169e+01 4.609819e-01 2.137238e+00 6.417234e-01 1.572929e+00 1.813414e+00 1.647624e+00 1.422701e+00 1.962296e+00 2.348712e+00 2.003922e+00 2.148205e+00 3.828201e+00 1.273484e+00 6.091649e-02 2.579847e-01 1.209378e-01 3.359594e-01 2.576437e-01 2.981515e-01 2.405608e-01 2.821466e-01 3.228866e-01 3.525374e-01 4.158975e-01 5.395280e-01 1.718710e-01
<GCONST> 1.061009e+02
<TRANSP> 5
 0.000000e+00 1.000000e+00 0.000000e+00 0.000000e+00 0.000000e+00
 0.000000e+00 8.954097e-01 1.045903e-01 0.000000e+00 0.000000e+00
 0.000000e+00 0.000000e+00 7.322335e-01 2.677664e-01 0.000000e+00
 0.000000e+00 0.000000e+00 0.000000e+00 8.377613e-01 1.622387e-01
 0.000000e+00 0.000000e+00 0.000000e+00 0.000000e+00 0.000000e+00
<ENDHMM>
~h "y"
<BEGINHMM>
<NUMSTATES> 5
<STATE> 2
<MEAN> 39
 -2.694749e+00 -2.736797e+00 1.742432e+01 -5.792571e+00 -1.600341e+01 -7.898169e+00 -1.197020e+01 2.907201e+00 -8.894051e+00 -3.448380e+00 6.767844e+00 -6.432741e+00 6.770519e+01 -8.461560e-02 -6.550639e-01 5.804052e-01 -3.896653e-01 -9.522400e-01 -8.207576e-01 -1.093663e-01 9.386040e-01 -5.793723e-02 1.979307e-01 8.399585e-01 3.057795e-01 6.519532e-01 1.370311e-01 -1.679085e-01 -6.466355e-01 9.457187e-02 3.363954e-01 1.069498e-01 1.846375e-01 1.572805e-01 3.419266e-01 1.026261e-01 -3.582480e-01 -1.646958e-01 -4.724038e-02
<VARIANCE> 39
 8.760081e+00 4.451316e+01 5.586848e+01 3.055966e+01 4.184019e+01 4.755393e+01 5.857911e+01 6.504430e+01 6.297541e+01 7.078669e+01 4.578469e+01 3.892787e+01 1.912163e+01 6.397694e-01 2.216456e+00 4.319820e+00 1.748873e+00 2.219462e+00 2.927702e+00 2.938067e+00 4.643844e+00 3.050278e+00 2.613343e+00 2.461081e+00 2.294688e+00 1.215909e+00 7.477593e-02 1.998055e-01 5.047740e-01 2.868841e-01 4.769093e-01 5.097251e-01 4.415989e-01 6.814606e-01 4.835124e-01 4.172881e-01 4.651751e-01 3.634802e-01 9.801562e-02
<GCONST> 1.161729e+02
<STATE> 3
<MEAN> 39
 -1.362488e+00 -8.976315e+00 1.101976e+01 -6.798143e+00 -1.620748e+01 -1.035538e+01 -8.478131e+00 1.136074e+01 -3.420898e+00 -3.134932e+00 5.475412e+00 -7.910271e+00 7.059059e+01 3.528235e-01 -7.172658e-01 -1.562671e+00 5.247708e-02 1.115267e+00 4.336566e-01 6.158417e-01 9.102102e-01 8.465009e-01 -2.073089e-01 -1.426955e+00 -8.178076e-01 1.412492e-01 5.508747e-02 2.027532e-01 -1.185265e-01 1.677358e-01 3.444726e-01 3.236474e-01 -9.385250e-02 -5.208788e-01 -1.097787e-01 6.089685e-02 -2.679508e-01 -8.377936e-02 -2.077673e-01
<VARIANCE> 39
 5.248531e+00 1.989206e+01 2.753189e+01 2.220923e+01 3.936291e+01 4.143673e+01 5.729905e+01 5.112480e+01 4.494323e+01 6.013415e+01 4.599807e+01 3.796757e+01 1.256064e+01 2.713000e-01 1.071224e+00 2.334282e+00 1.091121e+00 1.736605e+00 1.774753e+00 1.759917e+00 3.456675e+00 2.539973e+00 1.821821e+00 2.255803e+00 1.708648e+00 4.868043e-01 5.661428e-02 1.475873e-01 3.146317e-01 1.767531e-01 3.137295e-01 3.340917e-01 3.099279e-01 6.296845e-01 3.215356e-01 3.694075e-01 4.006170e-01 3.447313e-01 8.346573e-02
<GCONST> 1.026532e+02
<STATE> 4
<MEAN> 39
 -6.503435e-01 -3.557721e+00 1.121915e+00 1.178711e-01 -6.547774e+00 -1.618376e+00 -4.363073e+00 5.499132e+00 -2.603105e+00 -2.748880e+00 -2.948638e+00 -5.976677e+00 5.998245e+01 9.856044e-02 1.474413e-01 -4.809732e-01 2.365882e-01 5.297875e-01 4.032787e-01 5.730640e-02 -3.202450e-01 3.563141e-02 1.670055e-01 -3.479674e-01 -1.139028e-02 -3.568591e-01 -1.546938e-04 1.008174e-01 8.333326e-02 3.392546e-02 -4.877739e-02 1.072434e-02 -4.003517e-02 -1.488441e-01 -9.568157e-02 8.542418e-02 1.081125e-01 5.704679e-02 -6.872211e-02
<VARIANCE> 39
 8.952859e+00 5.880468e+01 3.481457e+01 5.067192e+01 3.626601e+01 6.160033e+01 3.308773e+01 5.043950e+01 3.955993e+01 4.614823e+01 3.309123e+01 4.608411e+01 9.766602e+01 3.039945e-01 8.037715e-01 1.495213e+00 1.187618e+00 1.825019e+00 1.642065e+00 1.506286e+00 2.252421e+00 1.881475e+00 1.817102e+00 1.953552e+00 1.576304e+00 4.361764e-01 4.627744e-02 1.717592e-01 2.191923e-01 2.146663e-01 2.407862e-01 3.211024e-01 2.753798e-01 5.282348e-01 3.772079e-01 3.766278e-01 3.159896e-01 2.790176e-01 9.658936e-02
<GCONST> 1.038836e+02
<TRANSP> 5
 0.000000e+00 1.000000e+00 0.000000e+00 0.000000e+00 0.000000e+00
 0.000000e+00 7.405722e-01 2.594278e-01 0.000000e+00 0.000000e+00
 0.000000e+00 0.000000e+00 7.226430e-01 2.773571e-01 0.000000e+00
 0.000000e+00 0.000000e+00 0.000000e+00 7.873690e-01 2.126309e-01
 0.000000e+00 0.000000e+00 0.000000e+00 0.000000e+00 0.000000e+00
<ENDHMM>
~h "z"
<BEGINHMM>
<NUMSTATES> 5
<STATE> 2
<MEAN> 39
 1.296069e+00 1.047622e+01 1.009376e+01 5.278621e+00 -7.227576e+00 -7.853701e+00 -4.213880e+00 -3.346988e+00 -1.051220e+01 -2.211490e+00 -3.846664e-01 -2.328208e+00 5.679510e+01 2.828406e-01 -2.715388e-02 -3.080747e-02 -4.003571e-01 1.831549e-01 8.091682e-01 -8.546201e-01 1.998439e-01 -1.777347e-01 -6.957097e-02 4.543216e-01 -4.359827e-01 6.290195e-02 -9.716780e-02 -1.715466e-01 2.047392e-01 -3.641118e-01 -1.008290e-01 2.883390e-01 2.420745e-02 -2.176351e-02 1.659490e-01 1.241859e-01 -4.229642e-02 -5.287137e-02 1.105005e-01
<VARIANCE> 39
 9.212782e+00 2.315995e+01 2.709415e+01 2.262786e+01 1.362376e+01 1.661707e+01 6.337281e+01 3.261040e+01 3.054632e+01 2.583784e+01 1.616784e+01 2.134452e+01 1.479197e+01 1.055160e+00 3.072910e+00 3.776443e+00 4.086603e+00 1.222698e+00 1.831247e+00 3.308414e+00 2.689353e+00 2.411776e+00 1.956840e+00 2.117779e+00 1.868572e+00 1.131948e+00 1.238338e-01 3.996963e-01 3.483552e-01 1.934029e-01 4.013969e-01 1.859746e-01 2.706707e-01 2.665189e-01 4.201493e-01 2.082042e-01 5.999533e-01 2.750867e-01 6.120401e-02
<GCONST> 1.037205e+02
<STATE> 3
<MEAN> 39
 3.263240e-02 1.758062e+00 1.747612e+01 -1.056603e+01 -7.101138e+00 9.802983e-01 -2.065069e+01 -3.497164e+00 -7.801659e+00 7.684088e+00 -2.874761e-01 -6.465932e+00 6.468996e+01 -2.538119e-02 -1.132591e+00 5.582074e-01 -1.505521e+00 -3.253340e-01 1.554797e+00 -4.315263e-01 -3.924459e-01 4.722971e-01 1.273226e-01 3.953602e-01 5.118057e-02 7.972489e-01 1.561338e-01 6.184730e-02 -6.688458e-01 2.467499e-01 3.733781e-03 -6.505922e-02 3.540170e-01 4.047121e-01 1.143108e-02 -3.651143e-02 -1.707663e-02 2.648686e-02 -1.447324e-01
<VARIANCE> 39
 2.999276e+00 5.092542e+00 8.593567e+01 5.722436e+01 1.938158e+01 9.837954e+01 2.748662e+01 1.608237e+01 5.503320e+01 1.007159e+01 7.263562e+00 2.416212e+01 5.334977e+00 1.181531e+00 2.095232e+00 3.269333e+00 1.861294e+00 2.048137e+00 2.875722e+00 2.945716e+00 1.769030e+00 3.384915e+00 3.311728e+00 2.146418e+00 2.405378e+00 6.678702e-01 6.870461e-02 3.921583e-01 1.297459e-01 3.115123e-01 3.619810e-01 6.460508e-01 6.431489e-01 3.735365e-01 4.075549e-01 5.669977e-01 1.663375e-01 1.650350e-01 8.204937e-02
<GCONST> 1.022367e+02
<STATE> 4
<MEAN> 39
 -1.056036e+00 5.821701e+00 7.857603e+00 -4.195207e+00 -5.575184e+00 9.255924e+00 -8.931246e+00 -1.621851e+00 -5.406909e+00 -3.083646e+00 -6.363434e+00 -6.134315e+00 5.457973e+01 1.736615e-01 2.905893e-01 -4.964986e-01 6.665725e-01 -4.851783e-03 -1.639703e-01 3.147962e-01 -2.066370e-03 3.660252e-02 -2.556468e-01 -3.374407e-02 -7.630131e-02 -3.268099e-01 -8.221237e-03 7.857455e-02 -9.439839e-04 7.166576e-02 2.045625e-02 -5.851223e-02 6.397244e-02 -1.324842e-02 -7.347550e-03 9.868475e-03 1.070965e-02 6.014322e-03 -5.490538e-02
<VARIANCE> 39
 5.090274e+00 3.291454e+01 6.199551e+01 1.021756e+02 8.397434e+00 4.693225e+01 6.025328e+01 1.382784e+01 1.864811e+01 2.825907e+01 2.065288e+01 2.432089e+01 5.437474e+01 3.274818e-01 1.114322e+00 1.200557e+00 1.060085e+00 5.533761e-01 1.409222e+00 1.409677e+00 1.291422e+00 1.278890e+00 1.179404e+00 1.835520e+00 1.938469e+00 4.728448e-01 4.777949e-02 1.850332e-01 1.670725e-01 1.676344e-01 1.066989e-01 2.301296e-01 3.589570e-01 2.705579e-01 2.347017e-01 2.380143e-01 3.255650e-01 1.997167e-01 5.638909e-02
<GCONST> 9.241531e+01
<TRANSP> 5
 0.000000e+00 1.000000e+00 0.000000e+00 0.000000e+00 0.000000e+00
 0.000000e+00 8.179670e-01 1.820330e-01 0.000000e+00 0.000000e+00
 0.000000e+00 0.000000e+00 7.508197e-01 2.491803e-01 0.000000e+00
 0.000000e+00 0.000000e+00 0.000000e+00 9.063276e-01 9.367241e-02
 0.000000e+00 0.000000e+00 0.000000e+00 0.000000e+00 0.000000e+00
<ENDHMM>
~h "aw"
<BEGINHMM>
<NUMSTATES> 5
<STATE> 2
<MEAN> 39
 1.698289e+00 -2.411725e+00 -1.487729e-01 -1.118831e+01 -5.083286e+00 -7.940828e-01 -1.032172e+01 -4.449859e+00 -1.034867e+00 3.128774e+00 2.696538e+00 -7.469477e+00 6.562230e+01 9.812809e-01 -5.399817e-01 5.692937e-01 -1.884132e+00 -1.265533e+00 1.047056e+00 -1.554229e+00 3.552673e-01 -1.181257e-02 8.416742e-01 1.671175e+00 -8.035381e-01 1.693036e+00 1.636508e-01 1.958355e-01 -1.486264e-01 5.191585e-01 -2.011126e-01 5.253495e-01 1.731184e-01 1.440460e-01 -2.911759e-01 -7.093880e-02 -1.726191e-01 3.209844e-01 -5.030926e-01
<VARIANCE> 39
 2.062370e+01 3.531625e+01 1.817480e+01 4.064359e+01 7.234721e+01 5.470516e+01 6.414872e+01 3.079678e+01 8.484999e+01 6.158245e+01 2.455514e+01 3.646434e+01 2.690730e+01 1.987955e+00 1.863146e+00 2.056639e+00 4.206857e+00 4.371097e+00 4.060794e+00 6.783298e+00 2.454338e+00 6.356520e+00 3.349743e+00 2.676526e+00 4.421098e+00 2.865087e+00 6.531851e-01 3.537421e-01 4.515983e-01 5.926221e-01 1.130825e+00 1.125130e+00 1.212483e+00 9.408655e-01 8.260351e-01 7.591070e-01 6.852212e-01 5.600167e-01 3.904478e-01
<GCONST> 1.303579e+02
<STATE> 3
<MEAN> 39
 3.159363e+00 -4.288774e+00 1.499913e+00 -1.177550e+01 -9.651326e+00 2.260817e+00 -1.290566e+01 -4.853391e+00 3.342647e-01 4.248112e+00 5.511248e+00 -8.481001e+00 6.884908e+01 4.224748e-01 5.264722e-01 4.352346e-01 1.016683e+00 -3.253100e-01 6.644610e-01 1.356566e-01 -8.016055e-01 -7.945876e-01 -4.781512e-01 -2.483915e-01 1.335057e+00 -5.644720e-01 -1.182638e-01 3.600859e-01 -3.510510e-02 6.715589e-01 3.925884e-01 -1.805728e-01 2.921694e-01 -1.149087e-01 -1.887793e-02 -2.600486e-01 -5.618992e-01 2.655537e-01 -5.795485e-01
<VARIANCE> 39
 7.975758e+00 3.052324e+01 1.832898e+01 3.333264e+01 4.294376e+01 4.996564e+01 6.561379e+01 5.562045e+01 1.113973e+02 4.913165e+01 2.252765e+01 5.088422e+01 1.720793e+01 8.133233e-01 1.579709e+00 1.757092e+00 2.339839e+00 2.878690e+00 3.551290e+00 3.919479e+00 3.405442e+00 2.745186e+00 4.671162e+00 2.562235e+00 2.861828e+00 1.292773e+00 2.382784e-01 2.347655e-01 2.509618e-01 5.336248e-01 4.936141e-01 5.666569e-01 6.441589e-01 6.798279e-01 9.510970e-01 7.295498e-01 6.397893e-01 6.548623e-01 1.625534e-01
<GCONST> 1.192928e+02
<STATE> 4
<MEAN> 39
 4.947613e+00 -3.276466e-01 1.155993e+00 -5.277963e+00 -1.115393e+01 7.672783e+00 -8.866480e+00 -8.672149e+00 -3.238731e+00 3.469654e+00 2.308543e+00 -2.669077e+00 6.170956e+01 -1.519841e-01 7.495819e-01 -2.378908e-01 1.524152e+00 4.664546e-01 -3.772029e-01 4.797297e-01 5.499785e-01 -5.320951e-03 -1.799853e-01 -7.348467e-01 -4.677096e-02 -1.208203e+00 -2.526118e-01 -1.725295e-01 8.024393e-03 -1.514880e-01 1.030648e-01 -4.823951e-01 4.791856e-02 2.798560e-01 -2.511847e-02 1.492224e-01 1.354248e-01 -2.858521e-01 2.410869e-01
<VARIANCE> 39
 5.290894e+00 2.197736e+01 2.549423e+01 3.413959e+01 3.546532e+01 5.313934e+01 5.896104e+01 4.420112e+01 6.098460e+01 3.922709e+01 3.105681e+01 2.533475e+01 2.107376e+01 4.601468e-01 1.155204e+00 1.957860e+00 2.301543e+00 2.233050e+00 3.165700e+00 1.907420e+00 3.510034e+00 3.252109e+00 2.625032e+00 2.974205e+00 3.340105e+00 1.133065e+00 1.574924e-01 1.866392e-01 3.597675e-01 2.932917e-01 3.569886e-01 6.298568e-01 4.663436e-01 6.792301e-01 6.735775e-01 4.643120e-01 5.730644e-01 6.506500e-01 1.406833e-01
<GCONST> 1.128732e+02
<TRANSP> 5
 0.000000e+00 1.000000e+00 0.000000e+00 0.000000e+00 0.000000e+00
 0.000000e+00 4.891047e-01 5.108953e-01 0.000000e+00 0.000000e+00
 0.000000e+00 0.000000e+00 6.600790e-01 3.399210e-01 0.000000e+00
 0.000000e+00 0.000000e+00 0.000000e+00 7.235181e-01 2.764819e-01
 0.000000e+00 0.000000e+00 0.000000e+00 0.000000e+00 0.000000e+00
<ENDHMM>
~h "ay"
<BEGINHMM>
<NUMSTATES> 5
<STATE> 2
<MEAN> 39
 5.583775e-01 -1.418735e+01 2.434963e+00 -5.571455e+00 -1.033110e+01 -7.067813e+00 -8.910421e+00 1.003606e+01 2.803394e+00 -4.732828e+00 -1.114506e+00 -1.144036e+01 7.220260e+01 -3.403009e-01 -1.919284e-01 1.413153e+00 2.047157e-01 -1.476469e+00 -1.143418e+00 1.781614e-01 1.477415e+00 -6.490025e-01 -6.324147e-01 8.008612e-01 6.458308e-01 1.591411e-01 -3.689744e-03 5.092684e-01 1.837858e-01 7.638388e-02 -2.106959e-02 1.638752e-01 -4.078129e-03 -4.942901e-01 -4.595740e-01 2.303258e-01 3.018352e-01 2.777643e-01 -3.455499e-01
<VARIANCE> 39
 6.195012e+00 1.924874e+01 4.332723e+01 1.771654e+01 4.340957e+01 5.825506e+01 5.001101e+01 5.452555e+01 5.717241e+01 6.078845e+01 4.667621e+01 3.142306e+01 5.887795e+00 4.099447e-01 1.268170e+00 1.932500e+00 1.262723e+00 2.070103e+00 2.391176e+00 1.883427e+00 2.615051e+00 2.129770e+00 2.022712e+00 3.191473e+00 2.133469e+00 4.771895e-01 9.497508e-02 1.882745e-01 3.101317e-01 2.681923e-01 5.136806e-01 4.396228e-01 3.888228e-01 5.452336e-01 4.753515e-01 3.683725e-01 5.297404e-01 3.758075e-01 1.218084e-01
<GCONST> 1.071241e+02
<STATE> 3
<MEAN> 39
 -1.508720e+00 -8.575336e+00 1.478907e+01 -5.772774e+00 -2.008662e+01 -9.997715e+00 -1.277428e+01 1.090981e+01 -5.121218e+00 -6.231832e+00 8.608908e+00 -7.156775e+00 7.007864e+01 9.345210e-02 8.755900e-01 4.909635e-01 3.521096e-01 4.337139e-02 3.782311e-01 -2.905639e-01 -8.708771e-01 -7.824275e-01 2.025490e-01 6.369063e-02 2.483302e-02 -6.538046e-01 1.752240e-01 9.564745e-02 -5.260428e-01 2.379188e-01 5.773877e-01 2.762088e-01 1.481900e-01 -2.390678e-01 1.189125e-01 1.502595e-01 -5.184921e-01 -2.384309e-01 -2.553320e-01
<VARIANCE> 39
 4.132248e+00 1.832948e+01 3.545028e+01 2.292564e+01 3.369226e+01 3.582594e+01 5.847660e+01 3.774170e+01 5.322920e+01 4.957083e+01 3.966722e+01 2.821255e+01 6.210584e+00 4.595672e-01 1.246110e+00 2.976410e+00 1.337739e+00 2.508764e+00 1.390241e+00 2.280007e+00 2.524870e+00 2.597460e+00 1.935367e+00 2.900305e+00 2.233953e+00 7.425047e-01 6.888442e-02 1.876189e-01 2.681331e-01 2.030594e-01 2.972511e-01 3.094686e-01 4.253735e-01 6.359470e-01 4.050789e-01 3.531165e-01 4.105288e-01 3.517476e-01 1.097683e-01
<GCONST> 1.041926e+02
<STATE> 4
<MEAN> 39
 1.051698e+00 -4.263413e+00 9.408726e+00 6.111741e-03 -1.286853e+01 -6.082711e+00 -9.313183e+00 6.194686e+00 -6.417955e+00 -3.549295e+00 2.199116e+00 -6.948125e+00 6.389511e+01 5.483905e-01 9.175351e-01 -1.309255e+00 1.054439e+00 1.225530e+00 1.291824e+00 8.243315e-01 -9.706458e-01 -4.789048e-01 5.855023e-01 -9.701226e-01 -9.229296e-02 -1.416802e+00 -1.111856e-01 -6.876090e-02 -8.114830e-02 -1.395670e-01 -7.567032e-02 9.050677e-04 1.013551e-01 -1.434532e-01 6.717868e-03 -1.187763e-02 4.880544e-02 1.540742e-01 1.002864e-01
<VARIANCE> 39
 7.124746e+00 1.682293e+01 3.588671e+01 2.640549e+01 3.793307e+01 4.010209e+01 6.095643e+01 3.445633e+01 5.742994e+01 3.917921e+01 3.392384e+01 4.366469e+01 1.970761e+01 5.031903e-01 1.265692e+00 1.564476e+00 1.665585e+00 2.105715e+00 2.382825e+00 2.613285e+00 3.681719e+00 2.854068e+00 2.398361e+00 2.524807e+00 2.126215e+00 8.081567e-01 9.832992e-02 2.096012e-01 2.502984e-01 3.374136e-01 3.896464e-01 4.552921e-01 4.906726e-01 5.221199e-01 5.135911e-01 4.280172e-01 3.389816e-01 4.402993e-01 1.255483e-01
<GCONST> 1.091327e+02
<TRANSP> 5
 0.000000e+00 1.000000e+00 0.000000e+00 0.000000e+00 0.000000e+00
 0.000000e+00 7.620577e-01 2.379423e-01 0.000000e+00 0.000000e+00
 0.000000e+00 0.000000e+00 7.587604e-01 2.412396e-01 0.000000e+00
 0.000000e+00 0.000000e+00 0.000000e+00 6.796178e-01 3.203822e-01
