\data\
ngram 1=1318
ngram 2=4291

\1-grams:
-99.999	!ENTER	-0.4696
-3.4737	<a>	-0.2962
-3.7747	<aku>	-0.3010
-3.7747	<an>	-0.3007
-3.7747	<anna>	-0.3001
-3.7747	<bawa>	-0.3007
-3.7747	<belar>	-0.3010
-3.7747	<bu>	-0.3002
-3.7747	<dam>	-0.3009
-3.7747	<diga>	-0.3009
-3.7747	<digantik>	-0.3010
-3.7747	<ding>	-0.2987
-3.7747	<dizni>	-0.3009
-3.7747	<dura>	-0.3010
-3.7747	<e>	-0.3008
-3.4737	<hem>	-0.3007
-3.7747	<jika>	-0.2906
-3.7747	<kantu>	-0.2963
-3.7747	<kayak>	-0.3009
-3.4737	<kenapa>	-0.3008
-3.7747	<kerjakn>	-0.2970
-3.4737	<kita>	-0.3009
-3.7747	<komputil>	-0.3010
-3.7747	<lib>	-0.2997
-3.7747	<misalnya>	-0.3010
-3.7747	<na>	-0.3010
-3.7747	<nyai>	-0.3010
-3.7747	<per>	-0.2976
-3.7747	<perusaan>	-0.3004
-3.7747	<sapa>	-0.3008
-3.7747	<se>	-0.2985
-3.7747	<ta>	-0.3010
-3.7747	<tata>	-0.3010
-3.7747	<teb>	-0.3008
-3.7747	<terkonn>	-0.2988
-3.7747	<tidak>	-0.3007
-3.7747	<u>	-0.2990
-3.7747	<ya>	-0.2995
-3.2976	a	-0.2429
-3.2976	abis	-0.2366
-2.0344	ada	-0.3011
-2.8716	adalah	-0.2986
-3.7747	adanya	-0.3006
-2.9966	adegan	-0.3679
-3.7747	aduk	-0.3007
-3.2976	agak	-0.4765
-3.4737	agama	-0.5442
-2.6286	ah	-0.4187
-3.7747	ahsiap	-0.2432
-3.7747	air	-0.2992
-2.3276	aja	-0.4668
-3.7747	ajak	-0.2970
-2.4525	akan	-0.3743
-3.0758	akhir	-0.3335
-3.0758	akhirnya	-0.2975
-3.7747	aksinya	-0.2993
-3.7747	aktor	-0.2432
-1.6255	aku	-0.3638
-3.4737	ala	-0.3007
-3.0758	alat	-0.3972
-3.4737	alatnya	-0.2940
-3.7747	alias	-0.3010
-3.7747	alternatif	-0.2999
-3.4737	alur	-0.6014
-3.7747	alurnya	-0.2997
-3.7747	aman	-0.2948
-2.9296	amerika	-0.2863
-2.9966	anak	-0.2995
-3.7747	anaknya	-0.2992
-3.7747	analisa	-0.3010
-3.7747	ancur	-0.2976
-3.7747	anggota	-0.2999
-3.7747	angkasa	-0.2985
-3.7747	angle	-0.3010
-3.7747	ann	-0.2432
-2.6608	annelies	-0.3365
-3.1727	antara	-0.2993
-2.8205	antman	-0.3413
-3.7747	antri	-0.3002
-2.2976	apa	-0.5239
-3.2976	apa-apa	-0.2267
-3.7747	apakah	-0.2945
-3.2976	apalagi	-0.2972
-3.7747	apapun	-0.3004
-3.4737	aplikasi	-0.6019
-3.7747	asem	-0.2432
-3.7747	asgard	-0.2970
-3.7747	aslinya	-0.2922
-3.7747	assasin	-0.2993
-3.7747	atas	-0.3010
-2.8205	atau	-0.2851
-3.7747	atur	-0.3009
-3.0758	avenger	-0.3249
-3.7747	avengers	-0.3008
-3.7747	awal	-0.3007
-3.4737	awal-awal	-0.2990
-3.7747	awalnya	-0.3010
-3.7747	awan	-0.2993
-3.7747	awas	-0.2980
-3.7747	ayahnya	-0.2996
-3.7747	ayam	-0.3010
-3.7747	ayo	-0.3010
-3.4737	ayok	-0.2999
-3.7747	ayuk	-0.2432
-3.2976	b	-0.2394
-2.8716	baca	-0.5968
-3.7747	baca-baca	-0.3010
-3.7747	backpacker	-0.2995
-3.7747	badannya	-0.2997
-2.7333	bagaimana	-0.3675
-3.7747	bagi-bagi	-0.3003
-3.1727	bagian	-0.2858
-3.7747	bagianku	-0.2980
-3.7747	bagimu	-0.3000
-2.9296	bagus	-0.4703
-3.7747	bahagia	-0.2963
-3.4737	bahas	-0.5996
-2.9966	bahasa	-0.3743
-3.4737	bahkan	-0.2983
-3.4737	bahwa	-0.2912
-2.7333	baik	-0.3500
-3.7747	baik-baik	-0.2995
-3.1727	baiklah	-0.3622
-3.4737	baiknya	-0.2387
-3.7747	bak	-0.3010
-2.9296	bakal	-0.2941
-3.4737	bali	-0.2427
-2.9296	balik	-0.8391
-3.2976	ban	-0.4191
-2.1026	banget	-0.5623
-3.7747	bangunan-bangunan	-0.3002
-3.7747	bantuan	-0.2997
-3.7747	bantuannya	-0.2432
-2.4960	banyak	-0.4392
-3.7747	bapaknya	-0.3004
-3.4737	bareng	-0.2938
-3.7747	bareng-bareng	-0.3005
-3.7747	barnes	-0.2980
-2.6956	baru	-0.3581
-3.7747	basah	-0.2432
-3.7747	basi	-0.3004
-3.4737	batas	-0.6017
-3.1727	batu	-0.5962
-3.7747	bau	-0.2993
-3.7747	baunya	-0.3010
-3.0758	bawakan	-0.3861
-3.4737	bayar	-0.2996
-3.0758	bayarin	-0.3728
-3.4737	bayi	-0.2424
-3.4737	bebas	-0.2411
-3.2976	beberapa	-0.2970
-3.7747	begini	-0.3006
-2.9966	begitu	-0.3072
-3.2976	belajar	-0.2386
-3.4737	belakang	-0.3008
-2.8205	belanda	-0.2792
-3.2976	belas	-0.2385
-3.1727	beli	-0.4157
-2.5195	belum	-0.3287
-2.8716	benar	-0.4248
-3.4737	benar-benar	-0.3004
-3.7747	benarnya	-0.2971
-2.8205	bener	-0.5866
-3.4737	bener-bener	-0.5999
-3.7747	beneran	-0.2971
-3.7747	bensin	-0.2971
-3.7747	berada	-0.3001
-3.7747	berandalan	-0.2993
-3.4737	berangkat	-0.2991
-3.7747	berani	-0.3001
-3.7747	berantem	-0.3010
-3.2976	berapa	-0.2373
-3.7747	berargumen	-0.2993
-3.2976	berarti	-0.2916
-3.4737	berbagai	-0.3008
-3.7747	berbeda	-0.2432
-3.7747	berbuat	-0.3010
-3.7747	bercanda	-0.2995
-3.7747	berdekatan	-0.2432
-3.7747	berdiri	-0.2963
-3.7747	berdua	-0.3007
-3.7747	bergabung	-0.2432
-3.7747	bergaya	-0.3009
-3.7747	berharapnya	-0.2963
-3.1727	berhasil	-0.2962
-3.7747	beringas	-0.2985
-3.7747	beristirahat	-0.3006
-3.7747	berjalan	-0.2993
-3.4737	berjuang	-0.3008
-3.7747	berkeliling	-0.3010
-3.2976	berkesan	-0.2780
-3.7747	berkunjung	-0.2976
-3.7747	berkurang	-0.3010
-3.7747	berlatar	-0.3009
-3.4737	berlibur	-0.5986
-3.7747	bermain	-0.3007
-3.7747	berperasaan	-0.2948
-3.7747	bersama	-0.2980
-3.7747	bersama-sama	-0.2432
-3.7747	bersamurai	-0.2432
-3.1727	bersepeda	-0.2322
-3.7747	berspekulasi	-0.3007
-3.7747	bersyukur	-0.2976
-3.7747	bertanya	-0.3007
-3.7747	bertemu	-0.2945
-3.7747	bertiga	-0.2432
-3.7747	beruntung	-0.2990
-3.7747	beruntungnya	-0.3004
-3.7747	berwibawa	-0.2432
-3.7747	besar	-0.3002
-3.7747	besok	-0.2970
-3.2976	biar	-0.2883
-3.4737	biasanya	-0.3007
-3.7747	bicara	-0.3009
-3.7747	bicarain	-0.3010
-3.7747	bijinya	-0.3010
-2.9966	bikin	-0.3607
-3.2976	bilang	-0.2956
-3.1727	bingung	-0.3633
-2.2307	bisa	-0.2809
-3.7747	bocor	-0.2978
-3.7747	bohong	-0.2432
-2.6608	boleh	-0.3293
-3.4737	bookmyshow	-0.2430
-3.4737	bramantyo	-0.2428
-3.0758	buah	-0.3382
-3.7747	buahnya	-0.3004
-2.5195	buat	-0.4135
-2.9966	bud	-0.4155
-3.7747	budaya	-0.2999
-3.2976	buka	-0.2377
-3.2976	bukan	-0.2956
-3.4737	bukankah	-0.2992
-3.4737	bukannya	-0.2938
-3.7747	bukti	-0.2432
-3.1727	buku	-0.2960
-2.9966	bukunya	-0.4103
-2.9966	bumi	-0.4750
-3.7747	bunuh	-0.3010
-3.7747	butuh	-0.3002
-3.4737	c	-0.2419
-3.7747	cabut	-0.2999
-3.7747	campur	-0.3010
-3.7747	canggih	-0.2993
-3.4737	cantik	-0.2393
-3.7747	cape	-0.2992
-3.7747	cara	-0.3007
-3.7747	caranya	-0.2997
-3.7747	cari	-0.3010
-3.7747	celananya	-0.3010
-3.4737	cemilan	-0.2429
-3.7747	cengeng	-0.2993
-3.1727	cepat	-0.2378
-3.4737	cepat-cepat	-0.2969
-3.7747	cerdas	-0.2978
-2.8205	cerita	-0.3323
-3.7747	ceritain	-0.3008
-3.1727	ceritanya	-0.3667
-3.7747	chat	-0.2963
-3.7747	cia	-0.2432
-3.7747	cium	-0.3001
-3.1727	coba	-0.2899
-3.7747	cobain	-0.3000
-3.2976	cocok	-0.2943
-3.4737	cokelat	-0.6019
-3.7747	contohnya	-0.2432
-3.7747	cui	-0.2432
-2.9966	cukup	-0.3745
-3.1727	cuma	-0.2993
-2.8205	cuman	-0.2890
-3.7747	cumi	-0.3002
-3.7747	daerah	-0.3010
-3.7747	daging	-0.3010
-3.7747	dah	-0.2432
-2.6608	dalam	-0.4098
-2.1313	dan	-0.2578
-3.1727	dapat	-0.3002
-3.2976	dapet	-0.2998
-3.7747	dapetin	-0.3000
-2.3768	dari	-0.4327
-3.7747	daripada	-0.2945
-3.1727	dasar	-0.8965
-3.7747	datang	-0.2979
-3.2976	daya	-0.2920
-2.4737	deh	-0.4397
-2.9966	dekat	-0.2912
-3.4737	demi	-0.3008
-2.3945	dengan	-0.3275
-3.4737	dengar	-0.6002
-3.2976	depan	-0.2954
-3.2976	desain	-0.4676
-3.4737	detail	-0.3005
-1.9686	di	-0.5619
-2.3276	dia	-0.3145
-3.7747	diacungi	-0.3010
-3.7747	diakui	-0.3009
-3.4737	dialog-dialog	-0.3008
-3.7747	diambil	-0.2992
-3.7747	dianggap	-0.3009
-3.4737	diantara	-0.3005
-3.7747	dibajak	-0.3009
-3.7747	dibanding	-0.3008
-3.7747	dibawakan	-0.3007
-3.2976	dibikin	-0.4763
-3.4737	dibilang	-0.3008
-3.4737	dibuat	-0.2965
-3.7747	diceritain	-0.2998
-3.7747	dicintai	-0.2432
-3.7747	dicobain	-0.2976
-3.7747	difilmkan	-0.2432
-3.4737	digambarin	-0.2979
-3.7747	digantikan	-0.2993
-3.7747	diimplementasiin	-0.2980
-3.7747	dikatain	-0.3007
-3.7747	dikerjakan	-0.2432
-3.7747	dikombinasikan	-0.2993
-3.7747	dikunyah	-0.2432
-3.7747	dilain	-0.3008
-3.7747	dilakuin	-0.2980
-3.7747	dilihat	-0.2992
-3.7747	diluar	-0.3010
-3.1727	dimana	-0.2264
-3.7747	dimulai	-0.2971
-3.0758	din	-0.9422
-3.7747	dinikmati	-0.2963
-3.7747	diperintah	-0.2978
-3.7747	dipersiapkan	-0.2432
-3.7747	dipimpin	-0.3004
-3.7747	diramalin	-0.2998
-3.7747	dirasakan	-0.3002
-3.7747	diri	-0.2990
-3.7747	disana	-0.2993
-3.7747	disangka	-0.2985
-3.7747	disangka-sangka	-0.2968
-3.7747	diselamatin	-0.2980
-3.7747	diselamatkan	-0.3007
-3.7747	diselingi	-0.2993
-3.7747	disesuaiin	-0.3007
-3.7747	disiapkan	-0.3000
-3.7747	disini	-0.3009
-3.7747	disisipi	-0.3010
-3.4737	disitu	-0.2403
-3.7747	disuguhin	-0.3009
-3.7747	disuruh	-0.3008
-3.7747	ditakdirkan	-0.3000
-3.7747	ditambal	-0.2432
-3.7747	ditampilkan	-0.3008
-3.7747	ditolongin	-0.2980
-3.7747	diving	-0.2432
-3.7747	do	-0.2432
-3.7747	doang	-0.2997
-3.2976	dokter	-0.3008
-2.6956	dong	-0.4530
-3.4737	dosen	-0.2430
-3.4737	dosennya	-0.3005
-3.7747	drama	-0.2922
-2.6956	dua	-0.4151
-3.4737	duit	-0.2905
-2.7747	dulu	-0.4510
-3.0758	duluan	-0.3365
-2.6286	dunia	-0.5390
-3.7747	durasinya	-0.3002
-2.7333	durian	-0.4233
-3.1727	efek	-0.6015
-2.2696	eh	-0.4020
-3.7747	ekspektasi	-0.2968
-3.1727	emang	-0.2998
-3.4737	empat	-0.3007
-2.3598	enak	-0.5437
-3.4737	enakan	-0.3002
-3.7747	enam	-0.3001
-3.2976	endgame	-0.2415
-3.7747	energinya	-0.3000
-3.1727	engga	-0.2375
-2.5443	enggak	-0.3766
-2.8205	es	-0.7775
-3.7747	fa	-0.2432
-3.7747	fase-fase	-0.3009
-2.2562	film	-0.5227
-3.7747	film-film	-0.2432
-2.8716	filmnya	-0.2318
-3.1727	fis	-0.5406
-3.7747	full	-0.2432
-2.3123	ga	-0.3442
-3.7747	gabisa	-0.3009
-3.7747	gabung	-0.2993
-3.2976	gagal	-0.2976
-3.7747	gaji	-0.3007
-2.8205	gak	-0.4694
-3.7747	galak	-0.3006
-3.7747	galau	-0.2993
-3.7747	gambarnya	-0.2922
-3.7747	gamma	-0.2432
-3.7747	gampang	-0.2997
-3.7747	ganti	-0.3010
-3.7747	gapapa	-0.2995
-3.7747	gara-gara	-0.2906
-3.4737	gaya	-0.2977
-3.7747	gede	-0.3010
-3.7747	gedung	-0.3002
-3.7747	gerbang	-0.3007
-3.7747	gestur	-0.3009
-2.8716	gi	-0.5374
-3.4737	gila	-0.2963
-3.7747	gili	-0.3009
-2.5195	gimana	-0.4357
-3.7747	gini	-0.2990
-2.4130	gitu	-0.6268
-3.7747	gitu-gitu	-0.2906
-3.7747	gombalnya	-0.2432
-3.7747	gua	-0.3010
-3.7747	gundik	-0.2432
-3.7747	ha	-0.2971
-3.2976	habis	-0.2958
-3.7747	habisin	-0.3003
-3.7747	haduh	-0.3008
-2.7747	haha	-0.9377
-2.8716	hahaha	-0.5346
-3.7747	hahahaha	-0.2432
-3.7747	hai	-0.3007
-3.7747	hak	-0.2922
-3.7747	hak-haknya	-0.3007
-3.4737	hal	-0.2914
-3.7747	halah	-0.3007
-3.4737	hampir	-0.3002
-3.7747	hank	-0.3010
-3.4737	hanung	-0.6019
-2.8716	hanya	-0.4141
-3.7747	harganya	-0.3006
-2.9966	hari	-0.5378
-2.9966	harry	-0.2311
-2.7333	harus	-0.3363
-3.7747	hati	-0.2922
-3.7747	hawkeye	-0.2981
-3.4737	hedon	-0.2969
-2.6608	hehe	-0.7383
-3.7747	hei	-0.3010
-3.7747	hemat	-0.2978
-3.0758	hidup	-0.2806
-3.7747	hidupnya	-0.2432
-3.4737	hingga	-0.3008
-3.7747	hiruk-pikuk	-0.3010
-3.4737	hmm	-0.5442
-3.7747	hobi	-0.3009
-3.7747	hobiku	-0.3004
-3.2976	hobimu	-0.2946
-3.1727	hulk	-0.2856
-3.4737	ia	-0.2991
-3.4737	ibu	-0.2977
-3.4737	ide	-0.2865
-3.7747	ijo	-0.2979
-3.7747	ikan	-0.2978
-2.5706	ikut	-0.3468
-3.7747	ikut-ikut	-0.2995
-3.7747	imajinasinya	-0.2954
-3.7747	indah	-0.2432
-3.7747	indianya	-0.2954
-3.7747	indonesia	-0.3008
-3.7747	ingat	-0.2971
-3.7747	ingat-ingat	-0.2985
-3.2976	inget	-0.2415
-3.1727	ingin	-0.2991
-2.1515	ini	-0.4033
-3.7747	inisiasi	-0.2997
-3.7747	inspirasi	-0.2976
-3.7747	insyaallah	-0.2432
-3.7747	internet	-0.2432
-3.7747	intinya	-0.2990
-3.0758	iqbal	-0.2910
-3.7747	iri	-0.2995
-3.7747	iron	-0.3010
-3.7747	isi	-0.3010
-3.7747	istri	-0.3006
-3.7747	itb	-0.2432
-1.8939	itu	-0.2993
-2.0423	iya	-0.4300
-2.1727	jadi	-0.3040
-3.7747	jadinya	-0.2992
-3.7747	jadwal	-0.3010
-3.7747	jahat	-0.3010
-2.9296	jalan	-0.2374
-3.2976	jalan-jalan	-0.2383
-2.6608	jam	-0.3584
-3.7747	jaman	-0.3003
-3.4737	jamin	-0.2979
-2.9296	jangan	-0.4442
-3.7747	jaraknya	-0.3002
-3.4737	jarang	-0.2957
-3.0758	jauh	-0.2299
-3.2976	jawa	-0.4650
-3.7747	jelas	-0.2990
-3.2976	jelaskan	-0.2974
-3.7747	jelek	-0.2971
-3.7747	jempol	-0.2432
-3.4737	jen	-0.5442
-3.7747	jenguk	-0.3002
-3.4737	jenisnya	-0.3007
-3.7747	jenius	-0.3009
-3.7747	jenjang	-0.3009
-3.7747	jepang	-0.2993
-3.2976	jika	-0.2943
-3.7747	jiwa	-0.3010
-3.7747	jo	-0.2432
-3.2976	joker	-0.2949
-2.7333	joni	-0.4969
-3.7747	josep	-0.2993
-3.7747	jual	-0.3001
-2.8716	jualan	-0.9017
-2.0423	juga	-0.3295
-3.7747	jujur	-0.2980
-3.7747	jumpa	-0.3008
-3.4737	jus	-0.2952
-3.7747	juta	-0.3010
-3.7747	kabar	-0.3009
-3.7747	kabari	-0.3010
-3.7747	kabarmu	-0.2432
-3.7747	kabur	-0.2432
-3.7747	kacau	-0.2980
-3.4737	kadang	-0.3005
-3.7747	kafe	-0.3007
-3.4737	kaget	-0.2431
-3.7747	kagum	-0.2998
-3.0758	kakek	-0.3255
-3.7747	kakek-kakek	-0.2999
-3.7747	kaki	-0.3002
-2.1515	kalau	-0.4588
-3.2976	kali	-0.2977
-2.8205	kalian	-0.2842
-2.7747	kalo	-0.4361
-3.4737	kami	-0.3005
-2.9966	kampung	-0.3152
-3.7747	kampungnya	-0.2980
-2.9966	kampus	-0.5418
-1.8253	kamu	-0.3062
-2.2307	kan	-0.2858
-3.7747	kantin	-0.2432
-3.7747	kapal	-0.3001
-3.4737	kapan	-0.2977
-2.8205	kapten	-0.9536
-2.9966	karakter	-0.4754
-3.4737	karang	-0.6019
-2.5195	karena	-0.2812
-2.9296	karna	-0.2760
-3.7747	kasar	-0.2978
-2.8716	kasih	-0.2905
-3.4737	kasihan	-0.2946
-3.1727	kata	-0.4250
-3.2976	katanya	-0.3002
-2.9296	kau	-0.3572
-3.7747	kawan-kawannya	-0.2954
-3.4737	kaya	-0.2431
-2.9296	kayak	-0.3576
-2.9966	kayaknya	-0.3621
-3.4737	kayanya	-0.2988
-2.1026	ke	-0.4735
-3.7747	keadaan	-0.3006
-3.7747	keadaannya	-0.3010
-3.7747	keadilan	-0.2963
-3.7747	kebanggannya	-0.3010
-3.7747	kebanyakan	-0.3009
-3.4737	kebayang	-0.2942
-3.7747	kebetulan	-0.2992
-3.7747	kecantikanmu	-0.2432
-3.7747	kecil	-0.2999
-3.4737	kedua	-0.2941
-3.7747	keduanya	-0.2954
-3.7747	kegedean	-0.2432
-3.7747	kehadiran	-0.3009
-3.1727	kehidupan	-0.2367
-3.7747	kehilangan	-0.3010
-2.9296	kejadian	-0.3547
-3.4737	kejahatan	-0.2378
-3.7747	kekalutan	-0.3010
-3.7747	kelahirannya	-0.3004
-3.7747	kelar	-0.2432
-2.5706	kelas	-0.3494
-3.7747	kelasnya	-0.3007
-3.7747	kelihatan	-0.2999
-3.7747	kelihatannya	-0.2998
-2.9966	kelompok	-0.3178
-3.4737	keluar	-0.2957
-3.7747	keluar-keluar	-0.2980
-3.7747	keluarga	-0.2995
-3.7747	keluguan	-0.3001
-2.8716	kemana	-0.3530
-3.7747	kemana-mana	-0.2948
-2.9296	kemaren	-0.2933
-3.4737	kemarin	-0.2397
-3.2976	kembali	-0.4191
-3.7747	kemudian	-0.2963
-3.7747	kemungkinan	-0.3005
-3.1727	kena	-0.6005
-3.0758	kenapa	-0.2290
-3.4737	kenyang	-0.2425
-3.7747	kepada	-0.3004
-3.2976	kepentingan	-0.2966
-3.7747	kepuasan	-0.2997
-3.7747	keras	-0.3007
-3.4737	kerbau	-0.2963
-3.7747	kerbaunya	-0.2432
-3.1727	keren	-0.2318
-3.7747	keren-keren	-0.2970
-3.7747	kerja	-0.2432
-3.4737	kerjaan	-0.2941
-3.7747	kerjain	-0.2988
-3.2976	kerjakan	-0.2962
-3.7747	kerusakan	-0.2432
-3.4737	kesana	-0.2430
-3.7747	kesedihannya	-0.2968
-3.4737	kesel	-0.2943
-3.7747	keseluruhan	-0.3005
-3.7747	kesempatan	-0.2954
-3.4737	ketagihan	-0.2415
-3.7747	ketawa	-0.2432
-3.7747	ketempat	-0.2922
-3.4737	ketemu	-0.2954
-3.7747	ketiga	-0.2997
-3.7747	ketika	-0.2945
-3.7747	kevin	-0.2432
-3.4737	khas	-0.6002
-3.7747	khawatir	-0.2906
-3.7747	kikuk	-0.2993
-3.7747	kilometer	-0.2432
-3.4737	king	-0.2430
-3.7747	kini	-0.2432
-3.7747	kira	-0.2996
-3.2976	kira-kira	-0.4169
-3.4737	kit	-0.5442
-2.0344	kita	-0.3768
-3.7747	klimaks	-0.2992
-2.4525	kok	-0.5366
-3.7747	kolonial	-0.3006
-3.4737	kolonialisme	-0.2972
-3.7747	kombinasi	-0.3007
-3.7747	komedi	-0.2981
-3.4737	komposisi	-0.3007
-3.7747	komputasi	-0.3010
-3.7747	komunikasi	-0.3002
-3.7747	konspirasi	-0.2922
-3.7747	kopinya	-0.2971
-3.7747	kota	-0.2993
-3.7747	kotanya	-0.2981
-3.0758	krim	-0.3284
-3.4737	krimnya	-0.5442
-3.7747	kru	-0.3009
-3.7747	ku	-0.3010
-3.1727	kuantum	-0.3612
-3.7747	kuantumnya	-0.2954
-3.1727	kuat	-0.2303
-3.4737	kuliah	-0.6018
-3.7747	kulit	-0.3010
-3.7747	kumpul	-0.3009
-3.7747	kunci	-0.2971
-3.7747	kunjungi	-0.3010
-3.4737	kurang	-0.2998
-3.7747	kutipan	-0.3010
-2.2307	lagi	-0.2792
-3.7747	lagian	-0.3002
-3.7747	lagu	-0.3009
-2.9296	lah	-0.3679
-2.8205	lain	-0.3880
-3.1727	lainnya	-0.8453
-3.7747	lakukan	-0.2432
-2.9296	lalu	-0.6088
-3.4737	lama	-0.2415
-3.7747	lambat	-0.2978
-3.7747	lambung	-0.2432
-2.8205	langsung	-0.3489
-3.2976	lanjut	-0.4706
-3.7747	lanjutannya	-0.2971
-3.7747	lanjutin	-0.3004
-3.7747	lapangan	-0.2432
-3.0758	laper	-0.6915
-3.7747	latar	-0.3009
-3.4737	laut	-0.5442
-2.6608	lebih	-0.2963
-3.7747	lelah	-0.2954
-3.7747	lewat	-0.3009
-3.7747	li	-0.2432
-3.7747	liatnya	-0.2997
-3.7747	libur	-0.2963
-2.6286	liburan	-0.5292
-3.7747	lihat	-0.2970
-2.8716	lima	-0.7258
-3.7747	lin	-0.2432
-3.4737	line	-0.2917
-3.0758	loh	-0.2855
-3.7747	lokasi	-0.3009
-3.7747	loki	-0.2432
-3.0758	lombok	-0.3325
-3.7747	luas	-0.2992
-2.8716	lucu	-0.4094
-3.7747	lumayan	-0.3007
-2.9296	lupa	-0.3511
-3.2976	maaf	-0.2936
-3.2976	maap	-0.2939
-3.2976	mah	-0.2977
-3.2976	mahal	-0.2976
-3.7747	mahkamah	-0.3009
-2.4130	makan	-0.3384
-3.1727	makan-makan	-0.3679
-2.9966	makanan	-0.4116
-3.4737	makanannya	-0.6002
-3.7747	makannya	-0.3009
-3.7747	makanya	-0.3008
-3.7747	makasih	-0.2978
-3.2976	makhluk	-0.4679
-3.7747	makin	-0.2991
-3.2976	maksudnya	-0.7203
-2.9296	malah	-0.3625
-3.0758	malam	-0.2239
-3.7747	males	-0.2432
-3.4737	mall	-0.2982
-3.7747	mama	-0.2976
-3.1727	mamanya	-0.3639
-3.7747	mampir	-0.2976
-3.7747	mampu	-0.3008
-3.7747	man	-0.3002
-3.1727	mana	-0.3587
-3.7747	manggil	-0.3007
-3.4737	manis	-0.2971
-3.1727	mantap	-0.5403
-3.7747	mantep	-0.2432
-2.9296	manusia	-0.2832
-3.7747	marah	-0.2981
-3.7747	mari	-0.3010
-3.4737	mark	-0.5442
-3.7747	martabak	-0.2991
-3.4737	marvel	-0.2421
-3.4737	mas	-0.2430
-2.8205	masa	-0.5509
-3.4737	masalah	-0.2384
-2.5443	masih	-0.4065
-2.8205	masuk	-0.4032
-3.7747	masyarakat	-0.2922
-3.4737	mata	-0.6019
-3.7747	matematik	-0.2993
-3.7747	materi	-0.2963
-3.2976	mati	-0.2896
-2.2562	mau	-0.4051
-3.7747	maunya	-0.2993
-3.7747	melalui	-0.3010
-3.4737	melanjutkan	-0.3007
-3.4737	melelahkan	-0.5442
-3.7747	meleleh	-0.2976
-3.7747	melihat	-0.2996
-3.7747	memainkan	-0.3006
-3.7747	memaksa	-0.3004
-3.7747	memancing	-0.2945
-3.7747	memanen	-0.3009
-2.9966	memang	-0.2977
-3.4737	memangnya	-0.2357
-3.7747	memaparkan	-0.3004
-3.7747	memarkirkan	-0.3009
-3.2976	membantu	-0.2975
-3.7747	membasmi	-0.3009
-3.7747	membawakan	-0.3006
-3.7747	memberi	-0.3002
-3.7747	membicarakan	-0.3010
-2.8205	membuat	-0.4735
-3.7747	memenangkan	-0.3008
-3.7747	memerangi	-0.3009
-3.7747	memerintah	-0.2432
-3.4737	memiliki	-0.3008
-3.7747	memperjuangkan	-0.3010
-3.7747	memperlihatkan	-0.2996
-3.7747	mempertahankan	-0.3010
-3.7747	memvisualisasikan	-0.3010
-3.7747	menambah	-0.3010
-3.7747	menambal	-0.3008
-3.7747	menanam	-0.3009
-3.2976	menarik	-0.2881
-3.7747	menceritakan	-0.3007
-3.4737	mendapatkan	-0.3009
-3.4737	mending	-0.2968
-3.7747	mendorong	-0.3007
-3.7747	menebaknya	-0.2432
-3.7747	menemukan	-0.3008
-3.7747	mengalahkan	-0.3004
-3.7747	menganggap	-0.3010
-3.7747	mengantarmu	-0.3009
-3.7747	mengarahkan	-0.3010
-3.7747	mengayuhkan	-0.3009
-3.7747	mengelilingi	-0.3010
-3.4737	mengendarai	-0.6018
-3.2976	mengerjakan	-0.4762
-3.7747	mengetahui	-0.3007
-3.7747	menggambarkan	-0.3002
-3.4737	menggunakan	-0.3002
-3.7747	menghadapi	-0.3010
-3.7747	menghasilkan	-0.3008
-3.4737	menguap	-0.2395
-3.4737	menguasai	-0.2994
-3.7747	mengucapkan	-0.3010
-3.7747	meninggal	-0.2963
-3.0758	menit	-0.3309
-3.1727	menjadi	-0.2999
-3.7747	menjadikan	-0.2986
-3.7747	menjalani	-0.3007
-3.7747	menjawab	-0.2432
-3.4737	menjenguk	-0.6013
-3.7747	menunjukkan	-0.3010
-3.7747	menuntun	-0.3007
-2.8716	menurut	-0.7098
-3.4737	menurutku	-0.2988
-3.7747	menyarankan	-0.3000
-3.7747	menyatu	-0.3007
-3.4737	menyelam	-0.2431
-3.7747	menyenangkan	-0.2948
-3.7747	menyengat	-0.2976
-2.3768	mereka	-0.3118
-3.4737	merendah	-0.2959
-2.9966	meskipun	-0.2954
-3.7747	mewah	-0.2432
-3.7747	mewek	-0.2432
-3.7747	mi	-0.3010
-3.7747	mikir	-0.3008
-3.7747	mikirnya	-0.3005
-3.7747	milih	-0.3002
-3.7747	ming	-0.3009
-3.7747	minggu	-0.2432
-2.5706	minke	-0.3807
-3.1727	minta	-0.6018
-3.7747	mirip	-0.3005
-3.7747	misalkan	-0.2993
-3.7747	misalnya	-0.2995
-3.7747	misi	-0.3010
-3.4737	mobilku	-0.5442
-3.7747	modern	-0.2432
-3.4737	motor	-0.5442
-3.7747	motornya	-0.2432
-3.7747	mu	-0.2432
-3.7747	muda	-0.2922
-3.7747	mudah	-0.2978
-3.2976	mulai	-0.2982
-3.7747	mulu	-0.2432
-3.7747	mumpung	-0.2999
-2.8716	mungkin	-0.2858
-3.1727	murah	-0.2334
-3.4737	musang	-0.6019
-3.7747	musik	-0.2922
-3.7747	mustahil	-0.3010
-3.7747	musuhan	-0.2948
-3.4737	na	-0.2423
-2.9296	nah	-0.2890
-3.7747	naikkan	-0.3009
-3.1727	nam	-0.8453
-3.7747	nama	-0.3010
-3.1727	namun	-0.2937
-3.4737	nana	-0.2991
-3.7747	nangis	-0.2971
-2.3123	nanti	-0.4798
-3.7747	nanya	-0.2906
-3.7747	narasi	-0.3002
-3.7747	narik	-0.3009
-3.7747	nasib	-0.3002
-3.4737	nasionalis	-0.2955
-3.7747	nasionalisme	-0.2922
-3.7747	nebeng	-0.2948
-3.1727	nebula	-0.2260
-3.7747	nembakin	-0.3007
-3.7747	nengokin	-0.2990
-3.7747	ngabisin	-0.3010
-3.7747	ngalahin	-0.3004
-3.7747	ngambil	-0.3010
-3.4737	ngangkat	-0.2947
-3.4737	ngantri	-0.2996
-3.7747	ngapain	-0.2990
-3.2976	ngasih	-0.2999
-3.7747	ngebosenin	-0.2432
-3.7747	ngedepanin	-0.3008
-3.7747	ngelakuin	-0.3006
-3.7747	ngeliat	-0.3004
-3.7747	ngeliatnya	-0.3001
-3.4737	ngembaliin	-0.6010
-3.7747	ngerasain	-0.3009
-3.7747	ngerayain	-0.3006
-3.4737	ngerti	-0.5442
-3.7747	nggak	-0.3002
-3.7747	ngilang	-0.2993
-3.7747	ngilangin	-0.3000
-3.7747	ngiler	-0.2990
-3.7747	ngira	-0.2996
-3.0758	ngomong-ngomong	-0.3895
-3.7747	ni	-0.3008
-2.0423	nih	-0.6304
-3.4737	nilai	-0.2984
-3.7747	nisa	-0.2432
-2.6608	nonton	-0.3369
-3.7747	normal	-0.2985
-3.7747	nungguin	-0.2945
-3.4737	nurut	-0.2976
-3.1727	nyai	-0.5440
-3.7747	nyangka	-0.2948
-3.2976	nyata	-0.2936
-3.4737	nyenggol	-0.2999
-3.7747	nyerah	-0.2971
-3.7747	nyeremin	-0.2976
-3.7747	oalah	-0.2992
-2.4960	oh	-0.9640
-2.4960	oke	-0.4014
-3.4737	oleh	-0.3004
-3.2976	oleh-oleh	-0.4748
-3.2976	ontosoroh	-0.2881
-3.2976	ooh	-0.2386
-3.7747	operasiin	-0.3009
-2.6608	orang	-0.2969
-3.2976	orang-orang	-0.2918
-3.4737	orangnya	-0.3004
-3.4737	oreo	-0.2361
-3.2976	otaknya	-0.4768
-3.7747	otomatis	-0.3010
-3.7747	oyah	-0.3004
-3.7747	pacar	-0.3010
-3.1727	pada	-0.2988
-3.0758	padahal	-0.2816
-3.4737	padi	-0.2977
-3.4737	pagi	-0.3001
-3.2976	paham	-0.2949
-3.7747	pakai	-0.3010
-2.6608	paling	-0.4423
-3.7747	palunya	-0.3010
-3.7747	pamer	-0.2976
-3.7747	pamit	-0.2997
-3.1727	pandang	-0.4155
-3.2976	panggang	-0.2938
-3.2976	panggangnya	-0.4171
-3.7747	pantai	-0.2978
-3.4737	para	-0.3003
-3.4737	parut	-0.2961
-3.0758	pas	-0.3931
-3.7747	pasca	-0.3005
-3.4737	pasir	-0.2977
-2.9296	pasti	-0.3612
-3.7747	pastinya	-0.3005
-3.7747	pasukannya	-0.3007
-3.7747	pat	-0.2971
-3.7747	patut	-0.3010
-3.7747	pelengkap	-0.3008
-3.4737	pemeran	-0.2973
-3.7747	pemikiran	-0.2922
-3.7747	pemrosesan	-0.3010
-3.7747	pendekar	-0.3010
-3.7747	penemuan	-0.3010
-3.4737	pengadilan	-0.2952
-3.7747	pengaruh	-0.3007
-3.4737	pengembangan	-0.6019
-3.2976	pengen	-0.2961
-3.4737	penggunaan	-0.3005
-3.7747	pengunjung	-0.2432
-3.7747	penolongmu	-0.2432
-3.4737	penonton	-0.2431
-3.4737	per	-0.6016
-3.7747	perang	-0.3000
-3.2976	perasaan	-0.3003
-3.0758	percakapan	-0.2402
-3.7747	percaya	-0.2995
-2.8205	pergi	-0.4124
-3.7747	pergolakan	-0.3007
-3.7747	perhatian	-0.2432
-3.7747	perihnya	-0.3010
-2.9966	perjalanan	-0.4666
-3.7747	perjalananku	-0.2432
-3.1727	perjuangan	-0.2978
-3.2976	perlu	-0.2920
-3.7747	pernah	-0.2945
-3.7747	pernikahan	-0.2922
-3.2976	perpustakaan	-0.7761
-3.7747	persen	-0.2991
-3.0758	pertama	-0.2349
-3.7747	pertanian	-0.2922
-3.7747	pertiwi	-0.2981
-3.4737	pesan	-0.2946
-3.4737	pesen	-0.2984
-3.7747	pesenin	-0.2948
-3.7747	peserta	-0.2999
-3.7747	petualang	-0.2432
-3.7747	pikiran	-0.2978
-3.7747	pikirannya	-0.3007
-3.4737	pilih	-0.2431
-3.7747	pilihnya	-0.2922
-3.7747	pindah	-0.2976
-3.0758	pingin	-0.5175
-3.7747	pinjem	-0.3009
-3.7747	pinter	-0.2989
-3.7747	pintu	-0.2976
-3.4737	pipis	-0.2977
-3.7747	pisah	-0.2992
-3.2976	pisang	-0.4164
-3.7747	plot	-0.2986
-3.7747	plus	-0.3010
-3.4737	pokoknya	-0.2982
-3.7747	polusi	-0.3010
-3.7747	pr	-0.3010
-3.7747	pram	-0.3007
-3.0758	pribumi	-0.3845
-3.7747	prnya	-0.3009
-3.7747	produksi	-0.3000
-3.2976	professor	-0.7779
-3.7747	pula	-0.2432
-3.1727	pulang	-0.2950
-3.0758	pulau	-0.3885
-3.0758	puluh	-0.3952
-3.7747	puluhan	-0.2432
-3.7747	pun	-0.3001
-2.7333	punya	-0.4956
-3.7747	putih	-0.2954
-3.7747	pymes	-0.2980
-3.2976	quantum	-0.2969
-3.7747	radiasi	-0.3010
-3.7747	ramadhan	-0.3007
-2.8205	ramai	-0.3944
-3.7747	rangka	-0.2988
-3.7747	rapih	-0.2999
-2.8205	rasa	-0.4634
-3.0758	rasanya	-0.2400
-3.4737	ratih	-0.3005
-3.7747	ratus	-0.3010
-3.7747	rayuan-rayuan	-0.3010
-3.7747	realm	-0.2993
-3.7747	relevan	-0.2993
-3.4737	remaja	-0.3008
-2.8716	rencana	-0.3380
-3.7747	rencanain	-0.3006
-3.7747	rencanaku	-0.3010
-3.0758	rencananya	-0.2821
-3.7747	rendah	-0.3004
-3.4737	reservasi	-0.2955
-2.9966	restoran	-0.7636
-3.2976	restorannya	-0.2947
-3.7747	review	-0.2992
-3.2976	ribu	-0.4183
-3.7747	ribuan	-0.2432
-3.7747	ribunya	-0.2432
-3.7747	rido	-0.2980
-3.7747	rinci	-0.2432
-3.4737	ringan	-0.2331
-3.7747	romansa	-0.2978
-3.7747	romantis	-0.3010
-3.7747	romantisme	-0.2978
-3.4737	ronin	-0.3002
-2.6608	roti	-0.5571
-3.7747	rotinya	-0.2432
-2.7333	rumah	-0.2718
-3.4737	rumahku	-0.2980
-3.7747	rumahmu	-0.2432
-3.1727	rumahnya	-0.2378
-3.2976	saat	-0.2977
-3.7747	sabar-sabar	-0.2970
-3.2976	sah	-0.4139
-3.7747	sahabat	-0.2978
-3.7747	sahabatnya	-0.3004
-2.4525	saja	-0.4952
-2.8205	sakit	-0.4956
-3.7747	saku	-0.2432
-3.7747	salad	-0.3010
-2.9296	salah	-0.2959
-2.1515	sama	-0.3186
-3.4737	sama-sama	-0.3001
-3.7747	sambil	-0.3009
-2.8205	sampai	-0.2903
-3.2976	sampe	-0.2999
-3.0758	sana	-0.6404
-3.1727	sangat	-0.3001
-3.1727	santai	-0.2345
-3.7747	sapi	-0.2988
-2.6956	satu	-0.4040
-3.7747	satunya	-0.3004
-3.4737	saudara	-0.2991
-3.7747	sawah	-0.2978
-3.2976	sawah-sawah	-0.2954
-3.7747	saya	-0.3004
-3.7747	sayang	-0.3009
-3.4737	sayangnya	-0.2976
-3.7747	scoring	-0.3010
-3.0758	sebagai	-0.3964
-3.7747	sebelah	-0.2990
-3.7747	sebelas	-0.2971
-3.0758	sebelum	-0.3873
-3.7747	sebelumnya	-0.2432
-3.4737	sebenernya	-0.2980
-3.4737	sebentar	-0.2403
-3.2976	sebuah	-0.2978
-3.7747	sebut	-0.3008
-3.4737	secara	-0.2954
-3.4737	sedang	-0.3003
-2.9966	sedih	-0.4605
-3.1727	sedikit	-0.2979
-3.7747	segitu	-0.2968
-3.7747	sehabis	-0.3007
-3.7747	seharusnya	-0.3004
-3.4737	sehat	-0.5442
-3.7747	sejarah	-0.2432
-3.4737	sekali	-0.2926
-2.7333	sekarang	-0.2970
-3.7747	sekarat	-0.3009
-3.7747	sekarung	-0.3009
-3.7747	sekeren	-0.2954
-2.6956	sekitar	-0.5309
-3.7747	sekitaran	-0.3002
-3.0758	sekolah	-0.2396
-3.7747	selain	-0.3004
-3.7747	selalu	-0.3010
-2.9966	selama	-0.3723
-3.7747	selamat	-0.2996
-3.0758	selesai	-0.5205
-3.7747	selese	-0.2993
-3.4737	semacam	-0.2969
-3.7747	semacamnya	-0.2432
-3.1727	sembilan	-0.2358
-2.9296	semester	-0.3514
-3.4737	semoga	-0.2995
-3.4737	sempat	-0.3005
-2.6286	semua	-0.4009
-3.4737	semuanya	-0.2431
-2.8205	sendiri	-0.7140
-3.7747	sengaja	-0.3009
-3.2976	seorang	-0.2999
-3.1727	sepeda	-0.4171
-3.2976	sepedaku	-0.2386
-3.4737	sepedamu	-0.2929
-3.1727	seperti	-0.2897
-2.6608	sepertinya	-0.3508
-3.7747	sepi	-0.2432
-3.7747	sepinter	-0.2996
-3.7747	sepuasnya	-0.2963
-3.4737	sepulang	-0.6017
-2.9966	sepuluh	-0.2389
-3.4737	seram	-0.2849
-3.7747	seratus	-0.3010
-3.7747	serius	-0.2971
-2.9966	seru	-0.4079
-3.4737	seseorang	-0.2420
-3.7747	sesuatu	-0.2922
-3.2976	set	-0.4763
-3.7747	setanah	-0.3010
-3.7747	setara	-0.2993
-3.2976	setelah	-0.2986
-3.7747	seterusnya	-0.2432
-3.7747	setiap	-0.3010
-2.9296	setuju	-0.3682
-2.5443	si	-0.4240
-3.4737	siap	-0.2425
-3.7747	siap-siap	-0.2948
-2.9966	siapa	-0.3110
-3.7747	sibuk	-0.3008
-3.7747	sibuk-sibuknya	-0.2432
-2.0113	sih	-0.4604
-3.7747	sinematografi	-0.2922
-3.2976	singkat	-0.7775
-2.7333	sini	-0.4894
-3.7747	sip	-0.2432
-3.2976	sisi	-0.2980
-3.4737	situ	-0.2949
-2.9966	snap	-0.3123
-3.7747	snapnya	-0.2432
-3.7747	soal	-0.3007
-3.2976	soalnya	-0.2307
-3.7747	sok	-0.3004
-3.4737	sore	-0.2397
-3.4737	sorry	-0.2905
-3.2976	sosial	-0.4682
-3.7747	spoiler	-0.2971
-2.8205	stark	-0.2794
-3.4737	status	-0.6018
-3.7747	strange	-0.2954
-3.7747	suami	-0.3010
-3.7747	suaminya	-0.2997
-3.7747	suara	-0.3009
-3.2976	suasana	-0.3002
-3.7747	subjektif	-0.2985
-2.4737	sudah	-0.3019
-3.7747	sudahlah	-0.2432
-3.1727	sudut	-0.9028
-2.9966	suka	-0.3175
-3.2976	sukses	-0.2941
-3.4737	sulit	-0.3009
-3.4737	sumber	-0.6018
-3.7747	sup	-0.2978
-3.7747	supaya	-0.2992
-3.7747	super	-0.3009
-3.7747	surhof	-0.2986
-3.4737	susah	-0.5986
-3.7747	sutradara	-0.3010
-3.2976	tadi	-0.7203
-2.8716	tahu	-0.2689
-2.9296	tahun	-0.3528
-3.1727	tak	-0.5993
-3.2976	takut	-0.2987
-3.7747	takutnya	-0.2970
-3.7747	tambah	-0.3009
-3.7747	tambal	-0.3008
-3.7747	tampil	-0.3002
-3.7747	tanah	-0.3010
-3.7747	tanpa	-0.3008
-3.7747	tantangannya	-0.2432
-3.1727	tanya	-0.2896
-3.7747	tanyakan	-0.2976
-2.1413	tapi	-0.4193
-3.7747	tarik	-0.3004
-3.7747	tarung	-0.2980
-3.7747	tarungnya	-0.2432
-3.7747	tatanan	-0.3008
-2.7333	tau	-0.2623
-3.7747	tayang	-0.2996
-3.7747	tebak	-0.3007
-3.7747	tebakanmu	-0.3009
-3.7747	telah	-0.3009
-3.2976	telat	-0.2856
-3.4737	tema	-0.2987
-3.4737	teman	-0.5980
-3.4737	temen	-0.3004
-3.7747	temen-temen	-0.3007
-3.7747	temen-temennya	-0.2432
-2.5706	tempat	-0.6435
-3.7747	tempat-tempat	-0.2922
-3.0758	tempatnya	-0.2945
-3.4737	tenang	-0.2905
-3.4737	tengah	-0.3004
-3.1727	tentang	-0.2954
-3.4737	tentu	-0.6005
-3.7747	tentukan	-0.3009
-3.4737	tentunya	-0.2967
-3.7747	teori	-0.3010
-3.1727	terakhir	-0.2298
-3.4737	terasa	-0.3007
-3.7747	terbaik	-0.3009
-3.7747	terbatas	-0.2432
-3.7747	terbiasa	-0.2993
-3.4737	terdekat	-0.3002
-3.4737	terdistribusi	-0.5442
-3.4737	terduga	-0.2985
-3.7747	terhadap	-0.3007
-3.2976	terhingga	-0.2331
-3.1727	terima	-0.9025
-3.4737	terjadi	-0.2995
-3.7747	terkesan	-0.3010
-3.7747	terkurungnya	-0.3010
-3.4737	terlalu	-0.3005
-3.1727	terminator	-0.3617
-2.6956	ternyata	-0.2908
-3.7747	terombang-ambing	-0.2963
-3.7747	teroris	-0.2986
-3.7747	terperangkap	-0.2963
-3.4737	tersinkronisasi	-0.2972
-3.7747	tersisa	-0.3001
-3.7747	tertarik	-0.2976
-3.7747	tertata	-0.2997
-3.4737	tertentu	-0.2413
-2.5706	terus	-0.2432
-3.7747	tetapi	-0.3005
-3.0758	thanos	-0.3326
-3.7747	thor	-0.2432
-2.3768	tidak	-0.3819
-2.6956	tiga	-0.4155
-3.1727	tikus	-0.2902
-3.7747	tim	-0.3010
-3.2976	tinggal	-0.2900
-3.7747	tinggi	-0.2993
-3.7747	titik	-0.3009
-3.7747	toko	-0.3010
-3.4737	tolong	-0.6018
-2.9296	ton	-0.2987
-2.4960	tony	-0.5638
-3.7747	top	-0.2432
-3.7747	topik	-0.3004
-3.7747	totalnya	-0.2981
-3.4737	trailer	-0.2944
-3.4737	transportasi	-0.3008
-3.7747	tua	-0.2432
-3.4737	tubuh	-0.2967
-3.7747	tubuhnya	-0.2989
-2.7747	tugas	-0.3268
-3.7747	tugasnya	-0.3010
-2.5195	tuh	-0.3129
-3.7747	tujuh	-0.3007
-3.7747	tulisan-tulisan	-0.3010
-3.7747	tumben	-0.3002
-3.0758	tunggu	-0.2300
-3.7747	tungguin	-0.3003
-3.7747	uang	-0.3010
-3.7747	ucapan	-0.2999
-2.3945	udah	-0.3399
-3.7747	udang	-0.2996
-3.7747	udara	-0.2922
-2.9966	ujian	-0.3182
-3.7747	ujiannya	-0.3009
-3.7747	ujung	-0.3005
-3.7747	ulahnya	-0.3010
-3.7747	ulang	-0.2432
-3.2976	ulasan	-0.3002
-3.7747	uniknya	-0.2997
-2.6286	untuk	-0.2938
-3.7747	update	-0.3006
-3.4737	upload	-0.2994
-3.4737	vin	-0.5442
-3.7747	vintage	-0.2971
-3.7747	visualisasi	-0.2988
-3.7747	vormir	-0.2980
-2.4737	wah	-0.2945
-2.5195	waktu	-0.3402
-3.7747	waktunya	-0.2980
-3.0758	walaupun	-0.2977
-3.2976	wanita	-0.2422
-3.7747	warna	-0.2922
-1.8453	ya	-0.5291
-3.7747	yaelah	-0.3009
-3.2976	yah	-0.2420
-3.7747	yaitu	-0.3007
-1.6956	yang	-0.3503
-3.4737	yaudah	-0.6006
-3.4737	yok	-0.2995
-2.8205	yuk	-0.4102
-3.7747	za	-0.2432
-3.7747	zaman	-0.3009
-3.7747	zi	-0.2432
-3.7747	zombieland	-0.2432
-0.9043	!EXIT

\2-grams:
-3.1714	!ENTER <a>
-2.6943	!ENTER <hem>
-3.1714	!ENTER <kayak>
-3.1714	!ENTER <kenapa>
-3.1714	!ENTER <kita>
-3.1714	!ENTER <misalnya>
-1.8097	!ENTER ada
-3.1714	!ENTER adegan
-3.1714	!ENTER agak
-1.8097	!ENTER ah
-3.1714	!ENTER ahsiap
-3.1714	!ENTER akhirnya
-1.2964	!ENTER aku
-3.1714	!ENTER alur
-3.1714	!ENTER anak
-2.6943	!ENTER annelies
-1.9953	!ENTER apa
-3.1714	!ENTER apakah
-3.1714	!ENTER apalagi
-3.1714	!ENTER apapun
-3.1714	!ENTER atau
-3.1714	!ENTER ayo
-3.1714	!ENTER ayuk
-2.1300	!ENTER bagaimana
-3.1714	!ENTER bagus
-3.1714	!ENTER bahasa
-2.6943	!ENTER bahkan
-3.1714	!ENTER baik
-2.3263	!ENTER baiklah
-3.1714	!ENTER ban
-2.1300	!ENTER banyak
-2.6943	!ENTER baru
-3.1714	!ENTER bawakan
-2.3263	!ENTER belum
-2.2172	!ENTER benar
-3.1714	!ENTER bener-bener
-2.4725	!ENTER berarti
-3.1714	!ENTER berdiri
-3.1714	!ENTER berjuang
-3.1714	!ENTER bersepeda
-2.6943	!ENTER biar
-3.1714	!ENTER bisa
-2.0575	!ENTER boleh
-2.6943	!ENTER buat
-3.1714	!ENTER budaya
-3.1714	!ENTER bukan
-3.1714	!ENTER bukankah
-2.6943	!ENTER bukannya
-2.6943	!ENTER bumi
-3.1714	!ENTER cape
-3.1714	!ENTER cepat
-3.1714	!ENTER coba
-3.1714	!ENTER contohnya
-3.1714	!ENTER cukup
-2.6943	!ENTER cuma
-3.1714	!ENTER cuman
-2.3263	!ENTER dan
-2.6943	!ENTER dari
-2.4725	!ENTER dasar
-2.6943	!ENTER dekat
-3.1714	!ENTER dengan
-2.3263	!ENTER di
-1.8492	!ENTER dia
-3.1714	!ENTER dialog-dialog
-3.1714	!ENTER dokter
-3.1714	!ENTER dosennya
-2.6943	!ENTER durian
-1.3861	!ENTER eh
-2.6943	!ENTER enak
-3.1714	!ENTER enakan
-2.6943	!ENTER engga
-3.1714	!ENTER es
-3.1714	!ENTER ga
-3.1714	!ENTER gak
-3.1714	!ENTER gara-gara
-2.6943	!ENTER gila
-2.2172	!ENTER gimana
-3.1714	!ENTER gini
-3.1714	!ENTER ha
-3.1714	!ENTER haduh
-2.6943	!ENTER haha
-2.2172	!ENTER hahaha
-3.1714	!ENTER hai
-3.1714	!ENTER halah
-3.1714	!ENTER hanung
-2.6943	!ENTER hanya
-2.3263	!ENTER harus
-2.4725	!ENTER hehe
-3.1714	!ENTER hei
-3.1714	!ENTER hidup
-2.6943	!ENTER hmm
-3.1714	!ENTER hobiku
-3.1714	!ENTER hobimu
-2.6943	!ENTER ini
-3.1714	!ENTER insyaallah
-3.1714	!ENTER intinya
-2.6943	!ENTER iqbal
-2.6943	!ENTER itu
-1.4812	!ENTER iya
-1.7735	!ENTER jadi
-3.1714	!ENTER jadinya
-3.1714	!ENTER jalan
-2.6943	!ENTER jangan
-3.1714	!ENTER jaraknya
-3.1714	!ENTER jen
-3.1714	!ENTER jenjang
-2.6943	!ENTER jika
-3.1714	!ENTER joni
-1.6032	!ENTER kalau
-2.2172	!ENTER kalian
-2.2172	!ENTER kalo
-1.7090	!ENTER kamu
-2.6943	!ENTER kan
-3.1714	!ENTER kapan
-3.1714	!ENTER kapten
-2.2172	!ENTER karena
-2.4725	!ENTER karna
-2.3263	!ENTER kata
-2.6943	!ENTER kau
-2.3263	!ENTER kayaknya
-3.1714	!ENTER kayanya
-3.1714	!ENTER keadaannya
-3.1714	!ENTER kebanyakan
-3.1714	!ENTER kebetulan
-3.1714	!ENTER kelas
-3.1714	!ENTER kelihatannya
-2.3263	!ENTER kemaren
-3.1714	!ENTER kenapa
-3.1714	!ENTER keras
-3.1714	!ENTER kerjaan
-3.1714	!ENTER kesel
-3.1714	!ENTER kikuk
-2.6943	!ENTER kira-kira
-2.0575	!ENTER kita
-3.1714	!ENTER klimaks
-2.3263	!ENTER kok
-3.1714	!ENTER komposisi
-3.1714	!ENTER ku
-3.1714	!ENTER kuat
-3.1714	!ENTER kutipan
-3.1714	!ENTER lagi
-2.3263	!ENTER lah
-3.1714	!ENTER lalu
-3.1714	!ENTER lanjut
-2.6943	!ENTER lebih
-2.6943	!ENTER liburan
-3.1714	!ENTER lima
-3.1714	!ENTER lin
-2.6943	!ENTER loh
-3.1714	!ENTER lucu
-2.6943	!ENTER maaf
-3.1714	!ENTER maap
-3.1714	!ENTER makan
-3.1714	!ENTER makanya
-3.1714	!ENTER makasih
-3.1714	!ENTER maksudnya
-3.1714	!ENTER mamanya
-2.6943	!ENTER mantap
-3.1714	!ENTER manusia
-3.1714	!ENTER mari
-3.1714	!ENTER mas
-2.0575	!ENTER mau
-3.1714	!ENTER maunya
-2.6943	!ENTER memang
-3.1714	!ENTER memangnya
-3.1714	!ENTER menceritakan
-3.1714	!ENTER mending
-2.4725	!ENTER menurut
-2.6943	!ENTER menurutku
-2.1300	!ENTER mereka
-2.1300	!ENTER meskipun
-3.1714	!ENTER mulai
-2.4725	!ENTER mungkin
-2.6943	!ENTER na
-2.0575	!ENTER nah
-2.6943	!ENTER namun
-2.1300	!ENTER nanti
-3.1714	!ENTER nasib
-3.1714	!ENTER nengokin
-3.1714	!ENTER nggak
-2.3263	!ENTER ngomong-ngomong
-3.1714	!ENTER nisa
-3.1714	!ENTER nonton
-3.1714	!ENTER oalah
-1.6032	!ENTER oh
-1.7090	!ENTER oke
-3.1714	!ENTER oleh
-2.4725	!ENTER ooh
-3.1714	!ENTER otaknya
-3.1714	!ENTER oyah
-2.2172	!ENTER padahal
-2.6943	!ENTER pagi
-3.1714	!ENTER paling
-2.6943	!ENTER pas
-2.4725	!ENTER pasti
-3.1714	!ENTER pastinya
-2.6943	!ENTER penggunaan
-3.1714	!ENTER perasaan
-2.6943	!ENTER percakapan
-3.1714	!ENTER pertama
-3.1714	!ENTER pilihnya
-3.1714	!ENTER pindah
-3.1714	!ENTER pisang
-3.1714	!ENTER plus
-3.1714	!ENTER pokoknya
-3.1714	!ENTER pr
-3.1714	!ENTER pulau
-3.1714	!ENTER rasanya
-3.1714	!ENTER ratih
-3.1714	!ENTER rencana
-2.3263	!ENTER rencananya
-3.1714	!ENTER saat
-3.1714	!ENTER sabar-sabar
-3.1714	!ENTER salah
-2.4725	!ENTER sama
-3.1714	!ENTER sama-sama
-2.6943	!ENTER sampai
-2.4725	!ENTER santai
-3.1714	!ENTER sawah-sawah
-3.1714	!ENTER sayang
-3.1714	!ENTER sebentar
-3.1714	!ENTER sedih
-2.6943	!ENTER sekarang
-3.1714	!ENTER sekitar
-3.1714	!ENTER selama
-3.1714	!ENTER semester
-2.6943	!ENTER semoga
-2.6943	!ENTER semua
-3.1714	!ENTER semuanya
-3.1714	!ENTER seperti
-2.1300	!ENTER sepertinya
-3.1714	!ENTER seram
-3.1714	!ENTER setelah
-3.1714	!ENTER setiap
-3.1714	!ENTER si
-3.1714	!ENTER siap-siap
-2.4725	!ENTER siapa
-3.1714	!ENTER sibuk
-2.4725	!ENTER singkat
-3.1714	!ENTER sip
-3.1714	!ENTER soalnya
-3.1714	!ENTER suasana
-3.1714	!ENTER sudahlah
-3.1714	!ENTER suka
-2.6943	!ENTER sukses
-3.1714	!ENTER surhof
-3.1714	!ENTER takutnya
-1.5587	!ENTER tapi
-3.1714	!ENTER tau
-3.1714	!ENTER tebakanmu
-3.1714	!ENTER tempatnya
-3.1714	!ENTER tenang
-2.6943	!ENTER tentu
-2.4725	!ENTER terima
-2.6943	!ENTER ternyata
-2.0575	!ENTER terus
-3.1714	!ENTER tetapi
-2.6943	!ENTER thanos
-2.4725	!ENTER tidak
-2.6943	!ENTER tolong
-3.1714	!ENTER ton
-2.6943	!ENTER tony
-3.1714	!ENTER totalnya
-3.1714	!ENTER tumben
-3.1714	!ENTER tunggu
-2.3263	!ENTER udah
-3.1714	!ENTER uniknya
-1.6032	!ENTER wah
-2.6943	!ENTER waktu
-2.3263	!ENTER walaupun
-2.2172	!ENTER ya
-3.1714	!ENTER yaelah
-2.6943	!ENTER yah
-2.2172	!ENTER yang
-3.1714	!ENTER yaudah
-2.6943	!ENTER yok
-2.4725	!ENTER yuk
-3.1714	!ENTER zi
-0.6021	<a> di
-0.6021	<a> hal
-0.3010	<aku> <jika>
-0.3010	<an> nyai
-0.3010	<anna> annelies
-0.3010	<bawa> bawakan
-0.3010	<belar> berlatar
-0.3010	<bu> satu
-0.3010	<dam> <kenapa>
-0.3010	<diga> digambarin
-0.3010	<digantik> digantikan
-0.3010	<ding> eh
-0.3010	<dizni> jarang
-0.3010	<dura> durasinya
-0.3010	<e> ngasih
-0.6021	<hem> menarik
-0.6021	<hem> yaudah
-0.3010	<jika> aku
-0.3010	<kantu> di
-0.3010	<kayak> sebenernya
-0.6021	<kenapa> <kita>
-0.6021	<kenapa> <tidak>
-0.3010	<kerjakn> kita
-0.6021	<kita> <dam>
-0.6021	<kita> <kerjakn>
-0.3010	<komputil> komputasi
-0.3010	<lib> waktu
-0.3010	<misalnya> misalnya
-0.3010	<na> nasionalisme
-0.3010	<nyai> <an>
-0.3010	<per> ke
-0.3010	<perusaan> gi
-0.3010	<sapa> dokter
-0.3010	<se> lagi
-0.3010	<ta> <u>
-0.3010	<tata> tatanan
-0.3010	<teb> apa-apa
-0.3010	<terkonn> apa
-0.3010	<tidak> kenapa
-0.3010	<u> aja
-0.3010	<ya> saja
-0.7782	a b
-0.7782	a bertanya
-0.7782	a !EXIT
-0.7782	abis dapet
-0.7782	abis itu
-0.7782	abis !EXIT
-2.0414	ada a
-2.0414	ada adegan
-2.0414	ada alternatif
-1.5643	ada apa
-2.0414	ada baiknya
-2.0414	ada banyak
-2.0414	ada benarnya
-2.0414	ada di
-2.0414	ada disitu
-2.0414	ada enam
-2.0414	ada es
-2.0414	ada film
-2.0414	ada juga
-2.0414	ada kejadian
-1.3424	ada kelas
-2.0414	ada kelompok
-2.0414	ada kerbau
-2.0414	ada kesempatan
-2.0414	ada lagu
-2.0414	ada lanjutannya
-2.0414	ada martabak
-2.0414	ada ngerasain
-2.0414	ada nih
-2.0414	ada penemuan
-2.0414	ada perasaan
-2.0414	ada pergolakan
-2.0414	ada pintu
-2.0414	ada rencana
-2.0414	ada restoran
-2.0414	ada sekitar
-2.0414	ada si
-2.0414	ada sudut
-2.0414	ada tantangannya
-2.0414	ada temen
-1.3424	ada tempat
-2.0414	ada terminator
-2.0414	ada tiga
-1.5643	ada tikus
-1.5643	ada tugas
-2.0414	ada tuh
-1.1963	ada yang
-2.0414	ada zombieland
-1.3424	ada !EXIT
-1.2041	adalah bagaimana
-1.2041	adalah bersepeda
-1.2041	adalah jalan-jalan
-1.2041	adalah kejadian
-1.2041	adalah pernikahan
-1.2041	adalah sahabatnya
-1.2041	adalah saudara
-1.2041	adalah sudut
-0.3010	adanya adegan
-1.0792	adegan ga
-1.0792	adegan menarik
-1.0792	adegan paling
-1.0792	adegan romansa
-0.6021	adegan yang
-0.3010	aduk antara
-0.7782	agak cengeng
-0.3010	agak lucu
-0.1249	agama !EXIT
-1.4472	ah aku
-1.4472	ah apalagi
-1.4472	ah dasar
-0.6021	ah iya
-1.4472	ah jangan
-0.9700	ah kamu
-1.4472	ah kasih
-1.4472	ah kita
-1.4472	ah masa
-1.4472	ah salah
-0.3010	ahsiap !EXIT
-0.3010	air mereka
-1.7482	aja aku
-1.7482	aja dapat
-1.0492	aja deh
-1.7482	aja hehe
-1.7482	aja kamu
-1.7482	aja mereka
-1.7482	aja mumpung
-1.7482	aja nanti
-1.0492	aja nih
-1.7482	aja rasanya
-1.7482	aja tapi
-1.7482	aja ton
-1.7482	aja udah
-0.9031	aja ya
-0.6342	aja !EXIT
-0.3010	ajak kita
-1.1461	akan aku
-1.6232	akan berlibur
-1.6232	akan ke
-1.6232	akan kecantikanmu
-1.1461	akan lebih
-1.6232	akan liburan
-1.6232	akan melanjutkan
-1.6232	akan memancing
-1.6232	akan memarkirkan
-1.6232	akan membantu
-1.6232	akan membicarakan
-1.6232	akan menemukan
-1.6232	akan mengantarmu
-1.6232	akan mengerjakan
-1.6232	akan menjadi
-0.9243	akan pergi
-1.6232	akan sangat
-1.0000	akhir dan
-1.0000	akhir film
-0.5229	akhir upload
-1.0000	akhir !EXIT
-1.0000	akhirnya bagi-bagi
-1.0000	akhirnya dibuat
-1.0000	akhirnya mati
-1.0000	akhirnya mau
-1.0000	akhirnya pergi
-0.3010	aksinya gitu
-0.3010	aktor !EXIT
-2.4502	aku <nyai>
-2.4502	aku <per>
-1.9731	aku ada
-1.2742	aku akan
-2.4502	aku atur
-1.9731	aku baca
-2.4502	aku bakal
-2.4502	aku balik
-2.4502	aku bawakan
-2.4502	aku bayar
-1.9731	aku bayarin
-1.9731	aku belum
-2.4502	aku berharapnya
-2.4502	aku bertemu
-2.4502	aku bilang
-1.9731	aku bisa
-1.9731	aku boleh
-2.4502	aku ceritain
-2.4502	aku chat
-2.4502	aku coba
-2.4502	aku cuman
-2.4502	aku dan
-1.9731	aku dengar
-2.4502	aku ditakdirkan
-2.4502	aku engga
-1.7513	aku enggak
-2.4502	aku ga
-2.4502	aku gabung
-2.4502	aku gak
-2.4502	aku hanya
-2.4502	aku harus
-1.6052	aku ikut
-2.4502	aku ingat
-1.9731	aku inget
-1.9731	aku jadi
-1.9731	aku jamin
-2.4502	aku jelaskan
-1.3363	aku juga
-2.4502	aku kabari
-2.4502	aku kalau
-2.4502	aku kan
-2.4502	aku kayak
-2.4502	aku ke
-2.4502	aku kurang
-1.9731	aku lagi
-2.4502	aku lanjut
-2.4502	aku laper
-2.4502	aku lebih
-2.4502	aku lihat
-1.6052	aku lupa
-2.4502	aku mah
-2.4502	aku males
-2.4502	aku masih
-1.7513	aku mau
-2.4502	aku mereka
-2.4502	aku mikirnya
-2.4502	aku mungkin
-2.4502	aku nebeng
-2.4502	aku ngiler
-2.4502	aku pasir
-2.4502	aku pasti
-2.4502	aku percaya
-2.4502	aku pesan
-2.4502	aku pesenin
-2.4502	aku pingin
-2.4502	aku punya
-2.4502	aku restorannya
-1.7513	aku sama
-2.4502	aku satu
-2.4502	aku sebut
-1.9731	aku setuju
-1.1715	aku sih
-1.7513	aku sudah
-2.4502	aku suka
-1.9731	aku tahu
-2.4502	aku takut
-1.9731	aku tanya
-2.4502	aku tau
-2.4502	aku tidak
-2.4502	aku tinggal
-1.9731	aku tunggu
-2.4502	aku udah
-1.9731	aku yang
-1.4089	aku !EXIT
-0.6021	ala backpacker
-0.6021	ala sembilan
-1.0000	alat kuantumnya
-0.5229	alat perjalanan
-1.0000	alat pertanian
-1.0000	alat transportasi
-0.6021	alatnya itu
-0.6021	alatnya tony
-0.3010	alias ngilang
-0.3010	alternatif tempat
-0.1249	alur cerita
-0.3010	alurnya gimana
-0.3010	aman ya
-1.1461	amerika bisa
-1.1461	amerika ga
-1.1461	amerika itu
-1.1461	amerika lebih
-1.1461	amerika sendiri
-1.1461	amerika ternyata
-1.1461	amerika udah
-1.0792	anak buahnya
-1.0792	anak kecil
-1.0792	anak kelas
-1.0792	anak mama
-1.0792	anak muda
-1.0792	anak pacar
-0.3010	anaknya tidak
-0.3010	analisa mu
-0.3010	ancur banget
-0.3010	anggota kelas
-0.3010	angkasa kan
-0.3010	angle gambarnya
-0.3010	ann !EXIT
-1.4150	annelies dan
-1.4150	annelies dibilang
-1.4150	annelies ini
-1.4150	annelies itu
-0.9379	annelies juga
-1.4150	annelies langsung
-1.4150	annelies lebih
-1.4150	annelies meninggal
-1.4150	annelies pamit
-0.7160	annelies !EXIT
-0.9031	antara dokter
-0.9031	antara dua
-0.9031	antara perjuangan
-0.9031	antara pribumi
-1.2553	antman ga
-0.7782	antman ini
-1.2553	antman lagi
-1.2553	antman malah
-1.2553	antman ni
-1.2553	antman si
-0.7782	antman !EXIT
-0.3010	antri dua
-0.9331	apa aja
-1.7782	apa apa
-1.7782	apa belum
-1.7782	apa dia
-1.7782	apa fis
-1.7782	apa itu
-1.3010	apa kamu
-1.7782	apa kok
-1.7782	apa langsung
-1.7782	apa mungkin
-1.7782	apa nih
-1.0792	apa ya
-0.8239	apa yang
-0.6642	apa !EXIT
-0.7782	apa-apa aku
-0.7782	apa-apa nih
-0.7782	apa-apa !EXIT
-0.3010	apakah kamu
-0.7782	apalagi kalau
-0.7782	apalagi pas
-0.7782	apalagi rasanya
-0.3010	apapun rencana
-0.1249	aplikasi terdistribusi
-0.3010	asem !EXIT
-0.3010	asgard ada
-0.3010	aslinya yang
-0.3010	assasin gitu
-0.3010	atas bantuannya
-1.2553	atau dibilang
-1.2553	atau enggak
-1.2553	atau gak
-1.2553	atau kamu
-1.2553	atau kita
-1.2553	atau lebih
-1.2553	atau mendapatkan
-1.2553	atau set
-1.2553	atau tidak
-0.3010	atur semuanya
-1.0000	avenger ada
-1.0000	avenger lainnya
-1.0000	avenger yang
-0.5229	avenger !EXIT
-0.3010	avengers endgame
-0.3010	awal buku
-0.6021	awal-awal agak
-0.6021	awal-awal mereka
-0.3010	awalnya diimplementasiin
-0.3010	awan gitu
-0.3010	awas kalau
-0.3010	ayahnya tony
-0.3010	ayam mi
-0.3010	ayo tebak
-0.6021	ayok bud
-0.6021	ayok pergi
-0.3010	ayuk !EXIT
-0.7782	b dan
-0.7782	b menjawab
-0.7782	b !EXIT
-0.7270	baca buku
-0.3590	baca bukunya
-1.2041	baca sih
-1.2041	baca ulasan
-0.3010	baca-baca review
-0.3010	backpacker saja
-0.3010	badannya tuh
-0.8653	bagaimana dengan
-1.3424	bagaimana ia
-1.3424	bagaimana kalau
-1.3424	bagaimana kamu
-1.3424	bagaimana keadaan
-1.3424	bagaimana kehidupan
-1.3424	bagaimana perjuangan
-0.6435	bagaimana !EXIT
-0.3010	bagi-bagi tugas
-0.9031	bagian itu
-0.9031	bagian kejadian
-0.9031	bagian terasa
-0.9031	bagian yang
-0.3010	bagianku kalau
-0.3010	bagimu untuk
-0.6690	bagus banget
-1.1461	bagus kok
-1.1461	bagus yang
-0.4472	bagus !EXIT
-0.3010	bahagia di
-0.1249	bahas film
-1.0792	bahasa akan
-1.0792	bahasa belanda
-1.0792	bahasa dengan
-1.0792	bahasa gitu
-0.6021	bahasa jawa
-0.6021	bahkan bisa
-0.6021	bahkan para
-0.6021	bahwa dalam
-0.6021	bahwa yang
-1.3424	baik aku
-1.3424	baik banget
-1.3424	baik dalam
-1.3424	baik juga
-1.3424	baik kita
-0.8653	baik nih
-1.3424	baik pula
-0.6435	baik !EXIT
-0.3010	baik-baik saja
-0.9031	baiklah kalau
-0.4260	baiklah nanti
-0.9031	baiklah !EXIT
-0.6021	baiknya juga
-0.6021	baiknya !EXIT
-0.3010	bak mengucapkan
-1.1461	bakal ada
-1.1461	bakal bikin
-1.1461	bakal gagal
-1.1461	bakal ikut
-1.1461	bakal ketagihan
-1.1461	bakal ngasih
-1.1461	bakal ramai
-0.6021	bali selama
-0.6021	bali !EXIT
-0.4472	balik ke
-0.3010	balik lagi
-0.3010	ban sepedaku
-0.7782	ban !EXIT
-1.9731	banget ada
-1.9731	banget dah
-1.9731	banget deh
-1.9731	banget di
-1.9731	banget emang
-1.9731	banget gak
-1.9731	banget gimana
-1.9731	banget itu
-1.9731	banget jadi
-1.9731	banget karakter
-1.9731	banget loh
-1.9731	banget makan
-1.2742	banget nih
-1.9731	banget ramai
-1.4960	banget sama
-1.2742	banget sih
-1.9731	banget tarungnya
-1.4960	banget tuh
-1.9731	banget ya
-0.3397	banget !EXIT
-0.3010	bangunan-bangunan rumah
-0.3010	bantuan karena
-0.3010	bantuannya !EXIT
-1.5798	banyak aksinya
-1.5798	banyak belajar
-1.5798	banyak hal
-1.1027	banyak juga
-1.5798	banyak kerbau
-1.5798	banyak makanan
-1.5798	banyak nih
-1.5798	banyak orang
-1.5798	banyak rasa
-1.5798	banyak sawah
-1.5798	banyak sudut
-1.5798	banyak ya
-0.5384	banyak yang
-0.3010	bapaknya sendiri
-0.6021	bareng kamu
-0.6021	bareng yuk
-0.3010	bareng-bareng balik
-0.3010	barnes sama
-1.3802	baru aja
-1.3802	baru bisa
-0.6812	baru buka
-1.3802	baru dalam
-1.3802	baru kasih
-1.3802	baru makan
-0.9031	baru selesai
-1.3802	baru tentang
-1.3802	baru !EXIT
-0.3010	basah !EXIT
-0.3010	basi atau
-0.1249	batas akhir
-0.9031	batu itu
-0.2041	batu tak
-0.3010	bau gitu
-0.3010	baunya menyengat
-1.0000	bawakan aku
-1.0000	bawakan buah
-0.5229	bawakan roti
-1.0000	bawakan sekarung
-0.6021	bayar bagianku
-0.6021	bayar oke
-1.0000	bayarin aku
-1.0000	bayarin deh
-1.0000	bayarin kamu
-0.5229	bayarin ya
-0.6021	bayi haha
-0.6021	bayi !EXIT
-0.6021	bebas tidak
-0.6021	bebas !EXIT
-0.7782	beberapa bagian
-0.7782	beberapa lagi
-0.7782	beberapa tempat
-0.3010	begini kelompok
-1.0792	begitu aku
-1.0792	begitu film
-1.0792	begitu sangat
-1.0792	begitu tinggi
-0.6021	begitu !EXIT
-0.7782	belajar juga
-0.7782	belajar mulu
-0.7782	belajar !EXIT
-0.6021	belakang kolonialisme
-0.6021	belakang sejarah
-1.2553	belanda diselingi
-1.2553	belanda dulu
-1.2553	belanda ini
-1.2553	belanda itu
-1.2553	belanda karena
-1.2553	belanda malah
-1.2553	belanda mereka
-0.7782	belanda !EXIT
-0.7782	belas ada
-0.7782	belas juta
-0.7782	belas !EXIT
-0.9031	beli makanan
-0.4260	beli roti
-0.9031	beli yang
-1.5563	belum ada
-1.5563	belum coba
-1.5563	belum dimulai
-1.5563	belum gi
-1.5563	belum hahaha
-1.5563	belum isi
-1.5563	belum juga
-1.5563	belum menjenguk
-1.5563	belum narik
-1.0792	belum nih
-1.5563	belum pernah
-1.5563	belum sempat
-1.5563	belum ya
-0.7112	belum !EXIT
-0.7270	benar juga
-1.2041	benar kamu
-1.2041	benar kan
-0.7270	benar ya
-0.7270	benar !EXIT
-0.6021	benar-benar kayak
-0.6021	benar-benar menunjukkan
-0.3010	benarnya juga
-0.5563	bener banget
-1.2553	bener juga
-1.2553	bener maksudnya
-0.4102	bener !EXIT
-0.1249	bener-bener ga
-0.3010	beneran nih
-0.3010	bensin juga
-0.3010	berada dalam
-0.3010	berandalan dengan
-0.6021	berangkat deh
-0.6021	berangkat karna
-0.3010	berani dalam
-0.3010	berantem soal
-0.7782	berapa jam
-0.7782	berapa sih
-0.7782	berapa !EXIT
-0.3010	berargumen dengan
-0.7782	berarti bisa
-0.7782	berarti di
-0.7782	berarti nanti
-0.6021	berbagai dialog-dialog
-0.6021	berbagai drama
-0.3010	berbeda !EXIT
-0.3010	berbuat kerusakan
-0.3010	bercanda kok
-0.3010	berdekatan !EXIT
-0.3010	berdiri di
-0.3010	berdua rumahnya
-0.3010	bergabung !EXIT
-0.3010	bergaya remaja
-0.3010	berharapnya di
-0.9031	berhasil fis
-0.9031	berhasil ngembaliin
-0.9031	berhasil nih
-0.9031	berhasil snap
-0.3010	beringas lagi
-0.3010	beristirahat selama
-0.3010	berjalan dengan
-0.6021	berjuang demi
-0.6021	berjuang melalui
-0.3010	berkeliling kota
-0.7782	berkesan aku
-0.7782	berkesan banget
-0.7782	berkesan yang
-0.3010	berkunjung ke
-0.3010	berkurang <digantik>
-0.3010	berlatar belakang
-0.1249	berlibur ke
-0.3010	bermain sebagai
-0.3010	berperasaan ya
-0.3010	bersama sama
-0.3010	bersama-sama !EXIT
-0.3010	bersamurai !EXIT
-0.9031	bersepeda itu
-0.9031	bersepeda juga
-0.9031	bersepeda mengelilingi
-0.9031	bersepeda !EXIT
-0.3010	berspekulasi iqbal
-0.3010	bersyukur banget
-0.3010	bertanya pada
-0.3010	bertemu kamu
-0.3010	bertiga !EXIT
-0.3010	beruntung aja
-0.3010	beruntungnya lima
-0.3010	berwibawa !EXIT
-0.3010	besar dong
-0.3010	besok kita
-0.7782	biar aku
-0.7782	biar nanti
-0.7782	biar sehat
-0.6021	biasanya nam
-0.6021	biasanya selalu
-0.3010	bicara alur
-0.3010	bicarain tanpa
-0.3010	bijinya kegedean
-1.0792	bikin aku
-1.0792	bikin dia
-0.6021	bikin kamu
-1.0792	bikin sup
-1.0792	bikin ulasan
-0.7782	bilang apa
-0.7782	bilang kalau
-0.7782	bilang kasihan
-0.9031	bingung gitu
-0.4260	bingung kan
-0.9031	bingung !EXIT
-1.8451	bisa bikin
-1.8451	bisa cari
-1.8451	bisa dapat
-1.8451	bisa daripada
-1.8451	bisa dilihat
-1.8451	bisa dinikmati
-1.8451	bisa enggak
-1.8451	bisa ikut
-1.1461	bisa jadi
-1.8451	bisa jam
-1.8451	bisa kembali
-1.8451	bisa kita
-1.3680	bisa makan
-1.8451	bisa melihat
-1.8451	bisa memainkan
-1.8451	bisa membawakan
-1.8451	bisa menambah
-1.8451	bisa menambal
-1.8451	bisa menebaknya
-1.8451	bisa menguasai
-1.8451	bisa milih
-1.8451	bisa ngalahin
-1.3680	bisa ngangkat
-1.8451	bisa ngeliat
-1.8451	bisa nih
-1.8451	bisa pakai
-1.8451	bisa panggang
-1.8451	bisa pilih
-1.3680	bisa ya
-1.8451	bisa !EXIT
-0.3010	bocor dan
-0.3010	bohong !EXIT
-1.4150	boleh aja
-1.4150	boleh kamu
-1.4150	boleh kok
-1.4150	boleh makan
-0.9379	boleh minta
-1.4150	boleh nanti
-1.4150	boleh nih
-0.9379	boleh sih
-0.9379	boleh tuh
-1.4150	boleh !EXIT
-0.6021	bookmyshow biasanya
-0.6021	bookmyshow !EXIT
-0.6021	bramantyo sebagai
-0.6021	bramantyo !EXIT
-1.0000	buah <ya>
-1.0000	buah atau
-1.0000	buah paling
-0.5229	buah !EXIT
-0.3010	buahnya belanda
-1.5563	buat ada
-0.8573	buat aku
-1.5563	buat belajar
-1.0792	buat beli
-1.5563	buat cobain
-1.5563	buat dikunyah
-1.5563	buat joni
-1.0792	buat kamu
-1.5563	buat kelompok
-1.0792	buat kita
-1.5563	buat ngilangin
-1.5563	buat pasti
-1.5563	buat pergi
-1.0792	bud baik
-1.0792	bud nanti
-1.0792	bud tempatnya
-0.3802	bud !EXIT
-0.3010	budaya tempat
-0.7782	buka juga
-0.7782	buka sekitar
-0.7782	buka !EXIT
-0.7782	bukan begitu
-0.7782	bukan film
-0.7782	bukan lagi
-0.6021	bukankah akan
-0.6021	bukankah bersepeda
-0.6021	bukannya kamu
-0.6021	bukannya kapten
-0.3010	bukti !EXIT
-0.9031	buku aslinya
-0.9031	buku di
-0.9031	buku kedua
-0.9031	buku keduanya
-1.0792	bukunya apa
-1.0792	bukunya oke
-1.0792	bukunya sih
-0.3802	bukunya !EXIT
-1.0792	bumi diselamatin
-0.3802	bumi manusia
-1.0792	bumi setelah
-1.0792	bumi tuh
-0.3010	bunuh ayahnya
-0.3010	butuh sekitar
-0.6021	c ikut
-0.6021	c !EXIT
-0.3010	cabut kelas
-0.3010	campur aduk
-0.3010	canggih gitu
-0.6021	cantik banget
-0.6021	cantik !EXIT
-0.3010	cape dari
-0.3010	cara nyai
-0.3010	caranya tuh
-0.3010	cari titik
-0.3010	celananya basah
-0.6021	cemilan dimana
-0.6021	cemilan !EXIT
-0.3010	cengeng gitu
-0.9031	cepat ah
-0.9031	cepat banget
-0.9031	cepat jika
-0.9031	cepat !EXIT
-0.6021	cepat-cepat kesana
-0.6021	cepat-cepat nih
-0.3010	cerdas dan
-1.2553	cerita dan
-1.2553	cerita dengan
-1.2553	cerita ini
-0.7782	cerita mereka
-1.2553	cerita namun
-1.2553	cerita perjuangan
-1.2553	cerita tadi
-1.2553	cerita yang
-0.3010	ceritain restorannya
-0.9031	ceritanya hahahaha
-0.9031	ceritanya si
-0.4260	ceritanya !EXIT
-0.3010	chat di
-0.3010	cia !EXIT
-0.3010	cium annelies
-0.9031	coba enak
-0.9031	coba tanya
-0.9031	coba tanyakan
-0.9031	coba yang
-0.3010	cobain semua
-0.7782	cocok ga
-0.7782	cocok kalau
-0.7782	cocok kok
-0.1249	cokelat oreo
-0.3010	contohnya !EXIT
-0.3010	cui !EXIT
-1.0792	cukup baik
-1.0792	cukup bukti
-0.6021	cukup jauh
-1.0792	cukup mahal
-1.0792	cukup sih
-0.9031	cuma baca
-0.9031	cuma memperlihatkan
-0.9031	cuma punya
-0.9031	cuma sedikit
-1.2553	cuman antri
-1.2553	cuman baru
-1.2553	cuman bercanda
-1.2553	cuman bisa
-1.2553	cuman butuh
-1.2553	cuman di
-1.2553	cuman film
-1.2553	cuman ngantri
-1.2553	cuman sepertinya
-0.3010	cumi dong
-0.3010	daerah jepang
-0.3010	daging sapi
-0.3010	dah !EXIT
-0.7160	dalam dunia
-0.9379	dalam film
-1.4150	dalam hati
-1.4150	dalam memaparkan
-1.4150	dalam menghadapi
-1.4150	dalam menjalani
-1.4150	dalam perjalanan
-1.4150	dalam rangka
-1.4150	dalam suasana
-1.4150	dalam tugas
-1.9445	dan <anna>
-1.9445	dan <na>
-1.9445	dan bahasa
-1.9445	dan bakal
-1.9445	dan belanda
-1.9445	dan berhasil
-1.9445	dan berwibawa
-1.9445	dan bukan
-1.9445	dan c
-1.9445	dan cara
-1.9445	dan cepat
-1.9445	dan di
-1.9445	dan dimana
-1.9445	dan enak
-1.4674	dan juga
-1.4674	dan karang
-1.9445	dan kawan-kawannya
-1.9445	dan kebanggannya
-1.9445	dan keluarga
-1.9445	dan lainnya
-1.9445	dan mahal
-1.9445	dan marah
-1.9445	dan mungkin
-1.9445	dan orang
-1.9445	dan perihnya
-1.9445	dan perlu
-1.9445	dan plot
-1.9445	dan sayangnya
-1.9445	dan sedikit
-1.9445	dan semacamnya
-1.9445	dan seterusnya
-1.9445	dan si
-1.9445	dan suaminya
-1.9445	dan tanya
-1.9445	dan tentunya
-1.9445	dan terus
-1.4674	dan tidak
-1.9445	dan tugas
-1.9445	dan wanita
-1.4674	dan !EXIT
-0.9031	dapat jelek
-0.9031	dapat lima
-0.9031	dapat mengalahkan
-0.9031	dapat nilai
-0.7782	dapet gaji
-0.7782	dapet masalah
-0.7782	dapet semua
-0.3010	dapetin semua
-1.6990	dari apa
-1.2218	dari bookmyshow
-1.6990	dari bumi
-1.6990	dari cerita
-1.6990	dari dunia
-1.0000	dari film
-1.6990	dari ibu
-1.6990	dari ide
-1.6990	dari internet
-1.6990	dari kemaren
-1.2218	dari lombok
-1.6990	dari semua
-1.0000	dari sini
-1.6990	dari sisi
-1.6990	dari situ
-1.6990	dari sudut
-1.2218	dari teman
-1.6990	dari transportasi
-0.3010	daripada kamu
-0.0580	dasar kamu
-0.3010	datang tapi
-0.7782	daya <teb>
-0.7782	daya tarik
-0.7782	daya yang
-1.6021	deh aku
-1.6021	deh alat
-1.6021	deh biar
-1.6021	deh buat
-1.6021	deh dosennya
-1.6021	deh dulu
-1.6021	deh ganti
-1.6021	deh kalau
-1.6021	deh kalo
-1.1249	deh ke
-1.6021	deh si
-0.4260	deh !EXIT
-1.0792	dekat dengan
-1.0792	dekat enggak
-1.0792	dekat itb
-1.0792	dekat juga
-1.0792	dekat kok
-1.0792	dekat tempat
-0.6021	demi hak-haknya
-0.6021	demi komposisi
-1.6812	dengan baik
-1.6812	dengan bangunan-bangunan
-1.6812	dengan begini
-1.2041	dengan berbagai
-1.6812	dengan berbeda
-1.6812	dengan gaya
-1.6812	dengan hobi
-1.6812	dengan itu
-1.6812	dengan kehidupan
-1.6812	dengan kejahatan
-1.6812	dengan kelompok
-1.6812	dengan latar
-1.6812	dengan manusia
-1.6812	dengan mendorong
-1.6812	dengan motornya
-1.6812	dengan pulau
-1.6812	dengan rayuan-rayuan
-1.6812	dengan semua
-1.6812	dengan sepedaku
-1.2041	dengan tema
-1.6812	dengan terkurungnya
-1.6812	dengan tugas
-0.1249	dengar dari
-0.7782	depan gerbang
-0.7782	depan kita
-0.7782	depan sudah
-0.7782	desain atau
-0.3010	desain yang
-0.6021	detail seperti
-0.6021	detail yah
-2.1072	di akhir
-2.1072	di angkasa
-2.1072	di awal
-1.6301	di awal-awal
-2.1072	di beberapa
-2.1072	di buku
-2.1072	di bukunya
-2.1072	di daerah
-1.2621	di dalam
-2.1072	di depan
-1.1530	di dunia
-1.2621	di film
-2.1072	di filmnya
-2.1072	di gua
-1.0658	di kampung
-1.6301	di kampus
-2.1072	di kapal
-2.1072	di line
-1.6301	di lombok
-2.1072	di mahkamah
-1.6301	di masa
-2.1072	di mobilku
-2.1072	di perpustakaan
-2.1072	di quantum
-1.2621	di restoran
-1.4082	di rumah
-2.1072	di rumahku
-1.2621	di sana
-1.4082	di sekitar
-2.1072	di sini
-2.1072	di tanah
-2.1072	di tengah
-1.6301	di trailer
-2.1072	di ujung
-1.7482	dia ajak
-1.2711	dia bingung
-1.2711	dia bisa
-1.7482	dia cuma
-1.7482	dia dianggap
-1.7482	dia diselamatkan
-1.7482	dia emang
-1.0492	dia ga
-1.7482	dia gabisa
-1.7482	dia juga
-1.7482	dia kayak
-1.7482	dia lagi
-1.7482	dia langsung
-1.7482	dia mah
-1.7482	dia malah
-1.2711	dia masih
-1.7482	dia punya
-1.7482	dia sakit
-1.2711	dia sendiri
-1.7482	dia tidak
-1.7482	dia yang
-1.7482	dia !EXIT
-0.3010	diacungi jempol
-0.3010	diakui oleh
-0.6021	dialog-dialog menggunakan
-0.6021	dialog-dialog romantis
-0.3010	diambil dari
-0.3010	dianggap memiliki
-0.6021	diantara avenger
-0.6021	diantara empat
-0.3010	dibajak menggunakan
-0.3010	dibanding kepentingan
-0.3010	dibawakan buah
-0.7782	dibikin es
-0.3010	dibikin jus
-0.6021	dibilang cantik
-0.6021	dibilang gundik
-0.6021	dibuat deh
-0.6021	dibuat sama
-0.3010	diceritain si
-0.3010	dicintai !EXIT
-0.3010	dicobain ke
-0.3010	difilmkan !EXIT
-0.6021	digambarin kan
-0.6021	digambarin lima
-0.3010	digantikan dengan
-0.3010	diimplementasiin sama
-0.3010	dikatain thanos
-0.3010	dikerjakan !EXIT
-0.3010	dikombinasikan dengan
-0.3010	dikunyah !EXIT
-0.3010	dilain sisi
-0.3010	dilakuin sama
-0.3010	dilihat dari
-0.3010	diluar ekspektasi
-0.9031	dimana aku
-0.9031	dimana kita
-0.9031	dimana memangnya
-0.9031	dimana !EXIT
-0.3010	dimulai nih
-0.0458	din !EXIT
-0.3010	dinikmati di
-0.3010	diperintah dan
-0.3010	dipersiapkan !EXIT
-0.3010	dipimpin kapten
-0.3010	diramalin si
-0.3010	dirasakan satu
-0.3010	diri dia
-0.3010	disana dengan
-0.3010	disangka lagi
-0.3010	disangka-sangka sih
-0.3010	diselamatin sama
-0.3010	diselamatkan tikus
-0.3010	diselingi dengan
-0.3010	disesuaiin pas
-0.3010	disiapkan untuk
-0.3010	disini benar-benar
-0.3010	disisipi komedi
-0.6021	disitu kan
-0.6021	disitu !EXIT
-0.3010	disuguhin bener-bener
-0.3010	disuruh ngasih
-0.3010	ditakdirkan untuk
-0.3010	ditambal !EXIT
-0.3010	ditampilkan membantu
-0.3010	ditolongin sama
-0.3010	diving !EXIT
-0.3010	do !EXIT
-0.3010	doang buat
-0.7782	dokter barnes
-0.7782	dokter menyarankan
-0.7782	dokter strange
-1.3802	dong aku
-1.3802	dong bahas
-1.3802	dong kan
-1.3802	dong ke
-1.3802	dong sama
-1.3802	dong terus
-0.3388	dong !EXIT
-0.6021	dosen seram
-0.6021	dosen !EXIT
-0.6021	dosennya galak
-0.6021	dosennya siapa
-0.3010	drama yang
-0.9031	dua hari
-1.3802	dua orang
-0.9031	dua puluh
-1.3802	dua ratus
-0.9031	dua ribu
-1.3802	dua roti
-0.9031	dua sampai
-1.3802	dua !EXIT
-0.6021	duit kamu
-0.6021	duit nih
-1.3010	dulu aja
-1.3010	dulu ga
-1.3010	dulu gitu
-1.3010	dulu rotinya
-0.4559	dulu ya
-0.8239	dulu !EXIT
-1.0000	duluan aja
-1.0000	duluan atau
-1.0000	duluan bud
-0.5229	duluan !EXIT
-1.4472	dunia <kantu>
-1.4472	dunia dua
-1.4472	dunia ini
-1.4472	dunia kerja
-0.6021	dunia kuantum
-0.7482	dunia nyata
-0.9700	dunia quantum
-1.4472	dunia sebuah
-0.3010	durasinya tiga
-1.3424	durian deh
-0.8653	durian itu
-1.3424	durian juga
-1.3424	durian kan
-1.3424	durian murah
-1.3424	durian pokoknya
-0.4973	durian !EXIT
-0.2041	efek snap
-0.9031	efek snapnya
-1.1072	eh aku
-1.3291	eh balik
-1.8062	eh boleh
-1.3291	eh bud
-1.8062	eh durian
-1.8062	eh enggak
-1.8062	eh film
-1.3291	eh iya
-1.8062	eh jangan
-1.8062	eh kalian
-1.8062	eh kalo
-1.8062	eh kamu
-1.8062	eh kok
-1.8062	eh malah
-1.8062	eh nanti
-1.8062	eh ngomong-ngomong
-1.8062	eh oke
-1.8062	eh rido
-1.8062	eh sekarang
-1.8062	eh sorry
-0.8519	eh tapi
-1.8062	eh ternyata
-1.8062	eh ton
-0.3010	ekspektasi sih
-0.9031	emang apalagi
-0.9031	emang inisiasi
-0.9031	emang salah
-0.9031	emang seru
-0.6021	empat belas
-0.6021	empat sore
-1.7160	enak apa
-1.7160	enak atau
-0.7618	enak banget
-1.2389	enak dan
-1.0170	enak di
-1.7160	enak itu
-1.0170	enak juga
-1.7160	enak kok
-1.7160	enak rasanya
-1.7160	enak semua
-1.7160	enak tapi
-0.6746	enak !EXIT
-0.6021	enakan mah
-0.6021	enakan rasa
-0.3010	enam jam
-0.7782	endgame belum
-0.7782	endgame tadi
-0.7782	endgame !EXIT
-0.3010	energinya untuk
-0.9031	engga baca
-0.9031	engga masalah
-0.9031	engga sih
-0.9031	engga !EXIT
-0.8325	enggak bisa
-1.5315	enggak cocok
-1.5315	enggak dari
-1.5315	enggak enak
-1.5315	enggak hehe
-1.5315	enggak mau
-1.5315	enggak misalkan
-1.5315	enggak nih
-1.5315	enggak pingin
-1.5315	enggak setuju
-1.5315	enggak tahu
-0.6864	enggak !EXIT
-0.3010	es krim
-0.7782	es krimnya
-0.7782	es parut
-0.3010	fa !EXIT
-0.3010	fase-fase sulit
-1.8195	film ada
-1.8195	film avengers
-1.8195	film bagus
-1.8195	film bumi
-1.8195	film dengan
-1.3424	film endgame
-1.8195	film haha
-0.3571	film ini
-1.8195	film iron
-1.8195	film itu
-1.8195	film juga
-1.8195	film nasionalis
-1.8195	film tayang
-1.8195	film terbaik
-1.1206	film yang
-1.8195	film !EXIT
-0.3010	film-film !EXIT
-1.2041	filmnya campur
-1.2041	filmnya dari
-1.2041	filmnya din
-1.2041	filmnya gi
-1.2041	filmnya gimana
-1.2041	filmnya itu
-1.2041	filmnya secara
-1.2041	filmnya !EXIT
-0.9031	fis tapi
-0.2041	fis !EXIT
-0.3010	full !EXIT
-1.2863	ga ada
-1.7634	ga apa
-1.2863	ga berangkat
-1.7634	ga beringas
-1.7634	ga bisa
-1.7634	ga disangka
-1.7634	ga disangka-sangka
-1.7634	ga kebayang
-1.7634	ga keluar-keluar
-1.7634	ga kena
-1.7634	ga kuat
-1.7634	ga mikir
-1.7634	ga nyerah
-1.2863	ga punya
-1.7634	ga sah
-1.7634	ga salah
-1.7634	ga sengaja
-1.7634	ga sepinter
-1.2863	ga sih
-1.2863	ga terduga
-1.2863	ga terlalu
-1.2863	ga !EXIT
-0.3010	gabisa keluar
-0.3010	gabung makan
-0.7782	gagal avenger
-0.7782	gagal disitu
-0.7782	gagal jadi
-0.3010	gaji pertama
-1.2553	gak baca
-0.7782	gak bisa
-1.2553	gak diakui
-1.2553	gak kebayang
-1.2553	gak ngebosenin
-0.5563	gak sih
-0.3010	galak bud
-0.3010	galau gitu
-0.3010	gambarnya yang
-0.3010	gamma !EXIT
-0.3010	gampang buat
-0.3010	ganti topik
-0.3010	gapapa kok
-0.3010	gara-gara aku
-0.6021	gaya dan
-0.6021	gaya sinematografi
-0.3010	gede ijo
-0.3010	gedung rumah
-0.3010	gerbang sekolah
-0.3010	gestur tubuh
-1.2041	gi kan
-1.2041	gi perasaan
-1.2041	gi tapi
-0.2499	gi !EXIT
-0.6021	gila seru
-0.6021	gila sih
-0.3010	gili menyelam
-1.5563	gimana filmnya
-1.5563	gimana gitu
-1.5563	gimana jadi
-0.8573	gimana kalau
-1.5563	gimana kalo
-1.5563	gimana memperjuangkan
-1.5563	gimana menurut
-1.0792	gimana nih
-1.0792	gimana sih
-1.5563	gimana ujian
-0.7112	gimana !EXIT
-0.3010	gini aja
-1.6628	gitu dunia
-1.6628	gitu gak
-1.1856	gitu kan
-1.6628	gitu lagi
-1.6628	gitu pendekar
-1.6628	gitu sama
-0.8177	gitu sih
-1.1856	gitu ya
-0.3840	gitu !EXIT
-0.3010	gitu-gitu aku
-0.3010	gombalnya !EXIT
-0.3010	gua teroris
-0.3010	gundik !EXIT
-0.3010	ha iya
-0.7782	habis makan
-0.7782	habis sama
-0.7782	habis ujian
-0.3010	habisin dulu
-0.3010	haduh telat
-0.8239	haha iya
-0.1249	haha !EXIT
-1.2041	hahaha iya
-1.2041	hahaha si
-1.2041	hahaha tapi
-0.2499	hahaha !EXIT
-0.3010	hahahaha !EXIT
-0.3010	hai din
-0.3010	hak yang
-0.3010	hak-haknya sebagai
-0.6021	hal baik
-0.6021	hal yang
-0.3010	halah bingung
-0.6021	hampir benar
-0.6021	hampir mati
-0.3010	hank pymes
-0.1249	hanung bramantyo
-1.2041	hanya ada
-1.2041	hanya dirasakan
-0.7270	hanya ingin
-1.2041	hanya itu
-1.2041	hanya pengen
-0.7270	hanya saja
-0.3010	harganya cukup
-0.3802	hari ini
-0.6021	hari lagi
-1.0792	hari !EXIT
-1.0792	harry gimana
-1.0792	harry habis
-1.0792	harry makan-makan
-1.0792	harry mau
-1.0792	harry ya
-1.0792	harry !EXIT
-1.3424	harus buat
-0.8653	harus cepat-cepat
-1.3424	harus dikerjakan
-1.3424	harus dilakuin
-1.3424	harus dipersiapkan
-1.3424	harus inget
-1.3424	harus ke
-1.3424	harus membuat
-1.3424	harus memerangi
-1.3424	harus pisah
-0.3010	hati yang
-0.3010	hawkeye jadi
-0.6021	hedon habis
-0.6021	hedon juga
-1.4150	hehe aku
-1.4150	hehe iya
-1.4150	hehe maap
-0.1362	hehe !EXIT
-0.3010	hei jo
-0.3010	hemat dan
-1.0000	hidup di
-1.0000	hidup dia
-1.0000	hidup enak
-1.0000	hidup kan
-1.0000	hidup yang
-0.3010	hidupnya !EXIT
-0.6021	hingga angle
-0.6021	hingga detail
-0.3010	hiruk-pikuk kekalutan
-0.1249	hmm !EXIT
-0.3010	hobi seseorang
-0.3010	hobiku adalah
-0.7782	hobimu adalah
-0.7782	hobimu bersepeda
-0.7782	hobimu itu
-0.9031	hulk itu
-0.9031	hulk kan
-0.9031	hulk ternyata
-0.9031	hulk ya
-0.6021	ia memvisualisasikan
-0.6021	ia tidak
-0.6021	ibu dan
-0.6021	ibu pertiwi
-0.6021	ide itu
-0.6021	ide yang
-0.3010	ijo tapi
-0.3010	ikan dan
-1.5051	ikut bergabung
-1.5051	ikut dong
-1.5051	ikut enggak
-1.5051	ikut hehe
-1.5051	ikut jenguk
-1.5051	ikut juga
-0.6601	ikut kamu
-1.0280	ikut kelas
-1.5051	ikut ketawa
-1.5051	ikut makan-makan
-1.5051	ikut sama
-1.5051	ikut !EXIT
-0.3010	ikut-ikut saja
-0.3010	imajinasinya itu
-0.3010	indah !EXIT
-0.3010	indianya itu
-0.3010	indonesia saat
-0.3010	ingat nih
-0.3010	ingat-ingat lagi
-0.7782	inget temen
-0.7782	inget tuh
-0.7782	inget !EXIT
-0.9031	ingin berkeliling
-0.9031	ingin membuat
-0.9031	ingin menjadi
-0.9031	ingin nonton
-1.9243	ini agak
-1.4472	ini aku
-1.9243	ini baik-baik
-1.9243	ini bisa
-1.9243	ini emang
-1.4472	ini film
-1.9243	ini ga
-1.9243	ini ia
-1.9243	ini jalan
-1.4472	ini kamu
-1.9243	ini kan
-1.9243	ini makanannya
-1.9243	ini masih
-1.9243	ini meleleh
-1.9243	ini memaksa
-1.9243	ini memiliki
-1.9243	ini menggambarkan
-1.9243	ini nih
-1.9243	ini pada
-1.9243	ini sangat
-1.9243	ini sebenernya
-1.9243	ini sih
-1.9243	ini tampil
-1.9243	ini visualisasi
-1.9243	ini wah
-0.4929	ini !EXIT
-0.3010	inisiasi tuh
-0.3010	inspirasi banget
-0.3010	insyaallah !EXIT
-0.3010	internet !EXIT
-0.3010	intinya dia
-1.0000	iqbal bagus
-1.0000	iqbal bakal
-1.0000	iqbal disini
-1.0000	iqbal ramadhan
-1.0000	iqbal yang
-0.3010	iri akan
-0.3010	iron man
-0.3010	isi bensin
-0.3010	istri anak
-0.3010	itb !EXIT
-2.1818	itu <terkonn>
-1.7047	itu ada
-1.7047	itu adalah
-2.1818	itu ann
-2.1818	itu baru
-2.1818	itu baunya
-2.1818	itu buah
-2.1818	itu buat
-2.1818	itu dari
-2.1818	itu dengan
-2.1818	itu diceritain
-2.1818	itu dosen
-2.1818	itu hari
-2.1818	itu hehe
-2.1818	itu jangan
-2.1818	itu kamu
-2.1818	itu kan
-2.1818	itu karena
-2.1818	itu kayak
-2.1818	itu kena
-2.1818	itu keren
-2.1818	itu kesel
-2.1818	itu kombinasi
-2.1818	itu lagi
-2.1818	itu lebih
-1.7047	itu lucu
-2.1818	itu lumayan
-2.1818	itu masih
-2.1818	itu melelahkan
-2.1818	itu mengetahui
-2.1818	itu mereka
-2.1818	itu mungkin
-2.1818	itu mustahil
-2.1818	itu paling
-2.1818	itu perlu
-2.1818	itu pisang
-2.1818	itu pribumi
-2.1818	itu saja
-2.1818	itu sama
-1.7047	itu sedih
-2.1818	itu sekarang
-2.1818	itu sendiri
-2.1818	itu sih
-2.1818	itu sudah
-2.1818	itu tapi
-2.1818	itu tempatnya
-2.1818	itu tidak
-2.1818	itu tony
-1.7047	itu tuh
-2.1818	itu udah
-2.1818	itu waktu
-2.1818	itu ya
-2.1818	itu yang
-0.6378	itu !EXIT
-1.1883	iya aku
-2.0334	iya bagian
-2.0334	iya benar
-0.8573	iya bener
-2.0334	iya beneran
-2.0334	iya boleh
-1.5563	iya dong
-2.0334	iya emang
-2.0334	iya fis
-1.1883	iya itu
-1.5563	iya iya
-1.5563	iya juga
-2.0334	iya kalo
-2.0334	iya kami
-2.0334	iya kenapa
-2.0334	iya kita
-2.0334	iya lah
-2.0334	iya lanjut
-2.0334	iya lucu
-1.5563	iya nanti
-2.0334	iya nih
-2.0334	iya ronin
-2.0334	iya sama
-2.0334	iya sampe
-2.0334	iya sedih
-1.5563	iya setuju
-2.0334	iya sih
-2.0334	iya terima
-1.5563	iya ya
-0.9920	iya !EXIT
-1.9031	jadi adalah
-1.9031	jadi ancur
-1.9031	jadi annelies
-1.9031	jadi assasin
-1.9031	jadi badannya
-1.9031	jadi banyak
-1.9031	jadi bayi
-1.9031	jadi belum
-1.9031	jadi berantem
-1.9031	jadi caranya
-1.9031	jadi dia
-1.9031	jadi dua
-1.9031	jadi ikut
-1.9031	jadi inspirasi
-1.9031	jadi itu
-1.9031	jadi jangan
-1.9031	jadi kakek-kakek
-1.9031	jadi kemana-mana
-1.9031	jadi kita
-1.9031	jadi kunci
-1.9031	jadi langsung
-1.2041	jadi laper
-1.9031	jadi lebih
-1.9031	jadi liburan
-1.9031	jadi menurut
-1.9031	jadi mewek
-1.9031	jadi minke
-1.9031	jadi normal
-1.9031	jadi nurut
-1.9031	jadi oke
-1.9031	jadi penolongmu
-1.4260	jadi satu
-1.9031	jadi selamat
-1.9031	jadi sepertinya
-1.9031	jadi seru
-1.9031	jadi tambah
-1.9031	jadi udah
-0.3010	jadinya mereka
-0.3010	jadwal sibuk-sibuknya
-0.3010	jahat kotanya
-1.1461	jalan bareng
-1.1461	jalan cukup
-1.1461	jalan dulu
-1.1461	jalan ini
-1.1461	jalan kaki
-1.1461	jalan lima
-1.1461	jalan !EXIT
-0.7782	jalan-jalan ke
-0.7782	jalan-jalan sekitar
-0.7782	jalan-jalan !EXIT
-1.4150	jam berapa
-1.4150	jam dalam
-1.4150	jam empat
-0.9379	jam lagi
-1.4150	jam sebelas
-0.9379	jam sembilan
-1.4150	jam sepuluh
-1.4150	jam tapi
-1.4150	jam tiga
-1.4150	jam tujuh
-1.4150	jam ya
-0.3010	jaman dulu
-0.6021	jamin ini
-0.6021	jamin seratus
-1.1461	jangan dibawakan
-1.1461	jangan khawatir
-1.1461	jangan langsung
-0.4472	jangan lupa
-1.1461	jangan makan
-0.3010	jaraknya sekitar
-0.6021	jarang ada
-0.6021	jarang si
-1.0000	jauh enggak
-1.0000	jauh imajinasinya
-1.0000	jauh nih
-1.0000	jauh ya
-1.0000	jauh !EXIT
-0.3010	jawa dan
-0.7782	jawa yang
-0.3010	jelas dia
-0.7782	jelaskan lagi
-0.7782	jelaskan lebih
-0.7782	jelaskan ulang
-0.3010	jelek nih
-0.3010	jempol !EXIT
-0.1249	jen !EXIT
-0.3010	jenguk joni
-0.6021	jenisnya manis
-0.6021	jenisnya musang
-0.3010	jenius diantara
-0.3010	jenjang status
-0.3010	jepang gitu
-0.7782	jika bicara
-0.7782	jika kamu
-0.7782	jika mengarahkan
-0.3010	jiwa petualang
-0.3010	jo !EXIT
-0.7782	joker cuman
-0.7782	joker sih
-0.7782	joker terus
-1.3424	joni ke
-1.3424	joni mana
-1.3424	joni nanti
-1.3424	joni sakit
-0.8653	joni tidak
-0.3882	joni !EXIT
-0.3010	josep udah
-0.3010	jual roti
-0.5051	jualan makanan
-0.2499	jualan roti
-2.0334	juga ada
-2.0334	juga akan
-2.0334	juga analisa
-2.0334	juga ayam
-2.0334	juga baca-baca
-2.0334	juga bagus
-1.5563	juga belum
-2.0334	juga cantik
-2.0334	juga dapat
-2.0334	juga di
-2.0334	juga dong
-2.0334	juga gitu
-2.0334	juga jadi
-2.0334	juga kalau
-2.0334	juga kamu
-2.0334	juga karena
-2.0334	juga kasihan
-2.0334	juga kerbaunya
-2.0334	juga kesedihannya
-2.0334	juga loh
-2.0334	juga makin
-1.5563	juga mantap
-2.0334	juga mau
-2.0334	juga membuat
-2.0334	juga menjadikan
-1.5563	juga nih
-2.0334	juga peserta
-2.0334	juga roti
-1.5563	juga sawah-sawah
-1.3345	juga sih
-2.0334	juga suka
-2.0334	juga ternyata
-2.0334	juga tidak
-2.0334	juga udah
-1.5563	juga ya
-2.0334	juga yang
-0.7112	juga !EXIT
-0.3010	jujur sama
-0.3010	jumpa kembali
-0.6021	jus enak
-0.6021	jus juga
-0.3010	juta kemungkinan
-0.3010	kabar baiknya
-0.3010	kabari <se>
-0.3010	kabarmu !EXIT
-0.3010	kabur !EXIT
-0.3010	kacau ini
-0.6021	kadang bau
-0.6021	kadang suka
-0.3010	kafe sana
-0.6021	kaget manggil
-0.6021	kaget !EXIT
-0.3010	kagum si
-0.5229	kakek di
-1.0000	kakek kamu
-1.0000	kakek sudah
-1.0000	kakek !EXIT
-0.3010	kakek-kakek terus
-0.3010	kaki sekitar
-1.9243	kalau ada
-1.0792	kalau aku
-1.4472	kalau begitu
-1.9243	kalau besok
-1.9243	kalau bisa
-1.9243	kalau bohong
-1.9243	kalau buat
-1.9243	kalau cuman
-1.9243	kalau desain
-1.4472	kalau di
-1.4472	kalau dibikin
-1.9243	kalau durian
-1.4472	kalau ga
-1.9243	kalau harry
-1.9243	kalau joni
-0.8103	kalau kamu
-1.2253	kalau kita
-1.9243	kalau liburan
-1.9243	kalau makanannya
-1.9243	kalau masih
-1.4472	kalau ramai
-1.9243	kalau sekarang
-1.9243	kalau sudah
-1.9243	kalau terminator
-1.9243	kalau tidak
-1.9243	kalau untuk
-0.7782	kali ini
-0.7782	kali maksudnya
-0.7782	kali yaitu
-1.2553	kalian akan
-0.7782	kalian mau
-1.2553	kalian ming
-1.2553	kalian ngerti
-1.2553	kalian semua
-1.2553	kalian tidak
-1.2553	kalian udah
-1.2553	kalian !EXIT
-0.4559	kalo aku
-1.3010	kalo dari
-1.3010	kalo disuruh
-1.3010	kalo gitu
-1.3010	kalo kita
-1.3010	kalo menurut
-1.3010	kalo paling
-0.6021	kami pesan
-0.6021	kami tunggu
-1.0792	kampung akan
-0.6021	kampung kakek
-1.0792	kampung masih
-1.0792	kampung tapi
-1.0792	kampung !EXIT
-0.3010	kampungnya kalau
-1.0792	kampus aja
-1.0792	kampus doang
-0.2341	kampus !EXIT
-2.2504	kamu ada
-2.2504	kamu adegan
-2.2504	kamu aku
-2.2504	kamu baca
-1.7733	kamu bakal
-2.2504	kamu baru
-2.2504	kamu bikin
-1.2090	kamu bisa
-2.2504	kamu buat
-2.2504	kamu cuman
-2.2504	kamu dan
-1.7733	kamu di
-2.2504	kamu din
-2.2504	kamu dulu
-2.2504	kamu enak
-2.2504	kamu enggak
-1.5515	kamu gimana
-2.2504	kamu hehe
-1.7733	kamu ikut
-2.2504	kamu jarang
-2.2504	kamu juga
-2.2504	kamu kalau
-2.2504	kamu kan
-2.2504	kamu kerjain
-2.2504	kamu ketagihan
-2.2504	kamu kit
-2.2504	kamu kunjungi
-2.2504	kamu langsung
-2.2504	kamu liatnya
-2.2504	kamu makan
-2.2504	kamu malah
-2.2504	kamu mark
-1.2090	kamu mau
-2.2504	kamu memang
-2.2504	kamu mengayuhkan
-2.2504	kamu mengendarai
-2.2504	kamu menyenangkan
-2.2504	kamu merendah
-2.2504	kamu minta
-2.2504	kamu nam
-2.2504	kamu nanti
-2.2504	kamu nih
-2.2504	kamu orang
-2.2504	kamu orangnya
-2.2504	kamu pemeran
-2.2504	kamu perpustakaan
-1.7733	kamu punya
-1.5515	kamu saja
-2.2504	kamu salah
-2.2504	kamu sih
-2.2504	kamu sok
-2.2504	kamu sudah
-2.2504	kamu suka
-1.5515	kamu tau
-2.2504	kamu tinggal
-2.2504	kamu ton
-1.5515	kamu udah
-2.2504	kamu untuk
-1.7733	kamu yang
-1.1365	kamu !EXIT
-1.8451	kan abis
-1.3680	kan aku
-1.8451	kan alatnya
-1.8451	kan apa
-1.8451	kan bagaimana
-1.8451	kan bingung
-1.8451	kan bisa
-1.8451	kan cuma
-1.8451	kan di
-1.8451	kan diri
-1.8451	kan enggak
-1.8451	kan ga
-1.8451	kan juga
-1.8451	kan kadang
-1.3680	kan kamu
-1.8451	kan karena
-1.8451	kan keren
-1.8451	kan kita
-1.8451	kan kok
-1.8451	kan makhluk
-1.8451	kan musang
-1.8451	kan sama
-1.8451	kan sekitaran
-1.8451	kan semester
-1.8451	kan waktu
-1.3680	kan yang
-0.8037	kan !EXIT
-0.3010	kantin !EXIT
-0.3010	kapal dalam
-0.6021	kapan batas
-0.6021	kapan dan
-0.1413	kapten amerika
-0.7782	kapten marvel
-1.0792	karakter keren-keren
-0.3802	karakter minke
-1.0792	karakter nyai
-1.0792	karakter wanita
-0.1249	karang laut
-1.5563	karena adanya
-1.5563	karena aku
-1.5563	karena dia
-1.5563	karena gak
-1.5563	karena hank
-1.5563	karena hanya
-1.5563	karena kehilangan
-1.5563	karena keluguan
-1.5563	karena lagi
-1.5563	karena mengendarai
-1.5563	karena menurut
-1.5563	karena otomatis
-1.5563	karena sakit
-1.5563	karena sedikit
-1.5563	karena sekeren
-1.5563	karena semua
-1.5563	karena tubuhnya
-1.5563	karena ulahnya
-1.1461	karna aku
-1.1461	karna apa
-1.1461	karna itu
-1.1461	karna kalian
-1.1461	karna kita
-1.1461	karna sakit
-1.1461	karna semua
-0.3010	kasar dan
-1.2041	kasih <ta>
-1.2041	kasih banyak
-1.2041	kasih kembali
-0.7270	kasih tahu
-1.2041	kasih tau
-1.2041	kasih ya
-1.2041	kasih !EXIT
-0.6021	kasihan wanita
-0.6021	kasihan ya
-0.9031	kata mamanya
-0.9031	kata orang-orang
-0.4260	kata siapa
-0.7782	katanya nana
-0.7782	katanya nyeremin
-0.7782	katanya sakit
-1.1461	kau bisa
-1.1461	kau ini
-1.1461	kau lakukan
-1.1461	kau makan
-0.6690	kau sudah
-1.1461	kau tidak
-0.3010	kawan-kawannya itu
-0.6021	kaya <komputil>
-0.6021	kaya !EXIT
-1.1461	kayak ada
-1.1461	kayak di
-1.1461	kayak disesuaiin
-1.1461	kayak ngeliatnya
-0.6690	kayak semacam
-1.1461	kayak waktu
-0.6021	kayaknya aku
-1.0792	kayaknya belum
-1.0792	kayaknya kita
-1.0792	kayaknya tempatnya
-1.0792	kayaknya udah
-0.6021	kayanya detail
-0.6021	kayanya ga
-1.9731	ke antman
-1.9731	ke asgard
-1.9731	ke belanda
-1.9731	ke bumi
-1.9731	ke cerita
-1.9731	ke ceritanya
-1.9731	ke dunia
-1.9731	ke kafe
-1.9731	ke kampus
-1.9731	ke kamu
-1.9731	ke kantin
-1.4960	ke kelas
-1.4960	ke mall
-1.4960	ke masa
-1.9731	ke mereka
-1.4960	ke minke
-1.9731	ke nana
-1.9731	ke perpustakaan
-1.2742	ke pulau
-1.0189	ke rumah
-1.9731	ke rumahku
-1.9731	ke rumahmu
-1.2742	ke rumahnya
-1.1280	ke sini
-1.4960	ke tahun
-1.9731	ke temen-temen
-1.4960	ke tempat
-1.9731	ke toko
-1.9731	ke vormir
-1.9731	ke waktu
-0.3010	keadaan bumi
-0.3010	keadaannya mirip
-0.3010	keadilan di
-0.3010	kebanggannya terhadap
-0.3010	kebanyakan bahas
-0.6021	kebayang kan
-0.6021	kebayang sih
-0.3010	kebetulan mereka
-0.3010	kecantikanmu !EXIT
-0.3010	kecil terus
-0.6021	kedua itu
-0.6021	kedua waktu
-0.3010	keduanya itu
-0.3010	kegedean !EXIT
-0.3010	kehadiran agama
-0.9031	kehidupan di
-0.9031	kehidupan masa
-0.9031	kehidupan pribumi
-0.9031	kehidupan !EXIT
-0.3010	kehilangan suami
-1.1461	kejadian diantara
-1.1461	kejadian ga
-0.6690	kejadian snap
-1.1461	kejadian tikus
-1.1461	kejadian tuh
-1.1461	kejadian yang
-0.6021	kejahatan di
-0.6021	kejahatan !EXIT
-0.3010	kekalutan <tata>
-0.3010	kelahirannya sendiri
-0.3010	kelar !EXIT
-1.0280	kelas belum
-1.5051	kelas dosen
-1.5051	kelas dulu
-1.0280	kelas itu
-1.5051	kelas mereka
-1.0280	kelas nih
-1.5051	kelas pat
-1.0280	kelas pengembangan
-1.5051	kelas sebelah
-1.5051	kelas sekarang
-1.5051	kelas sudah
-1.5051	kelas !EXIT
-0.3010	kelasnya sebagai
-0.3010	kelihatan tempat
-0.3010	kelihatannya masih
-1.0792	kelompok baru
-1.0792	kelompok lama
-1.0792	kelompok saja
-1.0792	kelompok sudah
-0.6021	kelompok !EXIT
-0.6021	keluar dari
-0.6021	keluar ke
-0.3010	keluar-keluar ini
-0.3010	keluarga akan
-0.3010	keluguan annelies
-1.2041	kemana din
-1.2041	kemana liburan
-1.2041	kemana nih
-1.2041	kemana saja
-1.2041	kemana ya
-0.5051	kemana !EXIT
-0.3010	kemana-mana ya
-0.6690	kemaren aku
-1.1461	kemaren belajar
-1.1461	kemaren katanya
-1.1461	kemaren ke
-1.1461	kemaren mamanya
-1.1461	kemaren !EXIT
-0.6021	kemarin sama
-0.6021	kemarin !EXIT
-0.7782	kembali melanjutkan
-0.3010	kembali !EXIT
-0.3010	kemudian di
-0.3010	kemungkinan kejadian
-0.2041	kena efek
-0.9031	kena tuh
-1.0000	kenapa kapten
-1.0000	kenapa kita
-1.0000	kenapa tony
-1.0000	kenapa ya
-1.0000	kenapa !EXIT
-0.6021	kenyang langsung
-0.6021	kenyang !EXIT
-0.3010	kepada kalian
-0.7782	kepentingan banyak
-0.7782	kepentingan dia
-0.7782	kepentingan orang
-0.3010	kepuasan karena
-0.3010	keras namun
-0.6021	kerbau dan
-0.6021	kerbau kok
-0.3010	kerbaunya !EXIT
-0.9031	keren abis
-0.9031	keren banget
-0.9031	keren ya
-0.9031	keren !EXIT
-0.3010	keren-keren ada
-0.3010	kerja !EXIT
-0.6021	kerjaan kakek
-0.6021	kerjaan kamu
-0.3010	kerjain apa
-0.7782	kerjakan di
-0.7782	kerjakan prnya
-0.7782	kerjakan tugasnya
-0.3010	kerusakan !EXIT
-0.6021	kesana soalnya
-0.6021	kesana !EXIT
-0.3010	kesedihannya sih
-0.6021	kesel banget
-0.6021	kesel dan
-0.3010	keseluruhan bagus
-0.3010	kesempatan itu
-0.6021	ketagihan deh
-0.6021	ketagihan !EXIT
-0.3010	ketawa !EXIT
-0.3010	ketempat yang
-0.6021	ketemu lagi
-0.6021	ketemu sama
-0.3010	ketiga waktu
-0.3010	ketika kamu
-0.3010	kevin !EXIT
-0.1249	khas dari
-0.3010	khawatir aku
-0.3010	kikuk gitu
-0.3010	kilometer !EXIT
-0.6021	king mahal
-0.6021	king !EXIT
-0.3010	kini !EXIT
-0.3010	kira tony
-0.7782	kira-kira ga
-0.3010	kira-kira !EXIT
-0.1249	kit !EXIT
-1.5643	kita akan
-2.0414	kita baru
-1.5643	kita bawakan
-2.0414	kita bertiga
-2.0414	kita bicarain
-2.0414	kita bisa
-2.0414	kita buat
-2.0414	kita cuman
-2.0414	kita habisin
-1.5643	kita harus
-2.0414	kita ikut
-2.0414	kita ingin
-2.0414	kita jadi
-2.0414	kita jalan-jalan
-2.0414	kita juga
-1.5643	kita kasih
-1.3424	kita ke
-1.3424	kita kerjakan
-2.0414	kita ketempat
-2.0414	kita kumpul
-2.0414	kita langsung
-2.0414	kita liburan
-1.1963	kita makan
-2.0414	kita makan-makan
-2.0414	kita makannya
-2.0414	kita mampir
-1.5643	kita masuk
-1.5643	kita mau
-2.0414	kita membuat
-2.0414	kita nih
-2.0414	kita pergi
-2.0414	kita sehat
-2.0414	kita sekarang
-2.0414	kita sudah
-2.0414	kita tentukan
-2.0414	kita tidak
-2.0414	kita tinggal
-2.0414	kita tunggu
-2.0414	kita tungguin
-1.5643	kita udah
-2.0414	kita yang
-0.3010	klimaks dari
-0.7782	kok aku
-1.6232	kok celananya
-1.6232	kok dia
-1.6232	kok kamu
-1.6232	kok kaya
-1.1461	kok kita
-1.6232	kok lagian
-1.6232	kok selama
-1.6232	kok tiga
-0.4472	kok !EXIT
-0.3010	kolonial begitu
-0.6021	kolonialisme belanda
-0.6021	kolonialisme tapi
-0.3010	kombinasi antara
-0.3010	komedi jadi
-0.6021	komposisi demi
-0.6021	komposisi hingga
-0.3010	komputasi awan
-0.3010	komunikasi tiga
-0.3010	konspirasi yang
-0.3010	kopinya juga
-0.3010	kota dengan
-0.3010	kotanya jadi
-1.0000	krim itu
-1.0000	krim nih
-1.0000	krim rasa
-0.5229	krim !EXIT
-0.1249	krimnya !EXIT
-0.3010	kru kayanya
-0.3010	ku kira
-0.4260	kuantum itu
-0.9031	kuantum lah
-0.9031	kuantum !EXIT
-0.3010	kuantumnya itu
-0.9031	kuat banget
-0.9031	kuat di
-0.9031	kuat sama
-0.9031	kuat !EXIT
-0.1249	kuliah terakhir
-0.3010	kulit putih
-0.3010	kumpul sepulang
-0.3010	kunci juga
-0.3010	kunjungi sebelumnya
-0.6021	kurang ah
-0.6021	kurang paham
-0.3010	kutipan ucapan
-1.8451	lagi <ding>
-1.8451	lagi ada
-1.8451	lagi aja
-1.8451	lagi aku
-1.8451	lagi baik
-1.8451	lagi batu
-1.8451	lagi bermain
-1.8451	lagi deh
-1.8451	lagi dengan
-1.8451	lagi dia
-1.8451	lagi dong
-1.8451	lagi hahaha
-1.8451	lagi kan
-1.8451	lagi ke
-1.8451	lagi malah
-1.8451	lagi masa
-1.8451	lagi misi
-1.8451	lagi musuhan
-1.1461	lagi nih
-1.3680	lagi pingin
-1.8451	lagi sakit
-1.8451	lagi sampai
-1.8451	lagi sebelum
-1.8451	lagi sih
-1.8451	lagi tuh
-1.8451	lagi ujian
-1.8451	lagi ya
-0.8909	lagi !EXIT
-0.3010	lagian durian
-0.3010	lagu ibu
-1.1461	lah kamu
-1.1461	lah kan
-1.1461	lah ton
-1.1461	lah yang
-0.4472	lah !EXIT
-1.2553	lain boleh
-1.2553	lain dari
-1.2553	lain enggak
-1.2553	lain nih
-1.2553	lain sih
-0.5563	lain yang
-1.2553	lain yuk
-0.0580	lainnya !EXIT
-0.3010	lakukan !EXIT
-1.1461	lalu si
-1.1461	lalu ternyata
-0.1919	lalu !EXIT
-0.6021	lama kok
-0.6021	lama !EXIT
-0.3010	lambat dan
-0.3010	lambung !EXIT
-1.2553	langsung galau
-1.2553	langsung ingin
-1.2553	langsung kabur
-1.2553	langsung kaget
-1.2553	langsung merendah
-1.2553	langsung nonton
-0.7782	langsung pulang
-1.2553	langsung waktu
-0.3010	lanjut lagi
-0.7782	lanjut nih
-0.3010	lanjutannya nih
-0.3010	lanjutin cerita
-0.3010	lapangan !EXIT
-0.3010	laper banget
-0.5229	laper nih
-0.3010	latar belakang
-0.1249	laut !EXIT
-1.4150	lebih baik
-1.4150	lebih dengan
-1.4150	lebih enggak
-1.4150	lebih hemat
-1.4150	lebih luas
-1.4150	lebih modern
-1.4150	lebih mudah
-1.4150	lebih ngedepanin
-1.4150	lebih pengen
-1.4150	lebih rapih
-1.4150	lebih rinci
-1.4150	lebih terasa
-1.4150	lebih tertarik
-0.3010	lelah itu
-0.3010	lewat line
-0.3010	li !EXIT
-0.3010	liatnya gimana
-0.3010	libur di
-1.4472	liburan ala
-1.4472	liburan bersama
-1.4472	liburan bersama-sama
-1.4472	liburan di
-1.4472	liburan kamu
-0.6021	liburan kemana
-0.9700	liburan nanti
-0.7482	liburan semester
-0.3010	lihat ada
-1.2041	lima menit
-0.7270	lima puluh
-0.2499	lima tahun
-0.3010	lin !EXIT
-0.6021	line kalau
-0.6021	line ya
-1.0000	loh di
-1.0000	loh itu
-1.0000	loh kok
-1.0000	loh rencananya
-1.0000	loh tapi
-0.3010	lokasi benar-benar
-0.3010	loki !EXIT
-0.5229	lombok ga
-1.0000	lombok mau
-1.0000	lombok nanti
-1.0000	lombok !EXIT
-0.3010	luas dari
-0.5051	lucu banget
-1.2041	lucu di
-1.2041	lucu ga
-1.2041	lucu gitu
-1.2041	lucu si
-1.2041	lucu tapi
-0.3010	lumayan jauh
-1.1461	lupa batas
-1.1461	lupa bilang
-1.1461	lupa kalau
-1.1461	lupa kamu
-1.1461	lupa karakter
-0.6690	lupa ya
-0.7782	maaf hehe
-0.7782	maaf maaf
-0.7782	maaf ya
-0.7782	maap jadi
-0.7782	maap maap
-0.7782	maap nih
-0.7782	mah durian
-0.7782	mah nanti
-0.7782	mah selama
-0.7782	mahal aja
-0.7782	mahal sekitar
-0.7782	mahal ton
-0.3010	mahkamah agama
-1.6628	makan aja
-1.6628	makan buah
-1.1856	makan cemilan
-1.6628	makan dulu
-0.8177	makan duluan
-1.6628	makan durian
-1.6628	makan itu
-1.1856	makan malam
-1.6628	makan mungkin
-1.6628	makan nanti
-1.6628	makan sekitar
-1.6628	makan sepuasnya
-1.6628	makan super
-1.6628	makan tuh
-1.1856	makan ya
-1.6628	makan yang
-1.6628	makan !EXIT
-0.9031	makan-makan bareng
-0.9031	makan-makan ngerayain
-0.4260	makan-makan !EXIT
-0.6021	makanan di
-1.0792	makanan enak
-0.6021	makanan ringan
-1.0792	makanan !EXIT
-0.1249	makanannya enak
-0.3010	makannya lama
-0.3010	makanya jalan-jalan
-0.3010	makasih dan
-0.3010	makhluk hidup
-0.7782	makhluk yang
-0.3010	makin enak
-0.0792	maksudnya !EXIT
-1.1461	malah annelies
-0.6690	malah jadi
-1.1461	malah langsung
-1.1461	malah membuat
-1.1461	malah nembakin
-1.1461	malah pengadilan
-1.0000	malam aja
-1.0000	malam aku
-1.0000	malam berapa
-1.0000	malam kita
-1.0000	malam !EXIT
-0.3010	males !EXIT
-0.6021	mall dekat
-0.6021	mall mau
-0.3010	mama banget
-0.9031	mamanya jadi
-0.4260	mamanya joni
-0.9031	mamanya !EXIT
-0.3010	mampir ke
-0.3010	mampu menarik
-0.3010	man satu
-0.9031	mana nih
-0.9031	mana sih
-0.4260	mana !EXIT
-0.3010	manggil mamanya
-0.6021	manis dong
-0.6021	manis sama
-0.9031	mantap banget
-0.2041	mantap !EXIT
-0.3010	mantep !EXIT
-1.1461	manusia bebas
-1.1461	manusia belum
-1.1461	manusia dan
-1.1461	manusia itu
-1.1461	manusia kamu
-1.1461	manusia lainnya
-1.1461	manusia memang
-0.3010	marah jadi
-0.3010	mari naikkan
-0.1249	mark !EXIT
-0.3010	martabak enak
-0.6021	marvel hehe
-0.6021	marvel !EXIT
-0.6021	mas kami
-0.6021	mas !EXIT
-1.2553	masa kini
-0.3010	masa lalu
-1.2553	masa perang
-1.2553	masa sih
-1.2553	masa ujian
-0.6021	masalah sih
-0.6021	masalah !EXIT
-1.5315	masih <diga>
-1.5315	masih ada
-1.0544	masih banyak
-1.5315	masih jauh
-1.5315	masih lanjutin
-1.5315	masih mau
-1.5315	masih relevan
-0.8325	masih sakit
-1.5315	masih salah
-1.5315	masih sedikit
-1.5315	masih sepi
-1.5315	masih subjektif
-1.0544	masih tiga
-1.2553	masuk dunia
-1.2553	masuk jadwal
-1.2553	masuk ke
-1.2553	masuk kelas
-0.7782	masuk kenapa
-0.7782	masuk sekolah
-1.2553	masuk semester
-0.3010	masyarakat yang
-0.1249	mata kuliah
-0.3010	matematik udah
-0.3010	materi di
-0.7782	mati juga
-0.7782	mati terus
-0.7782	mati ya
-1.8195	mau cumi
-1.8195	mau dong
-1.3424	mau enggak
-1.8195	mau hedon
-0.8653	mau ikut
-1.8195	mau ingat-ingat
-1.8195	mau jam
-1.3424	mau kemana
-1.1206	mau liburan
-1.3424	mau makan
-1.8195	mau makan-makan
-1.8195	mau menjenguk
-1.8195	mau ngapain
-1.8195	mau ngembaliin
-1.3424	mau nonton
-1.8195	mau nungguin
-1.8195	mau pamer
-1.8195	mau pengaruh
-1.3424	mau pergi
-1.8195	mau pesen
-1.8195	mau tidak
-1.8195	mau !EXIT
-0.3010	maunya makan
-0.3010	melalui pikiran
-0.6021	melanjutkan hobimu
-0.6021	melanjutkan perjalananku
-0.1249	melelahkan !EXIT
-0.3010	meleleh banget
-0.3010	melihat banyak
-0.3010	memainkan karakter
-0.3010	memaksa masuk
-0.3010	memancing kamu
-0.3010	memanen padi
-1.0792	memang banyak
-1.0792	memang bukan
-1.0792	memang membuat
-1.0792	memang rasanya
-1.0792	memang rencana
-1.0792	memang sulit
-0.6021	memangnya kamu
-0.6021	memangnya !EXIT
-0.3010	memaparkan cerita
-0.3010	memarkirkan mobilku
-0.7782	membantu film
-0.7782	membantu kerjaan
-0.7782	membantu orang
-0.3010	membasmi kejahatan
-0.3010	membawakan karakter
-0.3010	memberi tau
-0.3010	membicarakan rencanaku
-1.2553	membuat film
-1.2553	membuat kagum
-0.7782	membuat kelompok
-1.2553	membuat penonton
-0.5563	membuat percakapan
-1.2553	membuat tubuh
-0.3010	memenangkan kepentingan
-0.3010	memerangi saudara
-0.3010	memerintah !EXIT
-0.6021	memiliki jiwa
-0.6021	memiliki status
-0.3010	memperjuangkan keadilan
-0.3010	memperlihatkan tony
-0.3010	mempertahankan sesuatu
-0.3010	memvisualisasikan pikirannya
-0.3010	menambah polusi
-0.3010	menambal ban
-0.3010	menanam padi
-0.7782	menarik juga
-0.7782	menarik perhatian
-0.7782	menarik yang
-0.3010	menceritakan tentang
-0.6021	mendapatkan hak
-0.6021	mendapatkan narasi
-0.6021	mending kita
-0.6021	mending pisang
-0.3010	mendorong sepeda
-0.3010	menebaknya !EXIT
-0.3010	menemukan sebuah
-0.3010	mengalahkan rasa
-0.3010	menganggap kehadiran
-0.3010	mengantarmu kesana
-0.3010	mengarahkan energinya
-0.3010	mengayuhkan sepedamu
-0.3010	mengelilingi tempat-tempat
-0.1249	mengendarai sepeda
-0.7782	mengerjakan sebuah
-0.3010	mengerjakan tugas
-0.3010	mengetahui loh
-0.3010	menggambarkan bagaimana
-0.6021	menggunakan alat
-0.6021	menggunakan bahasa
-0.3010	menghadapi fase-fase
-0.3010	menghasilkan set
-0.6021	menguap dan
-0.6021	menguap !EXIT
-0.6021	menguasai bahasa
-0.6021	menguasai tempat
-0.3010	mengucapkan tulisan-tulisan
-0.3010	meninggal di
-1.0000	menit lagi
-1.0000	menit nih
-1.0000	menit saja
-0.5229	menit !EXIT
-0.9031	menjadi bagian
-0.9031	menjadi manusia
-0.9031	menjadi pelengkap
-0.9031	menjadi sisi
-0.3010	menjadikan film
-0.3010	menjalani kehidupan
-0.3010	menjawab !EXIT
-0.1249	menjenguk joni
-0.3010	menunjukkan kelasnya
-0.3010	menuntun sepeda
-0.7270	menurut aku
-0.2499	menurut kamu
-1.2041	menurut teori
-0.6021	menurutku filmnya
-0.6021	menurutku makan
-0.3010	menyarankan untuk
-0.3010	menyatu kuat
-0.6021	menyelam diving
-0.6021	menyelam !EXIT
-0.3010	menyenangkan ya
-0.3010	menyengat banget
-1.6990	mereka adalah
-1.2218	mereka akhirnya
-1.6990	mereka balik
-1.6990	mereka baru
-1.6990	mereka berdua
-1.6990	mereka berhasil
-1.6990	mereka dapet
-1.6990	mereka iri
-1.6990	mereka itu
-1.6990	mereka jadi
-1.6990	mereka juga
-1.6990	mereka kita
-1.6990	mereka lewat
-1.6990	mereka mau
-1.6990	mereka menguasai
-1.6990	mereka ngelakuin
-1.6990	mereka nurut
-1.6990	mereka punya
-1.6990	mereka rencanain
-1.6990	mereka sedih
-1.6990	mereka selesai
-1.6990	mereka sempat
-1.2218	mereka sendiri
-0.6021	merendah banget
-0.6021	merendah gitu
-1.0792	meskipun antman
-1.0792	meskipun begitu
-1.0792	meskipun cukup
-1.0792	meskipun gagal
-1.0792	meskipun ini
-1.0792	meskipun rumah
-0.3010	mewah !EXIT
-0.3010	mewek !EXIT
-0.3010	mi salad
-0.3010	mikir sampe
-0.3010	mikirnya malah
-0.3010	milih satu
-0.3010	ming kit
-0.3010	minggu !EXIT
-1.5051	minke bilang
-1.5051	minke cium
-1.5051	minke cocok
-1.5051	minke dan
-1.5051	minke di
-1.5051	minke ke
-1.5051	minke mampu
-1.5051	minke menurut
-1.5051	minke sampe
-0.8062	minke yang
-0.6601	minke !EXIT
-0.9031	minta bantuan
-0.2041	minta oleh-oleh
-0.3010	mirip kayak
-0.3010	misalkan udah
-0.3010	misalnya saja
-0.3010	misi ngambil
-0.1249	mobilku !EXIT
-0.3010	modern !EXIT
-0.1249	motor !EXIT
-0.3010	motornya !EXIT
-0.3010	mu !EXIT
-0.3010	muda yang
-0.3010	mudah dan
-0.7782	mulai dari
-0.7782	mulai duluan
-0.7782	mulai masuk
-0.3010	mulu !EXIT
-0.3010	mumpung kelas
-1.2041	mungkin akan
-1.2041	mungkin buat
-1.2041	mungkin durian
-1.2041	mungkin enggak
-1.2041	mungkin karena
-1.2041	mungkin sekarang
-1.2041	mungkin udah
-1.2041	mungkin ya
-0.9031	murah banget
-0.9031	murah dan
-0.9031	murah enak
-0.9031	murah !EXIT
-0.1249	musang king
-0.3010	musik yang
-0.3010	mustahil bagimu
-0.3010	musuhan ya
-0.6021	na joni
-0.6021	na !EXIT
-1.1461	nah alat
-1.1461	nah beruntungnya
-1.1461	nah dari
-1.1461	nah ini
-1.1461	nah itu
-1.1461	nah karna
-1.1461	nah salah
-0.3010	naikkan sepedamu
-0.0580	nam !EXIT
-0.3010	nama lokasi
-0.9031	namun ada
-0.9031	namun dari
-0.9031	namun seorang
-0.9031	namun terus
-0.6021	nana anak
-0.6021	nana saja
-0.3010	nangis juga
-1.7634	nanti akan
-0.7220	nanti aku
-1.7634	nanti di
-1.7634	nanti ikut-ikut
-1.7634	nanti jam
-1.2863	nanti kamu
-1.7634	nanti ke
-0.8092	nanti kita
-1.2863	nanti malam
-1.7634	nanti mau
-1.7634	nanti sebelum
-1.7634	nanti sepulang
-1.7634	nanti setelah
-1.7634	nanti ya
-0.9183	nanti !EXIT
-0.3010	nanya aku
-0.3010	narasi baru
-0.3010	narik duit
-0.3010	nasib baik
-0.6021	nasionalis aja
-0.6021	nasionalis banget
-0.3010	nasionalisme yang
-0.3010	nebeng ya
-0.9031	nebula balik
-0.9031	nebula itu
-0.9031	nebula yang
-0.9031	nebula !EXIT
-0.3010	nembakin pribumi
-0.3010	nengokin dia
-0.3010	ngabisin <lib>
-0.3010	ngalahin rasa
-0.3010	ngambil materi
-0.6021	ngangkat palunya
-0.6021	ngangkat ya
-0.6021	ngantri buat
-0.6021	ngantri segitu
-0.3010	ngapain aja
-0.7782	ngasih berapa
-0.7782	ngasih nilai
-0.7782	ngasih tau
-0.3010	ngebosenin !EXIT
-0.3010	ngedepanin kepentingan
-0.3010	ngelakuin perjalanan
-0.3010	ngeliat gak
-0.3010	ngeliatnya annelies
-0.1249	ngembaliin semua
-0.3010	ngerasain kurang
-0.3010	ngerayain ujian
-0.1249	ngerti !EXIT
-0.3010	nggak tau
-0.3010	ngilang gitu
-0.3010	ngilangin semua
-0.3010	ngiler aja
-0.3010	ngira tony
-1.0000	ngomong-ngomong gimana
-0.5229	ngomong-ngomong kamu
-1.0000	ngomong-ngomong restoran
-1.0000	ngomong-ngomong sore
-0.3010	ni paham
-2.0334	nih aku
-2.0334	nih baru
-2.0334	nih dapet
-2.0334	nih dari
-2.0334	nih dua
-2.0334	nih hehe
-2.0334	nih ide
-2.0334	nih jalan
-2.0334	nih kabarmu
-2.0334	nih kalau
-1.5563	nih sebelum
-2.0334	nih sekarang
-2.0334	nih selain
-2.0334	nih susah
-2.0334	nih takut
-2.0334	nih tempat
-2.0334	nih ulasan
-1.3345	nih ya
-2.0334	nih yang
-0.2341	nih !EXIT
-0.6021	nilai a
-0.6021	nilai film
-0.3010	nisa !EXIT
-1.4150	nonton aja
-1.4150	nonton apa
-0.7160	nonton film
-1.4150	nonton filmnya
-0.9379	nonton joker
-1.4150	nonton kemarin
-1.4150	nonton terminator
-1.4150	nonton yang
-1.4150	nonton yuk
-1.4150	nonton !EXIT
-0.3010	normal lagi
-0.3010	nungguin kamu
-0.6021	nurut sama
-0.6021	nurut walaupun
-0.2041	nyai ontosoroh
-0.9031	nyai !EXIT
-0.3010	nyangka ya
-0.7782	nyata pada
-0.7782	nyata ternyata
-0.7782	nyata ya
-0.6021	nyenggol alat
-0.6021	nyenggol haha
-0.3010	nyerah nih
-0.3010	nyeremin banget
-0.3010	oalah mereka
-1.5798	oh gitu
-0.1818	oh iya
-1.5798	oh makan
-0.7347	oh ya
-1.1027	oke aku
-1.1027	oke ayok
-1.5798	oke banget
-1.1027	oke deh
-1.1027	oke kita
-1.5798	oke mas
-1.5798	oke nih
-1.5798	oke saja
-1.5798	oke santai
-1.1027	oke tapi
-1.5798	oke ya
-0.8808	oke !EXIT
-0.6021	oleh karna
-0.6021	oleh pengadilan
-0.7782	oleh-oleh apa
-0.3010	oleh-oleh khas
-0.7782	ontosoroh dalam
-0.7782	ontosoroh ini
-0.7782	ontosoroh yang
-0.7782	ooh gapapa
-0.7782	ooh iya
-0.7782	ooh !EXIT
-0.3010	operasiin alatnya
-1.4150	orang atau
-1.4150	orang belanda
-1.4150	orang dibanding
-1.4150	orang gitu
-1.4150	orang jahat
-1.4150	orang juga
-1.4150	orang kaya
-1.4150	orang terdekat
-1.4150	orang tua
-0.7160	orang yang
-1.4150	orang !EXIT
-0.7782	orang-orang tentang
-0.7782	orang-orang ujiannya
-0.7782	orang-orang yang
-0.6021	orangnya pasti
-0.6021	orangnya tersisa
-0.6021	oreo ya
-0.6021	oreo !EXIT
-0.3010	otaknya nebula
-0.7782	otaknya pinter
-0.3010	otomatis memenangkan
-0.3010	oyah rasa
-0.3010	pacar sahabat
-0.9031	pada b
-0.9031	pada kemana
-0.9031	pada tim
-0.9031	pada waktu
-1.0000	padahal di
-1.0000	padahal kan
-1.0000	padahal masih
-1.0000	padahal mereka
-1.0000	padahal yang
-0.6021	padi dan
-0.6021	padi memanen
-0.6021	pagi bud
-0.6021	pagi ton
-0.7782	paham bahwa
-0.7782	paham gitu
-0.7782	paham sih
-0.3010	pakai komunikasi
-1.4150	paling aku
-0.7160	paling berkesan
-1.4150	paling cuman
-0.7160	paling enak
-1.4150	paling ga
-1.4150	paling jenius
-1.4150	paling lucu
-1.4150	paling nanti
-1.4150	paling top
-0.3010	palunya thor
-0.3010	pamer ke
-0.3010	pamit buat
-0.4260	pandang lain
-0.9031	pandang orang
-0.9031	pandang yang
-0.7782	panggang atau
-0.7782	panggang itu
-0.7782	panggang paling
-0.7782	panggangnya enak
-0.3010	panggangnya !EXIT
-0.3010	pantai dan
-0.6021	para belanda
-0.6021	para kulit
-0.6021	parut hehe
-0.6021	parut juga
-1.0000	pas ini
-1.0000	pas jaman
-1.0000	pas kejadian
-0.5229	pas minke
-0.3010	pasca kejadian
-0.6021	pasir dan
-0.6021	pasir pantai
-1.1461	pasti akan
-1.1461	pasti hobimu
-1.1461	pasti mau
-1.1461	pasti ramai
-0.6690	pasti seru
-1.1461	pasti sudah
-0.3010	pastinya jangan
-0.3010	pasukannya thanos
-0.3010	pat juga
-0.3010	patut diacungi
-0.3010	pelengkap set
-0.6021	pemeran bisa
-0.6021	pemeran minke
-0.3010	pemikiran yang
-0.3010	pemrosesan suara
-0.3010	pendekar bersamurai
-0.3010	penemuan canggih
-0.6021	pengadilan itu
-0.6021	pengadilan sah
-0.3010	pengaruh iqbal
-0.1249	pengembangan aplikasi
-0.7782	pengen baca
-0.7782	pengen hidup
-0.7782	pengen juga
-0.6021	penggunaan bahasa
-0.6021	penggunaan warna
-0.3010	pengunjung !EXIT
-0.3010	penolongmu !EXIT
-0.6021	penonton berada
-0.6021	penonton !EXIT
-0.1249	per sepuluh
-0.3010	perang dunia
-0.7782	perasaan bahagia
-0.7782	perasaan gi
-0.7782	perasaan ketika
-1.0000	percakapan antara
-1.0000	percakapan dengan
-1.0000	percakapan seperti
-1.0000	percakapan tentang
-1.0000	percakapan !EXIT
-0.3010	percaya kok
-1.2553	pergi berlibur
-0.5563	pergi ke
-1.2553	pergi kemana
-0.7782	pergi liburan
-1.2553	pergi sekarang
-1.2553	pergi !EXIT
-0.3010	pergolakan antara
-0.3010	perhatian !EXIT
-0.3010	perihnya mempertahankan
-1.0792	perjalanan itu
-1.0792	perjalanan ke
-0.3802	perjalanan waktu
-1.0792	perjalanan waktunya
-0.3010	perjalananku !EXIT
-0.9031	perjuangan mereka
-0.9031	perjuangan minke
-0.9031	perjuangan romantisme
-0.9031	perjuangan seseorang
-0.7782	perlu ditambal
-0.7782	perlu reservasi
-0.7782	perlu yang
-0.3010	pernah kamu
-0.3010	pernikahan yang
-0.0792	perpustakaan aja
-0.3010	persen enak
-1.0000	pertama itu
-1.0000	pertama joker
-1.0000	pertama kali
-1.0000	pertama si
-1.0000	pertama !EXIT
-0.3010	pertanian yang
-0.3010	pertiwi jadi
-0.6021	pesan dua
-0.6021	pesan itu
-0.6021	pesen apa
-0.6021	pesen makanan
-0.3010	pesenin ya
-0.3010	peserta kelas
-0.3010	petualang !EXIT
-0.3010	pikiran dan
-0.3010	pikirannya pada
-0.6021	pilih daging
-0.6021	pilih !EXIT
-0.3010	pilihnya yang
-0.3010	pindah ke
-1.0000	pingin hedon
-0.3010	pingin nonton
-1.0000	pingin sih
-0.3010	pinjem duit
-0.3010	pinter ga
-0.3010	pintu ke
-0.6021	pipis haha
-0.6021	pipis kan
-0.3010	pisah dari
-0.7782	pisang kan
-0.3010	pisang !EXIT
-0.3010	plot film
-0.3010	plus scoring
-0.6021	pokoknya enak
-0.6021	pokoknya paling
-0.3010	polusi udara
-0.3010	pr matematik
-0.3010	pram menjadi
-1.0000	pribumi anak
-1.0000	pribumi indonesia
-1.0000	pribumi juga
-0.5229	pribumi yang
-0.3010	prnya sama-sama
-0.3010	produksi untuk
-0.0792	professor hulk
-0.3010	pula !EXIT
-0.9031	pulang dong
-0.9031	pulang ke
-0.9031	pulang mata
-0.9031	pulang saja
-0.5229	pulau bali
-1.0000	pulau gili
-1.0000	pulau lombok
-1.0000	pulau yang
-1.0000	puluh aja
-0.5229	puluh menit
-1.0000	puluh ribu
-1.0000	puluh ribunya
-0.3010	puluhan !EXIT
-0.3010	pun paling
-1.3424	punya <a>
-1.3424	punya <perusaan>
-1.3424	punya cukup
-1.3424	punya daya
-0.4973	punya rencana
-0.8653	punya sumber
-1.3424	punya uang
-0.3010	putih itu
-0.3010	pymes sama
-0.7782	quantum gitu-gitu
-0.7782	quantum kita
-0.7782	quantum realm
-0.3010	radiasi gamma
-0.3010	ramadhan sebagai
-1.2553	ramai aku
-0.7782	ramai banget
-1.2553	ramai pun
-1.2553	ramai tempat
-0.7782	ramai ya
-0.7782	ramai !EXIT
-0.3010	rangka apa
-0.3010	rapih terus
-0.7782	rasa cokelat
-0.5563	rasa durian
-1.2553	rasa es
-1.2553	rasa lelah
-1.2553	rasa sama
-1.2553	rasa yang
-1.0000	rasanya enak
-1.0000	rasanya hahaha
-1.0000	rasanya kadang
-1.0000	rasanya manis
-1.0000	rasanya !EXIT
-0.6021	ratih katanya
-0.6021	ratih mana
-0.3010	ratus ribuan
-0.3010	rayuan-rayuan gombalnya
-0.3010	realm gitu
-0.3010	relevan dengan
-0.6021	remaja ala
-0.6021	remaja berandalan
-1.2041	rencana aku
-1.2041	rencana apa
-0.7270	rencana apa-apa
-1.2041	rencana kita
-1.2041	rencana yang
-0.7270	rencana !EXIT
-0.3010	rencanain perjalanan
-0.3010	rencanaku kepada
-1.0000	rencananya aku
-1.0000	rencananya avenger
-1.0000	rencananya dengan
-1.0000	rencananya kita
-1.0000	rencananya nanti
-0.3010	rendah atau
-0.6021	reservasi juga
-0.6021	reservasi kok
-0.1249	restoran itu
-1.0792	restoran yang
-0.7782	restorannya ada
-0.7782	restorannya bagaimana
-0.7782	restorannya sudah
-0.3010	review dari
-0.3010	ribu tiga
-0.7782	ribu !EXIT
-0.3010	ribuan !EXIT
-0.3010	ribunya !EXIT
-0.3010	rido sama
-0.3010	rinci !EXIT
-0.6021	ringan yang
-0.6021	ringan !EXIT
-0.3010	romansa dan
-0.3010	romantis bak
-0.3010	romantisme dan
-0.6021	ronin bener
-0.6021	ronin kali
-1.4150	roti buat
-0.5699	roti es
-1.4150	roti itu
-0.9379	roti panggang
-0.7160	roti panggangnya
-1.4150	roti saja
-1.4150	roti sama
-0.3010	rotinya !EXIT
-1.3424	rumah annelies
-0.8653	rumah kakek
-1.3424	rumah membantu
-1.3424	rumah nama
-1.3424	rumah ngabisin
-1.3424	rumah nyai
-1.3424	rumah saja
-1.3424	rumah tony
-1.3424	rumah ya
-1.3424	rumah !EXIT
-0.6021	rumahku aja
-0.6021	rumahku untuk
-0.3010	rumahmu !EXIT
-0.9031	rumahnya berdekatan
-0.9031	rumahnya kita
-0.9031	rumahnya yuk
-0.9031	rumahnya !EXIT
-0.7782	saat ini
-0.7782	saat para
-0.7782	saat zaman
-0.3010	sabar-sabar ada
-0.7782	sah di
-0.3010	sah !EXIT
-0.3010	sahabat dan
-0.3010	sahabatnya kapten
-1.6232	saja aku
-1.6232	saja deh
-1.6232	saja fa
-1.6232	saja hehe
