~o
<STREAMINFO> 1 39
<VECSIZE> 39<NULLD><MFCC_D_A_0><DIAGC>
~s "silst"
<MEAN> 39
 -4.004637e+00 1.964789e+00 -1.373471e+00 4.181428e+00 -1.508542e+00 1.430634e+00 -2.573339e+00 1.741687e+00 -2.732276e+00 -1.881381e+00 -2.338101e+00 -3.235986e-01 5.135674e+01 -3.369121e-02 -1.623804e-01 1.202700e-01 -7.064934e-02 6.848700e-02 -5.557551e-02 1.937526e-04 -1.184789e-01 -2.547394e-02 6.891441e-02 -6.152358e-02 -7.431462e-02 1.673971e-01 3.019596e-02 -4.141446e-02 4.260408e-02 -6.575289e-02 -1.195682e-02 -4.562657e-02 -2.456734e-02 -4.101115e-02 -5.419908e-02 1.133503e-02 7.029625e-03 -4.331717e-02 1.071283e-01
<VARIANCE> 39
 1.188899e+01 2.468503e+01 1.864447e+01 1.719521e+01 2.540814e+01 3.094827e+01 3.080698e+01 3.122594e+01 2.730151e+01 2.815923e+01 2.356792e+01 2.272777e+01 1.288906e+01 5.139617e-01 1.039692e+00 1.207955e+00 1.403400e+00 1.825078e+00 1.918811e+00 2.024578e+00 2.175262e+00 2.098008e+00 1.984452e+00 1.935581e+00 1.735262e+00 3.901379e-01 1.047748e-01 2.083128e-01 2.535915e-01 2.998272e-01 3.678042e-01 3.902321e-01 4.053132e-01 4.327339e-01 4.233968e-01 3.903259e-01 3.906668e-01 3.489452e-01 1.112801e-01
<GCONST> 1.004120e+02
~h "@"
<BEGINHMM>
<NUMSTATES> 5
<STATE> 2
<MEAN> 39
 1.048182e+00 -4.282671e+00 2.109117e+00 -2.696194e+00 -6.776368e+00 -5.570624e+00 -1.002050e+01 3.680880e-01 -1.826712e+00 1.409334e+00 1.045931e+00 -8.446145e+00 6.534429e+01 8.831637e-01 -1.066547e+00 3.166691e-01 -5.412853e-01 -1.041945e+00 -1.601020e-01 -7.560817e-01 6.815733e-01 3.019283e-01 2.431696e-01 4.297732e-01 -7.932398e-01 1.111613e+00 -1.198393e-01 5.475121e-01 3.418509e-03 4.795934e-01 1.795464e-01 4.815160e-01 3.897088e-01 -1.943879e-01 -2.808062e-01 -1.859184e-01 -2.926328e-01 3.136885e-01 -6.417165e-01
<VARIANCE> 39
 2.287620e+01 4.483834e+01 5.145552e+01 4.870110e+01 6.724399e+01 7.466568e+01 7.349949e+01 7.650029e+01 6.902205e+01 5.211706e+01 4.796387e+01 5.125292e+01 3.036557e+01 2.803533e+00 2.963415e+00 3.378481e+00 3.895668e+00 4.324804e+00 5.318181e+00 4.731682e+00 7.304830e+00 5.960836e+00 4.466853e+00 4.541189e+00 3.859542e+00 2.877784e+00 3.690311e-01 4.638196e-01 5.384477e-01 6.929965e-01 7.960330e-01 7.514548e-01 9.308745e-01 9.697724e-01 8.420282e-01 7.570823e-01 7.222586e-01 6.238184e-01 4.635139e-01
<GCONST> 1.361931e+02
<STATE> 3
<MEAN> 39
 1.821532e+00 -5.602311e+00 2.436509e+00 -3.100820e+00 -8.043679e+00 -5.015293e+00 -1.086721e+01 1.437921e+00 -1.138035e+00 1.041927e+00 1.795436e+00 -9.383843e+00 6.654436e+01 4.324321e-01 1.774530e-01 2.727299e-01 5.704240e-01 -2.609822e-01 4.016820e-01 2.594103e-02 -1.292901e-01 -2.971675e-01 6.771993e-03 -1.790429e-01 1.603684e-01 -3.125161e-01 -2.476748e-01 6.267161e-01 -2.736044e-02 5.283507e-01 3.920323e-01 2.935501e-01 4.599473e-01 -4.296471e-01 -3.278818e-01 -1.546770e-01 -4.013898e-01 4.349125e-01 -7.026246e-01
<VARIANCE> 39
 1.606211e+01 4.764199e+01 5.368003e+01 5.313523e+01 6.659983e+01 7.278351e+01 7.275651e+01 9.381071e+01 7.679092e+01 5.968299e+01 5.600402e+01 5.928698e+01 2.921714e+01 1.440198e+00 1.785983e+00 2.150191e+00 3.059321e+00 2.799884e+00 3.965231e+00 3.929156e+00 4.048702e+00 3.904483e+00 3.065295e+00 3.288918e+00 2.579100e+00 1.652055e+00 3.547201e-01 4.170880e-01 5.606567e-01 6.198038e-01 7.559782e-01 7.363541e-01 8.753240e-01 1.209200e+00 9.131797e-01 8.871414e-01 8.128523e-01 7.181392e-01 3.625939e-01
<GCONST> 1.313651e+02
<STATE> 4
<MEAN> 39
 1.924221e+00 -4.752115e+00 3.420761e+00 -1.066065e+00 -8.382133e+00 -5.214509e+00 -1.000263e+01 2.034629e+00 -2.549666e+00 4.180393e-01 5.643116e-01 -8.159032e+00 6.450397e+01 1.499294e-01 9.502579e-01 -7.096701e-02 1.077549e+00 2.624330e-01 6.709850e-01 5.605072e-01 -7.527748e-01 -5.092394e-01 -7.454766e-02 -6.507531e-01 5.000167e-01 -1.180094e+00 -1.641170e-01 1.365375e-01 -6.883425e-02 6.352558e-02 1.220586e-01 5.332044e-02 1.636106e-01 -8.277251e-02 -2.739116e-02 -7.107825e-02 -9.881179e-02 6.309962e-02 -1.414824e-01
<VARIANCE> 39
 1.248193e+01 5.061789e+01 5.005921e+01 4.766647e+01 6.485942e+01 6.748824e+01 5.997998e+01 8.948897e+01 6.573589e+01 5.004268e+01 4.853731e+01 5.392560e+01 3.171560e+01 9.536717e-01 1.878457e+00 2.087989e+00 2.511817e+00 2.850700e+00 2.887846e+00 3.473753e+00 3.791592e+00 3.149038e+00 3.103164e+00 2.898364e+00 2.433981e+00 1.800659e+00 2.148684e-01 2.867750e-01 3.498777e-01 4.110579e-01 4.703715e-01 4.985237e-01 5.946898e-01 7.327803e-01 6.061772e-01 5.402966e-01 5.733505e-01 4.187168e-01 2.365829e-01
<GCONST> 1.230570e+02
<TRANSP> 5
 0.000000e+00 1.000000e+00 0.000000e+00 0.000000e+00 0.000000e+00
 0.000000e+00 1.477898e-01 8.522102e-01 0.000000e+00 0.000000e+00
 0.000000e+00 0.000000e+00 1.857676e-01 8.142324e-01 0.000000e+00
 0.000000e+00 0.000000e+00 0.000000e+00 4.450608e-01 5.549392e-01
 0.000000e+00 0.000000e+00 0.000000e+00 0.000000e+00 0.000000e+00
<ENDHMM>
~h "a"
<BEGINHMM>
<NUMSTATES> 5
<STATE> 2
<MEAN> 39
 2.155503e+00 -1.029947e+01 -7.385324e-01 -7.542393e+00 -5.005057e+00 -1.521981e+00 -9.567980e+00 5.362903e+00 -6.228185e-01 5.746292e-01 -1.584465e+00 -1.228415e+01 6.932708e+01 1.584804e-01 -1.054299e+00 -2.007898e-01 -5.845403e-01 3.183596e-01 3.875785e-01 1.047623e-01 8.913262e-01 1.248684e-01 -2.078901e-01 -5.290955e-01 -7.298958e-01 8.018851e-01 -1.396832e-01 7.871717e-01 2.000499e-01 6.666164e-01 4.116011e-02 -5.338220e-02 1.986317e-01 -5.872276e-01 -3.842012e-01 -3.391492e-02 7.850102e-02 5.848006e-01 -7.080421e-01
<VARIANCE> 39
 9.600897e+00 2.480206e+01 4.187060e+01 4.333022e+01 5.576613e+01 8.065170e+01 6.043662e+01 6.356211e+01 7.177979e+01 6.783066e+01 4.858147e+01 5.144947e+01 1.854426e+01 1.053445e+00 2.501395e+00 2.555829e+00 3.124964e+00 3.511493e+00 4.016189e+00 3.641598e+00 5.141772e+00 3.626603e+00 3.758276e+00 3.545664e+00 3.463927e+00 1.906573e+00 2.033610e-01 3.678262e-01 3.750410e-01 5.093411e-01 5.822587e-01 6.310009e-01 6.504627e-01 8.411944e-01 7.195529e-01 7.295225e-01 6.318895e-01 5.672659e-01 2.812302e-01
<GCONST> 1.261500e+02
<STATE> 3
<MEAN> 39
 2.007580e+00 -1.090229e+01 -4.039501e-01 -7.729683e+00 -4.521460e+00 -1.678146e+00 -9.055483e+00 6.134005e+00 -1.332308e+00 1.479108e-01 -2.087793e+00 -1.236634e+01 6.975658e+01 1.753562e-01 8.755277e-01 1.536590e-01 8.999568e-01 -3.853824e-02 -5.914389e-02 1.944320e-01 -5.820246e-01 -5.046860e-01 2.423663e-01 5.684656e-03 5.810969e-01 -8.571424e-01 1.749034e-02 4.866295e-01 1.033454e-01 3.769253e-01 -1.218067e-01 4.202089e-02 5.291018e-02 -4.012130e-01 -1.262377e-01 6.028435e-02 6.062220e-02 2.263719e-01 -4.390229e-01
<VARIANCE> 39
 8.550875e+00 2.329912e+01 4.106560e+01 3.892548e+01 5.285839e+01 7.777727e+01 5.592248e+01 6.422442e+01 7.668758e+01 6.844876e+01 4.764260e+01 5.159023e+01 1.433134e+01 4.482900e-01 1.471269e+00 1.483433e+00 1.738363e+00 2.099108e+00 2.709513e+00 2.382779e+00 3.134121e+00 2.382491e+00 2.442612e+00 2.291204e+00 2.043794e+00 1.025367e+00 1.040388e-01 1.989002e-01 2.980024e-01 2.896209e-01 3.936004e-01 4.958857e-01 4.991230e-01 6.461990e-01 4.739235e-01 5.248559e-01 4.958730e-01 4.043358e-01 1.257355e-01
<GCONST> 1.133367e+02
<STATE> 4
<MEAN> 39
 2.237449e+00 -3.014640e+00 -1.585353e+00 -5.431708e-01 -4.159115e+00 -2.935216e-01 -6.524927e+00 2.587256e+00 -2.991379e+00 5.441765e-01 -2.883232e+00 -7.175981e+00 6.040389e+01 -8.300221e-03 1.142373e+00 -4.123326e-02 1.085968e+00 -9.233365e-02 3.653003e-01 4.391166e-01 -6.743771e-01 -2.768439e-01 -9.858397e-02 -1.963121e-01 4.899548e-01 -1.284249e+00 -8.371139e-02 -9.067550e-02 2.875080e-02 -1.273218e-01 -1.900426e-02 -6.892845e-03 -2.561463e-04 3.154348e-02 4.289211e-02 -6.380948e-02 -9.549243e-03 -6.718706e-02 1.220583e-01
<VARIANCE> 39
 1.081889e+01 3.023731e+01 4.348868e+01 4.321111e+01 3.975795e+01 5.514653e+01 4.796979e+01 4.769940e+01 4.600254e+01 4.473850e+01 4.054881e+01 4.558056e+01 3.915114e+01 5.678949e-01 1.359473e+00 1.654106e+00 2.024469e+00 2.097884e+00 2.468421e+00 2.476727e+00 3.312941e+00 2.626931e+00 2.604722e+00 2.360643e+00 2.152141e+00 1.134582e+00 1.041895e-01 1.835910e-01 2.305533e-01 2.871634e-01 3.237956e-01 4.088246e-01 4.142665e-01 4.952932e-01 4.175084e-01 4.159357e-01 4.104615e-01 3.793246e-01 1.214083e-01
<GCONST> 1.116307e+02
<TRANSP> 5
 0.000000e+00 1.000000e+00 0.000000e+00 0.000000e+00 0.000000e+00
 0.000000e+00 4.750627e-01 5.249373e-01 0.000000e+00 0.000000e+00
 0.000000e+00 0.000000e+00 6.280711e-01 3.719290e-01 0.000000e+00
 0.000000e+00 0.000000e+00 0.000000e+00 6.607565e-01 3.392435e-01
 0.000000e+00 0.000000e+00 0.000000e+00 0.000000e+00 0.000000e+00
<ENDHMM>
~h "b"
<BEGINHMM>
<NUMSTATES> 5
<STATE> 2
<MEAN> 39
 4.935467e+00 7.315609e+00 1.935108e+00 5.384625e+00 -4.111108e+00 2.345121e+00 -6.711627e+00 -3.371301e+00 -7.486934e+00 -2.205603e+00 -2.358575e+00 -5.211677e+00 5.540807e+01 2.387220e-01 -3.147258e-02 -2.798178e-01 -5.154906e-01 1.445155e-01 -3.222246e-01 -4.714552e-01 -3.158532e-01 6.684956e-02 2.292947e-02 4.237411e-01 2.841485e-01 3.905539e-01 -1.081795e-01 -7.496772e-01 7.494028e-02 -8.631816e-01 -3.019578e-01 -2.836175e-01 -6.635484e-01 -2.748695e-02 1.877075e-01 4.517480e-01 5.391316e-01 -1.276244e-01 6.791102e-01
<VARIANCE> 39
 7.715344e+00 2.082496e+01 1.902947e+01 2.035378e+01 2.717922e+01 2.842929e+01 3.097661e+01 2.795422e+01 2.619456e+01 2.219933e+01 2.323376e+01 2.356500e+01 1.185103e+01 6.950716e-01 2.373493e+00 1.596298e+00 4.393373e+00 2.408565e+00 2.879094e+00 3.907206e+00 3.074211e+00 3.139483e+00 2.880474e+00 3.301135e+00 2.141848e+00 1.895746e+00 1.275540e-01 4.175143e-01 3.552108e-01 5.332112e-01 4.700325e-01 5.829261e-01 5.812764e-01 6.333140e-01 7.099676e-01 6.344086e-01 5.879083e-01 5.253947e-01 2.268050e-01
<GCONST> 1.125947e+02
<STATE> 3
<MEAN> 39
 5.786659e+00 3.459896e+00 6.127012e-01 -2.429400e+00 -5.219472e+00 1.081630e+00 -1.159426e+01 -6.707247e+00 -8.337318e+00 3.522570e-01 2.699103e+00 -3.521081e+00 6.053910e+01 -1.067732e-01 -2.498792e+00 8.899309e-02 -3.120321e+00 -8.228850e-01 -5.686998e-01 -2.666237e+00 1.327136e-01 1.063165e+00 2.134663e+00 1.967428e+00 -1.081870e+00 2.479743e+00 -3.118807e-01 -3.847987e-01 3.178695e-01 1.829098e-01 -2.062399e-01 -6.379692e-02 8.026072e-02 6.929306e-01 5.008650e-01 1.087172e-01 -3.653339e-01 -6.432663e-01 1.612561e-01
<VARIANCE> 39
 7.466072e+00 2.866975e+01 2.079297e+01 7.357167e+01 4.314429e+01 4.782548e+01 4.543325e+01 3.604987e+01 4.066860e+01 4.808060e+01 4.258492e+01 2.646586e+01 2.057403e+01 1.069084e+00 4.105482e+00 3.502983e+00 6.768256e+00 4.176803e+00 6.325389e+00 4.646407e+00 5.243778e+00 7.684797e+00 6.813283e+00 5.391390e+00 4.943824e+00 1.889024e+00 1.375726e-01 3.875454e-01 3.794854e-01 1.075934e+00 6.675943e-01 7.231646e-01 7.864357e-01 8.388270e-01 1.032477e+00 9.918225e-01 9.864424e-01 6.550999e-01 3.003816e-01
<GCONST> 1.294416e+02
<STATE> 4
<MEAN> 39
 4.769217e+00 -3.113687e+00 1.755671e+00 -6.169635e+00 -6.856350e+00 -4.277189e-01 -1.652609e+01 -2.954643e+00 -2.720383e+00 5.244433e+00 4.345803e+00 -9.663216e+00 6.513178e+01 -7.072493e-01 -2.236745e+00 7.999703e-01 -1.212248e+00 -9.737872e-01 -1.076543e+00 -1.134099e+00 1.882542e+00 1.728738e+00 5.070789e-01 -3.034148e-02 -1.680358e+00 1.902477e+00 -1.746619e-01 6.348116e-01 1.621902e-01 8.894670e-01 1.224504e-01 4.071158e-02 9.189585e-01 2.228259e-01 -3.292936e-01 -8.108926e-01 -7.099232e-01 3.456554e-01 -5.839705e-01
<VARIANCE> 39
 7.277824e+00 4.309793e+01 3.509895e+01 8.981248e+01 5.571895e+01 7.296555e+01 5.787449e+01 4.600283e+01 7.142324e+01 7.277527e+01 7.164359e+01 5.759848e+01 2.359314e+01 1.005462e+00 3.337712e+00 4.080789e+00 5.751185e+00 3.776730e+00 5.126965e+00 4.770378e+00 6.431211e+00 7.296441e+00 6.069633e+00 6.734189e+00 5.542580e+00 1.843350e+00 1.250496e-01 4.640722e-01 3.605011e-01 1.123451e+00 7.697091e-01 8.210194e-01 8.349164e-01 7.859670e-01 1.007990e+00 1.164618e+00 1.186580e+00 8.513368e-01 2.915778e-01
<GCONST> 1.348034e+02
<TRANSP> 5
 0.000000e+00 1.000000e+00 0.000000e+00 0.000000e+00 0.000000e+00
 0.000000e+00 6.920965e-01 3.079036e-01 0.000000e+00 0.000000e+00
 0.000000e+00 0.000000e+00 3.380338e-01 6.619662e-01 0.000000e+00
 0.000000e+00 0.000000e+00 0.000000e+00 2.725495e-01 7.274505e-01
 0.000000e+00 0.000000e+00 0.000000e+00 0.000000e+00 0.000000e+00
<ENDHMM>
~h "c"
<BEGINHMM>
<NUMSTATES> 5
<STATE> 2
<MEAN> 39
 -1.759892e+00 3.768260e+00 1.808418e-01 1.292950e+00 -3.631160e+00 -2.262512e+00 -5.535926e+00 5.268018e-01 -3.186242e+00 -1.246368e+00 -1.989738e+00 -2.953021e+00 5.505441e+01 -2.531520e+00 2.971750e-01 3.438683e-01 -1.211569e+00 1.226463e+00 -6.979318e-01 7.634525e-01 -3.311331e-01 2.396849e-01 -1.607602e-01 4.855611e-01 1.809273e-01 1.047940e+00 -5.346013e-01 -1.994337e-01 5.563576e-01 -4.203990e-01 1.917757e-03 -5.917511e-01 -1.509667e-01 -6.580737e-02 2.062589e-01 -1.130927e-01 2.071743e-01 4.514533e-02 8.821753e-01
<VARIANCE> 39
 2.040127e+01 2.132326e+01 2.916153e+01 2.552900e+01 3.646764e+01 4.802082e+01 3.571922e+01 4.166977e+01 3.173142e+01 2.507388e+01 2.788723e+01 2.519579e+01 2.101744e+01 3.331666e+00 2.638088e+00 2.833655e+00 3.498732e+00 3.412272e+00 4.093670e+00 2.636582e+00 3.364286e+00 2.766434e+00 2.543763e+00 2.643562e+00 2.203552e+00 2.974861e+00 6.875992e-01 4.012893e-01 4.100184e-01 5.598423e-01 6.568464e-01 5.890290e-01 5.331037e-01 6.898623e-01 5.488912e-01 5.515499e-01 4.883806e-01 4.367770e-01 2.625659e-01
<GCONST> 1.207225e+02
<STATE> 3
<MEAN> 39
 -1.432938e+01 5.043967e+00 4.493238e+00 -4.680108e+00 6.702290e-01 -7.015763e+00 -2.712329e+00 -1.080654e+00 -8.922002e-01 -3.711401e+00 6.969075e-01 -1.616397e+00 6.268053e+01 5.186635e-02 -1.118401e+00 1.406398e+00 -3.696279e-01 -1.079372e+00 -1.480012e+00 -9.724187e-01 2.902541e-01 6.832013e-01 -4.712869e-01 3.299550e-01 2.776133e-01 1.988457e+00 1.924289e+00 -7.149835e-01 -2.173322e-01 4.729380e-01 -9.195882e-01 3.605110e-01 -8.300730e-01 2.036104e-01 -1.081228e-01 2.254393e-01 -9.615873e-02 -2.499661e-01 -2.260535e-01
<VARIANCE> 39
 1.605120e+01 2.848351e+01 2.996946e+01 2.867714e+01 3.992109e+01 5.007793e+01 3.401130e+01 3.786518e+01 2.988343e+01 2.779040e+01 2.475739e+01 1.926549e+01 1.469636e+01 1.025510e+01 3.659884e+00 3.157006e+00 3.849308e+00 5.278451e+00 3.841181e+00 4.401035e+00 4.008868e+00 3.390089e+00 3.088449e+00 2.583589e+00 2.295182e+00 2.128618e+00 5.531564e-01 7.250608e-01 6.210200e-01 8.188106e-01 8.475232e-01 6.819517e-01 6.100972e-01 7.625507e-01 9.051288e-01 6.303583e-01 6.344711e-01 5.542879e-01 2.705998e-01
<GCONST> 1.259667e+02
<STATE> 4
<MEAN> 39
 -2.605589e+00 -3.346738e+00 6.208036e+00 -2.850211e+00 -7.217465e+00 -1.034185e+01 -1.107411e+01 1.856209e+00 1.415216e+00 -3.914950e+00 -1.179008e-01 -2.597256e+00 6.765575e+01 3.728271e+00 -2.697241e+00 -3.861925e-01 -3.099524e-01 -1.923264e+00 5.125415e-01 -2.237448e+00 4.973723e-01 1.379949e-01 7.978431e-01 6.534418e-01 -1.361136e+00 1.367095e+00 -1.792425e-01 4.929952e-01 -5.875459e-01 -1.313774e-01 5.292466e-01 9.363120e-01 5.929928e-01 -2.777859e-01 -5.423841e-01 2.999432e-01 1.257684e-01 -3.361128e-01 -6.887172e-01
<VARIANCE> 39
 1.555228e+01 3.386970e+01 4.458783e+01 2.833326e+01 2.875679e+01 4.023389e+01 5.321416e+01 5.540116e+01 3.656187e+01 3.350011e+01 1.930240e+01 1.815636e+01 2.157940e+01 2.418006e+00 3.978818e+00 3.608643e+00 2.786597e+00 4.055111e+00 3.407955e+00 3.912598e+00 6.362805e+00 5.043983e+00 3.764475e+00 3.564428e+00 3.176054e+00 1.243687e+00 9.476973e-01 5.746869e-01 4.545897e-01 5.136626e-01 6.312870e-01 6.469085e-01 7.187947e-01 6.185820e-01 5.952118e-01 5.636904e-01 5.315502e-01 5.717133e-01 2.994694e-01
<GCONST> 1.249137e+02
<TRANSP> 5
 0.000000e+00 1.000000e+00 0.000000e+00 0.000000e+00 0.000000e+00
 0.000000e+00 6.735696e-01 3.264304e-01 0.000000e+00 0.000000e+00
 0.000000e+00 0.000000e+00 6.474823e-01 3.525177e-01 0.000000e+00
 0.000000e+00 0.000000e+00 0.000000e+00 4.356751e-01 5.643249e-01
 0.000000e+00 0.000000e+00 0.000000e+00 0.000000e+00 0.000000e+00
<ENDHMM>
~h "d"
<BEGINHMM>
<NUMSTATES> 5
<STATE> 2
<MEAN> 39
 4.065360e+00 5.235265e+00 5.067485e+00 7.626528e+00 -7.289293e+00 -2.019656e+00 -7.680361e+00 7.966697e-01 -4.579560e+00 -2.650521e+00 -4.166071e+00 -5.406894e+00 5.597821e+01 -4.472881e-02 -1.536981e-01 2.759464e-01 1.002872e-01 8.587083e-02 -2.850004e-01 -1.772161e-01 -3.078191e-03 3.314444e-02 -3.844967e-01 2.056436e-01 3.059669e-01 1.948991e-01 -3.821399e-01 -9.616637e-01 5.548673e-01 -8.676241e-01 -5.271707e-01 -5.863939e-01 -6.344720e-01 7.131252e-02 1.824082e-02 5.129719e-02 7.921187e-01 4.544248e-02 9.732074e-01
<VARIANCE> 39
 7.232139e+00 2.978955e+01 3.099074e+01 2.031922e+01 3.656834e+01 2.700877e+01 3.628548e+01 5.107028e+01 3.200020e+01 2.794863e+01 3.719993e+01 2.944048e+01 1.476167e+01 9.431483e-01 2.972935e+00 2.826823e+00 2.505041e+00 3.140783e+00 3.451928e+00 3.836964e+00 4.112610e+00 3.204822e+00 2.498506e+00 3.330720e+00 2.361317e+00 2.146042e+00 1.439151e-01 3.243911e-01 5.670103e-01 4.315054e-01 6.060215e-01 6.187717e-01 7.854842e-01 1.117353e+00 6.981079e-01 5.637919e-01 6.047661e-01 5.011863e-01 2.274943e-01
<GCONST> 1.182486e+02
<STATE> 3
<MEAN> 39
 2.280824e+00 5.192516e-01 6.524126e+00 5.690609e+00 -6.789380e+00 -3.768534e+00 -8.978147e+00 -5.328931e-01 -4.314502e+00 -3.411505e+00 -2.240411e+00 -3.416444e+00 5.945295e+01 -8.521867e-01 -2.549502e+00 2.020000e+00 -2.228136e+00 -1.717497e+00 -1.981494e+00 -2.257027e+00 5.563172e-01 7.041232e-02 -4.077712e-02 2.392941e+00 3.567100e-02 2.815606e+00 -1.130537e-01 -1.839958e-01 1.969268e-01 -6.963391e-01 -4.688081e-01 -1.311439e-01 -3.885235e-01 3.652909e-01 -6.776144e-02 3.322952e-01 4.473606e-01 -5.049067e-01 4.847952e-01
<VARIANCE> 39
 1.222298e+01 3.259501e+01 4.161963e+01 3.508883e+01 4.346578e+01 4.551708e+01 5.754573e+01 6.327824e+01 4.322265e+01 3.461331e+01 3.124985e+01 3.155873e+01 1.992724e+01 1.292371e+00 2.699098e+00 5.578415e+00 3.344337e+00 4.338510e+00 4.546133e+00 5.555824e+00 1.038783e+01 6.624798e+00 4.849669e+00 5.292558e+00 3.624377e+00 1.503424e+00 1.629575e-01 4.268170e-01 4.959223e-01 5.391410e-01 8.236113e-01 8.321560e-01 8.321087e-01 9.946706e-01 7.437249e-01 7.314748e-01 6.884851e-01 5.990829e-01 2.443816e-01
<GCONST> 1.285271e+02
<STATE> 4
<MEAN> 39
 1.290393e+00 -5.269387e+00 1.072174e+01 -9.647483e-01 -1.243379e+01 -9.275061e+00 -1.595273e+01 4.007572e+00 -3.234572e+00 -2.174712e+00 3.554029e+00 -5.286356e+00 6.639534e+01 -7.114729e-01 -1.702592e+00 1.068565e+00 -2.595027e+00 -1.562693e+00 -1.107115e+00 -1.596943e+00 1.373347e+00 2.160243e-01 5.978392e-01 1.857662e+00 -1.301900e+00 2.441131e+00 1.426506e-01 7.241079e-01 -5.761471e-01 3.474081e-01 4.495764e-01 6.846094e-01 6.711205e-01 -2.297737e-01 -1.264862e-01 1.505539e-01 -6.072255e-01 -2.955677e-01 -6.183834e-01
<VARIANCE> 39
 1.054075e+01 3.157600e+01 5.561826e+01 3.821741e+01 4.084348e+01 4.978985e+01 8.468940e+01 1.156792e+02 8.080990e+01 5.278253e+01 4.421471e+01 5.318955e+01 1.728268e+01 1.113349e+00 2.546912e+00 5.693518e+00 3.194353e+00 4.064909e+00 4.998638e+00 5.030960e+00 8.532051e+00 5.826673e+00 5.432649e+00 6.114274e+00 3.910648e+00 1.666898e+00 1.209646e-01 3.420966e-01 4.601056e-01 5.827758e-01 7.545707e-01 8.022267e-01 1.072164e+00 1.298493e+00 9.149959e-01 6.607032e-01 7.109243e-01 6.663933e-01 2.371473e-01
<GCONST> 1.314174e+02
<TRANSP> 5
 0.000000e+00 1.000000e+00 0.000000e+00 0.000000e+00 0.000000e+00
 0.000000e+00 6.135751e-01 3.864249e-01 0.000000e+00 0.000000e+00
 0.000000e+00 0.000000e+00 1.988559e-01 8.011442e-01 0.000000e+00
 0.000000e+00 0.000000e+00 0.000000e+00 3.418102e-01 6.581898e-01
 0.000000e+00 0.000000e+00 0.000000e+00 0.000000e+00 0.000000e+00
<ENDHMM>
~h "e"
<BEGINHMM>
<NUMSTATES> 5
<STATE> 2
<MEAN> 39
 3.294000e-02 -6.673969e+00 6.385068e+00 -1.673295e+00 -1.060944e+01 -8.394419e+00 -6.423790e+00 5.478425e+00 -4.208804e+00 -1.107714e+00 1.542904e+00 -6.837008e+00 6.622381e+01 1.603735e-01 -1.428743e+00 1.408078e+00 -1.149211e+00 -1.373995e+00 -6.258037e-01 -3.186256e-01 1.642441e+00 -1.184591e-01 -3.089389e-01 7.148868e-01 -4.686983e-01 1.551262e+00 -1.424996e-01 5.037061e-01 -3.143719e-01 2.053381e-01 4.680800e-01 3.421804e-01 2.880027e-01 -4.040871e-01 -9.329642e-02 8.962395e-02 -2.019751e-01 2.366704e-01 -4.779726e-01
<VARIANCE> 39
 1.364737e+01 3.575732e+01 5.852473e+01 3.433714e+01 4.385851e+01 8.515162e+01 9.681226e+01 6.131520e+01 8.298510e+01 8.078139e+01 5.333963e+01 4.016079e+01 3.784394e+01 1.426155e+00 2.106130e+00 4.102409e+00 2.240283e+00 4.208516e+00 4.459553e+00 5.034032e+00 5.172393e+00 3.946121e+00 4.700371e+00 4.344890e+00 2.946450e+00 1.968662e+00 2.603379e-01 5.277870e-01 7.715681e-01 4.502238e-01 7.289457e-01 7.703493e-01 9.025739e-01 9.080824e-01 7.881104e-01 7.915341e-01 7.174131e-01 5.199130e-01 4.318374e-01
<GCONST> 1.320419e+02
<STATE> 3
<MEAN> 39
 5.371768e-03 -9.012237e+00 7.838103e+00 -4.383112e+00 -1.265905e+01 -9.312611e+00 -8.256307e+00 7.696843e+00 -3.632579e+00 -1.838350e+00 3.329229e+00 -8.519639e+00 6.911534e+01 1.831444e-01 6.370655e-01 -3.759186e-01 6.457368e-01 4.209035e-01 3.629057e-01 2.453884e-01 -5.182543e-01 -9.341530e-02 1.697219e-01 -5.109675e-01 2.028806e-01 -6.751522e-01 3.823331e-03 5.132925e-01 -2.573030e-01 4.589154e-01 3.245981e-01 2.189793e-01 1.830276e-01 -5.160542e-01 -3.534274e-02 7.941045e-02 -1.989547e-01 1.548249e-01 -4.710913e-01
<VARIANCE> 39
 7.971183e+00 2.414126e+01 4.606180e+01 3.213676e+01 3.933873e+01 8.962450e+01 6.878580e+01 7.323321e+01 8.025222e+01 6.865867e+01 5.833062e+01 3.965195e+01 1.586557e+01 5.188674e-01 1.502381e+00 1.497768e+00 2.086591e+00 2.220055e+00 2.141037e+00 2.838140e+00 2.798141e+00 2.486673e+00 2.625302e+00 2.088941e+00 1.582202e+00 1.278549e+00 1.481403e-01 2.707103e-01 3.685553e-01 3.315904e-01 4.003479e-01 4.369096e-01 6.115742e-01 6.483787e-01 5.053632e-01 6.041912e-01 4.542206e-01 3.482482e-01 1.586479e-01
<GCONST> 1.150347e+02
<STATE> 4
<MEAN> 39
 -4.806684e-01 -2.147464e+00 7.442601e+00 -7.836269e-01 -9.832519e+00 -5.990230e+00 -4.208147e+00 3.180297e+00 -7.321277e+00 2.305843e+00 1.910536e+00 -4.223873e+00 6.100019e+01 1.230630e-02 5.936506e-01 -3.810919e-01 5.537047e-01 3.677372e-01 5.013633e-01 3.435226e-01 -3.591626e-01 2.484202e-02 -6.459753e-02 -3.057342e-01 1.956212e-01 -7.136711e-01 -4.592757e-02 -4.183667e-03 8.133870e-03 -6.871235e-02 1.024389e-02 1.718062e-02 -1.028461e-02 -2.318595e-02 7.324550e-03 -3.263538e-02 2.544320e-02 -7.348343e-03 4.318561e-02
<VARIANCE> 39
 8.318076e+00 2.698175e+01 8.747042e+01 4.905370e+01 4.494064e+01 6.321342e+01 4.283905e+01 4.838649e+01 4.840216e+01 5.517323e+01 6.313337e+01 2.842632e+01 4.204737e+01 4.012671e-01 1.264012e+00 1.365368e+00 1.538645e+00 1.793632e+00 1.694736e+00 2.121545e+00 2.425032e+00 1.985520e+00 2.015257e+00 1.890215e+00 1.591268e+00 7.624251e-01 8.504877e-02 1.487157e-01 2.122191e-01 2.204655e-01 2.770669e-01 2.754147e-01 3.552983e-01 3.759810e-01 3.558668e-01 3.526899e-01 2.910703e-01 2.802658e-01 8.630203e-02
<GCONST> 1.061449e+02
<TRANSP> 5
 0.000000e+00 1.000000e+00 0.000000e+00 0.000000e+00 0.000000e+00
 0.000000e+00 5.711663e-01 4.288337e-01 0.000000e+00 0.000000e+00
 0.000000e+00 0.000000e+00 6.942492e-01 3.057508e-01 0.000000e+00
 0.000000e+00 0.000000e+00 0.000000e+00 8.099769e-01 1.900231e-01
 0.000000e+00 0.000000e+00 0.000000e+00 0.000000e+00 0.000000e+00
<ENDHMM>
~h "f"
<BEGINHMM>
<NUMSTATES> 5
<STATE> 2
<MEAN> 39
 -5.668585e+00 1.252228e+00 2.086971e+00 5.546517e-01 -4.028267e+00 -3.539406e+00 -2.974361e+00 -2.437302e+00 -1.410735e+00 -1.694729e+00 -1.166651e+00 -4.654896e+00 5.982777e+01 -1.187076e+00 1.464514e-01 2.017730e-02 1.200802e-01 3.452687e-01 -4.533619e-01 2.814499e-01 4.990162e-02 5.715663e-01 -1.805897e-01 -2.993654e-01 2.665340e-01 -1.081623e-01 3.029201e-01 -3.369455e-01 2.014084e-01 8.382981e-02 -2.645951e-01 -7.200169e-02 -2.362920e-01 8.793913e-02 -4.169189e-02 -3.283965e-02 1.432070e-01 -6.115389e-02 2.466424e-01
<VARIANCE> 39
 2.447166e+01 1.698216e+01 3.861140e+01 2.207511e+01 3.122068e+01 4.812364e+01 2.676914e+01 3.686985e+01 3.493954e+01 3.099052e+01 2.286689e+01 2.344866e+01 1.265250e+01 1.889781e+00 1.548105e+00 1.580545e+00 1.972805e+00 2.082261e+00 2.625967e+00 2.201401e+00 2.900087e+00 2.336375e+00 2.208783e+00 1.998222e+00 1.835797e+00 7.638765e-01 3.558913e-01 2.246971e-01 3.284794e-01 3.351984e-01 5.137279e-01 4.980958e-01 5.394943e-01 5.527442e-01 5.418155e-01 4.039746e-01 4.385429e-01 3.673698e-01 1.385173e-01
<GCONST> 1.102818e+02
<STATE> 3
<MEAN> 39
 -9.516964e+00 -5.350997e-01 3.107183e+00 3.930577e+00 -1.731435e+00 -6.755912e+00 -3.102142e+00 -1.635415e+00 1.777718e+00 -1.461021e+00 -2.421009e+00 -3.163908e+00 6.028199e+01 1.720011e+00 -1.130687e+00 1.845726e+00 4.491816e-01 -1.568655e+00 -1.471150e+00 -2.010124e+00 1.138877e-01 -7.094679e-01 -6.333076e-01 1.052624e+00 1.855316e-01 8.792073e-01 8.782482e-01 -1.929629e-01 7.390046e-01 -4.315445e-01 -1.191482e+00 -8.728296e-02 -8.547511e-01 1.322971e-01 -6.913475e-01 -3.053690e-01 8.342929e-01 -2.526398e-01 4.433436e-01
<VARIANCE> 39
 1.885630e+01 1.320233e+01 3.548049e+01 2.159397e+01 2.180622e+01 4.147345e+01 2.737472e+01 2.003779e+01 3.524099e+01 1.736770e+01 1.995529e+01 1.780167e+01 9.523020e+00 2.290813e+00 1.268300e+00 3.810014e+00 1.951840e+00 3.636532e+00 3.300880e+00 3.934750e+00 2.937145e+00 3.761446e+00 3.141078e+00 3.125040e+00 2.224790e+00 9.864492e-01 2.442055e-01 3.513902e-01 5.192489e-01 3.319887e-01 4.129868e-01 5.407457e-01 6.082617e-01 5.248924e-01 7.051187e-01 6.051481e-01 5.056437e-01 4.002986e-01 1.293778e-01
<GCONST> 1.125453e+02
<STATE> 4
<MEAN> 39
 -1.165149e+00 -2.141362e+00 9.948703e+00 3.951106e+00 -9.848949e+00 -1.068957e+01 -1.125798e+01 -9.019237e-01 -3.896739e+00 -5.196584e+00 2.526000e+00 -3.722403e+00 6.291990e+01 2.467765e+00 -1.555215e+00 2.734429e+00 -9.670012e-01 -3.830142e+00 -7.647611e-01 -3.052517e+00 7.605443e-01 -1.443483e+00 -1.221586e+00 2.776673e+00 -8.998937e-01 1.930376e+00 -4.883265e-01 -2.617918e-02 -2.236402e-01 -5.276076e-01 6.684321e-02 4.494506e-01 2.766573e-01 1.331568e-01 3.304558e-01 2.996178e-01 5.096754e-02 -4.077280e-01 1.395783e-01
<VARIANCE> 39
 1.174718e+01 1.423322e+01 8.500208e+01 2.928609e+01 3.247472e+01 4.161969e+01 5.730406e+01 2.622361e+01 2.756058e+01 3.686254e+01 3.234659e+01 2.103428e+01 1.338433e+01 1.229131e+00 2.133394e+00 7.033411e+00 2.272294e+00 3.081923e+00 3.787567e+00 5.075511e+00 3.915939e+00 5.771598e+00 4.469085e+00 4.222908e+00 2.791698e+00 1.107207e+00 2.552066e-01 1.848421e-01 5.364299e-01 3.323244e-01 6.249301e-01 4.973674e-01 5.782840e-01 4.155491e-01 4.728853e-01 4.059049e-01 6.710641e-01 3.392816e-01 1.352221e-01
<GCONST> 1.176780e+02
<TRANSP> 5
 0.000000e+00 1.000000e+00 0.000000e+00 0.000000e+00 0.000000e+00
 0.000000e+00 8.325945e-01 1.674056e-01 0.000000e+00 0.000000e+00
 0.000000e+00 0.000000e+00 5.238768e-01 4.761232e-01 0.000000e+00
 0.000000e+00 0.000000e+00 0.000000e+00 3.216713e-01 6.783288e-01
 0.000000e+00 0.000000e+00 0.000000e+00 0.000000e+00 0.000000e+00
<ENDHMM>
~h "g"
<BEGINHMM>
<NUMSTATES> 5
<STATE> 2
<MEAN> 39
 3.624180e+00 5.446443e+00 4.303232e+00 4.193507e+00 -6.181839e+00 -1.465606e-01 -8.176853e+00 -1.599210e+00 -7.784447e+00 -4.858153e-01 -1.537278e+00 -6.848179e+00 5.655672e+01 -6.438986e-01 -5.403386e-01 2.495746e-01 -7.996601e-01 8.951492e-01 -8.550960e-01 -6.951654e-01 8.609965e-02 2.398802e-01 1.026911e-01 2.517486e-01 -5.571473e-02 7.222513e-01 -3.497964e-01 -6.308792e-01 6.052197e-01 -7.782907e-01 -3.853581e-01 -4.761925e-01 -6.480961e-01 3.207151e-02 1.006613e-01 7.472775e-02 7.329251e-01 -2.960741e-01 8.785911e-01
<VARIANCE> 39
 7.315342e+00 2.449423e+01 3.124313e+01 2.900962e+01 5.191150e+01 3.832795e+01 4.450915e+01 4.138533e+01 3.585541e+01 3.141555e+01 3.731556e+01 3.117284e+01 1.359811e+01 1.208810e+00 2.690892e+00 4.149590e+00 3.663783e+00 4.321425e+00 4.401340e+00 4.830215e+00 3.995068e+00 4.055184e+00 3.377065e+00 4.058493e+00 2.959149e+00 2.183981e+00 1.808998e-01 3.543445e-01 5.757926e-01 5.075498e-01 9.122437e-01 5.974025e-01 6.506626e-01 8.006574e-01 7.731357e-01 6.189151e-01 7.620293e-01 4.895510e-01 1.835803e-01
<GCONST> 1.225206e+02
<STATE> 3
<MEAN> 39
 4.269339e-01 4.550850e-01 7.432450e+00 -1.398301e+00 -5.419724e+00 -5.477514e+00 -1.398344e+01 -1.820094e+00 -7.142947e+00 6.448119e-01 3.754362e+00 -9.244730e+00 6.318069e+01 -8.112583e-01 -1.583954e+00 1.427585e+00 -2.181481e+00 -1.697318e+00 -1.701059e+00 -1.809709e+00 7.222328e-01 1.081476e+00 2.670663e-01 2.241092e+00 -1.169989e+00 2.557600e+00 1.858231e-01 -6.680446e-02 -1.190846e-01 4.271614e-02 -6.707475e-01 3.878104e-01 3.760916e-01 2.893247e-01 2.658425e-01 -4.725480e-03 -1.541426e-01 -5.369625e-02 -2.056889e-03
<VARIANCE> 39
 1.325354e+01 3.120423e+01 5.288088e+01 3.573596e+01 6.345776e+01 6.319392e+01 7.082416e+01 4.670352e+01 5.532962e+01 5.042816e+01 8.172346e+01 4.423406e+01 1.672224e+01 1.344149e+00 2.733371e+00 5.358818e+00 3.247439e+00 6.760430e+00 4.052342e+00 4.770377e+00 6.877701e+00 5.888397e+00 4.942323e+00 5.499387e+00 3.355071e+00 1.527106e+00 1.522506e-01 4.004769e-01 6.112353e-01 5.512180e-01 1.207887e+00 9.911000e-01 1.055154e+00 8.891938e-01 9.137745e-01 6.968574e-01 1.377429e+00 6.496750e-01 2.270790e-01
<GCONST> 1.324446e+02
<STATE> 4
<MEAN> 39
 -1.042075e-01 -2.510679e+00 8.444458e+00 -5.289135e+00 -1.110726e+01 -6.703411e+00 -1.515429e+01 1.428025e+00 -3.273924e+00 1.570021e+00 6.591378e+00 -1.170082e+01 6.749216e+01 -3.468608e-01 -1.363028e+00 2.323688e-01 -1.391165e+00 -1.208741e+00 -6.742658e-02 4.737605e-02 1.170765e+00 1.037392e+00 1.225642e-01 1.262433e-01 -6.176485e-01 1.528628e+00 2.635926e-01 2.007319e-01 -4.097483e-01 6.049026e-01 4.058631e-01 4.621144e-01 4.762253e-01 -1.196247e-01 -3.883332e-01 -1.299950e-01 -6.843102e-01 3.339695e-01 -5.730503e-01
<VARIANCE> 39
 1.306058e+01 4.071852e+01 5.474860e+01 3.321382e+01 5.901022e+01 5.266632e+01 7.378643e+01 6.219835e+01 7.390970e+01 6.856994e+01 8.333430e+01 5.464679e+01 2.303776e+01 9.021087e-01 1.585744e+00 5.698006e+00 2.701221e+00 4.531240e+00 3.862054e+00 3.952382e+00 5.560487e+00 5.239282e+00 3.918264e+00 7.048396e+00 2.991450e+00 9.570436e-01 1.846926e-01 2.719452e-01 5.588615e-01 4.173249e-01 1.069041e+00 6.827075e-01 9.864333e-01 8.211008e-01 7.420298e-01 6.898393e-01 1.216359e+00 5.878541e-01 1.786776e-01
<GCONST> 1.293946e+02
<TRANSP> 5
 0.000000e+00 1.000000e+00 0.000000e+00 0.000000e+00 0.000000e+00
 0.000000e+00 6.199493e-01 3.800507e-01 0.000000e+00 0.000000e+00
 0.000000e+00 0.000000e+00 3.977161e-01 6.022840e-01 0.000000e+00
 0.000000e+00 0.000000e+00 0.000000e+00 3.399027e-01 6.600973e-01
 0.000000e+00 0.000000e+00 0.000000e+00 0.000000e+00 0.000000e+00
<ENDHMM>
~h "h"
<BEGINHMM>
<NUMSTATES> 5
<STATE> 2
<MEAN> 39
 -2.288409e-01 -5.438293e+00 2.318118e+00 -3.763448e+00 -2.623803e+00 -2.862157e+00 -3.768126e+00 4.109274e+00 -4.211089e+00 -1.056934e+00 -4.045991e+00 -6.075912e+00 6.618417e+01 -2.633257e-01 1.779437e-01 -1.633235e-01 5.800777e-01 5.944272e-01 1.862502e-01 6.272673e-01 -1.891903e-01 1.725221e-01 -2.151356e-01 -3.314116e-01 3.117471e-01 -4.992888e-01 4.845789e-02 -5.510903e-02 -1.784059e-02 -7.107291e-02 -2.271501e-01 -5.090495e-02 -2.090830e-01 -6.431627e-02 -1.101829e-02 2.171098e-02 1.901553e-01 -6.176007e-02 -1.297767e-02
<VARIANCE> 39
 1.238787e+01 4.011787e+01 4.908967e+01 5.484734e+01 7.056394e+01 8.212467e+01 6.467892e+01 6.697963e+01 7.309431e+01 4.873469e+01 5.670508e+01 3.492278e+01 3.502186e+01 7.976875e-01 1.506090e+00 1.919255e+00 1.865703e+00 2.334162e+00 2.454466e+00 2.278540e+00 2.737772e+00 2.598539e+00 1.816068e+00 2.040129e+00 1.725870e+00 8.908280e-01 9.819490e-02 2.871586e-01 2.621233e-01 3.392498e-01 3.918236e-01 4.232169e-01 4.304770e-01 4.493079e-01 4.155263e-01 3.384878e-01 3.755867e-01 3.523652e-01 1.184477e-01
<GCONST> 1.143324e+02
<STATE> 3
<MEAN> 39
 -1.445582e+00 -5.218933e+00 2.096152e-01 -3.104779e-01 -4.628535e-01 -2.113659e+00 -1.028880e+00 1.085465e+00 -2.033799e+00 -2.299068e+00 -4.718393e+00 -5.144287e+00 6.320465e+01 1.256239e-01 2.805895e-01 -2.195804e-01 3.232540e-01 -2.886068e-01 7.066488e-02 -9.492160e-02 -1.044804e-01 -9.991440e-02 8.923274e-02 1.199775e-01 5.820731e-02 -6.569844e-01 8.299814e-02 3.232429e-02 -1.090889e-02 -6.155625e-02 -1.521950e-01 -1.437671e-04 -1.260643e-01 2.664736e-02 -4.785115e-02 1.367955e-02 6.193211e-02 -4.119821e-02 2.286354e-02
<VARIANCE> 39
 1.762552e+01 2.858310e+01 4.025651e+01 3.015779e+01 5.052495e+01 5.340553e+01 6.878922e+01 5.049966e+01 7.123336e+01 4.544432e+01 4.355920e+01 2.965562e+01 2.781790e+01 5.794228e-01 9.563909e-01 1.344686e+00 1.417037e+00 1.649489e+00 2.114215e+00 1.913164e+00 2.176929e+00 2.022628e+00 1.962952e+00 1.761501e+00 1.632926e+00 7.393650e-01 8.807745e-02 1.655507e-01 2.033259e-01 2.458944e-01 3.164650e-01 3.558864e-01 3.825628e-01 4.018800e-01 4.005950e-01 3.578800e-01 3.433416e-01 3.037040e-01 6.995830e-02
<GCONST> 1.063471e+02
<STATE> 4
<MEAN> 39
 -1.180860e+00 2.316075e+00 -2.202335e+00 4.347593e+00 -3.770534e+00 9.818330e-01 -3.241253e+00 1.544882e+00 -4.136201e+00 -1.436169e+00 -1.791419e+00 -1.527507e+00 5.235512e+01 -6.807383e-03 1.606221e-01 -1.485300e-01 1.048125e-01 -3.881615e-02 8.549795e-02 -2.998954e-02 2.007096e-02 5.006243e-02 -5.022554e-02 9.340072e-02 5.331258e-02 -2.086554e-01 -1.052394e-02 -4.175841e-02 6.168535e-02 -6.046179e-02 -1.409883e-03 -2.137153e-02 -1.776880e-02 -4.307479e-03 4.043081e-03 8.976709e-03 1.774386e-02 -4.079212e-02 8.779004e-02
<VARIANCE> 39
 9.043774e+00 2.392200e+01 2.768221e+01 2.116354e+01 2.984169e+01 3.438662e+01 2.901274e+01 3.125705e+01 3.135206e+01 2.571704e+01 2.368665e+01 2.270540e+01 2.706921e+01 3.713637e-01 8.242623e-01 1.097077e+00 1.167522e+00 1.474348e+00 1.609780e+00 1.762277e+00 2.054233e+00 2.013611e+00 1.814934e+00 1.787414e+00 1.626258e+00 4.110702e-01 6.026281e-02 1.245222e-01 1.845125e-01 2.169193e-01 2.681702e-01 2.837569e-01 3.393463e-01 3.903244e-01 3.922057e-01 3.529604e-01 3.412440e-01 3.039257e-01 6.397199e-02
<GCONST> 9.643694e+01
<TRANSP> 5
 0.000000e+00 1.000000e+00 0.000000e+00 0.000000e+00 0.000000e+00
 0.000000e+00 5.323228e-01 4.676772e-01 0.000000e+00 0.000000e+00
 0.000000e+00 0.000000e+00 7.109945e-01 2.890055e-01 0.000000e+00
 0.000000e+00 0.000000e+00 0.000000e+00 8.522928e-01 1.477072e-01
 0.000000e+00 0.000000e+00 0.000000e+00 0.000000e+00 0.000000e+00
<ENDHMM>
~h "i"
<BEGINHMM>
<NUMSTATES> 5
<STATE> 2
<MEAN> 39
 -1.786194e+00 -1.078748e+00 1.679659e+01 -1.162269e+00 -1.527769e+01 -8.526521e+00 -1.132574e+01 -9.834784e-01 -1.046719e+01 -3.502976e+00 6.335425e+00 -6.656461e+00 6.528976e+01 -1.072967e-01 -5.032632e-01 2.547189e+00 -1.016432e+00 -2.240221e+00 -3.686792e-01 -1.487103e+00 5.417169e-01 -1.069470e+00 -4.003448e-01 1.946319e+00 -6.112632e-01 1.165743e+00 1.406969e-02 3.152056e-01 -9.437944e-01 1.527188e-01 6.777663e-01 4.878725e-01 3.984945e-01 2.151566e-02 3.764848e-01 2.703340e-01 -5.437120e-01 3.247280e-02 -4.547740e-01
<VARIANCE> 39
 1.148208e+01 3.137159e+01 4.673005e+01 4.144698e+01 4.473276e+01 5.406124e+01 5.747662e+01 6.034987e+01 5.574183e+01 5.683234e+01 4.663453e+01 3.204651e+01 1.580116e+01 2.273152e+00 2.090646e+00 4.693419e+00 3.773898e+00 4.157733e+00 4.161570e+00 5.023381e+00 5.030231e+00 5.270139e+00 4.527717e+00 3.890125e+00 2.886748e+00 1.418502e+00 3.190120e-01 3.434793e-01 9.078153e-01 6.547467e-01 8.517100e-01 7.215012e-01 8.284637e-01 8.570337e-01 8.085744e-01 6.793697e-01 7.351098e-01 5.234740e-01 2.815726e-01
<GCONST> 1.292771e+02
<STATE> 3
<MEAN> 39
 -2.929229e+00 -1.129004e+00 2.008908e+01 -3.575385e+00 -1.852621e+01 -7.478406e+00 -1.339105e+01 1.887636e-01 -1.144905e+01 -4.114985e+00 9.430607e+00 -8.817699e+00 6.676169e+01 2.016621e-01 1.821496e-01 -6.713047e-01 1.659824e-01 4.786909e-01 1.129703e-01 3.031217e-01 1.777783e-01 1.513038e-01 3.804967e-01 -4.910087e-01 8.250728e-02 -3.300831e-01 1.500570e-01 1.680091e-01 -7.620191e-01 3.762229e-01 6.545026e-01 1.693340e-01 4.188221e-01 -1.296920e-01 2.364151e-01 1.292120e-01 -6.130473e-01 1.687797e-01 -4.214929e-01
<VARIANCE> 39
 7.975959e+00 3.072804e+01 3.564176e+01 3.856873e+01 3.719012e+01 5.414676e+01 5.663429e+01 6.935588e+01 5.949447e+01 6.392733e+01 4.442387e+01 3.473057e+01 1.095729e+01 7.929732e-01 1.580190e+00 2.685284e+00 2.303688e+00 2.492021e+00 2.819640e+00 2.765947e+00 3.285958e+00 2.663087e+00 2.202322e+00 2.325234e+00 1.976252e+00 1.038179e+00 1.516516e-01 2.441820e-01 5.481393e-01 4.028653e-01 5.515190e-01 5.730431e-01 6.159053e-01 6.855636e-01 6.161620e-01 5.255765e-01 5.519037e-01 4.090300e-01 1.812298e-01
<GCONST> 1.166592e+02
<STATE> 4
<MEAN> 39
 -8.351267e-01 2.269163e+00 1.211520e+01 -3.918514e-02 -1.119806e+01 -4.108098e+00 -9.120364e+00 -1.447277e+00 -1.024625e+01 -7.906319e-01 2.192622e+00 -5.147982e+00 5.967144e+01 2.825032e-01 4.776407e-01 -1.531269e+00 7.813795e-01 9.708384e-01 7.019694e-01 7.774662e-01 -1.601594e-01 3.564436e-01 1.821481e-01 -9.116594e-01 2.974048e-01 -1.091712e+00 -9.815805e-02 -5.535304e-02 8.049315e-03 -6.810132e-02 -4.945133e-02 4.191592e-02 8.602318e-03 -5.291940e-02 5.459655e-02 -4.776698e-02 5.621227e-02 -3.556523e-02 8.086924e-02
<VARIANCE> 39
 1.000211e+01 2.885130e+01 4.903059e+01 4.295692e+01 4.062149e+01 5.665000e+01 4.511741e+01 5.290665e+01 4.972656e+01 4.696210e+01 3.984136e+01 3.248383e+01 3.048884e+01 7.992876e-01 1.377597e+00 2.381226e+00 2.097410e+00 2.621850e+00 2.751138e+00 2.889109e+00 3.010465e+00 3.065306e+00 2.568562e+00 2.664763e+00 2.119419e+00 1.179442e+00 1.132543e-01 1.991309e-01 3.906184e-01 3.493852e-01 4.465391e-01 5.122832e-01 4.806485e-01 4.930188e-01 4.865578e-01 4.151029e-01 3.977382e-01 3.435510e-01 1.554860e-01
<GCONST> 1.145064e+02
<TRANSP> 5
 0.000000e+00 1.000000e+00 0.000000e+00 0.000000e+00 0.000000e+00
 0.000000e+00 4.682099e-01 5.317901e-01 0.000000e+00 0.000000e+00
 0.000000e+00 0.000000e+00 6.763475e-01 3.236525e-01 0.000000e+00
 0.000000e+00 0.000000e+00 0.000000e+00 7.061844e-01 2.938156e-01
 0.000000e+00 0.000000e+00 0.000000e+00 0.000000e+00 0.000000e+00
<ENDHMM>
~h "j"
<BEGINHMM>
<NUMSTATES> 5
<STATE> 2
<MEAN> 39
 1.753955e+00 6.003554e+00 5.509120e+00 4.484351e+00 -4.266749e+00 -1.673966e+00 -6.173989e+00 8.934846e-01 -4.504094e+00 -2.323394e+00 -2.713334e+00 -3.951622e+00 5.655630e+01 -1.366447e+00 4.034363e-01 8.097129e-01 -9.096264e-01 8.998215e-01 -8.491601e-01 1.625053e-01 -7.126573e-01 1.688615e-02 -4.034952e-01 3.850221e-01 4.826241e-01 6.229451e-01 -4.513132e-01 -5.124895e-01 8.054998e-01 -6.009314e-01 -5.075659e-01 -7.995885e-01 -6.756241e-01 -8.476745e-02 -2.089558e-01 -9.031936e-02 5.533994e-01 1.790508e-01 8.804057e-01
<VARIANCE> 39
 1.454615e+01 2.614203e+01 3.258587e+01 2.633894e+01 4.096758e+01 3.435028e+01 3.381702e+01 4.017174e+01 2.933240e+01 2.506406e+01 2.760288e+01 2.430801e+01 1.648546e+01 2.344555e+00 1.962889e+00 4.067389e+00 3.221095e+00 3.488764e+00 4.892603e+00 3.343954e+00 3.481702e+00 2.660846e+00 2.851032e+00 2.433276e+00 2.104999e+00 2.240459e+00 3.942874e-01 3.431472e-01 3.972863e-01 4.906515e-01 8.848840e-01 6.398305e-01 6.544620e-01 6.362216e-01 5.678594e-01 6.110153e-01 4.712798e-01 4.278027e-01 1.823617e-01
<GCONST> 1.191636e+02
<STATE> 3
<MEAN> 39
 -5.489161e+00 5.654374e+00 1.298432e+01 -1.016549e+00 -4.533801e+00 -7.953257e+00 -7.658480e+00 -3.322753e+00 -6.171377e+00 -4.737527e+00 9.221557e-01 -1.126820e+00 6.289064e+01 -3.645596e-01 -1.623507e+00 2.676536e+00 -9.238232e-01 -2.717043e+00 -2.261594e+00 -2.592871e+00 3.167900e-01 -8.201465e-01 -1.427075e-01 1.902884e+00 4.329847e-01 2.338285e+00 8.881637e-01 -5.976596e-01 -5.748739e-01 2.374258e-01 -6.156489e-01 3.315550e-01 -5.708740e-01 7.615865e-01 8.314072e-02 4.957303e-01 8.999098e-02 -4.223751e-01 -6.941829e-02
<VARIANCE> 39
 1.737368e+01 3.186712e+01 5.082112e+01 2.840431e+01 5.339378e+01 4.868647e+01 5.198776e+01 3.962590e+01 3.179633e+01 3.232625e+01 2.950412e+01 2.451031e+01 1.399593e+01 3.050676e+00 2.803652e+00 3.088058e+00 3.769819e+00 4.292462e+00 3.970363e+00 4.072579e+00 4.946459e+00 3.421489e+00 3.744867e+00 3.117040e+00 2.686435e+00 1.283983e+00 3.496693e-01 4.962693e-01 7.575833e-01 6.201309e-01 1.195787e+00 9.594548e-01 8.283382e-01 7.358542e-01 7.120621e-01 6.381938e-01 6.879321e-01 5.768490e-01 2.199762e-01
<GCONST> 1.261932e+02
<STATE> 4
<MEAN> 39
 -1.628851e+00 -2.720311e+00 1.583147e+01 -2.642489e+00 -1.380530e+01 -1.224343e+01 -1.699483e+01 4.401212e+00 -6.455475e+00 -2.439100e+00 5.596806e+00 -2.353567e+00 6.812265e+01 8.860949e-01 -1.774885e+00 -1.027946e+00 -7.777022e-01 -7.800570e-01 -7.449511e-02 -1.369446e+00 1.685075e+00 6.547911e-01 1.158470e+00 4.633644e-01 -1.242189e+00 1.034770e+00 1.352382e-01 5.227168e-01 -9.747237e-01 1.255227e-01 1.076367e+00 8.708261e-01 8.690782e-01 -2.910657e-01 1.692339e-01 1.166264e-01 -6.627190e-01 -3.365868e-01 -6.726417e-01
<VARIANCE> 39
 6.018912e+00 2.370124e+01 3.631606e+01 3.702271e+01 3.003202e+01 2.832966e+01 5.773124e+01 6.349607e+01 4.807272e+01 6.732650e+01 3.718578e+01 2.878745e+01 1.547123e+01 8.699280e-01 2.069963e+00 3.589668e+00 2.076623e+00 4.719799e+00 3.242009e+00 5.614438e+00 4.192702e+00 3.940125e+00 3.338038e+00 4.527992e+00 3.009895e+00 1.160768e+00 2.252269e-01 2.449798e-01 6.299530e-01 5.661245e-01 5.456291e-01 6.088856e-01 6.627463e-01 7.677120e-01 6.868243e-01 6.984025e-01 6.531490e-01 5.142421e-01 1.600910e-01
<GCONST> 1.210494e+02
<TRANSP> 5
 0.000000e+00 1.000000e+00 0.000000e+00 0.000000e+00 0.000000e+00
 0.000000e+00 6.567746e-01 3.432253e-01 0.000000e+00 0.000000e+00
 0.000000e+00 0.000000e+00 5.569856e-01 4.430144e-01 0.000000e+00
 0.000000e+00 0.000000e+00 0.000000e+00 6.004959e-01 3.995040e-01
 0.000000e+00 0.000000e+00 0.000000e+00 0.000000e+00 0.000000e+00
<ENDHMM>
~h "k"
<BEGINHMM>
<NUMSTATES> 5
<STATE> 2
<MEAN> 39
 3.206152e-01 2.500390e+00 -3.218334e+00 2.115515e+00 -4.912265e+00 1.196013e+00 -4.696767e+00 4.575095e-02 -4.712621e+00 -3.250662e-01 -1.231291e+00 -3.620851e+00 5.348946e+01 -5.154687e-01 -3.318533e-01 -7.253537e-01 -1.952926e-01 1.052583e+00 -3.766789e-01 -1.165521e-01 1.757460e-02 3.255585e-01 1.155428e-01 -1.256237e-01 8.849533e-02 2.492986e-01 -4.639170e-02 -3.917857e-01 1.824226e-01 -5.132744e-01 2.127125e-01 -3.141893e-01 -2.391229e-01 -4.668320e-02 -1.567806e-02 1.808039e-01 1.102197e-01 -1.913140e-01 7.298989e-01
<VARIANCE> 39
 9.759903e+00 2.134307e+01 2.994440e+01 2.892021e+01 3.205446e+01 3.838513e+01 2.978006e+01 3.319292e+01 3.123840e+01 2.613557e+01 2.612362e+01 2.660911e+01 1.784777e+01 1.142823e+00 2.611369e+00 2.555737e+00 2.950282e+00 4.254744e+00 3.786044e+00 3.294472e+00 3.614125e+00 3.452591e+00 2.917070e+00 2.569152e+00 2.486459e+00 2.154359e+00 2.039693e-01 3.446325e-01 4.250620e-01 4.994238e-01 6.583807e-01 6.327727e-01 5.479326e-01 6.056850e-01 6.167914e-01 5.284222e-01 4.608012e-01 4.719731e-01 2.862540e-01
<GCONST> 1.171429e+02
<STATE> 3
<MEAN> 39
 -2.826611e+00 -1.964964e+00 -5.397888e+00 -1.006702e+00 2.185737e+00 -2.564791e+00 -6.228302e+00 -8.614017e-01 -3.166879e+00 1.834261e+00 -1.206653e+00 -4.402894e+00 5.923571e+01 3.870031e-03 -8.303347e-01 3.787126e-01 -1.585961e+00 3.022798e-01 -1.035305e+00 -5.764655e-01 -6.263978e-02 -3.221593e-02 4.491549e-01 2.552221e-01 -6.543957e-01 1.944112e+00 5.792981e-01 4.502583e-03 6.907887e-01 -3.487014e-01 -1.152689e+00 2.166332e-01 -1.233585e-01 1.851601e-01 -3.242423e-01 -1.067448e-01 2.503912e-01 -3.224911e-01 2.713438e-01
<VARIANCE> 39
 2.311698e+01 3.278302e+01 5.198156e+01 4.254609e+01 5.668166e+01 6.973093e+01 6.277462e+01 6.204143e+01 4.656659e+01 4.023105e+01 4.063863e+01 3.407755e+01 2.408148e+01 2.357066e+00 3.551106e+00 4.449748e+00 4.537749e+00 6.112491e+00 4.970733e+00 4.447888e+00 4.938777e+00 5.005121e+00 3.579258e+00 3.246034e+00 3.577419e+00 3.038352e+00 3.936186e-01 6.490614e-01 6.842252e-01 7.576113e-01 1.091597e+00 9.446412e-01 1.144681e+00 1.258050e+00 1.098908e+00 8.826770e-01 8.145390e-01 7.681391e-01 3.791997e-01
<GCONST> 1.354960e+02
<STATE> 4
<MEAN> 39
 5.599279e-01 -9.626473e-01 -2.548578e+00 -4.334819e+00 -3.189250e+00 -3.122665e+00 -6.889530e+00 -3.046975e-01 -5.279353e+00 1.560968e+00 -1.727184e-01 -6.431756e+00 6.125484e+01 1.174047e+00 -7.774333e-01 1.541178e+00 -1.881070e+00 -2.111449e+00 -6.136667e-02 -8.930914e-01 3.435973e-01 -5.946813e-01 -1.116432e-02 8.103718e-01 -1.063586e+00 1.983648e+00 1.023617e-01 -8.163410e-02 1.832229e-01 2.155955e-01 -3.758273e-01 3.866292e-01 -3.890230e-02 6.761743e-02 3.014880e-02 -1.558423e-01 8.108770e-02 4.154025e-05 -1.217372e-01
<VARIANCE> 39
 2.127453e+01 3.516747e+01 5.310996e+01 5.491170e+01 4.492922e+01 6.393140e+01 4.790802e+01 4.205614e+01 4.695108e+01 3.897436e+01 3.794675e+01 3.508715e+01 3.078131e+01 2.492973e+00 3.880612e+00 4.643929e+00 5.454930e+00 6.375760e+00 5.021580e+00 6.214743e+00 6.887528e+00 6.534237e+00 4.881144e+00 4.912575e+00 4.917285e+00 2.395200e+00 3.139066e-01 4.658902e-01 5.473369e-01 6.663977e-01 7.953790e-01 7.904156e-01 7.657096e-01 7.820276e-01 7.954073e-01 7.272375e-01 5.974137e-01 5.372875e-01 4.310168e-01
<GCONST> 1.337886e+02
<TRANSP> 5
 0.000000e+00 1.000000e+00 0.000000e+00 0.000000e+00 0.000000e+00
 0.000000e+00 6.240360e-01 3.759640e-01 0.000000e+00 0.000000e+00
 0.000000e+00 0.000000e+00 4.374068e-01 5.625931e-01 0.000000e+00
 0.000000e+00 0.000000e+00 0.000000e+00 1.814189e-01 8.185811e-01
 0.000000e+00 0.000000e+00 0.000000e+00 0.000000e+00 0.000000e+00
<ENDHMM>
~h "l"
<BEGINHMM>
<NUMSTATES> 5
<STATE> 2
<MEAN> 39
 2.956182e+00 -3.547688e+00 3.573125e+00 -6.507306e+00 -6.727150e+00 -2.577860e+00 -1.555644e+01 -6.044684e+00 -1.325289e+00 4.883430e+00 3.020015e+00 -1.006186e+01 6.597345e+01 1.155492e-01 -8.200900e-02 6.808038e-02 -3.466262e-01 -2.547142e-02 3.302722e-01 -7.013172e-01 -3.666119e-01 2.287438e-01 5.924026e-01 2.646853e-01 -5.645562e-01 8.045705e-02 -1.335921e-01 -1.828261e-01 -8.899412e-02 -1.397173e-01 -6.383329e-02 1.631915e-01 3.677002e-01 5.588380e-01 5.892240e-02 -3.999664e-01 -1.414944e-01 1.091698e-03 1.152626e-01
<VARIANCE> 39
 1.014550e+01 3.782538e+01 7.012764e+01 6.022047e+01 5.305285e+01 6.226388e+01 8.898859e+01 1.005169e+02 8.942703e+01 5.194241e+01 5.735522e+01 5.921994e+01 1.955089e+01 4.361592e-01 1.443573e+00 2.087378e+00 2.882785e+00 2.292227e+00 3.351647e+00 3.645545e+00 4.275875e+00 3.342006e+00 3.195043e+00 2.913052e+00 2.379085e+00 9.293618e-01 9.728734e-02 2.745213e-01 3.099424e-01 4.851487e-01 5.009353e-01 6.098663e-01 7.889294e-01 7.679172e-01 6.357013e-01 5.639138e-01 7.062587e-01 4.729263e-01 1.225705e-01
<GCONST> 1.216465e+02
<STATE> 3
<MEAN> 39
 2.576411e+00 -5.530451e+00 3.961464e+00 -8.850861e+00 -7.807337e+00 -1.522746e+00 -1.629023e+01 -3.365057e+00 1.183311e-01 6.048579e+00 3.434436e+00 -1.313694e+01 6.740402e+01 -1.747179e-01 -6.716417e-01 -2.758684e-01 -5.681092e-01 -1.893421e-02 5.076845e-01 5.249918e-01 1.160478e+00 4.737177e-01 -5.844991e-01 -6.435075e-01 -3.521211e-01 4.697353e-01 -9.276642e-02 -1.000050e-01 -8.790539e-02 1.240148e-01 5.952877e-02 2.041039e-02 4.433798e-01 3.999545e-01 -1.404346e-01 -5.208934e-01 -2.632927e-01 2.685292e-01 3.082043e-02
<VARIANCE> 39
 8.585728e+00 3.513117e+01 6.900493e+01 5.703595e+01 4.977303e+01 5.183080e+01 8.551675e+01 7.421746e+01 8.908118e+01 4.630668e+01 5.003201e+01 6.259471e+01 1.868796e+01 4.552578e-01 1.641825e+00 2.309487e+00 2.289898e+00 2.098237e+00 3.118982e+00 3.512516e+00 3.762884e+00 3.472740e+00 2.972201e+00 3.620908e+00 2.260629e+00 8.661674e-01 6.757190e-02 2.290297e-01 2.623205e-01 4.168238e-01 3.545272e-01 5.217094e-01 5.615205e-01 5.663177e-01 5.324602e-01 4.896203e-01 6.052817e-01 3.937491e-01 1.110772e-01
<GCONST> 1.175139e+02
<STATE> 4
<MEAN> 39
 2.133101e+00 -6.776841e+00 2.324307e+00 -8.539657e+00 -7.503261e+00 -3.610141e-01 -1.335317e+01 -5.725025e-01 1.299422e+00 2.260000e+00 1.163108e+00 -1.257566e+01 6.814376e+01 -1.441578e-01 -2.497980e-01 -1.200283e-01 1.884061e-01 1.522218e-01 4.464434e-01 9.666689e-01 9.100946e-01 -5.768319e-01 -1.016765e+00 -5.112414e-01 3.232178e-01 3.562476e-02 9.201472e-04 2.749017e-01 1.550668e-01 2.657332e-01 1.607525e-02 -1.122651e-01 6.830034e-02 -2.513387e-01 -4.593670e-01 -1.644753e-04 1.444919e-01 2.519569e-01 -2.225180e-01
<VARIANCE> 39
 1.036074e+01 3.638293e+01 6.236932e+01 6.433476e+01 4.602750e+01 6.169066e+01 7.277824e+01 7.817140e+01 9.923360e+01 5.705280e+01 5.236929e+01 5.976541e+01 2.180733e+01 5.817285e-01 1.979983e+00 2.434586e+00 2.708073e+00 2.450680e+00 4.067467e+00 3.762231e+00 4.527654e+00 4.303032e+00 3.231022e+00 4.402307e+00 2.301865e+00 1.307488e+00 8.767986e-02 2.379518e-01 4.068196e-01 4.237050e-01 4.235473e-01 5.651474e-01 5.566129e-01 7.412601e-01 7.084486e-01 5.155722e-01 5.856276e-01 4.101684e-01 1.573646e-01
<GCONST> 1.224292e+02
<TRANSP> 5
 0.000000e+00 1.000000e+00 0.000000e+00 0.000000e+00 0.000000e+00
 0.000000e+00 4.210405e-01 5.789594e-01 0.000000e+00 0.000000e+00
 0.000000e+00 0.000000e+00 3.730755e-01 6.269245e-01 0.000000e+00
 0.000000e+00 0.000000e+00 0.000000e+00 3.576611e-01 6.423390e-01
 0.000000e+00 0.000000e+00 0.000000e+00 0.000000e+00 0.000000e+00
<ENDHMM>
~h "m"
<BEGINHMM>
<NUMSTATES> 5
<STATE> 2
<MEAN> 39
 4.612872e+00 -1.749411e+00 4.081471e+00 5.404400e-01 -8.468291e+00 6.036719e+00 -5.830319e+00 -6.946078e+00 -1.195825e+01 9.711226e-01 -1.984842e-02 -8.888359e+00 6.190101e+01 -1.872355e-02 3.216109e-01 1.067735e+00 1.172287e+00 -6.355826e-02 1.021478e+00 5.934957e-01 -1.373970e+00 -1.579770e+00 -5.202423e-01 -8.414084e-01 -2.195359e-01 -4.315952e-01 -9.516864e-02 -2.710702e-01 -1.924807e-01 -4.684033e-01 5.861700e-02 -3.331186e-01 -3.044067e-01 5.132930e-01 5.834032e-01 -2.426112e-02 7.996263e-02 -4.849366e-02 2.984173e-01
<VARIANCE> 39
 7.124732e+00 2.785855e+01 2.971358e+01 3.582608e+01 4.511699e+01 4.220597e+01 4.481587e+01 3.635380e+01 4.386136e+01 3.136237e+01 4.194161e+01 3.931706e+01 1.757893e+01 5.043998e-01 1.295596e+00 2.092739e+00 1.947000e+00 2.272075e+00 2.505898e+00 2.571898e+00 2.633393e+00 4.233727e+00 2.377619e+00 3.025834e+00 2.166916e+00 9.593373e-01 9.271061e-02 1.536774e-01 2.855159e-01 2.856641e-01 3.810616e-01 3.775298e-01 4.298518e-01 4.135012e-01 5.309982e-01 4.368501e-01 5.260582e-01 3.673179e-01 8.788516e-02
<GCONST> 1.092063e+02
<STATE> 3
<MEAN> 39
 4.019517e+00 -2.230902e+00 7.003667e+00 4.226163e-01 -9.402524e+00 7.756464e+00 -6.212453e+00 -8.238730e+00 -1.422771e+01 -9.656019e-01 -7.183869e-01 -1.007641e+01 6.247179e+01 1.528302e-01 -1.002034e-01 -3.007582e-01 -3.984298e-01 -2.916468e-01 -2.262660e-01 -1.997496e-01 2.030359e-01 5.058970e-01 1.110536e-01 3.358690e-01 5.970111e-02 1.556206e-01 5.416809e-02 -1.518947e-01 -4.883284e-01 -4.237928e-01 -5.788871e-02 -3.340229e-01 -1.602673e-01 5.416155e-01 7.343974e-01 2.160955e-01 2.283257e-01 9.381027e-03 1.604160e-01
<VARIANCE> 39
 5.467225e+00 2.443553e+01 3.484159e+01 3.057547e+01 4.536412e+01 4.680663e+01 3.789174e+01 3.994925e+01 5.576804e+01 3.214875e+01 4.612663e+01 4.145592e+01 1.490763e+01 3.497767e-01 9.882135e-01 1.517691e+00 1.607836e+00 1.516307e+00 2.011747e+00 1.728596e+00 1.857777e+00 2.797417e+00 1.777187e+00 2.120057e+00 1.769328e+00 6.803653e-01 6.766972e-02 1.679685e-01 2.675392e-01 2.895854e-01 3.157441e-01 4.076931e-01 3.439747e-01 4.506536e-01 6.778483e-01 4.091554e-01 4.762957e-01 3.970903e-01 8.054095e-02
<GCONST> 1.045120e+02
<STATE> 4
<MEAN> 39
 5.570542e+00 -2.869472e+00 1.345292e+00 -2.987130e+00 -9.814299e+00 5.517594e+00 -6.953900e+00 -4.883155e+00 -8.393966e+00 1.335145e+00 1.056860e+00 -8.737142e+00 6.340541e+01 7.056971e-02 -9.323873e-01 -1.200436e+00 -1.269933e+00 3.136567e-01 -4.007170e-01 -5.336038e-01 1.696660e+00 1.867949e+00 1.732465e-01 2.550989e-01 -4.554498e-01 7.454932e-01 -2.121628e-01 -1.101414e-01 2.317556e-01 1.171157e-01 2.591109e-01 -9.842604e-02 -3.494852e-02 1.974900e-01 -4.561585e-02 -1.713738e-01 -2.146916e-01 -6.087241e-02 4.894163e-02
<VARIANCE> 39
 7.671813e+00 3.829316e+01 3.800005e+01 4.682319e+01 7.466434e+01 4.669400e+01 5.048787e+01 4.241800e+01 4.509422e+01 3.583401e+01 4.078282e+01 4.573483e+01 2.208101e+01 5.437418e-01 1.972360e+00 2.698844e+00 2.817233e+00 3.571906e+00 3.335603e+00 3.073062e+00 3.189490e+00 5.632713e+00 3.039619e+00 3.300257e+00 3.274991e+00 1.019712e+00 9.557202e-02 1.978225e-01 3.604454e-01 4.962795e-01 5.691907e-01 5.002729e-01 4.693715e-01 5.521400e-01 6.794106e-01 4.437337e-01 5.305670e-01 4.159898e-01 1.228757e-01
<GCONST> 1.176801e+02
<TRANSP> 5
 0.000000e+00 1.000000e+00 0.000000e+00 0.000000e+00 0.000000e+00
 0.000000e+00 4.695214e-01 5.304786e-01 0.000000e+00 0.000000e+00
 0.000000e+00 0.000000e+00 6.270862e-01 3.729138e-01 0.000000e+00
 0.000000e+00 0.000000e+00 0.000000e+00 4.834033e-01 5.165967e-01
 0.000000e+00 0.000000e+00 0.000000e+00 0.000000e+00 0.000000e+00
<ENDHMM>
~h "n"
<BEGINHMM>
<NUMSTATES> 5
<STATE> 2
<MEAN> 39
 3.722885e+00 -3.182924e+00 6.870197e+00 3.227348e+00 -1.035500e+01 -1.233462e+00 -8.977239e+00 -3.454773e+00 -6.027226e+00 3.088258e+00 -4.953430e+00 -9.728197e+00 6.268969e+01 3.528117e-01 1.343913e+00 9.338131e-01 1.262141e+00 -5.705451e-01 1.021908e+00 3.790573e-01 -2.655820e+00 -9.888499e-01 1.019325e+00 -1.161782e+00 6.231600e-01 -1.176381e+00 -1.539483e-01 -2.806985e-01 -2.629673e-01 -4.946201e-01 1.495947e-01 -7.599651e-02 5.267892e-02 6.017454e-01 1.916000e-01 -3.185832e-01 3.415510e-01 -4.243376e-02 2.916418e-01
<VARIANCE> 39
 5.437857e+00 2.801179e+01 3.281207e+01 2.503631e+01 4.470006e+01 3.678260e+01 4.400843e+01 5.749848e+01 5.139127e+01 4.406950e+01 3.881195e+01 4.193787e+01 1.456394e+01 4.536127e-01 1.248336e+00 2.686053e+00 1.752259e+00 2.284163e+00 2.640206e+00 3.365234e+00 4.741005e+00 2.921182e+00 3.483552e+00 3.083756e+00 2.622500e+00 7.107556e-01 7.588521e-02 2.172300e-01 3.207007e-01 2.733583e-01 3.432467e-01 3.659468e-01 4.169024e-01 6.966462e-01 4.350771e-01 4.557886e-01 4.372830e-01 3.481673e-01 1.112185e-01
<GCONST> 1.105230e+02
<STATE> 3
<MEAN> 39
 4.306551e+00 -1.893171e+00 8.180042e+00 4.838413e+00 -1.251187e+01 5.577480e-01 -7.872551e+00 -7.002763e+00 -7.879282e+00 4.557092e+00 -5.688437e+00 -9.099761e+00 6.141542e+01 3.793479e-02 5.046445e-01 -2.503786e-01 2.303931e-01 1.665797e-01 2.796415e-01 3.985215e-01 -2.259125e-01 -1.353267e-01 -1.917645e-01 -1.037055e-01 2.432447e-01 -4.436539e-01 -1.760232e-01 -2.573114e-01 -3.238928e-01 -3.978070e-01 2.987528e-01 -2.570263e-01 -3.612250e-02 8.390365e-01 2.746015e-01 -4.837262e-01 3.762730e-01 -1.079036e-01 2.336438e-01
<VARIANCE> 39
 4.129303e+00 2.211156e+01 2.753285e+01 2.397724e+01 3.687206e+01 3.672816e+01 3.659204e+01 5.279885e+01 5.200712e+01 3.930033e+01 4.095076e+01 3.616571e+01 1.046394e+01 2.798041e-01 1.217196e+00 1.419491e+00 1.262527e+00 1.650358e+00 1.824651e+00 1.961200e+00 2.833795e+00 2.360713e+00 2.249922e+00 2.005361e+00 1.673171e+00 6.912049e-01 9.157816e-02 2.685067e-01 3.884772e-01 3.601477e-01 3.752303e-01 3.958150e-01 4.471466e-01 8.082952e-01 4.965379e-01 5.346643e-01 5.339503e-01 3.704312e-01 1.468111e-01
<GCONST> 1.061049e+02
<STATE> 4
<MEAN> 39
 1.179939e+00 1.887115e+00 1.714585e+00 5.186866e+00 -5.747426e+00 1.270555e+00 -5.136953e+00 -1.483257e+00 -4.469996e+00 -1.462474e-02 -4.973413e+00 -5.057906e+00 5.540725e+01 -2.516445e-01 7.168041e-02 -3.697090e-01 -2.635044e-01 3.076742e-01 -2.707567e-02 1.169647e-01 5.657839e-01 1.405880e-01 -4.779836e-01 3.546435e-01 8.748537e-02 -1.695638e-01 -7.885864e-02 -1.602552e-01 2.570136e-02 -2.045141e-01 -1.632642e-04 -7.353534e-02 -7.695957e-02 1.702466e-01 4.238522e-02 -3.951458e-02 1.248362e-01 -3.884912e-02 1.627743e-01
<VARIANCE> 39
 1.306842e+01 2.689359e+01 3.633741e+01 2.237580e+01 3.617223e+01 3.186043e+01 3.753484e+01 4.757219e+01 3.544085e+01 3.563167e+01 3.642751e+01 3.551431e+01 3.190242e+01 4.836514e-01 1.503716e+00 1.686756e+00 1.779599e+00 2.027500e+00 1.929450e+00 2.172629e+00 3.706987e+00 2.292080e+00 2.738111e+00 2.462611e+00 1.968587e+00 9.656749e-01 1.138714e-01 2.028792e-01 2.557791e-01 3.327753e-01 3.513090e-01 3.773370e-01 4.039858e-01 6.136160e-01 4.365163e-01 4.693907e-01 4.402056e-01 3.555356e-01 1.112680e-01
<GCONST> 1.088749e+02
<TRANSP> 5
 0.000000e+00 1.000000e+00 0.000000e+00 0.000000e+00 0.000000e+00
 0.000000e+00 2.988847e-01 7.011154e-01 0.000000e+00 0.000000e+00
 0.000000e+00 0.000000e+00 5.988868e-01 4.011132e-01 0.000000e+00
 0.000000e+00 0.000000e+00 0.000000e+00 7.235853e-01 2.764147e-01
 0.000000e+00 0.000000e+00 0.000000e+00 0.000000e+00 0.000000e+00
<ENDHMM>
~h "o"
<BEGINHMM>
<NUMSTATES> 5
<STATE> 2
<MEAN> 39
 4.012965e+00 -2.137528e+00 -3.466353e+00 -1.229650e+01 -7.516078e+00 4.396050e+00 -8.124113e+00 -2.058567e+00 -3.992536e+00 2.487660e+00 3.227220e+00 -6.212563e+00 6.505835e+01 8.341844e-01 -8.158056e-01 -6.758928e-02 -1.714263e+00 -6.197790e-01 1.058341e+00 -4.821196e-01 -7.968657e-04 -2.728278e-01 5.476909e-01 7.206644e-01 -5.434446e-01 1.189849e+00 -2.987280e-01 2.641729e-01 1.943110e-01 7.826285e-01 2.379896e-01 -2.030635e-01 2.102490e-01 4.520255e-02 -7.540623e-02 -1.458009e-01 -2.932150e-01 1.091791e-01 -4.907323e-01
<VARIANCE> 39
 1.152153e+01 3.338644e+01 2.908696e+01 8.232994e+01 5.204290e+01 6.935706e+01 6.793636e+01 4.918378e+01 6.556884e+01 4.777618e+01 4.178079e+01 4.155601e+01 3.316703e+01 2.012586e+00 2.433995e+00 2.775882e+00 7.681952e+00 4.402128e+00 5.361369e+00 4.672276e+00 4.461883e+00 4.261542e+00 4.041551e+00 3.308626e+00 2.704543e+00 2.874129e+00 3.220784e-01 3.910248e-01 4.707271e-01 1.083692e+00 7.171197e-01 9.179435e-01 9.540700e-01 7.718217e-01 7.594779e-01 7.358816e-01 6.289099e-01 5.461209e-01 3.966717e-01
<GCONST> 1.316232e+02
<STATE> 3
<MEAN> 39
 4.915535e+00 -4.847027e+00 -3.053468e+00 -1.255411e+01 -9.637838e+00 6.460149e+00 -9.051526e+00 -2.096032e+00 -3.858988e+00 2.897681e+00 5.460258e+00 -9.491671e+00 6.680418e+01 5.279333e-03 3.434651e-01 1.268238e-02 1.004153e+00 3.394928e-01 -2.762076e-01 2.548331e-01 -7.708702e-02 -1.075821e-01 -1.523010e-02 -5.301503e-01 7.204158e-02 -5.626469e-01 -1.391991e-01 2.643000e-01 9.609720e-02 5.619491e-01 1.568632e-01 -2.647635e-01 9.056125e-02 -1.129341e-01 4.409523e-02 -1.083818e-01 -3.090693e-01 1.528268e-01 -3.295106e-01
<VARIANCE> 39
 6.980498e+00 2.739655e+01 2.282590e+01 6.456783e+01 4.632160e+01 6.237162e+01 5.415513e+01 6.684152e+01 6.875471e+01 5.391389e+01 4.935887e+01 4.690432e+01 1.429038e+01 4.903514e-01 1.515310e+00 1.347718e+00 3.483249e+00 2.221184e+00 2.960348e+00 2.827907e+00 2.576688e+00 2.788815e+00 2.668011e+00 2.686483e+00 2.133438e+00 1.168418e+00 1.096138e-01 2.124801e-01 2.828277e-01 4.565133e-01 4.738746e-01 5.691130e-01 5.177816e-01 5.914395e-01 5.541689e-01 5.319180e-01 5.023221e-01 4.232110e-01 1.405844e-01
<GCONST> 1.150088e+02
<STATE> 4
<MEAN> 39
 1.875124e+00 3.478756e+00 -3.755577e+00 -1.265975e+00 -5.268440e+00 3.727068e+00 -4.442072e+00 7.853645e-02 -4.586551e+00 6.915491e-01 -6.009387e-01 -3.024295e+00 5.471725e+01 -2.117786e-01 3.402110e-01 5.341519e-02 8.592436e-01 1.663000e-01 -1.468125e-01 1.902470e-01 -6.917716e-02 9.719101e-02 -1.516171e-01 -2.659360e-01 1.923136e-01 -5.866052e-01 -2.203274e-02 -5.322219e-02 4.204323e-02 -7.505286e-02 -2.839965e-02 1.232151e-02 -9.603160e-03 -8.424898e-03 -2.064831e-02 3.231931e-03 2.921384e-02 -1.184247e-02 6.887273e-02
<VARIANCE> 39
 1.739241e+01 2.913162e+01 1.974794e+01 7.953204e+01 3.082219e+01 3.321151e+01 4.309586e+01 3.400234e+01 4.134360e+01 3.381584e+01 2.910694e+01 3.213969e+01 4.427796e+01 3.750955e-01 8.727365e-01 1.131364e+00 2.365604e+00 1.703353e+00 1.900974e+00 1.968539e+00 2.210949e+00 2.192493e+00 2.271570e+00 2.081824e+00 1.574070e+00 6.789216e-01 6.765892e-02 1.419650e-01 1.610335e-01 2.725838e-01 2.922623e-01 3.302979e-01 3.661915e-01 3.841585e-01 4.043491e-01 4.197395e-01 3.343443e-01 2.890868e-01 6.197900e-02
<GCONST> 1.033165e+02
<TRANSP> 5
 0.000000e+00 1.000000e+00 0.000000e+00 0.000000e+00 0.000000e+00
 0.000000e+00 6.026787e-01 3.973214e-01 0.000000e+00 0.000000e+00
 0.000000e+00 0.000000e+00 7.302604e-01 2.697396e-01 0.000000e+00
 0.000000e+00 0.000000e+00 0.000000e+00 8.146698e-01 1.853302e-01
 0.000000e+00 0.000000e+00 0.000000e+00 0.000000e+00 0.000000e+00
<ENDHMM>
~h "p"
<BEGINHMM>
<NUMSTATES> 5
<STATE> 2
<MEAN> 39
 -7.554093e-02 3.936196e+00 -3.776624e+00 3.601314e+00 -3.635679e+00 2.864891e+00 -4.386794e+00 5.360266e-01 -3.501126e+00 -1.027290e+00 -2.051256e+00 -3.463978e+00 5.161587e+01 -2.222523e-01 1.658594e-01 -1.450610e-01 1.840256e-01 1.180191e-01 -1.051688e-01 1.919896e-01 7.930382e-02 1.953355e-01 -5.362086e-02 1.588292e-02 2.273430e-01 -3.000557e-01 1.213546e-02 -2.454849e-01 1.452418e-01 -2.428414e-01 -4.606436e-03 -1.234351e-01 -1.195493e-01 -9.749688e-02 3.334717e-02 4.609071e-02 9.611193e-02 -5.186073e-02 3.684321e-01
<VARIANCE> 39
 1.344675e+01 1.577330e+01 1.911573e+01 1.849878e+01 2.228296e+01 3.136073e+01 2.476808e+01 2.582963e+01 2.667143e+01 2.129050e+01 2.055968e+01 2.313506e+01 1.392927e+01 5.094455e-01 8.069592e-01 9.453692e-01 1.247374e+00 1.414734e+00 1.733799e+00 1.668092e+00 1.973325e+00 1.889360e+00 1.710832e+00 1.625967e+00 1.549756e+00 5.686913e-01 9.949183e-02 2.144504e-01 2.572469e-01 3.447138e-01 3.148607e-01 4.068596e-01 3.836051e-01 4.224834e-01 4.230897e-01 3.885581e-01 3.911532e-01 3.296516e-01 2.259143e-01
<GCONST> 9.846481e+01
<STATE> 3
<MEAN> 39
 -2.253094e-01 2.287008e+00 -3.003945e+00 1.868721e+00 -3.089529e+00 3.168142e-02 -4.417462e+00 -1.109734e+00 -3.174237e+00 -7.099090e-01 -1.876422e+00 -3.423405e+00 5.448957e+01 2.054977e-01 -1.510378e+00 6.357864e-01 -1.621502e+00 -3.032007e-01 -1.037449e+00 -8.268806e-01 -7.132125e-01 2.874066e-01 2.317577e-01 7.747777e-01 -1.514846e-01 2.226362e+00 3.679907e-01 -5.754485e-01 3.273233e-01 -7.034908e-01 -5.082392e-01 4.683873e-02 -5.779958e-01 4.187413e-02 -1.915770e-01 1.872140e-01 3.896194e-01 -4.439695e-01 8.771712e-01
<VARIANCE> 39
 1.464353e+01 2.122537e+01 2.399043e+01 2.420765e+01 2.783862e+01 4.096590e+01 2.561970e+01 3.027953e+01 3.110552e+01 2.146286e+01 2.035409e+01 2.540183e+01 1.548473e+01 2.284942e+00 2.905580e+00 4.467105e+00 5.113552e+00 4.244151e+00 5.588301e+00 4.669309e+00 3.884600e+00 4.482853e+00 3.485056e+00 3.339822e+00 3.492892e+00 2.233538e+00 2.442608e-01 4.914726e-01 7.492605e-01 7.423702e-01 7.173767e-01 9.398326e-01 6.441219e-01 8.427430e-01 7.934200e-01 6.409688e-01 6.142695e-01 5.765604e-01 3.119014e-01
<GCONST> 1.234694e+02
<STATE> 4
<MEAN> 39
 2.331739e+00 -2.553734e+00 -2.378951e+00 -5.228550e+00 -5.397977e+00 -8.426951e-01 -7.856269e+00 -2.646625e+00 -3.340063e+00 7.235526e-01 1.477327e+00 -5.266772e+00 6.196717e+01 8.588071e-01 -2.183189e+00 7.577665e-01 -2.261847e+00 -1.079464e+00 -1.221400e-01 -1.476487e+00 6.240103e-02 -1.486563e-01 6.121889e-01 1.104874e+00 -1.293230e+00 2.964767e+00 -6.849040e-02 1.807236e-01 2.258801e-01 4.480163e-01 -8.176124e-02 1.175282e-01 -6.043264e-02 3.809177e-01 -1.016932e-01 -4.720220e-02 -2.207179e-01 -1.855005e-01 -2.857736e-01
<VARIANCE> 39
 2.309060e+01 3.351680e+01 3.328691e+01 6.317669e+01 3.496988e+01 7.592417e+01 4.450552e+01 3.730981e+01 4.966071e+01 3.254196e+01 3.063219e+01 2.955160e+01 2.713243e+01 2.053204e+00 4.284693e+00 7.284254e+00 7.167047e+00 5.715357e+00 7.693415e+00 5.729735e+00 5.749478e+00 6.000659e+00 4.834563e+00 5.256073e+00 4.872453e+00 3.254359e+00 3.800247e-01 4.583895e-01 5.269220e-01 1.098418e+00 6.930022e-01 9.341501e-01 7.486273e-01 8.238503e-01 8.160906e-01 6.351184e-01 7.701445e-01 6.049596e-01 4.457429e-01
<GCONST> 1.345327e+02
<TRANSP> 5
 0.000000e+00 1.000000e+00 0.000000e+00 0.000000e+00 0.000000e+00
 0.000000e+00 7.914589e-01 2.085411e-01 0.000000e+00 0.000000e+00
 0.000000e+00 0.000000e+00 4.886740e-01 5.113260e-01 0.000000e+00
 0.000000e+00 0.000000e+00 0.000000e+00 3.044723e-01 6.955276e-01
 0.000000e+00 0.000000e+00 0.000000e+00 0.000000e+00 0.000000e+00
<ENDHMM>
~h "r"
<BEGINHMM>
<NUMSTATES> 5
<STATE> 2
<MEAN> 39
 3.329157e+00 -3.758160e+00 -1.189085e+00 3.600503e+00 -5.906042e+00 -3.978346e+00 -1.038960e+01 -1.785838e+00 5.125339e-01 1.580491e+00 -6.436082e-01 -6.888271e+00 6.196844e+01 1.134514e-01 3.465211e-01 1.057841e-02 1.108477e+00 1.685620e-01 -3.375241e-01 4.141690e-02 -2.616030e-01 -1.057102e-01 -4.615394e-01 -4.627622e-01 7.536547e-01 -7.524606e-01 -9.854602e-02 -1.900600e-01 1.245045e-01 -6.345457e-01 -2.069509e-01 5.299700e-02 9.393638e-02 2.736568e-01 -2.741828e-01 -1.113791e-02 2.805876e-01 -2.438360e-01 4.112555e-01
<VARIANCE> 39
 1.217916e+01 2.405910e+01 3.922017e+01 3.453739e+01 3.516197e+01 4.608945e+01 5.750764e+01 5.884471e+01 4.908178e+01 4.031052e+01 3.893842e+01 4.407768e+01 2.126187e+01 1.197164e+00 1.584513e+00 2.202878e+00 2.102235e+00 3.016801e+00 3.245546e+00 3.371647e+00 3.852724e+00 3.383400e+00 3.158901e+00 3.627315e+00 3.085578e+00 1.323529e+00 1.802185e-01 3.442011e-01 3.993700e-01 5.115327e-01 6.883408e-01 6.023664e-01 6.470116e-01 7.591687e-01 7.369951e-01 6.974333e-01 6.902349e-01 5.590402e-01 3.219832e-01
<GCONST> 1.215536e+02
<STATE> 3
<MEAN> 39
 3.085222e+00 -3.955310e+00 -9.701850e-01 3.979534e+00 -6.225434e+00 -5.262553e+00 -1.006072e+01 -1.665368e+00 -3.139076e-02 2.037582e-01 -6.012717e-01 -5.641067e+00 6.199231e+01 2.070398e-02 -3.250518e-01 2.329118e-01 -1.706260e-01 -5.630813e-01 -2.654537e-01 2.104307e-01 4.496534e-01 -4.411768e-01 -3.993508e-01 2.530300e-01 -1.237645e-01 3.518120e-01 -9.921052e-02 -2.391589e-01 1.947492e-01 -7.399041e-01 -2.361188e-01 2.420083e-01 5.005329e-02 3.433421e-01 -2.824959e-01 1.574202e-01 3.576638e-01 -4.948457e-01 4.924768e-01
<VARIANCE> 39
 1.652031e+01 2.615143e+01 4.390183e+01 3.475081e+01 3.390055e+01 5.147355e+01 6.439163e+01 5.895813e+01 4.995449e+01 3.998420e+01 3.671292e+01 3.954258e+01 2.130322e+01 1.334021e+00 2.369948e+00 2.877024e+00 2.118971e+00 3.697062e+00 3.822027e+00 3.654779e+00 4.301226e+00 4.008800e+00 3.219218e+00 3.381810e+00 3.017071e+00 1.637170e+00 2.284563e-01 3.808674e-01 4.701085e-01 4.929711e-01 7.930679e-01 6.846441e-01 7.427715e-01 8.276731e-01 7.554981e-01 7.511655e-01 7.790542e-01 6.168033e-01 3.134603e-01
<GCONST> 1.249960e+02
<STATE> 4
<MEAN> 39
 2.551493e+00 -4.439631e+00 -9.342340e-01 2.533558e+00 -7.360991e+00 -4.304389e+00 -8.344145e+00 -1.218835e+00 -8.482519e-02 -2.837878e-02 1.434668e-01 -6.775954e+00 6.339012e+01 -1.198960e-01 -1.771693e-01 4.417436e-01 -7.758629e-01 -4.493021e-01 3.499503e-01 1.811596e-01 5.732254e-01 -6.532512e-01 -8.859514e-02 4.485784e-01 -5.503488e-01 4.676633e-01 -6.915584e-02 4.053054e-02 1.172206e-01 -2.533185e-01 7.915913e-02 1.943329e-01 -4.267620e-02 6.392849e-02 -1.787897e-01 1.341885e-01 5.988954e-02 -1.442601e-01 3.972820e-02
<VARIANCE> 39
 2.627154e+01 3.806632e+01 5.421239e+01 4.149842e+01 4.983206e+01 6.225837e+01 7.490305e+01 7.137868e+01 6.014013e+01 4.530496e+01 4.770162e+01 4.625277e+01 3.000835e+01 1.540455e+00 3.356966e+00 3.536915e+00 2.769047e+00 4.582716e+00 4.270714e+00 3.930218e+00 5.097443e+00 4.517528e+00 3.679793e+00 3.853884e+00 3.350548e+00 2.558769e+00 2.775385e-01 2.923044e-01 4.376639e-01 4.589247e-01 6.106451e-01 6.168700e-01 7.082081e-01 6.484842e-01 6.831776e-01 6.076134e-01 6.611549e-01 5.043082e-01 2.464613e-01
<GCONST> 1.288938e+02
<TRANSP> 5
 0.000000e+00 1.000000e+00 0.000000e+00 0.000000e+00 0.000000e+00
 0.000000e+00 2.830733e-01 7.169267e-01 0.000000e+00 0.000000e+00
 0.000000e+00 0.000000e+00 1.031735e-01 8.968264e-01 0.000000e+00
 0.000000e+00 0.000000e+00 0.000000e+00 3.819044e-01 6.180956e-01
 0.000000e+00 0.000000e+00 0.000000e+00 0.000000e+00 0.000000e+00
<ENDHMM>
~h "s"
<BEGINHMM>
<NUMSTATES> 5
<STATE> 2
<MEAN> 39
 -7.150747e+00 5.107321e+00 2.028775e+00 -1.017022e+00 2.048144e+00 -7.760536e+00 -1.786655e+00 -4.371108e-01 -1.484274e+00 -1.784688e+00 -1.565276e+00 -3.445224e+00 6.294265e+01 -3.538675e+00 2.488235e+00 -8.659351e-01 -6.820829e-01 2.042311e+00 -1.052375e+00 1.445454e+00 -3.018275e-01 5.809402e-01 -1.092399e+00 2.652014e-01 4.830760e-01 1.539302e-02 2.427553e-02 -3.935103e-01 -6.027117e-02 -1.894109e-01 -5.343643e-01 2.312558e-01 -5.327539e-01 1.241533e-01 -1.946194e-01 -6.494390e-03 1.211606e-01 -2.930731e-01 1.457077e-01
<VARIANCE> 39
 3.736544e+01 3.312159e+01 4.166668e+01 2.582753e+01 4.344036e+01 5.677265e+01 5.149637e+01 4.938668e+01 4.662829e+01 3.418335e+01 3.222634e+01 2.980151e+01 2.061508e+01 1.619228e+00 2.418743e+00 3.045506e+00 2.659489e+00 3.463498e+00 3.536717e+00 4.587092e+00 4.112088e+00 3.610586e+00 3.393595e+00 2.706336e+00 2.713314e+00 9.776936e-01 7.417570e-01 5.138732e-01 3.848165e-01 4.775005e-01 5.848764e-01 5.883428e-01 6.957059e-01 6.333981e-01 5.656206e-01 5.910265e-01 4.691907e-01 4.906209e-01 1.084423e-01
<GCONST> 1.227438e+02
<STATE> 3
<MEAN> 39
 -1.628667e+01 8.544574e+00 1.213963e-01 -2.659034e+00 3.583851e+00 -8.886291e+00 -1.938500e+00 -1.899685e-01 -9.672825e-01 -4.892087e+00 -4.794714e-01 -2.817472e+00 6.311388e+01 9.082031e-02 -4.597014e-01 1.187709e-01 8.560298e-02 -1.977266e-01 8.288582e-02 -2.105670e-01 1.043487e-01 1.813113e-02 -3.901672e-02 -4.612652e-02 2.152207e-02 -2.204580e-01 9.913316e-01 -5.422689e-01 2.575475e-01 1.537213e-01 -4.346618e-01 1.020570e-01 -2.894910e-01 -5.088092e-02 -7.403681e-02 2.566275e-01 -5.002277e-02 -9.495632e-02 -2.077986e-02
<VARIANCE> 39
 1.357904e+01 2.783998e+01 2.799996e+01 2.896649e+01 3.407082e+01 3.720006e+01 3.815810e+01 3.315445e+01 3.219357e+01 2.477448e+01 2.513196e+01 2.318918e+01 1.021299e+01 3.049716e+00 1.708432e+00 1.845091e+00 1.489623e+00 1.866162e+00 2.200433e+00 2.292850e+00 2.216625e+00 2.152501e+00 2.010327e+00 1.794576e+00 1.691811e+00 5.593890e-01 4.113869e-01 3.972979e-01 3.621732e-01 3.640277e-01 4.521487e-01 5.144188e-01 5.659887e-01 5.474885e-01 5.083823e-01 4.935022e-01 3.980512e-01 3.902080e-01 1.196317e-01
<GCONST> 1.098300e+02
<STATE> 4
<MEAN> 39
 -7.091219e+00 3.609075e+00 7.550516e-01 -1.276809e+00 8.704138e-01 -7.614391e+00 -3.852709e+00 -5.142804e-01 -8.988615e-01 -2.519401e+00 -2.006789e+00 -3.555656e+00 6.108533e+01 3.282063e+00 -1.839544e+00 3.580611e-01 -1.402342e-02 -1.960273e+00 5.217875e-01 -1.489007e+00 -3.709181e-01 -2.977786e-01 9.129155e-01 1.915126e-02 -7.098770e-01 5.236673e-01 -6.504440e-02 -6.631576e-02 6.429487e-02 -2.062416e-01 -2.286672e-01 2.394225e-01 -1.050943e-01 6.722979e-03 -1.349447e-01 -7.465996e-03 2.517597e-01 -1.729286e-01 2.726718e-01
<VARIANCE> 39
 3.315258e+01 2.827247e+01 3.642097e+01 2.474270e+01 3.746189e+01 4.644303e+01 4.578168e+01 3.154257e+01 3.519046e+01 2.989067e+01 2.562538e+01 2.398545e+01 3.271129e+01 2.763314e+00 3.673127e+00 4.418715e+00 2.971151e+00 3.740235e+00 3.833852e+00 4.386032e+00 4.480502e+00 4.405125e+00 3.390327e+00 2.966041e+00 2.918618e+00 2.410537e+00 5.910570e-01 3.775196e-01 3.470023e-01 3.341195e-01 4.642719e-01 4.934542e-01 6.326171e-01 6.046979e-01 5.469804e-01 4.834951e-01 4.215463e-01 4.188669e-01 2.110392e-01
<GCONST> 1.224941e+02
<TRANSP> 5
 0.000000e+00 1.000000e+00 0.000000e+00 0.000000e+00 0.000000e+00
 0.000000e+00 6.381663e-01 3.618337e-01 0.000000e+00 0.000000e+00
 0.000000e+00 0.000000e+00 7.969263e-01 2.030738e-01 0.000000e+00
 0.000000e+00 0.000000e+00 0.000000e+00 5.654702e-01 4.345299e-01
 0.000000e+00 0.000000e+00 0.000000e+00 0.000000e+00 0.000000e+00
<ENDHMM>
~h "t"
<BEGINHMM>
<NUMSTATES> 5
<STATE> 2
<MEAN> 39
 4.806053e-01 3.198556e+00 -2.581876e+00 2.959095e+00 -5.529342e+00 2.747296e-01 -5.578506e+00 8.704035e-01 -3.593811e+00 1.269034e-01 -1.957662e+00 -4.122030e+00 5.285085e+01 -2.852519e-01 2.930501e-01 -4.090970e-01 1.580350e-01 1.848367e-01 2.003880e-01 4.090345e-01 2.284320e-02 1.648190e-01 -2.120354e-01 -3.955296e-02 4.002047e-01 -5.585663e-01 -2.212815e-01 -2.655729e-01 2.508273e-01 -3.763161e-01 2.161241e-01 -4.161879e-01 -5.940160e-02 -9.679216e-02 1.999718e-01 -2.669135e-02 1.011223e-01 -7.073852e-02 5.783365e-01
<VARIANCE> 39
 8.783912e+00 1.643332e+01 3.028326e+01 1.906849e+01 2.641953e+01 3.266735e+01 2.850873e+01 3.074355e+01 3.432863e+01 2.476011e+01 2.921025e+01 2.823373e+01 1.402456e+01 5.646635e-01 6.740238e-01 1.224596e+00 1.279525e+00 1.757378e+00 2.112328e+00 2.152031e+00 2.155151e+00 2.084403e+00 2.100023e+00 1.702189e+00 1.677590e+00 7.614498e-01 1.498296e-01 2.010524e-01 2.782807e-01 3.659565e-01 3.944720e-01 5.300865e-01 4.575894e-01 4.816472e-01 5.169648e-01 4.543309e-01 3.867508e-01 3.790210e-01 2.924172e-01
<GCONST> 1.037652e+02
<STATE> 3
<MEAN> 39
 -7.284303e-01 3.319050e+00 -1.905475e+00 2.237076e+00 -3.800155e+00 -1.376526e+00 -4.933719e+00 -2.732207e-01 -3.755586e+00 -4.616885e-01 -1.870340e+00 -3.305881e+00 5.374191e+01 -1.497993e+00 -9.281915e-01 5.092245e-01 -1.565094e+00 1.501086e+00 -1.884074e+00 3.177226e-01 -6.012568e-01 1.357871e+00 -4.523419e-01 2.208166e-01 3.240326e-02 1.970692e+00 1.744864e-01 -5.350272e-01 4.269840e-01 -6.516097e-01 -1.959972e-01 -2.997554e-01 -6.848948e-01 -1.050742e-01 1.568085e-01 1.951633e-01 2.085226e-01 -5.348632e-01 1.055682e+00
<VARIANCE> 39
 1.256584e+01 1.743130e+01 2.848256e+01 2.300864e+01 3.140488e+01 4.317865e+01 3.308828e+01 3.363913e+01 3.729004e+01 2.546038e+01 2.798872e+01 2.597400e+01 1.701581e+01 1.655991e+00 2.233958e+00 3.273219e+00 3.118279e+00 3.752806e+00 4.281353e+00 4.396757e+00 4.103071e+00 4.545403e+00 3.650763e+00 3.219470e+00 2.932228e+00 1.902187e+00 2.685304e-01 3.310947e-01 5.494474e-01 4.615489e-01 6.078238e-01 7.583374e-01 6.599289e-01 8.618000e-01 8.582970e-01 6.319258e-01 5.677248e-01 5.237599e-01 2.638236e-01
<GCONST> 1.207672e+02
<STATE> 4
<MEAN> 39
 -5.360474e+00 2.753799e-01 2.047438e-01 -2.620181e+00 3.038454e-01 -7.202679e+00 -4.413506e+00 -2.691403e+00 4.465545e-01 -1.578587e+00 -1.006610e+00 -4.174461e+00 6.084606e+01 4.677297e-01 -1.411629e+00 8.457336e-01 -2.005085e+00 -3.374809e-01 -7.422971e-01 -1.873370e+00 -4.138483e-01 6.626360e-01 4.136193e-01 7.003626e-01 -1.346822e+00 2.828955e+00 8.205979e-01 -8.790343e-02 4.530815e-02 7.530440e-02 -8.282578e-01 8.200114e-01 -6.253035e-01 2.257635e-01 -5.639820e-01 3.093585e-01 1.685757e-01 -3.011068e-01 -9.468009e-02
<VARIANCE> 39
 2.247040e+01 2.370090e+01 2.917129e+01 2.891616e+01 3.091612e+01 5.045768e+01 5.091619e+01 3.921942e+01 4.162486e+01 3.416193e+01 2.651716e+01 2.856482e+01 1.966430e+01 2.826311e+00 3.542225e+00 5.501822e+00 4.351722e+00 4.495580e+00 5.716485e+00 5.866799e+00 6.387863e+00 6.705065e+00 4.260111e+00 4.489825e+00 4.075994e+00 3.208035e+00 4.084143e-01 4.790061e-01 5.583237e-01 5.963102e-01 7.011710e-01 1.030722e+00 9.819511e-01 9.251162e-01 8.465552e-01 7.980878e-01 6.978585e-01 6.246623e-01 3.994428e-01
<GCONST> 1.309949e+02
<TRANSP> 5
 0.000000e+00 1.000000e+00 0.000000e+00 0.000000e+00 0.000000e+00
 0.000000e+00 6.888252e-01 3.111748e-01 0.000000e+00 0.000000e+00
 0.000000e+00 0.000000e+00 3.482079e-01 6.517922e-01 0.000000e+00
 0.000000e+00 0.000000e+00 0.000000e+00 4.481063e-01 5.518937e-01
 0.000000e+00 0.000000e+00 0.000000e+00 0.000000e+00 0.000000e+00
<ENDHMM>
~h "u"
<BEGINHMM>
<NUMSTATES> 5
<STATE> 2
<MEAN> 39
 4.019580e+00 5.525386e-01 2.310779e+00 -7.533203e+00 -8.650874e+00 8.448252e-01 -1.686632e+01 -6.922289e+00 -6.391928e+00 1.817996e+00 5.234037e+00 -7.102082e+00 6.427431e+01 7.100032e-01 -2.494364e-01 3.646221e-01 -7.701545e-01 -8.595933e-01 1.063754e+00 -1.316082e+00 -6.602706e-01 -5.399566e-01 5.664519e-01 1.157674e+00 -3.861286e-01 5.661848e-01 -3.180306e-01 1.711864e-01 -1.292370e-01 6.486104e-01 3.345325e-01 4.442120e-02 9.189761e-01 3.713179e-01 6.745093e-02 -2.878027e-01 -5.544925e-01 2.546599e-01 -5.490398e-01
<VARIANCE> 39
 1.177020e+01 2.846699e+01 3.708302e+01 6.967055e+01 6.304430e+01 6.368417e+01 7.842731e+01 5.976249e+01 6.538556e+01 5.425325e+01 5.958770e+01 4.626217e+01 1.605354e+01 2.120990e+00 2.574642e+00 3.192791e+00 5.813243e+00 4.942982e+00 5.852232e+00 6.055245e+00 5.132906e+00 5.926759e+00 4.680624e+00 4.663611e+00 3.757057e+00 1.691521e+00 2.749163e-01 4.485441e-01 4.319973e-01 9.204355e-01 8.426802e-01 9.783042e-01 1.097905e+00 1.045575e+00 1.001425e+00 8.675847e-01 8.992810e-01 7.763737e-01 2.959103e-01
<GCONST> 1.343144e+02
<STATE> 3
<MEAN> 39
 4.492217e+00 4.920774e-01 2.688697e+00 -8.128554e+00 -1.032892e+01 4.074317e+00 -1.694434e+01 -7.274521e+00 -7.498519e+00 9.514043e-01 7.274507e+00 -7.439867e+00 6.398140e+01 1.143789e-03 4.302368e-01 -1.532475e-01 6.981176e-01 3.383880e-01 1.670997e-01 9.946309e-01 3.654086e-01 -1.422792e-01 -2.740141e-01 -8.386413e-01 4.296302e-01 -7.063531e-01 -2.178108e-01 1.376088e-01 -7.412977e-02 4.802721e-01 3.046817e-01 -3.164285e-01 5.179635e-01 2.238331e-01 2.155577e-01 -1.567786e-01 -5.399621e-01 1.074675e-01 -2.937974e-01
<VARIANCE> 39
 8.706268e+00 2.771153e+01 3.686205e+01 7.475315e+01 5.249997e+01 6.283827e+01 6.162074e+01 5.919038e+01 6.079454e+01 5.641171e+01 6.146586e+01 4.812551e+01 1.349335e+01 7.131791e-01 1.945416e+00 1.739499e+00 4.149696e+00 2.822671e+00 3.417661e+00 3.437015e+00 3.198045e+00 3.846720e+00 3.117618e+00 3.179554e+00 2.908318e+00 1.449556e+00 1.932155e-01 3.088191e-01 3.431888e-01 5.844830e-01 5.556350e-01 6.777396e-01 7.262518e-01 7.068830e-01 7.292572e-01 6.733594e-01 6.550257e-01 6.010230e-01 1.552674e-01
<GCONST> 1.225952e+02
<STATE> 4
<MEAN> 39
 2.865562e+00 5.098804e+00 -7.128372e-01 -1.748919e+00 -6.621634e+00 2.532798e+00 -8.934276e+00 -3.162323e+00 -6.663360e+00 -7.203832e-01 6.286317e-01 -2.570058e+00 5.591169e+01 -2.523651e-01 1.965933e-01 -1.035827e-01 7.805558e-01 3.111575e-01 -6.292783e-02 6.451462e-01 2.392182e-01 2.078514e-01 -1.144926e-01 -4.920096e-01 1.695285e-01 -5.659980e-01 -6.605962e-02 -7.822263e-02 2.771990e-02 -6.107519e-02 1.262037e-02 -2.234100e-02 -5.212165e-02 -1.322499e-02 2.801129e-02 1.753872e-02 5.913612e-02 -6.393964e-02 8.730452e-02
<VARIANCE> 39
 1.804276e+01 2.720617e+01 2.385440e+01 6.717393e+01 4.334803e+01 4.197277e+01 4.908476e+01 4.227832e+01 3.877177e+01 3.732506e+01 3.903409e+01 3.368898e+01 3.643216e+01 5.971076e-01 1.152350e+00 1.216272e+00 2.068978e+00 2.024053e+00 2.322538e+00 2.467936e+00 2.419459e+00 2.319483e+00 2.324063e+00 2.372447e+00 2.040664e+00 7.900333e-01 1.021700e-01 1.747099e-01 1.882242e-01 3.304753e-01 3.403491e-01 3.935362e-01 4.104121e-01 4.116172e-01 4.097416e-01 4.195031e-01 3.780802e-01 3.505175e-01 9.323005e-02
<GCONST> 1.086147e+02
<TRANSP> 5
 0.000000e+00 1.000000e+00 0.000000e+00 0.000000e+00 0.000000e+00
 0.000000e+00 4.189798e-01 5.810202e-01 0.000000e+00 0.000000e+00
 0.000000e+00 0.000000e+00 5.260246e-01 4.739754e-01 0.000000e+00
 0.000000e+00 0.000000e+00 0.000000e+00 7.744725e-01 2.255275e-01
 0.000000e+00 0.000000e+00 0.000000e+00 0.000000e+00 0.000000e+00
<ENDHMM>
~h "v"
<BEGINHMM>
<NUMSTATES> 5
<STATE> 2
<MEAN> 39
 7.903662e-04 -6.079456e-01 1.670089e+00 -6.705837e-01 -5.929818e+00 -8.820225e-01 -6.906881e+00 5.931143e-01 -4.574426e+00 -3.940755e-01 -3.854154e-01 -5.847453e+00 5.993814e+01 5.024984e-04 -6.478592e-05 9.522401e-04 -6.048587e-04 -1.305029e-03 -9.148303e-04 -9.999124e-04 -6.995694e-04 3.150678e-04 8.832195e-04 -1.229102e-04 -1.829845e-05 4.304752e-04 -1.024714e-04 5.090495e-05 -4.314321e-05 5.499199e-04 2.475645e-04 2.544455e-04 -3.161734e-04 -1.009587e-04 -7.179174e-05 -5.594532e-04 -1.336834e-04 -6.698545e-06 -3.952787e-04
<VARIANCE> 39
 2.681136e+01 5.325134e+01 6.824250e+01 5.887592e+01 6.062508e+01 6.608533e+01 5.928268e+01 6.068991e+01 5.916120e+01 4.597362e+01 4.705821e+01 4.804106e+01 6.619385e+01 1.372020e+00 2.288023e+00 2.566274e+00 2.987463e+00 3.078158e+00 3.116328e+00 3.250192e+00 3.738113e+00 3.266875e+00 2.829993e+00 2.967949e+00 2.476121e+00 2.021681e+00 2.264445e-01 3.584008e-01 4.122588e-01 5.086471e-01 5.519696e-01 5.562619e-01 5.942494e-01 6.847889e-01 5.904057e-01 5.307208e-01 5.528100e-01 4.553457e-01 3.018115e-01
<GCONST> 1.265182e+02
<STATE> 3
<MEAN> 39
 7.903662e-04 -6.079456e-01 1.670089e+00 -6.705837e-01 -5.929818e+00 -8.820225e-01 -6.906881e+00 5.931143e-01 -4.574426e+00 -3.940755e-01 -3.854154e-01 -5.847453e+00 5.993814e+01 5.024984e-04 -6.478592e-05 9.522401e-04 -6.048587e-04 -1.305029e-03 -9.148303e-04 -9.999124e-04 -6.995694e-04 3.150678e-04 8.832195e-04 -1.229102e-04 -1.829845e-05 4.304752e-04 -1.024714e-04 5.090495e-05 -4.314321e-05 5.499199e-04 2.475645e-04 2.544455e-04 -3.161734e-04 -1.009587e-04 -7.179174e-05 -5.594532e-04 -1.336834e-04 -6.698545e-06 -3.952787e-04
<VARIANCE> 39
 2.681136e+01 5.325134e+01 6.824250e+01 5.887592e+01 6.062508e+01 6.608533e+01 5.928268e+01 6.068991e+01 5.916120e+01 4.597362e+01 4.705821e+01 4.804106e+01 6.619385e+01 1.372020e+00 2.288023e+00 2.566274e+00 2.987463e+00 3.078158e+00 3.116328e+00 3.250192e+00 3.738113e+00 3.266875e+00 2.829993e+00 2.967949e+00 2.476121e+00 2.021681e+00 2.264445e-01 3.584008e-01 4.122588e-01 5.086471e-01 5.519696e-01 5.562619e-01 5.942494e-01 6.847889e-01 5.904057e-01 5.307208e-01 5.528100e-01 4.553457e-01 3.018115e-01
<GCONST> 1.265182e+02
<STATE> 4
<MEAN> 39
 7.903662e-04 -6.079456e-01 1.670089e+00 -6.705837e-01 -5.929818e+00 -8.820225e-01 -6.906881e+00 5.931143e-01 -4.574426e+00 -3.940755e-01 -3.854154e-01 -5.847453e+00 5.993814e+01 5.024984e-04 -6.478592e-05 9.522401e-04 -6.048587e-04 -1.305029e-03 -9.148303e-04 -9.999124e-04 -6.995694e-04 3.150678e-04 8.832195e-04 -1.229102e-04 -1.829845e-05 4.304752e-04 -1.024714e-04 5.090495e-05 -4.314321e-05 5.499199e-04 2.475645e-04 2.544455e-04 -3.161734e-04 -1.009587e-04 -7.179174e-05 -5.594532e-04 -1.336834e-04 -6.698545e-06 -3.952787e-04
<VARIANCE> 39
 2.681136e+01 5.325134e+01 6.824250e+01 5.887592e+01 6.062508e+01 6.608533e+01 5.928268e+01 6.068991e+01 5.916120e+01 4.597362e+01 4.705821e+01 4.804106e+01 6.619385e+01 1.372020e+00 2.288023e+00 2.566274e+00 2.987463e+00 3.078158e+00 3.116328e+00 3.250192e+00 3.738113e+00 3.266875e+00 2.829993e+00 2.967949e+00 2.476121e+00 2.021681e+00 2.264445e-01 3.584008e-01 4.122588e-01 5.086471e-01 5.519696e-01 5.562619e-01 5.942494e-01 6.847889e-01 5.904057e-01 5.307208e-01 5.528100e-01 4.553457e-01 3.018115e-01
<GCONST> 1.265182e+02
<TRANSP> 5
 0.000000e+00 1.000000e+00 0.000000e+00 0.000000e+00 0.000000e+00
 0.000000e+00 6.000000e-01 4.000000e-01 0.000000e+00 0.000000e+00
 0.000000e+00 0.000000e+00 6.000000e-01 4.000000e-01 0.000000e+00
 0.000000e+00 0.000000e+00 0.000000e+00 7.000000e-01 3.000000e-01
 0.000000e+00 0.000000e+00 0.000000e+00 0.000000e+00 0.000000e+00
<ENDHMM>
~h "w"
<BEGINHMM>
<NUMSTATES> 5
<STATE> 2
<MEAN> 39
 -1.870157e+00 3.102641e+00 -2.807831e+00 4.696335e+00 -3.603930e+00 3.590718e+00 -3.254714e+00 1.450797e+00 -2.905875e+00 -1.189226e+00 -1.682285e+00 -1.280654e+00 5.074960e+01 2.180985e-02 1.063617e-01 -3.574876e-02 -1.637598e-02 -4.192595e-02 4.358864e-02 2.880847e-02 2.458141e-02 -9.695321e-02 2.718929e-02 1.144471e-01 1.019118e-01 -9.916963e-02 2.840982e-02 -1.593102e-02 1.596935e-02 -5.756555e-02 -3.058015e-02 -1.556034e-02 -2.620428e-02 -1.410292e-02 -5.389152e-03 1.867022e-02 1.854908e-02 -2.822923e-02 5.139102e-02
<VARIANCE> 39
 9.736692e+00 3.254017e+01 1.559244e+01 2.690639e+01 1.749082e+01 1.865231e+01 2.311785e+01 2.718755e+01 1.904659e+01 2.389785e+01 2.518058e+01 2.110028e+01 2.980650e+01 2.582017e-01 5.855446e-01 8.124111e-01 9.012560e-01 1.012193e+00 1.205629e+00 1.470704e+00 1.533683e+00 1.769935e+00 1.671579e+00 1.459826e+00 1.387950e+00 2.224852e-01 4.996528e-02 1.128743e-01 1.345565e-01 1.974085e-01 2.035103e-01 2.471448e-01 2.949209e-01 3.070018e-01 3.512210e-01 3.252348e-01 2.799116e-01 2.683463e-01 4.301764e-02
<GCONST> 8.849371e+01
<STATE> 3
<MEAN> 39
 4.746896e+00 1.987623e+00 -2.711978e+00 -6.088039e+00 -9.427575e+00 5.041273e+00 -7.048159e+00 -2.305368e+00 -8.203423e+00 5.971888e-01 4.079363e+00 -4.082635e+00 5.871465e+01 7.976062e-01 -8.762081e-01 -1.718594e-01 -2.510120e+00 -3.935625e-01 8.952665e-01 -9.103746e-01 -2.164226e-01 -1.068979e-01 6.437590e-01 1.253961e+00 -8.477063e-01 1.777235e+00 -1.839642e-01 -4.492810e-01 -5.109769e-02 -7.362282e-02 2.486497e-01 7.706396e-02 -2.318565e-02 1.711943e-01 3.758330e-01 1.661654e-01 -3.371383e-02 -3.795592e-01 2.699326e-01
<VARIANCE> 39
 1.990084e+01 3.509387e+01 2.381569e+01 9.306349e+01 5.675877e+01 4.417883e+01 5.056062e+01 2.869302e+01 3.395441e+01 3.938312e+01 4.592081e+01 3.909406e+01 4.433409e+01 1.593811e+00 3.399991e+00 1.642026e+00 4.748591e+00 3.088920e+00 3.186116e+00 3.773003e+00 2.962999e+00 3.695446e+00 3.040443e+00 3.659687e+00 4.303024e+00 2.456849e+00 3.241744e-01 3.420072e-01 2.763157e-01 1.199794e+00 4.900582e-01 6.163561e-01 5.792420e-01 4.965559e-01 5.907245e-01 5.200572e-01 7.764127e-01 6.102272e-01 3.141344e-01
<GCONST> 1.252067e+02
<STATE> 4
<MEAN> 39
 5.134181e+00 -4.079193e+00 -3.801201e+00 -1.645628e+01 -7.446892e+00 1.121922e+01 -1.285159e+01 -2.142571e+00 -3.030746e+00 4.374035e+00 7.348499e+00 -1.044331e+01 6.635507e+01 -2.580871e-01 -7.484320e-01 -1.548840e-01 -4.577719e-02 5.243692e-01 -8.040188e-02 1.653419e-01 2.085634e-01 5.630532e-01 -3.566515e-02 -3.605438e-01 -7.832534e-01 5.056286e-01 -7.785041e-02 8.135253e-02 5.749470e-02 3.160597e-01 1.189562e-01 -2.584065e-01 1.318700e-01 1.811044e-02 9.329872e-03 -1.661282e-01 -2.303107e-01 5.132601e-02 -1.188599e-01
<VARIANCE> 39
 6.446350e+00 3.146506e+01 1.588576e+01 5.066333e+01 7.554472e+01 6.123952e+01 3.460900e+01 3.149736e+01 3.887867e+01 6.644960e+01 5.724778e+01 5.940278e+01 1.851969e+01 5.024390e-01 2.251057e+00 6.800661e-01 1.704668e+00 1.906318e+00 1.815703e+00 1.586749e+00 2.106569e+00 2.393474e+00 2.181112e+00 2.288007e+00 4.094018e+00 1.299520e+00 6.372881e-02 2.741899e-01 1.313310e-01 3.550080e-01 2.699822e-01 3.198429e-01 2.582659e-01 3.176282e-01 3.290670e-01 3.623756e-01 4.550103e-01 6.200611e-01 1.791780e-01
<GCONST> 1.077183e+02
<TRANSP> 5
 0.000000e+00 1.000000e+00 0.000000e+00 0.000000e+00 0.000000e+00
 0.000000e+00 8.956529e-01 1.043470e-01 0.000000e+00 0.000000e+00
 0.000000e+00 0.000000e+00 7.282781e-01 2.717219e-01 0.000000e+00
 0.000000e+00 0.000000e+00 0.000000e+00 8.218860e-01 1.781140e-01
 0.000000e+00 0.000000e+00 0.000000e+00 0.000000e+00 0.000000e+00
<ENDHMM>
~h "y"
<BEGINHMM>
<NUMSTATES> 5
<STATE> 2
<MEAN> 39
 -2.742374e+00 -2.008210e+00 1.799589e+01 -5.745604e+00 -1.594063e+01 -7.641172e+00 -1.213047e+01 2.164535e+00 -9.358059e+00 -3.097460e+00 6.664524e+00 -6.094889e+00 6.722769e+01 -5.323706e-02 -7.682484e-01 4.762263e-01 -4.342052e-01 -9.211531e-01 -8.346957e-01 -1.182454e-01 9.795805e-01 5.778483e-02 2.003002e-01 7.695345e-01 2.314535e-01 7.309713e-01 1.414877e-01 -1.970329e-01 -6.843840e-01 9.848505e-02 3.502606e-01 8.610196e-02 2.136859e-01 2.168925e-01 3.570426e-01 9.582128e-02 -3.787965e-01 -1.663264e-01 -3.703689e-02
<VARIANCE> 39
 8.640538e+00 4.493281e+01 5.056133e+01 3.316614e+01 4.421688e+01 4.772268e+01 5.438602e+01 6.373355e+01 5.804091e+01 6.960299e+01 4.738755e+01 3.713710e+01 2.070845e+01 6.578639e-01 2.158469e+00 4.581403e+00 1.784227e+00 2.346823e+00 2.965406e+00 3.068125e+00 4.806971e+00 2.963939e+00 2.649371e+00 2.475667e+00 2.331611e+00 1.233643e+00 7.595959e-02 1.953318e-01 5.034204e-01 2.864651e-01 4.969980e-01 5.068592e-01 4.382111e-01 6.461026e-01 4.809984e-01 4.329353e-01 4.703641e-01 3.721178e-01 1.019799e-01
<GCONST> 1.164006e+02
<STATE> 3
<MEAN> 39
 -1.387426e+00 -9.108034e+00 1.136922e+01 -6.787089e+00 -1.636797e+01 -1.084392e+01 -8.501365e+00 1.166142e+01 -3.532915e+00 -2.899620e+00 5.606042e+00 -7.514271e+00 7.075489e+01 3.574283e-01 -8.358533e-01 -1.666078e+00 3.546453e-02 1.163410e+00 4.137610e-01 6.831414e-01 1.096724e+00 9.492518e-01 -2.663670e-01 -1.502863e+00 -8.849673e-01 2.282633e-01 6.480373e-02 2.111667e-01 -1.512852e-01 1.804229e-01 3.790487e-01 3.639870e-01 -1.010795e-01 -5.660296e-01 -1.114712e-01 6.806896e-02 -3.007397e-01 -1.206759e-01 -2.217567e-01
<VARIANCE> 39
 5.065697e+00 1.958242e+01 2.509685e+01 2.300152e+01 3.898244e+01 3.966324e+01 5.326738e+01 5.079402e+01 4.468818e+01 5.946757e+01 4.607722e+01 3.610303e+01 1.208463e+01 2.729042e-01 1.010685e+00 2.263802e+00 1.105780e+00 1.724404e+00 1.705330e+00 1.712723e+00 3.205802e+00 2.562131e+00 1.723087e+00 2.234862e+00 1.656526e+00 4.244621e-01 5.707189e-02 1.484796e-01 3.136463e-01 1.776493e-01 3.141840e-01 3.372523e-01 3.118934e-01 6.152745e-01 3.263293e-01 3.692746e-01 3.927408e-01 3.243691e-01 8.384774e-02
<GCONST> 1.018123e+02
<STATE> 4
<MEAN> 39
 -6.904398e-01 -5.489263e+00 2.545887e+00 -1.923727e+00 -8.007576e+00 -3.594123e+00 -4.801132e+00 6.542288e+00 -1.832038e+00 -3.371949e+00 -2.047436e+00 -7.092308e+00 6.315911e+01 1.745492e-01 2.996850e-02 -6.367325e-01 1.985491e-01 7.302316e-01 5.010716e-01 -3.831461e-04 -3.912784e-01 9.524935e-02 2.473157e-01 -5.644337e-01 -1.886955e-01 -2.899016e-01 1.555083e-03 1.533433e-01 1.074250e-01 4.550788e-02 -5.026513e-02 4.803161e-02 -5.812494e-02 -2.279980e-01 -1.492189e-01 1.321910e-01 1.479930e-01 8.540508e-02 -1.188527e-01
<VARIANCE> 39
 9.246930e+00 5.613253e+01 3.505019e+01 4.828073e+01 3.905159e+01 6.264527e+01 3.694491e+01 5.575167e+01 3.867182e+01 5.139804e+01 3.319049e+01 4.745634e+01 9.054851e+01 3.176545e-01 7.440364e-01 1.770527e+00 1.161254e+00 1.938871e+00 1.722280e+00 1.553229e+00 2.420902e+00 1.872895e+00 1.920165e+00 2.159624e+00 1.641882e+00 4.243492e-01 4.854284e-02 1.972155e-01 2.431029e-01 2.254525e-01 2.437727e-01 3.399709e-01 2.823606e-01 6.409490e-01 3.780116e-01 4.070665e-01 3.277292e-01 2.864841e-01 1.171221e-01
<GCONST> 1.056212e+02
<TRANSP> 5
 0.000000e+00 1.000000e+00 0.000000e+00 0.000000e+00 0.000000e+00
 0.000000e+00 7.319564e-01 2.680435e-01 0.000000e+00 0.000000e+00
 0.000000e+00 0.000000e+00 6.879252e-01 3.120748e-01 0.000000e+00
 0.000000e+00 0.000000e+00 0.000000e+00 7.057434e-01 2.942566e-01
 0.000000e+00 0.000000e+00 0.000000e+00 0.000000e+00 0.000000e+00
<ENDHMM>
~h "z"
<BEGINHMM>
<NUMSTATES> 5
<STATE> 2
<MEAN> 39
 1.448478e+00 1.085609e+01 9.319908e+00 5.662049e+00 -6.678813e+00 -7.663891e+00 -4.582639e+00 -3.143486e+00 -1.006344e+01 -2.464732e+00 -2.274103e-01 -2.184845e+00 5.653798e+01 2.772716e-01 -6.822352e-02 9.467912e-02 -6.999798e-01 1.588001e-01 9.726998e-01 -9.493006e-01 3.012290e-01 -2.776096e-02 1.155850e-02 3.592619e-01 -5.640222e-01 1.178301e-01 -8.701856e-02 -2.072802e-01 2.538949e-01 -3.935122e-01 -1.570330e-01 3.001517e-01 2.625182e-02 -1.381783e-02 1.212741e-01 1.642650e-01 1.925604e-02 -6.722496e-02 1.288525e-01
<VARIANCE> 39
 9.343073e+00 2.239619e+01 1.946250e+01 2.146734e+01 1.046858e+01 1.699624e+01 6.767659e+01 3.450275e+01 3.212299e+01 2.460113e+01 1.637170e+01 2.206701e+01 1.498901e+01 1.114835e+00 3.148895e+00 3.785420e+00 3.262145e+00 1.248031e+00 1.603310e+00 3.558954e+00 2.609187e+00 2.290426e+00 2.210415e+00 2.110076e+00 1.717910e+00 1.180604e+00 1.394406e-01 4.327000e-01 3.376333e-01 1.847299e-01 3.954079e-01 2.131092e-01 2.663011e-01 2.825968e-01 4.250275e-01 1.930885e-01 5.867195e-01 2.875200e-01 6.203485e-02
<GCONST> 1.033264e+02
<STATE> 3
<MEAN> 39
 -2.381386e-01 1.907730e+00 1.848251e+01 -1.158945e+01 -7.164335e+00 1.771426e+00 -2.008469e+01 -3.490302e+00 -8.158629e+00 7.497183e+00 -6.126307e-01 -6.099073e+00 6.451627e+01 -6.380567e-02 -1.198926e+00 5.696201e-01 -1.521102e+00 -2.750378e-01 1.604475e+00 -5.667281e-01 -4.292934e-01 4.557548e-01 2.066326e-01 2.383486e-01 -3.261247e-02 8.179129e-01 1.752265e-01 5.891011e-02 -6.340192e-01 2.747606e-01 -1.392822e-02 -6.676739e-02 2.506223e-01 3.661131e-01 -1.649112e-02 -4.043271e-02 1.050537e-02 6.500985e-04 -1.416126e-01
<VARIANCE> 39
 2.646493e+00 4.050547e+00 8.260896e+01 6.050969e+01 1.920060e+01 1.000032e+02 2.574364e+01 1.549156e+01 5.025140e+01 9.209756e+00 7.108208e+00 2.233364e+01 4.905679e+00 1.157016e+00 1.780633e+00 3.325326e+00 1.906204e+00 1.973360e+00 2.899229e+00 2.765768e+00 1.575309e+00 3.444021e+00 2.783025e+00 1.998196e+00 2.114250e+00 6.078892e-01 4.966063e-02 3.574484e-01 1.384739e-01 3.012638e-01 3.777196e-01 6.090329e-01 5.054016e-01 3.918289e-01 4.235227e-01 5.814351e-01 1.895772e-01 1.645398e-01 7.448525e-02
<GCONST> 1.001356e+02
<STATE> 4
<MEAN> 39
 -1.100205e+00 5.875330e+00 7.650160e+00 -4.066715e+00 -5.559453e+00 9.394486e+00 -8.786938e+00 -1.598154e+00 -5.384734e+00 -3.265379e+00 -6.331107e+00 -6.169768e+00 5.444015e+01 1.863900e-01 3.144155e-01 -4.822493e-01 6.653373e-01 -1.677793e-02 -1.580578e-01 2.827829e-01 -2.217447e-02 3.917681e-02 -2.601427e-01 9.256645e-03 -4.356432e-02 -3.323936e-01 -8.219505e-03 7.075526e-02 -6.933070e-03 6.267506e-02 1.792810e-02 -8.759859e-02 7.051326e-02 7.566048e-03 1.354260e-02 1.046655e-02 -5.360913e-03 8.269396e-03 -4.565009e-02
<VARIANCE> 39
 4.916578e+00 3.148196e+01 5.963059e+01 9.627383e+01 8.189775e+00 4.639993e+01 6.192130e+01 1.413201e+01 1.801704e+01 2.525718e+01 2.142877e+01 2.471903e+01 5.338149e+01 3.512297e-01 1.168925e+00 1.210128e+00 1.091077e+00 6.111293e-01 1.390915e+00 1.406951e+00 1.282892e+00 1.323591e+00 1.218733e+00 1.937965e+00 1.926672e+00 5.055859e-01 4.968745e-02 1.827836e-01 1.832026e-01 1.575821e-01 9.644218e-02 2.233876e-01 3.991015e-01 2.757614e-01 2.132472e-01 2.303203e-01 3.227260e-01 2.003979e-01 5.255557e-02
<GCONST> 9.239984e+01
<TRANSP> 5
 0.000000e+00 1.000000e+00 0.000000e+00 0.000000e+00 0.000000e+00
 0.000000e+00 8.036482e-01 1.963518e-01 0.000000e+00 0.000000e+00
 0.000000e+00 0.000000e+00 7.416199e-01 2.583801e-01 0.000000e+00
 0.000000e+00 0.000000e+00 0.000000e+00 9.036322e-01 9.636780e-02
 0.000000e+00 0.000000e+00 0.000000e+00 0.000000e+00 0.000000e+00
<ENDHMM>
~h "aw"
<BEGINHMM>
<NUMSTATES> 5
<STATE> 2
<MEAN> 39
 2.944334e+00 -3.561329e+00 -1.397544e-01 -1.202907e+01 -6.861828e+00 2.577755e-01 -1.314597e+01 -3.278406e+00 -9.016165e-01 4.199974e+00 3.568520e+00 -8.633116e+00 6.692804e+01 9.418220e-01 -5.238022e-01 7.372661e-01 -1.426034e+00 -1.613127e+00 1.460216e+00 -1.437633e+00 3.686120e-01 1.554532e-01 5.797266e-01 1.709376e+00 -7.320904e-01 1.285445e+00 -1.365173e-01 3.368247e-01 -9.364601e-03 6.698684e-01 -1.567518e-02 3.175524e-01 5.401459e-01 -8.895444e-02 -1.546340e-01 -2.992330e-01 -3.470353e-01 5.138289e-01 -6.403724e-01
<VARIANCE> 39
 9.902232e+00 3.198873e+01 2.112458e+01 3.780947e+01 5.385234e+01 4.196611e+01 3.454254e+01 2.649868e+01 1.018109e+02 6.760879e+01 1.925765e+01 4.158738e+01 2.793312e+01 2.019461e+00 1.979448e+00 2.116075e+00 3.420713e+00 4.392857e+00 3.879469e+00 6.402118e+00 3.045610e+00 4.980399e+00 3.526357e+00 2.179541e+00 4.113286e+00 2.450988e+00 3.405077e-01 3.746192e-01 4.728521e-01 5.503821e-01 9.329462e-01 8.766341e-01 6.518099e-01 7.054319e-01 8.457835e-01 8.857438e-01 6.692432e-01 5.372671e-01 4.031728e-01
<GCONST> 1.260364e+02
<STATE> 3
<MEAN> 39
 2.684388e+00 -5.464888e+00 1.811751e+00 -1.152050e+01 -9.552684e+00 1.855030e+00 -1.377500e+01 -4.901550e+00 1.390250e+00 3.744568e+00 6.248986e+00 -9.339711e+00 6.912097e+01 4.705487e-01 7.340760e-01 3.081633e-01 1.252689e+00 -3.008246e-01 7.722540e-01 3.088478e-01 -6.573806e-01 -7.350510e-01 -7.340997e-01 -5.526798e-01 1.516781e+00 -8.417990e-01 -7.928156e-02 4.060827e-01 -1.068657e-01 6.877394e-01 4.080132e-01 -1.439085e-01 3.896069e-01 -1.064875e-01 -2.467460e-02 -1.381764e-01 -6.599116e-01 2.760656e-01 -5.936818e-01
<VARIANCE> 39
 9.410803e+00 1.945771e+01 2.212798e+01 3.275458e+01 3.618119e+01 5.210755e+01 7.399522e+01 6.216650e+01 1.118253e+02 4.528888e+01 1.810243e+01 4.891454e+01 2.001396e+01 7.100967e-01 1.376922e+00 1.452056e+00 2.319563e+00 2.675603e+00 3.370522e+00 3.351583e+00 3.621849e+00 2.193083e+00 4.543068e+00 2.385903e+00 2.723559e+00 1.155028e+00 2.258411e-01 2.091178e-01 2.469545e-01 5.082108e-01 4.704686e-01 5.420273e-01 6.258376e-01 6.905706e-01 8.756645e-01 7.402145e-01 5.448415e-01 5.346127e-01 1.381771e-01
<GCONST> 1.169836e+02
<STATE> 4
<MEAN> 39
 4.894457e+00 -2.820020e-01 7.757534e-01 -5.758592e+00 -1.174168e+01 7.716851e+00 -8.450506e+00 -8.223377e+00 -3.633933e+00 3.136068e+00 2.517896e+00 -2.030180e+00 6.162610e+01 -1.404804e-01 6.909300e-01 -2.559198e-01 1.387217e+00 3.922177e-01 -2.472977e-01 4.414120e-01 3.021857e-01 -8.853137e-02 -1.151148e-01 -6.414168e-01 -7.906097e-02 -1.109558e+00 -2.087081e-01 -1.591770e-01 2.099839e-02 -8.963514e-02 1.463206e-01 -4.747248e-01 -2.974065e-03 1.995558e-01 -1.745461e-02 1.274133e-01 1.337543e-01 -2.804734e-01 2.172853e-01
<VARIANCE> 39
 6.568050e+00 2.183045e+01 2.395703e+01 3.291448e+01 3.598064e+01 4.657502e+01 5.049965e+01 4.465648e+01 5.882820e+01 4.398040e+01 2.779117e+01 2.278473e+01 1.944053e+01 3.533893e-01 1.189693e+00 1.956462e+00 2.264922e+00 2.262109e+00 2.985015e+00 1.762805e+00 3.574189e+00 3.529454e+00 2.608922e+00 2.761023e+00 3.243859e+00 1.067078e+00 1.342469e-01 1.712089e-01 3.179481e-01 2.864598e-01 3.629483e-01 5.698360e-01 4.322590e-01 7.252519e-01 6.244282e-01 4.627015e-01 5.179341e-01 6.746538e-01 1.229186e-01
<GCONST> 1.112905e+02
<TRANSP> 5
 0.000000e+00 1.000000e+00 0.000000e+00 0.000000e+00 0.000000e+00
 0.000000e+00 4.467493e-01 5.532507e-01 0.000000e+00 0.000000e+00
 0.000000e+00 0.000000e+00 6.010060e-01 3.989940e-01 0.000000e+00
 0.000000e+00 0.000000e+00 0.000000e+00 7.492449e-01 2.507551e-01
 0.000000e+00 0.000000e+00 0.000000e+00 0.000000e+00 0.000000e+00
<ENDHMM>
~h "ay"
<BEGINHMM>
<NUMSTATES> 5
<STATE> 2
<MEAN> 39
 5.703425e-01 -1.423943e+01 2.292166e+00 -5.659661e+00 -9.810175e+00 -6.959595e+00 -8.739041e+00 9.900215e+00 2.931922e+00 -4.525273e+00 -1.678341e+00 -1.141502e+01 7.212736e+01 -3.389725e-01 -2.304840e-01 1.341766e+00 2.584395e-01 -1.412647e+00 -1.114075e+00 1.956472e-01 1.473588e+00 -6.266838e-01 -6.768556e-01 7.247074e-01 6.384880e-01 1.593169e-01 -8.921804e-03 5.134997e-01 2.112688e-01 8.005272e-02 -6.445754e-02 1.262260e-01 -2.405497e-02 -4.583704e-01 -4.644873e-01 2.278709e-01 3.473332e-01 2.978403e-01 -3.381573e-01
<VARIANCE> 39
 6.859946e+00 1.955259e+01 4.068246e+01 1.907618e+01 4.538035e+01 5.286265e+01 5.194849e+01 5.488424e+01 5.857493e+01 6.054561e+01 4.363456e+01 3.083627e+01 8.199231e+00 4.036962e-01 1.232004e+00 1.945618e+00 1.290383e+00 2.083054e+00 2.215175e+00 1.829058e+00 2.584986e+00 2.082959e+00 2.096026e+00 3.117489e+00 2.007068e+00 4.139867e-01 1.058367e-01 1.873684e-01 3.002043e-01 2.598488e-01 5.081490e-01 4.289387e-01 3.734397e-01 5.464226e-01 4.557741e-01 3.730903e-01 5.121662e-01 3.769989e-01 1.126683e-01
<GCONST> 1.069973e+02
<STATE> 3
<MEAN> 39
 -1.453619e+00 -8.854686e+00 1.471819e+01 -5.459881e+00 -1.994087e+01 -1.021828e+01 -1.268669e+01 1.113722e+01 -5.491827e+00 -5.997713e+00 8.159930e+00 -6.890306e+00 7.006374e+01 5.703809e-02 9.590707e-01 6.253647e-01 3.385495e-01 -5.906587e-02 3.531431e-01 -3.056490e-01 -8.725724e-01 -8.678306e-01 1.010286e-01 1.849649e-01 8.251747e-02 -6.345923e-01 1.723435e-01 9.083874e-02 -5.283546e-01 2.243202e-01 5.882524e-01 2.613961e-01 1.529356e-01 -2.457129e-01 1.701263e-01 1.657083e-01 -5.203425e-01 -2.505945e-01 -2.398121e-01
<VARIANCE> 39
 4.414120e+00 1.783940e+01 3.672103e+01 2.154278e+01 3.620837e+01 3.521441e+01 5.727577e+01 3.606086e+01 5.723287e+01 5.172872e+01 4.178006e+01 2.754756e+01 7.962177e+00 4.474413e-01 1.144512e+00 2.599735e+00 1.315630e+00 2.272410e+00 1.357481e+00 2.030177e+00 2.380433e+00 2.367203e+00 1.787365e+00 2.927712e+00 2.019186e+00 6.904472e-01 6.618420e-02 1.813932e-01 2.297686e-01 1.989585e-01 2.538188e-01 3.100637e-01 3.685645e-01 6.049857e-01 3.652535e-01 3.498565e-01 4.025731e-01 3.166290e-01 1.021141e-01
<GCONST> 1.027786e+02
<STATE> 4
<MEAN> 39
 8.669677e-01 -4.164557e+00 9.033769e+00 -3.383614e-01 -1.243221e+01 -6.022671e+00 -9.352022e+00 6.393652e+00 -5.248421e+00 -3.875307e+00 2.514998e+00 -7.164371e+00 6.396460e+01 5.720142e-01 8.533357e-01 -1.407821e+00 1.065294e+00 1.315872e+00 1.306590e+00 8.881477e-01 -9.694946e-01 -3.951960e-01 6.899270e-01 -9.963624e-01 -1.348564e-01 -1.453284e+00 -1.119854e-01 -7.347332e-02 -6.721053e-02 -1.513753e-01 -1.017298e-01 4.379819e-02 1.005338e-01 -1.863654e-01 -7.576405e-02 6.283818e-03 6.896593e-02 1.797631e-01 9.161986e-02
<VARIANCE> 39
 8.457196e+00 1.747534e+01 3.413554e+01 3.418150e+01 4.200258e+01 4.220647e+01 6.603804e+01 3.792475e+01 5.149760e+01 3.976034e+01 3.675678e+01 4.471185e+01 2.025641e+01 5.681818e-01 1.442354e+00 1.877021e+00 1.700698e+00 2.511045e+00 2.697542e+00 2.948222e+00 4.101200e+00 3.206571e+00 2.664056e+00 2.866389e+00 2.524970e+00 8.812057e-01 1.102668e-01 2.287906e-01 3.021911e-01 3.604213e-01 4.419540e-01 5.045797e-01 5.574397e-01 5.577296e-01 5.273296e-01 4.570411e-01 3.566422e-01 4.834512e-01 1.501998e-01
<GCONST> 1.128013e+02
<TRANSP> 5
 0.000000e+00 1.000000e+00 0.000000e+00 0.000000e+00 0.000000e+00
 0.000000e+00 7.548369e-01 2.451631e-01 0.000000e+00 0.000000e+00
 0.000000e+00 0.000000e+00 7.610300e-01 2.389701e-01 0.000000e+00
 0.000000e+00 0.000000e+00 0.000000e+00 6.641650e-01 3.358350e-01
