~o
<STREAMINFO> 1 39
<VECSIZE> 39<NULLD><MFCC_D_A_0><DIAGC>
~s "silst"
<MEAN> 39
 -4.048835e+00 1.318744e+00 -1.250305e+00 4.076378e+00 -1.498009e+00 9.847621e-01 -2.547590e+00 1.650744e+00 -2.810134e+00 -1.753503e+00 -2.456132e+00 -3.331423e-01 5.185577e+01 -2.482645e-02 -1.383673e-01 8.864178e-02 -5.179081e-02 5.902005e-02 -4.690557e-02 -8.086272e-03 -8.783183e-02 -2.605629e-02 5.598729e-02 -4.787585e-02 -6.411485e-02 1.293130e-01 3.087523e-02 -2.463480e-02 3.231787e-02 -5.214272e-02 -1.223096e-02 -3.346889e-02 -2.176663e-02 -3.423999e-02 -4.717231e-02 6.992958e-03 4.297776e-03 -4.052680e-02 8.533861e-02
<VARIANCE> 39
 1.195125e+01 2.521828e+01 1.909533e+01 1.750811e+01 2.623999e+01 3.146310e+01 3.344262e+01 3.366122e+01 2.949661e+01 3.037660e+01 2.481494e+01 2.378146e+01 1.347519e+01 4.740255e-01 9.752364e-01 1.143420e+00 1.326820e+00 1.735826e+00 1.870183e+00 1.987979e+00 2.150670e+00 2.078486e+00 1.998896e+00 1.926969e+00 1.718506e+00 3.712363e-01 9.497672e-02 1.926942e-01 2.361441e-01 2.803690e-01 3.473375e-01 3.778433e-01 3.944059e-01 4.261680e-01 4.169846e-01 3.927450e-01 3.873266e-01 3.433742e-01 1.000343e-01
<GCONST> 9.996683e+01
~h "@"
<BEGINHMM>
<NUMSTATES> 5
<STATE> 2
<MEAN> 39
 1.089771e+00 -4.497847e+00 2.154749e+00 -2.826226e+00 -6.744624e+00 -5.615312e+00 -1.026030e+01 4.904729e-01 -1.788575e+00 1.469366e+00 1.021098e+00 -8.583864e+00 6.557333e+01 8.917382e-01 -1.076141e+00 3.139290e-01 -5.452796e-01 -1.043856e+00 -1.345339e-01 -8.008474e-01 7.075474e-01 2.995239e-01 2.460585e-01 4.579059e-01 -8.067725e-01 1.099477e+00 -1.195316e-01 5.685815e-01 -4.595320e-03 4.997854e-01 1.881390e-01 4.762769e-01 4.036934e-01 -2.087520e-01 -2.899083e-01 -1.836210e-01 -3.032136e-01 3.264325e-01 -6.641887e-01
<VARIANCE> 39
 2.260844e+01 4.454721e+01 5.055036e+01 4.839980e+01 6.770941e+01 7.514663e+01 7.282581e+01 7.706461e+01 6.758735e+01 5.333564e+01 4.924397e+01 5.135234e+01 2.952468e+01 2.754044e+00 2.872750e+00 3.253936e+00 3.814759e+00 4.221470e+00 5.165131e+00 4.711392e+00 7.189917e+00 5.882647e+00 4.423519e+00 4.519145e+00 3.782530e+00 2.784968e+00 3.613926e-01 4.599768e-01 5.470491e-01 6.988487e-01 8.108515e-01 7.601763e-01 9.526261e-01 9.792355e-01 8.440299e-01 7.726137e-01 7.402778e-01 6.262575e-01 4.613210e-01
<GCONST> 1.360072e+02
<STATE> 3
<MEAN> 39
 1.783289e+00 -5.686485e+00 2.480088e+00 -3.182266e+00 -8.083158e+00 -5.058314e+00 -1.091105e+01 1.562341e+00 -1.102001e+00 9.669849e-01 1.844189e+00 -9.469230e+00 6.663776e+01 4.210318e-01 2.225924e-01 2.617692e-01 6.122676e-01 -2.139778e-01 3.619403e-01 4.221590e-02 -1.644090e-01 -3.136196e-01 2.038860e-02 -2.023846e-01 1.933714e-01 -3.581756e-01 -2.382247e-01 6.296384e-01 -3.175108e-02 5.327949e-01 3.890456e-01 2.911661e-01 4.609268e-01 -4.334585e-01 -3.244533e-01 -1.497817e-01 -4.039482e-01 4.341932e-01 -7.058525e-01
<VARIANCE> 39
 1.630346e+01 4.727721e+01 5.455138e+01 5.240839e+01 6.711574e+01 7.222984e+01 7.382955e+01 9.420608e+01 7.711024e+01 6.001103e+01 5.707164e+01 5.964788e+01 2.881755e+01 1.433852e+00 1.737879e+00 2.120328e+00 3.031727e+00 2.767989e+00 3.981312e+00 3.894347e+00 3.989164e+00 3.916473e+00 2.997968e+00 3.198339e+00 2.553387e+00 1.622752e+00 3.556399e-01 4.103411e-01 5.560142e-01 5.972859e-01 7.477226e-01 7.328134e-01 8.766282e-01 1.196892e+00 9.024057e-01 8.788508e-01 8.163757e-01 7.111675e-01 3.453035e-01
<GCONST> 1.310944e+02
<STATE> 4
<MEAN> 39
 1.933786e+00 -4.692293e+00 3.314183e+00 -9.824176e-01 -8.240193e+00 -5.160332e+00 -1.000438e+01 1.947754e+00 -2.558287e+00 4.097346e-01 5.036259e-01 -8.110303e+00 6.442004e+01 1.573343e-01 9.667420e-01 -8.001082e-02 1.097484e+00 2.597505e-01 6.850936e-01 5.704131e-01 -7.616525e-01 -5.174490e-01 -6.581478e-02 -6.658593e-01 5.072751e-01 -1.209925e+00 -1.662450e-01 1.283505e-01 -6.757640e-02 5.133725e-02 1.097382e-01 5.705384e-02 1.651412e-01 -6.971082e-02 -2.324372e-02 -7.617283e-02 -9.362125e-02 5.625733e-02 -1.303658e-01
<VARIANCE> 39
 1.262262e+01 5.026626e+01 5.014994e+01 4.765387e+01 6.462133e+01 6.680768e+01 6.037067e+01 8.795214e+01 6.485776e+01 4.954281e+01 4.766642e+01 5.384481e+01 3.134291e+01 9.706992e-01 1.856969e+00 2.109958e+00 2.509777e+00 2.863214e+00 2.898367e+00 3.465554e+00 3.857742e+00 3.148648e+00 3.137466e+00 2.924000e+00 2.474912e+00 1.777729e+00 2.126299e-01 2.794990e-01 3.404526e-01 3.980516e-01 4.638087e-01 4.910390e-01 5.882664e-01 7.125386e-01 5.959753e-01 5.296363e-01 5.580481e-01 4.114000e-01 2.250246e-01
<GCONST> 1.227502e+02
<TRANSP> 5
 0.000000e+00 1.000000e+00 0.000000e+00 0.000000e+00 0.000000e+00
 0.000000e+00 1.555812e-01 8.444188e-01 0.000000e+00 0.000000e+00
 0.000000e+00 0.000000e+00 2.018038e-01 7.981962e-01 0.000000e+00
 0.000000e+00 0.000000e+00 0.000000e+00 4.429210e-01 5.570791e-01
 0.000000e+00 0.000000e+00 0.000000e+00 0.000000e+00 0.000000e+00
<ENDHMM>
~h "a"
<BEGINHMM>
<NUMSTATES> 5
<STATE> 2
<MEAN> 39
 2.192125e+00 -1.027746e+01 -7.144946e-01 -7.583240e+00 -5.060664e+00 -1.545646e+00 -9.640214e+00 5.378726e+00 -6.382028e-01 6.523194e-01 -1.530903e+00 -1.226026e+01 6.932998e+01 1.635057e-01 -1.060762e+00 -2.021976e-01 -5.845696e-01 3.066958e-01 3.907070e-01 1.098375e-01 8.980302e-01 1.331612e-01 -2.005482e-01 -5.339444e-01 -7.360516e-01 8.066854e-01 -1.459840e-01 7.965722e-01 1.990818e-01 6.782939e-01 5.021124e-02 -4.900934e-02 2.102393e-01 -5.967165e-01 -3.882959e-01 -4.689844e-02 6.997678e-02 5.872310e-01 -7.172730e-01
<VARIANCE> 39
 9.500470e+00 2.463231e+01 4.211369e+01 4.337884e+01 5.584096e+01 8.095933e+01 6.058899e+01 6.359945e+01 7.173551e+01 6.791993e+01 4.904322e+01 5.145724e+01 1.808445e+01 1.075285e+00 2.543164e+00 2.584921e+00 3.171555e+00 3.524606e+00 4.032350e+00 3.653669e+00 5.195973e+00 3.678421e+00 3.810939e+00 3.570922e+00 3.521866e+00 1.924290e+00 2.067017e-01 3.671254e-01 3.811018e-01 5.115049e-01 5.848849e-01 6.401454e-01 6.543841e-01 8.447841e-01 7.246844e-01 7.377838e-01 6.430336e-01 5.730985e-01 2.792383e-01
<GCONST> 1.263815e+02
<STATE> 3
<MEAN> 39
 1.999234e+00 -1.095694e+01 -4.641843e-01 -7.751281e+00 -4.506980e+00 -1.610978e+00 -8.969903e+00 6.129445e+00 -1.263759e+00 9.402373e-02 -2.137589e+00 -1.238981e+01 6.979829e+01 1.690228e-01 8.404024e-01 1.529467e-01 8.705494e-01 -3.857770e-02 -6.198935e-02 1.901736e-01 -5.597572e-01 -4.919175e-01 2.330621e-01 1.287204e-03 5.641716e-01 -8.285931e-01 1.875935e-02 4.786975e-01 1.089225e-01 3.659137e-01 -1.224307e-01 3.627605e-02 4.375137e-02 -3.945247e-01 -1.293074e-01 6.778675e-02 6.451882e-02 2.262058e-01 -4.296764e-01
<VARIANCE> 39
 8.506992e+00 2.282989e+01 4.051313e+01 3.900012e+01 5.299637e+01 7.708818e+01 5.548195e+01 6.390638e+01 7.663551e+01 6.820660e+01 4.778572e+01 5.129897e+01 1.399122e+01 4.403483e-01 1.466220e+00 1.468820e+00 1.724034e+00 2.069819e+00 2.654619e+00 2.342975e+00 3.108461e+00 2.358183e+00 2.407992e+00 2.256836e+00 2.021115e+00 1.013754e+00 1.007381e-01 1.948189e-01 2.886560e-01 2.842960e-01 3.840214e-01 4.847958e-01 4.882503e-01 6.315718e-01 4.633529e-01 5.127131e-01 4.829756e-01 3.966305e-01 1.234161e-01
<GCONST> 1.127826e+02
<STATE> 4
<MEAN> 39
 2.264862e+00 -3.067078e+00 -1.404362e+00 -6.042098e-01 -4.214761e+00 -3.657861e-01 -6.628779e+00 2.584922e+00 -3.037841e+00 5.439221e-01 -2.891886e+00 -7.252885e+00 6.054052e+01 -7.903715e-03 1.173996e+00 -4.054975e-02 1.118923e+00 -9.092311e-02 3.775929e-01 4.486592e-01 -6.979602e-01 -2.870795e-01 -9.981866e-02 -2.039476e-01 5.055294e-01 -1.321514e+00 -8.622421e-02 -9.494935e-02 2.217491e-02 -1.282206e-01 -1.747626e-02 -2.967595e-03 5.906140e-03 3.722099e-02 4.799042e-02 -6.979232e-02 -1.372044e-02 -6.986447e-02 1.225529e-01
<VARIANCE> 39
 1.077211e+01 2.958644e+01 4.419063e+01 4.358938e+01 4.080214e+01 5.605538e+01 4.895190e+01 4.819230e+01 4.667130e+01 4.557294e+01 4.130735e+01 4.522944e+01 3.803299e+01 5.782020e-01 1.367402e+00 1.690534e+00 2.036086e+00 2.132223e+00 2.515587e+00 2.512474e+00 3.358315e+00 2.660016e+00 2.643645e+00 2.398472e+00 2.178311e+00 1.136184e+00 1.054297e-01 1.850432e-01 2.347464e-01 2.922058e-01 3.277042e-01 4.153744e-01 4.201570e-01 4.986203e-01 4.215258e-01 4.207362e-01 4.160098e-01 3.830038e-01 1.229248e-01
<GCONST> 1.120484e+02
<TRANSP> 5
 0.000000e+00 1.000000e+00 0.000000e+00 0.000000e+00 0.000000e+00
 0.000000e+00 4.769123e-01 5.230877e-01 0.000000e+00 0.000000e+00
 0.000000e+00 0.000000e+00 6.380610e-01 3.619390e-01 0.000000e+00
 0.000000e+00 0.000000e+00 0.000000e+00 6.534336e-01 3.465664e-01
 0.000000e+00 0.000000e+00 0.000000e+00 0.000000e+00 0.000000e+00
<ENDHMM>
~h "b"
<BEGINHMM>
<NUMSTATES> 5
<STATE> 2
<MEAN> 39
 4.820173e+00 7.325129e+00 1.911647e+00 5.445472e+00 -4.106284e+00 2.331497e+00 -6.672495e+00 -3.183248e+00 -7.371613e+00 -2.178392e+00 -2.419316e+00 -5.208874e+00 5.526445e+01 2.424751e-01 1.022832e-01 -2.627757e-01 -3.518403e-01 1.699704e-01 -2.867716e-01 -3.455196e-01 -2.992473e-01 3.497957e-02 -7.459386e-02 3.086267e-01 2.860034e-01 2.769260e-01 -9.894718e-02 -7.214648e-01 7.426089e-02 -8.409619e-01 -2.911608e-01 -2.902099e-01 -6.498566e-01 -5.854118e-02 1.618023e-01 4.289688e-01 5.368100e-01 -9.474468e-02 6.631791e-01
<VARIANCE> 39
 8.238347e+00 2.072391e+01 1.949201e+01 2.005902e+01 2.711609e+01 2.807889e+01 3.071338e+01 2.786165e+01 2.631672e+01 2.232331e+01 2.353355e+01 2.331665e+01 1.216706e+01 6.808208e-01 2.056494e+00 1.552282e+00 3.869952e+00 2.284006e+00 2.716015e+00 3.631269e+00 2.991706e+00 2.927749e+00 2.579473e+00 3.040117e+00 2.052344e+00 1.667021e+00 1.261183e-01 4.108487e-01 3.499951e-01 5.345167e-01 4.620453e-01 5.630761e-01 5.789732e-01 6.078579e-01 6.853616e-01 6.217896e-01 5.779969e-01 4.951056e-01 2.253616e-01
<GCONST> 1.114378e+02
<STATE> 3
<MEAN> 39
 5.752822e+00 4.257142e+00 7.243857e-01 -1.282447e+00 -5.038378e+00 1.150047e+00 -1.071372e+01 -6.482912e+00 -8.641392e+00 -5.800373e-01 1.849115e+00 -3.354764e+00 5.979311e+01 -4.808886e-02 -2.393483e+00 6.474958e-02 -3.174867e+00 -8.177601e-01 -5.656400e-01 -2.670609e+00 -8.462654e-02 8.647966e-01 2.076035e+00 2.088717e+00 -8.455825e-01 2.449824e+00 -3.077769e-01 -4.988648e-01 2.954247e-01 -1.871496e-03 -2.420172e-01 -4.924543e-02 -4.951254e-02 6.511228e-01 5.294001e-01 2.619787e-01 -2.226611e-01 -6.774222e-01 2.685434e-01
<VARIANCE> 39
 7.465022e+00 2.656050e+01 1.979202e+01 6.884220e+01 4.072080e+01 4.595093e+01 4.227682e+01 3.544135e+01 3.795486e+01 4.146601e+01 3.897908e+01 2.595584e+01 1.970675e+01 1.115355e+00 4.010736e+00 3.522874e+00 6.701414e+00 4.204925e+00 6.372235e+00 4.604154e+00 5.100829e+00 7.571530e+00 6.651602e+00 5.127741e+00 4.692549e+00 1.843581e+00 1.373094e-01 4.081641e-01 3.874420e-01 1.057026e+00 6.491857e-01 7.361099e-01 7.539146e-01 8.217093e-01 1.032838e+00 9.129210e-01 9.395999e-01 6.643987e-01 3.065869e-01
<GCONST> 1.284041e+02
<STATE> 4
<MEAN> 39
 4.912558e+00 -2.760703e+00 1.599143e+00 -6.374022e+00 -6.729481e+00 -2.101121e-01 -1.647614e+01 -3.596452e+00 -3.264923e+00 5.403826e+00 4.696465e+00 -9.068139e+00 6.494773e+01 -6.749160e-01 -2.396657e+00 7.330812e-01 -1.486335e+00 -9.821493e-01 -1.000201e+00 -1.340638e+00 1.804759e+00 1.818977e+00 7.915429e-01 1.651922e-01 -1.814760e+00 2.053972e+00 -1.950644e-01 5.694290e-01 1.787910e-01 9.065578e-01 1.057069e-01 2.030956e-02 9.057030e-01 3.257543e-01 -2.365574e-01 -8.133827e-01 -7.650596e-01 2.346144e-01 -5.469576e-01
<VARIANCE> 39
 7.355187e+00 4.112851e+01 3.416933e+01 9.001314e+01 5.580391e+01 7.186184e+01 5.797730e+01 4.488160e+01 6.942370e+01 7.125394e+01 6.909777e+01 5.441022e+01 2.271107e+01 1.010231e+00 3.499914e+00 4.072991e+00 5.889043e+00 3.748554e+00 5.139995e+00 4.813148e+00 6.408569e+00 7.429601e+00 6.430353e+00 6.693961e+00 5.529420e+00 1.905367e+00 1.232883e-01 4.541949e-01 3.465052e-01 1.115424e+00 7.789101e-01 8.094357e-01 8.398687e-01 8.006377e-01 1.028056e+00 1.137507e+00 1.147062e+00 8.421440e-01 2.768828e-01
<GCONST> 1.345394e+02
<TRANSP> 5
 0.000000e+00 1.000000e+00 0.000000e+00 0.000000e+00 0.000000e+00
 0.000000e+00 6.907547e-01 3.092453e-01 0.000000e+00 0.000000e+00
 0.000000e+00 0.000000e+00 3.413663e-01 6.586337e-01 0.000000e+00
 0.000000e+00 0.000000e+00 0.000000e+00 2.962107e-01 7.037893e-01
 0.000000e+00 0.000000e+00 0.000000e+00 0.000000e+00 0.000000e+00
<ENDHMM>
~h "c"
<BEGINHMM>
<NUMSTATES> 5
<STATE> 2
<MEAN> 39
 -1.519437e+00 3.745000e+00 1.466941e-01 1.451990e+00 -3.782388e+00 -2.144039e+00 -5.589664e+00 6.086207e-01 -3.186904e+00 -1.245732e+00 -2.053011e+00 -2.881352e+00 5.488850e+01 -2.456351e+00 2.787707e-01 2.911442e-01 -1.163440e+00 1.202493e+00 -6.610090e-01 7.518917e-01 -3.163138e-01 2.331224e-01 -1.447745e-01 4.678356e-01 1.696116e-01 9.853196e-01 -5.735802e-01 -1.901560e-01 5.554929e-01 -4.443342e-01 3.195804e-02 -6.001836e-01 -1.360559e-01 -7.636540e-02 2.047720e-01 -1.067595e-01 2.159071e-01 3.866062e-02 8.984867e-01
<VARIANCE> 39
 1.842370e+01 2.119474e+01 2.875590e+01 2.466454e+01 3.528405e+01 4.674120e+01 3.547324e+01 4.081700e+01 3.189002e+01 2.500018e+01 2.782182e+01 2.526661e+01 2.049610e+01 3.353978e+00 2.627566e+00 2.811388e+00 3.485319e+00 3.433178e+00 4.133379e+00 2.629800e+00 3.380655e+00 2.755887e+00 2.531074e+00 2.643520e+00 2.237977e+00 2.998547e+00 6.273918e-01 3.864183e-01 4.030829e-01 5.359511e-01 6.299619e-01 5.741482e-01 5.231130e-01 6.879416e-01 5.435808e-01 5.538069e-01 4.879929e-01 4.363567e-01 2.467546e-01
<GCONST> 1.201307e+02
<STATE> 3
<MEAN> 39
 -1.436187e+01 5.131845e+00 4.332489e+00 -4.697464e+00 8.539969e-01 -6.870558e+00 -2.693522e+00 -1.156548e+00 -9.790620e-01 -3.671685e+00 6.992131e-01 -1.738642e+00 6.255941e+01 -1.664893e-01 -1.018693e+00 1.425691e+00 -4.481987e-01 -9.579126e-01 -1.487539e+00 -8.552572e-01 2.616320e-01 6.659384e-01 -4.798303e-01 3.530048e-01 2.935501e-01 2.005896e+00 1.912682e+00 -7.196108e-01 -1.755612e-01 4.811402e-01 -9.468994e-01 3.247175e-01 -8.293557e-01 2.150753e-01 -1.019077e-01 2.040091e-01 -1.047792e-01 -2.232556e-01 -2.091290e-01
<VARIANCE> 39
 1.588649e+01 2.913070e+01 3.025540e+01 2.879127e+01 3.956761e+01 5.033694e+01 3.406742e+01 3.812756e+01 2.968335e+01 2.808116e+01 2.486553e+01 1.967790e+01 1.481272e+01 1.025672e+01 3.654876e+00 3.088251e+00 3.907011e+00 5.339301e+00 3.739945e+00 4.339835e+00 3.957756e+00 3.348008e+00 3.053873e+00 2.577633e+00 2.270481e+00 2.112468e+00 5.675414e-01 7.305386e-01 6.254827e-01 8.157419e-01 8.187912e-01 6.872281e-01 6.226534e-01 7.567986e-01 9.037634e-01 6.289177e-01 6.294932e-01 5.536245e-01 2.691235e-01
<GCONST> 1.259436e+02
<STATE> 4
<MEAN> 39
 -3.034191e+00 -2.904493e+00 6.371300e+00 -2.764977e+00 -7.046706e+00 -1.040586e+01 -1.082250e+01 1.821365e+00 1.473465e+00 -4.098057e+00 -2.258194e-01 -2.373148e+00 6.741545e+01 3.771070e+00 -2.752242e+00 -3.010796e-01 -2.540549e-01 -2.025300e+00 4.228413e-01 -2.322420e+00 5.216760e-01 2.323710e-01 7.525671e-01 6.005350e-01 -1.341946e+00 1.422019e+00 -9.446500e-02 4.358985e-01 -6.171656e-01 -1.420105e-01 5.023723e-01 9.431751e-01 5.337462e-01 -2.597280e-01 -5.310814e-01 3.319123e-01 1.432359e-01 -3.765360e-01 -6.677720e-01
<VARIANCE> 39
 1.646731e+01 3.361859e+01 4.258427e+01 2.783851e+01 2.897354e+01 4.055730e+01 5.423175e+01 5.311587e+01 3.455450e+01 3.118154e+01 1.896842e+01 1.793170e+01 2.221861e+01 2.350908e+00 3.997788e+00 3.638519e+00 2.837887e+00 4.014576e+00 3.540423e+00 3.876622e+00 6.458345e+00 4.995806e+00 3.827795e+00 3.473635e+00 3.108959e+00 1.245859e+00 9.804909e-01 5.755516e-01 4.397700e-01 5.087332e-01 6.164693e-01 6.399823e-01 7.234619e-01 6.078925e-01 6.000330e-01 5.487161e-01 5.365086e-01 5.606475e-01 3.010885e-01
<GCONST> 1.246854e+02
<TRANSP> 5
 0.000000e+00 1.000000e+00 0.000000e+00 0.000000e+00 0.000000e+00
 0.000000e+00 6.699928e-01 3.300072e-01 0.000000e+00 0.000000e+00
 0.000000e+00 0.000000e+00 6.497570e-01 3.502430e-01 0.000000e+00
 0.000000e+00 0.000000e+00 0.000000e+00 4.363049e-01 5.636951e-01
 0.000000e+00 0.000000e+00 0.000000e+00 0.000000e+00 0.000000e+00
<ENDHMM>
~h "d"
<BEGINHMM>
<NUMSTATES> 5
<STATE> 2
<MEAN> 39
 4.063581e+00 5.208816e+00 5.063104e+00 7.581773e+00 -7.331920e+00 -2.052714e+00 -7.707386e+00 8.321351e-01 -4.584280e+00 -2.640764e+00 -4.149397e+00 -5.417879e+00 5.599434e+01 -2.019056e-02 -7.442664e-02 2.245521e-01 1.575612e-01 1.192113e-01 -2.382876e-01 -1.272471e-01 -8.837583e-03 3.559287e-02 -3.832324e-01 1.497577e-01 2.986853e-01 1.248722e-01 -3.831168e-01 -9.591334e-01 5.511655e-01 -8.560797e-01 -5.196922e-01 -5.819963e-01 -6.301154e-01 6.063822e-02 2.327558e-02 4.261073e-02 7.857701e-01 5.464056e-02 9.656050e-01
<VARIANCE> 39
 7.232469e+00 2.975513e+01 3.129479e+01 2.029291e+01 3.683717e+01 2.711734e+01 3.636312e+01 5.125537e+01 3.223550e+01 2.803354e+01 3.755908e+01 2.971255e+01 1.479019e+01 9.210708e-01 2.794447e+00 2.707692e+00 2.380242e+00 3.041608e+00 3.345794e+00 3.666028e+00 3.996889e+00 3.097867e+00 2.458552e+00 3.215835e+00 2.315228e+00 2.008778e+00 1.434420e-01 3.272422e-01 5.665348e-01 4.338267e-01 6.019687e-01 6.183606e-01 7.881192e-01 1.114567e+00 6.979398e-01 5.579918e-01 5.992824e-01 4.973073e-01 2.319013e-01
<GCONST> 1.178112e+02
<STATE> 3
<MEAN> 39
 2.412990e+00 1.041050e+00 6.256735e+00 5.979525e+00 -6.600983e+00 -3.445474e+00 -8.733919e+00 -4.497719e-01 -4.377745e+00 -3.321572e+00 -2.527081e+00 -3.608353e+00 5.901110e+01 -8.339742e-01 -2.522911e+00 2.025957e+00 -2.133090e+00 -1.663989e+00 -1.939247e+00 -2.228418e+00 4.916976e-01 4.509422e-02 -8.053721e-02 2.343751e+00 8.460686e-02 2.748925e+00 -1.323273e-01 -2.477079e-01 2.486770e-01 -7.288275e-01 -5.131244e-01 -1.779183e-01 -4.350032e-01 3.554621e-01 -6.333257e-02 3.199992e-01 4.979322e-01 -4.772040e-01 5.398974e-01
<VARIANCE> 39
 1.220055e+01 3.405741e+01 4.052802e+01 3.454429e+01 4.180079e+01 4.253777e+01 5.543637e+01 6.072412e+01 4.068658e+01 3.363189e+01 3.085840e+01 3.106343e+01 2.012497e+01 1.302853e+00 2.674121e+00 5.496865e+00 3.326890e+00 4.350565e+00 4.602067e+00 5.635546e+00 1.024477e+01 6.534874e+00 4.788950e+00 5.240432e+00 3.608557e+00 1.494449e+00 1.665969e-01 4.300127e-01 5.137967e-01 5.357173e-01 7.933105e-01 8.004013e-01 8.052123e-01 9.987009e-01 7.413356e-01 7.234939e-01 7.036166e-01 5.968757e-01 2.438717e-01
<GCONST> 1.281367e+02
<STATE> 4
<MEAN> 39
 1.350722e+00 -5.123231e+00 1.064973e+01 -6.796584e-01 -1.232014e+01 -9.294385e+00 -1.578844e+01 3.647087e+00 -3.249679e+00 -2.267819e+00 3.423201e+00 -4.934715e+00 6.616078e+01 -7.360995e-01 -1.788990e+00 1.142732e+00 -2.647248e+00 -1.633497e+00 -1.203634e+00 -1.680836e+00 1.385325e+00 2.627133e-01 5.929604e-01 1.939578e+00 -1.241788e+00 2.514422e+00 1.319257e-01 7.083077e-01 -5.571617e-01 3.001198e-01 4.265066e-01 6.772131e-01 6.428745e-01 -1.852575e-01 -1.239432e-01 1.630670e-01 -5.771011e-01 -3.431771e-01 -5.830843e-01
<VARIANCE> 39
 1.034810e+01 3.110570e+01 5.427202e+01 3.848565e+01 4.016409e+01 5.072913e+01 8.472674e+01 1.151881e+02 7.954006e+01 5.135614e+01 4.270121e+01 5.268098e+01 1.732574e+01 1.116271e+00 2.570545e+00 5.707040e+00 3.165032e+00 3.960439e+00 4.910184e+00 4.933653e+00 8.749532e+00 5.934865e+00 5.413273e+00 6.062251e+00 3.979784e+00 1.629297e+00 1.196545e-01 3.396209e-01 4.584681e-01 5.937521e-01 7.586783e-01 8.155746e-01 1.087251e+00 1.285610e+00 9.111860e-01 6.543519e-01 7.112350e-01 6.495517e-01 2.403450e-01
<GCONST> 1.312444e+02
<TRANSP> 5
 0.000000e+00 1.000000e+00 0.000000e+00 0.000000e+00 0.000000e+00
 0.000000e+00 6.033874e-01 3.966126e-01 0.000000e+00 0.000000e+00
 0.000000e+00 0.000000e+00 2.096157e-01 7.903842e-01 0.000000e+00
 0.000000e+00 0.000000e+00 0.000000e+00 3.382535e-01 6.617465e-01
 0.000000e+00 0.000000e+00 0.000000e+00 0.000000e+00 0.000000e+00
<ENDHMM>
~h "e"
<BEGINHMM>
<NUMSTATES> 5
<STATE> 2
<MEAN> 39
 5.818717e-02 -6.672952e+00 6.178005e+00 -1.645845e+00 -1.062889e+01 -8.308301e+00 -6.512235e+00 5.442772e+00 -4.059077e+00 -1.201241e+00 1.506543e+00 -6.935709e+00 6.618566e+01 1.709879e-01 -1.457857e+00 1.422122e+00 -1.159094e+00 -1.388217e+00 -6.265305e-01 -3.208388e-01 1.660591e+00 -1.207455e-01 -3.229767e-01 7.136827e-01 -4.805982e-01 1.574787e+00 -1.465842e-01 5.066484e-01 -3.067697e-01 1.988098e-01 4.780207e-01 3.417216e-01 2.909109e-01 -4.033895e-01 -1.046117e-01 9.557761e-02 -1.974690e-01 2.402218e-01 -4.755634e-01
<VARIANCE> 39
 1.350496e+01 3.569249e+01 5.892699e+01 3.404474e+01 4.330410e+01 8.645572e+01 9.662837e+01 6.076102e+01 8.266962e+01 7.964713e+01 5.323603e+01 3.995549e+01 3.835956e+01 1.454051e+00 2.121424e+00 4.111735e+00 2.237632e+00 4.174047e+00 4.531017e+00 4.944343e+00 5.147706e+00 3.930104e+00 4.743618e+00 4.424028e+00 2.968043e+00 1.988487e+00 2.603306e-01 5.244318e-01 7.711241e-01 4.452773e-01 7.197514e-01 7.788488e-01 8.969920e-01 9.014742e-01 7.810674e-01 7.726626e-01 7.258224e-01 5.227729e-01 4.334387e-01
<GCONST> 1.320155e+02
<STATE> 3
<MEAN> 39
 -1.539994e-02 -9.149328e+00 7.871910e+00 -4.546556e+00 -1.257655e+01 -9.240101e+00 -8.337300e+00 7.872578e+00 -3.575022e+00 -1.929891e+00 3.298596e+00 -8.572555e+00 6.926076e+01 1.890689e-01 6.002523e-01 -3.572816e-01 6.158159e-01 4.044452e-01 3.339015e-01 2.162894e-01 -4.836929e-01 -8.741491e-02 1.809522e-01 -5.016800e-01 1.939716e-01 -6.251072e-01 9.583110e-03 5.351336e-01 -2.705836e-01 4.876140e-01 3.324097e-01 2.174216e-01 1.774113e-01 -5.501056e-01 -2.699197e-02 9.426694e-02 -2.099013e-01 1.615216e-01 -4.938350e-01
<VARIANCE> 39
 7.904852e+00 2.437865e+01 4.633206e+01 3.189600e+01 3.851486e+01 8.957068e+01 7.006699e+01 7.314552e+01 8.153810e+01 7.086045e+01 5.741997e+01 3.966679e+01 1.582229e+01 5.224436e-01 1.490860e+00 1.490235e+00 2.084867e+00 2.227304e+00 2.128056e+00 2.828697e+00 2.846143e+00 2.445696e+00 2.652852e+00 2.115800e+00 1.581084e+00 1.246061e+00 1.497248e-01 2.712174e-01 3.794543e-01 3.227228e-01 4.023069e-01 4.398412e-01 6.281891e-01 6.463144e-01 5.096576e-01 6.201309e-01 4.573330e-01 3.553114e-01 1.549205e-01
<GCONST> 1.151310e+02
<STATE> 4
<MEAN> 39
 -4.064476e-01 -2.691397e+00 8.787560e+00 -1.148861e+00 -1.065691e+01 -7.072537e+00 -4.297273e+00 3.638375e+00 -7.830554e+00 2.568991e+00 2.422900e+00 -4.453228e+00 6.207449e+01 3.046210e-02 6.537846e-01 -3.943428e-01 6.383866e-01 3.982220e-01 5.469608e-01 3.843410e-01 -4.167325e-01 -1.624557e-02 -4.871003e-02 -3.304203e-01 2.208719e-01 -7.848816e-01 -5.374022e-02 4.968602e-03 7.165614e-03 -7.015261e-02 2.057963e-02 3.068662e-02 -8.907262e-05 -2.857802e-02 3.826847e-03 -4.293865e-02 1.842978e-02 -2.674786e-03 3.897894e-02
<VARIANCE> 39
 8.400452e+00 2.663656e+01 8.079889e+01 4.977856e+01 4.288711e+01 6.070018e+01 4.709794e+01 4.838728e+01 4.943470e+01 5.658522e+01 6.675204e+01 2.998668e+01 3.783581e+01 4.148678e-01 1.344325e+00 1.448928e+00 1.616230e+00 1.936401e+00 1.725701e+00 2.234220e+00 2.515713e+00 2.045094e+00 2.032444e+00 1.840571e+00 1.635471e+00 8.638215e-01 9.122675e-02 1.598756e-01 2.271218e-01 2.270812e-01 2.928132e-01 2.803898e-01 3.684514e-01 3.892840e-01 3.643610e-01 3.508899e-01 2.752974e-01 2.877965e-01 9.527726e-02
<GCONST> 1.071575e+02
<TRANSP> 5
 0.000000e+00 1.000000e+00 0.000000e+00 0.000000e+00 0.000000e+00
 0.000000e+00 5.645276e-01 4.354725e-01 0.000000e+00 0.000000e+00
 0.000000e+00 0.000000e+00 6.830610e-01 3.169390e-01 0.000000e+00
 0.000000e+00 0.000000e+00 0.000000e+00 7.945377e-01 2.054623e-01
 0.000000e+00 0.000000e+00 0.000000e+00 0.000000e+00 0.000000e+00
<ENDHMM>
~h "f"
<BEGINHMM>
<NUMSTATES> 5
<STATE> 2
<MEAN> 39
 -5.711290e+00 1.319331e+00 2.022707e+00 5.742462e-01 -4.026793e+00 -3.605522e+00 -2.999216e+00 -2.574720e+00 -1.416065e+00 -1.622537e+00 -1.159472e+00 -4.611658e+00 5.980170e+01 -1.215930e+00 1.538271e-01 5.195537e-03 1.076244e-01 3.636292e-01 -4.650789e-01 2.809224e-01 5.596456e-02 5.761696e-01 -1.734988e-01 -3.047099e-01 2.659949e-01 -1.112519e-01 3.000375e-01 -3.426461e-01 1.983384e-01 8.536638e-02 -2.599075e-01 -7.114653e-02 -2.317551e-01 9.419870e-02 -3.573286e-02 -3.380133e-02 1.412004e-01 -6.287854e-02 2.493781e-01
<VARIANCE> 39
 2.405870e+01 1.634258e+01 3.879473e+01 2.184729e+01 3.101632e+01 4.813511e+01 2.666837e+01 3.617426e+01 3.526252e+01 3.044458e+01 2.267385e+01 2.325022e+01 1.219512e+01 1.826684e+00 1.495489e+00 1.572417e+00 1.957906e+00 2.073300e+00 2.591520e+00 2.173436e+00 2.861998e+00 2.344615e+00 2.181476e+00 1.962439e+00 1.799948e+00 7.424427e-01 3.423718e-01 2.182695e-01 3.256897e-01 3.360865e-01 5.121094e-01 4.974973e-01 5.344962e-01 5.454232e-01 5.360932e-01 4.013279e-01 4.331536e-01 3.618729e-01 1.349697e-01
<GCONST> 1.097581e+02
<STATE> 3
<MEAN> 39
 -9.546507e+00 -4.912634e-01 3.080366e+00 3.846345e+00 -1.699510e+00 -6.725480e+00 -3.051254e+00 -1.550472e+00 1.771818e+00 -1.486441e+00 -2.423706e+00 -3.180627e+00 6.028524e+01 1.665239e+00 -1.132133e+00 1.795823e+00 4.624131e-01 -1.515230e+00 -1.449452e+00 -1.950608e+00 1.241592e-01 -6.617581e-01 -6.193522e-01 1.027456e+00 1.958070e-01 8.597808e-01 8.853485e-01 -1.941894e-01 7.341936e-01 -4.159337e-01 -1.185375e+00 -9.143761e-02 -8.544675e-01 1.182548e-01 -6.906891e-01 -2.973111e-01 8.246330e-01 -2.465503e-01 4.373979e-01
<VARIANCE> 39
 1.859686e+01 1.302702e+01 3.499065e+01 2.178080e+01 2.196108e+01 4.159877e+01 2.728205e+01 2.013415e+01 3.486720e+01 1.763670e+01 2.010483e+01 1.797518e+01 9.458161e+00 2.367996e+00 1.260811e+00 3.837727e+00 1.943951e+00 3.661341e+00 3.371632e+00 3.973980e+00 2.931371e+00 3.762270e+00 3.162995e+00 3.115883e+00 2.219795e+00 1.010940e+00 2.416808e-01 3.505658e-01 5.147970e-01 3.399952e-01 4.117131e-01 5.420894e-01 6.096562e-01 5.385852e-01 7.115901e-01 6.086779e-01 5.104216e-01 3.979718e-01 1.307605e-01
<GCONST> 1.126913e+02
<STATE> 4
<MEAN> 39
 -1.122465e+00 -2.260444e+00 1.008715e+01 3.887905e+00 -1.000224e+01 -1.080779e+01 -1.151788e+01 -7.825932e-01 -3.868987e+00 -5.194703e+00 2.730058e+00 -3.741359e+00 6.301714e+01 2.443411e+00 -1.563310e+00 2.753460e+00 -9.698960e-01 -3.832227e+00 -7.548558e-01 -3.062675e+00 7.862535e-01 -1.426654e+00 -1.231391e+00 2.773237e+00 -9.157046e-01 1.923286e+00 -5.025180e-01 -1.440676e-02 -2.315075e-01 -5.184509e-01 8.324930e-02 4.671112e-01 3.008414e-01 1.126709e-01 3.352776e-01 3.049051e-01 2.385340e-02 -4.052939e-01 1.278723e-01
<VARIANCE> 39
 1.143809e+01 1.429811e+01 8.552949e+01 2.864179e+01 3.298112e+01 4.111500e+01 5.771424e+01 2.610585e+01 2.699534e+01 3.692538e+01 3.247888e+01 2.085169e+01 1.333660e+01 1.245699e+00 2.119050e+00 6.892165e+00 2.322902e+00 3.029448e+00 3.738830e+00 4.968325e+00 3.906792e+00 5.773695e+00 4.328115e+00 4.265753e+00 2.752676e+00 1.116992e+00 2.488865e-01 1.901238e-01 5.511460e-01 3.241046e-01 6.327153e-01 4.980498e-01 5.995282e-01 4.198049e-01 4.776227e-01 4.086682e-01 6.804739e-01 3.416195e-01 1.423769e-01
<GCONST> 1.177004e+02
<TRANSP> 5
 0.000000e+00 1.000000e+00 0.000000e+00 0.000000e+00 0.000000e+00
 0.000000e+00 8.280342e-01 1.719658e-01 0.000000e+00 0.000000e+00
 0.000000e+00 0.000000e+00 5.374234e-01 4.625766e-01 0.000000e+00
 0.000000e+00 0.000000e+00 0.000000e+00 3.376544e-01 6.623456e-01
 0.000000e+00 0.000000e+00 0.000000e+00 0.000000e+00 0.000000e+00
<ENDHMM>
~h "g"
<BEGINHMM>
<NUMSTATES> 5
<STATE> 2
<MEAN> 39
 3.696860e+00 5.661742e+00 4.393342e+00 4.308312e+00 -6.492626e+00 8.857191e-03 -7.912709e+00 -1.578925e+00 -7.737690e+00 -5.664754e-01 -1.582476e+00 -6.818752e+00 5.638517e+01 -6.171029e-01 -4.413727e-01 2.119702e-01 -7.089677e-01 9.373996e-01 -7.615279e-01 -5.659505e-01 5.262536e-02 2.490638e-01 6.900777e-02 1.244990e-01 3.242202e-03 6.103852e-01 -3.631263e-01 -6.436681e-01 5.963120e-01 -7.812481e-01 -3.293006e-01 -4.928442e-01 -6.633326e-01 1.446137e-02 7.692562e-02 7.401162e-02 7.292114e-01 -2.815674e-01 8.859404e-01
<VARIANCE> 39
 7.112505e+00 2.306560e+01 3.105812e+01 2.774618e+01 4.817787e+01 3.680553e+01 4.310328e+01 4.089209e+01 3.520301e+01 3.078849e+01 3.657072e+01 3.137298e+01 1.312488e+01 1.277799e+00 2.604241e+00 4.105765e+00 3.598636e+00 4.123034e+00 4.246557e+00 4.596910e+00 3.960783e+00 3.904118e+00 3.258971e+00 3.766072e+00 2.848623e+00 2.111725e+00 1.781921e-01 3.332643e-01 5.624624e-01 4.931431e-01 8.474302e-01 5.776252e-01 6.376449e-01 7.790201e-01 7.542292e-01 6.147091e-01 7.447825e-01 4.849472e-01 1.785077e-01
<GCONST> 1.213926e+02
<STATE> 3
<MEAN> 39
 2.358351e-01 1.039858e+00 7.319990e+00 -1.244183e+00 -4.259409e+00 -4.818696e+00 -1.300389e+01 -2.361667e+00 -7.465219e+00 6.093667e-01 2.301173e+00 -8.529889e+00 6.248895e+01 -9.018757e-01 -1.497821e+00 1.578050e+00 -2.153786e+00 -1.494977e+00 -1.817715e+00 -1.973850e+00 4.848790e-01 8.129885e-01 1.877490e-01 2.296992e+00 -1.123824e+00 2.534689e+00 1.948457e-01 -9.861864e-02 -3.277992e-02 3.207782e-02 -8.492634e-01 2.800133e-01 2.196952e-01 3.046486e-01 2.779532e-01 -8.766924e-03 6.984405e-02 -1.410840e-01 8.116753e-02
<VARIANCE> 39
 1.551182e+01 3.105634e+01 5.688445e+01 3.964592e+01 6.292601e+01 6.039769e+01 7.261623e+01 4.654827e+01 5.595042e+01 4.909953e+01 7.373292e+01 4.277209e+01 1.483863e+01 1.327002e+00 2.881144e+00 5.329406e+00 3.281946e+00 6.584328e+00 4.068110e+00 4.737747e+00 6.697695e+00 5.885726e+00 4.902063e+00 5.423276e+00 3.231675e+00 1.548541e+00 1.763183e-01 4.258675e-01 6.183081e-01 6.374403e-01 1.140048e+00 9.594004e-01 1.028260e+00 9.034926e-01 9.567952e-01 7.068819e-01 1.227137e+00 6.594961e-01 2.073632e-01
<GCONST> 1.325472e+02
<STATE> 4
<MEAN> 39
 6.107129e-02 -2.331507e+00 8.688081e+00 -4.944422e+00 -1.141295e+01 -6.985991e+00 -1.558733e+01 1.012930e+00 -3.673555e+00 1.345761e+00 7.350468e+00 -1.181034e+01 6.741505e+01 -2.895997e-01 -1.450397e+00 2.351220e-01 -1.419567e+00 -1.503781e+00 -1.434723e-01 -1.079658e-01 1.284113e+00 1.196975e+00 1.805257e-01 4.081139e-01 -7.417522e-01 1.642368e+00 2.570954e-01 1.821927e-01 -4.691122e-01 5.485156e-01 4.269562e-01 5.329123e-01 5.685318e-01 -4.784146e-02 -3.063763e-01 -8.925968e-02 -7.953914e-01 3.395429e-01 -5.745848e-01
<VARIANCE> 39
 1.277260e+01 3.858622e+01 5.504578e+01 3.303547e+01 5.560515e+01 5.472019e+01 6.960950e+01 6.146008e+01 7.028726e+01 6.751733e+01 8.105093e+01 5.105738e+01 2.069898e+01 7.920453e-01 1.654763e+00 5.330190e+00 2.910863e+00 4.915956e+00 3.857289e+00 4.020833e+00 5.491187e+00 5.440386e+00 4.127380e+00 7.151778e+00 3.249230e+00 1.041719e+00 1.798159e-01 2.661660e-01 5.700622e-01 4.399857e-01 9.806997e-01 7.143598e-01 9.590027e-01 8.338522e-01 7.441116e-01 6.758055e-01 1.181069e+00 5.545779e-01 1.716468e-01
<GCONST> 1.290609e+02
<TRANSP> 5
 0.000000e+00 1.000000e+00 0.000000e+00 0.000000e+00 0.000000e+00
 0.000000e+00 6.179565e-01 3.820435e-01 0.000000e+00 0.000000e+00
 0.000000e+00 0.000000e+00 3.946280e-01 6.053721e-01 0.000000e+00
 0.000000e+00 0.000000e+00 0.000000e+00 3.906567e-01 6.093433e-01
 0.000000e+00 0.000000e+00 0.000000e+00 0.000000e+00 0.000000e+00
<ENDHMM>
~h "h"
<BEGINHMM>
<NUMSTATES> 5
<STATE> 2
<MEAN> 39
 -3.411968e-01 -4.433584e+00 2.824622e+00 -2.839641e+00 -2.951873e+00 -3.337930e+00 -3.512433e+00 3.693931e+00 -5.188058e+00 -7.432393e-01 -3.425786e+00 -5.599606e+00 6.547834e+01 -3.045236e-01 2.069576e-01 -1.857242e-01 6.485112e-01 6.736273e-01 2.114160e-01 6.912946e-01 -2.115677e-01 1.825613e-01 -2.196133e-01 -3.683429e-01 3.150139e-01 -5.497337e-01 5.676701e-02 -8.958498e-02 -2.828048e-02 -9.960537e-02 -2.635980e-01 -5.373364e-02 -2.422012e-01 -7.259540e-02 -9.862590e-03 2.288421e-02 2.069699e-01 -8.506048e-02 7.089014e-03
<VARIANCE> 39
 1.325684e+01 3.751872e+01 5.180479e+01 5.197604e+01 7.342193e+01 8.875497e+01 6.599793e+01 6.912620e+01 6.587203e+01 4.723997e+01 5.325589e+01 3.302218e+01 3.585815e+01 9.260851e-01 1.633440e+00 2.118768e+00 2.008592e+00 2.536983e+00 2.776750e+00 2.477066e+00 3.080254e+00 2.905411e+00 2.000192e+00 2.282420e+00 1.830319e+00 9.949326e-01 1.117700e-01 3.086656e-01 2.871068e-01 3.606523e-01 4.213295e-01 4.862093e-01 4.749183e-01 5.111330e-01 4.610736e-01 3.759942e-01 4.195422e-01 3.780560e-01 1.285604e-01
<GCONST> 1.168375e+02
<STATE> 3
<MEAN> 39
 -1.496931e+00 -5.437496e+00 1.675510e-01 -4.993654e-01 -4.879675e-01 -2.014968e+00 -1.063495e+00 1.157470e+00 -1.817373e+00 -2.433660e+00 -4.767749e+00 -5.296158e+00 6.345047e+01 1.273800e-01 2.586730e-01 -2.196947e-01 3.025899e-01 -2.832527e-01 7.019711e-02 -8.713283e-02 -1.019933e-01 -7.795378e-02 7.526661e-02 1.067288e-01 6.295168e-02 -6.267489e-01 8.144180e-02 3.795137e-02 -8.692678e-03 -5.763694e-02 -1.462538e-01 2.057939e-04 -1.217489e-01 2.331044e-02 -4.981043e-02 1.440887e-02 6.012203e-02 -3.315353e-02 1.794353e-02
<VARIANCE> 39
 1.785987e+01 2.874560e+01 3.924399e+01 3.082716e+01 5.077708e+01 5.233409e+01 6.783816e+01 5.027034e+01 7.114736e+01 4.604300e+01 4.454464e+01 3.106384e+01 2.944312e+01 5.671474e-01 9.442731e-01 1.301224e+00 1.382084e+00 1.606180e+00 2.057666e+00 1.869301e+00 2.112628e+00 1.964175e+00 1.915109e+00 1.736471e+00 1.606549e+00 7.265705e-01 8.612793e-02 1.604745e-01 1.947394e-01 2.420801e-01 3.043422e-01 3.438243e-01 3.696817e-01 3.897186e-01 3.883276e-01 3.476633e-01 3.344543e-01 2.989317e-01 6.766199e-02
<GCONST> 1.057789e+02
<STATE> 4
<MEAN> 39
 -1.091006e+00 2.441407e+00 -2.253127e+00 4.382645e+00 -3.835306e+00 1.068462e+00 -3.320273e+00 1.518213e+00 -4.142824e+00 -1.501061e+00 -1.812546e+00 -1.539960e+00 5.229844e+01 -1.719433e-03 1.662380e-01 -1.586751e-01 9.835381e-02 -4.061364e-02 9.094413e-02 -3.343406e-02 1.447919e-02 5.377465e-02 -4.987747e-02 8.787144e-02 4.705336e-02 -2.105242e-01 -1.131792e-02 -4.436723e-02 6.405637e-02 -6.304520e-02 -1.149651e-04 -2.255078e-02 -1.544217e-02 -2.903361e-03 6.224466e-03 9.501119e-03 1.870937e-02 -4.231654e-02 9.246206e-02
<VARIANCE> 39
 8.861995e+00 2.354847e+01 2.809306e+01 2.110345e+01 3.040590e+01 3.465472e+01 2.785244e+01 3.122889e+01 3.154006e+01 2.530834e+01 2.347418e+01 2.270903e+01 2.749237e+01 3.831843e-01 8.461359e-01 1.111852e+00 1.182793e+00 1.493194e+00 1.623334e+00 1.775587e+00 2.059917e+00 2.028562e+00 1.813012e+00 1.783809e+00 1.638437e+00 4.271382e-01 6.159617e-02 1.281262e-01 1.868404e-01 2.206233e-01 2.708254e-01 2.865433e-01 3.392941e-01 3.899488e-01 3.942586e-01 3.525350e-01 3.418440e-01 3.058945e-01 6.697442e-02
<GCONST> 9.671606e+01
<TRANSP> 5
 0.000000e+00 1.000000e+00 0.000000e+00 0.000000e+00 0.000000e+00
 0.000000e+00 4.823023e-01 5.176977e-01 0.000000e+00 0.000000e+00
 0.000000e+00 0.000000e+00 7.192225e-01 2.807775e-01 0.000000e+00
 0.000000e+00 0.000000e+00 0.000000e+00 8.480745e-01 1.519255e-01
 0.000000e+00 0.000000e+00 0.000000e+00 0.000000e+00 0.000000e+00
<ENDHMM>
~h "i"
<BEGINHMM>
<NUMSTATES> 5
<STATE> 2
<MEAN> 39
 -1.775640e+00 -1.207351e+00 1.698110e+01 -1.136892e+00 -1.549174e+01 -8.606259e+00 -1.147457e+01 -8.548982e-01 -1.056399e+01 -3.554883e+00 6.526408e+00 -6.694668e+00 6.540630e+01 -1.119937e-01 -5.062783e-01 2.515773e+00 -1.030428e+00 -2.211226e+00 -3.446918e-01 -1.479461e+00 5.569125e-01 -1.052360e+00 -3.863134e-01 1.923824e+00 -6.083744e-01 1.157278e+00 1.208220e-02 3.296966e-01 -9.718902e-01 1.565666e-01 7.135533e-01 4.897452e-01 4.202900e-01 8.032575e-03 3.897508e-01 2.787892e-01 -5.717416e-01 4.177527e-02 -4.700650e-01
<VARIANCE> 39
 1.121665e+01 3.096585e+01 4.541214e+01 4.117239e+01 4.392716e+01 5.362859e+01 5.770174e+01 6.042724e+01 5.550814e+01 5.730491e+01 4.606528e+01 3.179018e+01 1.533807e+01 2.269195e+00 2.101918e+00 4.623270e+00 3.761387e+00 4.155026e+00 4.159720e+00 5.013898e+00 5.032385e+00 5.255086e+00 4.498086e+00 3.884733e+00 2.865203e+00 1.389613e+00 3.147180e-01 3.413542e-01 8.813927e-01 6.508642e-01 8.296314e-01 7.139277e-01 8.206595e-01 8.669320e-01 8.109083e-01 6.791974e-01 7.281498e-01 5.229712e-01 2.751626e-01
<GCONST> 1.289614e+02
<STATE> 3
<MEAN> 39
 -2.967488e+00 -9.996567e-01 2.012793e+01 -3.686003e+00 -1.846463e+01 -7.309987e+00 -1.334131e+01 4.666653e-02 -1.147980e+01 -4.041240e+00 9.349870e+00 -8.817672e+00 6.671960e+01 2.051965e-01 1.842437e-01 -6.793609e-01 1.728539e-01 4.883134e-01 1.103531e-01 3.065205e-01 1.742615e-01 1.525009e-01 3.813321e-01 -4.999419e-01 8.862443e-02 -3.380408e-01 1.502988e-01 1.583802e-01 -7.456499e-01 3.761682e-01 6.366154e-01 1.600715e-01 4.067791e-01 -1.217110e-01 2.296647e-01 1.241040e-01 -5.961876e-01 1.672652e-01 -4.117239e-01
<VARIANCE> 39
 7.963301e+00 3.107537e+01 3.560185e+01 3.903758e+01 3.738702e+01 5.518868e+01 5.629799e+01 6.947129e+01 5.931814e+01 6.421928e+01 4.510751e+01 3.469921e+01 1.094887e+01 7.806833e-01 1.557286e+00 2.627722e+00 2.276799e+00 2.449354e+00 2.782375e+00 2.726456e+00 3.232453e+00 2.622183e+00 2.184685e+00 2.284902e+00 1.956818e+00 1.022012e+00 1.484016e-01 2.413295e-01 5.411778e-01 4.000649e-01 5.457452e-01 5.660804e-01 6.066684e-01 6.740286e-01 6.038152e-01 5.168511e-01 5.468027e-01 4.038843e-01 1.784262e-01
<GCONST> 1.163410e+02
<STATE> 4
<MEAN> 39
 -7.989796e-01 2.211420e+00 1.196484e+01 7.435201e-02 -1.108972e+01 -4.220715e+00 -9.095625e+00 -1.346366e+00 -1.015512e+01 -8.515199e-01 2.134689e+00 -5.094840e+00 5.961798e+01 2.911399e-01 4.873423e-01 -1.562121e+00 8.037581e-01 9.844667e-01 7.208901e-01 7.898680e-01 -1.712143e-01 3.595968e-01 1.854034e-01 -9.235899e-01 2.975821e-01 -1.118494e+00 -1.019499e-01 -5.441600e-02 1.107677e-02 -7.433922e-02 -5.479410e-02 4.409853e-02 9.977734e-03 -5.743537e-02 5.282066e-02 -4.659005e-02 5.845891e-02 -3.947104e-02 8.329443e-02
<VARIANCE> 39
 9.906326e+00 2.909878e+01 4.752082e+01 4.192626e+01 4.033628e+01 5.684480e+01 4.546259e+01 5.317345e+01 4.979135e+01 4.714910e+01 3.946789e+01 3.226893e+01 3.016262e+01 8.085691e-01 1.395891e+00 2.404365e+00 2.111284e+00 2.655966e+00 2.788006e+00 2.916802e+00 3.052184e+00 3.114772e+00 2.597788e+00 2.685599e+00 2.139382e+00 1.185338e+00 1.141357e-01 2.021259e-01 3.973073e-01 3.513623e-01 4.520851e-01 5.197088e-01 4.883431e-01 4.982381e-01 4.946404e-01 4.193977e-01 4.037929e-01 3.454573e-01 1.591076e-01
<GCONST> 1.147461e+02
<TRANSP> 5
 0.000000e+00 1.000000e+00 0.000000e+00 0.000000e+00 0.000000e+00
 0.000000e+00 4.667587e-01 5.332413e-01 0.000000e+00 0.000000e+00
 0.000000e+00 0.000000e+00 6.782922e-01 3.217078e-01 0.000000e+00
 0.000000e+00 0.000000e+00 0.000000e+00 6.984719e-01 3.015281e-01
 0.000000e+00 0.000000e+00 0.000000e+00 0.000000e+00 0.000000e+00
<ENDHMM>
~h "j"
<BEGINHMM>
<NUMSTATES> 5
<STATE> 2
<MEAN> 39
 2.022122e+00 5.934353e+00 5.333417e+00 4.747342e+00 -4.474926e+00 -1.549862e+00 -6.239190e+00 1.068335e+00 -4.504113e+00 -2.299620e+00 -2.720954e+00 -3.964547e+00 5.636856e+01 -1.319921e+00 4.010780e-01 7.585115e-01 -8.800303e-01 9.268211e-01 -7.827447e-01 1.822085e-01 -7.150759e-01 2.210134e-02 -3.943821e-01 3.439157e-01 4.643801e-01 5.721707e-01 -4.927607e-01 -5.082588e-01 8.210773e-01 -6.315134e-01 -4.732784e-01 -8.197422e-01 -6.647881e-01 -1.077817e-01 -2.037197e-01 -1.030141e-01 5.532548e-01 1.823526e-01 9.007174e-01
<VARIANCE> 39
 1.261134e+01 2.549858e+01 3.233311e+01 2.497606e+01 3.969903e+01 3.394963e+01 3.332633e+01 3.977678e+01 2.950953e+01 2.473791e+01 2.772368e+01 2.480562e+01 1.624945e+01 2.324316e+00 1.932552e+00 3.962854e+00 3.182133e+00 3.431350e+00 4.838181e+00 3.312988e+00 3.476054e+00 2.633127e+00 2.838323e+00 2.337605e+00 2.096826e+00 2.191614e+00 3.560790e-01 3.308044e-01 3.806926e-01 4.608152e-01 8.561506e-01 6.285622e-01 6.580368e-01 6.193004e-01 5.738221e-01 5.998383e-01 4.708920e-01 4.321823e-01 1.708224e-01
<GCONST> 1.183080e+02
<STATE> 3
<MEAN> 39
 -5.496918e+00 5.801342e+00 1.265471e+01 -1.036233e+00 -4.166412e+00 -7.741577e+00 -7.433154e+00 -3.370781e+00 -6.064435e+00 -4.662477e+00 7.459834e-01 -1.250818e+00 6.269234e+01 -4.749646e-01 -1.529402e+00 2.704490e+00 -9.639629e-01 -2.606919e+00 -2.290478e+00 -2.496087e+00 2.346287e-01 -8.249980e-01 -1.795867e-01 1.890908e+00 4.703592e-01 2.342968e+00 8.837395e-01 -6.115649e-01 -5.160021e-01 2.410753e-01 -6.720780e-01 2.938556e-01 -5.988957e-01 7.626241e-01 6.192003e-02 4.806318e-01 1.123392e-01 -3.949501e-01 -4.341117e-02
<VARIANCE> 39
 1.742029e+01 3.226045e+01 5.145585e+01 2.842737e+01 5.383640e+01 4.922292e+01 5.183393e+01 3.922974e+01 3.162841e+01 3.202771e+01 2.972908e+01 2.428145e+01 1.430542e+01 3.170318e+00 2.879795e+00 3.056757e+00 3.813756e+00 4.537041e+00 4.005337e+00 4.181670e+00 4.911976e+00 3.368679e+00 3.721962e+00 3.134900e+00 2.679641e+00 1.271258e+00 3.486505e-01 4.974845e-01 7.888990e-01 6.229840e-01 1.186898e+00 9.584774e-01 8.204045e-01 7.319105e-01 7.089108e-01 6.348939e-01 6.851614e-01 5.788655e-01 2.252395e-01
<GCONST> 1.263895e+02
<STATE> 4
<MEAN> 39
 -1.666593e+00 -2.657893e+00 1.588917e+01 -2.609523e+00 -1.380493e+01 -1.225375e+01 -1.692354e+01 4.329258e+00 -6.486642e+00 -2.495073e+00 5.564224e+00 -2.264026e+00 6.810105e+01 8.913946e-01 -1.814722e+00 -9.816300e-01 -7.782310e-01 -8.419278e-01 -1.094308e-01 -1.425947e+00 1.708736e+00 6.473711e-01 1.148980e+00 5.018709e-01 -1.229224e+00 1.068946e+00 1.440697e-01 5.141221e-01 -9.911673e-01 1.228659e-01 1.077230e+00 8.766065e-01 8.600683e-01 -2.796561e-01 1.777852e-01 1.277813e-01 -6.608679e-01 -3.533186e-01 -6.708679e-01
<VARIANCE> 39
 6.035091e+00 2.371603e+01 3.627366e+01 3.685118e+01 2.976044e+01 2.813978e+01 5.733966e+01 6.321621e+01 4.794133e+01 6.699344e+01 3.687474e+01 2.857573e+01 1.541982e+01 8.893125e-01 2.070735e+00 3.679607e+00 2.094661e+00 4.793612e+00 3.245508e+00 5.649119e+00 4.208145e+00 3.975142e+00 3.340371e+00 4.554568e+00 3.019514e+00 1.164634e+00 2.290147e-01 2.487520e-01 6.239992e-01 5.661170e-01 5.449412e-01 6.143696e-01 6.624975e-01 7.712099e-01 6.905718e-01 7.054111e-01 6.546423e-01 5.153487e-01 1.595007e-01
<GCONST> 1.211477e+02
<TRANSP> 5
 0.000000e+00 1.000000e+00 0.000000e+00 0.000000e+00 0.000000e+00
 0.000000e+00 6.459925e-01 3.540075e-01 0.000000e+00 0.000000e+00
 0.000000e+00 0.000000e+00 5.677022e-01 4.322979e-01 0.000000e+00
 0.000000e+00 0.000000e+00 0.000000e+00 6.011407e-01 3.988593e-01
 0.000000e+00 0.000000e+00 0.000000e+00 0.000000e+00 0.000000e+00
<ENDHMM>
~h "k"
<BEGINHMM>
<NUMSTATES> 5
<STATE> 2
<MEAN> 39
 2.407468e-01 2.647553e+00 -3.311575e+00 2.273829e+00 -4.907613e+00 1.373333e+00 -4.503543e+00 1.977301e-01 -4.585636e+00 -3.258888e-01 -1.206921e+00 -3.439212e+00 5.321356e+01 -4.807317e-01 -2.862897e-01 -6.778812e-01 -1.653313e-01 9.669088e-01 -3.217119e-01 -1.011525e-01 1.831615e-02 2.999380e-01 9.957168e-02 -1.207464e-01 8.924646e-02 1.940375e-01 -4.883819e-02 -3.679869e-01 1.635891e-01 -4.787400e-01 2.110634e-01 -2.920521e-01 -2.227176e-01 -4.884231e-02 -1.210889e-02 1.705961e-01 9.780383e-02 -1.779597e-01 6.814265e-01
<VARIANCE> 39
 9.650821e+00 2.129982e+01 2.859766e+01 2.816661e+01 3.079025e+01 3.748521e+01 2.929311e+01 3.258840e+01 3.035872e+01 2.555147e+01 2.536718e+01 2.636223e+01 1.829884e+01 1.067158e+00 2.436477e+00 2.405486e+00 2.765419e+00 4.045640e+00 3.559854e+00 3.121415e+00 3.459277e+00 3.279091e+00 2.831006e+00 2.473544e+00 2.397187e+00 1.977638e+00 1.906427e-01 3.340588e-01 4.009050e-01 4.902270e-01 6.211900e-01 6.105999e-01 5.293087e-01 5.912581e-01 5.885398e-01 5.206107e-01 4.510882e-01 4.594975e-01 2.957267e-01
<GCONST> 1.157734e+02
<STATE> 3
<MEAN> 39
 -2.840694e+00 -1.897796e+00 -5.355102e+00 -9.860680e-01 2.103505e+00 -2.451657e+00 -6.206973e+00 -8.328901e-01 -3.169510e+00 1.769108e+00 -1.196157e+00 -4.373063e+00 5.913514e+01 -1.926952e-02 -8.340443e-01 3.517840e-01 -1.572279e+00 3.483908e-01 -1.039968e+00 -5.767204e-01 -8.045624e-02 -1.827437e-02 4.472130e-01 2.436886e-01 -6.339650e-01 1.933930e+00 5.772163e-01 -2.249209e-03 6.835985e-01 -3.520854e-01 -1.135299e+00 2.007429e-01 -1.254106e-01 1.814368e-01 -3.235769e-01 -1.025174e-01 2.486056e-01 -3.233515e-01 2.845660e-01
<VARIANCE> 39
 2.331816e+01 3.273864e+01 5.176605e+01 4.222112e+01 5.711161e+01 7.046255e+01 6.214060e+01 6.162907e+01 4.647563e+01 4.013714e+01 4.026880e+01 3.389602e+01 2.433886e+01 2.381189e+00 3.577142e+00 4.476562e+00 4.521386e+00 6.164406e+00 5.025507e+00 4.466863e+00 4.959450e+00 5.010233e+00 3.606475e+00 3.257962e+00 3.590012e+00 3.031105e+00 3.922586e-01 6.492664e-01 6.835373e-01 7.535905e-01 1.090177e+00 9.386401e-01 1.133360e+00 1.251328e+00 1.090745e+00 8.800949e-01 8.098810e-01 7.665535e-01 3.834503e-01
<GCONST> 1.355061e+02
<STATE> 4
<MEAN> 39
 5.670639e-01 -9.021115e-01 -2.576347e+00 -4.361070e+00 -3.188349e+00 -3.138591e+00 -6.928216e+00 -3.769597e-01 -5.308338e+00 1.579079e+00 -1.837354e-01 -6.404621e+00 6.123444e+01 1.173873e+00 -7.711999e-01 1.545605e+00 -1.877739e+00 -2.096103e+00 -7.051772e-02 -9.031538e-01 3.310822e-01 -6.065773e-01 -3.995329e-03 8.126949e-01 -1.055193e+00 1.985021e+00 1.036086e-01 -8.761264e-02 1.894043e-01 2.139811e-01 -3.791085e-01 3.889990e-01 -3.511692e-02 7.668614e-02 2.721236e-02 -1.564258e-01 8.344820e-02 -5.142787e-03 -1.187682e-01
<VARIANCE> 39
 2.103119e+01 3.481558e+01 5.378037e+01 5.450207e+01 4.529276e+01 6.382822e+01 4.763778e+01 4.210102e+01 4.738540e+01 3.944997e+01 3.804776e+01 3.519543e+01 3.028083e+01 2.492320e+00 3.893151e+00 4.684222e+00 5.507685e+00 6.432892e+00 5.025444e+00 6.240379e+00 6.893764e+00 6.534656e+00 4.907565e+00 4.930784e+00 4.929247e+00 2.414941e+00 3.135857e-01 4.610757e-01 5.575202e-01 6.637225e-01 8.049623e-01 7.936956e-01 7.657142e-01 7.814164e-01 7.987502e-01 7.353989e-01 5.994172e-01 5.361077e-01 4.267077e-01
<GCONST> 1.338652e+02
<TRANSP> 5
 0.000000e+00 1.000000e+00 0.000000e+00 0.000000e+00 0.000000e+00
 0.000000e+00 6.478812e-01 3.521188e-01 0.000000e+00 0.000000e+00
 0.000000e+00 0.000000e+00 4.484386e-01 5.515614e-01 0.000000e+00
 0.000000e+00 0.000000e+00 0.000000e+00 1.839028e-01 8.160972e-01
 0.000000e+00 0.000000e+00 0.000000e+00 0.000000e+00 0.000000e+00
<ENDHMM>
~h "l"
<BEGINHMM>
<NUMSTATES> 5
<STATE> 2
<MEAN> 39
 3.034974e+00 -3.402937e+00 3.278576e+00 -6.494593e+00 -6.562240e+00 -2.547197e+00 -1.541214e+01 -6.127223e+00 -1.445486e+00 4.881808e+00 3.034730e+00 -9.841577e+00 6.585605e+01 1.107841e-01 -8.182559e-02 7.411437e-02 -3.272058e-01 -1.264116e-02 3.220503e-01 -6.844742e-01 -3.386866e-01 2.235288e-01 5.351590e-01 2.494476e-01 -5.438005e-01 8.074363e-02 -1.345824e-01 -1.939564e-01 -7.963067e-02 -1.542236e-01 -7.217837e-02 1.759205e-01 3.603573e-01 5.479869e-01 7.185045e-02 -3.810333e-01 -1.486554e-01 -9.217788e-03 1.217307e-01
<VARIANCE> 39
 1.023252e+01 3.801207e+01 6.796677e+01 6.204568e+01 5.296830e+01 6.267673e+01 8.787980e+01 1.012870e+02 9.016425e+01 5.304436e+01 5.860355e+01 5.935759e+01 1.974945e+01 4.314499e-01 1.429495e+00 2.020852e+00 2.885439e+00 2.275969e+00 3.252772e+00 3.633425e+00 4.220215e+00 3.318052e+00 3.253763e+00 2.912334e+00 2.405832e+00 9.250407e-01 9.709105e-02 2.725278e-01 3.075316e-01 4.831502e-01 5.153043e-01 6.126324e-01 7.890918e-01 7.748502e-01 6.309552e-01 5.748619e-01 7.157739e-01 4.727705e-01 1.226373e-01
<GCONST> 1.216796e+02
<STATE> 3
<MEAN> 39
 2.512088e+00 -5.548489e+00 4.129680e+00 -8.850488e+00 -7.916340e+00 -1.526729e+00 -1.637735e+01 -3.385845e+00 2.016180e-01 5.948641e+00 3.454502e+00 -1.319755e+01 6.742798e+01 -1.713495e-01 -6.795944e-01 -2.630191e-01 -5.872516e-01 -3.073665e-02 5.196606e-01 5.057342e-01 1.130200e+00 4.710890e-01 -5.356771e-01 -6.280717e-01 -3.712465e-01 4.751343e-01 -8.996011e-02 -1.025239e-01 -9.313335e-02 1.256109e-01 5.094381e-02 7.653498e-03 4.438309e-01 4.138800e-01 -1.483656e-01 -5.144257e-01 -2.500687e-01 2.668589e-01 3.239298e-02
<VARIANCE> 39
 8.680717e+00 3.467362e+01 7.168426e+01 5.701982e+01 4.886870e+01 5.195776e+01 8.701116e+01 7.383937e+01 8.742648e+01 4.626614e+01 4.888536e+01 6.192506e+01 1.867923e+01 4.531363e-01 1.624357e+00 2.308184e+00 2.309410e+00 2.114653e+00 3.111498e+00 3.453926e+00 3.813699e+00 3.481558e+00 3.013057e+00 3.614687e+00 2.270843e+00 8.569750e-01 6.869394e-02 2.203662e-01 2.647789e-01 4.150408e-01 3.585768e-01 5.206233e-01 5.741503e-01 5.625083e-01 5.202253e-01 5.028971e-01 6.030778e-01 3.919335e-01 1.082701e-01
<GCONST> 1.174721e+02
<STATE> 4
<MEAN> 39
 2.175278e+00 -6.759674e+00 2.538403e+00 -8.374094e+00 -7.671384e+00 -5.415894e-01 -1.356921e+01 -5.505447e-01 1.206093e+00 2.457517e+00 1.247560e+00 -1.255024e+01 6.806941e+01 -1.476153e-01 -2.653655e-01 -1.303429e-01 1.566994e-01 1.228311e-01 4.615570e-01 1.002731e+00 9.371780e-01 -5.850339e-01 -9.959385e-01 -5.149345e-01 3.218446e-01 5.043294e-02 -3.608121e-03 2.838837e-01 1.544820e-01 2.678931e-01 2.289345e-02 -1.070646e-01 7.930458e-02 -2.503252e-01 -4.770254e-01 -1.777272e-02 1.411199e-01 2.604202e-01 -2.270289e-01
<VARIANCE> 39
 1.046931e+01 3.658678e+01 6.341995e+01 6.256596e+01 4.605984e+01 6.190811e+01 7.275591e+01 7.833460e+01 9.818092e+01 5.566980e+01 5.171702e+01 5.937964e+01 2.190394e+01 6.023083e-01 2.026446e+00 2.539696e+00 2.795213e+00 2.546396e+00 4.175961e+00 3.907327e+00 4.699141e+00 4.452565e+00 3.320108e+00 4.566237e+00 2.347604e+00 1.362082e+00 8.969770e-02 2.358683e-01 4.085845e-01 4.363001e-01 4.302832e-01 5.647069e-01 5.612632e-01 7.606766e-01 7.151910e-01 5.247714e-01 5.926619e-01 4.215444e-01 1.583548e-01
<GCONST> 1.229898e+02
<TRANSP> 5
 0.000000e+00 1.000000e+00 0.000000e+00 0.000000e+00 0.000000e+00
 0.000000e+00 4.202111e-01 5.797889e-01 0.000000e+00 0.000000e+00
 0.000000e+00 0.000000e+00 3.740603e-01 6.259397e-01 0.000000e+00
 0.000000e+00 0.000000e+00 0.000000e+00 3.336227e-01 6.663774e-01
 0.000000e+00 0.000000e+00 0.000000e+00 0.000000e+00 0.000000e+00
<ENDHMM>
~h "m"
<BEGINHMM>
<NUMSTATES> 5
<STATE> 2
<MEAN> 39
 4.603328e+00 -1.671712e+00 3.983643e+00 5.751302e-01 -8.455115e+00 5.925616e+00 -5.759562e+00 -6.962522e+00 -1.188606e+01 9.591672e-01 -3.427022e-02 -8.773391e+00 6.184612e+01 -1.244488e-02 3.147810e-01 1.099502e+00 1.198283e+00 -7.836722e-02 1.056770e+00 6.195978e-01 -1.410151e+00 -1.617805e+00 -5.177176e-01 -8.538629e-01 -2.453269e-01 -4.282779e-01 -9.982045e-02 -2.796373e-01 -1.801813e-01 -4.717352e-01 5.997466e-02 -3.320831e-01 -3.101893e-01 5.196884e-01 5.796348e-01 -2.929956e-02 7.362815e-02 -5.389016e-02 3.062646e-01
<VARIANCE> 39
 7.325005e+00 2.804605e+01 2.984904e+01 3.613759e+01 4.480696e+01 4.249841e+01 4.504712e+01 3.642419e+01 4.411193e+01 3.133986e+01 4.163377e+01 3.907370e+01 1.805112e+01 5.222568e-01 1.334979e+00 2.136641e+00 1.980033e+00 2.329520e+00 2.563126e+00 2.640452e+00 2.727011e+00 4.285669e+00 2.448481e+00 3.094788e+00 2.196889e+00 1.003950e+00 9.617121e-02 1.560889e-01 2.880177e-01 2.878254e-01 3.864303e-01 3.790058e-01 4.358110e-01 4.174848e-01 5.315088e-01 4.425976e-01 5.240120e-01 3.695961e-01 8.976766e-02
<GCONST> 1.097606e+02
<STATE> 3
<MEAN> 39
 4.015234e+00 -2.220351e+00 6.980674e+00 3.245925e-01 -9.464067e+00 7.760284e+00 -6.240488e+00 -8.089034e+00 -1.413624e+01 -8.825732e-01 -7.569703e-01 -1.012989e+01 6.247821e+01 1.439434e-01 -6.998587e-02 -2.565824e-01 -3.438621e-01 -2.822654e-01 -1.994152e-01 -1.770677e-01 1.526444e-01 4.279898e-01 7.633691e-02 2.952015e-01 7.226719e-02 1.282892e-01 5.539479e-02 -1.449549e-01 -4.823509e-01 -4.165323e-01 -5.851536e-02 -3.282805e-01 -1.578218e-01 5.208220e-01 7.166220e-01 2.096758e-01 2.323417e-01 1.584254e-02 1.558816e-01
<VARIANCE> 39
 5.390339e+00 2.411635e+01 3.439417e+01 3.103245e+01 4.732101e+01 4.629297e+01 3.799658e+01 3.982908e+01 5.541669e+01 3.240935e+01 4.585560e+01 4.133406e+01 1.478146e+01 3.420818e-01 9.478123e-01 1.465611e+00 1.549012e+00 1.508152e+00 1.969606e+00 1.688598e+00 1.813251e+00 2.719790e+00 1.755918e+00 2.103118e+00 1.719703e+00 6.638487e-01 6.551062e-02 1.637133e-01 2.659411e-01 2.880318e-01 3.106347e-01 4.041097e-01 3.398528e-01 4.439934e-01 6.747227e-01 4.057557e-01 4.692804e-01 3.902715e-01 7.901888e-02
<GCONST> 1.040046e+02
<STATE> 4
<MEAN> 39
 5.567117e+00 -2.818898e+00 1.358606e+00 -2.687972e+00 -9.548699e+00 5.427309e+00 -6.862930e+00 -5.141175e+00 -8.592892e+00 1.270280e+00 1.062587e+00 -8.577791e+00 6.330700e+01 8.443467e-02 -9.710475e-01 -1.222331e+00 -1.328265e+00 3.066873e-01 -4.160353e-01 -5.616229e-01 1.735994e+00 1.931840e+00 2.076034e-01 2.862701e-01 -4.632682e-01 7.841597e-01 -2.171696e-01 -1.242359e-01 2.250034e-01 9.530079e-02 2.563464e-01 -1.039589e-01 -4.951447e-02 2.330411e-01 -1.104136e-02 -1.651004e-01 -2.114735e-01 -7.301003e-02 5.993544e-02
<VARIANCE> 39
 7.684532e+00 3.830408e+01 3.868766e+01 4.738616e+01 6.999035e+01 4.725174e+01 5.079274e+01 4.278411e+01 4.684720e+01 3.597767e+01 4.096809e+01 4.500186e+01 2.216910e+01 5.683278e-01 1.975985e+00 2.776877e+00 2.835975e+00 3.617479e+00 3.393632e+00 3.161555e+00 3.173586e+00 5.632209e+00 3.095704e+00 3.374838e+00 3.355060e+00 1.026182e+00 9.721306e-02 2.009886e-01 3.763227e-01 5.169995e-01 5.784774e-01 5.112239e-01 4.779685e-01 5.767726e-01 7.151865e-01 4.543990e-01 5.433738e-01 4.231275e-01 1.265896e-01
<GCONST> 1.182760e+02
<TRANSP> 5
 0.000000e+00 1.000000e+00 0.000000e+00 0.000000e+00 0.000000e+00
 0.000000e+00 4.474533e-01 5.525467e-01 0.000000e+00 0.000000e+00
 0.000000e+00 0.000000e+00 6.383299e-01 3.616701e-01 0.000000e+00
 0.000000e+00 0.000000e+00 0.000000e+00 4.768616e-01 5.231384e-01
 0.000000e+00 0.000000e+00 0.000000e+00 0.000000e+00 0.000000e+00
<ENDHMM>
~h "n"
<BEGINHMM>
<NUMSTATES> 5
<STATE> 2
<MEAN> 39
 3.756923e+00 -2.973112e+00 6.845270e+00 3.389517e+00 -1.037392e+01 -1.179935e+00 -8.878358e+00 -3.725705e+00 -6.041784e+00 2.977148e+00 -4.992796e+00 -9.518071e+00 6.255534e+01 3.545429e-01 1.337314e+00 9.373060e-01 1.230614e+00 -5.873242e-01 1.036193e+00 3.714573e-01 -2.647153e+00 -9.984101e-01 1.024662e+00 -1.159538e+00 6.065957e-01 -1.169247e+00 -1.618002e-01 -3.050757e-01 -2.657614e-01 -5.175729e-01 1.525117e-01 -9.210929e-02 4.839842e-02 6.381842e-01 2.052057e-01 -3.170398e-01 3.577510e-01 -5.809798e-02 3.133824e-01
<VARIANCE> 39
 5.332748e+00 2.794633e+01 3.261385e+01 2.536466e+01 4.511467e+01 3.665209e+01 4.351876e+01 5.714171e+01 5.227643e+01 4.412050e+01 3.894841e+01 4.124390e+01 1.436544e+01 4.577233e-01 1.262192e+00 2.685198e+00 1.769985e+00 2.275766e+00 2.693566e+00 3.410400e+00 4.736257e+00 2.942389e+00 3.496272e+00 3.085598e+00 2.663258e+00 7.090254e-01 7.746514e-02 2.123590e-01 3.242501e-01 2.684853e-01 3.514915e-01 3.694675e-01 4.236958e-01 6.928903e-01 4.382082e-01 4.587735e-01 4.448771e-01 3.495691e-01 1.063547e-01
<GCONST> 1.105959e+02
<STATE> 3
<MEAN> 39
 4.275062e+00 -1.947600e+00 8.231916e+00 4.728512e+00 -1.251980e+01 6.069350e-01 -7.866706e+00 -6.844608e+00 -7.932752e+00 4.554431e+00 -5.649705e+00 -9.194238e+00 6.143933e+01 3.089129e-02 4.982654e-01 -2.610891e-01 2.344547e-01 1.844297e-01 2.727037e-01 4.070887e-01 -2.102004e-01 -1.173576e-01 -1.883771e-01 -1.060204e-01 2.468225e-01 -4.441893e-01 -1.699991e-01 -2.466159e-01 -3.193049e-01 -3.797970e-01 2.918769e-01 -2.489865e-01 -3.561955e-02 8.132882e-01 2.672356e-01 -4.769238e-01 3.639723e-01 -9.987409e-02 2.220533e-01
<VARIANCE> 39
 4.092929e+00 2.200834e+01 2.798938e+01 2.418643e+01 3.668827e+01 3.637748e+01 3.651641e+01 5.285524e+01 5.174799e+01 3.897771e+01 4.174466e+01 3.627985e+01 1.054296e+01 2.771899e-01 1.179991e+00 1.374920e+00 1.234010e+00 1.625217e+00 1.778604e+00 1.920279e+00 2.742522e+00 2.300967e+00 2.214604e+00 1.973128e+00 1.642923e+00 6.687915e-01 9.132936e-02 2.650240e-01 3.845834e-01 3.556688e-01 3.676082e-01 3.906645e-01 4.383493e-01 8.025392e-01 4.878587e-01 5.293406e-01 5.234078e-01 3.638262e-01 1.454513e-01
<GCONST> 1.056449e+02
<STATE> 4
<MEAN> 39
 1.185836e+00 1.788865e+00 1.868990e+00 5.249002e+00 -5.769824e+00 1.104064e+00 -5.217424e+00 -1.494353e+00 -4.471537e+00 -3.561776e-02 -5.024166e+00 -5.093873e+00 5.552487e+01 -2.551775e-01 5.590487e-02 -3.760975e-01 -2.823255e-01 3.066365e-01 -3.017933e-02 1.113015e-01 5.812176e-01 1.417381e-01 -4.847938e-01 3.707265e-01 8.008599e-02 -1.562394e-01 -7.991350e-02 -1.620582e-01 2.567629e-02 -2.103131e-01 -1.299893e-03 -7.283362e-02 -7.964370e-02 1.754299e-01 4.184401e-02 -4.379369e-02 1.274889e-01 -3.784586e-02 1.659034e-01
<VARIANCE> 39
 1.311704e+01 2.699266e+01 3.582323e+01 2.265516e+01 3.681051e+01 3.177063e+01 3.747759e+01 4.851802e+01 3.596389e+01 3.589307e+01 3.632932e+01 3.607648e+01 3.155001e+01 4.981339e-01 1.542882e+00 1.726379e+00 1.784205e+00 2.054758e+00 1.953571e+00 2.194703e+00 3.768295e+00 2.318511e+00 2.767316e+00 2.490264e+00 1.997491e+00 9.908738e-01 1.169044e-01 2.071380e-01 2.609478e-01 3.352049e-01 3.562383e-01 3.826790e-01 4.085702e-01 6.270469e-01 4.390192e-01 4.710535e-01 4.430203e-01 3.606491e-01 1.136694e-01
<GCONST> 1.093305e+02
<TRANSP> 5
 0.000000e+00 1.000000e+00 0.000000e+00 0.000000e+00 0.000000e+00
 0.000000e+00 2.828981e-01 7.171019e-01 0.000000e+00 0.000000e+00
 0.000000e+00 0.000000e+00 6.082728e-01 3.917272e-01 0.000000e+00
 0.000000e+00 0.000000e+00 0.000000e+00 7.121152e-01 2.878848e-01
 0.000000e+00 0.000000e+00 0.000000e+00 0.000000e+00 0.000000e+00
<ENDHMM>
~h "o"
<BEGINHMM>
<NUMSTATES> 5
<STATE> 2
<MEAN> 39
 4.040212e+00 -2.308675e+00 -3.306949e+00 -1.272526e+01 -7.615722e+00 4.487417e+00 -8.320862e+00 -2.033180e+00 -4.122261e+00 2.638607e+00 3.239693e+00 -6.290970e+00 6.533892e+01 8.278641e-01 -8.417944e-01 -5.625219e-02 -1.685691e+00 -6.034279e-01 1.036345e+00 -5.016251e-01 1.997802e-02 -2.710946e-01 5.617366e-01 7.236965e-01 -5.531384e-01 1.201886e+00 -3.098927e-01 2.817000e-01 1.888665e-01 8.204296e-01 2.512508e-01 -2.176345e-01 2.287533e-01 5.377652e-02 -7.971081e-02 -1.569023e-01 -3.051000e-01 1.183780e-01 -5.191766e-01
<VARIANCE> 39
 1.138880e+01 3.284105e+01 2.907172e+01 7.989584e+01 5.273322e+01 7.027869e+01 6.829189e+01 4.900722e+01 6.688840e+01 4.808340e+01 4.122180e+01 4.195745e+01 3.164248e+01 2.057516e+00 2.383397e+00 2.844408e+00 7.830213e+00 4.453601e+00 5.397616e+00 4.716310e+00 4.423414e+00 4.268243e+00 4.088603e+00 3.276175e+00 2.760267e+00 2.811382e+00 3.230256e-01 3.889698e-01 4.801815e-01 1.067403e+00 7.260563e-01 9.353477e-01 9.637867e-01 7.696514e-01 7.750227e-01 7.405099e-01 6.157753e-01 5.490379e-01 3.817988e-01
<GCONST> 1.316467e+02
<STATE> 3
<MEAN> 39
 4.881119e+00 -4.901926e+00 -3.000025e+00 -1.243835e+01 -9.643106e+00 6.383882e+00 -9.140379e+00 -2.074322e+00 -3.738807e+00 2.968048e+00 5.452116e+00 -9.545609e+00 6.681537e+01 1.027604e-02 3.539964e-01 1.962447e-02 1.020297e+00 3.337760e-01 -2.734329e-01 2.590704e-01 -8.745503e-02 -1.076855e-01 -8.887516e-03 -5.460587e-01 7.687887e-02 -5.760622e-01 -1.354917e-01 2.666052e-01 1.018347e-01 5.557693e-01 1.515301e-01 -2.589386e-01 8.954116e-02 -1.182028e-01 3.536864e-02 -1.100739e-01 -3.115910e-01 1.533777e-01 -3.274288e-01
<VARIANCE> 39
 7.066601e+00 2.607116e+01 2.293437e+01 6.444559e+01 4.681289e+01 6.277699e+01 5.485701e+01 6.691214e+01 6.950990e+01 5.395200e+01 4.901543e+01 4.760141e+01 1.398034e+01 4.918512e-01 1.491147e+00 1.351795e+00 3.495777e+00 2.217003e+00 3.007603e+00 2.826162e+00 2.593587e+00 2.799529e+00 2.659217e+00 2.676937e+00 2.117100e+00 1.148251e+00 1.091520e-01 2.101321e-01 2.840173e-01 4.485512e-01 4.699261e-01 5.634425e-01 5.155194e-01 5.915943e-01 5.553118e-01 5.345303e-01 5.001536e-01 4.259451e-01 1.360006e-01
<GCONST> 1.149128e+02
<STATE> 4
<MEAN> 39
 1.908878e+00 3.484179e+00 -3.697859e+00 -1.291186e+00 -5.256730e+00 3.795948e+00 -4.457094e+00 6.371733e-02 -4.655363e+00 7.436835e-01 -6.082647e-01 -3.069865e+00 5.475262e+01 -2.134984e-01 3.549167e-01 5.791017e-02 8.670141e-01 1.684080e-01 -1.458195e-01 1.944416e-01 -7.325469e-02 9.255285e-02 -1.551271e-01 -2.694521e-01 1.934227e-01 -5.959951e-01 -2.344699e-02 -5.430747e-02 4.063352e-02 -7.667783e-02 -3.025466e-02 1.323472e-02 -9.732551e-03 -6.367357e-03 -1.732653e-02 2.258119e-03 3.380599e-02 -1.198064e-02 6.947412e-02
<VARIANCE> 39
 1.751828e+01 2.920267e+01 1.981439e+01 8.030970e+01 3.098660e+01 3.324335e+01 4.345583e+01 3.421294e+01 4.153810e+01 3.420245e+01 2.885953e+01 3.222942e+01 4.463574e+01 3.788141e-01 8.898551e-01 1.149345e+00 2.381669e+00 1.712170e+00 1.918934e+00 1.961341e+00 2.224371e+00 2.211084e+00 2.286867e+00 2.087790e+00 1.577929e+00 6.895280e-01 6.764887e-02 1.430404e-01 1.613967e-01 2.745140e-01 2.918651e-01 3.296689e-01 3.650641e-01 3.822733e-01 4.058752e-01 4.179859e-01 3.335732e-01 2.870195e-01 6.142113e-02
<GCONST> 1.034696e+02
<TRANSP> 5
 0.000000e+00 1.000000e+00 0.000000e+00 0.000000e+00 0.000000e+00
 0.000000e+00 5.997481e-01 4.002519e-01 0.000000e+00 0.000000e+00
 0.000000e+00 0.000000e+00 7.283378e-01 2.716622e-01 0.000000e+00
 0.000000e+00 0.000000e+00 0.000000e+00 8.122814e-01 1.877186e-01
 0.000000e+00 0.000000e+00 0.000000e+00 0.000000e+00 0.000000e+00
<ENDHMM>
~h "p"
<BEGINHMM>
<NUMSTATES> 5
<STATE> 2
<MEAN> 39
 -1.489812e-01 3.917869e+00 -3.734184e+00 3.633675e+00 -3.582229e+00 2.860077e+00 -4.381374e+00 5.347393e-01 -3.515231e+00 -1.075465e+00 -2.101984e+00 -3.429337e+00 5.159437e+01 -1.972414e-01 1.976151e-01 -1.660454e-01 2.041048e-01 1.009777e-01 -6.195506e-02 1.887196e-01 1.004284e-01 1.811085e-01 -5.167738e-02 1.383659e-02 2.141874e-01 -3.406907e-01 4.237324e-03 -2.257174e-01 1.359439e-01 -2.221428e-01 1.676947e-03 -1.174229e-01 -1.080037e-01 -8.872338e-02 3.482491e-02 4.052813e-02 8.876119e-02 -4.102273e-02 3.380255e-01
<VARIANCE> 39
 1.380275e+01 1.611345e+01 1.895423e+01 1.875200e+01 2.234551e+01 3.136853e+01 2.466638e+01 2.569003e+01 2.662584e+01 2.110989e+01 2.080813e+01 2.335891e+01 1.432284e+01 4.555390e-01 7.490237e-01 9.125271e-01 1.186355e+00 1.346425e+00 1.627841e+00 1.639857e+00 1.923926e+00 1.868418e+00 1.698583e+00 1.590888e+00 1.525353e+00 5.055798e-01 9.486641e-02 2.017673e-01 2.396730e-01 3.220942e-01 3.076420e-01 3.917086e-01 3.705857e-01 4.060616e-01 4.166942e-01 3.788289e-01 3.843814e-01 3.171895e-01 2.031889e-01
<GCONST> 9.736459e+01
<STATE> 3
<MEAN> 39
 -5.903816e-02 2.496706e+00 -3.181168e+00 2.048286e+00 -3.254016e+00 3.215124e-01 -4.456939e+00 -8.557320e-01 -3.310948e+00 -7.145584e-01 -1.872317e+00 -3.530636e+00 5.413815e+01 1.130202e-01 -1.410505e+00 6.071397e-01 -1.485171e+00 -2.104072e-01 -1.057772e+00 -7.125337e-01 -7.115526e-01 3.201651e-01 1.915995e-01 7.113806e-01 -6.827236e-02 2.072874e+00 3.512242e-01 -6.026903e-01 3.417596e-01 -7.281802e-01 -4.780176e-01 6.116159e-03 -5.639265e-01 -6.619621e-03 -1.741582e-01 1.879173e-01 3.918621e-01 -4.214413e-01 9.226915e-01
<VARIANCE> 39
 1.383270e+01 2.010822e+01 2.390018e+01 2.337956e+01 2.777819e+01 3.989019e+01 2.571925e+01 3.006076e+01 3.111998e+01 2.168724e+01 2.033345e+01 2.553080e+01 1.448389e+01 2.217249e+00 2.804128e+00 4.192266e+00 4.879400e+00 4.144201e+00 5.331227e+00 4.517906e+00 3.729500e+00 4.281485e+00 3.333348e+00 3.298394e+00 3.339529e+00 2.197461e+00 2.322581e-01 4.623204e-01 7.499027e-01 7.141222e-01 7.147412e-01 9.322736e-01 6.420460e-01 8.280320e-01 7.795370e-01 6.378500e-01 5.990001e-01 5.764828e-01 2.910027e-01
<GCONST> 1.224517e+02
<STATE> 4
<MEAN> 39
 2.063902e+00 -2.255944e+00 -2.259261e+00 -4.895417e+00 -5.189743e+00 -1.161956e+00 -7.603562e+00 -2.619233e+00 -3.290314e+00 6.132736e-01 1.200461e+00 -4.937656e+00 6.165724e+01 8.933589e-01 -2.149866e+00 7.529250e-01 -2.271249e+00 -1.095941e+00 -1.385395e-01 -1.466032e+00 1.573234e-02 -1.659452e-01 6.036394e-01 1.100725e+00 -1.233737e+00 2.956169e+00 -3.025541e-02 1.453062e-01 2.149368e-01 3.950698e-01 -1.180517e-01 1.568745e-01 -9.337305e-02 3.856207e-01 -1.225390e-01 -3.247089e-02 -1.838426e-01 -2.220670e-01 -2.436715e-01
<VARIANCE> 39
 2.409659e+01 3.262375e+01 3.229586e+01 6.188614e+01 3.551353e+01 7.484865e+01 4.411765e+01 3.778397e+01 4.868760e+01 3.137644e+01 3.062628e+01 2.866363e+01 2.661164e+01 2.040978e+00 4.383107e+00 7.244795e+00 7.382692e+00 5.743545e+00 7.771787e+00 5.759344e+00 5.736184e+00 5.980730e+00 4.823648e+00 5.138171e+00 4.750206e+00 3.402913e+00 3.936502e-01 4.558521e-01 5.158918e-01 1.089228e+00 7.170140e-01 9.294506e-01 7.579073e-01 8.411465e-01 8.140994e-01 6.287418e-01 7.671689e-01 5.986743e-01 4.456312e-01
<GCONST> 1.344811e+02
<TRANSP> 5
 0.000000e+00 1.000000e+00 0.000000e+00 0.000000e+00 0.000000e+00
 0.000000e+00 7.921612e-01 2.078388e-01 0.000000e+00 0.000000e+00
 0.000000e+00 0.000000e+00 5.096217e-01 4.903783e-01 0.000000e+00
 0.000000e+00 0.000000e+00 0.000000e+00 3.266061e-01 6.733939e-01
 0.000000e+00 0.000000e+00 0.000000e+00 0.000000e+00 0.000000e+00
<ENDHMM>
~h "r"
<BEGINHMM>
<NUMSTATES> 5
<STATE> 2
<MEAN> 39
 3.350409e+00 -3.458974e+00 -1.245491e+00 3.770644e+00 -5.745293e+00 -3.703346e+00 -1.027910e+01 -1.929126e+00 3.466945e-01 1.676452e+00 -9.012851e-01 -6.715183e+00 6.157149e+01 6.016889e-02 3.532628e-01 6.631763e-02 1.057022e+00 1.686635e-01 -3.195453e-01 1.025300e-01 -2.202303e-01 -1.553160e-01 -5.024376e-01 -4.790193e-01 7.549447e-01 -7.460458e-01 -1.083580e-01 -2.183495e-01 1.303172e-01 -6.507112e-01 -2.181962e-01 2.800696e-02 8.733844e-02 2.762467e-01 -2.449412e-01 -2.677054e-02 3.034015e-01 -2.438834e-01 4.489073e-01
<VARIANCE> 39
 1.192120e+01 2.373781e+01 3.905989e+01 3.360599e+01 3.427576e+01 4.626254e+01 5.695089e+01 5.812711e+01 4.802914e+01 3.880655e+01 3.844650e+01 4.216958e+01 2.129782e+01 1.207802e+00 1.564045e+00 2.201687e+00 2.051548e+00 2.913328e+00 3.217563e+00 3.393623e+00 3.807164e+00 3.301566e+00 3.062477e+00 3.414975e+00 3.023298e+00 1.244999e+00 1.817046e-01 3.364214e-01 3.928161e-01 5.070184e-01 6.855813e-01 6.077901e-01 6.509443e-01 7.747229e-01 7.566190e-01 6.921737e-01 6.761841e-01 5.479311e-01 3.088267e-01
<GCONST> 1.209808e+02
<STATE> 3
<MEAN> 39
 2.880601e+00 -3.939272e+00 -7.464669e-01 3.923259e+00 -6.127252e+00 -5.307140e+00 -9.900633e+00 -1.544634e+00 -2.004938e-01 9.041508e-02 -7.333041e-01 -5.482245e+00 6.190938e+01 -1.766736e-03 -4.099404e-01 2.473690e-01 -1.928295e-01 -6.073533e-01 -3.339068e-01 1.804287e-01 4.605608e-01 -3.766699e-01 -4.368098e-01 3.054510e-01 -1.349696e-01 4.439436e-01 -7.334585e-02 -2.556121e-01 1.629776e-01 -7.334182e-01 -2.545432e-01 2.366677e-01 2.462757e-02 3.325672e-01 -2.517219e-01 1.778409e-01 3.837700e-01 -5.153035e-01 5.180824e-01
<VARIANCE> 39
 1.659769e+01 2.591854e+01 4.209306e+01 3.475040e+01 3.312365e+01 5.223006e+01 6.395713e+01 5.791128e+01 4.770203e+01 3.937094e+01 3.467403e+01 3.921766e+01 2.155316e+01 1.390649e+00 2.316841e+00 2.998665e+00 2.111064e+00 3.761585e+00 3.896589e+00 3.689995e+00 4.334150e+00 4.109243e+00 3.215240e+00 3.418433e+00 2.935721e+00 1.560268e+00 2.354360e-01 3.678751e-01 4.720484e-01 5.083190e-01 7.642066e-01 6.843005e-01 7.471596e-01 8.313249e-01 7.631011e-01 7.506261e-01 7.623235e-01 6.158956e-01 2.893816e-01
<GCONST> 1.247793e+02
<STATE> 4
<MEAN> 39
 2.396593e+00 -4.699412e+00 -1.140712e+00 2.395439e+00 -7.536510e+00 -4.477516e+00 -8.328540e+00 -1.220748e+00 3.260917e-01 -3.051656e-01 4.106500e-01 -6.945530e+00 6.379511e+01 -7.448928e-02 -2.058604e-01 4.173451e-01 -7.718102e-01 -5.133361e-01 3.440641e-01 1.527204e-01 5.512577e-01 -6.163695e-01 -6.797063e-02 5.200192e-01 -5.761871e-01 5.162083e-01 -6.840341e-02 7.763326e-02 1.328349e-01 -2.497987e-01 1.071457e-01 2.240182e-01 -3.429139e-02 6.844916e-02 -2.225166e-01 1.573558e-01 3.116111e-02 -1.405347e-01 -7.529050e-03
<VARIANCE> 39
 3.110924e+01 3.903224e+01 5.548922e+01 4.299014e+01 5.206930e+01 6.221724e+01 7.865289e+01 7.352473e+01 6.326721e+01 4.775055e+01 4.859148e+01 4.587337e+01 2.921836e+01 1.651286e+00 3.374589e+00 3.611268e+00 2.866987e+00 4.702491e+00 4.222657e+00 3.956019e+00 5.311436e+00 4.787788e+00 3.754657e+00 4.006726e+00 3.429072e+00 2.619055e+00 2.942551e-01 2.948996e-01 4.598851e-01 4.722801e-01 6.366460e-01 6.233948e-01 7.331510e-01 6.740774e-01 7.159122e-01 6.069633e-01 6.707489e-01 5.085865e-01 2.525694e-01
<GCONST> 1.300752e+02
<TRANSP> 5
 0.000000e+00 1.000000e+00 0.000000e+00 0.000000e+00 0.000000e+00
 0.000000e+00 2.875755e-01 7.124245e-01 0.000000e+00 0.000000e+00
 0.000000e+00 0.000000e+00 8.820949e-02 9.117905e-01 0.000000e+00
 0.000000e+00 0.000000e+00 0.000000e+00 3.978998e-01 6.021003e-01
 0.000000e+00 0.000000e+00 0.000000e+00 0.000000e+00 0.000000e+00
<ENDHMM>
~h "s"
<BEGINHMM>
<NUMSTATES> 5
<STATE> 2
<MEAN> 39
 -6.811417e+00 4.864665e+00 2.088435e+00 -9.116316e-01 1.934235e+00 -7.653237e+00 -1.853966e+00 -3.681528e-01 -1.493399e+00 -1.675762e+00 -1.608719e+00 -3.457761e+00 6.289408e+01 -3.559770e+00 2.525620e+00 -8.565909e-01 -6.751086e-01 2.104467e+00 -1.084134e+00 1.510246e+00 -3.289362e-01 6.122769e-01 -1.095472e+00 2.643089e-01 5.079349e-01 9.470699e-03 -2.888681e-02 -3.604213e-01 -7.570593e-02 -2.129864e-01 -5.194612e-01 2.213211e-01 -5.237617e-01 1.193261e-01 -1.921169e-01 -2.361262e-02 1.294346e-01 -2.965209e-01 1.556689e-01
<VARIANCE> 39
 3.637485e+01 3.261342e+01 4.168403e+01 2.564040e+01 4.401971e+01 5.725152e+01 5.222675e+01 4.995387e+01 4.688312e+01 3.451083e+01 3.231562e+01 2.990620e+01 2.123462e+01 1.626254e+00 2.455987e+00 3.106186e+00 2.714869e+00 3.438701e+00 3.574540e+00 4.589942e+00 4.175436e+00 3.642884e+00 3.443803e+00 2.747115e+00 2.750824e+00 1.007547e+00 7.107863e-01 5.013508e-01 3.748273e-01 4.697762e-01 5.886624e-01 5.857357e-01 7.029497e-01 6.359347e-01 5.635229e-01 5.858860e-01 4.736131e-01 4.898190e-01 1.073012e-01
<GCONST> 1.228454e+02
<STATE> 3
<MEAN> 39
 -1.629098e+01 8.717204e+00 6.220996e-02 -2.701190e+00 3.588616e+00 -8.924982e+00 -1.933107e+00 -2.529546e-01 -9.826395e-01 -4.869418e+00 -4.797646e-01 -2.854504e+00 6.317070e+01 -9.264764e-02 -3.703862e-01 7.051867e-02 5.544983e-02 -1.275912e-01 9.133607e-02 -1.623702e-01 1.293777e-01 2.923762e-02 -8.812314e-02 -3.094622e-02 3.878824e-02 -2.192833e-01 9.934182e-01 -5.635399e-01 2.667919e-01 1.667447e-01 -4.315155e-01 1.067844e-01 -2.867976e-01 -3.656832e-02 -7.520977e-02 2.551828e-01 -5.778002e-02 -8.992500e-02 -3.353710e-02
<VARIANCE> 39
 1.359500e+01 2.727920e+01 2.848877e+01 2.907843e+01 3.422002e+01 3.750739e+01 3.799914e+01 3.330759e+01 3.244522e+01 2.482095e+01 2.528648e+01 2.331335e+01 1.018957e+01 2.858518e+00 1.700506e+00 1.784251e+00 1.474697e+00 1.790536e+00 2.143049e+00 2.230217e+00 2.192877e+00 2.124663e+00 1.999116e+00 1.767294e+00 1.673384e+00 5.293521e-01 4.103491e-01 3.965628e-01 3.574618e-01 3.619162e-01 4.519746e-01 5.174662e-01 5.544696e-01 5.408898e-01 5.028359e-01 4.961507e-01 3.904287e-01 3.882699e-01 1.116169e-01
<GCONST> 1.093948e+02
<STATE> 4
<MEAN> 39
 -7.809841e+00 3.798044e+00 9.189335e-01 -1.378179e+00 1.101614e+00 -7.806520e+00 -3.646525e+00 -4.591947e-01 -9.021322e-01 -2.740649e+00 -1.869718e+00 -3.441422e+00 6.125935e+01 3.325408e+00 -1.849778e+00 4.009936e-01 2.281378e-02 -1.955370e+00 4.488814e-01 -1.507383e+00 -3.812390e-01 -2.944194e-01 9.072273e-01 -5.412906e-03 -6.889097e-01 4.895036e-01 3.412972e-02 -9.604090e-02 6.183694e-02 -2.031275e-01 -2.776476e-01 2.415588e-01 -1.531824e-01 -1.187469e-02 -1.350401e-01 2.282824e-02 2.476859e-01 -1.907329e-01 2.822131e-01
<VARIANCE> 39
 3.561526e+01 2.743571e+01 3.568398e+01 2.413040e+01 3.719331e+01 4.518079e+01 4.604436e+01 3.170704e+01 3.496686e+01 2.953703e+01 2.565752e+01 2.388080e+01 2.951121e+01 2.600142e+00 3.526834e+00 4.467944e+00 2.934671e+00 3.693681e+00 3.909842e+00 4.318767e+00 4.370984e+00 4.317389e+00 3.334800e+00 2.980858e+00 2.891124e+00 2.345830e+00 6.552032e-01 3.873739e-01 3.571927e-01 3.391399e-01 4.816142e-01 4.996074e-01 6.643873e-01 6.192982e-01 5.637075e-01 4.932679e-01 4.314379e-01 4.240460e-01 2.065551e-01
<GCONST> 1.224965e+02
<TRANSP> 5
 0.000000e+00 1.000000e+00 0.000000e+00 0.000000e+00 0.000000e+00
 0.000000e+00 6.254233e-01 3.745767e-01 0.000000e+00 0.000000e+00
 0.000000e+00 0.000000e+00 7.935238e-01 2.064762e-01 0.000000e+00
 0.000000e+00 0.000000e+00 0.000000e+00 5.844226e-01 4.155774e-01
 0.000000e+00 0.000000e+00 0.000000e+00 0.000000e+00 0.000000e+00
<ENDHMM>
~h "t"
<BEGINHMM>
<NUMSTATES> 5
<STATE> 2
<MEAN> 39
 2.084711e-01 3.074127e+00 -2.704407e+00 2.975768e+00 -5.217870e+00 5.135496e-01 -5.301233e+00 1.135462e+00 -3.346656e+00 -3.419431e-02 -1.874988e+00 -3.770649e+00 5.271234e+01 -2.074115e-01 2.970762e-01 -3.829378e-01 1.838190e-01 1.204445e-01 2.293227e-01 3.323211e-01 3.303419e-02 1.289826e-01 -1.749770e-01 -3.805385e-02 3.360170e-01 -5.493379e-01 -1.820833e-01 -2.184671e-01 2.124856e-01 -3.090287e-01 1.794486e-01 -3.423434e-01 -4.661147e-02 -8.072124e-02 1.596001e-01 -2.148012e-02 8.652323e-02 -5.302078e-02 4.761512e-01
<VARIANCE> 39
 9.095156e+00 1.610676e+01 2.851835e+01 1.923907e+01 2.633777e+01 3.166912e+01 2.766889e+01 3.051115e+01 3.238977e+01 2.475895e+01 2.815001e+01 2.867183e+01 1.342204e+01 4.587429e-01 6.133100e-01 1.139037e+00 1.161847e+00 1.562769e+00 1.855165e+00 2.001623e+00 2.027355e+00 1.948619e+00 2.017425e+00 1.652818e+00 1.606990e+00 6.094671e-01 1.382944e-01 1.870637e-01 2.540894e-01 3.423351e-01 3.721361e-01 5.083143e-01 4.254956e-01 4.537756e-01 4.824167e-01 4.381709e-01 3.753963e-01 3.545558e-01 2.712061e-01
<GCONST> 1.014594e+02
<STATE> 3
<MEAN> 39
 -4.023898e-01 3.402943e+00 -1.979035e+00 2.492201e+00 -4.256475e+00 -9.652052e-01 -5.188393e+00 -1.720931e-01 -3.917125e+00 -3.328668e-01 -1.867944e+00 -3.439665e+00 5.346679e+01 -1.492473e+00 -8.804430e-01 4.720167e-01 -1.484524e+00 1.490794e+00 -1.817195e+00 3.891700e-01 -5.684562e-01 1.275023e+00 -4.855188e-01 2.171122e-01 1.134466e-01 1.829210e+00 1.028649e-01 -5.385503e-01 4.403880e-01 -6.750935e-01 -1.054189e-01 -3.824542e-01 -6.197529e-01 -1.325207e-01 1.956622e-01 1.655170e-01 2.023727e-01 -5.001708e-01 1.094892e+00
<VARIANCE> 39
 1.150025e+01 1.721140e+01 2.877734e+01 2.213033e+01 3.053949e+01 4.014704e+01 3.150294e+01 3.334500e+01 3.709972e+01 2.541401e+01 2.838102e+01 2.631806e+01 1.588690e+01 1.588365e+00 2.201459e+00 3.136815e+00 3.010944e+00 3.703846e+00 4.239733e+00 4.293291e+00 4.025764e+00 4.427100e+00 3.571742e+00 3.166287e+00 2.839267e+00 1.857591e+00 2.599529e-01 3.241088e-01 5.392697e-01 4.492144e-01 5.959871e-01 7.247738e-01 6.562957e-01 8.250409e-01 8.477764e-01 6.252674e-01 5.483112e-01 5.168998e-01 2.522173e-01
<GCONST> 1.197801e+02
<STATE> 4
<MEAN> 39
 -5.254302e+00 2.418632e-01 2.729249e-01 -2.585492e+00 2.897375e-01 -7.289022e+00 -4.430211e+00 -2.759534e+00 3.045329e-01 -1.494643e+00 -9.874704e-01 -4.152981e+00 6.079320e+01 4.241154e-01 -1.414253e+00 8.535832e-01 -2.035471e+00 -2.858880e-01 -7.985733e-01 -1.859819e+00 -4.376415e-01 6.952453e-01 4.019535e-01 7.107053e-01 -1.341612e+00 2.872551e+00 8.240620e-01 -9.453681e-02 4.947096e-02 6.496507e-02 -8.419017e-01 8.250974e-01 -6.418052e-01 2.368817e-01 -5.538672e-01 3.057418e-01 1.699876e-01 -3.169651e-01 -7.670794e-02
<VARIANCE> 39
 2.065014e+01 2.291783e+01 2.977883e+01 2.870580e+01 3.094843e+01 5.031334e+01 5.106087e+01 3.926118e+01 4.186675e+01 3.380415e+01 2.655841e+01 2.857285e+01 1.951026e+01 2.831017e+00 3.469542e+00 5.569859e+00 4.268098e+00 4.695357e+00 5.818024e+00 5.907057e+00 6.349717e+00 6.790199e+00 4.276911e+00 4.529869e+00 4.104311e+00 3.071565e+00 3.943517e-01 4.824346e-01 5.694782e-01 6.020093e-01 6.986859e-01 1.027283e+00 9.848907e-01 9.287093e-01 8.523767e-01 8.055761e-01 7.146330e-01 6.381245e-01 4.125580e-01
<GCONST> 1.310011e+02
<TRANSP> 5
 0.000000e+00 1.000000e+00 0.000000e+00 0.000000e+00 0.000000e+00
 0.000000e+00 7.227237e-01 2.772763e-01 0.000000e+00 0.000000e+00
 0.000000e+00 0.000000e+00 3.748455e-01 6.251545e-01 0.000000e+00
 0.000000e+00 0.000000e+00 0.000000e+00 4.669620e-01 5.330380e-01
 0.000000e+00 0.000000e+00 0.000000e+00 0.000000e+00 0.000000e+00
<ENDHMM>
~h "u"
<BEGINHMM>
<NUMSTATES> 5
<STATE> 2
<MEAN> 39
 4.082877e+00 5.193242e-01 2.343495e+00 -7.645340e+00 -8.750236e+00 1.042097e+00 -1.694722e+01 -6.986794e+00 -6.457999e+00 1.947120e+00 5.375401e+00 -7.159280e+00 6.432407e+01 6.819290e-01 -2.840108e-01 3.572681e-01 -7.287672e-01 -8.311733e-01 1.009359e+00 -1.291924e+00 -6.349701e-01 -5.041988e-01 5.713565e-01 1.143507e+00 -4.086081e-01 5.737698e-01 -3.253706e-01 1.779500e-01 -1.314194e-01 6.604320e-01 3.504685e-01 1.428278e-02 9.295279e-01 3.845649e-01 7.523674e-02 -3.107756e-01 -5.783347e-01 2.569726e-01 -5.527891e-01
<VARIANCE> 39
 1.128900e+01 2.821278e+01 3.719755e+01 7.028275e+01 6.314178e+01 6.338000e+01 7.762929e+01 5.916167e+01 6.497141e+01 5.378007e+01 5.981832e+01 4.630395e+01 1.573601e+01 2.129987e+00 2.578333e+00 3.188296e+00 5.913158e+00 4.937189e+00 5.958421e+00 5.955542e+00 5.156936e+00 5.975419e+00 4.682124e+00 4.697591e+00 3.730810e+00 1.642843e+00 2.692603e-01 4.452042e-01 4.314831e-01 9.194971e-01 8.323956e-01 9.825646e-01 1.089300e+00 1.040497e+00 9.946327e-01 8.570485e-01 9.050615e-01 7.796628e-01 2.930477e-01
<GCONST> 1.341581e+02
<STATE> 3
<MEAN> 39
 4.552969e+00 6.314405e-01 2.698786e+00 -8.303116e+00 -1.048417e+01 4.201134e+00 -1.683233e+01 -7.062788e+00 -7.636358e+00 6.782714e-01 7.369129e+00 -7.524203e+00 6.390893e+01 3.668415e-03 4.533994e-01 -1.600148e-01 6.930696e-01 3.328696e-01 1.551187e-01 1.008716e+00 3.683340e-01 -1.508321e-01 -2.871300e-01 -8.502157e-01 4.386540e-01 -7.205924e-01 -2.074210e-01 1.359909e-01 -7.197104e-02 4.601786e-01 2.947645e-01 -2.902955e-01 4.934939e-01 1.995350e-01 2.042036e-01 -1.383113e-01 -5.158389e-01 1.096342e-01 -2.866333e-01
<VARIANCE> 39
 8.792852e+00 2.797927e+01 3.711569e+01 7.571291e+01 5.255418e+01 6.384048e+01 6.069075e+01 5.944012e+01 6.040106e+01 5.656934e+01 6.162257e+01 4.706178e+01 1.322762e+01 7.067724e-01 1.856837e+00 1.718623e+00 4.007947e+00 2.763653e+00 3.323131e+00 3.302440e+00 3.134762e+00 3.715194e+00 3.031507e+00 3.118392e+00 2.840557e+00 1.396157e+00 1.890047e-01 3.025241e-01 3.368056e-01 5.643812e-01 5.397747e-01 6.641440e-01 7.092078e-01 6.909729e-01 7.104943e-01 6.622456e-01 6.443673e-01 5.824378e-01 1.517545e-01
<GCONST> 1.219363e+02
<STATE> 4
<MEAN> 39
 2.902905e+00 5.071573e+00 -7.427083e-01 -1.727085e+00 -6.611964e+00 2.370602e+00 -8.897648e+00 -3.282558e+00 -6.574124e+00 -6.048154e-01 5.055254e-01 -2.511474e+00 5.598553e+01 -2.631172e-01 1.968436e-01 -1.000961e-01 7.889945e-01 3.102455e-01 -6.499982e-02 6.509966e-01 2.428974e-01 2.082158e-01 -1.141691e-01 -4.953929e-01 1.746881e-01 -5.739850e-01 -6.526159e-02 -7.808781e-02 2.728754e-02 -6.143014e-02 1.209161e-02 -1.807483e-02 -5.272897e-02 -1.121025e-02 2.681245e-02 1.340731e-02 6.078228e-02 -6.618583e-02 8.704858e-02
<VARIANCE> 39
 1.742124e+01 2.778241e+01 2.465646e+01 6.397665e+01 4.295605e+01 4.108639e+01 4.849160e+01 4.210964e+01 3.805233e+01 3.734070e+01 3.764162e+01 3.326337e+01 3.552050e+01 6.133177e-01 1.169053e+00 1.231536e+00 2.077541e+00 2.058103e+00 2.355946e+00 2.490247e+00 2.433039e+00 2.348622e+00 2.361915e+00 2.397005e+00 2.051897e+00 7.978633e-01 1.040832e-01 1.753552e-01 1.881982e-01 3.295847e-01 3.423153e-01 3.934266e-01 4.106051e-01 4.103396e-01 4.147611e-01 4.245980e-01 3.774314e-01 3.527055e-01 9.276117e-02
<GCONST> 1.086493e+02
<TRANSP> 5
 0.000000e+00 1.000000e+00 0.000000e+00 0.000000e+00 0.000000e+00
 0.000000e+00 4.277355e-01 5.722645e-01 0.000000e+00 0.000000e+00
 0.000000e+00 0.000000e+00 5.400404e-01 4.599597e-01 0.000000e+00
 0.000000e+00 0.000000e+00 0.000000e+00 7.674520e-01 2.325480e-01
 0.000000e+00 0.000000e+00 0.000000e+00 0.000000e+00 0.000000e+00
<ENDHMM>
~h "v"
<BEGINHMM>
<NUMSTATES> 5
<STATE> 2
<MEAN> 39
 7.903662e-04 -6.079456e-01 1.670089e+00 -6.705837e-01 -5.929818e+00 -8.820225e-01 -6.906881e+00 5.931143e-01 -4.574426e+00 -3.940755e-01 -3.854154e-01 -5.847453e+00 5.993814e+01 5.024984e-04 -6.478592e-05 9.522401e-04 -6.048587e-04 -1.305029e-03 -9.148303e-04 -9.999124e-04 -6.995694e-04 3.150678e-04 8.832195e-04 -1.229102e-04 -1.829845e-05 4.304752e-04 -1.024714e-04 5.090495e-05 -4.314321e-05 5.499199e-04 2.475645e-04 2.544455e-04 -3.161734e-04 -1.009587e-04 -7.179174e-05 -5.594532e-04 -1.336834e-04 -6.698545e-06 -3.952787e-04
<VARIANCE> 39
 2.681136e+01 5.325134e+01 6.824250e+01 5.887592e+01 6.062508e+01 6.608533e+01 5.928268e+01 6.068991e+01 5.916120e+01 4.597362e+01 4.705821e+01 4.804106e+01 6.619385e+01 1.372020e+00 2.288023e+00 2.566274e+00 2.987463e+00 3.078158e+00 3.116328e+00 3.250192e+00 3.738113e+00 3.266875e+00 2.829993e+00 2.967949e+00 2.476121e+00 2.021681e+00 2.264445e-01 3.584008e-01 4.122588e-01 5.086471e-01 5.519696e-01 5.562619e-01 5.942494e-01 6.847889e-01 5.904057e-01 5.307208e-01 5.528100e-01 4.553457e-01 3.018115e-01
<GCONST> 1.265182e+02
<STATE> 3
<MEAN> 39
 7.903662e-04 -6.079456e-01 1.670089e+00 -6.705837e-01 -5.929818e+00 -8.820225e-01 -6.906881e+00 5.931143e-01 -4.574426e+00 -3.940755e-01 -3.854154e-01 -5.847453e+00 5.993814e+01 5.024984e-04 -6.478592e-05 9.522401e-04 -6.048587e-04 -1.305029e-03 -9.148303e-04 -9.999124e-04 -6.995694e-04 3.150678e-04 8.832195e-04 -1.229102e-04 -1.829845e-05 4.304752e-04 -1.024714e-04 5.090495e-05 -4.314321e-05 5.499199e-04 2.475645e-04 2.544455e-04 -3.161734e-04 -1.009587e-04 -7.179174e-05 -5.594532e-04 -1.336834e-04 -6.698545e-06 -3.952787e-04
<VARIANCE> 39
 2.681136e+01 5.325134e+01 6.824250e+01 5.887592e+01 6.062508e+01 6.608533e+01 5.928268e+01 6.068991e+01 5.916120e+01 4.597362e+01 4.705821e+01 4.804106e+01 6.619385e+01 1.372020e+00 2.288023e+00 2.566274e+00 2.987463e+00 3.078158e+00 3.116328e+00 3.250192e+00 3.738113e+00 3.266875e+00 2.829993e+00 2.967949e+00 2.476121e+00 2.021681e+00 2.264445e-01 3.584008e-01 4.122588e-01 5.086471e-01 5.519696e-01 5.562619e-01 5.942494e-01 6.847889e-01 5.904057e-01 5.307208e-01 5.528100e-01 4.553457e-01 3.018115e-01
<GCONST> 1.265182e+02
<STATE> 4
<MEAN> 39
 7.903662e-04 -6.079456e-01 1.670089e+00 -6.705837e-01 -5.929818e+00 -8.820225e-01 -6.906881e+00 5.931143e-01 -4.574426e+00 -3.940755e-01 -3.854154e-01 -5.847453e+00 5.993814e+01 5.024984e-04 -6.478592e-05 9.522401e-04 -6.048587e-04 -1.305029e-03 -9.148303e-04 -9.999124e-04 -6.995694e-04 3.150678e-04 8.832195e-04 -1.229102e-04 -1.829845e-05 4.304752e-04 -1.024714e-04 5.090495e-05 -4.314321e-05 5.499199e-04 2.475645e-04 2.544455e-04 -3.161734e-04 -1.009587e-04 -7.179174e-05 -5.594532e-04 -1.336834e-04 -6.698545e-06 -3.952787e-04
<VARIANCE> 39
 2.681136e+01 5.325134e+01 6.824250e+01 5.887592e+01 6.062508e+01 6.608533e+01 5.928268e+01 6.068991e+01 5.916120e+01 4.597362e+01 4.705821e+01 4.804106e+01 6.619385e+01 1.372020e+00 2.288023e+00 2.566274e+00 2.987463e+00 3.078158e+00 3.116328e+00 3.250192e+00 3.738113e+00 3.266875e+00 2.829993e+00 2.967949e+00 2.476121e+00 2.021681e+00 2.264445e-01 3.584008e-01 4.122588e-01 5.086471e-01 5.519696e-01 5.562619e-01 5.942494e-01 6.847889e-01 5.904057e-01 5.307208e-01 5.528100e-01 4.553457e-01 3.018115e-01
<GCONST> 1.265182e+02
<TRANSP> 5
 0.000000e+00 1.000000e+00 0.000000e+00 0.000000e+00 0.000000e+00
 0.000000e+00 6.000000e-01 4.000000e-01 0.000000e+00 0.000000e+00
 0.000000e+00 0.000000e+00 6.000000e-01 4.000000e-01 0.000000e+00
 0.000000e+00 0.000000e+00 0.000000e+00 7.000000e-01 3.000000e-01
 0.000000e+00 0.000000e+00 0.000000e+00 0.000000e+00 0.000000e+00
<ENDHMM>
~h "w"
<BEGINHMM>
<NUMSTATES> 5
<STATE> 2
<MEAN> 39
 -1.913561e+00 3.201690e+00 -2.836963e+00 4.704408e+00 -3.737965e+00 3.487417e+00 -3.409935e+00 1.097679e+00 -3.122147e+00 -1.157846e+00 -1.572430e+00 -1.214181e+00 5.069706e+01 3.342367e-02 1.098692e-01 -5.248156e-02 -2.217899e-02 -4.226725e-02 5.031861e-02 3.024790e-02 2.241486e-02 -1.128421e-01 3.375133e-02 1.385005e-01 1.170710e-01 -1.053690e-01 2.921596e-02 -1.524227e-02 1.753152e-02 -5.923360e-02 -2.686573e-02 -1.165899e-02 -2.795663e-02 -6.619140e-03 1.005624e-03 1.430388e-02 1.395454e-02 -3.519616e-02 5.310076e-02
<VARIANCE> 39
 1.052577e+01 3.482977e+01 1.635678e+01 2.947119e+01 1.817332e+01 1.889698e+01 2.334429e+01 2.654841e+01 1.873898e+01 2.450239e+01 2.467660e+01 2.060016e+01 3.281243e+01 2.687494e-01 5.892970e-01 8.439063e-01 9.167091e-01 1.042122e+00 1.190880e+00 1.478691e+00 1.561875e+00 1.786744e+00 1.599547e+00 1.477884e+00 1.429930e+00 2.278835e-01 5.192247e-02 1.130754e-01 1.388161e-01 2.007846e-01 2.097552e-01 2.461827e-01 2.996953e-01 3.128161e-01 3.486386e-01 3.068895e-01 2.802014e-01 2.758984e-01 4.418196e-02
<GCONST> 8.918929e+01
<STATE> 3
<MEAN> 39
 4.794405e+00 1.984418e+00 -2.773300e+00 -6.000463e+00 -9.485613e+00 4.993229e+00 -7.047439e+00 -2.456156e+00 -8.123439e+00 5.031961e-01 4.085254e+00 -3.884635e+00 5.867764e+01 8.060418e-01 -8.279104e-01 -1.551049e-01 -2.529084e+00 -4.078565e-01 9.087617e-01 -9.269806e-01 -2.146395e-01 -1.095908e-01 6.095718e-01 1.261354e+00 -8.508195e-01 1.745031e+00 -1.846473e-01 -4.597207e-01 -4.708975e-02 -9.761323e-02 2.492715e-01 9.647816e-02 -2.360540e-02 1.765975e-01 3.908286e-01 1.756342e-01 -2.347926e-02 -4.118245e-01 2.880637e-01
<VARIANCE> 39
 1.981193e+01 3.474840e+01 2.341632e+01 9.328967e+01 5.634365e+01 4.336804e+01 4.975462e+01 2.924458e+01 3.371317e+01 3.901917e+01 4.422263e+01 3.817094e+01 4.314482e+01 1.572248e+00 3.318485e+00 1.614297e+00 4.722002e+00 3.016227e+00 3.144846e+00 3.714680e+00 2.984989e+00 3.680006e+00 3.038181e+00 3.649221e+00 4.287801e+00 2.494877e+00 3.244458e-01 3.361091e-01 2.770086e-01 1.184956e+00 4.916694e-01 6.003256e-01 5.795236e-01 4.901470e-01 5.831310e-01 5.164326e-01 7.621695e-01 6.070690e-01 3.077549e-01
<GCONST> 1.248220e+02
<STATE> 4
<MEAN> 39
 5.482236e+00 -3.774477e+00 -3.778044e+00 -1.630130e+01 -7.526312e+00 1.171299e+01 -1.310603e+01 -2.194134e+00 -3.294398e+00 4.545359e+00 7.721541e+00 -1.042867e+01 6.616891e+01 -2.938785e-01 -8.682736e-01 -1.760418e-01 -8.392156e-02 5.774773e-01 -5.168752e-02 1.861953e-01 2.466927e-01 6.711250e-01 4.157198e-02 -3.574904e-01 -9.113176e-01 5.884877e-01 -9.237368e-02 7.655888e-02 6.273531e-02 3.565725e-01 1.345360e-01 -2.974031e-01 1.493480e-01 2.711881e-02 1.683537e-02 -1.801558e-01 -2.847472e-01 6.071170e-02 -1.266733e-01
<VARIANCE> 39
 5.164773e+00 3.005446e+01 1.655211e+01 5.076729e+01 7.774611e+01 6.012407e+01 3.409996e+01 3.306424e+01 4.084379e+01 6.583714e+01 5.766911e+01 6.085154e+01 1.732479e+01 4.946340e-01 2.297355e+00 7.212722e-01 1.847677e+00 1.924622e+00 1.802170e+00 1.675877e+00 2.094942e+00 2.416811e+00 2.148391e+00 2.313239e+00 4.129869e+00 1.364364e+00 6.479285e-02 2.797088e-01 1.382735e-01 3.681866e-01 2.767219e-01 3.152968e-01 2.672494e-01 3.400814e-01 3.454468e-01 3.614615e-01 4.663175e-01 6.460950e-01 1.824184e-01
<GCONST> 1.081680e+02
<TRANSP> 5
 0.000000e+00 1.000000e+00 0.000000e+00 0.000000e+00 0.000000e+00
 0.000000e+00 8.858328e-01 1.141672e-01 0.000000e+00 0.000000e+00
 0.000000e+00 0.000000e+00 7.296427e-01 2.703573e-01 0.000000e+00
 0.000000e+00 0.000000e+00 0.000000e+00 8.085809e-01 1.914191e-01
 0.000000e+00 0.000000e+00 0.000000e+00 0.000000e+00 0.000000e+00
<ENDHMM>
~h "y"
<BEGINHMM>
<NUMSTATES> 5
<STATE> 2
<MEAN> 39
 -2.762703e+00 -1.894540e+00 1.805590e+01 -5.746664e+00 -1.592508e+01 -7.627173e+00 -1.213128e+01 2.069512e+00 -9.382872e+00 -3.042034e+00 6.636106e+00 -6.052800e+00 6.716073e+01 -4.957538e-02 -7.811592e-01 4.768587e-01 -4.387261e-01 -9.330410e-01 -8.418605e-01 -1.238719e-01 9.802800e-01 6.714661e-02 2.072089e-01 7.731361e-01 2.272819e-01 7.421387e-01 1.408138e-01 -2.020036e-01 -6.880892e-01 9.653544e-02 3.510284e-01 8.411168e-02 2.157642e-01 2.292317e-01 3.593059e-01 9.352316e-02 -3.779859e-01 -1.649496e-01 -3.519855e-02
<VARIANCE> 39
 8.701933e+00 4.498861e+01 5.054480e+01 3.357747e+01 4.451632e+01 4.686407e+01 5.418459e+01 6.333872e+01 5.784360e+01 6.925529e+01 4.754615e+01 3.711697e+01 2.101412e+01 6.597427e-01 2.153136e+00 4.590930e+00 1.795384e+00 2.354757e+00 2.971491e+00 3.095682e+00 4.819746e+00 2.930469e+00 2.650579e+00 2.475036e+00 2.336047e+00 1.246130e+00 7.615505e-02 1.950019e-01 5.051455e-01 2.863814e-01 4.965511e-01 5.045400e-01 4.375805e-01 6.343081e-01 4.809000e-01 4.337932e-01 4.719046e-01 3.735065e-01 1.022965e-01
<GCONST> 1.164257e+02
<STATE> 3
<MEAN> 39
 -1.409762e+00 -9.026923e+00 1.168067e+01 -6.729874e+00 -1.661038e+01 -1.107413e+01 -8.771046e+00 1.163402e+01 -3.755366e+00 -2.722170e+00 5.855447e+00 -7.290225e+00 7.073384e+01 3.509044e-01 -8.772746e-01 -1.699892e+00 1.315758e-02 1.161970e+00 3.793756e-01 7.309263e-01 1.193583e+00 9.928570e-01 -2.777464e-01 -1.504541e+00 -9.017805e-01 2.625657e-01 6.872469e-02 2.139581e-01 -1.756232e-01 1.872026e-01 4.082939e-01 3.845656e-01 -9.400691e-02 -5.746703e-01 -1.045583e-01 5.715455e-02 -3.303130e-01 -1.437644e-01 -2.259645e-01
<VARIANCE> 39
 5.044116e+00 1.947481e+01 2.432383e+01 2.301715e+01 3.920816e+01 3.893315e+01 5.213000e+01 5.133827e+01 4.480021e+01 5.922793e+01 4.572206e+01 3.538713e+01 1.222497e+01 2.749016e-01 1.013740e+00 2.283514e+00 1.116228e+00 1.751256e+00 1.724020e+00 1.701707e+00 3.124082e+00 2.591091e+00 1.721787e+00 2.261170e+00 1.688972e+00 4.211542e-01 5.829778e-02 1.485539e-01 3.174643e-01 1.806422e-01 3.096807e-01 3.404347e-01 3.145089e-01 6.296697e-01 3.344924e-01 3.753350e-01 3.874115e-01 3.214389e-01 8.512978e-02
<GCONST> 1.018971e+02
<STATE> 4
<MEAN> 39
 -3.734643e-01 -6.257640e+00 3.149501e+00 -2.952634e+00 -8.634148e+00 -4.027105e+00 -4.937111e+00 7.504414e+00 -1.618512e+00 -3.715170e+00 -1.920913e+00 -7.852394e+00 6.454917e+01 2.232435e-01 -2.052890e-02 -7.362558e-01 1.995606e-01 8.238517e-01 5.638019e-01 -3.272783e-02 -3.891769e-01 1.139272e-01 2.496923e-01 -6.760001e-01 -2.550788e-01 -2.763202e-01 5.919220e-03 1.772017e-01 1.218585e-01 6.084542e-02 -5.851818e-02 5.325422e-02 -7.666171e-02 -2.704924e-01 -1.741392e-01 1.637968e-01 1.664112e-01 1.047072e-01 -1.433787e-01
<VARIANCE> 39
 7.636851e+00 5.561527e+01 3.613421e+01 4.597225e+01 3.765214e+01 6.414498e+01 3.867617e+01 5.346515e+01 4.045602e+01 5.529829e+01 3.444795e+01 4.826690e+01 8.861768e+01 3.147437e-01 6.470959e-01 1.830150e+00 1.102659e+00 1.978310e+00 1.635951e+00 1.558094e+00 2.381554e+00 1.902464e+00 1.869833e+00 2.170343e+00 1.606529e+00 3.517241e-01 4.948708e-02 1.875264e-01 2.545241e-01 2.258148e-01 2.440229e-01 3.198687e-01 2.868625e-01 6.407259e-01 3.778810e-01 3.880126e-01 3.148663e-01 2.765054e-01 1.142499e-01
<GCONST> 1.049399e+02
<TRANSP> 5
 0.000000e+00 1.000000e+00 0.000000e+00 0.000000e+00 0.000000e+00
 0.000000e+00 7.280275e-01 2.719726e-01 0.000000e+00 0.000000e+00
 0.000000e+00 0.000000e+00 6.722053e-01 3.277947e-01 0.000000e+00
 0.000000e+00 0.000000e+00 0.000000e+00 6.819316e-01 3.180684e-01
 0.000000e+00 0.000000e+00 0.000000e+00 0.000000e+00 0.000000e+00
<ENDHMM>
~h "z"
<BEGINHMM>
<NUMSTATES> 5
<STATE> 2
<MEAN> 39
 1.423360e+00 1.098964e+01 9.260278e+00 5.664787e+00 -6.573922e+00 -7.662819e+00 -4.743416e+00 -3.102265e+00 -9.752396e+00 -2.576604e+00 -1.521041e-01 -2.229219e+00 5.648875e+01 2.857710e-01 -1.146563e-01 1.127553e-01 -7.891048e-01 1.357224e-01 1.013351e+00 -9.360749e-01 3.663495e-01 1.535254e-02 -1.707943e-02 3.614688e-01 -5.824018e-01 1.386299e-01 -7.715782e-02 -2.213785e-01 2.562943e-01 -3.928633e-01 -1.654293e-01 3.157334e-01 1.758658e-02 -1.197096e-02 8.611083e-02 1.885357e-01 2.940976e-02 -6.024284e-02 1.332450e-01
<VARIANCE> 39
 9.392199e+00 2.124969e+01 1.760898e+01 2.193122e+01 9.643417e+00 1.732915e+01 7.090221e+01 3.471214e+01 3.372507e+01 2.163184e+01 1.570575e+01 2.268375e+01 1.514762e+01 1.108121e+00 3.029014e+00 3.721344e+00 3.029264e+00 1.239852e+00 1.543199e+00 3.736210e+00 2.322797e+00 2.331849e+00 2.587167e+00 2.154768e+00 1.689371e+00 1.180724e+00 1.469887e-01 4.468566e-01 3.457378e-01 1.880248e-01 3.976199e-01 2.386193e-01 2.594408e-01 2.901608e-01 4.084444e-01 1.767954e-01 5.745603e-01 2.921467e-01 6.260684e-02
<GCONST> 1.031596e+02
<STATE> 3
<MEAN> 39
 -3.941528e-01 1.834869e+00 1.916819e+01 -1.244448e+01 -7.372142e+00 2.563061e+00 -1.973267e+01 -3.334262e+00 -8.355478e+00 7.195831e+00 -7.296366e-01 -5.926544e+00 6.439690e+01 -5.721838e-02 -1.327483e+00 5.734620e-01 -1.541237e+00 -3.056654e-01 1.683423e+00 -7.102125e-01 -4.085596e-01 4.410849e-01 3.141630e-01 1.469775e-01 -1.533024e-01 8.628906e-01 1.709033e-01 9.398416e-02 -6.237329e-01 3.117382e-01 -6.162475e-03 -8.593807e-02 2.221629e-01 3.424050e-01 -4.356142e-02 -5.515482e-02 2.463663e-02 -1.406764e-02 -1.553915e-01
<VARIANCE> 39
 2.460257e+00 4.833417e+00 8.035289e+01 6.058863e+01 1.866627e+01 9.796119e+01 2.410554e+01 1.597875e+01 4.973156e+01 8.395302e+00 6.675321e+00 2.194528e+01 4.586472e+00 1.149885e+00 1.561125e+00 3.331272e+00 1.938064e+00 1.955426e+00 2.828342e+00 2.449384e+00 1.399802e+00 3.528474e+00 2.038167e+00 1.889239e+00 2.000215e+00 5.657501e-01 4.921439e-02 3.246554e-01 1.529152e-01 2.781209e-01 3.783244e-01 5.514259e-01 4.886689e-01 4.002531e-01 4.317728e-01 5.898787e-01 2.063920e-01 1.634844e-01 7.125511e-02
<GCONST> 9.888697e+01
<STATE> 4
<MEAN> 39
 -1.090788e+00 5.970220e+00 7.487669e+00 -3.829276e+00 -5.541249e+00 9.370635e+00 -8.684941e+00 -1.629678e+00 -5.334643e+00 -3.427817e+00 -6.320845e+00 -6.193176e+00 5.431047e+01 1.855980e-01 3.272307e-01 -4.761944e-01 6.682144e-01 -1.149106e-02 -1.752880e-01 2.879266e-01 -8.584446e-03 4.485106e-02 -2.530342e-01 8.943173e-03 -3.154403e-02 -3.342873e-01 -9.365626e-03 6.614837e-02 -1.221770e-02 5.236902e-02 2.270028e-02 -9.740126e-02 7.595368e-02 1.721936e-02 1.815124e-02 1.948559e-02 -1.352301e-02 1.478918e-02 -4.066585e-02
<VARIANCE> 39
 4.931444e+00 3.095285e+01 5.736550e+01 9.311321e+01 8.247835e+00 4.684554e+01 6.203452e+01 1.438014e+01 1.791179e+01 2.248077e+01 2.199249e+01 2.487724e+01 5.250490e+01 3.536721e-01 1.135516e+00 1.217095e+00 1.111747e+00 6.155995e-01 1.381624e+00 1.399915e+00 1.320198e+00 1.336895e+00 1.248787e+00 1.953800e+00 1.907568e+00 5.062116e-01 4.994874e-02 1.829381e-01 1.879821e-01 1.500864e-01 9.448838e-02 2.298760e-01 4.125289e-01 2.701505e-01 2.125611e-01 2.236640e-01 3.213392e-01 2.027030e-01 5.082447e-02
<GCONST> 9.224848e+01
<TRANSP> 5
 0.000000e+00 1.000000e+00 0.000000e+00 0.000000e+00 0.000000e+00
 0.000000e+00 8.002357e-01 1.997643e-01 0.000000e+00 0.000000e+00
 0.000000e+00 0.000000e+00 7.346893e-01 2.653107e-01 0.000000e+00
 0.000000e+00 0.000000e+00 0.000000e+00 9.025307e-01 9.746924e-02
 0.000000e+00 0.000000e+00 0.000000e+00 0.000000e+00 0.000000e+00
<ENDHMM>
~h "aw"
<BEGINHMM>
<NUMSTATES> 5
<STATE> 2
<MEAN> 39
 2.648082e+00 -4.489947e+00 -4.831924e-01 -1.134563e+01 -5.983781e+00 -6.784116e-01 -1.286799e+01 -3.346153e+00 1.329797e-01 4.941904e+00 3.468601e+00 -8.856956e+00 6.770289e+01 1.077222e+00 -3.982553e-01 6.575362e-01 -1.221592e+00 -1.570309e+00 1.550624e+00 -1.572753e+00 4.519219e-01 -2.084029e-01 5.347967e-01 1.423469e+00 -4.033948e-01 9.589291e-01 -1.841078e-01 5.011328e-01 3.282748e-02 7.049828e-01 2.255125e-02 3.538104e-01 5.381156e-01 -2.289709e-02 -1.610702e-01 -4.660066e-01 -4.351239e-01 6.252592e-01 -8.043313e-01
<VARIANCE> 39
 8.617404e+00 3.045023e+01 2.025537e+01 3.707069e+01 4.603705e+01 3.078989e+01 3.196217e+01 2.752062e+01 1.194856e+02 6.752967e+01 1.546334e+01 4.866738e+01 2.872546e+01 1.956300e+00 2.035348e+00 2.072798e+00 2.907637e+00 4.156048e+00 4.110085e+00 5.458844e+00 3.158974e+00 5.478418e+00 3.685923e+00 2.003959e+00 4.477155e+00 2.266801e+00 3.671035e-01 2.970048e-01 4.324790e-01 5.808558e-01 6.720788e-01 7.694443e-01 7.129024e-01 6.821463e-01 1.001833e+00 8.515874e-01 4.826160e-01 5.583404e-01 3.236512e-01
<GCONST> 1.241866e+02
<STATE> 3
<MEAN> 39
 2.723749e+00 -4.989132e+00 2.031483e+00 -1.111299e+01 -9.210666e+00 1.563288e+00 -1.493089e+01 -3.646264e+00 7.234349e-01 2.837309e+00 6.345771e+00 -8.612292e+00 6.842117e+01 4.480706e-01 1.000467e+00 3.447428e-01 1.119386e+00 -2.072451e-01 8.546301e-01 2.183331e-01 -4.503230e-01 -8.768646e-01 -1.031656e+00 -5.661138e-01 1.638360e+00 -1.043531e+00 -9.578044e-02 3.695906e-01 -1.520466e-01 7.217787e-01 4.661222e-01 -1.893981e-01 4.071550e-01 -1.750397e-01 1.277652e-01 -2.114139e-02 -6.951215e-01 1.471269e-01 -5.341437e-01
<VARIANCE> 39
 1.011475e+01 1.958265e+01 2.575475e+01 3.351841e+01 3.367621e+01 5.853884e+01 7.600716e+01 4.871797e+01 1.314144e+02 4.384458e+01 1.690514e+01 5.329326e+01 2.391806e+01 5.579429e-01 9.973307e-01 1.529684e+00 2.329412e+00 2.682259e+00 2.968147e+00 3.281708e+00 3.233060e+00 1.855915e+00 3.686649e+00 2.237569e+00 2.681818e+00 9.120246e-01 1.871402e-01 2.236054e-01 2.860759e-01 3.841626e-01 4.550623e-01 4.701350e-01 6.491510e-01 5.944489e-01 9.367922e-01 6.546099e-01 4.471199e-01 5.133216e-01 1.331343e-01
<GCONST> 1.150574e+02
<STATE> 4
<MEAN> 39
 4.869013e+00 -4.904495e-02 6.915393e-01 -5.857618e+00 -1.163011e+01 7.495290e+00 -8.576252e+00 -7.754501e+00 -3.823662e+00 3.027117e+00 2.453778e+00 -1.931955e+00 6.144855e+01 -1.273962e-01 6.763121e-01 -2.744711e-01 1.388796e+00 3.273467e-01 -2.463634e-01 4.693609e-01 2.107542e-01 -2.728457e-02 -5.070247e-02 -6.203430e-01 -1.664930e-01 -1.068433e+00 -1.688758e-01 -1.436013e-01 9.577043e-03 -7.622322e-02 1.385610e-01 -4.268921e-01 -1.965078e-02 1.758435e-01 3.630780e-04 1.080121e-01 1.594830e-01 -2.775717e-01 2.026211e-01
<VARIANCE> 39
 6.753597e+00 2.098241e+01 2.482408e+01 3.283799e+01 3.597922e+01 4.641644e+01 4.882458e+01 4.347713e+01 6.177602e+01 4.515686e+01 2.823349e+01 2.227934e+01 1.859553e+01 3.314992e-01 1.146349e+00 1.982764e+00 2.331569e+00 2.260980e+00 2.899599e+00 1.825881e+00 3.329405e+00 3.586753e+00 2.506229e+00 2.687061e+00 3.093326e+00 1.098994e+00 9.242932e-02 1.583156e-01 3.102498e-01 2.841489e-01 3.837174e-01 4.910508e-01 4.536054e-01 7.394621e-01 6.866162e-01 4.589241e-01 5.254793e-01 6.787677e-01 1.115777e-01
<GCONST> 1.105797e+02
<TRANSP> 5
 0.000000e+00 1.000000e+00 0.000000e+00 0.000000e+00 0.000000e+00
 0.000000e+00 4.204722e-01 5.795278e-01 0.000000e+00 0.000000e+00
 0.000000e+00 0.000000e+00 5.332578e-01 4.667422e-01 0.000000e+00
 0.000000e+00 0.000000e+00 0.000000e+00 7.472377e-01 2.527623e-01
 0.000000e+00 0.000000e+00 0.000000e+00 0.000000e+00 0.000000e+00
<ENDHMM>
~h "ay"
<BEGINHMM>
<NUMSTATES> 5
<STATE> 2
<MEAN> 39
 5.957503e-01 -1.421221e+01 2.212011e+00 -5.729724e+00 -9.612703e+00 -6.876132e+00 -8.719793e+00 9.793034e+00 2.910562e+00 -4.460308e+00 -1.790665e+00 -1.138383e+01 7.211079e+01 -3.317640e-01 -2.505924e-01 1.310403e+00 2.637713e-01 -1.396447e+00 -1.107250e+00 2.005147e-01 1.480825e+00 -6.108296e-01 -6.933915e-01 7.088444e-01 6.230867e-01 1.642061e-01 -8.827910e-03 5.106025e-01 2.142499e-01 8.455511e-02 -7.502557e-02 1.184551e-01 -2.658346e-02 -4.456104e-01 -4.615461e-01 2.239967e-01 3.566150e-01 2.959955e-01 -3.362642e-01
<VARIANCE> 39
 6.967453e+00 1.966930e+01 4.033434e+01 1.943096e+01 4.706450e+01 5.183212e+01 5.117736e+01 5.504274e+01 5.830698e+01 6.089059e+01 4.361087e+01 3.100499e+01 8.338315e+00 4.134073e-01 1.220199e+00 1.978086e+00 1.282679e+00 2.076870e+00 2.229368e+00 1.821772e+00 2.564424e+00 2.064631e+00 2.106398e+00 3.073324e+00 1.971372e+00 4.079581e-01 1.074212e-01 1.877849e-01 3.004442e-01 2.609325e-01 5.053734e-01 4.183336e-01 3.722983e-01 5.442026e-01 4.551741e-01 3.747715e-01 5.069897e-01 3.816422e-01 1.115915e-01
<GCONST> 1.070015e+02
<STATE> 3
<MEAN> 39
 -1.425386e+00 -8.918366e+00 1.466308e+01 -5.438923e+00 -1.989452e+01 -1.024085e+01 -1.260922e+01 1.114975e+01 -5.489467e+00 -5.950262e+00 8.060586e+00 -6.827957e+00 7.007797e+01 4.878777e-02 9.675166e-01 6.599734e-01 3.237118e-01 -9.597245e-02 3.559466e-01 -3.050656e-01 -8.724127e-01 -8.927909e-01 9.004279e-02 2.244796e-01 1.071443e-01 -6.289420e-01 1.715657e-01 9.161475e-02 -5.271292e-01 2.235265e-01 5.866607e-01 2.632629e-01 1.492433e-01 -2.439459e-01 1.715767e-01 1.626405e-01 -5.201218e-01 -2.554392e-01 -2.384839e-01
<VARIANCE> 39
 4.414534e+00 1.788378e+01 3.679944e+01 2.119608e+01 3.602648e+01 3.469173e+01 5.722526e+01 3.630041e+01 5.711604e+01 5.192027e+01 4.218651e+01 2.771314e+01 8.059020e+00 4.437365e-01 1.128080e+00 2.522839e+00 1.300850e+00 2.230340e+00 1.344199e+00 2.004915e+00 2.338848e+00 2.310234e+00 1.745845e+00 2.890017e+00 2.003273e+00 6.787597e-01 6.579695e-02 1.811241e-01 2.276602e-01 1.995304e-01 2.520229e-01 3.089656e-01 3.667573e-01 6.081589e-01 3.608988e-01 3.472647e-01 3.968153e-01 3.090805e-01 1.019512e-01
<GCONST> 1.024901e+02
<STATE> 4
<MEAN> 39
 8.100426e-01 -4.242040e+00 9.019554e+00 -4.796299e-01 -1.243751e+01 -6.111995e+00 -9.418043e+00 6.466725e+00 -5.124212e+00 -3.928853e+00 2.698730e+00 -7.226843e+00 6.407109e+01 5.756548e-01 8.368285e-01 -1.434761e+00 1.082517e+00 1.347578e+00 1.299365e+00 8.969498e-01 -9.423343e-01 -3.722674e-01 7.158929e-01 -1.001637e+00 -1.537186e-01 -1.455931e+00 -1.064118e-01 -6.696827e-02 -7.355098e-02 -1.440680e-01 -9.466012e-02 5.962255e-02 1.082257e-01 -2.020217e-01 -8.247977e-02 6.482134e-03 5.995714e-02 1.887685e-01 8.219053e-02
<VARIANCE> 39
 8.408346e+00 1.746543e+01 3.499597e+01 3.540453e+01 4.268969e+01 4.318300e+01 6.739326e+01 3.834470e+01 5.191384e+01 4.056575e+01 3.765082e+01 4.514562e+01 2.039695e+01 5.723424e-01 1.473359e+00 1.903053e+00 1.711620e+00 2.522818e+00 2.732198e+00 2.963428e+00 4.161273e+00 3.260208e+00 2.692587e+00 2.960337e+00 2.585921e+00 9.073351e-01 1.113144e-01 2.325908e-01 3.113481e-01 3.612320e-01 4.519694e-01 5.149661e-01 5.600228e-01 5.607300e-01 5.289631e-01 4.671277e-01 3.593520e-01 4.898279e-01 1.538912e-01
<GCONST> 1.133733e+02
<TRANSP> 5
 0.000000e+00 1.000000e+00 0.000000e+00 0.000000e+00 0.000000e+00
 0.000000e+00 7.559395e-01 2.440605e-01 0.000000e+00 0.000000e+00
 0.000000e+00 0.000000e+00 7.617282e-01 2.382718e-01 0.000000e+00
 0.000000e+00 0.000000e+00 0.000000e+00 6.618158e-01 3.381842e-01
