~o
<STREAMINFO> 1 39
<VECSIZE> 39<NULLD><MFCC_D_A_0><DIAGC>
~s "silst"
<MEAN> 39
 -3.009049e+00 3.485152e+00 -2.419690e+00 4.366283e+00 -2.047661e+00 2.454383e+00 -3.158766e+00 1.882449e+00 -2.586600e+00 -1.782942e+00 -1.903178e+00 -6.028182e-01 5.039117e+01 -6.003762e-03 -6.378233e-02 7.774422e-02 -2.679168e-02 6.263500e-02 -3.884511e-02 -2.527535e-02 -8.786398e-02 -2.677151e-02 5.526803e-02 -3.433924e-02 -5.384497e-02 1.040929e-01 1.853489e-02 -5.174786e-02 4.922048e-02 -5.284920e-02 6.339830e-03 -4.058886e-02 -3.420278e-02 -3.691200e-02 -3.337120e-02 4.371197e-03 -9.312942e-03 -3.720249e-02 1.021696e-01
<VARIANCE> 39
 1.051527e+01 2.052672e+01 1.672265e+01 1.802572e+01 2.269803e+01 2.570767e+01 2.298194e+01 2.463362e+01 2.298929e+01 2.226196e+01 2.015744e+01 1.794444e+01 1.202792e+01 5.750942e-01 9.996207e-01 1.164146e+00 1.465685e+00 1.758001e+00 1.848170e+00 1.879170e+00 2.149049e+00 1.979311e+00 1.853119e+00 1.826214e+00 1.606123e+00 4.706660e-01 1.177900e-01 1.984187e-01 2.417820e-01 3.084571e-01 3.577306e-01 3.805365e-01 3.716553e-01 4.165809e-01 3.885417e-01 3.691618e-01 3.627901e-01 3.223730e-01 1.138131e-01
<GCONST> 9.778842e+01
~h "@"
<BEGINHMM>
<NUMSTATES> 5
<STATE> 2
<MEAN> 39
 7.446190e-01 -3.042726e+00 1.472790e+00 -1.309423e+00 -5.916022e+00 -5.056494e+00 -8.965852e+00 -1.677017e-01 -1.790206e+00 9.748928e-01 1.658496e-01 -7.216599e+00 6.357706e+01 6.252902e-01 -8.354429e-01 3.053613e-01 -4.167963e-01 -7.084216e-01 -4.169420e-01 -4.667677e-01 3.827187e-01 2.907641e-01 2.152137e-01 1.659326e-01 -5.270655e-01 1.018867e+00 -3.306069e-02 2.880641e-01 5.134531e-02 2.216160e-01 -6.641748e-03 3.969671e-01 1.960520e-01 -1.029509e-01 -2.187194e-01 -1.105588e-01 -1.311480e-01 1.166946e-01 -3.383273e-01
<VARIANCE> 39
 2.086840e+01 4.408807e+01 4.823583e+01 4.711868e+01 6.156710e+01 7.238685e+01 6.972517e+01 7.265324e+01 6.045144e+01 4.496988e+01 4.351344e+01 5.017173e+01 3.983404e+01 2.356693e+00 3.480651e+00 3.377828e+00 4.505440e+00 4.633494e+00 5.955783e+00 5.415601e+00 7.230932e+00 5.617599e+00 4.287536e+00 4.391546e+00 4.086797e+00 3.966759e+00 4.464152e-01 5.694489e-01 4.922371e-01 7.021509e-01 7.967184e-01 8.833442e-01 9.116923e-01 1.029317e+00 8.414446e-01 7.406418e-01 7.005687e-01 6.269456e-01 5.899782e-01
<GCONST> 1.370331e+02
<STATE> 3
<MEAN> 39
 1.676176e+00 -4.453885e+00 2.200311e+00 -2.083564e+00 -7.156198e+00 -5.257774e+00 -9.940337e+00 6.898955e-01 -1.552700e+00 1.121897e+00 6.056149e-01 -8.113871e+00 6.514635e+01 4.695421e-01 -5.635712e-02 2.965264e-01 1.980324e-01 -4.843653e-01 3.902865e-01 -1.259532e-01 -1.113195e-01 -1.372789e-01 7.768088e-02 -4.025367e-02 -1.071300e-01 6.348780e-02 -1.800844e-01 4.319655e-01 -2.633940e-02 3.513275e-01 2.247041e-01 3.740630e-01 2.960407e-01 -2.731431e-01 -2.603675e-01 -1.297100e-01 -1.923601e-01 2.382462e-01 -5.188625e-01
<VARIANCE> 39
 1.531430e+01 4.670506e+01 4.787927e+01 5.505694e+01 6.078802e+01 7.470523e+01 6.894839e+01 8.828748e+01 7.209771e+01 5.222551e+01 4.776717e+01 5.302291e+01 3.368665e+01 1.682334e+00 2.740893e+00 2.538566e+00 3.725051e+00 3.637005e+00 4.410279e+00 4.774342e+00 5.184245e+00 4.322652e+00 3.521733e+00 3.957178e+00 3.337806e+00 2.802402e+00 3.590515e-01 5.091518e-01 5.248563e-01 7.658196e-01 7.683966e-01 8.059218e-01 8.748727e-01 1.176027e+00 9.134074e-01 8.145194e-01 7.456464e-01 6.774612e-01 5.390136e-01
<GCONST> 1.342847e+02
<STATE> 4
<MEAN> 39
 1.899223e+00 -3.609003e+00 2.858655e+00 -1.060169e+00 -7.498551e+00 -5.025045e+00 -9.740940e+00 5.351255e-01 -2.435775e+00 8.191801e-01 1.540337e-01 -7.372765e+00 6.412804e+01 1.641025e-01 5.824932e-01 8.664992e-02 6.902215e-01 2.324852e-02 7.428689e-01 2.704720e-01 -5.742596e-01 -4.038243e-01 -5.789401e-02 -3.264982e-01 2.093895e-01 -7.064013e-01 -1.730039e-01 1.479169e-01 -6.055060e-02 8.555476e-02 1.706823e-01 8.183581e-02 1.675835e-01 -8.241337e-02 -8.819803e-02 -1.003634e-01 -8.878947e-02 8.893710e-02 -1.795352e-01
<VARIANCE> 39
 1.336840e+01 4.726863e+01 4.523778e+01 5.474184e+01 5.815536e+01 7.388274e+01 6.523376e+01 8.882812e+01 6.827328e+01 4.688555e+01 4.812759e+01 5.236903e+01 3.641243e+01 1.260830e+00 2.467263e+00 2.218280e+00 3.133708e+00 3.192508e+00 3.337279e+00 3.879818e+00 4.068142e+00 3.462898e+00 3.071265e+00 3.118092e+00 2.564364e+00 2.222365e+00 2.619595e-01 4.211791e-01 4.195527e-01 6.487715e-01 5.935139e-01 6.249187e-01 7.170983e-01 9.261491e-01 7.279260e-01 6.432840e-01 7.142949e-01 5.809987e-01 4.299282e-01
<GCONST> 1.285207e+02
<TRANSP> 5
 0.000000e+00 1.000000e+00 0.000000e+00 0.000000e+00 0.000000e+00
 0.000000e+00 1.531248e-01 8.468752e-01 0.000000e+00 0.000000e+00
 0.000000e+00 0.000000e+00 1.463562e-01 8.536438e-01 0.000000e+00
 0.000000e+00 0.000000e+00 0.000000e+00 2.925167e-01 7.074833e-01
 0.000000e+00 0.000000e+00 0.000000e+00 0.000000e+00 0.000000e+00
<ENDHMM>
~h "a"
<BEGINHMM>
<NUMSTATES> 5
<STATE> 2
<MEAN> 39
 1.916641e+00 -1.007166e+01 -6.982004e-01 -7.219663e+00 -4.792978e+00 -1.613953e+00 -9.260557e+00 5.443886e+00 -7.565410e-01 2.874631e-01 -1.801779e+00 -1.205789e+01 6.892015e+01 1.510890e-01 -8.041576e-01 -2.630793e-01 -3.845447e-01 3.849143e-01 2.854373e-01 1.591083e-01 6.721762e-01 8.698243e-02 -1.699096e-01 -5.311514e-01 -5.802585e-01 5.938030e-01 -7.963316e-02 6.850500e-01 1.893326e-01 5.776783e-01 -2.763124e-02 -4.615048e-02 1.192675e-01 -5.174282e-01 -3.306249e-01 8.743491e-03 1.113381e-01 5.037049e-01 -6.113106e-01
<VARIANCE> 39
 9.931776e+00 3.109055e+01 4.131480e+01 4.432004e+01 5.579209e+01 7.857668e+01 5.930582e+01 6.312019e+01 7.127120e+01 6.636835e+01 4.536526e+01 5.396497e+01 2.656417e+01 9.315015e-01 2.692304e+00 2.289717e+00 3.085947e+00 3.179814e+00 3.828860e+00 3.416915e+00 4.846376e+00 3.355210e+00 3.471554e+00 3.186992e+00 3.402031e+00 2.186392e+00 1.815494e-01 3.902924e-01 3.516063e-01 4.910128e-01 5.478330e-01 5.845572e-01 5.969006e-01 7.884723e-01 6.755474e-01 6.794277e-01 5.704419e-01 5.721214e-01 3.070531e-01
<GCONST> 1.255070e+02
<STATE> 3
<MEAN> 39
 2.181869e+00 -9.866070e+00 -6.745582e-01 -6.837104e+00 -4.406222e+00 -1.697974e+00 -8.978307e+00 5.556118e+00 -1.245127e+00 3.374112e-01 -2.286997e+00 -1.169568e+01 6.866425e+01 1.495171e-01 9.102859e-01 8.982082e-02 9.477667e-01 4.517646e-02 1.829055e-02 2.739059e-01 -5.354981e-01 -4.866663e-01 1.539065e-01 -8.020599e-02 5.882549e-01 -9.146159e-01 -2.849031e-02 5.123727e-01 1.353995e-01 3.991798e-01 -1.415994e-01 2.290867e-02 6.538576e-02 -4.105093e-01 -1.485583e-01 2.707372e-02 1.093710e-01 2.618573e-01 -4.600388e-01
<VARIANCE> 39
 8.837708e+00 3.156590e+01 3.963298e+01 4.390890e+01 4.976609e+01 7.603123e+01 5.739447e+01 6.443271e+01 7.103943e+01 6.659073e+01 4.621660e+01 5.307460e+01 2.392904e+01 5.481673e-01 1.759094e+00 1.600771e+00 2.089263e+00 2.303519e+00 3.144161e+00 2.718943e+00 3.514469e+00 2.537473e+00 2.794834e+00 2.521769e+00 2.349262e+00 1.374412e+00 1.284714e-01 2.864628e-01 3.192495e-01 3.740735e-01 4.450306e-01 5.439457e-01 5.519136e-01 7.272750e-01 5.332504e-01 5.839680e-01 5.226109e-01 4.710239e-01 1.911553e-01
<GCONST> 1.181484e+02
<STATE> 4
<MEAN> 39
 2.201068e+00 -4.280080e+00 -2.208608e+00 -1.668149e+00 -3.693979e+00 -2.285670e-01 -6.445001e+00 3.064667e+00 -2.880527e+00 5.468424e-01 -3.009155e+00 -8.156084e+00 6.173811e+01 -3.634466e-03 1.022126e+00 3.391711e-02 9.612815e-01 -1.509783e-01 2.302213e-01 3.455932e-01 -6.048291e-01 -2.684519e-01 -3.828203e-02 -5.944372e-02 5.050476e-01 -1.116135e+00 -6.743477e-02 -9.954251e-03 6.484041e-02 -6.741858e-02 -4.095827e-02 -1.395808e-02 -2.161141e-02 -5.802520e-02 1.968915e-02 -2.076400e-02 2.567251e-02 -2.609337e-02 5.663821e-02
<VARIANCE> 39
 1.082047e+01 4.053676e+01 3.829123e+01 4.958925e+01 3.915884e+01 5.561721e+01 4.568631e+01 4.882295e+01 5.326991e+01 4.648842e+01 3.700610e+01 4.484061e+01 5.264009e+01 5.458762e-01 1.318648e+00 1.538647e+00 1.926460e+00 2.053102e+00 2.339813e+00 2.369722e+00 2.976025e+00 2.518287e+00 2.392608e+00 2.158309e+00 1.978172e+00 1.089780e+00 1.103206e-01 2.269429e-01 2.364678e-01 3.153280e-01 3.337733e-01 4.195237e-01 4.199529e-01 5.512962e-01 4.205174e-01 4.272296e-01 3.994481e-01 3.633978e-01 1.712258e-01
<GCONST> 1.123883e+02
<TRANSP> 5
 0.000000e+00 1.000000e+00 0.000000e+00 0.000000e+00 0.000000e+00
 0.000000e+00 4.827757e-01 5.172244e-01 0.000000e+00 0.000000e+00
 0.000000e+00 0.000000e+00 4.248022e-01 5.751978e-01 0.000000e+00
 0.000000e+00 0.000000e+00 0.000000e+00 6.536248e-01 3.463752e-01
 0.000000e+00 0.000000e+00 0.000000e+00 0.000000e+00 0.000000e+00
<ENDHMM>
~h "b"
<BEGINHMM>
<NUMSTATES> 5
<STATE> 2
<MEAN> 39
 5.156430e+00 6.820026e+00 1.988383e+00 4.510027e+00 -4.387917e+00 2.400620e+00 -7.109463e+00 -4.295341e+00 -8.114592e+00 -1.890562e+00 -1.653280e+00 -5.097265e+00 5.619936e+01 2.915007e-01 -4.167844e-01 -3.984338e-01 -1.084136e+00 5.931438e-02 -3.146214e-01 -9.243553e-01 -4.730970e-01 2.049785e-01 4.064022e-01 8.270215e-01 1.608224e-01 7.739319e-01 -1.458139e-01 -8.191344e-01 6.382602e-02 -8.543043e-01 -3.013778e-01 -2.691594e-01 -6.534094e-01 1.544704e-01 3.563715e-01 5.100881e-01 4.678763e-01 -2.756075e-01 7.005380e-01
<VARIANCE> 39
 7.974004e+00 2.292167e+01 2.014668e+01 2.838347e+01 3.064826e+01 3.188271e+01 3.523348e+01 2.946153e+01 2.863269e+01 2.419071e+01 2.573306e+01 2.632053e+01 1.417319e+01 7.572448e-01 3.389600e+00 1.828663e+00 6.257491e+00 3.002150e+00 3.457345e+00 4.994834e+00 3.403631e+00 4.106175e+00 4.044802e+00 4.279330e+00 2.759685e+00 2.641187e+00 1.360320e-01 4.441661e-01 3.741264e-01 6.770409e-01 5.129684e-01 6.647229e-01 6.784127e-01 7.280571e-01 8.142402e-01 7.008156e-01 7.154046e-01 6.344539e-01 2.679091e-01
<GCONST> 1.189483e+02
<STATE> 3
<MEAN> 39
 5.628903e+00 7.486610e-01 7.649773e-01 -4.250488e+00 -6.124859e+00 1.366095e+00 -1.387210e+01 -6.531195e+00 -6.022115e+00 3.190481e+00 4.477038e+00 -5.905916e+00 6.248350e+01 -3.253160e-01 -2.632530e+00 8.864596e-02 -2.403035e+00 -7.603320e-01 -8.065113e-01 -2.181527e+00 1.004704e+00 1.840224e+00 1.758243e+00 1.186818e+00 -1.677397e+00 2.336095e+00 -2.833790e-01 -4.199135e-02 2.966074e-01 5.117810e-01 -8.140983e-02 -1.442893e-01 4.371966e-01 7.102478e-01 1.855506e-01 -3.812535e-01 -6.557202e-01 -3.050940e-01 -1.027579e-01
<VARIANCE> 39
 7.217056e+00 3.765682e+01 2.473412e+01 8.901707e+01 4.858474e+01 5.474130e+01 5.826992e+01 3.773051e+01 5.689076e+01 5.747781e+01 6.064585e+01 4.089971e+01 2.543591e+01 8.409306e-01 4.416648e+00 2.863526e+00 7.562239e+00 3.602439e+00 5.882023e+00 5.565866e+00 5.772994e+00 7.164228e+00 6.901385e+00 6.165769e+00 5.748140e+00 2.431038e+00 1.348717e-01 5.765119e-01 4.481582e-01 1.209272e+00 7.567564e-01 7.439951e-01 1.068933e+00 8.623220e-01 1.120144e+00 1.149076e+00 1.268473e+00 8.254187e-01 4.280585e-01
<GCONST> 1.346004e+02
<STATE> 4
<MEAN> 39
 4.263658e+00 -3.297678e+00 1.816562e+00 -5.246013e+00 -6.426210e+00 -1.399006e+00 -1.581112e+01 -7.985150e-01 -1.832823e+00 4.306073e+00 2.072480e+00 -9.868352e+00 6.511175e+01 -6.757898e-01 -1.334746e+00 7.441563e-01 -2.931480e-01 -5.878444e-01 -1.053943e+00 -2.340060e-01 1.748407e+00 9.573944e-01 -4.002580e-01 -5.398758e-01 -8.036646e-01 1.078235e+00 -9.874131e-02 6.243535e-01 1.345888e-01 6.856686e-01 8.627555e-02 1.496107e-01 7.477925e-01 -1.775549e-01 -5.286484e-01 -6.254163e-01 -3.352758e-01 4.922741e-01 -5.542737e-01
<VARIANCE> 39
 7.048027e+00 5.073578e+01 3.180892e+01 1.018015e+02 5.514581e+01 6.382698e+01 6.359528e+01 4.724806e+01 7.002522e+01 7.767136e+01 7.205584e+01 6.479346e+01 2.999032e+01 8.758046e-01 3.016448e+00 3.639876e+00 5.680327e+00 3.818068e+00 4.612245e+00 4.789360e+00 6.022079e+00 6.124579e+00 5.482687e+00 6.184363e+00 4.745228e+00 2.189445e+00 1.323555e-01 6.111500e-01 4.147539e-01 1.200929e+00 7.443120e-01 7.779949e-01 8.987910e-01 8.024781e-01 9.563214e-01 1.187755e+00 1.161721e+00 9.068103e-01 4.224003e-01
<GCONST> 1.354047e+02
<TRANSP> 5
 0.000000e+00 1.000000e+00 0.000000e+00 0.000000e+00 0.000000e+00
 0.000000e+00 6.585578e-01 3.414421e-01 0.000000e+00 0.000000e+00
 0.000000e+00 0.000000e+00 3.782515e-01 6.217485e-01 0.000000e+00
 0.000000e+00 0.000000e+00 0.000000e+00 3.002043e-01 6.997957e-01
 0.000000e+00 0.000000e+00 0.000000e+00 0.000000e+00 0.000000e+00
<ENDHMM>
~h "c"
<BEGINHMM>
<NUMSTATES> 5
<STATE> 2
<MEAN> 39
 -3.637926e+00 4.095383e+00 2.840055e-01 5.701423e-01 -2.380615e+00 -2.936814e+00 -4.694743e+00 -2.864331e-03 -2.962399e+00 -1.398263e+00 -1.594820e+00 -2.690218e+00 5.608413e+01 -2.749171e+00 3.265164e-01 5.861751e-01 -1.389829e+00 1.204730e+00 -9.950384e-01 7.364102e-01 -3.204202e-01 3.114565e-01 -2.855525e-01 5.555031e-01 2.998925e-01 1.367936e+00 -1.665031e-01 -3.044100e-01 5.015007e-01 -2.738222e-01 -2.318265e-01 -4.649365e-01 -2.805147e-01 1.691872e-02 1.975434e-01 -8.503592e-02 1.512616e-01 -4.389122e-03 7.363263e-01
<VARIANCE> 39
 3.547575e+01 2.094938e+01 2.757875e+01 2.950584e+01 3.997967e+01 5.281279e+01 3.612727e+01 4.300925e+01 3.050286e+01 2.471354e+01 2.852547e+01 2.340821e+01 2.511582e+01 3.389105e+00 2.661949e+00 2.950058e+00 3.358265e+00 3.327877e+00 4.096437e+00 2.696226e+00 3.460130e+00 2.852761e+00 2.575244e+00 2.670194e+00 2.181225e+00 2.806302e+00 1.288652e+00 4.652843e-01 4.595085e-01 7.041790e-01 8.407927e-01 6.867160e-01 5.976231e-01 7.055811e-01 5.947376e-01 5.548652e-01 5.004053e-01 4.373606e-01 3.817803e-01
<GCONST> 1.238290e+02
<STATE> 3
<MEAN> 39
 -1.324306e+01 4.189756e+00 5.486053e+00 -4.384394e+00 -7.587416e-01 -7.895693e+00 -3.816046e+00 -7.845138e-01 -7.225181e-01 -3.996477e+00 5.595676e-01 -1.484409e+00 6.330691e+01 1.219549e+00 -1.629278e+00 1.187457e+00 -1.443104e-01 -1.626695e+00 -1.271793e+00 -1.546787e+00 3.779676e-01 6.708909e-01 -2.778935e-01 2.728799e-01 1.258673e-02 1.925324e+00 1.796110e+00 -6.242994e-01 -3.953902e-01 3.866055e-01 -7.019737e-01 5.411513e-01 -6.778121e-01 1.344991e-01 -1.826321e-01 3.183703e-01 -4.553258e-02 -3.367823e-01 -2.995560e-01
<VARIANCE> 39
 2.481013e+01 2.905073e+01 2.884867e+01 3.043249e+01 4.127338e+01 4.848864e+01 3.621004e+01 3.629224e+01 3.007517e+01 2.776503e+01 2.347596e+01 1.851884e+01 1.714388e+01 9.477970e+00 3.811460e+00 3.706796e+00 3.915279e+00 4.956288e+00 3.906201e+00 4.635167e+00 4.458486e+00 3.962985e+00 3.529629e+00 2.562702e+00 2.471006e+00 2.171970e+00 8.091133e-01 7.651584e-01 5.661500e-01 8.779724e-01 9.106791e-01 7.209883e-01 7.233437e-01 7.494978e-01 9.155250e-01 6.114813e-01 6.859652e-01 5.589426e-01 3.013819e-01
<GCONST> 1.280251e+02
<STATE> 4
<MEAN> 39
 -8.478905e-01 -4.866154e+00 5.212249e+00 -3.612136e+00 -7.964616e+00 -9.205210e+00 -1.261675e+01 1.344942e+00 9.905233e-01 -2.017689e+00 8.906487e-01 -3.914232e+00 6.814773e+01 3.160678e+00 -1.966434e+00 -7.257022e-01 -5.392143e-01 -1.203933e+00 1.151605e+00 -1.493440e+00 1.243184e-01 -4.105013e-01 8.872250e-01 7.366018e-01 -1.217453e+00 8.228391e-01 -5.031087e-01 7.256184e-01 -3.908553e-01 1.702131e-02 6.096578e-01 7.967864e-01 8.454083e-01 -2.820170e-01 -4.959069e-01 1.068656e-02 -3.045195e-02 -4.138415e-02 -7.728308e-01
<VARIANCE> 39
 1.625817e+01 3.560179e+01 4.954267e+01 2.950803e+01 2.698970e+01 3.769905e+01 5.889611e+01 7.227218e+01 4.870277e+01 4.515800e+01 2.332924e+01 2.122809e+01 1.952361e+01 3.010566e+00 4.646775e+00 3.176714e+00 3.021582e+00 4.267251e+00 3.700819e+00 4.292666e+00 5.656062e+00 5.289367e+00 3.656499e+00 3.668251e+00 3.627182e+00 1.881780e+00 8.304881e-01 5.796881e-01 5.605692e-01 5.418787e-01 6.636145e-01 5.979362e-01 8.119780e-01 7.274073e-01 6.764802e-01 7.686222e-01 5.656025e-01 6.606303e-01 2.864032e-01
<GCONST> 1.282491e+02
<TRANSP> 5
 0.000000e+00 1.000000e+00 0.000000e+00 0.000000e+00 0.000000e+00
 0.000000e+00 7.059055e-01 2.940945e-01 0.000000e+00 0.000000e+00
 0.000000e+00 0.000000e+00 6.175171e-01 3.824829e-01 0.000000e+00
 0.000000e+00 0.000000e+00 0.000000e+00 4.990565e-01 5.009435e-01
 0.000000e+00 0.000000e+00 0.000000e+00 0.000000e+00 0.000000e+00
<ENDHMM>
~h "d"
<BEGINHMM>
<NUMSTATES> 5
<STATE> 2
<MEAN> 39
 3.698701e+00 3.925996e+00 5.287355e+00 7.124573e+00 -7.562011e+00 -2.586251e+00 -8.126123e+00 9.264427e-01 -4.322544e+00 -2.675336e+00 -3.888903e+00 -5.344702e+00 5.686607e+01 -4.210012e-02 -4.510125e-01 3.709458e-01 -3.377169e-02 -6.870376e-02 -5.390472e-01 -4.141797e-01 1.763821e-01 1.272879e-01 -4.002165e-01 3.559245e-01 3.825863e-01 4.159920e-01 -3.126962e-01 -8.596435e-01 4.476389e-01 -8.614218e-01 -4.834261e-01 -5.034229e-01 -5.784034e-01 1.778083e-01 5.053881e-02 1.067556e-01 7.041758e-01 -3.636194e-02 8.958277e-01
<VARIANCE> 39
 8.655452e+00 3.771822e+01 3.440101e+01 2.700599e+01 4.284397e+01 3.127361e+01 4.296312e+01 5.783537e+01 3.407539e+01 2.866558e+01 4.051299e+01 3.239058e+01 2.122958e+01 1.013169e+00 4.205314e+00 3.003693e+00 3.366972e+00 3.804796e+00 4.249092e+00 5.074603e+00 5.124659e+00 3.631042e+00 2.857801e+00 4.042764e+00 2.569510e+00 3.259810e+00 1.778790e-01 5.201368e-01 6.122622e-01 5.479668e-01 7.295176e-01 7.621753e-01 8.999079e-01 1.194859e+00 7.155811e-01 5.952555e-01 7.498930e-01 5.458871e-01 3.717149e-01
<GCONST> 1.253805e+02
<STATE> 3
<MEAN> 39
 2.528722e+00 -1.293936e+00 7.173660e+00 4.243513e+00 -8.356833e+00 -5.901789e+00 -1.138991e+01 1.487849e+00 -3.699029e+00 -3.364401e+00 -8.542308e-01 -3.496195e+00 6.121550e+01 -7.502840e-01 -2.386929e+00 1.596474e+00 -2.404505e+00 -1.542144e+00 -1.723810e+00 -2.028309e+00 1.003841e+00 2.160835e-01 1.798125e-01 2.221042e+00 -2.544517e-01 2.685500e+00 -1.116318e-01 3.580264e-02 7.294345e-02 -5.012922e-01 -2.449056e-01 1.425799e-01 -7.775250e-02 1.239373e-01 -1.324056e-01 3.042005e-01 2.089374e-01 -5.415204e-01 2.501211e-01
<VARIANCE> 39
 1.000244e+01 4.160029e+01 4.068577e+01 4.193736e+01 4.581635e+01 5.299667e+01 7.980130e+01 8.167223e+01 5.038908e+01 3.973825e+01 3.539514e+01 3.782883e+01 2.799636e+01 1.179750e+00 3.266181e+00 4.936330e+00 4.086986e+00 4.272181e+00 4.777709e+00 5.713068e+00 1.071171e+01 6.171746e+00 4.907729e+00 5.633436e+00 3.633304e+00 2.332189e+00 1.726110e-01 6.051287e-01 7.341037e-01 6.576170e-01 9.554821e-01 9.986640e-01 1.184867e+00 1.145539e+00 8.091128e-01 7.346875e-01 9.037088e-01 6.211911e-01 5.083653e-01
<GCONST> 1.341184e+02
<STATE> 4
<MEAN> 39
 1.034513e+00 -4.953894e+00 1.043021e+01 -1.375635e+00 -1.282943e+01 -8.522405e+00 -1.534911e+01 5.199106e+00 -3.427609e+00 -2.192842e+00 4.313964e+00 -6.491683e+00 6.637981e+01 -5.283156e-01 -8.751566e-01 6.049185e-01 -1.810430e+00 -8.208171e-01 -3.617033e-01 -7.178558e-01 6.068051e-01 -1.365505e-01 5.549361e-01 1.110086e+00 -1.067156e+00 1.449989e+00 1.136162e-01 6.229709e-01 -4.080268e-01 4.291077e-01 4.296286e-01 5.093035e-01 5.973455e-01 -3.914671e-01 -1.855421e-01 2.396431e-02 -5.513356e-01 -2.903111e-02 -5.889509e-01
<VARIANCE> 39
 1.022362e+01 3.891294e+01 5.604573e+01 4.408075e+01 4.504893e+01 5.507397e+01 8.674817e+01 1.190208e+02 7.904828e+01 6.078173e+01 5.291257e+01 5.300425e+01 2.483918e+01 1.133047e+00 2.734551e+00 5.931082e+00 4.302500e+00 4.656032e+00 5.058822e+00 5.547090e+00 7.105647e+00 5.243644e+00 4.752263e+00 6.260368e+00 3.726626e+00 2.976034e+00 1.350083e-01 4.493708e-01 6.085541e-01 6.381671e-01 8.195865e-01 8.703337e-01 1.176571e+00 1.263581e+00 8.469383e-01 7.052110e-01 8.790224e-01 7.012317e-01 4.215153e-01
<GCONST> 1.352701e+02
<TRANSP> 5
 0.000000e+00 1.000000e+00 0.000000e+00 0.000000e+00 0.000000e+00
 0.000000e+00 5.881887e-01 4.118113e-01 0.000000e+00 0.000000e+00
 0.000000e+00 0.000000e+00 2.631457e-01 7.368543e-01 0.000000e+00
 0.000000e+00 0.000000e+00 0.000000e+00 4.070332e-01 5.929668e-01
 0.000000e+00 0.000000e+00 0.000000e+00 0.000000e+00 0.000000e+00
<ENDHMM>
~h "e"
<BEGINHMM>
<NUMSTATES> 5
<STATE> 2
<MEAN> 39
 -4.999398e-01 -6.217086e+00 6.467746e+00 -1.766075e+00 -9.841566e+00 -8.751976e+00 -5.185050e+00 5.890061e+00 -5.017605e+00 -9.749789e-01 1.548234e+00 -5.969564e+00 6.547128e+01 1.162474e-01 -9.131544e-01 1.162874e+00 -8.379145e-01 -9.409928e-01 -7.499737e-01 3.768831e-02 1.071027e+00 -2.894445e-01 -4.193787e-02 4.526181e-01 -1.088862e-01 1.153229e+00 -3.688242e-02 4.528683e-01 -3.317915e-01 2.779357e-01 3.134990e-01 3.125959e-01 1.531378e-01 -4.461616e-01 4.250720e-03 1.029380e-01 -1.816343e-01 1.632571e-01 -4.239643e-01
<VARIANCE> 39
 1.280889e+01 3.783007e+01 5.846365e+01 3.514423e+01 5.184254e+01 8.113373e+01 9.825528e+01 6.162493e+01 7.727846e+01 7.509531e+01 4.640389e+01 3.758239e+01 4.650330e+01 1.238528e+00 2.419748e+00 3.860162e+00 2.556791e+00 3.967247e+00 4.070504e+00 5.399060e+00 4.634177e+00 3.792737e+00 3.499479e+00 3.740177e+00 2.702910e+00 2.733290e+00 2.346326e-01 5.478343e-01 7.704664e-01 4.885039e-01 7.404733e-01 7.342030e-01 9.571509e-01 9.909500e-01 7.780663e-01 7.958521e-01 6.431893e-01 4.617117e-01 4.757375e-01
<GCONST> 1.316768e+02
<STATE> 3
<MEAN> 39
 1.113488e-01 -8.181280e+00 7.309474e+00 -3.063390e+00 -1.117333e+01 -1.023565e+01 -6.913873e+00 7.321465e+00 -4.478178e+00 -1.520324e+00 1.765405e+00 -7.061209e+00 6.800425e+01 1.297470e-01 6.578938e-01 -2.750039e-01 6.422108e-01 2.837072e-01 4.391886e-01 2.961980e-01 -4.804880e-01 9.517729e-03 1.216935e-02 -4.359240e-01 2.127806e-01 -6.659940e-01 -2.375182e-02 4.181547e-01 -2.612514e-01 3.560253e-01 2.863418e-01 2.542669e-01 1.368078e-01 -3.928652e-01 8.670360e-03 1.576320e-02 -1.446612e-01 6.214043e-02 -3.824289e-01
<VARIANCE> 39
 8.684583e+00 3.155827e+01 4.557564e+01 3.629274e+01 4.028918e+01 9.124071e+01 7.407454e+01 8.083475e+01 7.449552e+01 6.031310e+01 5.194178e+01 3.880422e+01 2.611147e+01 5.816872e-01 1.973427e+00 1.618609e+00 2.134192e+00 2.406638e+00 2.383860e+00 3.125981e+00 2.997766e+00 2.518083e+00 2.565586e+00 2.297765e+00 1.936695e+00 1.699794e+00 1.502302e-01 3.312668e-01 3.374493e-01 3.889370e-01 4.524394e-01 4.604268e-01 5.991074e-01 6.854822e-01 5.272791e-01 5.776831e-01 4.636760e-01 3.559268e-01 2.304375e-01
<GCONST> 1.181934e+02
<STATE> 4
<MEAN> 39
 -1.238485e+00 -3.462436e-01 4.699122e+00 8.977997e-01 -7.883654e+00 -3.962950e+00 -3.913953e+00 3.014050e+00 -5.733812e+00 8.690820e-01 7.001848e-01 -3.045562e+00 5.797301e+01 1.065165e-03 3.732468e-01 -2.736892e-01 3.194850e-01 2.419760e-01 3.467878e-01 1.878886e-01 -2.060027e-01 6.718099e-02 -4.150491e-02 -1.674987e-01 1.064639e-01 -4.226091e-01 -1.797590e-02 5.442821e-03 -5.530247e-03 -2.235987e-02 3.479107e-02 7.424836e-03 -1.055763e-02 -3.461412e-02 3.782568e-03 5.913607e-04 5.601429e-03 -1.229626e-02 1.406164e-02
<VARIANCE> 39
 9.824859e+00 3.857259e+01 8.043026e+01 4.025916e+01 4.814948e+01 6.737958e+01 3.209579e+01 4.407626e+01 4.301304e+01 4.471214e+01 5.167835e+01 2.589298e+01 6.382958e+01 3.676925e-01 1.044369e+00 1.228755e+00 1.256511e+00 1.545307e+00 1.577989e+00 1.762561e+00 2.036824e+00 1.776572e+00 1.829392e+00 1.742427e+00 1.450377e+00 6.068482e-01 7.435165e-02 1.562357e-01 1.894617e-01 2.223414e-01 2.600149e-01 2.742804e-01 3.199458e-01 3.648937e-01 3.315344e-01 3.491068e-01 3.056809e-01 2.739317e-01 8.774855e-02
<GCONST> 1.037262e+02
<TRANSP> 5
 0.000000e+00 1.000000e+00 0.000000e+00 0.000000e+00 0.000000e+00
 0.000000e+00 5.591258e-01 4.408742e-01 0.000000e+00 0.000000e+00
 0.000000e+00 0.000000e+00 5.993791e-01 4.006209e-01 0.000000e+00
 0.000000e+00 0.000000e+00 0.000000e+00 8.659294e-01 1.340706e-01
 0.000000e+00 0.000000e+00 0.000000e+00 0.000000e+00 0.000000e+00
<ENDHMM>
~h "f"
<BEGINHMM>
<NUMSTATES> 5
<STATE> 2
<MEAN> 39
 -6.443361e+00 5.999744e-01 2.493781e+00 1.033276e+00 -3.684847e+00 -4.034146e+00 -3.057444e+00 -1.889666e+00 -2.731779e-01 -1.685171e+00 -1.376357e+00 -4.668232e+00 6.021650e+01 -8.489413e-01 -4.404673e-02 1.791253e-01 3.208213e-01 1.663534e-01 -5.823377e-01 7.818232e-02 3.975898e-02 5.063629e-01 -2.391124e-01 -1.784405e-01 3.083982e-01 7.898888e-02 3.956735e-01 -2.922835e-01 2.571833e-01 4.269496e-02 -3.902725e-01 -6.292374e-02 -3.556068e-01 6.283907e-02 -1.652888e-01 -6.913733e-02 2.007556e-01 -6.686365e-02 2.353700e-01
<VARIANCE> 39
 2.979905e+01 1.905712e+01 3.169543e+01 2.439356e+01 3.635630e+01 4.853366e+01 3.169166e+01 3.515256e+01 3.183473e+01 2.903732e+01 2.428763e+01 2.288726e+01 1.317866e+01 3.053817e+00 1.873402e+00 1.979508e+00 1.853047e+00 3.162136e+00 2.745177e+00 3.399367e+00 2.828670e+00 2.594699e+00 2.538686e+00 2.241298e+00 1.989362e+00 1.093295e+00 4.523084e-01 2.536624e-01 4.231913e-01 3.459046e-01 6.682363e-01 4.789874e-01 7.895083e-01 5.230680e-01 5.836914e-01 4.655241e-01 4.999133e-01 4.042543e-01 1.747674e-01
<GCONST> 1.150702e+02
<STATE> 3
<MEAN> 39
 -7.217620e+00 -9.541754e-01 3.424994e+00 3.624238e+00 -3.935216e+00 -6.948609e+00 -4.402537e+00 -1.783436e+00 5.985832e-01 -2.257235e+00 -1.707461e+00 -3.292386e+00 6.109962e+01 1.398168e+00 -9.345274e-01 1.364525e+00 4.812819e-02 -1.392997e+00 -9.223117e-01 -1.638913e+00 1.812283e-01 -5.449747e-01 -5.859885e-01 9.201224e-01 -8.027644e-02 8.514147e-01 5.689387e-01 -1.427011e-01 4.783359e-01 -4.006512e-01 -7.111596e-01 2.751004e-02 -5.212985e-01 7.185456e-02 -5.056171e-01 -8.776975e-02 6.445106e-01 -2.550482e-01 2.981212e-01
<VARIANCE> 39
 2.918607e+01 1.530551e+01 4.408861e+01 2.446251e+01 3.192475e+01 4.485828e+01 3.276307e+01 2.585110e+01 4.592266e+01 2.315040e+01 2.736708e+01 2.045522e+01 1.113766e+01 3.052863e+00 1.449003e+00 4.287764e+00 1.950783e+00 4.362111e+00 4.027559e+00 4.932200e+00 2.882229e+00 3.302201e+00 3.210363e+00 3.143124e+00 2.223057e+00 1.228399e+00 5.612462e-01 2.793818e-01 6.392334e-01 3.131184e-01 8.887601e-01 5.645199e-01 7.099190e-01 5.354072e-01 7.445760e-01 6.178579e-01 5.494020e-01 4.074278e-01 1.461131e-01
<GCONST> 1.188050e+02
<STATE> 4
<MEAN> 39
 -2.779668e+00 -1.543723e+00 7.172050e+00 2.694322e+00 -8.743462e+00 -8.608468e+00 -8.723019e+00 1.217983e-01 -2.288123e+00 -4.222003e+00 1.700891e+00 -4.328079e+00 6.297417e+01 1.753588e+00 -9.143881e-01 1.732206e+00 -5.557518e-01 -2.112144e+00 -5.189966e-01 -1.818389e+00 2.814761e-01 -1.048127e+00 -5.901372e-01 1.695661e+00 -4.053503e-01 1.095827e+00 -1.009579e-01 -2.296669e-02 1.382575e-01 -2.988431e-01 -1.852922e-01 1.883072e-01 -4.417602e-02 6.874147e-02 -1.018606e-01 1.041505e-01 2.704761e-01 -2.260038e-01 1.204357e-01
<VARIANCE> 39
 2.165592e+01 1.622178e+01 6.341231e+01 3.128741e+01 6.128563e+01 5.183395e+01 5.255519e+01 3.550804e+01 4.833403e+01 3.083635e+01 4.235522e+01 1.797003e+01 2.023229e+01 2.502126e+00 2.187897e+00 6.901951e+00 2.323327e+00 5.919640e+00 4.012234e+00 6.631351e+00 3.173165e+00 4.541091e+00 3.882707e+00 4.194469e+00 2.521631e+00 2.003627e+00 3.557693e-01 2.187047e-01 4.518801e-01 3.356393e-01 9.112470e-01 4.894273e-01 6.240434e-01 4.155429e-01 5.980443e-01 4.133477e-01 6.109887e-01 3.808574e-01 1.941521e-01
<GCONST> 1.231968e+02
<TRANSP> 5
 0.000000e+00 1.000000e+00 0.000000e+00 0.000000e+00 0.000000e+00
 0.000000e+00 8.204253e-01 1.795747e-01 0.000000e+00 0.000000e+00
 0.000000e+00 0.000000e+00 3.564413e-01 6.435587e-01 0.000000e+00
 0.000000e+00 0.000000e+00 0.000000e+00 2.496849e-01 7.503151e-01
 0.000000e+00 0.000000e+00 0.000000e+00 0.000000e+00 0.000000e+00
<ENDHMM>
~h "g"
<BEGINHMM>
<NUMSTATES> 5
<STATE> 2
<MEAN> 39
 2.653446e+00 3.154567e+00 4.788666e+00 2.391042e+00 -5.704435e+00 -1.465385e+00 -1.065616e+01 -1.792603e+00 -8.020945e+00 -3.422332e-02 6.798725e-01 -7.716261e+00 5.893264e+01 -5.398610e-01 -1.058274e+00 4.552614e-01 -1.013399e+00 1.843425e-01 -1.511847e+00 -1.535531e+00 4.132983e-01 3.661610e-01 2.980230e-01 1.171148e+00 -6.117662e-01 1.345013e+00 -1.399891e-01 -4.522348e-01 3.415903e-01 -5.757129e-01 -5.885103e-01 -2.131144e-01 -3.118735e-01 2.331970e-01 3.411218e-01 4.725695e-02 4.651292e-01 -2.996045e-01 6.202204e-01
<VARIANCE> 39
 1.051365e+01 3.426898e+01 4.245898e+01 3.786344e+01 6.972128e+01 5.887035e+01 6.092611e+01 4.953943e+01 4.019799e+01 3.992080e+01 6.225724e+01 3.444156e+01 2.500026e+01 9.281421e-01 3.560589e+00 4.154830e+00 4.118470e+00 7.418341e+00 5.223007e+00 5.439290e+00 4.605470e+00 5.165764e+00 4.003418e+00 6.495929e+00 3.333076e+00 3.042833e+00 2.100411e-01 5.130445e-01 7.661618e-01 6.270065e-01 1.267604e+00 8.949140e-01 9.820586e-01 8.369165e-01 8.193159e-01 6.764998e-01 1.227569e+00 5.523289e-01 3.977025e-01
<GCONST> 1.327474e+02
<STATE> 3
<MEAN> 39
 1.233419e+00 -7.552820e-01 7.336386e+00 -1.883706e+00 -9.442771e+00 -6.387051e+00 -1.527540e+01 2.486165e-01 -5.354857e+00 1.191784e+00 6.458196e+00 -1.079516e+01 6.457298e+01 -4.563221e-01 -1.325437e+00 6.728747e-01 -1.736120e+00 -1.442186e+00 -7.612659e-01 -7.278449e-01 1.208869e+00 1.381852e+00 4.094210e-01 1.023537e+00 -1.000378e+00 1.814285e+00 7.682104e-02 1.540872e-02 -2.251486e-01 5.912527e-02 5.050422e-02 5.671384e-01 6.511475e-01 6.103605e-02 -1.428051e-03 -4.803047e-02 -6.749641e-01 1.932395e-01 -1.855449e-01
<VARIANCE> 39
 9.604513e+00 3.532389e+01 4.361725e+01 3.816658e+01 5.741420e+01 6.220833e+01 7.103252e+01 5.338396e+01 5.496360e+01 5.560020e+01 9.176814e+01 4.495393e+01 3.197120e+01 1.350624e+00 3.031070e+00 5.166509e+00 3.936821e+00 6.874179e+00 4.426144e+00 4.623089e+00 6.278307e+00 6.075864e+00 4.805958e+00 6.029063e+00 3.672906e+00 2.571398e+00 1.819693e-01 3.178129e-01 7.913604e-01 5.768921e-01 1.203080e+00 9.255521e-01 1.004511e+00 8.723255e-01 8.362886e-01 6.683635e-01 1.512980e+00 5.915787e-01 3.867550e-01
<GCONST> 1.344777e+02
<STATE> 4
<MEAN> 39
 9.816163e-01 -2.515525e+00 7.108584e+00 -3.967000e+00 -1.083645e+01 -5.695003e+00 -1.403701e+01 3.000974e+00 -3.016443e+00 2.167629e+00 4.454963e+00 -1.185564e+01 6.601781e+01 -3.162242e-01 -7.080261e-01 8.230095e-02 -8.786432e-01 -1.146617e-01 2.316709e-01 5.335972e-01 5.620259e-01 5.455597e-01 6.908294e-03 -6.706002e-01 -3.024888e-02 6.897324e-01 3.552745e-02 1.840785e-01 -1.793364e-02 3.243966e-01 2.605729e-01 1.809054e-01 2.477314e-01 -3.112912e-01 -3.913496e-01 -2.272493e-01 -2.525211e-01 3.285215e-01 -2.963216e-01
<VARIANCE> 39
 1.047600e+01 4.303062e+01 3.946101e+01 4.148108e+01 5.537336e+01 4.917263e+01 6.976416e+01 5.852209e+01 6.764547e+01 6.063101e+01 7.552357e+01 5.627668e+01 3.604086e+01 1.450406e+00 2.203369e+00 5.391485e+00 3.668717e+00 3.786054e+00 3.462373e+00 3.683954e+00 5.043522e+00 3.971724e+00 3.363522e+00 5.407407e+00 2.958732e+00 2.137169e+00 1.941556e-01 3.211688e-01 6.187277e-01 6.394976e-01 9.149923e-01 6.316914e-01 8.286296e-01 7.434863e-01 7.394543e-01 6.082416e-01 1.053299e+00 5.536618e-01 3.892142e-01
<GCONST> 1.304207e+02
<TRANSP> 5
 0.000000e+00 1.000000e+00 0.000000e+00 0.000000e+00 0.000000e+00
 0.000000e+00 5.768079e-01 4.231921e-01 0.000000e+00 0.000000e+00
 0.000000e+00 0.000000e+00 3.383441e-01 6.616559e-01 0.000000e+00
 0.000000e+00 0.000000e+00 0.000000e+00 3.987468e-01 6.012532e-01
 0.000000e+00 0.000000e+00 0.000000e+00 0.000000e+00 0.000000e+00
<ENDHMM>
~h "h"
<BEGINHMM>
<NUMSTATES> 5
<STATE> 2
<MEAN> 39
 -7.890154e-01 -6.271333e+00 1.847235e+00 -4.453391e+00 -2.027993e+00 -2.822633e+00 -3.609147e+00 3.375225e+00 -3.001486e+00 -1.844674e+00 -4.596523e+00 -6.539074e+00 6.674821e+01 -1.710226e-01 2.066172e-01 -1.716947e-01 5.151308e-01 3.765056e-01 1.520904e-01 5.392053e-01 -1.343484e-01 8.826105e-02 -1.508438e-01 -2.928396e-01 3.282711e-01 -5.146740e-01 6.735257e-02 -5.013629e-03 -1.160150e-02 -1.752486e-02 -1.751867e-01 -1.515626e-02 -1.639109e-01 -2.501125e-02 -1.316579e-02 3.605667e-02 1.152931e-01 -4.327463e-02 -4.973504e-02
<VARIANCE> 39
 1.379406e+01 4.192223e+01 5.351497e+01 5.195546e+01 7.021634e+01 7.037878e+01 6.917734e+01 6.675072e+01 7.344412e+01 5.120844e+01 5.752049e+01 3.683345e+01 3.229331e+01 6.125908e-01 1.407366e+00 1.572766e+00 1.707955e+00 1.975309e+00 2.064263e+00 2.054838e+00 2.363546e+00 2.134806e+00 1.694201e+00 1.890019e+00 1.627446e+00 8.426179e-01 9.033217e-02 2.471900e-01 2.412809e-01 3.096874e-01 3.476530e-01 3.643965e-01 3.729797e-01 4.195874e-01 3.736812e-01 3.131171e-01 3.404021e-01 2.925325e-01 1.097147e-01
<GCONST> 1.113613e+02
<STATE> 3
<MEAN> 39
 -8.459661e-01 -4.761408e+00 5.475200e-01 -1.022169e+00 -1.553406e+00 -2.062278e+00 -1.706238e+00 1.282161e+00 -2.274166e+00 -1.776474e+00 -4.597620e+00 -5.515044e+00 6.345302e+01 1.151925e-01 2.960864e-01 -2.277963e-01 4.714020e-01 -1.120843e-01 1.208138e-01 -2.986193e-03 -8.597220e-02 -5.669646e-02 5.434114e-02 2.132267e-02 1.402446e-01 -6.949584e-01 6.378743e-02 1.043296e-02 -4.094748e-03 -5.741739e-02 -1.475398e-01 -1.514633e-02 -1.499932e-01 2.373408e-02 -3.973548e-02 1.496970e-02 8.812613e-02 -4.799643e-02 2.860394e-02
<VARIANCE> 39
 1.765693e+01 3.691541e+01 4.704099e+01 3.401944e+01 5.203218e+01 5.435367e+01 6.110276e+01 5.371404e+01 7.648173e+01 4.944480e+01 4.419437e+01 3.359550e+01 3.006307e+01 5.370592e-01 1.090393e+00 1.424483e+00 1.481256e+00 1.778747e+00 2.070485e+00 1.942120e+00 2.270209e+00 2.118778e+00 1.976204e+00 1.716447e+00 1.667654e+00 8.382059e-01 8.535332e-02 1.910261e-01 2.268559e-01 2.548054e-01 3.268033e-01 3.560698e-01 3.606729e-01 3.898759e-01 3.897724e-01 3.618829e-01 3.486212e-01 3.089835e-01 8.430412e-02
<GCONST> 1.080889e+02
<STATE> 4
<MEAN> 39
 -1.265029e+00 1.728552e+00 -1.956318e+00 3.696832e+00 -3.244076e+00 1.263606e+00 -3.287364e+00 1.516746e+00 -3.676658e+00 -1.519440e+00 -2.171683e+00 -2.078223e+00 5.320079e+01 1.298236e-03 1.724880e-01 -1.261063e-01 1.339537e-01 -5.863898e-02 7.089038e-02 -2.598384e-02 6.321084e-03 2.971424e-02 -1.087995e-02 7.990143e-02 5.597114e-02 -2.492903e-01 -4.093387e-03 -2.837756e-02 3.942882e-02 -4.752909e-02 -3.621181e-03 -2.565749e-02 -1.987260e-02 -6.082512e-03 5.160524e-03 2.659498e-03 1.636888e-02 -2.814156e-02 7.141217e-02
<VARIANCE> 39
 1.019326e+01 3.026669e+01 2.839780e+01 2.484704e+01 3.005405e+01 3.457179e+01 3.101035e+01 3.413839e+01 3.380288e+01 2.717716e+01 2.674456e+01 2.778004e+01 3.405773e+01 3.460836e-01 7.481388e-01 1.007635e+00 1.149905e+00 1.426128e+00 1.592218e+00 1.707715e+00 1.941159e+00 1.857606e+00 1.727289e+00 1.670743e+00 1.562390e+00 4.074204e-01 5.900580e-02 1.225506e-01 1.728657e-01 2.144271e-01 2.545914e-01 2.900426e-01 3.386396e-01 3.695280e-01 3.702111e-01 3.371294e-01 3.214080e-01 3.017873e-01 5.971940e-02
<GCONST> 9.674174e+01
<TRANSP> 5
 0.000000e+00 1.000000e+00 0.000000e+00 0.000000e+00 0.000000e+00
 0.000000e+00 6.354770e-01 3.645230e-01 0.000000e+00 0.000000e+00
 0.000000e+00 0.000000e+00 6.018986e-01 3.981014e-01 0.000000e+00
 0.000000e+00 0.000000e+00 0.000000e+00 8.850413e-01 1.149587e-01
 0.000000e+00 0.000000e+00 0.000000e+00 0.000000e+00 0.000000e+00
<ENDHMM>
~h "i"
<BEGINHMM>
<NUMSTATES> 5
<STATE> 2
<MEAN> 39
 -2.155100e+00 -7.674131e-01 1.623512e+01 -1.142598e+00 -1.448169e+01 -8.046803e+00 -1.084950e+01 -1.125445e+00 -9.994925e+00 -3.783914e+00 6.058105e+00 -6.750414e+00 6.486988e+01 -2.473136e-01 -4.705378e-01 2.573254e+00 -1.012783e+00 -2.101323e+00 -4.906530e-01 -1.381389e+00 3.807606e-01 -1.114709e+00 -4.116008e-01 1.853194e+00 -5.547156e-01 1.197992e+00 1.024345e-01 2.443399e-01 -7.938462e-01 1.557498e-01 4.952019e-01 4.251109e-01 2.758032e-01 5.597556e-02 2.775438e-01 2.821339e-01 -4.604639e-01 2.590011e-02 -3.918513e-01
<VARIANCE> 39
 1.355510e+01 3.151911e+01 5.652345e+01 4.048442e+01 5.613081e+01 5.200796e+01 6.299987e+01 5.952245e+01 5.739652e+01 5.486629e+01 5.114878e+01 3.388340e+01 1.910117e+01 2.094644e+00 2.069277e+00 5.632863e+00 3.743942e+00 4.416573e+00 4.207778e+00 5.030335e+00 5.026883e+00 5.257660e+00 4.363734e+00 4.145859e+00 2.923820e+00 1.707777e+00 3.383217e-01 3.431332e-01 1.068361e+00 6.740854e-01 1.059230e+00 7.271044e-01 9.791353e-01 8.553711e-01 8.635820e-01 6.940125e-01 8.614854e-01 5.547131e-01 3.101822e-01
<GCONST> 1.316311e+02
<STATE> 3
<MEAN> 39
 -2.562790e+00 -1.334954e+00 1.935012e+01 -2.835831e+00 -1.766233e+01 -8.108171e+00 -1.356174e+01 5.109539e-01 -1.133167e+01 -3.988174e+00 8.922387e+00 -8.143452e+00 6.646426e+01 2.424919e-01 2.171215e-01 -6.852902e-01 1.987078e-01 4.914335e-01 1.669730e-01 3.001463e-01 1.406267e-01 1.024864e-01 4.181632e-01 -5.077463e-01 7.803659e-02 -3.856905e-01 1.363868e-01 1.813450e-01 -8.162489e-01 3.744777e-01 6.750507e-01 2.114713e-01 4.688911e-01 -1.322997e-01 2.884842e-01 1.188439e-01 -6.329844e-01 1.546858e-01 -4.341652e-01
<VARIANCE> 39
 8.257689e+00 2.915438e+01 4.113685e+01 3.939723e+01 4.334325e+01 5.163871e+01 5.899372e+01 6.504554e+01 5.709339e+01 6.476679e+01 4.918678e+01 3.464309e+01 1.394970e+01 8.822935e-01 1.718039e+00 3.184152e+00 2.548734e+00 2.922699e+00 3.133042e+00 3.114456e+00 3.604416e+00 3.039337e+00 2.494281e+00 2.659090e+00 2.125033e+00 1.334489e+00 1.713009e-01 2.732772e-01 5.833230e-01 4.474112e-01 6.069732e-01 6.379160e-01 6.750975e-01 7.186044e-01 6.884527e-01 5.645177e-01 5.891967e-01 4.288175e-01 2.009926e-01
<GCONST> 1.199952e+02
<STATE> 4
<MEAN> 39
 -1.072932e+00 1.980052e+00 1.348260e+01 -7.942004e-01 -1.288293e+01 -4.303382e+00 -9.504927e+00 -1.391089e+00 -1.100241e+01 -1.010360e+00 3.469446e+00 -5.998694e+00 6.059564e+01 2.687652e-01 3.680608e-01 -1.425477e+00 6.521344e-01 8.877771e-01 5.700926e-01 7.071476e-01 -7.291801e-02 3.877828e-01 2.056395e-01 -8.541813e-01 2.764739e-01 -9.129915e-01 -8.291925e-02 -5.588676e-02 -3.691560e-02 -4.276259e-02 3.921451e-02 5.653252e-03 3.384069e-03 -5.639677e-02 9.207679e-02 -5.048084e-02 5.121402e-03 -1.635139e-02 7.709432e-02
<VARIANCE> 39
 1.006362e+01 3.052205e+01 5.587865e+01 4.694806e+01 4.440528e+01 5.429914e+01 4.392363e+01 5.691770e+01 5.281876e+01 4.847715e+01 4.454020e+01 3.481132e+01 3.399607e+01 7.328010e-01 1.411359e+00 2.333698e+00 2.061273e+00 2.519050e+00 2.630824e+00 2.761116e+00 2.926094e+00 2.869587e+00 2.433826e+00 2.568748e+00 2.004095e+00 1.181393e+00 1.140876e-01 2.060680e-01 3.835056e-01 3.597192e-01 4.592022e-01 4.951355e-01 4.532922e-01 5.208090e-01 4.783312e-01 4.121360e-01 4.056766e-01 3.319567e-01 1.794686e-01
<GCONST> 1.149406e+02
<TRANSP> 5
 0.000000e+00 1.000000e+00 0.000000e+00 0.000000e+00 0.000000e+00
 0.000000e+00 5.831746e-01 4.168254e-01 0.000000e+00 0.000000e+00
 0.000000e+00 0.000000e+00 5.954857e-01 4.045143e-01 0.000000e+00
 0.000000e+00 0.000000e+00 0.000000e+00 7.419829e-01 2.580171e-01
 0.000000e+00 0.000000e+00 0.000000e+00 0.000000e+00 0.000000e+00
<ENDHMM>
~h "j"
<BEGINHMM>
<NUMSTATES> 5
<STATE> 2
<MEAN> 39
 7.230493e-01 4.347013e+00 7.672251e+00 3.016095e+00 -5.393017e+00 -3.816047e+00 -7.533622e+00 1.021845e+00 -4.825341e+00 -2.991925e+00 -2.059531e+00 -3.398220e+00 5.891876e+01 -9.391327e-01 4.984880e-01 9.368397e-01 -3.735739e-01 4.328679e-01 -6.509173e-01 2.789062e-02 -5.863799e-01 -1.302286e-01 -4.741841e-01 2.080061e-01 4.732209e-01 3.314267e-01 -1.640887e-01 -4.421029e-01 3.727562e-01 -3.819135e-01 -4.191087e-01 -4.596443e-01 -5.299855e-01 4.817652e-02 -1.070971e-01 7.551750e-02 4.127640e-01 -2.760529e-02 5.822517e-01
<VARIANCE> 39
 1.633155e+01 3.389902e+01 4.014086e+01 3.192589e+01 4.654074e+01 4.721714e+01 5.034490e+01 4.850283e+01 3.162951e+01 3.149912e+01 3.332218e+01 2.742068e+01 2.745758e+01 2.483239e+00 2.371207e+00 4.861650e+00 3.846962e+00 4.132934e+00 6.075109e+00 4.625293e+00 3.509519e+00 2.869723e+00 3.171936e+00 3.220077e+00 2.528241e+00 3.393776e+00 5.203478e-01 4.164907e-01 8.962231e-01 6.101833e-01 1.005836e+00 1.012487e+00 9.632620e-01 6.622837e-01 6.341165e-01 6.854194e-01 6.354595e-01 5.819485e-01 4.099800e-01
<GCONST> 1.286349e+02
<STATE> 3
<MEAN> 39
 -3.202732e+00 2.957158e+00 1.412610e+01 4.341862e-01 -7.696662e+00 -8.346816e+00 -1.221079e+01 -1.297199e+00 -5.888239e+00 -5.399576e+00 1.505261e+00 -1.678736e+00 6.339430e+01 -2.871831e-01 -1.648448e+00 1.864321e+00 -1.014801e+00 -2.122758e+00 -1.853989e+00 -2.790380e+00 5.102717e-01 -5.350375e-01 1.913316e-01 1.937888e+00 -1.487529e-01 2.157365e+00 6.057767e-01 -2.739198e-01 -8.059134e-01 -1.361045e-02 -1.300959e-01 5.220771e-01 -6.552957e-02 4.942885e-01 5.817695e-02 5.638965e-01 2.738137e-02 -4.607305e-01 -1.401875e-01
<VARIANCE> 39
 1.228381e+01 3.394872e+01 4.980196e+01 3.020969e+01 5.740178e+01 4.267421e+01 8.275525e+01 4.739221e+01 3.402620e+01 3.858207e+01 3.484827e+01 2.774398e+01 2.063367e+01 2.701917e+00 2.870446e+00 5.048996e+00 3.458927e+00 6.236935e+00 4.442809e+00 5.454848e+00 5.059394e+00 4.019790e+00 4.036739e+00 3.483457e+00 3.952294e+00 1.771892e+00 3.378998e-01 6.327165e-01 9.145430e-01 5.927669e-01 1.409397e+00 1.016040e+00 1.327327e+00 8.653307e-01 7.185310e-01 6.889277e-01 7.968007e-01 6.377525e-01 3.382471e-01
<GCONST> 1.315931e+02
<STATE> 4
<MEAN> 39
 -2.376254e+00 -6.616641e-01 1.392959e+01 -2.957423e+00 -1.085312e+01 -1.103443e+01 -1.416451e+01 2.193398e+00 -7.118691e+00 -5.444311e-01 4.395646e+00 -2.788898e+00 6.679310e+01 7.707151e-01 -1.415219e+00 -6.512041e-01 -7.918616e-01 -7.279301e-01 -8.615434e-02 -1.058244e+00 1.358025e+00 3.018868e-01 1.085507e+00 3.916897e-01 -8.306462e-01 9.472096e-01 2.612647e-01 2.970355e-01 -7.312980e-01 2.196602e-01 6.422377e-01 7.664097e-01 6.050806e-01 -9.232447e-02 1.838731e-01 -3.566697e-02 -5.662282e-01 -2.336629e-01 -5.638579e-01
<VARIANCE> 39
 1.636545e+01 4.152412e+01 4.795305e+01 3.362842e+01 5.730120e+01 4.172519e+01 7.752374e+01 7.303693e+01 4.760091e+01 5.571899e+01 3.428021e+01 3.558371e+01 2.305902e+01 1.478895e+00 2.980154e+00 5.184606e+00 2.873301e+00 5.903254e+00 4.495267e+00 4.819201e+00 4.993363e+00 4.150601e+00 3.588520e+00 4.455505e+00 3.094236e+00 1.711089e+00 4.022613e-01 4.652933e-01 6.914997e-01 5.723015e-01 1.214985e+00 7.206458e-01 9.960581e-01 1.024263e+00 6.693602e-01 6.349170e-01 6.749986e-01 5.738620e-01 2.407288e-01
<GCONST> 1.306946e+02
<TRANSP> 5
 0.000000e+00 1.000000e+00 0.000000e+00 0.000000e+00 0.000000e+00
 0.000000e+00 7.055262e-01 2.944738e-01 0.000000e+00 0.000000e+00
 0.000000e+00 0.000000e+00 4.590438e-01 5.409561e-01 0.000000e+00
 0.000000e+00 0.000000e+00 0.000000e+00 6.247330e-01 3.752670e-01
 0.000000e+00 0.000000e+00 0.000000e+00 0.000000e+00 0.000000e+00
<ENDHMM>
~h "k"
<BEGINHMM>
<NUMSTATES> 5
<STATE> 2
<MEAN> 39
 2.356324e-01 1.719468e+00 -3.666083e+00 1.495754e+00 -3.813198e+00 9.000916e-01 -4.992103e+00 -4.565278e-01 -4.633636e+00 3.691247e-01 -1.103883e+00 -3.947202e+00 5.455757e+01 -5.412691e-01 -4.836035e-01 -8.526101e-01 -3.670832e-01 1.277116e+00 -5.160625e-01 -2.463653e-01 -7.820529e-02 3.817660e-01 1.970510e-01 -8.999812e-02 1.810038e-02 5.141534e-01 1.462042e-02 -4.021949e-01 2.720771e-01 -5.608250e-01 4.638067e-02 -3.175865e-01 -2.341061e-01 8.485588e-03 -4.685063e-02 1.566986e-01 1.188313e-01 -2.459810e-01 7.688609e-01
<VARIANCE> 39
 1.111755e+01 2.557597e+01 3.312272e+01 3.454400e+01 4.225975e+01 4.453902e+01 3.647429e+01 3.713221e+01 3.316255e+01 2.966986e+01 2.980939e+01 2.867349e+01 2.250753e+01 1.400573e+00 3.141298e+00 2.809393e+00 3.778716e+00 4.875745e+00 4.446600e+00 3.694759e+00 4.087407e+00 3.888856e+00 3.313221e+00 2.830484e+00 2.834297e+00 2.904136e+00 2.530086e-01 4.127727e-01 4.846215e-01 5.480635e-01 8.996761e-01 6.970776e-01 6.376687e-01 6.899392e-01 6.978168e-01 5.980577e-01 5.151145e-01 5.283279e-01 3.106061e-01
<GCONST> 1.229998e+02
<STATE> 3
<MEAN> 39
 -1.914546e+00 -1.891111e+00 -5.422779e+00 -2.004416e+00 1.254747e+00 -2.468721e+00 -6.636778e+00 -9.881898e-01 -3.395042e+00 1.960257e+00 -7.809296e-01 -4.958450e+00 5.985852e+01 1.247643e-01 -9.816490e-01 5.371655e-01 -1.689953e+00 -3.056528e-02 -9.136680e-01 -5.258462e-01 1.455228e-01 -8.124287e-02 3.463563e-01 3.190605e-01 -7.443202e-01 2.055436e+00 4.705105e-01 -5.994149e-03 6.395977e-01 -2.060356e-01 -1.014254e+00 2.642479e-01 -4.562107e-02 1.910361e-01 -2.722883e-01 -1.581164e-01 1.876852e-01 -2.348231e-01 1.687317e-01
<VARIANCE> 39
 2.337733e+01 3.308801e+01 4.927672e+01 5.187479e+01 6.145666e+01 7.034212e+01 6.249507e+01 5.766783e+01 4.868026e+01 4.206339e+01 4.110364e+01 3.628800e+01 2.926734e+01 2.681331e+00 3.877590e+00 4.373044e+00 5.250190e+00 6.781882e+00 5.611386e+00 4.669602e+00 5.473361e+00 5.623678e+00 3.955120e+00 3.677644e+00 4.102563e+00 3.282417e+00 4.720445e-01 6.521416e-01 7.123507e-01 8.365613e-01 1.227241e+00 1.034311e+00 1.123111e+00 1.226333e+00 1.112401e+00 8.927400e-01 8.174855e-01 8.123372e-01 4.844224e-01
<GCONST> 1.381259e+02
<STATE> 4
<MEAN> 39
 2.988565e-01 -1.584317e+00 -2.863991e+00 -3.995063e+00 -3.081922e+00 -2.221003e+00 -6.390467e+00 9.309441e-03 -4.716780e+00 1.209118e+00 -2.675480e-02 -6.072556e+00 6.136688e+01 8.724013e-01 -5.803781e-01 1.247785e+00 -1.377373e+00 -1.693602e+00 -7.499214e-02 -5.906035e-01 2.868064e-01 -3.990532e-01 -1.419591e-01 5.736827e-01 -8.308070e-01 1.538205e+00 1.166852e-01 2.052760e-03 1.728651e-01 1.634056e-01 -3.009838e-01 2.443924e-01 -9.616584e-02 -9.686176e-03 -1.981934e-02 -9.104787e-02 7.742004e-02 1.213737e-04 -1.003445e-01
<VARIANCE> 39
 2.555785e+01 3.894660e+01 4.903779e+01 6.440520e+01 4.806440e+01 6.961966e+01 5.291401e+01 4.305507e+01 4.877093e+01 3.886890e+01 3.930811e+01 4.054481e+01 3.755117e+01 2.329089e+00 3.773427e+00 4.154361e+00 4.889839e+00 6.015185e+00 4.642725e+00 5.389601e+00 6.146730e+00 5.708844e+00 4.186577e+00 4.367094e+00 4.400058e+00 2.826585e+00 3.637020e-01 4.866413e-01 5.505369e-01 7.868385e-01 8.723906e-01 7.984976e-01 8.203216e-01 8.216603e-01 7.819660e-01 6.897492e-01 6.636593e-01 5.871001e-01 4.882348e-01
<GCONST> 1.346140e+02
<TRANSP> 5
 0.000000e+00 1.000000e+00 0.000000e+00 0.000000e+00 0.000000e+00
 0.000000e+00 5.323247e-01 4.676753e-01 0.000000e+00 0.000000e+00
 0.000000e+00 0.000000e+00 4.106703e-01 5.893297e-01 0.000000e+00
 0.000000e+00 0.000000e+00 0.000000e+00 2.574425e-01 7.425575e-01
 0.000000e+00 0.000000e+00 0.000000e+00 0.000000e+00 0.000000e+00
<ENDHMM>
~h "l"
<BEGINHMM>
<NUMSTATES> 5
<STATE> 2
<MEAN> 39
 2.551045e+00 -5.243934e+00 4.126985e+00 -7.804568e+00 -7.492615e+00 -2.391427e+00 -1.573872e+01 -4.024327e+00 -9.763967e-02 5.239285e+00 2.879990e+00 -1.140173e+01 6.716717e+01 1.311602e-01 -1.383495e-01 7.704872e-02 -4.701704e-01 -7.739477e-02 2.076576e-01 -7.641501e-01 -3.112998e-01 4.044222e-01 7.926392e-01 2.740644e-01 -5.371122e-01 1.263531e-01 -1.025704e-01 -3.645677e-02 -1.058469e-01 3.231117e-02 -1.395848e-02 1.017877e-01 3.941254e-01 4.214106e-01 -1.166109e-01 -4.324342e-01 -1.276305e-01 1.026497e-01 -1.728967e-03
<VARIANCE> 39
 9.521462e+00 3.812173e+01 6.861515e+01 5.828642e+01 5.378044e+01 5.614706e+01 8.577631e+01 9.386096e+01 8.617542e+01 4.949296e+01 5.210738e+01 5.960884e+01 1.932028e+01 4.972902e-01 1.678354e+00 2.390573e+00 2.973767e+00 2.449314e+00 3.886991e+00 3.967236e+00 5.002500e+00 3.329053e+00 3.172959e+00 3.339966e+00 2.585319e+00 9.811948e-01 9.466529e-02 2.682034e-01 2.907586e-01 4.702331e-01 4.301029e-01 5.677672e-01 7.087690e-01 8.022488e-01 6.357621e-01 5.455161e-01 6.435600e-01 4.677334e-01 1.210126e-01
<GCONST> 1.217396e+02
<STATE> 3
<MEAN> 39
 2.604439e+00 -6.063826e+00 3.473013e+00 -9.233994e+00 -7.561536e+00 -1.591712e+00 -1.604677e+01 -2.802452e+00 6.847766e-01 5.823266e+00 3.156053e+00 -1.284370e+01 6.775207e+01 -7.462355e-02 -3.517306e-01 -2.206994e-01 -2.386257e-01 1.603400e-03 4.180526e-01 3.961990e-01 7.785835e-01 9.658156e-02 -5.286818e-01 -4.087183e-01 -1.728242e-01 2.072824e-01 -7.597457e-02 8.744612e-03 -5.236243e-02 1.645018e-01 7.618990e-02 7.679869e-02 4.154835e-01 2.424090e-01 -2.426735e-01 -4.523882e-01 -2.308299e-01 2.353331e-01 -4.792642e-02
<VARIANCE> 39
 8.460732e+00 3.486957e+01 5.884902e+01 5.645741e+01 5.196885e+01 5.297904e+01 8.202534e+01 7.990369e+01 9.345491e+01 4.928041e+01 5.664877e+01 6.538017e+01 1.800974e+01 4.374215e-01 1.733230e+00 2.259344e+00 2.467660e+00 1.899911e+00 3.222604e+00 3.591309e+00 4.370770e+00 3.346932e+00 2.992646e+00 3.586323e+00 2.263196e+00 9.177517e-01 7.010222e-02 2.842137e-01 2.792039e-01 4.220422e-01 3.618847e-01 5.233624e-01 5.872703e-01 7.215055e-01 6.558119e-01 4.904467e-01 6.256367e-01 4.307112e-01 1.298495e-01
<GCONST> 1.189794e+02
<STATE> 4
<MEAN> 39
 2.253827e+00 -6.852007e+00 1.711715e+00 -9.244034e+00 -6.834831e+00 5.388631e-01 -1.326828e+01 -9.021703e-01 1.026912e+00 2.205977e+00 1.649584e+00 -1.291590e+01 6.808465e+01 -8.595277e-02 2.177748e-02 -4.692392e-02 4.306538e-01 2.040223e-01 3.390718e-01 8.628257e-01 5.944511e-01 -7.648057e-01 -8.886315e-01 -5.304542e-01 4.439176e-01 -2.069111e-01 -5.809893e-03 2.070288e-01 8.291271e-02 2.221061e-01 -3.651319e-03 -1.360774e-01 1.046124e-01 -1.322801e-01 -2.763045e-01 2.214132e-02 6.412875e-02 1.943957e-01 -1.743817e-01
<VARIANCE> 39
 9.483003e+00 4.004911e+01 5.420566e+01 6.159690e+01 4.522679e+01 6.636036e+01 7.066757e+01 8.533778e+01 9.454436e+01 5.699813e+01 6.080983e+01 6.299309e+01 2.210142e+01 4.650677e-01 1.810411e+00 1.698636e+00 2.350464e+00 2.057847e+00 3.207354e+00 2.920657e+00 3.574533e+00 3.636583e+00 2.805947e+00 3.704190e+00 2.125523e+00 1.170491e+00 7.672925e-02 2.489105e-01 3.122713e-01 3.951513e-01 3.799421e-01 4.936546e-01 5.225268e-01 6.518702e-01 5.669522e-01 5.082958e-01 6.358784e-01 3.948796e-01 1.465883e-01
<GCONST> 1.190216e+02
<TRANSP> 5
 0.000000e+00 1.000000e+00 0.000000e+00 0.000000e+00 0.000000e+00
 0.000000e+00 4.547876e-01 5.452124e-01 0.000000e+00 0.000000e+00
 0.000000e+00 0.000000e+00 4.287319e-01 5.712681e-01 0.000000e+00
 0.000000e+00 0.000000e+00 0.000000e+00 4.976556e-01 5.023444e-01
 0.000000e+00 0.000000e+00 0.000000e+00 0.000000e+00 0.000000e+00
<ENDHMM>
~h "m"
<BEGINHMM>
<NUMSTATES> 5
<STATE> 2
<MEAN> 39
 4.506225e+00 -2.437530e+00 4.398898e+00 2.661719e-01 -8.712475e+00 6.461405e+00 -5.846406e+00 -6.803034e+00 -1.226272e+01 6.163293e-01 1.696682e-01 -9.316815e+00 6.236681e+01 3.862108e-02 2.618285e-01 9.223755e-01 9.243675e-01 -1.737049e-01 8.855767e-01 4.548680e-01 -1.163724e+00 -1.355603e+00 -3.891219e-01 -5.939064e-01 -1.425699e-01 -3.592806e-01 -7.861272e-02 -2.025777e-01 -2.118299e-01 -4.137959e-01 5.201081e-02 -3.420801e-01 -2.591751e-01 4.741202e-01 5.808945e-01 1.145963e-02 6.387523e-02 -3.020376e-02 2.393800e-01
<VARIANCE> 39
 6.904160e+00 2.658830e+01 3.330860e+01 3.703983e+01 4.440608e+01 4.285492e+01 4.287830e+01 3.959251e+01 4.912117e+01 3.035044e+01 4.315234e+01 3.963790e+01 1.754402e+01 4.707231e-01 1.356203e+00 2.135089e+00 2.249882e+00 2.113312e+00 2.458160e+00 2.310659e+00 2.717049e+00 4.193121e+00 2.277746e+00 2.934603e+00 1.982350e+00 1.026595e+00 9.118406e-02 1.529000e-01 3.202207e-01 3.296431e-01 3.706202e-01 3.876148e-01 4.142683e-01 4.601227e-01 6.054156e-01 4.379742e-01 5.499297e-01 3.620992e-01 9.456787e-02
<GCONST> 1.098424e+02
<STATE> 3
<MEAN> 39
 4.350265e+00 -2.376417e+00 6.200953e+00 4.391167e-01 -9.562336e+00 7.437893e+00 -6.016017e+00 -8.118906e+00 -1.372602e+01 -3.560992e-01 -5.042579e-01 -9.599266e+00 6.244724e+01 1.505315e-01 -2.302081e-01 -4.446440e-01 -5.544336e-01 -2.011929e-01 -1.652117e-01 -2.207344e-01 4.086874e-01 7.720486e-01 1.214715e-01 2.707933e-01 -5.887261e-02 2.458137e-01 -2.402972e-03 -1.567471e-01 -4.345960e-01 -3.834205e-01 5.585107e-02 -3.331141e-01 -1.533964e-01 5.545658e-01 6.913488e-01 1.418003e-01 1.517515e-01 -9.429213e-03 1.613611e-01
<VARIANCE> 39
 6.185180e+00 2.559941e+01 3.733514e+01 3.278135e+01 4.608406e+01 4.516251e+01 3.770514e+01 3.982021e+01 5.698548e+01 3.294447e+01 4.195723e+01 3.988192e+01 1.568982e+01 3.791865e-01 1.328360e+00 2.069448e+00 2.211277e+00 1.791412e+00 2.173743e+00 1.999618e+00 2.343993e+00 3.589566e+00 2.030068e+00 2.514659e+00 2.031690e+00 8.719766e-01 8.476357e-02 1.666849e-01 3.077092e-01 3.189560e-01 3.712534e-01 4.241149e-01 3.567467e-01 4.675799e-01 7.060282e-01 4.309152e-01 5.162913e-01 3.951806e-01 8.304089e-02
<GCONST> 1.082511e+02
<STATE> 4
<MEAN> 39
 4.976243e+00 -3.188725e+00 2.116284e+00 -3.201069e+00 -1.019040e+01 6.791849e+00 -7.290277e+00 -4.059435e+00 -7.718573e+00 2.059509e-01 5.329140e-01 -9.960317e+00 6.339217e+01 -1.680003e-02 -4.346872e-01 -8.395893e-01 -6.571010e-01 2.343407e-01 -5.206408e-01 -3.160652e-01 1.156475e+00 1.366529e+00 1.196950e-02 9.469362e-02 -1.243736e-01 3.331392e-01 -1.250324e-01 -2.912559e-02 1.301182e-01 8.847382e-02 1.432181e-01 -1.461528e-01 5.302232e-03 9.503494e-02 -6.579398e-02 -8.314901e-02 -1.066988e-01 3.665593e-02 9.198843e-03
<VARIANCE> 39
 7.484716e+00 4.376320e+01 3.973145e+01 4.403477e+01 7.834576e+01 5.159510e+01 4.324249e+01 4.741357e+01 5.153967e+01 3.729441e+01 4.308091e+01 4.965828e+01 2.453108e+01 4.452372e-01 1.791620e+00 2.119423e+00 2.476626e+00 2.737308e+00 2.590735e+00 2.453719e+00 3.238574e+00 4.756401e+00 2.473649e+00 2.845697e+00 2.600416e+00 1.008543e+00 8.945623e-02 2.063076e-01 3.357509e-01 4.068469e-01 4.588366e-01 4.268026e-01 4.070848e-01 4.912893e-01 6.188198e-01 4.172553e-01 4.850612e-01 3.765065e-01 1.080583e-01
<GCONST> 1.147321e+02
<TRANSP> 5
 0.000000e+00 1.000000e+00 0.000000e+00 0.000000e+00 0.000000e+00
 0.000000e+00 5.823365e-01 4.176635e-01 0.000000e+00 0.000000e+00
 0.000000e+00 0.000000e+00 5.495807e-01 4.504193e-01 0.000000e+00
 0.000000e+00 0.000000e+00 0.000000e+00 5.991809e-01 4.008191e-01
 0.000000e+00 0.000000e+00 0.000000e+00 0.000000e+00 0.000000e+00
<ENDHMM>
~h "n"
<BEGINHMM>
<NUMSTATES> 5
<STATE> 2
<MEAN> 39
 3.611084e+00 -5.011829e+00 6.899991e+00 2.270976e+00 -1.080264e+01 -2.074337e+00 -9.734844e+00 -1.051359e+00 -5.758906e+00 3.057794e+00 -4.238510e+00 -1.098657e+01 6.379467e+01 3.276659e-01 1.249540e+00 8.211830e-01 1.257131e+00 -5.033062e-01 7.803261e-01 3.159961e-01 -2.386397e+00 -8.827483e-01 9.615782e-01 -1.019207e+00 4.995933e-01 -1.091075e+00 -1.097583e-01 -1.336706e-01 -2.347569e-01 -3.471788e-01 1.411300e-01 2.364233e-03 1.093153e-01 3.384443e-01 1.395400e-01 -2.755136e-01 2.050487e-01 3.107910e-02 1.679498e-01
<VARIANCE> 39
 5.618305e+00 3.331749e+01 3.449889e+01 2.687361e+01 4.269980e+01 3.859680e+01 4.732227e+01 8.933365e+01 5.101699e+01 5.016457e+01 4.140462e+01 4.510502e+01 1.669965e+01 3.998501e-01 1.483896e+00 2.461009e+00 1.923626e+00 2.140232e+00 2.509606e+00 2.777596e+00 5.494937e+00 2.874682e+00 3.398921e+00 2.938112e+00 2.349692e+00 8.574194e-01 7.560458e-02 2.876720e-01 3.563650e-01 3.265707e-01 3.407521e-01 4.243895e-01 4.558136e-01 1.181705e+00 4.847451e-01 5.785086e-01 5.004994e-01 3.868367e-01 1.481221e-01
<GCONST> 1.138357e+02
<STATE> 3
<MEAN> 39
 4.125204e+00 -2.169062e+00 7.504102e+00 4.429702e+00 -1.131751e+01 -1.206084e-01 -8.391105e+00 -6.004197e+00 -7.197374e+00 4.391444e+00 -5.883242e+00 -9.163695e+00 6.160720e+01 5.604145e-02 5.032109e-01 -2.545284e-01 2.878085e-01 1.422511e-01 3.373742e-01 4.011638e-01 -2.404746e-01 -1.368838e-01 -3.225355e-01 -1.188278e-01 2.477409e-01 -4.578431e-01 -1.754280e-01 -2.924018e-01 -3.311510e-01 -4.530636e-01 2.810696e-01 -2.083115e-01 -8.450065e-03 8.663596e-01 2.504024e-01 -4.871362e-01 3.937417e-01 -9.275091e-02 2.599694e-01
<VARIANCE> 39
 4.997729e+00 2.382286e+01 2.863204e+01 2.461973e+01 4.398545e+01 3.696885e+01 3.896724e+01 5.913871e+01 4.887956e+01 4.427261e+01 4.076519e+01 3.755212e+01 1.206767e+01 3.343006e-01 1.705527e+00 1.749389e+00 1.669217e+00 1.839423e+00 2.097938e+00 2.244764e+00 4.439237e+00 2.587530e+00 2.763504e+00 2.326672e+00 2.046912e+00 1.022158e+00 9.291724e-02 2.795402e-01 3.824231e-01 3.614740e-01 4.012904e-01 4.172157e-01 4.501944e-01 9.058095e-01 5.007718e-01 5.790871e-01 5.454124e-01 3.874360e-01 1.504913e-01
<GCONST> 1.103646e+02
<STATE> 4
<MEAN> 39
 2.099990e+00 1.531411e+00 2.449278e+00 5.277170e+00 -6.822747e+00 1.286630e+00 -5.610336e+00 -2.677000e+00 -4.849560e+00 5.445684e-01 -5.433452e+00 -5.821799e+00 5.644411e+01 -2.444654e-01 1.593993e-01 -4.031630e-01 -2.328213e-01 3.413384e-01 1.431956e-02 1.828994e-01 5.567714e-01 1.162824e-01 -5.263042e-01 3.691351e-01 1.243563e-01 -2.280929e-01 -1.111978e-01 -1.622564e-01 2.901406e-02 -2.340656e-01 4.017434e-02 -1.205817e-01 -8.033716e-02 2.006693e-01 5.973341e-02 -5.082132e-02 1.580174e-01 -3.549790e-02 1.766226e-01
<VARIANCE> 39
 1.162792e+01 2.854695e+01 3.625927e+01 2.300799e+01 4.067908e+01 3.062500e+01 3.530914e+01 5.388541e+01 3.987077e+01 3.625797e+01 3.625165e+01 3.517319e+01 2.924578e+01 4.858110e-01 1.461375e+00 1.694670e+00 1.779227e+00 2.063982e+00 1.891963e+00 2.088343e+00 3.899932e+00 2.328955e+00 2.700716e+00 2.449746e+00 1.906184e+00 9.696946e-01 1.138087e-01 2.114397e-01 2.788484e-01 3.294238e-01 3.787836e-01 3.877928e-01 3.978471e-01 6.329750e-01 4.514121e-01 4.667003e-01 4.702878e-01 3.516725e-01 1.239348e-01
<GCONST> 1.094035e+02
<TRANSP> 5
 0.000000e+00 1.000000e+00 0.000000e+00 0.000000e+00 0.000000e+00
 0.000000e+00 5.058191e-01 4.941809e-01 0.000000e+00 0.000000e+00
 0.000000e+00 0.000000e+00 4.740468e-01 5.259532e-01 0.000000e+00
 0.000000e+00 0.000000e+00 0.000000e+00 7.359225e-01 2.640775e-01
 0.000000e+00 0.000000e+00 0.000000e+00 0.000000e+00 0.000000e+00
<ENDHMM>
~h "o"
<BEGINHMM>
<NUMSTATES> 5
<STATE> 2
<MEAN> 39
 4.044139e+00 -1.550200e+00 -3.875165e+00 -1.138689e+01 -7.338897e+00 5.126008e+00 -7.506516e+00 -1.859141e+00 -3.949285e+00 2.201355e+00 2.972867e+00 -5.822986e+00 6.357775e+01 7.609220e-01 -4.953237e-01 -1.879577e-01 -1.836334e+00 -4.967921e-01 1.093587e+00 -1.989953e-01 1.211472e-01 -4.078633e-01 3.521986e-01 5.519149e-01 -1.949369e-01 9.068928e-01 -2.328652e-01 1.653408e-01 1.807829e-01 6.692234e-01 2.087134e-01 -2.443308e-01 7.702448e-02 3.118735e-02 -8.613980e-03 -6.335868e-02 -2.417003e-01 2.910377e-02 -3.423119e-01
<VARIANCE> 39
 1.113371e+01 3.595051e+01 2.362683e+01 8.423626e+01 4.728143e+01 6.045161e+01 5.774542e+01 4.802032e+01 5.753530e+01 4.261874e+01 4.370581e+01 3.802872e+01 4.113272e+01 1.482259e+00 2.439764e+00 1.871176e+00 7.202588e+00 3.580220e+00 4.378739e+00 4.164749e+00 3.703119e+00 3.829926e+00 3.285729e+00 3.308891e+00 2.446146e+00 3.147772e+00 2.654898e-01 3.628325e-01 3.537453e-01 1.192934e+00 5.841227e-01 7.876146e-01 7.723210e-01 6.220790e-01 6.555989e-01 5.961864e-01 5.772330e-01 4.660015e-01 4.315556e-01
<GCONST> 1.274280e+02
<STATE> 3
<MEAN> 39
 5.072190e+00 -3.674113e+00 -3.568147e+00 -1.332737e+01 -8.775928e+00 7.291010e+00 -8.513094e+00 -2.185313e+00 -4.374813e+00 2.517972e+00 4.624364e+00 -7.847659e+00 6.582683e+01 -2.118562e-02 2.138394e-01 5.781021e-03 9.092948e-01 3.152120e-01 -2.379088e-01 1.429720e-01 -5.276682e-03 -7.082167e-02 1.283101e-01 -3.561315e-01 -1.057393e-01 -3.801355e-01 -1.775641e-01 2.056272e-01 9.071973e-02 6.504715e-01 1.892932e-01 -3.532106e-01 7.461156e-02 -7.531985e-02 7.346851e-02 -7.725552e-02 -2.654025e-01 3.953284e-02 -3.032663e-01
<VARIANCE> 39
 7.179454e+00 3.298269e+01 2.201118e+01 7.026083e+01 4.712469e+01 5.629958e+01 5.402581e+01 5.933018e+01 6.074258e+01 5.304671e+01 4.852135e+01 4.442026e+01 2.250385e+01 5.323821e-01 1.813206e+00 1.327875e+00 3.703639e+00 2.325880e+00 2.502349e+00 3.216165e+00 2.566407e+00 2.481323e+00 2.699071e+00 2.641528e+00 2.075097e+00 1.442457e+00 1.177281e-01 2.482899e-01 2.998939e-01 5.321212e-01 4.655186e-01 5.524443e-01 5.871702e-01 5.696051e-01 5.199277e-01 5.309382e-01 5.012218e-01 3.997078e-01 1.908649e-01
<GCONST> 1.163384e+02
<STATE> 4
<MEAN> 39
 2.450085e+00 2.450987e+00 -4.037461e+00 -2.752269e+00 -5.384093e+00 3.688262e+00 -4.678025e+00 1.719230e-02 -4.950718e+00 9.220904e-01 -8.045954e-02 -3.557688e+00 5.623812e+01 -2.310836e-01 2.633240e-01 9.567486e-02 9.032159e-01 2.007668e-01 -2.365531e-01 1.175225e-01 -4.894261e-02 1.419906e-01 -1.746369e-01 -2.165684e-01 9.493110e-02 -5.205954e-01 -2.866563e-02 -2.909073e-02 6.045359e-02 -2.398219e-02 -1.758642e-02 -2.061977e-02 -1.667040e-02 -3.117589e-02 -5.665194e-03 -1.628697e-02 -6.262723e-03 1.691829e-02 3.920506e-02
<VARIANCE> 39
 1.723950e+01 3.678973e+01 2.141731e+01 9.117072e+01 3.428981e+01 3.418930e+01 4.441097e+01 3.691741e+01 4.396412e+01 3.848735e+01 2.967279e+01 3.567096e+01 5.246995e+01 3.986403e-01 8.873078e-01 1.169030e+00 2.256639e+00 1.690068e+00 1.972822e+00 2.007109e+00 2.066216e+00 2.082794e+00 2.331519e+00 1.927478e+00 1.645600e+00 6.866144e-01 7.613970e-02 1.743289e-01 1.831932e-01 3.126732e-01 3.126040e-01 3.472211e-01 3.891598e-01 4.118986e-01 4.094387e-01 4.461076e-01 3.385172e-01 3.093629e-01 1.042037e-01
<GCONST> 1.059988e+02
<TRANSP> 5
 0.000000e+00 1.000000e+00 0.000000e+00 0.000000e+00 0.000000e+00
 0.000000e+00 5.592088e-01 4.407912e-01 0.000000e+00 0.000000e+00
 0.000000e+00 0.000000e+00 6.175762e-01 3.824237e-01 0.000000e+00
 0.000000e+00 0.000000e+00 0.000000e+00 8.126768e-01 1.873232e-01
 0.000000e+00 0.000000e+00 0.000000e+00 0.000000e+00 0.000000e+00
<ENDHMM>
~h "p"
<BEGINHMM>
<NUMSTATES> 5
<STATE> 2
<MEAN> 39
 1.071528e+00 3.230282e+00 -4.182317e+00 2.494314e+00 -3.994115e+00 2.626265e+00 -4.862568e+00 -2.731996e-01 -3.921752e+00 -3.409076e-01 -1.734116e+00 -4.012061e+00 5.296124e+01 -2.746701e-01 -1.618052e-01 -1.389143e-01 -8.259982e-02 1.682861e-01 -3.686877e-01 1.595497e-01 -1.382750e-01 3.963760e-01 -2.825242e-02 1.074992e-01 2.383951e-01 1.034148e-01 8.181915e-02 -4.956443e-01 2.306346e-01 -5.267732e-01 -7.527334e-02 -1.870787e-01 -2.666188e-01 -1.147270e-01 1.756986e-02 1.220371e-01 2.101825e-01 -1.729708e-01 7.187867e-01
<VARIANCE> 39
 1.032590e+01 1.788767e+01 2.285309e+01 2.129039e+01 2.325404e+01 3.340158e+01 2.618158e+01 2.663700e+01 2.769502e+01 2.314847e+01 2.005663e+01 2.475689e+01 1.383240e+01 9.445797e-01 1.824516e+00 1.544819e+00 2.676611e+00 2.036329e+00 2.701652e+00 2.386552e+00 2.534603e+00 2.308856e+00 2.157812e+00 1.973594e+00 1.987965e+00 1.996912e+00 1.712776e-01 3.274896e-01 4.083504e-01 5.183276e-01 4.518286e-01 5.886584e-01 5.207135e-01 5.496477e-01 5.214735e-01 4.981268e-01 4.507895e-01 4.382208e-01 2.983639e-01
<GCONST> 1.095285e+02
<STATE> 3
<MEAN> 39
 3.655071e-01 6.152422e-01 -3.393709e+00 -1.911998e-01 -3.215433e+00 -4.880086e-01 -4.997486e+00 -2.008036e+00 -2.887783e+00 2.604342e-02 -1.105360e+00 -3.887704e+00 5.671139e+01 4.193238e-01 -1.937052e+00 5.506668e-01 -2.029330e+00 -4.262698e-01 -8.017476e-01 -9.874515e-01 -4.972867e-01 3.149356e-01 4.224234e-01 8.584485e-01 -5.280868e-01 2.679808e+00 2.624624e-01 -3.726444e-01 3.879705e-01 -3.455248e-01 -4.659755e-01 6.252100e-02 -4.808124e-01 2.180908e-01 -1.885501e-01 6.261840e-02 1.949115e-01 -4.153678e-01 5.651214e-01
<VARIANCE> 39
 1.843340e+01 2.529134e+01 2.704477e+01 3.857705e+01 2.813645e+01 4.784435e+01 2.905474e+01 2.997178e+01 3.382032e+01 2.248023e+01 2.282189e+01 2.618853e+01 2.333988e+01 2.186294e+00 3.712417e+00 4.705518e+00 6.289066e+00 4.166708e+00 6.323992e+00 4.993009e+00 4.348675e+00 4.717646e+00 4.309845e+00 3.378513e+00 4.273578e+00 2.930720e+00 3.397886e-01 5.104763e-01 7.230260e-01 8.513896e-01 7.753647e-01 9.345865e-01 6.850170e-01 8.442218e-01 7.989213e-01 6.222165e-01 7.144738e-01 5.994698e-01 4.245459e-01
<GCONST> 1.280011e+02
<STATE> 4
<MEAN> 39
 2.342102e+00 -3.854475e+00 -2.595971e+00 -5.198030e+00 -5.098106e+00 -5.902711e-01 -7.962718e+00 -2.236342e+00 -2.728875e+00 1.121633e+00 9.972961e-01 -6.094844e+00 6.281400e+01 5.966535e-01 -1.980526e+00 1.145641e+00 -1.668919e+00 -1.080667e+00 -5.382596e-01 -1.520837e+00 3.048604e-01 -5.432669e-02 3.175984e-01 8.500031e-01 -1.162461e+00 2.695157e+00 -7.993012e-02 3.798102e-01 2.830237e-01 5.335810e-01 -1.756801e-01 7.290468e-02 1.291989e-02 2.993122e-01 -2.001748e-01 -1.424557e-01 -1.636098e-01 -4.369076e-02 -4.352613e-01
<VARIANCE> 39
 2.145317e+01 4.017672e+01 3.562822e+01 7.406976e+01 3.590174e+01 8.227972e+01 5.073703e+01 3.790802e+01 5.062032e+01 4.092258e+01 3.303030e+01 3.741467e+01 3.468680e+01 2.020234e+00 3.768918e+00 6.987168e+00 6.134818e+00 5.771858e+00 7.623108e+00 5.196132e+00 6.071418e+00 6.003956e+00 4.770438e+00 5.245085e+00 4.910508e+00 2.794893e+00 4.194366e-01 5.917795e-01 6.055690e-01 1.304887e+00 8.616467e-01 1.083295e+00 9.008802e-01 8.487610e-01 8.675545e-01 7.043800e-01 8.404181e-01 7.918580e-01 6.469744e-01
<GCONST> 1.375228e+02
<TRANSP> 5
 0.000000e+00 1.000000e+00 0.000000e+00 0.000000e+00 0.000000e+00
 0.000000e+00 6.830297e-01 3.169703e-01 0.000000e+00 0.000000e+00
 0.000000e+00 0.000000e+00 2.602746e-01 7.397254e-01 0.000000e+00
 0.000000e+00 0.000000e+00 0.000000e+00 2.863414e-01 7.136586e-01
 0.000000e+00 0.000000e+00 0.000000e+00 0.000000e+00 0.000000e+00
<ENDHMM>
~h "r"
<BEGINHMM>
<NUMSTATES> 5
<STATE> 2
<MEAN> 39
 3.151944e+00 -6.038722e+00 -1.254935e+00 1.561482e+00 -7.299653e+00 -4.883103e+00 -1.130093e+01 1.870868e-01 1.854317e+00 9.167506e-01 1.368247e+00 -9.060998e+00 6.457574e+01 3.041448e-01 1.000846e-01 -1.702706e-01 9.318350e-01 -6.687946e-02 -2.638259e-01 -1.053820e-01 -1.350786e-02 -3.590375e-03 -2.302328e-01 -1.139314e-01 2.005552e-01 -4.719977e-01 -9.796841e-02 7.978946e-03 1.504457e-01 -4.102827e-01 1.923818e-03 1.612606e-01 1.760163e-01 1.254655e-01 -4.019723e-01 4.809426e-02 -7.318649e-03 -4.797110e-02 1.028399e-01
<VARIANCE> 39
 1.348981e+01 3.063383e+01 4.063747e+01 4.301978e+01 4.195658e+01 4.763246e+01 7.152565e+01 7.701652e+01 5.613311e+01 4.394129e+01 5.653191e+01 6.123505e+01 2.900832e+01 1.111818e+00 2.276210e+00 2.001245e+00 3.422591e+00 3.437298e+00 3.569682e+00 3.340122e+00 4.632577e+00 4.066694e+00 3.537549e+00 3.820570e+00 3.871152e+00 2.401406e+00 1.923071e-01 3.810835e-01 3.673238e-01 6.283950e-01 6.699126e-01 5.559155e-01 6.569667e-01 8.125471e-01 6.841792e-01 6.348282e-01 8.086851e-01 7.488601e-01 4.281766e-01
<GCONST> 1.271661e+02
<STATE> 3
<MEAN> 39
 3.657757e+00 -5.380476e+00 -1.351092e+00 3.030758e+00 -7.274636e+00 -4.913360e+00 -1.056620e+01 -8.070517e-02 6.720569e-01 7.282165e-01 5.643550e-01 -7.840522e+00 6.341101e+01 3.431621e-02 1.049243e-01 2.471555e-01 -2.461944e-02 -7.417656e-02 1.868524e-01 3.856423e-01 2.475062e-01 -8.023924e-01 -7.720920e-02 -1.785004e-01 7.203397e-02 -1.965344e-01 -1.818466e-01 -1.127078e-02 1.986260e-01 -4.860170e-01 2.397325e-02 1.517925e-01 1.485092e-01 1.092263e-01 -3.026518e-01 3.103606e-02 5.165025e-02 -9.003146e-02 1.925398e-01
<VARIANCE> 39
 1.370034e+01 3.578951e+01 4.511316e+01 3.591346e+01 4.283528e+01 4.873314e+01 6.693000e+01 7.722105e+01 5.572984e+01 4.390377e+01 4.911047e+01 5.414695e+01 2.773293e+01 1.036021e+00 2.639328e+00 2.413173e+00 2.925214e+00 3.375956e+00 3.544847e+00 3.476847e+00 4.684925e+00 3.526737e+00 3.187923e+00 3.637279e+00 3.711330e+00 2.276858e+00 1.934426e-01 3.922852e-01 4.011768e-01 4.831861e-01 7.208905e-01 5.815166e-01 6.608221e-01 8.040326e-01 6.764541e-01 6.426283e-01 8.222467e-01 6.529471e-01 3.791049e-01
<GCONST> 1.263995e+02
<STATE> 4
<MEAN> 39
 3.017729e+00 -3.841849e+00 -5.806513e-01 2.720447e+00 -6.688108e+00 -3.603042e+00 -8.658259e+00 9.558886e-02 -1.393492e+00 6.995122e-01 -7.242563e-01 -6.941847e+00 6.209235e+01 -2.482791e-01 2.250987e-01 4.687270e-01 -4.722874e-01 -2.308265e-02 3.847250e-01 4.187572e-01 2.220773e-01 -8.720588e-01 -9.456654e-02 -5.360069e-02 -2.480753e-02 -5.731875e-02 -1.297746e-01 -2.010192e-02 1.116070e-01 -2.292119e-01 2.590139e-02 -1.952516e-03 -5.792017e-02 -1.331660e-02 -3.283571e-02 -5.464703e-04 1.299778e-01 -3.479664e-02 1.458633e-01
<VARIANCE> 39
 1.782342e+01 4.702903e+01 4.764373e+01 4.116993e+01 4.777581e+01 5.566639e+01 5.829866e+01 7.463940e+01 5.340234e+01 4.318431e+01 4.085743e+01 4.856229e+01 3.643960e+01 1.063128e+00 2.393281e+00 2.768626e+00 2.519777e+00 3.631367e+00 3.455730e+00 3.394047e+00 4.284786e+00 3.331296e+00 3.032833e+00 3.631900e+00 2.955233e+00 1.897125e+00 2.079372e-01 3.748103e-01 3.890966e-01 4.529473e-01 6.478013e-01 6.000165e-01 6.072639e-01 7.349160e-01 6.360083e-01 5.984127e-01 7.179441e-01 5.905488e-01 3.155236e-01
<GCONST> 1.255785e+02
<TRANSP> 5
 0.000000e+00 1.000000e+00 0.000000e+00 0.000000e+00 0.000000e+00
 0.000000e+00 3.684521e-01 6.315479e-01 0.000000e+00 0.000000e+00
 0.000000e+00 0.000000e+00 2.560104e-01 7.439896e-01 0.000000e+00
 0.000000e+00 0.000000e+00 0.000000e+00 3.466820e-01 6.533180e-01
 0.000000e+00 0.000000e+00 0.000000e+00 0.000000e+00 0.000000e+00
<ENDHMM>
~h "s"
<BEGINHMM>
<NUMSTATES> 5
<STATE> 2
<MEAN> 39
 -9.620206e+00 6.487340e+00 1.393542e+00 -1.603278e+00 2.487326e+00 -8.366716e+00 -1.945264e+00 -8.619084e-01 -1.526037e+00 -2.676622e+00 -1.151817e+00 -3.256193e+00 6.307146e+01 -2.848980e+00 1.869110e+00 -7.229944e-01 -5.115866e-01 1.526098e+00 -7.534671e-01 9.919637e-01 -1.370164e-01 4.210883e-01 -8.774596e-01 1.779818e-01 3.871483e-01 -2.286050e-03 2.998114e-01 -4.770129e-01 5.839268e-02 -5.018350e-02 -4.910523e-01 2.286717e-01 -4.249300e-01 1.136373e-01 -1.502660e-01 7.469604e-02 6.180233e-02 -2.191539e-01 6.747946e-02
<VARIANCE> 39
 4.774381e+01 3.879130e+01 3.981048e+01 2.811848e+01 4.181258e+01 5.290073e+01 4.888481e+01 4.513301e+01 4.335973e+01 3.427186e+01 3.101575e+01 2.835565e+01 1.779961e+01 2.720918e+00 2.966096e+00 2.616006e+00 2.357630e+00 3.584138e+00 3.382106e+00 4.248549e+00 3.568116e+00 3.215999e+00 3.119529e+00 2.374243e+00 2.480452e+00 8.366410e-01 8.704388e-01 5.387087e-01 4.067310e-01 4.980872e-01 5.692409e-01 5.657573e-01 6.825226e-01 5.900206e-01 5.451432e-01 6.032165e-01 4.396690e-01 4.701438e-01 1.149968e-01
<GCONST> 1.223586e+02
<STATE> 3
<MEAN> 39
 -1.550780e+01 7.492610e+00 3.333739e-01 -2.318799e+00 3.499346e+00 -8.716193e+00 -2.031038e+00 1.553105e-01 -6.472334e-01 -4.670094e+00 -7.467751e-01 -2.868063e+00 6.272160e+01 1.171103e+00 -1.021237e+00 3.463217e-01 1.381929e-01 -6.546491e-01 1.284564e-01 -5.530497e-01 -4.410076e-02 -4.593328e-03 2.789322e-01 -7.323717e-02 -1.416318e-01 -1.287764e-01 9.001666e-01 -4.282157e-01 1.875612e-01 4.328829e-02 -4.528267e-01 1.154046e-01 -3.060838e-01 -1.039599e-01 -1.008435e-01 2.434057e-01 8.172691e-03 -1.371590e-01 7.656576e-02
<VARIANCE> 39
 1.846330e+01 2.734446e+01 2.686920e+01 2.647785e+01 3.320749e+01 3.499358e+01 3.918905e+01 3.124330e+01 2.974206e+01 2.493976e+01 2.425805e+01 2.233051e+01 1.129816e+01 4.239541e+00 2.104277e+00 2.223658e+00 1.704932e+00 2.535530e+00 2.582359e+00 3.004089e+00 2.606061e+00 2.538569e+00 2.306265e+00 2.055432e+00 1.922366e+00 9.410480e-01 4.489631e-01 3.911028e-01 3.772547e-01 3.674721e-01 4.444989e-01 5.266787e-01 5.918267e-01 5.723277e-01 5.330277e-01 4.823458e-01 4.258118e-01 3.993077e-01 1.691042e-01
<GCONST> 1.133465e+02
<STATE> 4
<MEAN> 39
 -4.407891e+00 2.403569e+00 6.463917e-01 -1.469689e+00 -5.958490e-01 -6.603899e+00 -5.140362e+00 -7.703737e-01 -1.013364e+00 -1.496821e+00 -1.717668e+00 -4.081079e+00 6.117322e+01 2.739318e+00 -1.652561e+00 3.314832e-01 -1.189011e-01 -1.863143e+00 7.831124e-01 -1.220673e+00 -2.476246e-01 -4.133409e-01 7.818811e-01 2.269654e-01 -6.743026e-01 5.273789e-01 -4.539003e-01 1.382980e-01 7.208972e-02 -1.232888e-01 2.827425e-02 1.623814e-01 1.209948e-01 6.449702e-02 -1.203523e-01 -1.517249e-01 1.968407e-01 -5.229617e-02 1.179340e-01
<VARIANCE> 39
 2.578260e+01 3.530842e+01 4.319114e+01 2.972409e+01 3.973977e+01 5.092917e+01 4.810154e+01 3.352604e+01 4.071150e+01 3.251752e+01 2.736708e+01 2.659380e+01 4.716255e+01 2.914580e+00 3.720843e+00 4.068732e+00 3.190204e+00 3.804394e+00 3.570393e+00 4.441742e+00 4.461434e+00 4.199049e+00 3.281944e+00 2.909008e+00 2.922363e+00 2.661315e+00 4.601547e-01 4.051113e-01 3.613683e-01 3.765090e-01 4.421839e-01 5.151688e-01 6.214337e-01 5.634330e-01 5.517043e-01 4.726332e-01 4.194004e-01 4.244106e-01 2.831876e-01
<GCONST> 1.240287e+02
<TRANSP> 5
 0.000000e+00 1.000000e+00 0.000000e+00 0.000000e+00 0.000000e+00
 0.000000e+00 7.612597e-01 2.387403e-01 0.000000e+00 0.000000e+00
 0.000000e+00 0.000000e+00 7.785375e-01 2.214625e-01 0.000000e+00
 0.000000e+00 0.000000e+00 0.000000e+00 5.196813e-01 4.803187e-01
 0.000000e+00 0.000000e+00 0.000000e+00 0.000000e+00 0.000000e+00
<ENDHMM>
~h "t"
<BEGINHMM>
<NUMSTATES> 5
<STATE> 2
<MEAN> 39
 8.419486e-01 2.403430e+00 -1.391589e+00 2.326422e+00 -5.161244e+00 -1.231640e+00 -6.572990e+00 -1.522598e-01 -4.442393e+00 5.944063e-01 -1.703244e+00 -4.801010e+00 5.474669e+01 -4.919481e-01 2.361835e-01 -6.405146e-01 6.620565e-02 5.619793e-01 5.400243e-02 5.955065e-01 -9.100749e-02 4.696442e-01 -3.511467e-01 -2.109355e-01 4.768630e-01 -5.518335e-01 -2.313562e-01 -4.247743e-01 2.477609e-01 -5.718507e-01 1.994189e-01 -4.890682e-01 -1.417319e-01 -5.316981e-02 3.101411e-01 -1.451094e-02 1.316690e-01 -1.720929e-01 8.184385e-01
<VARIANCE> 39
 9.374601e+00 1.904076e+01 3.161756e+01 2.464503e+01 2.985127e+01 3.844693e+01 3.369032e+01 3.418454e+01 4.061069e+01 2.848390e+01 3.036655e+01 3.120887e+01 1.765600e+01 1.105802e+00 1.421167e+00 1.585817e+00 2.427837e+00 2.886764e+00 3.787730e+00 2.806849e+00 2.684060e+00 3.256212e+00 2.746887e+00 2.133232e+00 2.008843e+00 2.299028e+00 1.991883e-01 2.499071e-01 3.251602e-01 4.081171e-01 5.053510e-01 6.996089e-01 5.991145e-01 5.859867e-01 6.222363e-01 5.206760e-01 4.412974e-01 4.641982e-01 3.387817e-01
<GCONST> 1.141820e+02
<STATE> 3
<MEAN> 39
 -1.522909e+00 1.829269e+00 -1.825255e+00 8.637749e-01 -2.549784e+00 -2.845679e+00 -5.062183e+00 -7.623276e-01 -2.319224e+00 -5.234512e-01 -2.036192e+00 -3.953260e+00 5.597765e+01 -9.286542e-01 -8.766990e-01 1.255415e-01 -1.453157e+00 1.057931e+00 -1.255402e+00 -1.693100e-02 -2.832200e-01 1.280063e+00 -3.156130e-01 1.328101e-01 -2.330356e-01 1.722689e+00 2.871685e-01 -4.140167e-01 3.196792e-01 -4.724594e-01 -3.413029e-01 -3.631154e-02 -6.028450e-01 3.382440e-02 -4.573197e-02 1.942167e-01 2.419252e-01 -4.452678e-01 7.412003e-01
<VARIANCE> 39
 2.052652e+01 2.185841e+01 2.883303e+01 2.873799e+01 3.596863e+01 5.243923e+01 3.936361e+01 3.949194e+01 4.063869e+01 2.930751e+01 3.081765e+01 3.001644e+01 2.550056e+01 2.067477e+00 2.757311e+00 2.655856e+00 3.807395e+00 3.518419e+00 5.002882e+00 4.515610e+00 4.090692e+00 4.836220e+00 3.546360e+00 3.054063e+00 3.440213e+00 3.852426e+00 4.704397e-01 4.005800e-01 5.448706e-01 5.367179e-01 7.242364e-01 1.134264e+00 8.585916e-01 9.099100e-01 8.612509e-01 6.595648e-01 5.999073e-01 6.197403e-01 4.551007e-01
<GCONST> 1.272428e+02
<STATE> 4
<MEAN> 39
 -2.695815e+00 2.460710e+00 -2.213691e+00 1.218587e+00 -2.258266e+00 -1.143834e+00 -4.496226e+00 3.436141e-01 -1.083878e+00 -1.097993e+00 -1.534790e+00 -3.216079e+00 5.474003e+01 1.524463e-03 -5.672486e-01 4.380869e-01 -8.421415e-01 -3.413511e-02 -3.999346e-01 -5.825405e-01 -1.620477e-01 3.174849e-01 5.714092e-02 3.214035e-01 -4.569284e-01 1.171717e+00 2.762580e-01 -9.518374e-02 1.344315e-01 -4.177018e-02 -3.026759e-01 1.716170e-01 -2.957239e-01 -1.161645e-02 -2.124803e-01 1.285000e-01 1.170140e-01 -1.586764e-01 1.348653e-01
<VARIANCE> 39
 1.783154e+01 2.651407e+01 2.704687e+01 3.621651e+01 2.533602e+01 5.392700e+01 3.243176e+01 3.414708e+01 3.271228e+01 2.622940e+01 2.283144e+01 2.908941e+01 4.765104e+01 1.645701e+00 2.506005e+00 2.745939e+00 3.524401e+00 2.551624e+00 4.065221e+00 4.287959e+00 3.915266e+00 3.636672e+00 2.792085e+00 2.775030e+00 3.242096e+00 3.711455e+00 3.572952e-01 3.034608e-01 4.205899e-01 4.424304e-01 5.830862e-01 7.896956e-01 6.784879e-01 6.402712e-01 6.774651e-01 5.572565e-01 4.793638e-01 4.664547e-01 3.529633e-01
<GCONST> 1.217164e+02
<TRANSP> 5
 0.000000e+00 1.000000e+00 0.000000e+00 0.000000e+00 0.000000e+00
 0.000000e+00 4.792075e-01 5.207925e-01 0.000000e+00 0.000000e+00
 0.000000e+00 0.000000e+00 3.261559e-01 6.738442e-01 0.000000e+00
 0.000000e+00 0.000000e+00 0.000000e+00 6.440690e-01 3.559310e-01
 0.000000e+00 0.000000e+00 0.000000e+00 0.000000e+00 0.000000e+00
<ENDHMM>
~h "u"
<BEGINHMM>
<NUMSTATES> 5
<STATE> 2
<MEAN> 39
 3.857283e+00 1.165079e+00 1.762433e+00 -7.149558e+00 -8.227486e+00 1.100133e+00 -1.565832e+01 -7.075138e+00 -6.467733e+00 9.381205e-01 4.984906e+00 -6.393577e+00 6.342302e+01 7.663860e-01 -3.890526e-02 2.888529e-01 -9.015814e-01 -8.429891e-01 1.073554e+00 -1.273703e+00 -8.099635e-01 -7.270060e-01 4.347013e-01 1.125585e+00 -1.817470e-01 5.169708e-01 -2.420498e-01 6.912278e-02 -8.560880e-02 5.754371e-01 2.260233e-01 3.610830e-02 6.897423e-01 3.407785e-01 8.588710e-02 -1.309602e-01 -4.546963e-01 1.346403e-01 -4.339476e-01
<VARIANCE> 39
 1.532011e+01 2.638160e+01 3.499788e+01 6.864005e+01 6.216026e+01 6.249092e+01 7.521058e+01 5.620635e+01 6.654127e+01 5.216434e+01 5.836642e+01 4.167323e+01 1.816529e+01 1.792412e+00 2.568506e+00 2.907456e+00 5.796686e+00 4.802424e+00 5.279819e+00 7.191465e+00 5.023307e+00 5.698120e+00 4.536087e+00 5.172361e+00 3.788387e+00 2.353460e+00 3.152156e-01 4.153411e-01 4.314597e-01 9.041393e-01 9.266911e-01 1.019416e+00 1.130765e+00 9.250540e-01 1.050717e+00 8.699678e-01 9.429240e-01 7.337757e-01 3.260078e-01
<GCONST> 1.346150e+02
<STATE> 3
<MEAN> 39
 4.715113e+00 1.134822e+00 1.763009e+00 -7.597367e+00 -9.469404e+00 3.901063e+00 -1.620018e+01 -7.647286e+00 -7.366362e+00 1.272948e+00 5.945331e+00 -6.259790e+00 6.317240e+01 -1.469295e-02 2.542876e-01 -5.253814e-02 7.532524e-01 2.572137e-01 1.208396e-01 7.407932e-01 2.905621e-01 -2.267740e-02 -1.049937e-01 -6.804554e-01 2.209052e-01 -5.738377e-01 -2.777306e-01 5.034405e-02 -2.543245e-02 4.783393e-01 3.033995e-01 -3.537634e-01 5.107829e-01 3.157068e-01 2.709425e-01 -1.800629e-01 -5.053443e-01 1.336939e-02 -2.275535e-01
<VARIANCE> 39
 9.229246e+00 2.901341e+01 3.137109e+01 7.242416e+01 5.284044e+01 5.937734e+01 6.666643e+01 5.822363e+01 5.871967e+01 5.345538e+01 6.773046e+01 4.835736e+01 1.799745e+01 7.742051e-01 2.303113e+00 1.977507e+00 4.284164e+00 3.205064e+00 3.669790e+00 4.122933e+00 3.657269e+00 4.080817e+00 3.714698e+00 3.496311e+00 3.296681e+00 1.850980e+00 1.872878e-01 3.365333e-01 3.362861e-01 6.683502e-01 6.035254e-01 7.049912e-01 8.257102e-01 7.597808e-01 7.314022e-01 7.321501e-01 7.613934e-01 6.233747e-01 2.116206e-01
<GCONST> 1.255187e+02
<STATE> 4
<MEAN> 39
 3.907303e+00 4.833497e+00 -1.556593e-01 -3.180545e+00 -7.106986e+00 2.862725e+00 -1.055737e+01 -4.254875e+00 -7.489715e+00 -3.476834e-01 1.494827e+00 -3.338179e+00 5.745676e+01 -3.013880e-01 1.620060e-01 -7.159743e-02 9.033567e-01 3.650328e-01 -1.638854e-01 7.535308e-01 3.788976e-01 3.018832e-01 -1.265958e-01 -6.200240e-01 1.076806e-01 -5.731549e-01 -1.026329e-01 -1.130667e-01 3.745688e-02 -8.441511e-02 4.234726e-02 -7.503280e-02 -5.747318e-02 6.885998e-03 5.187381e-02 1.009078e-02 5.549622e-02 -6.426336e-02 1.273294e-01
<VARIANCE> 39
 1.382802e+01 3.104876e+01 2.489842e+01 7.341766e+01 4.486069e+01 4.457619e+01 5.123223e+01 4.316267e+01 4.201490e+01 4.372277e+01 4.652344e+01 3.747256e+01 3.266959e+01 6.204858e-01 1.298334e+00 1.437837e+00 2.373642e+00 2.276099e+00 2.508274e+00 2.626077e+00 2.643451e+00 2.529436e+00 2.524510e+00 2.497388e+00 2.172144e+00 9.048306e-01 1.237775e-01 2.389711e-01 2.204992e-01 4.422845e-01 4.061884e-01 4.438625e-01 5.252578e-01 4.933239e-01 4.662982e-01 4.958088e-01 4.562512e-01 3.954576e-01 1.618821e-01
<GCONST> 1.132447e+02
<TRANSP> 5
 0.000000e+00 1.000000e+00 0.000000e+00 0.000000e+00 0.000000e+00
 0.000000e+00 4.748377e-01 5.251623e-01 0.000000e+00 0.000000e+00
 0.000000e+00 0.000000e+00 4.214512e-01 5.785488e-01 0.000000e+00
 0.000000e+00 0.000000e+00 0.000000e+00 7.287743e-01 2.712257e-01
 0.000000e+00 0.000000e+00 0.000000e+00 0.000000e+00 0.000000e+00
<ENDHMM>
~h "v"
<BEGINHMM>
<NUMSTATES> 5
<STATE> 2
<MEAN> 39
 7.903662e-04 -6.079456e-01 1.670089e+00 -6.705837e-01 -5.929818e+00 -8.820225e-01 -6.906881e+00 5.931143e-01 -4.574426e+00 -3.940755e-01 -3.854154e-01 -5.847453e+00 5.993814e+01 5.024984e-04 -6.478592e-05 9.522401e-04 -6.048587e-04 -1.305029e-03 -9.148303e-04 -9.999124e-04 -6.995694e-04 3.150678e-04 8.832195e-04 -1.229102e-04 -1.829845e-05 4.304752e-04 -1.024714e-04 5.090495e-05 -4.314321e-05 5.499199e-04 2.475645e-04 2.544455e-04 -3.161734e-04 -1.009587e-04 -7.179174e-05 -5.594532e-04 -1.336834e-04 -6.698545e-06 -3.952787e-04
<VARIANCE> 39
 2.681136e+01 5.325134e+01 6.824250e+01 5.887592e+01 6.062508e+01 6.608533e+01 5.928268e+01 6.068991e+01 5.916120e+01 4.597362e+01 4.705821e+01 4.804106e+01 6.619385e+01 1.372020e+00 2.288023e+00 2.566274e+00 2.987463e+00 3.078158e+00 3.116328e+00 3.250192e+00 3.738113e+00 3.266875e+00 2.829993e+00 2.967949e+00 2.476121e+00 2.021681e+00 2.264445e-01 3.584008e-01 4.122588e-01 5.086471e-01 5.519696e-01 5.562619e-01 5.942494e-01 6.847889e-01 5.904057e-01 5.307208e-01 5.528100e-01 4.553457e-01 3.018115e-01
<GCONST> 1.265182e+02
<STATE> 3
<MEAN> 39
 7.903662e-04 -6.079456e-01 1.670089e+00 -6.705837e-01 -5.929818e+00 -8.820225e-01 -6.906881e+00 5.931143e-01 -4.574426e+00 -3.940755e-01 -3.854154e-01 -5.847453e+00 5.993814e+01 5.024984e-04 -6.478592e-05 9.522401e-04 -6.048587e-04 -1.305029e-03 -9.148303e-04 -9.999124e-04 -6.995694e-04 3.150678e-04 8.832195e-04 -1.229102e-04 -1.829845e-05 4.304752e-04 -1.024714e-04 5.090495e-05 -4.314321e-05 5.499199e-04 2.475645e-04 2.544455e-04 -3.161734e-04 -1.009587e-04 -7.179174e-05 -5.594532e-04 -1.336834e-04 -6.698545e-06 -3.952787e-04
<VARIANCE> 39
 2.681136e+01 5.325134e+01 6.824250e+01 5.887592e+01 6.062508e+01 6.608533e+01 5.928268e+01 6.068991e+01 5.916120e+01 4.597362e+01 4.705821e+01 4.804106e+01 6.619385e+01 1.372020e+00 2.288023e+00 2.566274e+00 2.987463e+00 3.078158e+00 3.116328e+00 3.250192e+00 3.738113e+00 3.266875e+00 2.829993e+00 2.967949e+00 2.476121e+00 2.021681e+00 2.264445e-01 3.584008e-01 4.122588e-01 5.086471e-01 5.519696e-01 5.562619e-01 5.942494e-01 6.847889e-01 5.904057e-01 5.307208e-01 5.528100e-01 4.553457e-01 3.018115e-01
<GCONST> 1.265182e+02
<STATE> 4
<MEAN> 39
 7.903662e-04 -6.079456e-01 1.670089e+00 -6.705837e-01 -5.929818e+00 -8.820225e-01 -6.906881e+00 5.931143e-01 -4.574426e+00 -3.940755e-01 -3.854154e-01 -5.847453e+00 5.993814e+01 5.024984e-04 -6.478592e-05 9.522401e-04 -6.048587e-04 -1.305029e-03 -9.148303e-04 -9.999124e-04 -6.995694e-04 3.150678e-04 8.832195e-04 -1.229102e-04 -1.829845e-05 4.304752e-04 -1.024714e-04 5.090495e-05 -4.314321e-05 5.499199e-04 2.475645e-04 2.544455e-04 -3.161734e-04 -1.009587e-04 -7.179174e-05 -5.594532e-04 -1.336834e-04 -6.698545e-06 -3.952787e-04
<VARIANCE> 39
 2.681136e+01 5.325134e+01 6.824250e+01 5.887592e+01 6.062508e+01 6.608533e+01 5.928268e+01 6.068991e+01 5.916120e+01 4.597362e+01 4.705821e+01 4.804106e+01 6.619385e+01 1.372020e+00 2.288023e+00 2.566274e+00 2.987463e+00 3.078158e+00 3.116328e+00 3.250192e+00 3.738113e+00 3.266875e+00 2.829993e+00 2.967949e+00 2.476121e+00 2.021681e+00 2.264445e-01 3.584008e-01 4.122588e-01 5.086471e-01 5.519696e-01 5.562619e-01 5.942494e-01 6.847889e-01 5.904057e-01 5.307208e-01 5.528100e-01 4.553457e-01 3.018115e-01
<GCONST> 1.265182e+02
<TRANSP> 5
 0.000000e+00 1.000000e+00 0.000000e+00 0.000000e+00 0.000000e+00
 0.000000e+00 6.000000e-01 4.000000e-01 0.000000e+00 0.000000e+00
 0.000000e+00 0.000000e+00 6.000000e-01 4.000000e-01 0.000000e+00
 0.000000e+00 0.000000e+00 0.000000e+00 7.000000e-01 3.000000e-01
 0.000000e+00 0.000000e+00 0.000000e+00 0.000000e+00 0.000000e+00
<ENDHMM>
~h "w"
<BEGINHMM>
<NUMSTATES> 5
<STATE> 2
<MEAN> 39
 -1.573577e+00 3.140098e+00 -2.513984e+00 4.166152e+00 -4.102869e+00 3.601472e+00 -3.309092e+00 1.290276e+00 -3.146457e+00 -8.721026e-01 -1.355890e+00 -1.661453e+00 5.116253e+01 2.771862e-02 1.225265e-01 -8.789668e-02 -2.883761e-02 -4.890102e-02 4.893830e-02 7.497527e-02 1.673233e-02 -6.658413e-02 3.164092e-02 1.077558e-01 1.495715e-01 -1.117540e-01 1.861414e-02 -2.613792e-02 7.759096e-03 -5.776963e-02 -5.388493e-03 -1.855773e-02 -3.540695e-02 4.037540e-03 -1.731829e-02 8.500302e-04 1.096499e-02 -1.968066e-02 4.868635e-02
<VARIANCE> 39
 1.179492e+01 3.270911e+01 1.951527e+01 3.245198e+01 2.052357e+01 1.824694e+01 2.405644e+01 3.119855e+01 2.107385e+01 2.383933e+01 2.646209e+01 2.337832e+01 3.266605e+01 3.317129e-01 6.356883e-01 9.238653e-01 1.329044e+00 1.100777e+00 1.262226e+00 1.485106e+00 1.565622e+00 1.795754e+00 1.831240e+00 1.580919e+00 1.365763e+00 3.340940e-01 5.376972e-02 1.114168e-01 1.516090e-01 2.584484e-01 1.937457e-01 2.537859e-01 2.961271e-01 2.960882e-01 3.571948e-01 3.689944e-01 2.914192e-01 2.616022e-01 5.331839e-02
<GCONST> 9.211287e+01
<STATE> 3
<MEAN> 39
 5.436705e+00 6.689497e-01 -3.563723e+00 -8.093229e+00 -1.040102e+01 6.282832e+00 -7.463014e+00 -2.972243e+00 -7.636959e+00 1.381763e+00 5.401140e+00 -4.784469e+00 6.051146e+01 6.178852e-01 -6.290226e-01 -1.528841e-01 -2.134157e+00 -2.375153e-01 7.671754e-01 -8.449915e-01 6.770799e-03 -1.953738e-01 4.358273e-01 1.134577e+00 -5.607961e-01 1.309604e+00 -2.422075e-01 -3.804846e-01 2.129034e-02 1.249094e-01 3.305944e-01 1.490355e-02 -3.481675e-02 1.893429e-01 3.735143e-01 1.341095e-01 -1.175689e-01 -4.190535e-01 1.482028e-01
<VARIANCE> 39
 1.525258e+01 3.592770e+01 2.141623e+01 8.879982e+01 5.448895e+01 4.606712e+01 5.174779e+01 2.763459e+01 3.516965e+01 3.509656e+01 4.150318e+01 4.221206e+01 3.782457e+01 1.240493e+00 3.175315e+00 1.107128e+00 5.691724e+00 2.415066e+00 2.877715e+00 3.575901e+00 2.245040e+00 3.372190e+00 2.997622e+00 3.315654e+00 4.965728e+00 2.745763e+00 1.691435e-01 3.582846e-01 1.779595e-01 8.503811e-01 3.674285e-01 5.562180e-01 5.400509e-01 4.037574e-01 5.143513e-01 4.682844e-01 6.630287e-01 6.297002e-01 1.877332e-01
<GCONST> 1.204330e+02
<STATE> 4
<MEAN> 39
 4.438487e+00 -3.384221e+00 -3.978554e+00 -1.524137e+01 -6.163453e+00 9.440563e+00 -1.168357e+01 -2.185886e+00 -3.061178e+00 4.139950e+00 5.530929e+00 -1.044275e+01 6.552174e+01 -1.876462e-01 -3.658338e-01 -1.324916e-01 1.037671e-01 4.452013e-01 -9.630217e-02 1.659947e-01 1.499916e-01 2.964184e-01 -2.148784e-02 -3.254192e-01 -3.531883e-01 1.232610e-01 -3.213217e-02 4.379454e-02 2.515489e-02 2.360922e-01 2.926368e-02 -1.271730e-01 8.167499e-02 -4.762750e-03 1.793834e-02 -8.866914e-02 -1.258062e-01 3.637653e-02 -9.201916e-02
<VARIANCE> 39
 9.302402e+00 3.547104e+01 1.727572e+01 5.665406e+01 6.938321e+01 6.069711e+01 3.671553e+01 3.169725e+01 3.883835e+01 6.069390e+01 6.495200e+01 6.619970e+01 2.789189e+01 4.268861e-01 2.076344e+00 6.279446e-01 1.826718e+00 1.793989e+00 1.699393e+00 1.451622e+00 1.928992e+00 2.156069e+00 2.148764e+00 2.129084e+00 3.506445e+00 1.294579e+00 6.436409e-02 2.313111e-01 1.225017e-01 3.444954e-01 2.882827e-01 2.862682e-01 2.315646e-01 3.065754e-01 3.235797e-01 3.366609e-01 4.207519e-01 4.974491e-01 1.508721e-01
<GCONST> 1.070054e+02
<TRANSP> 5
 0.000000e+00 1.000000e+00 0.000000e+00 0.000000e+00 0.000000e+00
 0.000000e+00 9.074688e-01 9.253122e-02 0.000000e+00 0.000000e+00
 0.000000e+00 0.000000e+00 7.163051e-01 2.836949e-01 0.000000e+00
 0.000000e+00 0.000000e+00 0.000000e+00 8.590660e-01 1.409340e-01
 0.000000e+00 0.000000e+00 0.000000e+00 0.000000e+00 0.000000e+00
<ENDHMM>
~h "y"
<BEGINHMM>
<NUMSTATES> 5
<STATE> 2
<MEAN> 39
 -2.518642e+00 -3.777799e+00 1.632781e+01 -5.720694e+00 -1.607562e+01 -8.211126e+00 -1.141402e+01 3.862433e+00 -7.895710e+00 -3.990853e+00 6.667988e+00 -6.911832e+00 6.815054e+01 -1.020777e-01 -5.290149e-01 6.335428e-01 -3.400754e-01 -8.907221e-01 -7.484556e-01 -3.388705e-02 8.818378e-01 -1.449148e-01 1.741223e-01 7.726433e-01 3.601654e-01 5.424174e-01 1.242484e-01 -1.047582e-01 -5.570279e-01 8.986855e-02 3.077017e-01 1.302147e-01 1.285820e-01 6.192825e-02 2.714674e-01 1.065877e-01 -3.146833e-01 -1.449595e-01 -7.309705e-02
<VARIANCE> 39
 8.361853e+00 4.455408e+01 6.304954e+01 2.831310e+01 4.017072e+01 4.905020e+01 6.211003e+01 6.695404e+01 6.818943e+01 7.012723e+01 4.508865e+01 3.819313e+01 2.055702e+01 5.971864e-01 2.127130e+00 4.283247e+00 1.619023e+00 2.343895e+00 2.880984e+00 2.807848e+00 4.197426e+00 2.939078e+00 2.389996e+00 2.578020e+00 2.224576e+00 1.125171e+00 7.551052e-02 2.021486e-01 5.362363e-01 2.791964e-01 4.617186e-01 4.844569e-01 4.430738e-01 6.735173e-01 4.795464e-01 3.908666e-01 4.794737e-01 3.457173e-01 9.908743e-02
<GCONST> 1.157460e+02
<STATE> 3
<MEAN> 39
 -1.321466e+00 -8.637534e+00 1.131348e+01 -6.556768e+00 -1.634857e+01 -9.930207e+00 -9.058694e+00 1.076823e+01 -3.682650e+00 -3.129990e+00 5.782250e+00 -8.117013e+00 7.027836e+01 3.397735e-01 -6.083339e-01 -1.420998e+00 5.942435e-02 1.024603e+00 4.185647e-01 5.769589e-01 7.831793e-01 7.054303e-01 -9.694436e-02 -1.278202e+00 -7.025819e-01 7.137833e-02 5.825683e-02 1.799973e-01 -1.447794e-01 1.578473e-01 3.157252e-01 2.841897e-01 -5.995401e-02 -4.563301e-01 -8.530798e-02 3.827275e-02 -2.647256e-01 -6.819855e-02 -1.945102e-01
<VARIANCE> 39
 5.259272e+00 2.257258e+01 3.040774e+01 2.268146e+01 3.957908e+01 4.437679e+01 6.034797e+01 5.712267e+01 4.782759e+01 5.981386e+01 4.470893e+01 4.189735e+01 1.428070e+01 2.774975e-01 1.189014e+00 2.496121e+00 1.105061e+00 1.891495e+00 1.929959e+00 1.791061e+00 3.685693e+00 2.645691e+00 1.902045e+00 2.377491e+00 1.795524e+00 5.637586e-01 5.315330e-02 1.509022e-01 3.323567e-01 1.755417e-01 3.125206e-01 3.466658e-01 3.168609e-01 6.572553e-01 3.533321e-01 3.676952e-01 4.062878e-01 3.452965e-01 8.095738e-02
<GCONST> 1.043644e+02
<STATE> 4
<MEAN> 39
 -3.953850e-01 -3.121442e+00 8.586867e-01 2.805946e-01 -6.204222e+00 -1.343175e+00 -4.006889e+00 5.579463e+00 -3.002887e+00 -2.259579e+00 -3.036468e+00 -5.567895e+00 5.949450e+01 7.509451e-02 2.189870e-01 -4.302513e-01 2.773338e-01 4.321844e-01 3.452366e-01 7.055088e-02 -2.908343e-01 3.336206e-02 1.299743e-01 -2.936791e-01 6.691700e-02 -4.280893e-01 -2.981284e-03 7.606635e-02 6.019262e-02 2.941993e-02 -5.163690e-02 4.788632e-03 -3.541746e-02 -1.114250e-01 -5.087254e-02 5.635583e-02 8.934716e-02 4.137857e-02 -5.018230e-02
<VARIANCE> 39
 8.621829e+00 5.760718e+01 3.462078e+01 5.283712e+01 3.548769e+01 5.695240e+01 3.528140e+01 4.865528e+01 3.977247e+01 4.499501e+01 3.350238e+01 4.598230e+01 9.196687e+01 2.945155e-01 8.296397e-01 1.286024e+00 1.144739e+00 1.661018e+00 1.597741e+00 1.542476e+00 2.129182e+00 1.777322e+00 1.730836e+00 1.886847e+00 1.532095e+00 5.132993e-01 4.556604e-02 1.499630e-01 1.927575e-01 1.987778e-01 2.362767e-01 3.057082e-01 2.833776e-01 4.662856e-01 3.381676e-01 3.327269e-01 3.056359e-01 2.734786e-01 8.017194e-02
<GCONST> 1.023786e+02
<TRANSP> 5
 0.000000e+00 1.000000e+00 0.000000e+00 0.000000e+00 0.000000e+00
 0.000000e+00 7.403626e-01 2.596374e-01 0.000000e+00 0.000000e+00
 0.000000e+00 0.000000e+00 7.347752e-01 2.652247e-01 0.000000e+00
 0.000000e+00 0.000000e+00 0.000000e+00 8.477769e-01 1.522231e-01
 0.000000e+00 0.000000e+00 0.000000e+00 0.000000e+00 0.000000e+00
<ENDHMM>
~h "z"
<BEGINHMM>
<NUMSTATES> 5
<STATE> 2
<MEAN> 39
 1.300623e+00 9.951125e+00 1.090909e+01 4.604555e+00 -7.594785e+00 -7.670942e+00 -4.468310e+00 -3.385529e+00 -9.993274e+00 -1.632581e+00 -4.585411e-01 -2.896996e+00 5.720012e+01 3.133380e-01 9.692886e-02 -5.706625e-02 -1.419346e-01 1.449024e-01 5.368420e-01 -8.471434e-01 5.097704e-02 -2.101094e-01 -1.136857e-01 6.390409e-01 -3.189612e-01 -8.827723e-02 -9.445286e-02 -1.627214e-01 1.717213e-01 -2.759849e-01 -7.453816e-02 1.913646e-01 5.777396e-03 3.100500e-02 8.787130e-02 7.932363e-02 -1.126605e-01 4.178306e-02 7.436007e-02
<VARIANCE> 39
 8.632288e+00 2.599838e+01 3.451925e+01 2.792864e+01 1.374652e+01 1.479286e+01 7.111772e+01 3.235435e+01 3.846754e+01 3.196362e+01 1.668106e+01 2.024204e+01 1.664224e+01 1.016281e+00 3.039881e+00 3.473805e+00 4.036805e+00 1.418688e+00 1.804716e+00 2.682779e+00 2.498437e+00 2.675942e+00 1.910223e+00 2.191942e+00 1.725701e+00 9.509230e-01 9.850024e-02 2.839868e-01 3.761952e-01 2.759851e-01 3.028612e-01 1.891659e-01 3.098405e-01 2.855492e-01 4.148170e-01 2.685454e-01 5.419971e-01 2.495203e-01 7.098155e-02
<GCONST> 1.043223e+02
<STATE> 3
<MEAN> 39
 7.959986e-02 1.769279e+00 1.643686e+01 -1.057499e+01 -7.297221e+00 9.943377e-01 -2.041203e+01 -4.039788e+00 -7.529281e+00 7.391618e+00 -8.414483e-02 -7.036730e+00 6.480476e+01 -3.008255e-02 -8.654340e-01 5.535638e-01 -1.319328e+00 -2.559533e-01 1.292889e+00 -5.466669e-01 -3.001108e-01 3.371913e-01 1.810238e-01 3.258644e-01 3.122485e-01 5.288365e-01 1.683533e-01 1.613088e-02 -5.685498e-01 2.555932e-01 1.679940e-02 -8.699774e-02 3.448056e-01 5.433980e-01 -6.551279e-02 3.939930e-02 -1.393352e-01 1.043125e-01 -1.429033e-01
<VARIANCE> 39
 3.106712e+00 6.143095e+00 1.080413e+02 5.119672e+01 1.961507e+01 8.927222e+01 3.596468e+01 1.285099e+01 6.085275e+01 1.332940e+01 6.981379e+00 1.497293e+01 5.593170e+00 8.572860e-01 1.988679e+00 2.905576e+00 2.044098e+00 1.982248e+00 2.939888e+00 2.007832e+00 1.948045e+00 3.363450e+00 3.345902e+00 2.245345e+00 1.752198e+00 8.693503e-01 7.128894e-02 3.478125e-01 2.822698e-01 3.120726e-01 3.138811e-01 6.546791e-01 6.968882e-01 1.869988e-01 4.199084e-01 5.431112e-01 1.698933e-01 1.895280e-01 8.348219e-02
<GCONST> 1.018660e+02
<STATE> 4
<MEAN> 39
 -9.694254e-01 5.877019e+00 7.993567e+00 -4.245840e+00 -5.511527e+00 9.010209e+00 -9.220935e+00 -1.661008e+00 -5.279727e+00 -2.860876e+00 -6.304553e+00 -6.083387e+00 5.457309e+01 1.666971e-01 2.651726e-01 -4.716951e-01 6.984578e-01 3.038331e-02 -1.940564e-01 3.030570e-01 4.906724e-02 -2.036037e-02 -2.210192e-01 -1.376897e-01 -5.136926e-02 -3.581921e-01 -1.355994e-02 6.308836e-02 1.478126e-02 6.762608e-02 5.686397e-03 -4.944585e-03 9.820186e-02 8.375937e-03 -4.277297e-02 9.486677e-03 6.025796e-03 8.589531e-03 -4.687056e-02
<VARIANCE> 39
 5.181657e+00 3.309394e+01 6.416396e+01 1.060510e+02 9.173568e+00 5.130394e+01 5.663313e+01 1.377469e+01 2.019719e+01 2.950014e+01 2.119150e+01 2.425610e+01 5.274502e+01 3.055566e-01 1.060252e+00 1.195697e+00 1.025049e+00 5.380360e-01 1.376103e+00 1.425651e+00 1.367044e+00 1.166657e+00 1.163856e+00 1.838834e+00 1.864443e+00 4.796012e-01 4.516549e-02 1.773573e-01 1.693407e-01 1.645478e-01 1.219240e-01 2.139522e-01 3.171279e-01 2.578277e-01 2.581355e-01 2.364772e-01 3.321930e-01 2.002969e-01 4.700638e-02
<GCONST> 9.218315e+01
<TRANSP> 5
 0.000000e+00 1.000000e+00 0.000000e+00 0.000000e+00 0.000000e+00
 0.000000e+00 8.299611e-01 1.700389e-01 0.000000e+00 0.000000e+00
 0.000000e+00 0.000000e+00 7.447630e-01 2.552370e-01 0.000000e+00
 0.000000e+00 0.000000e+00 0.000000e+00 9.084598e-01 9.154016e-02
 0.000000e+00 0.000000e+00 0.000000e+00 0.000000e+00 0.000000e+00
<ENDHMM>
~h "aw"
<BEGINHMM>
<NUMSTATES> 5
<STATE> 2
<MEAN> 39
 1.085002e+00 -1.847683e+00 -1.646966e-01 -1.107215e+01 -4.691129e+00 -8.988044e-01 -9.924343e+00 -4.804087e+00 5.408429e-02 2.273835e+00 2.451595e+00 -6.947988e+00 6.499767e+01 7.999587e-01 -5.656075e-01 6.463651e-01 -2.039870e+00 -1.247273e+00 7.901278e-01 -1.392969e+00 -5.450928e-02 3.072858e-01 7.293229e-01 1.472874e+00 -6.505542e-01 1.808134e+00 1.994760e-01 1.483374e-01 -2.387128e-01 5.007772e-01 -1.320459e-01 5.214671e-01 5.031345e-02 1.728149e-01 -3.620475e-01 2.326493e-02 -8.038846e-02 1.916523e-01 -4.332799e-01
<VARIANCE> 39
 2.443794e+01 3.450201e+01 1.719303e+01 4.554338e+01 8.091954e+01 6.316604e+01 7.129001e+01 3.267969e+01 7.323363e+01 4.962858e+01 2.705627e+01 3.610762e+01 2.605849e+01 2.000723e+00 1.935562e+00 1.879867e+00 4.583262e+00 3.600536e+00 4.350015e+00 6.984256e+00 3.087777e+00 6.088753e+00 3.168857e+00 3.349377e+00 5.080038e+00 3.722134e+00 7.878428e-01 3.552504e-01 3.826189e-01 6.849098e-01 1.214005e+00 1.163366e+00 1.155696e+00 1.010111e+00 8.881711e-01 7.196012e-01 6.605967e-01 5.169380e-01 3.839414e-01
<GCONST> 1.315594e+02
<STATE> 3
<MEAN> 39
 3.620765e+00 -3.444270e+00 1.118964e+00 -1.184789e+01 -9.184470e+00 3.705928e+00 -1.193566e+01 -6.158305e+00 -3.788782e-01 5.202737e+00 4.261263e+00 -6.774445e+00 6.777568e+01 3.650179e-01 3.485017e-01 3.018917e-01 8.547913e-01 -3.266763e-01 7.143542e-01 -6.637251e-02 -7.200955e-01 -6.832414e-01 -1.032727e-01 -6.031520e-02 1.025955e+00 -4.070115e-01 -1.500571e-01 2.842807e-01 -1.635545e-02 5.325407e-01 3.061225e-01 -2.312941e-01 2.230912e-01 2.988531e-02 -3.122596e-02 -2.546696e-01 -3.861105e-01 1.342127e-01 -4.893583e-01
<VARIANCE> 39
 7.376025e+00 3.191303e+01 1.409200e+01 3.022697e+01 5.671003e+01 4.955235e+01 6.518932e+01 5.584472e+01 1.007581e+02 4.663039e+01 2.710823e+01 5.576687e+01 2.103919e+01 1.079614e+00 1.634883e+00 1.902383e+00 2.745286e+00 3.309334e+00 4.023817e+00 4.103072e+00 3.635119e+00 3.356375e+00 4.326803e+00 2.763354e+00 3.239302e+00 1.627361e+00 1.955885e-01 2.599058e-01 2.480866e-01 6.486718e-01 5.420437e-01 5.686626e-01 6.833002e-01 6.928535e-01 9.082181e-01 7.402449e-01 7.601929e-01 8.274642e-01 2.513354e-01
<GCONST> 1.220508e+02
<STATE> 4
<MEAN> 39
 4.764583e+00 -5.506468e-01 2.338146e+00 -5.718453e+00 -1.085026e+01 6.471555e+00 -1.087589e+01 -7.842267e+00 -2.513131e+00 2.780378e+00 3.127081e+00 -4.195489e+00 6.341376e+01 -1.322583e-01 7.113588e-01 8.128861e-02 1.597259e+00 4.709400e-01 -4.283295e-01 4.831806e-01 6.464317e-01 -7.442375e-02 -3.810849e-01 -7.385175e-01 3.429545e-02 -1.097637e+00 -2.371546e-01 -1.159992e-01 -2.050218e-02 -7.703501e-02 1.663033e-01 -4.778196e-01 1.381458e-01 3.393670e-01 -1.177217e-02 1.426172e-01 -3.891539e-02 -2.137166e-01 1.323686e-01
<VARIANCE> 39
 6.168538e+00 2.436160e+01 2.739588e+01 3.246853e+01 3.470005e+01 6.632959e+01 7.892212e+01 5.141830e+01 7.806935e+01 4.509555e+01 3.776215e+01 4.007139e+01 2.534362e+01 6.803231e-01 1.319959e+00 2.145189e+00 2.552483e+00 2.674528e+00 3.189778e+00 2.676980e+00 3.840935e+00 3.403149e+00 3.067915e+00 3.336415e+00 3.844782e+00 1.388030e+00 1.833656e-01 2.675967e-01 4.143338e-01 4.256067e-01 4.465714e-01 7.225332e-01 6.853964e-01 7.331823e-01 7.218495e-01 4.459142e-01 7.404947e-01 7.828824e-01 2.392400e-01
<GCONST> 1.198649e+02
<TRANSP> 5
 0.000000e+00 1.000000e+00 0.000000e+00 0.000000e+00 0.000000e+00
 0.000000e+00 4.928558e-01 5.071442e-01 0.000000e+00 0.000000e+00
 0.000000e+00 0.000000e+00 6.664753e-01 3.335247e-01 0.000000e+00
 0.000000e+00 0.000000e+00 0.000000e+00 6.675671e-01 3.324329e-01
 0.000000e+00 0.000000e+00 0.000000e+00 0.000000e+00 0.000000e+00
<ENDHMM>
~h "ay"
<BEGINHMM>
<NUMSTATES> 5
<STATE> 2
<MEAN> 39
 5.379455e-01 -1.367880e+01 4.171424e+00 -5.413038e+00 -1.172136e+01 -8.033040e+00 -9.940363e+00 1.123489e+01 1.949514e+00 -4.480197e+00 3.925955e-01 -1.124804e+01 7.178078e+01 -3.575181e-01 -1.504695e-01 1.469022e+00 1.708889e-01 -1.515159e+00 -1.160744e+00 8.210637e-02 1.448168e+00 -6.738127e-01 -5.930280e-01 9.042853e-01 6.129043e-01 1.712931e-01 -5.601034e-03 5.182606e-01 1.393469e-01 7.372442e-02 4.528541e-02 2.090575e-01 2.371554e-02 -5.474780e-01 -4.689385e-01 2.232018e-01 2.362936e-01 2.793255e-01 -3.516679e-01
<VARIANCE> 39
 6.123379e+00 2.414010e+01 4.240193e+01 1.717353e+01 4.692834e+01 5.642625e+01 4.684335e+01 5.095419e+01 5.540557e+01 5.597271e+01 5.261546e+01 3.553535e+01 1.158674e+01 4.156763e-01 1.386235e+00 2.147540e+00 1.198041e+00 2.133410e+00 2.466092e+00 2.048164e+00 2.991892e+00 2.287089e+00 1.918105e+00 3.404181e+00 2.311557e+00 5.829301e-01 9.444980e-02 1.862566e-01 3.582629e-01 2.393032e-01 5.359704e-01 4.592028e-01 4.235857e-01 5.502739e-01 4.749804e-01 3.561426e-01 6.023975e-01 4.100890e-01 1.172858e-01
<GCONST> 1.091414e+02
<STATE> 3
<MEAN> 39
 -1.383476e+00 -8.472156e+00 1.423071e+01 -5.609015e+00 -1.970531e+01 -9.862982e+00 -1.284322e+01 1.082504e+01 -4.958351e+00 -6.117595e+00 8.717908e+00 -7.706061e+00 6.985126e+01 1.209277e-01 8.315163e-01 3.651280e-01 3.266484e-01 1.304994e-01 4.279082e-01 -1.880262e-01 -8.821337e-01 -7.735022e-01 2.965203e-01 -2.932102e-02 4.726893e-02 -6.775259e-01 1.650562e-01 1.121396e-01 -4.831322e-01 2.057810e-01 5.497676e-01 3.016232e-01 1.537244e-01 -2.573817e-01 8.230642e-02 1.325651e-01 -4.876710e-01 -1.944468e-01 -2.471800e-01
<VARIANCE> 39
 4.582466e+00 2.050350e+01 3.997228e+01 2.712475e+01 4.023473e+01 3.904917e+01 5.682418e+01 3.867893e+01 5.171679e+01 5.015350e+01 4.131383e+01 3.167493e+01 1.021299e+01 4.645103e-01 1.212445e+00 3.116060e+00 1.264381e+00 2.852938e+00 1.597082e+00 2.491893e+00 2.712723e+00 2.706239e+00 1.960813e+00 2.974456e+00 2.282284e+00 7.134655e-01 7.606025e-02 1.896627e-01 2.924683e-01 2.037822e-01 3.531291e-01 3.264655e-01 4.664659e-01 6.686930e-01 4.497721e-01 3.664719e-01 4.580677e-01 4.222985e-01 1.144701e-01
<GCONST> 1.070986e+02
<STATE> 4
<MEAN> 39
 8.890669e-01 -4.948161e+00 9.602987e+00 -7.899544e-01 -1.318386e+01 -6.807565e+00 -9.558209e+00 6.586139e+00 -7.024302e+00 -3.169211e+00 2.397323e+00 -6.601110e+00 6.424155e+01 4.836448e-01 8.636420e-01 -1.127579e+00 9.900616e-01 1.028884e+00 1.096300e+00 6.557890e-01 -9.831833e-01 -3.522862e-01 4.570319e-01 -8.757805e-01 -7.703289e-02 -1.223701e+00 -7.273580e-02 -4.396241e-02 -1.239540e-01 -6.419051e-02 -4.589610e-03 1.154087e-02 9.878407e-02 -1.202156e-01 6.526945e-02 2.087934e-02 3.913313e-03 9.204954e-02 5.683508e-02
<VARIANCE> 39
 6.496087e+00 2.349557e+01 4.868332e+01 2.921651e+01 4.166293e+01 3.906578e+01 5.344078e+01 3.470536e+01 5.987973e+01 3.950266e+01 3.244486e+01 4.056556e+01 2.412637e+01 4.869722e-01 1.152387e+00 1.699976e+00 1.527878e+00 2.125485e+00 2.174246e+00 2.634673e+00 3.266422e+00 2.748020e+00 2.375218e+00 2.296744e+00 1.990400e+00 8.497263e-01 9.176397e-02 1.723978e-01 2.555578e-01 3.036639e-01 3.583726e-01 4.142483e-01 4.576953e-01 4.455098e-01 4.701969e-01 3.888066e-01 3.405187e-01 4.114975e-01 1.101586e-01
<GCONST> 1.082424e+02
<TRANSP> 5
 0.000000e+00 1.000000e+00 0.000000e+00 0.000000e+00 0.000000e+00
 0.000000e+00 7.466818e-01 2.533182e-01 0.000000e+00 0.000000e+00
 0.000000e+00 0.000000e+00 7.291881e-01 2.708119e-01 0.000000e+00
 0.000000e+00 0.000000e+00 0.000000e+00 6.991155e-01 3.008845e-01
