~o
<STREAMINFO> 1 39
<VECSIZE> 39<NULLD><MFCC_D_A_0><DIAGC>
~s "silst"
<MEAN> 39
 -3.862665e+00 2.662198e+00 -1.608575e+00 4.360555e+00 -1.496582e+00 2.007543e+00 -2.760275e+00 1.858186e+00 -2.653274e+00 -1.966882e+00 -2.163524e+00 -4.378881e-01 5.080120e+01 -4.751744e-02 -1.804808e-01 1.477227e-01 -8.912604e-02 8.124218e-02 -7.546704e-02 3.074431e-03 -1.376800e-01 -3.052794e-02 8.995067e-02 -5.740530e-02 -8.484890e-02 1.969166e-01 2.963899e-02 -5.819774e-02 5.248293e-02 -7.786615e-02 -1.364780e-02 -6.249424e-02 -2.915613e-02 -4.730509e-02 -6.045865e-02 1.471240e-02 6.767470e-03 -4.483778e-02 1.275133e-01
<VARIANCE> 39
 1.162787e+01 2.379567e+01 1.770621e+01 1.678248e+01 2.446677e+01 2.878463e+01 2.712424e+01 2.795695e+01 2.516331e+01 2.559376e+01 2.228203e+01 2.107727e+01 1.212869e+01 5.408375e-01 1.094658e+00 1.236677e+00 1.465959e+00 1.899015e+00 1.925930e+00 2.032333e+00 2.191432e+00 2.081008e+00 1.964671e+00 1.912296e+00 1.723249e+00 3.944864e-01 1.124744e-01 2.195333e-01 2.636239e-01 3.165907e-01 3.837686e-01 3.913946e-01 4.094973e-01 4.362111e-01 4.202624e-01 3.904952e-01 3.835280e-01 3.439703e-01 1.166127e-01
<GCONST> 1.000451e+02
~h "@"
<BEGINHMM>
<NUMSTATES> 5
<STATE> 2
<MEAN> 39
 1.044933e+00 -4.041206e+00 1.929241e+00 -2.466534e+00 -6.710556e+00 -5.545975e+00 -9.882256e+00 2.535479e-01 -1.839916e+00 1.298534e+00 8.961949e-01 -8.300127e+00 6.504195e+01 8.631331e-01 -1.079972e+00 3.370828e-01 -5.541701e-01 -1.011575e+00 -2.206759e-01 -7.176708e-01 6.471132e-01 3.028771e-01 2.554750e-01 3.850870e-01 -7.679058e-01 1.146890e+00 -1.119293e-01 5.035238e-01 1.981168e-02 4.431877e-01 1.514331e-01 4.813614e-01 3.676091e-01 -1.746220e-01 -2.688858e-01 -1.804757e-01 -2.655674e-01 2.881607e-01 -5.898393e-01
<VARIANCE> 39
 2.240939e+01 4.541856e+01 5.164066e+01 4.920699e+01 6.560799e+01 7.495371e+01 7.228882e+01 7.600710e+01 6.685740e+01 5.065153e+01 4.671131e+01 5.001291e+01 3.229955e+01 2.827670e+00 3.168591e+00 3.490627e+00 4.205783e+00 4.361780e+00 5.646159e+00 4.867728e+00 7.477059e+00 5.986295e+00 4.536406e+00 4.612423e+00 3.911088e+00 3.196070e+00 3.820685e-01 4.900137e-01 5.255810e-01 7.084452e-01 7.862735e-01 7.589031e-01 9.186953e-01 9.675592e-01 8.315948e-01 7.483245e-01 7.065274e-01 6.116465e-01 4.895185e-01
<GCONST> 1.366224e+02
<STATE> 3
<MEAN> 39
 1.849778e+00 -5.500386e+00 2.389622e+00 -3.040041e+00 -7.938984e+00 -5.010648e+00 -1.078786e+01 1.366700e+00 -1.158177e+00 1.049004e+00 1.657827e+00 -9.240364e+00 6.639143e+01 4.474610e-01 1.220968e-01 2.866281e-01 4.900111e-01 -3.241040e-01 4.422228e-01 -2.008062e-03 -1.005043e-01 -2.647800e-01 6.756846e-03 -1.415130e-01 1.123640e-01 -2.379459e-01 -2.547470e-01 6.136730e-01 -2.319464e-02 5.237833e-01 3.782474e-01 3.059991e-01 4.523520e-01 -4.166982e-01 -3.269102e-01 -1.569471e-01 -3.787124e-01 4.223724e-01 -6.893759e-01
<VARIANCE> 39
 1.585272e+01 4.769862e+01 5.168336e+01 5.420686e+01 6.667308e+01 7.407206e+01 7.206996e+01 9.350195e+01 7.716968e+01 5.931599e+01 5.417629e+01 5.874088e+01 2.987097e+01 1.481909e+00 1.897345e+00 2.185362e+00 3.120644e+00 2.900139e+00 3.965131e+00 4.043732e+00 4.199093e+00 3.967479e+00 3.143643e+00 3.428858e+00 2.645024e+00 1.747679e+00 3.579589e-01 4.319758e-01 5.574132e-01 6.514164e-01 7.695017e-01 7.486795e-01 8.780658e-01 1.219794e+00 9.424377e-01 8.894728e-01 7.985628e-01 7.243915e-01 3.920794e-01
<GCONST> 1.319470e+02
<STATE> 4
<MEAN> 39
 1.930696e+00 -4.755245e+00 3.451178e+00 -1.223109e+00 -8.464225e+00 -5.175364e+00 -1.000600e+01 2.012840e+00 -2.484471e+00 4.301834e-01 6.019980e-01 -8.104169e+00 6.454096e+01 1.371281e-01 9.161097e-01 -5.109283e-02 1.041740e+00 2.509615e-01 6.647609e-01 5.359978e-01 -7.292916e-01 -4.876835e-01 -8.136366e-02 -6.183496e-01 4.717919e-01 -1.129148e+00 -1.653457e-01 1.454500e-01 -7.159905e-02 8.384188e-02 1.369788e-01 4.877979e-02 1.637673e-01 -9.066830e-02 -3.816456e-02 -7.188123e-02 -1.080599e-01 7.207078e-02 -1.533674e-01
<VARIANCE> 39
 1.240113e+01 5.091826e+01 4.928707e+01 4.847371e+01 6.516853e+01 6.776933e+01 6.036745e+01 9.023479e+01 6.758128e+01 5.018804e+01 4.859863e+01 5.390153e+01 3.227275e+01 9.758027e-01 1.923492e+00 2.085621e+00 2.550002e+00 2.875392e+00 2.911470e+00 3.526249e+00 3.686222e+00 3.184129e+00 3.040827e+00 2.874299e+00 2.403168e+00 1.846024e+00 2.228853e-01 3.023926e-01 3.661167e-01 4.395373e-01 4.852799e-01 5.171916e-01 6.083878e-01 7.626105e-01 6.296875e-01 5.578012e-01 5.989382e-01 4.377543e-01 2.633829e-01
<GCONST> 1.237869e+02
<TRANSP> 5
 0.000000e+00 1.000000e+00 0.000000e+00 0.000000e+00 0.000000e+00
 0.000000e+00 1.441818e-01 8.558182e-01 0.000000e+00 0.000000e+00
 0.000000e+00 0.000000e+00 1.711678e-01 8.288322e-01 0.000000e+00
 0.000000e+00 0.000000e+00 0.000000e+00 4.335003e-01 5.664997e-01
 0.000000e+00 0.000000e+00 0.000000e+00 0.000000e+00 0.000000e+00
<ENDHMM>
~h "a"
<BEGINHMM>
<NUMSTATES> 5
<STATE> 2
<MEAN> 39
 2.086944e+00 -1.031906e+01 -7.210041e-01 -7.498627e+00 -4.965785e+00 -1.511459e+00 -9.489566e+00 5.374756e+00 -6.034105e-01 4.519025e-01 -1.621839e+00 -1.231051e+01 6.931515e+01 1.549759e-01 -1.043220e+00 -2.036653e-01 -5.840402e-01 3.347691e-01 3.740358e-01 1.037349e-01 8.843273e-01 1.170453e-01 -2.167860e-01 -5.299837e-01 -7.256840e-01 7.965881e-01 -1.270411e-01 7.718392e-01 1.998742e-01 6.516555e-01 2.512167e-02 -5.651822e-02 1.813841e-01 -5.748596e-01 -3.780121e-01 -1.511482e-02 8.666749e-02 5.790696e-01 -6.949186e-01
<VARIANCE> 39
 9.677856e+00 2.529445e+01 4.226918e+01 4.328825e+01 5.624406e+01 7.986674e+01 5.991640e+01 6.335902e+01 7.171379e+01 6.770107e+01 4.783895e+01 5.179660e+01 1.939686e+01 1.024356e+00 2.466203e+00 2.547002e+00 3.068320e+00 3.474197e+00 3.989084e+00 3.628754e+00 5.065639e+00 3.564965e+00 3.701646e+00 3.492699e+00 3.391555e+00 1.915586e+00 1.965086e-01 3.670655e-01 3.711187e-01 4.996783e-01 5.759933e-01 6.182055e-01 6.434124e-01 8.330419e-01 7.105280e-01 7.186952e-01 6.157083e-01 5.625833e-01 2.818066e-01
<GCONST> 1.258651e+02
<STATE> 3
<MEAN> 39
 2.016100e+00 -1.081258e+01 -3.272119e-01 -7.717095e+00 -4.532756e+00 -1.771056e+00 -9.180231e+00 6.182187e+00 -1.398352e+00 1.907357e-01 -2.080368e+00 -1.224946e+01 6.968888e+01 1.793945e-01 9.197096e-01 1.524801e-01 9.387677e-01 -3.316946e-02 -6.291117e-02 2.008576e-01 -6.073189e-01 -5.199932e-01 2.505941e-01 1.106024e-02 6.099234e-01 -8.916803e-01 1.461006e-02 5.007054e-01 9.860247e-02 3.950971e-01 -1.224346e-01 4.842682e-02 6.372365e-02 -4.125165e-01 -1.230651e-01 5.080657e-02 5.866762e-02 2.294992e-01 -4.544222e-01
<VARIANCE> 39
 8.566274e+00 2.412969e+01 4.175891e+01 3.940948e+01 5.279021e+01 7.809512e+01 5.657267e+01 6.474420e+01 7.659461e+01 6.893045e+01 4.827323e+01 5.201626e+01 1.499615e+01 4.617029e-01 1.483825e+00 1.501688e+00 1.761881e+00 2.134844e+00 2.799627e+00 2.454532e+00 3.166280e+00 2.417959e+00 2.501153e+00 2.349578e+00 2.086753e+00 1.044737e+00 1.091851e-01 2.062951e-01 3.102149e-01 2.984595e-01 4.076028e-01 5.117216e-01 5.155644e-01 6.664771e-01 4.924830e-01 5.432419e-01 5.115283e-01 4.171795e-01 1.298449e-01
<GCONST> 1.142059e+02
<STATE> 4
<MEAN> 39
 2.223910e+00 -3.065669e+00 -1.834878e+00 -5.994879e-01 -4.056290e+00 -2.433567e-01 -6.422888e+00 2.615584e+00 -2.935029e+00 5.562254e-01 -2.893749e+00 -7.240351e+00 6.040768e+01 -5.812024e-03 1.114694e+00 -3.737585e-02 1.054666e+00 -9.992052e-02 3.487320e-01 4.241830e-01 -6.461619e-01 -2.627341e-01 -9.597467e-02 -1.829135e-01 4.827577e-01 -1.249514e+00 -8.100999e-02 -8.150291e-02 3.769679e-02 -1.221332e-01 -2.277026e-02 -8.792726e-03 -5.591325e-03 1.982775e-02 3.642557e-02 -5.491011e-02 -2.229998e-03 -6.164885e-02 1.160368e-01
<VARIANCE> 39
 1.092216e+01 3.179426e+01 4.231171e+01 4.295165e+01 3.911131e+01 5.459748e+01 4.703157e+01 4.757848e+01 4.567243e+01 4.404227e+01 3.968900e+01 4.558215e+01 4.129721e+01 5.579891e-01 1.332272e+00 1.605127e+00 2.003160e+00 2.063377e+00 2.410762e+00 2.435285e+00 3.240343e+00 2.582069e+00 2.566930e+00 2.307184e+00 2.117789e+00 1.124494e+00 1.034295e-01 1.827991e-01 2.266134e-01 2.842013e-01 3.190728e-01 4.026860e-01 4.100165e-01 4.977562e-01 4.141494e-01 4.138923e-01 4.031660e-01 3.749123e-01 1.231444e-01
<GCONST> 1.112770e+02
<TRANSP> 5
 0.000000e+00 1.000000e+00 0.000000e+00 0.000000e+00 0.000000e+00
 0.000000e+00 4.752750e-01 5.247250e-01 0.000000e+00 0.000000e+00
 0.000000e+00 0.000000e+00 6.057934e-01 3.942066e-01 0.000000e+00
 0.000000e+00 0.000000e+00 0.000000e+00 6.667906e-01 3.332094e-01
 0.000000e+00 0.000000e+00 0.000000e+00 0.000000e+00 0.000000e+00
<ENDHMM>
~h "b"
<BEGINHMM>
<NUMSTATES> 5
<STATE> 2
<MEAN> 39
 4.979360e+00 7.252167e+00 1.921082e+00 5.243673e+00 -4.144652e+00 2.353373e+00 -6.741935e+00 -3.512927e+00 -7.580653e+00 -2.244224e+00 -2.298412e+00 -5.144846e+00 5.552327e+01 2.409813e-01 -1.429441e-01 -3.001341e-01 -6.648391e-01 1.075532e-01 -3.335842e-01 -5.785496e-01 -3.433472e-01 8.569384e-02 9.926303e-02 5.294789e-01 2.763392e-01 4.917488e-01 -1.159717e-01 -7.685391e-01 7.704481e-02 -8.712782e-01 -3.048463e-01 -2.729119e-01 -6.648188e-01 6.007358e-03 2.178414e-01 4.702314e-01 5.332593e-01 -1.620333e-01 6.904421e-01
<VARIANCE> 39
 7.598092e+00 2.082155e+01 1.903684e+01 2.109112e+01 2.724352e+01 2.890956e+01 3.119191e+01 2.837859e+01 2.634456e+01 2.228376e+01 2.316214e+01 2.405262e+01 1.201414e+01 7.100853e-01 2.655775e+00 1.627209e+00 4.852768e+00 2.553264e+00 3.025941e+00 4.182889e+00 3.162235e+00 3.309587e+00 3.099761e+00 3.538496e+00 2.229476e+00 2.090432e+00 1.272126e-01 4.196871e-01 3.594944e-01 5.410651e-01 4.782392e-01 6.061028e-01 5.871069e-01 6.516821e-01 7.317142e-01 6.424983e-01 5.942116e-01 5.584635e-01 2.259565e-01
<GCONST> 1.137220e+02
<STATE> 3
<MEAN> 39
 5.798858e+00 2.557574e+00 6.090133e-01 -3.463035e+00 -5.531209e+00 1.201968e+00 -1.245015e+01 -6.889726e+00 -7.853937e+00 1.404538e+00 3.610154e+00 -4.025840e+00 6.129565e+01 -1.928857e-01 -2.619870e+00 1.051735e-01 -3.023530e+00 -8.074417e-01 -6.159001e-01 -2.623988e+00 3.957723e-01 1.346273e+00 2.165270e+00 1.799347e+00 -1.344014e+00 2.508829e+00 -3.092547e-01 -2.638124e-01 3.204596e-01 3.541545e-01 -1.620654e-01 -9.637247e-02 2.075539e-01 7.348366e-01 4.423045e-01 -5.957194e-02 -5.080112e-01 -5.771264e-01 5.081889e-02
<VARIANCE> 39
 7.335684e+00 3.146589e+01 2.146458e+01 7.817148e+01 4.530591e+01 5.100792e+01 4.864689e+01 3.625430e+01 4.546360e+01 5.355578e+01 4.735028e+01 2.856668e+01 2.137033e+01 1.002166e+00 4.185280e+00 3.430473e+00 6.815823e+00 4.088604e+00 6.301095e+00 4.683033e+00 5.356514e+00 7.913480e+00 6.803324e+00 5.528576e+00 5.347550e+00 1.916949e+00 1.371201e-01 3.996917e-01 3.849171e-01 1.093047e+00 6.925533e-01 7.132249e-01 8.313068e-01 8.241367e-01 1.036806e+00 1.054033e+00 1.048120e+00 6.584136e-01 3.088364e-01
<GCONST> 1.306040e+02
<STATE> 4
<MEAN> 39
 4.584271e+00 -3.380490e+00 1.893747e+00 -5.849746e+00 -6.902960e+00 -8.490562e-01 -1.647043e+01 -2.229305e+00 -2.286394e+00 5.004350e+00 3.758103e+00 -1.007489e+01 6.529788e+01 -7.174171e-01 -2.004458e+00 8.476025e-01 -9.191029e-01 -9.165506e-01 -1.175081e+00 -8.827252e-01 1.939731e+00 1.528952e+00 1.982734e-01 -2.210581e-01 -1.458839e+00 1.704226e+00 -1.490194e-01 6.836716e-01 1.534439e-01 8.502694e-01 1.251170e-01 7.736086e-02 9.137447e-01 9.982003e-02 -4.217613e-01 -7.877244e-01 -6.149458e-01 4.431707e-01 -6.099945e-01
<VARIANCE> 39
 7.245239e+00 4.539615e+01 3.527041e+01 9.076938e+01 5.629961e+01 7.150588e+01 5.870077e+01 4.718104e+01 7.282454e+01 7.500723e+01 7.220939e+01 6.184542e+01 2.467111e+01 1.006553e+00 3.018737e+00 4.079107e+00 5.509524e+00 3.823637e+00 5.053242e+00 4.699916e+00 6.263858e+00 7.011222e+00 5.729183e+00 6.708186e+00 5.410709e+00 1.804148e+00 1.282551e-01 4.827871e-01 3.729997e-01 1.134187e+00 7.750750e-01 8.175188e-01 8.625405e-01 7.687645e-01 9.949360e-01 1.189028e+00 1.215065e+00 8.633392e-01 3.128290e-01
<GCONST> 1.349735e+02
<TRANSP> 5
 0.000000e+00 1.000000e+00 0.000000e+00 0.000000e+00 0.000000e+00
 0.000000e+00 6.952934e-01 3.047066e-01 0.000000e+00 0.000000e+00
 0.000000e+00 0.000000e+00 3.443517e-01 6.556482e-01 0.000000e+00
 0.000000e+00 0.000000e+00 0.000000e+00 2.497826e-01 7.502174e-01
 0.000000e+00 0.000000e+00 0.000000e+00 0.000000e+00 0.000000e+00
<ENDHMM>
~h "c"
<BEGINHMM>
<NUMSTATES> 5
<STATE> 2
<MEAN> 39
 -2.105704e+00 3.814080e+00 1.162044e-01 1.081722e+00 -3.364696e+00 -2.519902e+00 -5.419423e+00 2.839611e-01 -3.121554e+00 -1.216646e+00 -1.933344e+00 -3.027807e+00 5.529659e+01 -2.608084e+00 3.247578e-01 4.127686e-01 -1.263400e+00 1.245187e+00 -7.370765e-01 7.966132e-01 -3.334303e-01 2.413139e-01 -1.774040e-01 4.926241e-01 2.125521e-01 1.114123e+00 -4.631197e-01 -2.191225e-01 5.492545e-01 -3.801095e-01 -4.345774e-02 -5.538145e-01 -1.769286e-01 -4.145449e-02 2.108791e-01 -1.169055e-01 1.974181e-01 4.723724e-02 8.511333e-01
<VARIANCE> 39
 2.267165e+01 2.131279e+01 2.950983e+01 2.650604e+01 3.775751e+01 4.995287e+01 3.546559e+01 4.421164e+01 3.150016e+01 2.467564e+01 2.813881e+01 2.528184e+01 2.155835e+01 3.379450e+00 2.630622e+00 2.905658e+00 3.486860e+00 3.357589e+00 4.046655e+00 2.643341e+00 3.406401e+00 2.781425e+00 2.585567e+00 2.633807e+00 2.174430e+00 2.954259e+00 7.929216e-01 4.184803e-01 4.206045e-01 5.881411e-01 6.875271e-01 6.231040e-01 5.444403e-01 7.056814e-01 5.625126e-01 5.479400e-01 4.888181e-01 4.383309e-01 2.951966e-01
<GCONST> 1.215802e+02
<STATE> 3
<MEAN> 39
 -1.418318e+01 4.840956e+00 4.751318e+00 -4.601715e+00 3.565173e-01 -7.182913e+00 -2.828694e+00 -1.003937e+00 -8.108593e-01 -3.787128e+00 7.293712e-01 -1.507920e+00 6.285398e+01 3.305381e-01 -1.223026e+00 1.358251e+00 -2.960586e-01 -1.227538e+00 -1.458750e+00 -1.122832e+00 3.150147e-01 6.788963e-01 -4.459401e-01 3.178449e-01 2.235332e-01 1.965720e+00 1.928601e+00 -7.039756e-01 -2.692443e-01 4.524731e-01 -8.890116e-01 4.004813e-01 -8.154988e-01 1.937137e-01 -1.288636e-01 2.639910e-01 -8.211854e-02 -2.836987e-01 -2.501115e-01
<VARIANCE> 39
 1.683082e+01 2.768338e+01 2.963796e+01 2.869692e+01 4.059585e+01 4.961134e+01 3.397305e+01 3.700843e+01 2.969802e+01 2.775956e+01 2.450515e+01 1.868676e+01 1.485809e+01 1.010629e+01 3.637470e+00 3.272200e+00 3.773554e+00 5.142813e+00 4.013728e+00 4.393941e+00 4.057256e+00 3.447581e+00 3.163640e+00 2.599642e+00 2.380485e+00 2.158826e+00 5.603055e-01 7.208647e-01 6.151384e-01 8.376816e-01 8.713988e-01 6.969025e-01 6.108611e-01 7.609319e-01 9.142653e-01 6.240357e-01 6.536574e-01 5.573311e-01 2.714538e-01
<GCONST> 1.261498e+02
<STATE> 4
<MEAN> 39
 -2.031190e+00 -3.981350e+00 5.951728e+00 -3.021605e+00 -7.575602e+00 -1.014308e+01 -1.146798e+01 1.842371e+00 1.302739e+00 -3.403650e+00 5.593553e-02 -2.963835e+00 6.794961e+01 3.646619e+00 -2.589151e+00 -4.965964e-01 -3.878345e-01 -1.789251e+00 6.296897e-01 -2.112526e+00 4.524683e-01 1.552249e-02 8.705392e-01 7.130012e-01 -1.336394e+00 1.275703e+00 -2.777050e-01 5.744191e-01 -5.398077e-01 -8.803280e-02 5.783886e-01 9.196507e-01 6.716021e-01 -3.030072e-01 -5.369938e-01 2.313494e-01 9.175552e-02 -2.599041e-01 -7.231970e-01
<VARIANCE> 39
 1.520637e+01 3.459727e+01 4.634401e+01 2.877298e+01 2.824854e+01 3.939168e+01 5.362065e+01 6.230540e+01 3.956234e+01 3.727819e+01 1.949490e+01 1.842499e+01 2.071298e+01 2.560334e+00 3.934618e+00 3.589430e+00 2.796015e+00 4.138790e+00 3.333381e+00 3.965719e+00 6.145411e+00 5.297003e+00 3.721703e+00 3.616062e+00 3.302185e+00 1.247195e+00 8.858598e-01 5.724193e-01 4.759246e-01 5.292037e-01 6.391878e-01 6.352854e-01 7.323393e-01 6.441523e-01 6.132666e-01 6.266496e-01 5.140146e-01 5.834036e-01 2.999391e-01
<GCONST> 1.255184e+02
<TRANSP> 5
 0.000000e+00 1.000000e+00 0.000000e+00 0.000000e+00 0.000000e+00
 0.000000e+00 6.825974e-01 3.174026e-01 0.000000e+00 0.000000e+00
 0.000000e+00 0.000000e+00 6.428816e-01 3.571184e-01 0.000000e+00
 0.000000e+00 0.000000e+00 0.000000e+00 4.424679e-01 5.575321e-01
 0.000000e+00 0.000000e+00 0.000000e+00 0.000000e+00 0.000000e+00
<ENDHMM>
~h "d"
<BEGINHMM>
<NUMSTATES> 5
<STATE> 2
<MEAN> 39
 4.044919e+00 5.238792e+00 5.029173e+00 7.665143e+00 -7.255868e+00 -2.018512e+00 -7.645080e+00 7.722425e-01 -4.568946e+00 -2.679860e+00 -4.175589e+00 -5.354908e+00 5.595848e+01 -6.085759e-02 -2.309960e-01 3.209662e-01 5.267340e-02 4.866906e-02 -3.358049e-01 -2.266180e-01 7.247306e-03 3.911463e-02 -3.815868e-01 2.631007e-01 3.204125e-01 2.617660e-01 -3.749239e-01 -9.498069e-01 5.511523e-01 -8.684982e-01 -5.298988e-01 -5.824955e-01 -6.324066e-01 8.707654e-02 1.681816e-02 6.085554e-02 7.866175e-01 3.293908e-02 9.667055e-01
<VARIANCE> 39
 7.391902e+00 2.982929e+01 3.072277e+01 2.058075e+01 3.638673e+01 2.713377e+01 3.597171e+01 5.053191e+01 3.156836e+01 2.783043e+01 3.693399e+01 2.943493e+01 1.478958e+01 9.511667e-01 3.145733e+00 2.904019e+00 2.598436e+00 3.242707e+00 3.535801e+00 3.971926e+00 4.211699e+00 3.291466e+00 2.527286e+00 3.439490e+00 2.392024e+00 2.256885e+00 1.467684e-01 3.278522e-01 5.689011e-01 4.319507e-01 6.094592e-01 6.243558e-01 7.783568e-01 1.120286e+00 6.985988e-01 5.680015e-01 6.190783e-01 5.031919e-01 2.290198e-01
<GCONST> 1.186943e+02
<STATE> 3
<MEAN> 39
 2.232044e+00 -6.109732e-02 6.762254e+00 5.383124e+00 -7.057160e+00 -4.220949e+00 -9.360511e+00 -5.008053e-01 -4.202882e+00 -3.452374e+00 -1.918925e+00 -3.181695e+00 5.993043e+01 -8.605614e-01 -2.551557e+00 1.998752e+00 -2.320431e+00 -1.749176e+00 -2.001769e+00 -2.274024e+00 6.591620e-01 9.648710e-02 3.125645e-03 2.426609e+00 -3.757000e-02 2.860917e+00 -1.010689e-01 -1.125591e-01 1.500749e-01 -6.591576e-01 -4.147836e-01 -6.343551e-02 -3.338566e-01 3.619553e-01 -7.567747e-02 3.337993e-01 3.850123e-01 -5.449181e-01 4.229089e-01
<VARIANCE> 39
 1.197874e+01 3.163209e+01 4.219418e+01 3.539420e+01 4.479504e+01 4.871192e+01 5.999181e+01 6.563139e+01 4.535173e+01 3.534388e+01 3.110181e+01 3.267327e+01 1.973066e+01 1.278993e+00 2.711044e+00 5.681112e+00 3.370418e+00 4.219653e+00 4.587337e+00 5.453979e+00 1.057156e+01 6.672408e+00 4.933405e+00 5.382097e+00 3.577421e+00 1.507287e+00 1.588959e-01 4.296573e-01 4.904487e-01 5.378445e-01 8.553054e-01 8.600814e-01 8.647764e-01 9.821464e-01 7.370523e-01 7.414436e-01 6.955510e-01 6.015952e-01 2.547540e-01
<GCONST> 1.289202e+02
<STATE> 4
<MEAN> 39
 1.217512e+00 -5.368607e+00 1.077526e+01 -1.241410e+00 -1.261538e+01 -9.204530e+00 -1.616866e+01 4.375138e+00 -3.199413e+00 -2.073827e+00 3.774292e+00 -5.749441e+00 6.661748e+01 -6.800312e-01 -1.565410e+00 9.866906e-01 -2.496054e+00 -1.460771e+00 -9.480288e-01 -1.495432e+00 1.310909e+00 1.558495e-01 5.992140e-01 1.737645e+00 -1.355312e+00 2.303797e+00 1.516220e-01 7.379361e-01 -5.827926e-01 3.981304e-01 4.780987e-01 6.849747e-01 6.985039e-01 -2.859603e-01 -1.395488e-01 1.265073e-01 -6.336228e-01 -2.231752e-01 -6.554124e-01
<VARIANCE> 39
 1.061500e+01 3.251171e+01 5.723287e+01 3.834038e+01 4.112621e+01 5.019891e+01 8.521242e+01 1.165355e+02 8.258485e+01 5.494934e+01 4.645728e+01 5.281887e+01 1.757721e+01 1.121154e+00 2.514830e+00 5.728108e+00 3.293886e+00 4.208774e+00 5.053617e+00 5.055870e+00 8.341365e+00 5.744742e+00 5.365424e+00 6.187611e+00 3.870054e+00 1.797075e+00 1.200237e-01 3.474682e-01 4.630345e-01 5.667135e-01 7.473391e-01 7.904761e-01 1.058940e+00 1.300239e+00 9.149961e-01 6.590605e-01 7.112352e-01 6.761656e-01 2.414984e-01
<GCONST> 1.317259e+02
<TRANSP> 5
 0.000000e+00 1.000000e+00 0.000000e+00 0.000000e+00 0.000000e+00
 0.000000e+00 6.252700e-01 3.747300e-01 0.000000e+00 0.000000e+00
 0.000000e+00 0.000000e+00 1.912852e-01 8.087148e-01 0.000000e+00
 0.000000e+00 0.000000e+00 0.000000e+00 3.493380e-01 6.506620e-01
 0.000000e+00 0.000000e+00 0.000000e+00 0.000000e+00 0.000000e+00
<ENDHMM>
~h "e"
<BEGINHMM>
<NUMSTATES> 5
<STATE> 2
<MEAN> 39
 -2.928410e-02 -6.592688e+00 6.871752e+00 -1.698523e+00 -1.060589e+01 -8.610335e+00 -6.276726e+00 5.568155e+00 -4.415424e+00 -9.660593e-01 1.560764e+00 -6.614162e+00 6.618237e+01 1.612326e-01 -1.386542e+00 1.397763e+00 -1.137059e+00 -1.377504e+00 -6.570169e-01 -2.752741e-01 1.631671e+00 -1.342189e-01 -2.965713e-01 7.078384e-01 -4.555953e-01 1.510717e+00 -1.345074e-01 4.956033e-01 -3.318832e-01 2.131167e-01 4.559155e-01 3.477338e-01 2.733027e-01 -4.077607e-01 -7.542259e-02 8.484402e-02 -2.040821e-01 2.270911e-01 -4.751146e-01
<VARIANCE> 39
 1.395228e+01 3.511292e+01 5.616478e+01 3.494276e+01 4.468826e+01 7.659516e+01 9.858123e+01 6.048403e+01 8.262834e+01 8.034526e+01 5.245917e+01 3.914585e+01 3.648351e+01 1.414878e+00 2.020862e+00 4.002833e+00 2.267536e+00 4.326894e+00 4.201313e+00 5.151345e+00 5.158716e+00 4.062988e+00 4.706149e+00 4.135592e+00 2.910351e+00 1.907602e+00 2.651950e-01 5.202034e-01 7.702680e-01 4.611812e-01 7.492923e-01 7.441514e-01 9.274820e-01 9.166343e-01 8.001737e-01 8.401515e-01 6.892397e-01 5.215051e-01 4.155145e-01
<GCONST> 1.317700e+02
<STATE> 3
<MEAN> 39
 5.857852e-02 -8.863630e+00 7.820704e+00 -4.211141e+00 -1.257605e+01 -9.467644e+00 -8.171907e+00 7.632581e+00 -3.749765e+00 -1.714230e+00 3.195849e+00 -8.442060e+00 6.894784e+01 1.814476e-01 6.766794e-01 -4.199976e-01 6.744426e-01 4.349069e-01 3.953499e-01 2.769004e-01 -5.243750e-01 -8.656994e-02 1.444344e-01 -5.050880e-01 1.886034e-01 -7.215669e-01 -4.738456e-03 4.899435e-01 -2.433549e-01 4.333021e-01 3.111849e-01 2.191509e-01 1.876631e-01 -4.865269e-01 -3.599290e-02 6.366514e-02 -1.850241e-01 1.560635e-01 -4.442329e-01
<VARIANCE> 39
 7.937280e+00 2.436691e+01 4.538721e+01 3.284950e+01 3.953447e+01 8.850023e+01 6.927824e+01 7.312737e+01 7.884659e+01 6.645412e+01 5.942283e+01 4.006458e+01 1.634351e+01 5.200208e-01 1.540980e+00 1.457902e+00 2.101169e+00 2.171690e+00 2.124156e+00 2.841076e+00 2.735173e+00 2.474013e+00 2.633759e+00 2.072420e+00 1.659654e+00 1.334211e+00 1.454954e-01 2.780140e-01 3.496883e-01 3.398620e-01 4.061255e-01 4.301623e-01 5.880759e-01 6.461777e-01 5.018881e-01 6.001558e-01 4.591168e-01 3.466365e-01 1.706359e-01
<GCONST> 1.150919e+02
<STATE> 4
<MEAN> 39
 -8.831872e-01 -1.570400e+00 6.435032e+00 -1.955125e-01 -8.915646e+00 -5.166330e+00 -3.910576e+00 2.951044e+00 -6.791761e+00 1.894832e+00 1.278099e+00 -3.883039e+00 5.979456e+01 -6.051697e-04 5.186671e-01 -3.711168e-01 4.730085e-01 3.303639e-01 4.519038e-01 3.078906e-01 -2.999703e-01 4.126634e-02 -6.353018e-02 -2.386812e-01 1.919877e-01 -6.334766e-01 -4.039311e-02 -7.084905e-03 1.282813e-02 -6.468569e-02 4.658193e-03 1.229015e-02 -1.720461e-02 -2.258543e-02 8.413040e-03 -1.910645e-02 2.273472e-02 -1.002207e-02 4.136205e-02
<VARIANCE> 39
 9.770224e+00 2.848349e+01 8.569186e+01 4.857991e+01 4.752274e+01 6.479896e+01 4.015979e+01 4.506308e+01 4.641631e+01 5.367304e+01 6.215302e+01 2.730013e+01 5.005944e+01 3.994920e-01 1.209194e+00 1.301506e+00 1.480072e+00 1.672554e+00 1.634015e+00 2.053022e+00 2.256255e+00 1.905817e+00 1.988853e+00 1.864028e+00 1.541843e+00 6.821234e-01 8.088283e-02 1.457729e-01 1.997329e-01 2.220297e-01 2.654665e-01 2.641738e-01 3.497218e-01 3.539638e-01 3.424127e-01 3.441681e-01 2.925234e-01 2.737705e-01 8.040483e-02
<GCONST> 1.053291e+02
<TRANSP> 5
 0.000000e+00 1.000000e+00 0.000000e+00 0.000000e+00 0.000000e+00
 0.000000e+00 5.737303e-01 4.262697e-01 0.000000e+00 0.000000e+00
 0.000000e+00 0.000000e+00 7.000465e-01 2.999535e-01 0.000000e+00
 0.000000e+00 0.000000e+00 0.000000e+00 8.274986e-01 1.725014e-01
 0.000000e+00 0.000000e+00 0.000000e+00 0.000000e+00 0.000000e+00
<ENDHMM>
~h "f"
<BEGINHMM>
<NUMSTATES> 5
<STATE> 2
<MEAN> 39
 -5.720961e+00 1.257429e+00 2.133986e+00 6.254309e-01 -4.017527e+00 -3.569663e+00 -2.950618e+00 -2.365232e+00 -1.341479e+00 -1.694321e+00 -1.236369e+00 -4.617439e+00 5.980564e+01 -1.170545e+00 1.335094e-01 3.708938e-02 1.437109e-01 3.373715e-01 -4.473279e-01 2.766017e-01 4.483677e-02 5.710881e-01 -1.948105e-01 -2.922338e-01 2.677645e-01 -1.049036e-01 3.100007e-01 -3.339432e-01 2.092879e-01 8.037129e-02 -2.747335e-01 -7.909575e-02 -2.472587e-01 8.237080e-02 -4.997628e-02 -3.231100e-02 1.485459e-01 -5.863560e-02 2.458461e-01
<VARIANCE> 39
 2.459772e+01 1.677836e+01 3.788541e+01 2.225498e+01 3.133559e+01 4.816145e+01 2.688649e+01 3.657613e+01 3.457417e+01 3.073825e+01 2.280712e+01 2.326486e+01 1.279290e+01 1.905785e+00 1.560171e+00 1.602034e+00 1.982418e+00 2.076118e+00 2.689584e+00 2.211558e+00 2.906853e+00 2.338520e+00 2.211802e+00 2.024029e+00 1.852668e+00 7.633721e-01 3.602448e-01 2.266747e-01 3.312963e-01 3.357359e-01 5.176241e-01 5.026556e-01 5.490261e-01 5.533527e-01 5.510352e-01 4.015508e-01 4.429265e-01 3.666823e-01 1.391616e-01
<GCONST> 1.104227e+02
<STATE> 3
<MEAN> 39
 -9.432222e+00 -5.859245e-01 3.181099e+00 4.040828e+00 -1.819410e+00 -6.836138e+00 -3.230102e+00 -1.706928e+00 1.765797e+00 -1.407300e+00 -2.423403e+00 -3.155062e+00 6.028150e+01 1.799572e+00 -1.130469e+00 1.910711e+00 4.251519e-01 -1.644964e+00 -1.493325e+00 -2.091029e+00 1.085649e-01 -7.690270e-01 -6.619260e-01 1.090837e+00 1.632719e-01 9.055957e-01 8.665898e-01 -1.911465e-01 7.406822e-01 -4.515847e-01 -1.192903e+00 -7.024050e-02 -8.470807e-01 1.459799e-01 -6.965089e-01 -3.147152e-01 8.472092e-01 -2.653290e-01 4.493079e-01
<VARIANCE> 39
 1.923682e+01 1.343496e+01 3.579436e+01 2.152190e+01 2.190230e+01 4.135152e+01 2.719543e+01 2.029132e+01 3.562740e+01 1.724739e+01 1.983032e+01 1.778692e+01 9.596836e+00 2.164778e+00 1.280957e+00 3.791564e+00 1.967095e+00 3.614113e+00 3.186022e+00 3.944375e+00 2.939255e+00 3.754922e+00 3.119637e+00 3.157711e+00 2.236841e+00 9.610186e-01 2.554825e-01 3.494969e-01 5.305540e-01 3.253253e-01 4.229638e-01 5.354947e-01 6.136957e-01 5.165187e-01 6.939936e-01 6.047304e-01 4.960284e-01 4.027183e-01 1.255305e-01
<GCONST> 1.124872e+02
<STATE> 4
<MEAN> 39
 -1.234379e+00 -2.014673e+00 9.682085e+00 3.984409e+00 -9.592207e+00 -1.050631e+01 -1.086844e+01 -1.064481e+00 -3.883171e+00 -5.189441e+00 2.259001e+00 -3.708692e+00 6.280253e+01 2.494917e+00 -1.541431e+00 2.680650e+00 -9.553480e-01 -3.815275e+00 -7.760571e-01 -3.012788e+00 7.110957e-01 -1.448462e+00 -1.186532e+00 2.767037e+00 -8.871440e-01 1.936722e+00 -4.598431e-01 -3.306510e-02 -2.055110e-01 -5.297806e-01 3.745184e-02 4.303309e-01 2.416721e-01 1.534809e-01 3.191803e-01 2.874588e-01 8.679108e-02 -4.091697e-01 1.549677e-01
<VARIANCE> 39
 1.223192e+01 1.425846e+01 8.457153e+01 3.045584e+01 3.232236e+01 4.250160e+01 5.510494e+01 2.626311e+01 2.827092e+01 3.762614e+01 3.218815e+01 2.129456e+01 1.347401e+01 1.225445e+00 2.179028e+00 7.333247e+00 2.223481e+00 3.244552e+00 3.874155e+00 5.250088e+00 3.973470e+00 5.864298e+00 4.747466e+00 4.141910e+00 2.821195e+00 1.107666e+00 2.650560e-01 1.804703e-01 5.099382e-01 3.326208e-01 6.163881e-01 5.005854e-01 5.302691e-01 4.074060e-01 4.751707e-01 4.034047e-01 6.573929e-01 3.368957e-01 1.291010e-01
<GCONST> 1.177965e+02
<TRANSP> 5
 0.000000e+00 1.000000e+00 0.000000e+00 0.000000e+00 0.000000e+00
 0.000000e+00 8.352242e-01 1.647758e-01 0.000000e+00 0.000000e+00
 0.000000e+00 0.000000e+00 5.054622e-01 4.945379e-01 0.000000e+00
 0.000000e+00 0.000000e+00 0.000000e+00 2.941606e-01 7.058394e-01
 0.000000e+00 0.000000e+00 0.000000e+00 0.000000e+00 0.000000e+00
<ENDHMM>
~h "g"
<BEGINHMM>
<NUMSTATES> 5
<STATE> 2
<MEAN> 39
 3.549740e+00 5.091971e+00 4.132363e+00 3.896875e+00 -5.719829e+00 -3.655382e-01 -8.693368e+00 -1.602922e+00 -7.962836e+00 -3.247538e-01 -1.329924e+00 -7.021063e+00 5.689201e+01 -6.457223e-01 -6.855920e-01 2.806426e-01 -8.943797e-01 8.158791e-01 -1.003095e+00 -8.937899e-01 1.516048e-01 2.490255e-01 1.732807e-01 4.206675e-01 -1.742686e-01 8.872011e-01 -3.304328e-01 -6.108653e-01 6.093726e-01 -7.725221e-01 -4.677026e-01 -4.340589e-01 -5.947984e-01 6.630354e-02 1.459645e-01 6.878096e-02 7.230200e-01 -3.115164e-01 8.558058e-01
<VARIANCE> 39
 7.567335e+00 2.787820e+01 3.340497e+01 3.105895e+01 5.750243e+01 4.071472e+01 4.721114e+01 4.233469e+01 3.644109e+01 3.291196e+01 3.943187e+01 3.107437e+01 1.518583e+01 1.131994e+00 2.859065e+00 4.113534e+00 3.767543e+00 4.818396e+00 4.651364e+00 5.224160e+00 4.144787e+00 4.305943e+00 3.510252e+00 4.628855e+00 3.092654e+00 2.269822e+00 1.901901e-01 4.063506e-01 5.962625e-01 5.315269e-01 1.027460e+00 6.410214e-01 7.195784e-01 8.385869e-01 7.959131e-01 6.438124e-01 8.115782e-01 4.919940e-01 2.094773e-01
<GCONST> 1.247677e+02
<STATE> 3
<MEAN> 39
 5.669463e-01 3.111333e-03 7.751766e+00 -1.681481e+00 -6.970685e+00 -5.962934e+00 -1.471697e+01 -1.322073e+00 -6.565542e+00 7.650167e-01 5.188837e+00 -9.816129e+00 6.387716e+01 -7.515221e-01 -1.643908e+00 1.287011e+00 -2.205116e+00 -1.851984e+00 -1.471542e+00 -1.544500e+00 9.192848e-01 1.340232e+00 3.068307e-01 2.077441e+00 -1.139449e+00 2.515389e+00 1.758882e-01 -2.605247e-02 -1.924872e-01 7.482499e-02 -4.367322e-01 4.794791e-01 5.075731e-01 2.393764e-01 1.893174e-01 5.357303e-04 -3.797155e-01 1.932016e-02 -9.382183e-02
<VARIANCE> 39
 1.131034e+01 3.101069e+01 4.668803e+01 3.347480e+01 5.902390e+01 6.595000e+01 7.127997e+01 4.836179e+01 5.596470e+01 5.198215e+01 8.732276e+01 4.547405e+01 1.936999e+01 1.428873e+00 2.486289e+00 5.513894e+00 3.226068e+00 6.693410e+00 4.089639e+00 4.658084e+00 6.972268e+00 5.781182e+00 4.923779e+00 5.747668e+00 3.484815e+00 1.464595e+00 1.375653e-01 3.350337e-01 5.981063e-01 4.904773e-01 1.245388e+00 1.012289e+00 1.067534e+00 8.745784e-01 8.849885e-01 6.654708e-01 1.471367e+00 6.461549e-01 2.438466e-01
<GCONST> 1.320619e+02
<STATE> 4
<MEAN> 39
 -1.831776e-01 -2.751212e+00 8.269673e+00 -5.559503e+00 -1.086292e+01 -6.365210e+00 -1.464673e+01 1.839933e+00 -3.057059e+00 1.982586e+00 5.657728e+00 -1.169529e+01 6.753831e+01 -4.195985e-01 -1.260962e+00 3.054983e-01 -1.349161e+00 -8.913159e-01 -4.656859e-03 1.763687e-01 1.006369e+00 8.317906e-01 6.680600e-02 -1.261132e-01 -5.345726e-01 1.401652e+00 2.548783e-01 2.243840e-01 -3.310969e-01 6.256537e-01 3.533701e-01 3.604232e-01 3.677513e-01 -1.906514e-01 -4.416462e-01 -1.805065e-01 -5.361496e-01 3.337254e-01 -5.420964e-01
<VARIANCE> 39
 1.342976e+01 4.264774e+01 5.365223e+01 3.310289e+01 6.140823e+01 5.209103e+01 7.675082e+01 6.459546e+01 7.891909e+01 6.832106e+01 8.208839e+01 5.858289e+01 2.480624e+01 9.935911e-01 1.527087e+00 6.022262e+00 2.696487e+00 4.134922e+00 3.906907e+00 3.876635e+00 5.559190e+00 4.830067e+00 3.635188e+00 6.785756e+00 2.875747e+00 9.988033e-01 1.809956e-01 2.801347e-01 5.370833e-01 4.049996e-01 1.107911e+00 6.503206e-01 9.597340e-01 8.028812e-01 7.482556e-01 6.771548e-01 1.190091e+00 6.089501e-01 1.903177e-01
<GCONST> 1.295069e+02
<TRANSP> 5
 0.000000e+00 1.000000e+00 0.000000e+00 0.000000e+00 0.000000e+00
 0.000000e+00 6.192154e-01 3.807845e-01 0.000000e+00 0.000000e+00
 0.000000e+00 0.000000e+00 3.920849e-01 6.079151e-01 0.000000e+00
 0.000000e+00 0.000000e+00 0.000000e+00 3.011619e-01 6.988381e-01
 0.000000e+00 0.000000e+00 0.000000e+00 0.000000e+00 0.000000e+00
<ENDHMM>
~h "h"
<BEGINHMM>
<NUMSTATES> 5
<STATE> 2
<MEAN> 39
 -2.518593e-01 -6.152085e+00 1.954715e+00 -4.394292e+00 -2.407645e+00 -2.606356e+00 -3.868572e+00 4.074175e+00 -3.447949e+00 -1.237208e+00 -4.222392e+00 -6.732835e+00 6.670380e+01 -2.424719e-01 1.552448e-01 -1.301483e-01 5.216242e-01 5.159975e-01 1.483131e-01 5.821090e-01 -1.725636e-01 1.302524e-01 -2.044166e-01 -2.991765e-01 3.288936e-01 -4.572384e-01 5.131178e-02 -3.371277e-02 -1.509091e-02 -5.387808e-02 -2.052990e-01 -4.462951e-02 -1.937899e-01 -5.332737e-02 -1.336494e-02 2.728390e-02 1.740584e-01 -5.049534e-02 -2.728907e-02
<VARIANCE> 39
 1.228698e+01 4.072124e+01 4.793141e+01 5.523093e+01 6.843197e+01 8.127953e+01 6.302864e+01 6.560083e+01 7.839293e+01 4.893652e+01 5.678759e+01 3.960039e+01 3.370964e+01 7.484534e-01 1.437111e+00 1.782464e+00 1.762970e+00 2.213521e+00 2.255458e+00 2.147678e+00 2.554422e+00 2.404673e+00 1.690831e+00 1.897110e+00 1.654566e+00 8.512384e-01 9.275994e-02 2.691112e-01 2.461433e-01 3.237435e-01 3.778720e-01 3.855468e-01 4.069044e-01 4.213976e-01 3.855162e-01 3.146519e-01 3.480120e-01 3.270844e-01 1.128899e-01
<GCONST> 1.127529e+02
<STATE> 3
<MEAN> 39
 -1.436515e+00 -5.074155e+00 1.939310e-01 -2.774797e-01 -4.765290e-01 -2.185485e+00 -1.156133e+00 1.039914e+00 -2.070727e+00 -2.191436e+00 -4.602565e+00 -5.076975e+00 6.312063e+01 1.283025e-01 2.880583e-01 -2.064328e-01 3.470896e-01 -2.712195e-01 7.553534e-02 -1.033079e-01 -9.857784e-02 -1.013411e-01 9.763934e-02 1.132903e-01 6.672057e-02 -6.766610e-01 8.154192e-02 2.658158e-02 -9.786189e-03 -6.154207e-02 -1.558851e-01 -2.920586e-03 -1.279525e-01 2.780900e-02 -4.671196e-02 1.046176e-02 6.019193e-02 -4.959062e-02 2.771410e-02
<VARIANCE> 39
 1.766794e+01 2.884364e+01 4.071478e+01 3.032467e+01 4.994270e+01 5.402736e+01 6.818911e+01 5.064357e+01 7.071202e+01 4.505269e+01 4.257656e+01 2.906040e+01 2.702044e+01 5.789149e-01 9.723848e-01 1.389413e+00 1.434298e+00 1.675555e+00 2.156332e+00 1.929180e+00 2.215127e+00 2.063248e+00 1.971591e+00 1.729153e+00 1.622413e+00 7.609009e-01 8.874508e-02 1.687827e-01 2.120299e-01 2.483858e-01 3.224317e-01 3.659816e-01 3.832108e-01 4.065405e-01 4.073557e-01 3.581832e-01 3.460913e-01 3.048023e-01 7.178976e-02
<GCONST> 1.066248e+02
<STATE> 4
<MEAN> 39
 -1.269347e+00 2.253625e+00 -2.147874e+00 4.220584e+00 -3.651575e+00 9.640056e-01 -3.215364e+00 1.603860e+00 -4.039934e+00 -1.456831e+00 -1.855814e+00 -1.509477e+00 5.244705e+01 -7.800731e-03 1.616373e-01 -1.431356e-01 1.106565e-01 -4.123674e-02 8.081445e-02 -2.761216e-02 2.070651e-02 4.180156e-02 -4.818830e-02 9.379735e-02 5.602101e-02 -2.127969e-01 -9.548918e-03 -3.853962e-02 5.648698e-02 -5.715816e-02 -6.270714e-04 -2.050238e-02 -1.840915e-02 -4.447165e-03 3.001668e-03 7.939113e-03 1.833851e-02 -3.921806e-02 8.360412e-02
<VARIANCE> 39
 9.492826e+00 2.409615e+01 2.787948e+01 2.164595e+01 2.987308e+01 3.508118e+01 2.891304e+01 3.152038e+01 3.137466e+01 2.593262e+01 2.424979e+01 2.274140e+01 2.743926e+01 3.680356e-01 8.045501e-01 1.088019e+00 1.161593e+00 1.455172e+00 1.614447e+00 1.763808e+00 2.043203e+00 1.992919e+00 1.810848e+00 1.784205e+00 1.603945e+00 3.986777e-01 6.010903e-02 1.221298e-01 1.822197e-01 2.140788e-01 2.634416e-01 2.866839e-01 3.418837e-01 3.876493e-01 3.889455e-01 3.519375e-01 3.432591e-01 3.007966e-01 6.156717e-02
<GCONST> 9.636727e+01
<TRANSP> 5
 0.000000e+00 1.000000e+00 0.000000e+00 0.000000e+00 0.000000e+00
 0.000000e+00 5.772462e-01 4.227538e-01 0.000000e+00 0.000000e+00
 0.000000e+00 0.000000e+00 7.012168e-01 2.987832e-01 0.000000e+00
 0.000000e+00 0.000000e+00 0.000000e+00 8.556502e-01 1.443498e-01
 0.000000e+00 0.000000e+00 0.000000e+00 0.000000e+00 0.000000e+00
<ENDHMM>
~h "i"
<BEGINHMM>
<NUMSTATES> 5
<STATE> 2
<MEAN> 39
 -1.824962e+00 -9.479960e-01 1.660242e+01 -1.199939e+00 -1.502689e+01 -8.448446e+00 -1.116907e+01 -1.123381e+00 -1.032446e+01 -3.515089e+00 6.185349e+00 -6.642823e+00 6.517591e+01 -1.207035e-01 -5.080966e-01 2.602085e+00 -1.022552e+00 -2.279511e+00 -4.001652e-01 -1.488014e+00 5.221125e-01 -1.104032e+00 -4.198267e-01 1.980386e+00 -6.128426e-01 1.194916e+00 2.262402e-02 2.982737e-01 -9.107135e-01 1.469926e-01 6.339352e-01 4.896748e-01 3.704868e-01 3.857259e-02 3.551636e-01 2.721391e-01 -5.160269e-01 2.424864e-02 -4.390200e-01
<VARIANCE> 39
 1.185907e+01 3.203921e+01 4.808403e+01 4.183337e+01 4.659541e+01 5.428368e+01 5.794308e+01 6.045031e+01 5.592893e+01 5.617513e+01 4.697187e+01 3.252455e+01 1.631313e+01 2.245058e+00 2.072326e+00 4.803977e+00 3.787846e+00 4.134388e+00 4.142639e+00 5.066844e+00 5.064621e+00 5.300373e+00 4.556076e+00 3.901051e+00 2.908877e+00 1.436388e+00 3.237604e-01 3.449139e-01 9.280956e-01 6.602138e-01 8.783585e-01 7.280921e-01 8.471317e-01 8.520250e-01 8.085025e-01 6.762621e-01 7.479042e-01 5.279255e-01 2.837271e-01
<GCONST> 1.296488e+02
<STATE> 3
<MEAN> 39
 -2.882249e+00 -1.280872e+00 2.004031e+01 -3.431496e+00 -1.856584e+01 -7.677597e+00 -1.349840e+01 4.153461e-01 -1.142264e+01 -4.169268e+00 9.491076e+00 -8.766923e+00 6.680951e+01 2.015815e-01 1.825760e-01 -6.640090e-01 1.610333e-01 4.723060e-01 1.211796e-01 2.955831e-01 1.833443e-01 1.484790e-01 3.822488e-01 -4.859695e-01 7.217275e-02 -3.259174e-01 1.503942e-01 1.798277e-01 -7.858190e-01 3.792123e-01 6.763440e-01 1.838099e-01 4.348908e-01 -1.400492e-01 2.470300e-01 1.319264e-01 -6.327896e-01 1.676991e-01 -4.351135e-01
<VARIANCE> 39
 8.037408e+00 3.021351e+01 3.579763e+01 3.850928e+01 3.750111e+01 5.326266e+01 5.706644e+01 6.843076e+01 5.975486e+01 6.378618e+01 4.412315e+01 3.477408e+01 1.099938e+01 8.070300e-01 1.607702e+00 2.755298e+00 2.338882e+00 2.542370e+00 2.878756e+00 2.823735e+00 3.343872e+00 2.723981e+00 2.221940e+00 2.359061e+00 2.005246e+00 1.062464e+00 1.556358e-01 2.478391e-01 5.550784e-01 4.084154e-01 5.569881e-01 5.811903e-01 6.262791e-01 6.972260e-01 6.330572e-01 5.362424e-01 5.536867e-01 4.146224e-01 1.824442e-01
<GCONST> 1.170728e+02
<STATE> 4
<MEAN> 39
 -8.865821e-01 2.311277e+00 1.239339e+01 -2.435348e-01 -1.142559e+01 -4.044856e+00 -9.172319e+00 -1.609672e+00 -1.038505e+01 -7.244946e-01 2.291829e+00 -5.294111e+00 5.979243e+01 2.766231e-01 4.679683e-01 -1.499076e+00 7.599738e-01 9.498763e-01 6.822533e-01 7.636049e-01 -1.485386e-01 3.494524e-01 1.815075e-01 -8.952879e-01 2.945768e-01 -1.064356e+00 -9.479401e-02 -5.634550e-02 2.041662e-03 -6.156762e-02 -3.840572e-02 3.413649e-02 6.368043e-03 -4.739965e-02 5.919282e-02 -4.967077e-02 5.254804e-02 -2.799042e-02 7.889482e-02
<VARIANCE> 39
 1.006033e+01 2.884756e+01 5.018813e+01 4.376690e+01 4.081254e+01 5.627701e+01 4.381550e+01 5.311540e+01 4.988237e+01 4.706946e+01 4.045321e+01 3.286829e+01 3.072390e+01 7.854849e-01 1.350209e+00 2.364537e+00 2.073575e+00 2.594069e+00 2.710094e+00 2.840553e+00 2.953739e+00 2.994363e+00 2.540590e+00 2.638006e+00 2.089757e+00 1.164340e+00 1.120672e-01 1.962738e-01 3.846621e-01 3.456183e-01 4.425384e-01 5.059667e-01 4.704979e-01 4.883106e-01 4.751864e-01 4.107481e-01 3.929048e-01 3.398992e-01 1.525701e-01
<GCONST> 1.141982e+02
<TRANSP> 5
 0.000000e+00 1.000000e+00 0.000000e+00 0.000000e+00 0.000000e+00
 0.000000e+00 4.734436e-01 5.265564e-01 0.000000e+00 0.000000e+00
 0.000000e+00 0.000000e+00 6.716658e-01 3.283342e-01 0.000000e+00
 0.000000e+00 0.000000e+00 0.000000e+00 7.134448e-01 2.865552e-01
 0.000000e+00 0.000000e+00 0.000000e+00 0.000000e+00 0.000000e+00
<ENDHMM>
~h "j"
<BEGINHMM>
<NUMSTATES> 5
<STATE> 2
<MEAN> 39
 1.488353e+00 5.983757e+00 5.748965e+00 4.221765e+00 -4.125084e+00 -1.840973e+00 -6.073184e+00 7.433332e-01 -4.571425e+00 -2.360204e+00 -2.699650e+00 -3.920570e+00 5.681013e+01 -1.360961e+00 4.141656e-01 8.349769e-01 -8.874979e-01 8.480626e-01 -8.759431e-01 1.334342e-01 -6.973130e-01 -3.768830e-04 -4.087033e-01 4.047964e-01 4.879449e-01 6.352342e-01 -4.033832e-01 -5.156550e-01 7.745240e-01 -5.726652e-01 -5.407387e-01 -7.728112e-01 -6.843807e-01 -5.705344e-02 -2.053471e-01 -7.375535e-02 5.475450e-01 1.665121e-01 8.537715e-01
<VARIANCE> 39
 1.666165e+01 2.660082e+01 3.284174e+01 2.733144e+01 4.310533e+01 3.501279e+01 3.442845e+01 4.092791e+01 2.922406e+01 2.534605e+01 2.809187e+01 2.423069e+01 1.679333e+01 2.397112e+00 1.969093e+00 4.151791e+00 3.327134e+00 3.547474e+00 5.045021e+00 3.365280e+00 3.480935e+00 2.678406e+00 2.835276e+00 2.548284e+00 2.147611e+00 2.358753e+00 4.448998e-01 3.494534e-01 4.195253e-01 5.174342e-01 9.208895e-01 6.642513e-01 6.531514e-01 6.508835e-01 5.691527e-01 6.201203e-01 4.797918e-01 4.287795e-01 1.984906e-01
<GCONST> 1.202256e+02
<STATE> 3
<MEAN> 39
 -5.390978e+00 5.486246e+00 1.340713e+01 -9.427120e-01 -5.056319e+00 -8.223517e+00 -8.069263e+00 -3.177335e+00 -6.264245e+00 -4.949901e+00 1.110410e+00 -9.843538e-01 6.308133e+01 -2.502232e-01 -1.747906e+00 2.648430e+00 -8.829232e-01 -2.849249e+00 -2.238069e+00 -2.720850e+00 4.075910e-01 -8.037437e-01 -1.168314e-01 1.937437e+00 3.880606e-01 2.348419e+00 8.871427e-01 -5.842291e-01 -6.439614e-01 2.269182e-01 -5.465414e-01 3.777884e-01 -5.303501e-01 7.562829e-01 1.017634e-01 5.224151e-01 7.029928e-02 -4.529526e-01 -9.673673e-02
<VARIANCE> 39
 1.698574e+01 3.220052e+01 4.936226e+01 2.846939e+01 5.171906e+01 4.790887e+01 5.348841e+01 4.074380e+01 3.195530e+01 3.254915e+01 2.837952e+01 2.431161e+01 1.392967e+01 2.867327e+00 2.635907e+00 3.141271e+00 3.701687e+00 4.026469e+00 3.909728e+00 3.923208e+00 4.991714e+00 3.520183e+00 3.783068e+00 3.105006e+00 2.707451e+00 1.287349e+00 3.442488e-01 4.962518e-01 7.351456e-01 6.142384e-01 1.181412e+00 9.579566e-01 8.535669e-01 7.493489e-01 7.128172e-01 6.397383e-01 6.840329e-01 5.793330e-01 2.123677e-01
<GCONST> 1.258814e+02
<STATE> 4
<MEAN> 39
 -1.587194e+00 -2.718571e+00 1.573377e+01 -2.688575e+00 -1.372318e+01 -1.221258e+01 -1.703979e+01 4.364125e+00 -6.451993e+00 -2.294215e+00 5.613878e+00 -2.468116e+00 6.811602e+01 8.962979e-01 -1.721848e+00 -1.090103e+00 -7.787897e-01 -6.959799e-01 -1.923750e-02 -1.305532e+00 1.654747e+00 6.425229e-01 1.185157e+00 4.172508e-01 -1.248892e+00 9.807191e-01 1.227011e-01 5.305679e-01 -9.525021e-01 1.285340e-01 1.073129e+00 8.649109e-01 8.796288e-01 -2.940014e-01 1.656466e-01 9.351157e-02 -6.667891e-01 -3.116987e-01 -6.755045e-01
<VARIANCE> 39
 6.089906e+00 2.389878e+01 3.632718e+01 3.705811e+01 3.066481e+01 2.873941e+01 5.904368e+01 6.407627e+01 4.810777e+01 6.742940e+01 3.759950e+01 2.931443e+01 1.561323e+01 8.443396e-01 2.103418e+00 3.469801e+00 2.084993e+00 4.628812e+00 3.243045e+00 5.537628e+00 4.202943e+00 3.916368e+00 3.319252e+00 4.473109e+00 2.975668e+00 1.152007e+00 2.210160e-01 2.415954e-01 6.312338e-01 5.663266e-01 5.518644e-01 6.036522e-01 6.706597e-01 7.696450e-01 6.850515e-01 6.765764e-01 6.521485e-01 5.150068e-01 1.616794e-01
<GCONST> 1.210232e+02
<TRANSP> 5
 0.000000e+00 1.000000e+00 0.000000e+00 0.000000e+00 0.000000e+00
 0.000000e+00 6.713197e-01 3.286803e-01 0.000000e+00 0.000000e+00
 0.000000e+00 0.000000e+00 5.423943e-01 4.576057e-01 0.000000e+00
 0.000000e+00 0.000000e+00 0.000000e+00 6.001965e-01 3.998034e-01
 0.000000e+00 0.000000e+00 0.000000e+00 0.000000e+00 0.000000e+00
<ENDHMM>
~h "k"
<BEGINHMM>
<NUMSTATES> 5
<STATE> 2
<MEAN> 39
 3.955860e-01 2.399383e+00 -3.281410e+00 1.974819e+00 -4.911297e+00 1.135270e+00 -4.725454e+00 -4.528629e-02 -4.746791e+00 -2.458196e-01 -1.187933e+00 -3.691243e+00 5.367205e+01 -5.437658e-01 -3.757901e-01 -7.576805e-01 -2.329416e-01 1.118844e+00 -4.256610e-01 -1.386691e-01 1.549102e-02 3.453348e-01 1.391316e-01 -1.227032e-01 8.772338e-02 3.113532e-01 -4.009063e-02 -4.085107e-01 2.012748e-01 -5.421518e-01 2.026656e-01 -3.294499e-01 -2.516332e-01 -4.593622e-02 -2.623960e-02 1.858220e-01 1.185026e-01 -2.050524e-01 7.641866e-01
<VARIANCE> 39
 9.314846e+00 2.131050e+01 3.050086e+01 2.864237e+01 3.294474e+01 3.956696e+01 3.032377e+01 3.334645e+01 3.146232e+01 2.646450e+01 2.662628e+01 2.697838e+01 1.712901e+01 1.195808e+00 2.728852e+00 2.660653e+00 3.086717e+00 4.360852e+00 3.977811e+00 3.412500e+00 3.760080e+00 3.585146e+00 3.011803e+00 2.651304e+00 2.566283e+00 2.281110e+00 2.141715e-01 3.488710e-01 4.395620e-01 5.037743e-01 6.830746e-01 6.448334e-01 5.580446e-01 6.206907e-01 6.341957e-01 5.411194e-01 4.713404e-01 4.850555e-01 2.749060e-01
<GCONST> 1.179716e+02
<STATE> 3
<MEAN> 39
 -2.786984e+00 -2.065319e+00 -5.474253e+00 -1.063938e+00 2.258970e+00 -2.688639e+00 -6.320610e+00 -8.478594e-01 -3.165053e+00 1.897774e+00 -1.201155e+00 -4.437721e+00 5.935630e+01 2.074168e-02 -8.461334e-01 4.220980e-01 -1.619790e+00 2.590240e-01 -1.034899e+00 -5.808218e-01 -3.877615e-02 -4.752761e-02 4.443141e-01 2.674394e-01 -6.822638e-01 1.975737e+00 5.809026e-01 9.383764e-03 7.016121e-01 -3.420623e-01 -1.166919e+00 2.379573e-01 -1.156033e-01 1.861721e-01 -3.247383e-01 -1.183151e-01 2.516940e-01 -3.211735e-01 2.577271e-01
<VARIANCE> 39
 2.251287e+01 3.212932e+01 5.169211e+01 4.252200e+01 5.675498e+01 7.001522e+01 6.340349e+01 6.263973e+01 4.725180e+01 4.061668e+01 4.089922e+01 3.428385e+01 2.395392e+01 2.355643e+00 3.539609e+00 4.417164e+00 4.567140e+00 6.116203e+00 4.961758e+00 4.454033e+00 4.959023e+00 5.049913e+00 3.569940e+00 3.267818e+00 3.609538e+00 3.014259e+00 3.975756e-01 6.483952e-01 6.853594e-01 7.579632e-01 1.097476e+00 9.615477e-01 1.160609e+00 1.273543e+00 1.111865e+00 8.919399e-01 8.249489e-01 7.784195e-01 3.744175e-01
<GCONST> 1.356087e+02
<STATE> 4
<MEAN> 39
 5.292426e-01 -1.063791e+00 -2.518195e+00 -4.331464e+00 -3.185116e+00 -3.101915e+00 -6.852611e+00 -2.040157e-01 -5.250354e+00 1.544467e+00 -1.333619e-01 -6.449550e+00 6.131570e+01 1.170553e+00 -7.767758e-01 1.554028e+00 -1.876651e+00 -2.119817e+00 -4.041093e-02 -8.688505e-01 3.395654e-01 -5.894353e-01 -4.233858e-02 8.080690e-01 -1.069474e+00 1.983665e+00 1.067310e-01 -6.781523e-02 1.738610e-01 2.185623e-01 -3.713926e-01 3.843044e-01 -4.541204e-02 5.689959e-02 3.059899e-02 -1.581744e-01 7.949129e-02 5.212385e-03 -1.312756e-01
<VARIANCE> 39
 2.165843e+01 3.575271e+01 5.194088e+01 5.551627e+01 4.498042e+01 6.449183e+01 4.827083e+01 4.163542e+01 4.757559e+01 3.848773e+01 3.820337e+01 3.566080e+01 3.167161e+01 2.529211e+00 3.868124e+00 4.599598e+00 5.370872e+00 6.375076e+00 5.019291e+00 6.215076e+00 6.856511e+00 6.564446e+00 4.818730e+00 4.897087e+00 4.915779e+00 2.327337e+00 3.175656e-01 4.727206e-01 5.393342e-01 6.743288e-01 7.904282e-01 7.947682e-01 7.693893e-01 7.733429e-01 7.900415e-01 7.193395e-01 6.022456e-01 5.426970e-01 4.412702e-01
<GCONST> 1.338518e+02
<TRANSP> 5
 0.000000e+00 1.000000e+00 0.000000e+00 0.000000e+00 0.000000e+00
 0.000000e+00 6.097269e-01 3.902731e-01 0.000000e+00 0.000000e+00
 0.000000e+00 0.000000e+00 4.243987e-01 5.756013e-01 0.000000e+00
 0.000000e+00 0.000000e+00 0.000000e+00 1.820947e-01 8.179053e-01
 0.000000e+00 0.000000e+00 0.000000e+00 0.000000e+00 0.000000e+00
<ENDHMM>
~h "l"
<BEGINHMM>
<NUMSTATES> 5
<STATE> 2
<MEAN> 39
 2.842511e+00 -3.813793e+00 3.887356e+00 -6.662516e+00 -6.950577e+00 -2.619181e+00 -1.564549e+01 -5.782457e+00 -1.173856e+00 4.994566e+00 2.990737e+00 -1.034303e+01 6.616701e+01 1.250972e-01 -8.823667e-02 6.175794e-02 -3.753419e-01 -2.835215e-02 3.268116e-01 -7.305310e-01 -3.791671e-01 2.327260e-01 6.673903e-01 2.868656e-01 -5.851492e-01 8.381443e-02 -1.295319e-01 -1.612848e-01 -9.689867e-02 -1.128981e-01 -5.074506e-02 1.478305e-01 3.747249e-01 5.576027e-01 3.281708e-02 -4.217744e-01 -1.308341e-01 1.713277e-02 1.008753e-01
<VARIANCE> 39
 9.871376e+00 3.788503e+01 7.174641e+01 5.924242e+01 5.313696e+01 6.123227e+01 8.930515e+01 1.002904e+02 8.839709e+01 5.041475e+01 5.401596e+01 5.829419e+01 1.961706e+01 4.477382e-01 1.483012e+00 2.165604e+00 2.906606e+00 2.366821e+00 3.500391e+00 3.699086e+00 4.393976e+00 3.420155e+00 3.135506e+00 2.953116e+00 2.403251e+00 9.423105e-01 9.570573e-02 2.745722e-01 3.068255e-01 4.974060e-01 4.828424e-01 6.002539e-01 7.824944e-01 7.614481e-01 6.354407e-01 5.525014e-01 6.949756e-01 4.751066e-01 1.221083e-01
<GCONST> 1.216501e+02
<STATE> 3
<MEAN> 39
 2.623122e+00 -5.551395e+00 3.787552e+00 -8.916786e+00 -7.680542e+00 -1.556215e+00 -1.624879e+01 -3.269109e+00 1.291361e-01 6.144421e+00 3.415204e+00 -1.306252e+01 6.740234e+01 -1.681568e-01 -6.403183e-01 -2.779659e-01 -5.198626e-01 -6.091164e-03 4.865848e-01 5.375555e-01 1.158084e+00 4.382899e-01 -6.339083e-01 -6.248210e-01 -3.229079e-01 4.444506e-01 -9.372537e-02 -9.107874e-02 -8.047938e-02 1.250984e-01 6.820141e-02 4.196073e-02 4.452881e-01 3.734833e-01 -1.439012e-01 -5.216640e-01 -2.756648e-01 2.675123e-01 2.341896e-02
<VARIANCE> 39
 8.468423e+00 3.574194e+01 6.653413e+01 5.759554e+01 5.107648e+01 5.157722e+01 8.425390e+01 7.495788e+01 9.049048e+01 4.636267e+01 5.135800e+01 6.373118e+01 1.877857e+01 4.489380e-01 1.662740e+00 2.314072e+00 2.294661e+00 2.040298e+00 3.115917e+00 3.560310e+00 3.804302e+00 3.475873e+00 2.913020e+00 3.645923e+00 2.232691e+00 8.728960e-01 6.583408e-02 2.416617e-01 2.593170e-01 4.179197e-01 3.535154e-01 5.199515e-01 5.468153e-01 5.831622e-01 5.542136e-01 4.769466e-01 6.076808e-01 3.946626e-01 1.145165e-01
<GCONST> 1.176196e+02
<STATE> 4
<MEAN> 39
 2.083355e+00 -6.836251e+00 1.999945e+00 -8.730731e+00 -7.269378e+00 -6.294951e-02 -1.306676e+01 -5.991335e-01 1.468020e+00 2.000031e+00 1.083358e+00 -1.270303e+01 6.822343e+01 -1.435812e-01 -2.198682e-01 -1.019900e-01 2.337586e-01 1.974316e-01 4.387399e-01 9.448742e-01 8.510848e-01 -6.065201e-01 -1.039044e+00 -5.156040e-01 3.268740e-01 7.328127e-03 6.044304e-03 2.672649e-01 1.471333e-01 2.609076e-01 1.028007e-02 -1.252341e-01 5.900993e-02 -2.438856e-01 -4.340497e-01 2.397352e-02 1.421139e-01 2.434582e-01 -2.183652e-01
<VARIANCE> 39
 1.016499e+01 3.713670e+01 6.103973e+01 6.461121e+01 4.590755e+01 6.204843e+01 7.280721e+01 7.813776e+01 1.001120e+02 5.888135e+01 5.289618e+01 6.033098e+01 2.207314e+01 5.446612e-01 1.941806e+00 2.243269e+00 2.626017e+00 2.335027e+00 3.867756e+00 3.511009e+00 4.292331e+00 4.131141e+00 3.109068e+00 4.209869e+00 2.225782e+00 1.247395e+00 8.496358e-02 2.342190e-01 3.950657e-01 4.103310e-01 4.082824e-01 5.620875e-01 5.516482e-01 7.211049e-01 6.887335e-01 5.051470e-01 5.762238e-01 3.964752e-01 1.524465e-01
<GCONST> 1.215468e+02
<TRANSP> 5
 0.000000e+00 1.000000e+00 0.000000e+00 0.000000e+00 0.000000e+00
 0.000000e+00 4.230489e-01 5.769511e-01 0.000000e+00 0.000000e+00
 0.000000e+00 0.000000e+00 3.780713e-01 6.219287e-01 0.000000e+00
 0.000000e+00 0.000000e+00 0.000000e+00 3.831371e-01 6.168628e-01
 0.000000e+00 0.000000e+00 0.000000e+00 0.000000e+00 0.000000e+00
<ENDHMM>
~h "m"
<BEGINHMM>
<NUMSTATES> 5
<STATE> 2
<MEAN> 39
 4.605872e+00 -1.849694e+00 4.194213e+00 5.006055e-01 -8.469430e+00 6.147361e+00 -5.865350e+00 -6.919112e+00 -1.204076e+01 9.690448e-01 -1.351263e-03 -9.061326e+00 6.197652e+01 -2.381631e-02 3.356827e-01 1.034674e+00 1.144508e+00 -6.380329e-02 9.855307e-01 5.717066e-01 -1.341641e+00 -1.531240e+00 -5.173403e-01 -8.229650e-01 -1.873409e-01 -4.374220e-01 -8.960354e-02 -2.595652e-01 -2.000464e-01 -4.589424e-01 5.427627e-02 -3.311588e-01 -2.991199e-01 5.018055e-01 5.834539e-01 -1.792373e-02 8.364456e-02 -4.195314e-02 2.863745e-01
<VARIANCE> 39
 6.851472e+00 2.755720e+01 3.004842e+01 3.557633e+01 4.543325e+01 4.206947e+01 4.461876e+01 3.648129e+01 4.398455e+01 3.142130e+01 4.266963e+01 3.959299e+01 1.715435e+01 4.814742e-01 1.259245e+00 2.053461e+00 1.921011e+00 2.209878e+00 2.438092e+00 2.488117e+00 2.541240e+00 4.159281e+00 2.316022e+00 2.945926e+00 2.126537e+00 9.204538e-01 8.940277e-02 1.514266e-01 2.832435e-01 2.872485e-01 3.762656e-01 3.742824e-01 4.212248e-01 4.110199e-01 5.319462e-01 4.310305e-01 5.281935e-01 3.639868e-01 8.666234e-02
<GCONST> 1.086737e+02
<STATE> 3
<MEAN> 39
 4.051213e+00 -2.247602e+00 6.944886e+00 5.160474e-01 -9.445260e+00 7.731098e+00 -6.149148e+00 -8.375162e+00 -1.426669e+01 -1.026482e+00 -6.959302e-01 -9.991120e+00 6.247225e+01 1.632636e-01 -1.432925e-01 -3.567019e-01 -4.665424e-01 -2.986713e-01 -2.469146e-01 -2.289650e-01 2.659790e-01 5.947681e-01 1.490821e-01 3.773390e-01 3.665371e-02 1.906164e-01 4.932985e-02 -1.594200e-01 -4.897516e-01 -4.296355e-01 -4.837017e-02 -3.364569e-01 -1.626230e-01 5.626130e-01 7.472555e-01 2.173382e-01 2.225613e-01 -1.020286e-03 1.646857e-01
<VARIANCE> 39
 5.473903e+00 2.456440e+01 3.521662e+01 3.064554e+01 4.427514e+01 4.694090e+01 3.759744e+01 3.992859e+01 5.626852e+01 3.191584e+01 4.572604e+01 4.096309e+01 1.499892e+01 3.518305e-01 1.028866e+00 1.595517e+00 1.684237e+00 1.541618e+00 2.035181e+00 1.780899e+00 1.891795e+00 2.895698e+00 1.800676e+00 2.143383e+00 1.819410e+00 6.984968e-01 7.025652e-02 1.708542e-01 2.693680e-01 2.906706e-01 3.222289e-01 4.121100e-01 3.477762e-01 4.547327e-01 6.817409e-01 4.150051e-01 4.794823e-01 3.995876e-01 8.119672e-02
<GCONST> 1.049775e+02
<STATE> 4
<MEAN> 39
 5.532651e+00 -2.922468e+00 1.362642e+00 -3.379014e+00 -1.012904e+01 5.735053e+00 -7.117249e+00 -4.551509e+00 -8.090595e+00 1.289567e+00 1.101722e+00 -8.953876e+00 6.353128e+01 5.131361e-02 -8.497332e-01 -1.153916e+00 -1.169855e+00 3.041205e-01 -3.821764e-01 -4.783275e-01 1.617795e+00 1.777635e+00 1.302739e-01 2.108216e-01 -4.255171e-01 6.763693e-01 -2.008677e-01 -9.082228e-02 2.312066e-01 1.386088e-01 2.571539e-01 -9.925053e-02 -1.730706e-02 1.541288e-01 -8.421826e-02 -1.677175e-01 -2.125503e-01 -3.836465e-02 3.500667e-02
<VARIANCE> 39
 7.575469e+00 3.898803e+01 3.735763e+01 4.683147e+01 7.925867e+01 4.636047e+01 4.936507e+01 4.233294e+01 4.331932e+01 3.559607e+01 4.042935e+01 4.645963e+01 2.216722e+01 5.159625e-01 1.968573e+00 2.586295e+00 2.791642e+00 3.463616e+00 3.217042e+00 2.948457e+00 3.185763e+00 5.539370e+00 2.942484e+00 3.175746e+00 3.132190e+00 1.009336e+00 9.408479e-02 1.951099e-01 3.422883e-01 4.645959e-01 5.516185e-01 4.807620e-01 4.531714e-01 5.179392e-01 6.265959e-01 4.336397e-01 5.128090e-01 4.054626e-01 1.172098e-01
<GCONST> 1.167745e+02
<TRANSP> 5
 0.000000e+00 1.000000e+00 0.000000e+00 0.000000e+00 0.000000e+00
 0.000000e+00 4.993435e-01 5.006565e-01 0.000000e+00 0.000000e+00
 0.000000e+00 0.000000e+00 6.156659e-01 3.843341e-01 0.000000e+00
 0.000000e+00 0.000000e+00 0.000000e+00 4.972073e-01 5.027927e-01
 0.000000e+00 0.000000e+00 0.000000e+00 0.000000e+00 0.000000e+00
<ENDHMM>
~h "n"
<BEGINHMM>
<NUMSTATES> 5
<STATE> 2
<MEAN> 39
 3.694681e+00 -3.603132e+00 6.924923e+00 2.984110e+00 -1.043813e+01 -1.373274e+00 -9.184967e+00 -2.960691e+00 -6.012853e+00 3.211746e+00 -4.810667e+00 -1.011014e+01 6.295900e+01 3.528336e-01 1.352612e+00 9.286628e-01 1.298465e+00 -5.657207e-01 9.904178e-01 3.827724e-01 -2.666613e+00 -9.857501e-01 1.027580e+00 -1.157660e+00 6.412490e-01 -1.189817e+00 -1.429745e-01 -2.380332e-01 -2.554576e-01 -4.588985e-01 1.473285e-01 -5.061741e-02 6.484836e-02 5.363868e-01 1.748436e-01 -3.187928e-01 3.071192e-01 -1.958468e-02 2.578423e-01
<VARIANCE> 39
 5.419425e+00 2.820079e+01 3.365983e+01 2.474636e+01 4.405371e+01 3.701454e+01 4.455422e+01 6.013575e+01 5.012688e+01 4.413029e+01 3.858347e+01 4.305056e+01 1.469632e+01 4.429138e-01 1.245939e+00 2.649407e+00 1.731861e+00 2.245660e+00 2.585611e+00 3.250890e+00 4.774185e+00 2.881488e+00 3.435865e+00 3.070364e+00 2.553925e+00 7.099647e-01 7.422830e-02 2.234554e-01 3.181415e-01 2.811685e-01 3.322699e-01 3.654213e-01 4.123252e-01 7.404196e-01 4.326113e-01 4.550956e-01 4.323704e-01 3.515983e-01 1.147333e-01
<GCONST> 1.104834e+02
<STATE> 3
<MEAN> 39
 4.339015e+00 -1.880827e+00 8.073930e+00 4.898284e+00 -1.243780e+01 5.041065e-01 -7.928674e+00 -7.138846e+00 -7.812588e+00 4.591701e+00 -5.731083e+00 -8.990374e+00 6.142213e+01 4.559271e-02 5.145458e-01 -2.421479e-01 2.312979e-01 1.521225e-01 2.992522e-01 3.961624e-01 -2.494697e-01 -1.472075e-01 -2.031097e-01 -1.058772e-01 2.413920e-01 -4.480220e-01 -1.838933e-01 -2.750397e-01 -3.354319e-01 -4.241085e-01 3.088823e-01 -2.642227e-01 -3.414803e-02 8.761271e-01 2.877233e-01 -4.989617e-01 3.922541e-01 -1.171403e-01 2.511837e-01
<VARIANCE> 39
 4.186444e+00 2.200805e+01 2.709162e+01 2.406584e+01 3.762583e+01 3.730994e+01 3.655554e+01 5.291932e+01 5.215340e+01 3.972584e+01 4.059820e+01 3.593503e+01 1.034352e+01 2.838486e-01 1.288554e+00 1.482144e+00 1.316677e+00 1.696345e+00 1.892222e+00 2.025441e+00 3.031614e+00 2.435890e+00 2.319029e+00 2.056917e+00 1.732336e+00 7.296793e-01 9.271317e-02 2.727486e-01 3.922734e-01 3.615708e-01 3.866532e-01 4.045356e-01 4.587990e-01 8.149737e-01 5.043895e-01 5.399257e-01 5.469812e-01 3.800693e-01 1.482135e-01
<GCONST> 1.068338e+02
<STATE> 4
<MEAN> 39
 1.431197e+00 1.920886e+00 1.804099e+00 5.233487e+00 -5.904014e+00 1.306366e+00 -5.259284e+00 -1.676484e+00 -4.514898e+00 8.468697e-02 -5.089892e+00 -5.196865e+00 5.556445e+01 -2.533184e-01 9.785501e-02 -3.798368e-01 -2.468727e-01 3.143519e-01 -2.357686e-02 1.292005e-01 5.588798e-01 1.484967e-01 -4.876021e-01 3.469595e-01 9.298719e-02 -1.917578e-01 -8.191422e-02 -1.623386e-01 2.791574e-02 -2.051141e-01 1.292977e-03 -7.919570e-02 -7.634827e-02 1.718549e-01 4.196890e-02 -3.848712e-02 1.271494e-01 -4.046359e-02 1.649741e-01
<VARIANCE> 39
 1.212464e+01 2.661306e+01 3.632713e+01 2.211695e+01 3.611695e+01 3.119526e+01 3.750451e+01 4.783508e+01 3.585444e+01 3.550201e+01 3.626097e+01 3.528098e+01 3.065799e+01 4.739499e-01 1.479116e+00 1.671375e+00 1.771910e+00 2.017374e+00 1.914052e+00 2.159507e+00 3.734067e+00 2.293408e+00 2.713693e+00 2.441090e+00 1.952520e+00 9.507232e-01 1.125615e-01 2.002397e-01 2.552057e-01 3.290558e-01 3.514186e-01 3.791501e-01 3.995944e-01 6.109746e-01 4.383962e-01 4.661226e-01 4.405685e-01 3.524743e-01 1.105167e-01
<GCONST> 1.085480e+02
<TRANSP> 5
 0.000000e+00 1.000000e+00 0.000000e+00 0.000000e+00 0.000000e+00
 0.000000e+00 3.348098e-01 6.651903e-01 0.000000e+00 0.000000e+00
 0.000000e+00 0.000000e+00 5.808625e-01 4.191374e-01 0.000000e+00
 0.000000e+00 0.000000e+00 0.000000e+00 7.289723e-01 2.710277e-01
 0.000000e+00 0.000000e+00 0.000000e+00 0.000000e+00 0.000000e+00
<ENDHMM>
~h "o"
<BEGINHMM>
<NUMSTATES> 5
<STATE> 2
<MEAN> 39
 3.929621e+00 -2.057634e+00 -3.597496e+00 -1.194633e+01 -7.378141e+00 4.300326e+00 -7.986322e+00 -2.008026e+00 -3.936098e+00 2.368869e+00 3.186197e+00 -6.231750e+00 6.479700e+01 8.454407e-01 -8.068640e-01 -9.405670e-02 -1.790695e+00 -6.373091e-01 1.091008e+00 -4.721214e-01 1.844015e-02 -2.696878e-01 5.557821e-01 7.040635e-01 -5.415957e-01 1.195066e+00 -2.818190e-01 2.415458e-01 1.975344e-01 7.409307e-01 2.153395e-01 -1.895804e-01 1.848198e-01 4.017881e-02 -7.037884e-02 -1.271248e-01 -2.832050e-01 1.018943e-01 -4.553716e-01
<VARIANCE> 39
 1.172795e+01 3.344916e+01 2.834698e+01 8.265144e+01 5.157756e+01 6.749851e+01 6.618011e+01 4.900273e+01 6.282396e+01 4.689112e+01 4.153673e+01 4.105679e+01 3.529877e+01 1.944307e+00 2.515997e+00 2.635340e+00 7.570276e+00 4.272427e+00 5.277905e+00 4.632418e+00 4.551627e+00 4.253423e+00 4.092628e+00 3.372645e+00 2.671427e+00 3.025655e+00 3.235621e-01 3.959822e-01 4.577343e-01 1.109492e+00 7.100751e-01 8.807532e-01 9.225463e-01 7.653934e-01 7.339011e-01 7.312302e-01 6.274008e-01 5.460169e-01 4.214002e-01
<GCONST> 1.314413e+02
<STATE> 3
<MEAN> 39
 4.993237e+00 -4.899256e+00 -3.156707e+00 -1.267482e+01 -9.523248e+00 6.574984e+00 -8.966905e+00 -2.013860e+00 -4.059663e+00 2.902518e+00 5.347056e+00 -9.355217e+00 6.684810e+01 -1.483893e-03 3.230007e-01 4.706356e-03 9.867308e-01 3.518197e-01 -2.863246e-01 2.519164e-01 -7.996451e-02 -1.015488e-01 -1.185674e-02 -5.083022e-01 7.456082e-02 -5.354491e-01 -1.476676e-01 2.635790e-01 8.610436e-02 5.703766e-01 1.653443e-01 -2.803071e-01 9.797777e-02 -1.118132e-01 6.198158e-02 -1.073286e-01 -2.977958e-01 1.442043e-01 -3.289219e-01
<VARIANCE> 39
 6.866657e+00 2.832009e+01 2.276095e+01 6.464353e+01 4.720950e+01 6.120863e+01 5.378376e+01 6.613404e+01 6.743795e+01 5.340259e+01 4.816089e+01 4.585376e+01 1.511929e+01 5.006239e-01 1.580272e+00 1.342237e+00 3.442016e+00 2.243917e+00 2.849830e+00 2.852003e+00 2.521649e+00 2.754092e+00 2.672714e+00 2.724114e+00 2.134536e+00 1.205459e+00 1.110146e-01 2.168935e-01 2.829393e-01 4.678172e-01 4.790471e-01 5.692108e-01 5.266716e-01 5.868232e-01 5.568578e-01 5.267715e-01 5.057372e-01 4.155954e-01 1.488724e-01
<GCONST> 1.151467e+02
<STATE> 4
<MEAN> 39
 1.837282e+00 3.459971e+00 -3.916041e+00 -1.229177e+00 -5.186422e+00 3.735702e+00 -4.380389e+00 1.251553e-01 -4.505918e+00 6.935379e-01 -6.022440e-01 -3.042148e+00 5.465665e+01 -2.155379e-01 3.256068e-01 5.155428e-02 8.261641e-01 1.606101e-01 -1.475383e-01 2.009550e-01 -6.599054e-02 1.017046e-01 -1.459271e-01 -2.503251e-01 1.795621e-01 -5.639691e-01 -1.935445e-02 -4.996450e-02 4.536411e-02 -6.484399e-02 -2.672332e-02 9.598184e-03 -1.543735e-02 -6.840656e-03 -2.356789e-02 1.543177e-03 2.370360e-02 -1.116667e-02 6.377753e-02
<VARIANCE> 39
 1.721303e+01 2.909275e+01 1.988438e+01 8.000790e+01 3.057526e+01 3.246242e+01 4.254060e+01 3.396405e+01 4.077942e+01 3.365933e+01 2.854114e+01 3.202836e+01 4.513260e+01 3.652261e-01 8.547025e-01 1.109386e+00 2.312217e+00 1.676593e+00 1.887744e+00 1.958555e+00 2.155643e+00 2.156060e+00 2.243261e+00 2.053530e+00 1.581127e+00 6.539459e-01 6.740919e-02 1.418896e-01 1.622105e-01 2.719826e-01 2.906914e-01 3.331363e-01 3.645554e-01 3.860859e-01 4.006919e-01 4.231685e-01 3.351605e-01 2.952996e-01 6.302503e-02
<GCONST> 1.030752e+02
<TRANSP> 5
 0.000000e+00 1.000000e+00 0.000000e+00 0.000000e+00 0.000000e+00
 0.000000e+00 6.015595e-01 3.984405e-01 0.000000e+00 0.000000e+00
 0.000000e+00 0.000000e+00 7.291237e-01 2.708763e-01 0.000000e+00
 0.000000e+00 0.000000e+00 0.000000e+00 8.191921e-01 1.808079e-01
 0.000000e+00 0.000000e+00 0.000000e+00 0.000000e+00 0.000000e+00
<ENDHMM>
~h "p"
<BEGINHMM>
<NUMSTATES> 5
<STATE> 2
<MEAN> 39
 1.551348e-01 3.897392e+00 -3.879205e+00 3.457322e+00 -3.793645e+00 2.910175e+00 -4.433887e+00 5.253148e-01 -3.657132e+00 -9.861193e-01 -1.978462e+00 -3.476710e+00 5.164469e+01 -2.575963e-01 1.144423e-01 -1.196267e-01 1.575409e-01 1.346593e-01 -1.650100e-01 2.000934e-01 3.182451e-02 2.312566e-01 -6.203142e-02 2.208949e-02 2.346973e-01 -2.382288e-01 2.656054e-02 -2.881123e-01 1.582112e-01 -2.874610e-01 -1.547287e-02 -1.361271e-01 -1.472934e-01 -1.097623e-01 2.881493e-02 5.559004e-02 1.185177e-01 -7.223804e-02 4.313828e-01
<VARIANCE> 39
 1.102819e+01 1.508362e+01 1.930224e+01 1.842473e+01 2.230148e+01 3.118580e+01 2.486198e+01 2.562774e+01 2.666189e+01 2.156446e+01 2.016238e+01 2.311338e+01 1.304235e+01 5.686939e-01 9.512711e-01 1.001864e+00 1.378535e+00 1.521592e+00 1.888197e+00 1.747107e+00 2.064018e+00 1.946267e+00 1.771851e+00 1.707898e+00 1.594311e+00 7.173386e-01 1.065770e-01 2.371809e-01 2.912926e-01 3.890955e-01 3.360633e-01 4.383720e-01 4.101532e-01 4.459760e-01 4.356475e-01 4.103265e-01 4.070878e-01 3.540613e-01 2.593059e-01
<GCONST> 1.002099e+02
<STATE> 3
<MEAN> 39
 -3.594518e-01 1.901755e+00 -2.836975e+00 1.585835e+00 -2.930998e+00 -3.502274e-01 -4.369195e+00 -1.412435e+00 -3.081654e+00 -7.356794e-01 -1.852399e+00 -3.344196e+00 5.502127e+01 3.380077e-01 -1.650937e+00 6.248430e-01 -1.789014e+00 -4.042665e-01 -9.816278e-01 -9.649099e-01 -6.904024e-01 2.434176e-01 2.734971e-01 8.697445e-01 -2.645951e-01 2.424228e+00 3.815752e-01 -5.390791e-01 3.175262e-01 -6.559529e-01 -5.364242e-01 9.097430e-02 -5.934647e-01 1.026049e-01 -2.059167e-01 1.863874e-01 3.813089e-01 -4.761085e-01 8.151363e-01
<VARIANCE> 39
 1.531063e+01 2.196487e+01 2.425690e+01 2.516390e+01 2.816343e+01 4.277604e+01 2.505067e+01 3.045707e+01 3.165515e+01 2.110570e+01 2.051436e+01 2.498892e+01 1.654906e+01 2.288980e+00 3.139889e+00 4.940455e+00 5.396649e+00 4.365151e+00 5.962906e+00 4.869998e+00 4.077839e+00 4.677910e+00 3.772640e+00 3.455979e+00 3.742017e+00 2.349600e+00 2.582002e-01 5.193405e-01 7.595555e-01 7.425839e-01 7.211607e-01 9.280463e-01 6.469380e-01 8.575156e-01 8.164804e-01 6.451355e-01 6.444951e-01 5.666909e-01 3.228619e-01
<GCONST> 1.246274e+02
<STATE> 4
<MEAN> 39
 2.542079e+00 -3.074512e+00 -2.577060e+00 -5.426932e+00 -5.361740e+00 -4.698885e-01 -8.007895e+00 -2.786906e+00 -3.298587e+00 8.464451e-01 1.623867e+00 -5.578270e+00 6.237831e+01 8.467969e-01 -2.226469e+00 8.100280e-01 -2.267325e+00 -1.090565e+00 -1.570492e-01 -1.558681e+00 1.475863e-01 -1.111995e-01 6.144269e-01 1.110014e+00 -1.368710e+00 3.010052e+00 -9.744076e-02 2.424866e-01 2.509701e-01 4.952538e-01 -8.130720e-02 7.702693e-02 -2.390678e-02 3.947352e-01 -1.037149e-01 -6.123432e-02 -2.608066e-01 -1.454845e-01 -3.421707e-01
<VARIANCE> 39
 2.131351e+01 3.392947e+01 3.438691e+01 6.420648e+01 3.427565e+01 8.103639e+01 4.582297e+01 3.594194e+01 5.044674e+01 3.464433e+01 3.170327e+01 3.147291e+01 2.744104e+01 1.977609e+00 4.163486e+00 7.354224e+00 6.620210e+00 5.665357e+00 7.771625e+00 5.561836e+00 5.878526e+00 6.185041e+00 4.826065e+00 5.365222e+00 5.000395e+00 2.861767e+00 3.646769e-01 4.865597e-01 5.216023e-01 1.112003e+00 6.916152e-01 9.783092e-01 7.612305e-01 8.141767e-01 8.266495e-01 6.401597e-01 7.834463e-01 6.364731e-01 4.528463e-01
<GCONST> 1.347157e+02
<TRANSP> 5
 0.000000e+00 1.000000e+00 0.000000e+00 0.000000e+00 0.000000e+00
 0.000000e+00 7.843379e-01 2.156621e-01 0.000000e+00 0.000000e+00
 0.000000e+00 0.000000e+00 4.364607e-01 5.635393e-01 0.000000e+00
 0.000000e+00 0.000000e+00 0.000000e+00 2.751803e-01 7.248197e-01
 0.000000e+00 0.000000e+00 0.000000e+00 0.000000e+00 0.000000e+00
<ENDHMM>
~h "r"
<BEGINHMM>
<NUMSTATES> 5
<STATE> 2
<MEAN> 39
 3.232656e+00 -4.226131e+00 -1.164789e+00 3.259305e+00 -6.106412e+00 -4.254209e+00 -1.053371e+01 -1.503618e+00 9.428630e-01 1.300387e+00 -2.396966e-01 -7.156246e+00 6.252818e+01 1.819293e-01 3.234065e-01 -5.361065e-02 1.156956e+00 1.320680e-01 -3.749722e-01 -2.611172e-02 -2.849100e-01 -3.381852e-02 -4.075561e-01 -4.177486e-01 7.078109e-01 -7.268331e-01 -9.011967e-02 -1.425539e-01 1.341566e-01 -5.956811e-01 -1.817404e-01 9.004089e-02 1.008764e-01 2.518949e-01 -3.146951e-01 1.175870e-02 2.265847e-01 -2.285418e-01 3.438437e-01
<VARIANCE> 39
 1.256844e+01 2.490504e+01 3.811576e+01 3.588697e+01 3.637370e+01 4.689111e+01 5.965852e+01 6.139078e+01 5.031390e+01 4.208849e+01 4.179274e+01 4.903179e+01 2.258682e+01 1.167249e+00 1.664390e+00 2.172955e+00 2.257002e+00 3.149502e+00 3.320216e+00 3.408590e+00 3.964833e+00 3.503150e+00 3.336776e+00 3.795993e+00 3.154550e+00 1.448122e+00 1.856549e-01 3.526939e-01 3.892738e-01 5.331757e-01 6.729279e-01 5.906949e-01 6.521499e-01 7.431088e-01 6.919091e-01 6.891985e-01 7.142709e-01 5.946943e-01 3.499501e-01
<GCONST> 1.226176e+02
<STATE> 3
<MEAN> 39
 3.405679e+00 -4.113163e+00 -1.310560e+00 4.055496e+00 -6.407387e+00 -5.126427e+00 -1.023216e+01 -1.658543e+00 2.525257e-01 3.901206e-01 -3.298191e-01 -5.922554e+00 6.217199e+01 3.704733e-02 -1.932197e-01 2.428388e-01 -1.281196e-01 -4.899489e-01 -1.495388e-01 2.651730e-01 4.091209e-01 -5.490761e-01 -3.544463e-01 1.562105e-01 -1.026402e-01 2.052895e-01 -1.443131e-01 -2.012445e-01 2.327333e-01 -7.274577e-01 -1.876902e-01 2.325628e-01 9.434420e-02 3.287781e-01 -3.209722e-01 1.197817e-01 2.965988e-01 -4.387320e-01 4.416278e-01
<VARIANCE> 39
 1.587723e+01 2.663799e+01 4.518639e+01 3.439404e+01 3.554214e+01 5.098061e+01 6.616292e+01 6.105079e+01 5.189038e+01 4.074035e+01 3.935575e+01 4.071255e+01 2.129138e+01 1.248040e+00 2.489507e+00 2.671832e+00 2.173587e+00 3.598450e+00 3.711945e+00 3.586853e+00 4.439600e+00 3.771518e+00 3.241381e+00 3.431494e+00 3.131759e+00 1.813559e+00 2.170966e-01 3.964511e-01 4.659260e-01 4.864888e-01 8.181977e-01 6.664562e-01 7.393229e-01 8.260419e-01 7.337325e-01 7.329454e-01 8.106287e-01 6.175350e-01 3.461509e-01
<GCONST> 1.252894e+02
<STATE> 4
<MEAN> 39
 2.544970e+00 -3.991659e+00 -8.187396e-01 2.750570e+00 -6.954923e+00 -4.038367e+00 -8.309619e+00 -1.115995e+00 -4.532973e-01 1.003272e-01 -2.860519e-01 -6.577047e+00 6.267311e+01 -1.791957e-01 -1.011460e-01 4.756619e-01 -7.223911e-01 -3.592116e-01 3.408647e-01 2.324436e-01 5.246187e-01 -6.909005e-01 -1.205810e-01 3.308398e-01 -4.766200e-01 3.620930e-01 -7.436822e-02 -2.587775e-03 1.004994e-01 -2.533386e-01 4.600517e-02 1.459900e-01 -4.534601e-02 5.021166e-02 -1.238245e-01 1.106353e-01 9.235644e-02 -1.327179e-01 9.451618e-02
<VARIANCE> 39
 2.396870e+01 3.889038e+01 5.092682e+01 4.006319e+01 4.613352e+01 6.076495e+01 6.981457e+01 6.930863e+01 5.625801e+01 4.420277e+01 4.630063e+01 4.624876e+01 3.053647e+01 1.454503e+00 3.225286e+00 3.366764e+00 2.679611e+00 4.388798e+00 4.116261e+00 3.792570e+00 4.929656e+00 4.048839e+00 3.542420e+00 3.710162e+00 3.268025e+00 2.474280e+00 2.607381e-01 2.871531e-01 4.238895e-01 4.470626e-01 5.805827e-01 6.083292e-01 6.782099e-01 6.545860e-01 6.379440e-01 6.046631e-01 6.634400e-01 5.048198e-01 2.413393e-01
<GCONST> 1.275213e+02
<TRANSP> 5
 0.000000e+00 1.000000e+00 0.000000e+00 0.000000e+00 0.000000e+00
 0.000000e+00 2.834622e-01 7.165378e-01 0.000000e+00 0.000000e+00
 0.000000e+00 0.000000e+00 1.292995e-01 8.707005e-01 0.000000e+00
 0.000000e+00 0.000000e+00 0.000000e+00 3.786973e-01 6.213027e-01
 0.000000e+00 0.000000e+00 0.000000e+00 0.000000e+00 0.000000e+00
<ENDHMM>
~h "s"
<BEGINHMM>
<NUMSTATES> 5
<STATE> 2
<MEAN> 39
 -7.691821e+00 5.473148e+00 1.928241e+00 -1.185424e+00 2.174046e+00 -7.952120e+00 -1.711455e+00 -5.380620e-01 -1.483009e+00 -1.955673e+00 -1.492783e+00 -3.445014e+00 6.303033e+01 -3.481890e+00 2.413269e+00 -8.717456e-01 -6.770911e-01 1.939504e+00 -1.001740e+00 1.343976e+00 -2.622981e-01 5.346252e-01 -1.080516e+00 2.565496e-01 4.490269e-01 2.159762e-02 1.042657e-01 -4.413437e-01 -3.588925e-02 -1.528226e-01 -5.499334e-01 2.458649e-01 -5.347687e-01 1.305066e-01 -1.962476e-01 1.745231e-02 1.091517e-01 -2.831079e-01 1.296594e-01
<VARIANCE> 39
 3.902898e+01 3.414493e+01 4.161460e+01 2.625395e+01 4.290799e+01 5.598266e+01 5.056643e+01 4.859289e+01 4.603495e+01 3.394405e+01 3.210102e+01 2.975326e+01 1.975205e+01 1.642871e+00 2.422237e+00 2.965922e+00 2.573770e+00 3.515075e+00 3.510993e+00 4.558452e+00 4.016844e+00 3.552846e+00 3.305544e+00 2.629762e+00 2.656346e+00 9.371631e-01 7.891185e-01 5.286372e-01 3.958374e-01 4.911491e-01 5.771451e-01 5.861230e-01 6.869986e-01 6.294223e-01 5.616388e-01 6.015481e-01 4.631530e-01 4.920509e-01 1.098700e-01
<GCONST> 1.226281e+02
<STATE> 3
<MEAN> 39
 -1.626440e+01 8.359215e+00 2.010624e-01 -2.593519e+00 3.576064e+00 -8.827904e+00 -1.935377e+00 -1.415539e-01 -9.222465e-01 -4.925404e+00 -4.812936e-01 -2.784065e+00 6.303078e+01 3.420595e-01 -5.861119e-01 1.820909e-01 1.208683e-01 -2.944835e-01 8.417968e-02 -2.744949e-01 7.377762e-02 1.126826e-02 3.272939e-02 -6.238476e-02 1.809746e-05 -2.188139e-01 9.786549e-01 -5.101775e-01 2.420357e-01 1.326585e-01 -4.343707e-01 9.854165e-02 -2.895724e-01 -6.821808e-02 -7.426712e-02 2.552728e-01 -4.043997e-02 -1.008194e-01 -2.991794e-03
<VARIANCE> 39
 1.358693e+01 2.818489e+01 2.738980e+01 2.864428e+01 3.376226e+01 3.669839e+01 3.838244e+01 3.300686e+01 3.161938e+01 2.478645e+01 2.485248e+01 2.284594e+01 1.018602e+01 3.282972e+00 1.710471e+00 1.912491e+00 1.511428e+00 1.984411e+00 2.265082e+00 2.387961e+00 2.257968e+00 2.205045e+00 2.051889e+00 1.844036e+00 1.720631e+00 6.098836e-01 4.097233e-01 3.943973e-01 3.665555e-01 3.632387e-01 4.509733e-01 5.089366e-01 5.724978e-01 5.501751e-01 5.156457e-01 4.895386e-01 4.052227e-01 3.892327e-01 1.300020e-01
<GCONST> 1.102982e+02
<STATE> 4
<MEAN> 39
 -6.222417e+00 3.337358e+00 5.524705e-01 -1.146052e+00 5.587050e-01 -7.199232e+00 -4.102945e+00 -5.239856e-01 -9.173902e-01 -2.198597e+00 -2.099813e+00 -3.671271e+00 6.080235e+01 3.154579e+00 -1.817672e+00 3.055801e-01 -6.125427e-02 -1.924536e+00 6.039614e-01 -1.440457e+00 -3.356113e-01 -2.987134e-01 8.984834e-01 5.807061e-02 -7.147764e-01 5.609758e-01 -1.834607e-01 -2.258304e-02 6.832191e-02 -1.999274e-01 -1.596058e-01 2.266940e-01 -4.286582e-02 3.443249e-02 -1.273020e-01 -4.610718e-02 2.511941e-01 -1.486829e-01 2.445462e-01
<VARIANCE> 39
 2.943950e+01 2.954752e+01 3.724787e+01 2.584933e+01 3.750361e+01 4.969828e+01 4.551258e+01 3.147049e+01 3.589720e+01 3.036672e+01 2.545855e+01 2.431896e+01 3.878156e+01 3.002412e+00 3.780163e+00 4.293974e+00 3.033121e+00 3.806829e+00 3.711831e+00 4.463986e+00 4.534045e+00 4.419331e+00 3.406023e+00 2.912877e+00 2.974685e+00 2.482298e+00 5.164686e-01 3.685812e-01 3.382936e-01 3.399724e-01 4.371633e-01 4.965813e-01 6.012940e-01 5.843337e-01 5.305403e-01 4.741585e-01 4.104460e-01 4.242474e-01 2.232749e-01
<GCONST> 1.226027e+02
<TRANSP> 5
 0.000000e+00 1.000000e+00 0.000000e+00 0.000000e+00 0.000000e+00
 0.000000e+00 6.599685e-01 3.400315e-01 0.000000e+00 0.000000e+00
 0.000000e+00 0.000000e+00 7.990068e-01 2.009932e-01 0.000000e+00
 0.000000e+00 0.000000e+00 0.000000e+00 5.490704e-01 4.509296e-01
 0.000000e+00 0.000000e+00 0.000000e+00 0.000000e+00 0.000000e+00
<ENDHMM>
~h "t"
<BEGINHMM>
<NUMSTATES> 5
<STATE> 2
<MEAN> 39
 6.300420e-01 3.110425e+00 -2.185560e+00 2.877502e+00 -5.726938e+00 -1.076555e-01 -5.924994e+00 5.750141e-01 -3.934017e+00 2.873856e-01 -1.821026e+00 -4.348524e+00 5.320213e+01 -3.719385e-01 2.725120e-01 -4.558372e-01 1.141481e-01 2.893397e-01 1.587549e-01 4.828647e-01 -1.708585e-02 2.275200e-01 -2.650537e-01 -4.819743e-02 4.523956e-01 -5.410306e-01 -2.609240e-01 -3.221750e-01 2.874390e-01 -4.623945e-01 2.483770e-01 -4.897928e-01 -7.663570e-02 -1.081278e-01 2.516086e-01 -2.321382e-02 1.114343e-01 -9.745893e-02 6.908777e-01
<VARIANCE> 39
 8.385746e+00 1.677097e+01 3.154296e+01 1.878486e+01 2.716610e+01 3.262957e+01 2.931304e+01 3.170985e+01 3.655124e+01 2.448459e+01 2.913720e+01 2.888372e+01 1.394563e+01 6.978066e-01 7.742616e-01 1.331395e+00 1.455264e+00 2.040639e+00 2.477141e+00 2.310670e+00 2.302989e+00 2.305532e+00 2.196591e+00 1.780154e+00 1.752244e+00 1.010615e+00 1.536403e-01 2.133862e-01 3.015275e-01 3.738019e-01 4.231028e-01 5.452396e-01 4.873061e-01 5.131128e-01 5.575772e-01 4.698704e-01 4.087905e-01 4.014227e-01 2.965016e-01
<GCONST> 1.060892e+02
<STATE> 3
<MEAN> 39
 -1.368573e+00 3.103833e+00 -1.763213e+00 1.821574e+00 -3.006079e+00 -2.139895e+00 -4.494443e+00 -5.878297e-01 -3.373468e+00 -7.329461e-01 -1.881930e+00 -3.176708e+00 5.433880e+01 -1.462446e+00 -9.828824e-01 5.126306e-01 -1.685990e+00 1.502877e+00 -1.946602e+00 1.776189e-01 -6.108568e-01 1.443873e+00 -4.047684e-01 2.049201e-01 -1.042244e-01 2.143411e+00 2.882429e-01 -5.221099e-01 4.027222e-01 -6.136457e-01 -3.263217e-01 -1.669729e-01 -7.664468e-01 -4.403628e-02 7.466876e-02 2.480425e-01 2.316298e-01 -5.687143e-01 9.763663e-01
<VARIANCE> 39
 1.547619e+01 1.847032e+01 2.849628e+01 2.389446e+01 3.386011e+01 4.919424e+01 3.538952e+01 3.520299e+01 3.796437e+01 2.675418e+01 2.837294e+01 2.629257e+01 1.960271e+01 1.731631e+00 2.295946e+00 3.346375e+00 3.253172e+00 3.774543e+00 4.328039e+00 4.514132e+00 4.264081e+00 4.770706e+00 3.710033e+00 3.282911e+00 3.060587e+00 2.072867e+00 3.197890e-01 3.467998e-01 5.742041e-01 4.795101e-01 6.567457e-01 9.011461e-01 7.126938e-01 9.424967e-01 8.958943e-01 6.504136e-01 6.067566e-01 5.437714e-01 2.850179e-01
<GCONST> 1.230283e+02
<STATE> 4
<MEAN> 39
 -5.356329e+00 4.861776e-01 -3.293711e-02 -2.303910e+00 9.863472e-02 -6.448199e+00 -4.293957e+00 -2.209467e+00 4.604259e-01 -1.508370e+00 -1.078306e+00 -4.146474e+00 6.027147e+01 4.963465e-01 -1.340235e+00 8.208380e-01 -1.848234e+00 -3.819557e-01 -6.565588e-01 -1.777491e+00 -3.524250e-01 5.615922e-01 4.001052e-01 6.486930e-01 -1.264901e+00 2.637101e+00 7.718850e-01 -7.901145e-02 4.507884e-02 7.666381e-02 -7.683977e-01 7.408819e-01 -5.718100e-01 1.762330e-01 -5.422414e-01 2.815385e-01 1.663421e-01 -2.696606e-01 -7.756905e-02
<VARIANCE> 39
 2.392321e+01 2.501128e+01 2.787478e+01 3.083731e+01 3.035725e+01 5.362249e+01 4.720255e+01 3.891833e+01 4.073128e+01 3.288297e+01 2.627072e+01 2.677124e+01 2.579762e+01 2.684974e+00 3.650712e+00 5.267265e+00 4.510385e+00 3.972970e+00 5.493198e+00 5.804632e+00 6.153034e+00 6.280937e+00 4.003156e+00 4.297250e+00 4.075591e+00 3.663145e+00 4.428532e-01 4.690597e-01 5.349615e-01 5.595867e-01 7.091219e-01 1.032243e+00 9.210316e-01 8.767589e-01 8.295815e-01 7.721736e-01 6.563827e-01 5.858874e-01 3.877429e-01
<GCONST> 1.305880e+02
<TRANSP> 5
 0.000000e+00 1.000000e+00 0.000000e+00 0.000000e+00 0.000000e+00
 0.000000e+00 6.514599e-01 3.485401e-01 0.000000e+00 0.000000e+00
 0.000000e+00 0.000000e+00 3.373157e-01 6.626843e-01 0.000000e+00
 0.000000e+00 0.000000e+00 0.000000e+00 4.100204e-01 5.899796e-01
 0.000000e+00 0.000000e+00 0.000000e+00 0.000000e+00 0.000000e+00
<ENDHMM>
~h "u"
<BEGINHMM>
<NUMSTATES> 5
<STATE> 2
<MEAN> 39
 3.930393e+00 6.322404e-01 2.283091e+00 -7.403831e+00 -8.499714e+00 6.242253e-01 -1.668244e+01 -6.861254e+00 -6.307088e+00 1.611274e+00 5.146937e+00 -7.010680e+00 6.417353e+01 7.490320e-01 -2.050897e-01 3.691467e-01 -8.262831e-01 -8.913780e-01 1.111248e+00 -1.341620e+00 -7.107922e-01 -5.906934e-01 5.504984e-01 1.193904e+00 -3.581466e-01 5.751760e-01 -2.984371e-01 1.610096e-01 -1.312530e-01 6.351412e-01 3.048138e-01 7.980156e-02 8.879850e-01 3.546765e-01 5.556767e-02 -2.537455e-01 -5.281347e-01 2.455112e-01 -5.446573e-01
<VARIANCE> 39
 1.234154e+01 2.837474e+01 3.713393e+01 6.884905e+01 6.304777e+01 6.414868e+01 7.862417e+01 5.955288e+01 6.591574e+01 5.418608e+01 5.900193e+01 4.582801e+01 1.630214e+01 2.081425e+00 2.580480e+00 3.190478e+00 5.731500e+00 4.952515e+00 5.740719e+00 6.364558e+00 5.163104e+00 5.875528e+00 4.653103e+00 4.739675e+00 3.801140e+00 1.823677e+00 2.866761e-01 4.495873e-01 4.381949e-01 9.140180e-01 8.704565e-01 9.890959e-01 1.113715e+00 1.037053e+00 1.017330e+00 8.681353e-01 8.942912e-01 7.705023e-01 3.026485e-01
<GCONST> 1.345794e+02
<STATE> 3
<MEAN> 39
 4.514657e+00 4.645899e-01 2.588416e+00 -8.139454e+00 -1.018830e+01 4.089118e+00 -1.700760e+01 -7.468958e+00 -7.457563e+00 1.167001e+00 7.242113e+00 -7.295135e+00 6.398452e+01 -6.040875e-03 3.886717e-01 -1.411411e-01 7.143959e-01 3.480887e-01 1.673138e-01 9.532452e-01 3.501579e-01 -1.195382e-01 -2.442903e-01 -8.172724e-01 4.011126e-01 -6.765306e-01 -2.320144e-01 1.348522e-01 -7.127491e-02 5.019614e-01 3.154775e-01 -3.451945e-01 5.359834e-01 2.569679e-01 2.334644e-01 -1.770493e-01 -5.678211e-01 9.192410e-02 -2.975123e-01
<VARIANCE> 39
 8.588039e+00 2.767762e+01 3.618244e+01 7.447935e+01 5.212394e+01 6.257348e+01 6.199865e+01 5.909631e+01 6.072952e+01 5.632623e+01 6.261734e+01 4.906515e+01 1.394002e+01 7.201083e-01 2.059735e+00 1.757176e+00 4.243517e+00 2.879375e+00 3.497028e+00 3.581080e+00 3.287529e+00 3.957441e+00 3.253787e+00 3.241576e+00 2.993306e+00 1.521135e+00 1.955203e-01 3.160780e-01 3.464788e-01 6.000798e-01 5.691922e-01 6.883233e-01 7.386822e-01 7.224168e-01 7.425840e-01 6.884052e-01 6.695242e-01 6.145886e-01 1.612391e-01
<GCONST> 1.232686e+02
<STATE> 4
<MEAN> 39
 3.035591e+00 5.101517e+00 -6.719894e-01 -1.934836e+00 -6.713376e+00 2.578104e+00 -9.115390e+00 -3.258220e+00 -6.874638e+00 -7.852148e-01 7.629358e-01 -2.658485e+00 5.604536e+01 -2.503424e-01 2.012348e-01 -1.067099e-01 7.940515e-01 3.176134e-01 -6.912966e-02 6.617369e-01 2.583024e-01 2.249041e-01 -1.123329e-01 -5.203543e-01 1.636571e-01 -5.755143e-01 -7.134679e-02 -8.359131e-02 2.862212e-02 -6.323255e-02 1.530325e-02 -2.911093e-02 -5.472409e-02 -1.311787e-02 3.168276e-02 1.988846e-02 6.155312e-02 -6.579672e-02 9.271789e-02
<VARIANCE> 39
 1.703483e+01 2.713689e+01 2.405081e+01 6.892668e+01 4.257887e+01 4.248353e+01 5.020173e+01 4.259665e+01 3.917887e+01 3.785707e+01 4.068639e+01 3.383226e+01 3.599313e+01 5.886989e-01 1.157488e+00 1.222783e+00 2.089385e+00 2.040981e+00 2.340992e+00 2.490058e+00 2.416149e+00 2.334324e+00 2.319431e+00 2.376141e+00 2.058169e+00 8.027797e-01 1.039530e-01 1.794886e-01 1.916976e-01 3.394490e-01 3.448023e-01 4.002519e-01 4.205719e-01 4.184237e-01 4.141020e-01 4.227252e-01 3.846102e-01 3.536230e-01 9.968920e-02
<GCONST> 1.090020e+02
<TRANSP> 5
 0.000000e+00 1.000000e+00 0.000000e+00 0.000000e+00 0.000000e+00
 0.000000e+00 4.222313e-01 5.777687e-01 0.000000e+00 0.000000e+00
 0.000000e+00 0.000000e+00 5.078821e-01 4.921179e-01 0.000000e+00
 0.000000e+00 0.000000e+00 0.000000e+00 7.744508e-01 2.255491e-01
 0.000000e+00 0.000000e+00 0.000000e+00 0.000000e+00 0.000000e+00
<ENDHMM>
~h "v"
<BEGINHMM>
<NUMSTATES> 5
<STATE> 2
<MEAN> 39
 7.903662e-04 -6.079456e-01 1.670089e+00 -6.705837e-01 -5.929818e+00 -8.820225e-01 -6.906881e+00 5.931143e-01 -4.574426e+00 -3.940755e-01 -3.854154e-01 -5.847453e+00 5.993814e+01 5.024984e-04 -6.478592e-05 9.522401e-04 -6.048587e-04 -1.305029e-03 -9.148303e-04 -9.999124e-04 -6.995694e-04 3.150678e-04 8.832195e-04 -1.229102e-04 -1.829845e-05 4.304752e-04 -1.024714e-04 5.090495e-05 -4.314321e-05 5.499199e-04 2.475645e-04 2.544455e-04 -3.161734e-04 -1.009587e-04 -7.179174e-05 -5.594532e-04 -1.336834e-04 -6.698545e-06 -3.952787e-04
<VARIANCE> 39
 2.681136e+01 5.325134e+01 6.824250e+01 5.887592e+01 6.062508e+01 6.608533e+01 5.928268e+01 6.068991e+01 5.916120e+01 4.597362e+01 4.705821e+01 4.804106e+01 6.619385e+01 1.372020e+00 2.288023e+00 2.566274e+00 2.987463e+00 3.078158e+00 3.116328e+00 3.250192e+00 3.738113e+00 3.266875e+00 2.829993e+00 2.967949e+00 2.476121e+00 2.021681e+00 2.264445e-01 3.584008e-01 4.122588e-01 5.086471e-01 5.519696e-01 5.562619e-01 5.942494e-01 6.847889e-01 5.904057e-01 5.307208e-01 5.528100e-01 4.553457e-01 3.018115e-01
<GCONST> 1.265182e+02
<STATE> 3
<MEAN> 39
 7.903662e-04 -6.079456e-01 1.670089e+00 -6.705837e-01 -5.929818e+00 -8.820225e-01 -6.906881e+00 5.931143e-01 -4.574426e+00 -3.940755e-01 -3.854154e-01 -5.847453e+00 5.993814e+01 5.024984e-04 -6.478592e-05 9.522401e-04 -6.048587e-04 -1.305029e-03 -9.148303e-04 -9.999124e-04 -6.995694e-04 3.150678e-04 8.832195e-04 -1.229102e-04 -1.829845e-05 4.304752e-04 -1.024714e-04 5.090495e-05 -4.314321e-05 5.499199e-04 2.475645e-04 2.544455e-04 -3.161734e-04 -1.009587e-04 -7.179174e-05 -5.594532e-04 -1.336834e-04 -6.698545e-06 -3.952787e-04
<VARIANCE> 39
 2.681136e+01 5.325134e+01 6.824250e+01 5.887592e+01 6.062508e+01 6.608533e+01 5.928268e+01 6.068991e+01 5.916120e+01 4.597362e+01 4.705821e+01 4.804106e+01 6.619385e+01 1.372020e+00 2.288023e+00 2.566274e+00 2.987463e+00 3.078158e+00 3.116328e+00 3.250192e+00 3.738113e+00 3.266875e+00 2.829993e+00 2.967949e+00 2.476121e+00 2.021681e+00 2.264445e-01 3.584008e-01 4.122588e-01 5.086471e-01 5.519696e-01 5.562619e-01 5.942494e-01 6.847889e-01 5.904057e-01 5.307208e-01 5.528100e-01 4.553457e-01 3.018115e-01
<GCONST> 1.265182e+02
<STATE> 4
<MEAN> 39
 7.903662e-04 -6.079456e-01 1.670089e+00 -6.705837e-01 -5.929818e+00 -8.820225e-01 -6.906881e+00 5.931143e-01 -4.574426e+00 -3.940755e-01 -3.854154e-01 -5.847453e+00 5.993814e+01 5.024984e-04 -6.478592e-05 9.522401e-04 -6.048587e-04 -1.305029e-03 -9.148303e-04 -9.999124e-04 -6.995694e-04 3.150678e-04 8.832195e-04 -1.229102e-04 -1.829845e-05 4.304752e-04 -1.024714e-04 5.090495e-05 -4.314321e-05 5.499199e-04 2.475645e-04 2.544455e-04 -3.161734e-04 -1.009587e-04 -7.179174e-05 -5.594532e-04 -1.336834e-04 -6.698545e-06 -3.952787e-04
<VARIANCE> 39
 2.681136e+01 5.325134e+01 6.824250e+01 5.887592e+01 6.062508e+01 6.608533e+01 5.928268e+01 6.068991e+01 5.916120e+01 4.597362e+01 4.705821e+01 4.804106e+01 6.619385e+01 1.372020e+00 2.288023e+00 2.566274e+00 2.987463e+00 3.078158e+00 3.116328e+00 3.250192e+00 3.738113e+00 3.266875e+00 2.829993e+00 2.967949e+00 2.476121e+00 2.021681e+00 2.264445e-01 3.584008e-01 4.122588e-01 5.086471e-01 5.519696e-01 5.562619e-01 5.942494e-01 6.847889e-01 5.904057e-01 5.307208e-01 5.528100e-01 4.553457e-01 3.018115e-01
<GCONST> 1.265182e+02
<TRANSP> 5
 0.000000e+00 1.000000e+00 0.000000e+00 0.000000e+00 0.000000e+00
 0.000000e+00 6.000000e-01 4.000000e-01 0.000000e+00 0.000000e+00
 0.000000e+00 0.000000e+00 6.000000e-01 4.000000e-01 0.000000e+00
 0.000000e+00 0.000000e+00 0.000000e+00 7.000000e-01 3.000000e-01
 0.000000e+00 0.000000e+00 0.000000e+00 0.000000e+00 0.000000e+00
<ENDHMM>
~h "w"
<BEGINHMM>
<NUMSTATES> 5
<STATE> 2
<MEAN> 39
 -1.870745e+00 3.105502e+00 -2.776658e+00 4.705094e+00 -3.627134e+00 3.593991e+00 -3.264668e+00 1.469856e+00 -2.861646e+00 -1.137567e+00 -1.660085e+00 -1.330890e+00 5.073736e+01 2.514560e-02 1.069448e-01 -3.662287e-02 -2.193983e-02 -4.313813e-02 4.339680e-02 2.989702e-02 1.842263e-02 -1.040114e-01 3.215291e-02 1.226901e-01 1.068348e-01 -9.626102e-02 2.940130e-02 -1.556908e-02 1.358852e-02 -5.931795e-02 -2.667362e-02 -1.315579e-02 -2.422382e-02 -1.692628e-02 -1.244588e-02 1.354904e-02 1.834181e-02 -2.214491e-02 5.258485e-02
<VARIANCE> 39
 9.770588e+00 3.254016e+01 1.560152e+01 2.667753e+01 1.767382e+01 1.853061e+01 2.322600e+01 2.702105e+01 1.901291e+01 2.417089e+01 2.548058e+01 2.150171e+01 2.948347e+01 2.635962e-01 5.841497e-01 8.046568e-01 9.111344e-01 1.020486e+00 1.211213e+00 1.458330e+00 1.540840e+00 1.764711e+00 1.673243e+00 1.483343e+00 1.380387e+00 2.295548e-01 5.235214e-02 1.119529e-01 1.346948e-01 2.015390e-01 2.014261e-01 2.484352e-01 2.929198e-01 3.066943e-01 3.554110e-01 3.276228e-01 2.798258e-01 2.661615e-01 4.429099e-02
<GCONST> 8.867657e+01
<STATE> 3
<MEAN> 39
 4.894191e+00 1.836511e+00 -2.773453e+00 -6.471962e+00 -9.567285e+00 5.305411e+00 -7.126686e+00 -2.344312e+00 -8.269336e+00 6.743366e-01 4.297255e+00 -4.252863e+00 5.901349e+01 7.543177e-01 -9.332435e-01 -1.919501e-01 -2.488892e+00 -3.440196e-01 9.393617e-01 -8.840939e-01 -2.002978e-01 -9.446557e-02 6.693249e-01 1.241082e+00 -8.567222e-01 1.791676e+00 -1.976138e-01 -4.436006e-01 -4.531626e-02 -2.480644e-02 2.678764e-01 5.430328e-02 -2.291312e-02 1.777005e-01 3.905692e-01 1.568227e-01 -7.854396e-02 -3.775645e-01 2.470116e-01
<VARIANCE> 39
 1.875585e+01 3.567949e+01 2.400978e+01 9.389624e+01 5.679716e+01 4.611823e+01 4.940755e+01 2.914160e+01 3.332931e+01 3.833918e+01 4.625681e+01 4.092185e+01 4.417459e+01 1.626361e+00 3.458067e+00 1.631567e+00 4.833083e+00 3.121101e+00 3.154898e+00 3.778582e+00 2.905544e+00 3.674356e+00 3.008300e+00 3.595051e+00 4.347444e+00 2.440296e+00 3.076977e-01 3.473383e-01 2.731252e-01 1.202797e+00 4.820482e-01 6.324872e-01 5.657954e-01 4.958720e-01 5.708323e-01 5.138161e-01 7.901430e-01 6.228642e-01 3.179317e-01
<GCONST> 1.251636e+02
<STATE> 4
<MEAN> 39
 4.963747e+00 -4.354335e+00 -3.695381e+00 -1.644013e+01 -7.211298e+00 1.092887e+01 -1.279418e+01 -2.057810e+00 -2.873907e+00 4.433690e+00 6.981009e+00 -1.064635e+01 6.656183e+01 -2.322585e-01 -6.536608e-01 -1.406766e-01 -2.133239e-02 5.227276e-01 -1.143282e-01 1.893402e-01 1.907627e-01 4.975435e-01 -9.216627e-02 -3.920502e-01 -6.770357e-01 4.221179e-01 -6.339613e-02 9.208135e-02 4.940462e-02 2.894855e-01 9.372381e-02 -2.339037e-01 1.245374e-01 1.067850e-02 7.461431e-03 -1.533188e-01 -1.907839e-01 5.227692e-02 -1.203765e-01
<VARIANCE> 39
 6.929995e+00 3.248794e+01 1.608182e+01 4.965964e+01 7.560678e+01 6.230647e+01 3.400785e+01 3.054700e+01 3.854993e+01 6.558008e+01 5.775751e+01 6.018584e+01 1.969097e+01 4.890010e-01 2.185035e+00 6.533949e-01 1.624499e+00 1.881136e+00 1.736482e+00 1.491792e+00 2.058064e+00 2.391296e+00 2.094220e+00 2.206634e+00 4.031461e+00 1.272326e+00 6.197193e-02 2.686151e-01 1.258676e-01 3.441072e-01 2.636416e-01 3.085502e-01 2.482404e-01 2.966796e-01 3.187674e-01 3.575664e-01 4.332644e-01 5.820397e-01 1.759750e-01
<GCONST> 1.069790e+02
<TRANSP> 5
 0.000000e+00 1.000000e+00 0.000000e+00 0.000000e+00 0.000000e+00
 0.000000e+00 8.960608e-01 1.039392e-01 0.000000e+00 0.000000e+00
 0.000000e+00 0.000000e+00 7.288857e-01 2.711143e-01 0.000000e+00
 0.000000e+00 0.000000e+00 0.000000e+00 8.291568e-01 1.708432e-01
 0.000000e+00 0.000000e+00 0.000000e+00 0.000000e+00 0.000000e+00
<ENDHMM>
~h "y"
<BEGINHMM>
<NUMSTATES> 5
<STATE> 2
<MEAN> 39
 -2.723184e+00 -2.267710e+00 1.779133e+01 -5.830470e+00 -1.590762e+01 -7.720325e+00 -1.207769e+01 2.397430e+00 -9.239008e+00 -3.193516e+00 6.696836e+00 -6.182986e+00 6.742354e+01 -6.381903e-02 -7.324190e-01 4.968660e-01 -4.159071e-01 -9.262670e-01 -8.209981e-01 -1.145679e-01 9.754370e-01 3.311143e-02 2.006444e-01 7.928905e-01 2.625315e-01 6.915673e-01 1.415765e-01 -1.881975e-01 -6.710418e-01 9.850268e-02 3.447435e-01 9.214614e-02 2.073646e-01 1.933806e-01 3.535344e-01 9.876193e-02 -3.731687e-01 -1.660698e-01 -3.951174e-02
<VARIANCE> 39
 8.724777e+00 4.513242e+01 5.181809e+01 3.241804e+01 4.320724e+01 4.834785e+01 5.532552e+01 6.454710e+01 5.966956e+01 7.032401e+01 4.681788e+01 3.725490e+01 1.970392e+01 6.609290e-01 2.184361e+00 4.422531e+00 1.775765e+00 2.255905e+00 2.937923e+00 2.969638e+00 4.794426e+00 2.988361e+00 2.645369e+00 2.446153e+00 2.309909e+00 1.201526e+00 7.553493e-02 1.976193e-01 4.960460e-01 2.865866e-01 4.936405e-01 5.059776e-01 4.307745e-01 6.612509e-01 4.810925e-01 4.307922e-01 4.665208e-01 3.669418e-01 9.976386e-02
<GCONST> 1.162073e+02
<STATE> 3
<MEAN> 39
 -1.403943e+00 -9.076356e+00 1.109595e+01 -6.851951e+00 -1.618025e+01 -1.058019e+01 -8.218696e+00 1.151328e+01 -3.355801e+00 -3.094600e+00 5.437044e+00 -7.707439e+00 7.066402e+01 3.539225e-01 -7.816642e-01 -1.608800e+00 4.603100e-02 1.136988e+00 4.206352e-01 6.449078e-01 9.962304e-01 9.084451e-01 -2.487282e-01 -1.464680e+00 -8.505958e-01 1.918103e-01 6.022162e-02 2.082315e-01 -1.335810e-01 1.701523e-01 3.571756e-01 3.425605e-01 -9.875513e-02 -5.460624e-01 -1.130373e-01 6.992006e-02 -2.762196e-01 -1.039138e-01 -2.130467e-01
<VARIANCE> 39
 5.310421e+00 1.961019e+01 2.608028e+01 2.332354e+01 3.810413e+01 4.031041e+01 5.478403e+01 5.049448e+01 4.489013e+01 6.031544e+01 4.615578e+01 3.643768e+01 1.257486e+01 2.714293e-01 1.023005e+00 2.283330e+00 1.094471e+00 1.732503e+00 1.714660e+00 1.711361e+00 3.229268e+00 2.537336e+00 1.740795e+00 2.251074e+00 1.658793e+00 4.535088e-01 5.701406e-02 1.491934e-01 3.140346e-01 1.762289e-01 3.128265e-01 3.340483e-01 3.104857e-01 6.073566e-01 3.215286e-01 3.651986e-01 3.975563e-01 3.301427e-01 8.438504e-02
<GCONST> 1.020710e+02
<STATE> 4
<MEAN> 39
 -6.181395e-01 -4.102381e+00 1.628099e+00 -4.311802e-01 -7.179857e+00 -2.327717e+00 -4.630395e+00 5.801905e+00 -2.318414e+00 -2.875193e+00 -2.675056e+00 -6.372115e+00 6.090370e+01 1.163684e-01 9.103017e-02 -5.416126e-01 2.152314e-01 6.178734e-01 4.367650e-01 4.169282e-02 -3.432301e-01 7.351895e-02 2.060723e-01 -4.120307e-01 -8.629347e-02 -3.182391e-01 -1.710745e-03 1.196347e-01 9.514806e-02 3.519448e-02 -4.193663e-02 2.999498e-02 -4.939224e-02 -1.797907e-01 -1.229484e-01 1.023574e-01 1.214270e-01 7.024713e-02 -8.839551e-02
<VARIANCE> 39
 8.989964e+00 5.972737e+01 3.556821e+01 5.130031e+01 3.611398e+01 6.422084e+01 3.444737e+01 5.240298e+01 3.919671e+01 4.590474e+01 3.325941e+01 4.775761e+01 9.915679e+01 3.078078e-01 8.038880e-01 1.640211e+00 1.186030e+00 1.872118e+00 1.665331e+00 1.510774e+00 2.351408e+00 1.903360e+00 1.869577e+00 2.068646e+00 1.600674e+00 4.204955e-01 4.653974e-02 1.876217e-01 2.302661e-01 2.224447e-01 2.428277e-01 3.277638e-01 2.748541e-01 5.839072e-01 3.808846e-01 3.901446e-01 3.248074e-01 2.794819e-01 1.064732e-01
<GCONST> 1.048375e+02
<TRANSP> 5
 0.000000e+00 1.000000e+00 0.000000e+00 0.000000e+00 0.000000e+00
 0.000000e+00 7.332893e-01 2.667107e-01 0.000000e+00 0.000000e+00
 0.000000e+00 0.000000e+00 7.046728e-01 2.953272e-01 0.000000e+00
 0.000000e+00 0.000000e+00 0.000000e+00 7.513869e-01 2.486131e-01
 0.000000e+00 0.000000e+00 0.000000e+00 0.000000e+00 0.000000e+00
<ENDHMM>
~h "z"
<BEGINHMM>
<NUMSTATES> 5
<STATE> 2
<MEAN> 39
 1.398682e+00 1.070408e+01 9.568285e+00 5.592346e+00 -6.886719e+00 -7.769095e+00 -4.395280e+00 -3.241792e+00 -1.033693e+01 -2.386734e+00 -2.792048e-01 -2.170467e+00 5.662572e+01 2.760920e-01 -3.982273e-02 4.296104e-02 -5.799595e-01 1.826042e-01 9.108867e-01 -9.262301e-01 2.456329e-01 -7.293411e-02 -7.688545e-03 3.743999e-01 -5.119178e-01 9.421916e-02 -9.196097e-02 -1.932181e-01 2.413748e-01 -3.918987e-01 -1.401558e-01 2.974991e-01 2.274781e-02 -1.666535e-02 1.506275e-01 1.529455e-01 -6.652344e-03 -7.091661e-02 1.227853e-01
<VARIANCE> 39
 9.312339e+00 2.283801e+01 2.225638e+01 2.124435e+01 1.181877e+01 1.706394e+01 6.534058e+01 3.403971e+01 3.143437e+01 2.554810e+01 1.637626e+01 2.148380e+01 1.480450e+01 1.095663e+00 3.141927e+00 3.827730e+00 3.585871e+00 1.234888e+00 1.683154e+00 3.444342e+00 2.716556e+00 2.269029e+00 2.039119e+00 2.067716e+00 1.785780e+00 1.165038e+00 1.329661e-01 4.195897e-01 3.334263e-01 1.814876e-01 3.945198e-01 1.982477e-01 2.670197e-01 2.734585e-01 4.316060e-01 1.981944e-01 6.017755e-01 2.811831e-01 6.124249e-02
<GCONST> 1.033855e+02
<STATE> 3
<MEAN> 39
 -1.091948e-01 1.885018e+00 1.799454e+01 -1.106308e+01 -7.065476e+00 1.358497e+00 -2.034522e+01 -3.568347e+00 -8.054775e+00 7.666281e+00 -4.563610e-01 -6.212617e+00 6.461434e+01 -5.117141e-02 -1.127638e+00 5.466791e-01 -1.506731e+00 -2.780609e-01 1.558272e+00 -4.718401e-01 -4.153736e-01 4.522860e-01 1.700812e-01 2.989556e-01 5.295162e-02 7.898115e-01 1.733518e-01 5.236908e-02 -6.427834e-01 2.584220e-01 -1.349012e-02 -6.694497e-02 2.862893e-01 3.764591e-01 4.901185e-03 -3.661348e-02 5.768314e-04 1.350266e-02 -1.392295e-01
<VARIANCE> 39
 2.865629e+00 3.991535e+00 8.388599e+01 5.925812e+01 1.924549e+01 9.925043e+01 2.664475e+01 1.522716e+01 5.067913e+01 9.587011e+00 7.366337e+00 2.249589e+01 5.139469e+00 1.166980e+00 1.896131e+00 3.343977e+00 1.880946e+00 1.981438e+00 2.907072e+00 2.951807e+00 1.693269e+00 3.394889e+00 3.124400e+00 2.038208e+00 2.247192e+00 6.346287e-01 5.176163e-02 3.761655e-01 1.296652e-01 3.083976e-01 3.719544e-01 6.359209e-01 5.354041e-01 3.849250e-01 4.169571e-01 5.721175e-01 1.771645e-01 1.652217e-01 7.669565e-02
<GCONST> 1.008297e+02
<STATE> 4
<MEAN> 39
 -1.101912e+00 5.827282e+00 7.738567e+00 -4.214935e+00 -5.571751e+00 9.402911e+00 -8.834025e+00 -1.572579e+00 -5.414630e+00 -3.148803e+00 -6.349576e+00 -6.143025e+00 5.451494e+01 1.858979e-01 3.096623e-01 -4.884970e-01 6.654755e-01 -1.758601e-02 -1.488916e-01 2.849977e-01 -3.171137e-02 3.609531e-02 -2.656152e-01 4.864797e-03 -4.947228e-02 -3.329918e-01 -7.745308e-03 7.278172e-02 -1.395942e-03 7.055414e-02 1.559147e-02 -7.876524e-02 6.454373e-02 -1.908512e-03 9.093666e-03 3.870549e-03 2.918206e-04 2.028088e-03 -4.910864e-02
<VARIANCE> 39
 4.924870e+00 3.174227e+01 6.094417e+01 9.824826e+01 8.189066e+00 4.616990e+01 6.139320e+01 1.394224e+01 1.822455e+01 2.763804e+01 2.093874e+01 2.466402e+01 5.384616e+01 3.484578e-01 1.182077e+00 1.207769e+00 1.071750e+00 6.030211e-01 1.395434e+00 1.417622e+00 1.256516e+00 1.309887e+00 1.194563e+00 1.919962e+00 1.942492e+00 5.023997e-01 4.937425e-02 1.822131e-01 1.782275e-01 1.642715e-01 9.849362e-02 2.180673e-01 3.850002e-01 2.807000e-01 2.164677e-01 2.374999e-01 3.241226e-01 1.992851e-01 5.407651e-02
<GCONST> 9.248802e+01
<TRANSP> 5
 0.000000e+00 1.000000e+00 0.000000e+00 0.000000e+00 0.000000e+00
 0.000000e+00 8.092600e-01 1.907400e-01 0.000000e+00 0.000000e+00
 0.000000e+00 0.000000e+00 7.475774e-01 2.524226e-01 0.000000e+00
 0.000000e+00 0.000000e+00 0.000000e+00 9.043229e-01 9.567702e-02
 0.000000e+00 0.000000e+00 0.000000e+00 0.000000e+00 0.000000e+00
<ENDHMM>
~h "aw"
<BEGINHMM>
<NUMSTATES> 5
<STATE> 2
<MEAN> 39
 2.569114e+00 -3.151713e+00 -1.939829e-01 -1.182650e+01 -6.422371e+00 -3.220892e-02 -1.265258e+01 -3.417732e+00 -1.284575e+00 3.860896e+00 3.399310e+00 -8.373657e+00 6.643047e+01 9.273823e-01 -5.517653e-01 6.387779e-01 -1.562323e+00 -1.552441e+00 1.345110e+00 -1.450050e+00 3.943081e-01 5.265044e-02 7.204704e-01 1.779423e+00 -9.477057e-01 1.498126e+00 -1.907235e-02 2.690696e-01 -4.547039e-02 6.058657e-01 -1.357302e-01 4.126444e-01 4.829721e-01 -7.391095e-02 -1.780815e-01 -1.908096e-01 -2.935022e-01 4.731497e-01 -5.906854e-01
<VARIANCE> 39
 1.241232e+01 3.190400e+01 2.061373e+01 3.711327e+01 6.073743e+01 4.883416e+01 3.688906e+01 2.872142e+01 9.792755e+01 6.984299e+01 1.820743e+01 3.866845e+01 2.773151e+01 2.005943e+00 1.829816e+00 2.053552e+00 3.538282e+00 4.244271e+00 3.893751e+00 6.736795e+00 2.660932e+00 6.028888e+00 3.545602e+00 2.164579e+00 3.894485e+00 2.673562e+00 3.898408e-01 3.531609e-01 4.743856e-01 5.323109e-01 1.004280e+00 9.640756e-01 6.867975e-01 7.774769e-01 7.965185e-01 8.486899e-01 6.476323e-01 5.335655e-01 4.000859e-01
<GCONST> 1.267321e+02
<STATE> 3
<MEAN> 39
 2.774114e+00 -5.165141e+00 1.583026e+00 -1.168305e+01 -9.541698e+00 1.846232e+00 -1.353677e+01 -4.711533e+00 1.156431e+00 3.884365e+00 6.027657e+00 -9.242215e+00 6.913266e+01 4.811568e-01 6.324407e-01 3.618910e-01 1.144315e+00 -3.573883e-01 7.518919e-01 2.470141e-01 -7.422817e-01 -7.713069e-01 -5.958487e-01 -3.898671e-01 1.463378e+00 -7.226123e-01 -9.628973e-02 4.063439e-01 -6.782097e-02 6.975998e-01 4.189059e-01 -1.505579e-01 3.613896e-01 -1.264141e-01 -3.717677e-02 -2.097258e-01 -6.441374e-01 3.163232e-01 -6.080260e-01
<VARIANCE> 39
 8.760124e+00 2.231566e+01 2.149300e+01 3.113160e+01 3.822361e+01 5.242532e+01 7.011395e+01 5.865117e+01 1.121019e+02 4.623860e+01 1.882348e+01 4.788288e+01 1.868063e+01 7.294607e-01 1.486736e+00 1.504332e+00 2.280104e+00 2.735072e+00 3.331683e+00 3.530479e+00 3.571348e+00 2.410301e+00 4.698645e+00 2.508348e+00 2.890148e+00 1.209667e+00 2.306170e-01 2.193193e-01 2.495787e-01 4.977122e-01 4.474286e-01 5.656404e-01 6.156570e-01 6.704515e-01 9.312549e-01 7.548293e-01 5.707273e-01 5.372807e-01 1.430137e-01
<GCONST> 1.175156e+02
<STATE> 4
<MEAN> 39
 4.788695e+00 -4.360382e-01 7.249111e-01 -5.560412e+00 -1.135877e+01 7.704495e+00 -8.401267e+00 -8.557054e+00 -3.707857e+00 3.444166e+00 2.406911e+00 -2.085640e+00 6.148908e+01 -1.411831e-01 7.122208e-01 -2.516638e-01 1.434340e+00 4.396399e-01 -3.005772e-01 4.137889e-01 3.754202e-01 -8.354420e-02 -1.512576e-01 -6.791710e-01 -9.242332e-02 -1.156498e+00 -2.200799e-01 -1.605818e-01 2.509973e-02 -1.123776e-01 1.148370e-01 -4.650441e-01 6.048381e-03 2.454274e-01 1.046992e-02 1.173729e-01 1.224569e-01 -2.939776e-01 2.309490e-01
<VARIANCE> 39
 6.261024e+00 2.129610e+01 2.420012e+01 3.328281e+01 3.617628e+01 4.794200e+01 5.101366e+01 4.279743e+01 5.786463e+01 4.002538e+01 2.823520e+01 2.346945e+01 2.011297e+01 3.695306e-01 1.197898e+00 1.973497e+00 2.198912e+00 2.226621e+00 3.053344e+00 1.820424e+00 3.506247e+00 3.404695e+00 2.607176e+00 2.837380e+00 3.210251e+00 1.024769e+00 1.352201e-01 1.738991e-01 3.285539e-01 2.863694e-01 3.438882e-01 5.950029e-01 4.259620e-01 6.995531e-01 6.109637e-01 4.670037e-01 5.279881e-01 6.686247e-01 1.235882e-01
<GCONST> 1.111968e+02
<TRANSP> 5
 0.000000e+00 1.000000e+00 0.000000e+00 0.000000e+00 0.000000e+00
 0.000000e+00 4.227802e-01 5.772197e-01 0.000000e+00 0.000000e+00
 0.000000e+00 0.000000e+00 6.350644e-01 3.649355e-01 0.000000e+00
 0.000000e+00 0.000000e+00 0.000000e+00 7.422318e-01 2.577682e-01
 0.000000e+00 0.000000e+00 0.000000e+00 0.000000e+00 0.000000e+00
<ENDHMM>
~h "ay"
<BEGINHMM>
<NUMSTATES> 5
<STATE> 2
<MEAN> 39
 5.750875e-01 -1.423545e+01 2.149853e+00 -5.601345e+00 -1.001798e+01 -6.766333e+00 -8.721630e+00 9.742239e+00 2.974560e+00 -4.782087e+00 -1.401872e+00 -1.153201e+01 7.218100e+01 -3.403732e-01 -2.060234e-01 1.379056e+00 2.303983e-01 -1.431313e+00 -1.157086e+00 2.065721e-01 1.482527e+00 -6.241312e-01 -6.481549e-01 7.330873e-01 6.541634e-01 1.579362e-01 -6.083214e-03 5.076785e-01 2.039898e-01 7.622635e-02 -4.978560e-02 1.373765e-01 -1.465388e-02 -4.680257e-01 -4.593394e-01 2.303364e-01 3.292447e-01 2.882806e-01 -3.384532e-01
<VARIANCE> 39
 6.193360e+00 1.887255e+01 4.295603e+01 1.854432e+01 4.366973e+01 5.891896e+01 5.085580e+01 5.683302e+01 5.835114e+01 6.165561e+01 4.449134e+01 3.106079e+01 7.349232e+00 4.013373e-01 1.224451e+00 1.922844e+00 1.256149e+00 2.069492e+00 2.314130e+00 1.844291e+00 2.545789e+00 2.105965e+00 2.054860e+00 3.154330e+00 2.034133e+00 4.280127e-01 1.004364e-01 1.880807e-01 3.005104e-01 2.590865e-01 5.089823e-01 4.394580e-01 3.793258e-01 5.507482e-01 4.599939e-01 3.674241e-01 5.160097e-01 3.714146e-01 1.152129e-01
<GCONST> 1.069378e+02
<STATE> 3
<MEAN> 39
 -1.431169e+00 -8.771723e+00 1.476131e+01 -5.517757e+00 -2.007647e+01 -1.015880e+01 -1.272336e+01 1.100436e+01 -5.380208e+00 -6.121211e+00 8.327727e+00 -6.999322e+00 7.007015e+01 7.062156e-02 9.408095e-01 5.732435e-01 3.490759e-01 -6.347109e-03 3.616048e-01 -3.241910e-01 -8.772954e-01 -8.472738e-01 1.565654e-01 1.414120e-01 5.563503e-02 -6.428153e-01 1.733629e-01 8.744133e-02 -5.362653e-01 2.292655e-01 5.931016e-01 2.665200e-01 1.545629e-01 -2.394170e-01 1.539260e-01 1.641724e-01 -5.232170e-01 -2.529260e-01 -2.422930e-01
<VARIANCE> 39
 3.968427e+00 1.771174e+01 3.628563e+01 2.193947e+01 3.358010e+01 3.496059e+01 5.808545e+01 3.669325e+01 5.731614e+01 5.135397e+01 4.038965e+01 2.753888e+01 7.247246e+00 4.539557e-01 1.160954e+00 2.788880e+00 1.313254e+00 2.344691e+00 1.350893e+00 2.107935e+00 2.416772e+00 2.482026e+00 1.868930e+00 2.943603e+00 2.113231e+00 7.089695e-01 6.620421e-02 1.817706e-01 2.371748e-01 1.980010e-01 2.492684e-01 3.111602e-01 3.882665e-01 6.046829e-01 3.810379e-01 3.470065e-01 3.948263e-01 3.163905e-01 1.028352e-01
<GCONST> 1.029191e+02
<STATE> 4
<MEAN> 39
 1.008501e+00 -4.085416e+00 9.146763e+00 -9.581012e-02 -1.262477e+01 -5.895278e+00 -9.326044e+00 6.171797e+00 -5.808209e+00 -3.797268e+00 2.385212e+00 -7.063542e+00 6.381482e+01 5.700838e-01 8.831182e-01 -1.349536e+00 1.042238e+00 1.259438e+00 1.323714e+00 8.720319e-01 -9.613587e-01 -4.449410e-01 6.495693e-01 -9.867902e-01 -9.734595e-02 -1.449141e+00 -1.193388e-01 -7.352214e-02 -6.240647e-02 -1.575411e-01 -1.013613e-01 1.628560e-02 9.323368e-02 -1.558129e-01 -3.986136e-02 -9.182026e-03 5.949159e-02 1.585976e-01 1.040759e-01
<VARIANCE> 39
 7.802161e+00 1.713201e+01 3.340886e+01 3.131061e+01 3.925251e+01 4.101615e+01 6.212877e+01 3.719875e+01 5.159449e+01 3.831050e+01 3.524150e+01 4.417409e+01 2.006519e+01 5.429248e-01 1.366914e+00 1.755739e+00 1.685154e+00 2.414070e+00 2.485857e+00 2.786596e+00 3.920746e+00 3.104730e+00 2.522620e+00 2.672310e+00 2.346136e+00 8.292427e-01 1.066792e-01 2.200294e-01 2.841025e-01 3.476618e-01 4.352206e-01 4.825771e-01 5.433212e-01 5.547255e-01 5.323242e-01 4.436573e-01 3.445333e-01 4.642806e-01 1.407892e-01
<GCONST> 1.112063e+02
<TRANSP> 5
 0.000000e+00 1.000000e+00 0.000000e+00 0.000000e+00 0.000000e+00
 0.000000e+00 7.610596e-01 2.389404e-01 0.000000e+00 0.000000e+00
 0.000000e+00 0.000000e+00 7.614857e-01 2.385143e-01 0.000000e+00
 0.000000e+00 0.000000e+00 0.000000e+00 6.747173e-01 3.252827e-01
