~o
<STREAMINFO> 1 39
<VECSIZE> 39<NULLD><MFCC_D_A_0><DIAGC>
~h "@"
<BEGINHMM>
<NUMSTATES> 5
<STATE> 2
<MEAN> 39
 1.354549e-01 -1.241561e+00 1.986180e+00 -5.577456e-01 -6.098969e+00 -1.746204e+00 -7.519831e+00 3.486328e-01 -3.688396e+00 -3.488138e-01 -6.158504e-01 -6.556893e+00 6.092213e+01 7.562345e-03 -8.887127e-03 2.124836e-02 -1.022450e-02 -8.100852e-03 -6.651046e-03 -1.332936e-03 -3.632834e-04 -1.360861e-02 7.212623e-03 -4.073622e-03 -1.285017e-02 1.517461e-02 -2.270639e-04 1.095494e-03 -6.173680e-04 -1.459758e-03 1.670644e-03 5.151040e-04 -4.012191e-04 4.539354e-04 4.754596e-04 -8.411471e-04 5.683200e-05 -1.609494e-04 -1.266918e-03
<VARIANCE> 39
 2.905273e+01 5.465945e+01 6.475117e+01 5.347721e+01 6.258167e+01 6.989242e+01 6.220694e+01 6.539158e+01 5.981498e+01 4.582647e+01 4.727332e+01 5.113873e+01 5.680883e+01 1.542715e+00 2.552446e+00 2.608320e+00 3.097020e+00 3.167527e+00 3.299532e+00 3.445092e+00 4.109455e+00 3.492215e+00 2.966574e+00 3.134365e+00 2.684914e+00 2.238416e+00 2.522721e-01 4.035830e-01 4.251702e-01 5.399143e-01 5.732670e-01 5.863582e-01 6.294334e-01 7.467302e-01 6.281718e-01 5.602906e-01 5.852948e-01 4.920661e-01 3.426660e-01
<GCONST> 1.284069e+02
<STATE> 3
<MEAN> 39
 1.497625e-01 -1.256284e+00 2.033247e+00 -5.844814e-01 -6.110002e+00 -1.760955e+00 -7.520090e+00 3.469200e-01 -3.720340e+00 -3.330200e-01 -6.198031e-01 -6.587115e+00 6.095221e+01 6.437100e-03 -5.295254e-03 1.819685e-02 -1.262033e-02 -3.608290e-03 -5.573889e-03 -1.479122e-03 4.692468e-04 -1.243225e-02 4.355768e-03 -3.140636e-03 -1.256475e-02 1.148829e-02 -8.073671e-04 1.554822e-03 -1.514389e-03 -9.359549e-04 2.289737e-03 3.211019e-04 4.635858e-04 3.089610e-04 5.653355e-04 -1.498382e-03 1.190015e-04 5.949310e-04 -1.423386e-03
<VARIANCE> 39
 2.904882e+01 5.467993e+01 6.540052e+01 5.359108e+01 6.249981e+01 6.980003e+01 6.234723e+01 6.543985e+01 5.992973e+01 4.590704e+01 4.748645e+01 5.081243e+01 5.627514e+01 1.541074e+00 2.557034e+00 2.620709e+00 3.115067e+00 3.178813e+00 3.296524e+00 3.444887e+00 4.108976e+00 3.473942e+00 2.957689e+00 3.140626e+00 2.682610e+00 2.240010e+00 2.522967e-01 4.040323e-01 4.272412e-01 5.421104e-01 5.753864e-01 5.851242e-01 6.283656e-01 7.471484e-01 6.246749e-01 5.579687e-01 5.852256e-01 4.917319e-01 3.425199e-01
<GCONST> 1.284189e+02
<STATE> 4
<MEAN> 39
 7.580031e-02 -1.170472e+00 2.019457e+00 -6.288431e-01 -5.957079e+00 -1.711600e+00 -7.306523e+00 4.796130e-01 -4.084187e+00 -3.047776e-01 -6.094655e-01 -6.495003e+00 6.084594e+01 3.249959e-03 5.780436e-04 1.097733e-02 -1.057637e-02 2.204648e-04 -7.090572e-05 2.751356e-03 4.446076e-05 -9.843085e-03 -6.359775e-05 -6.404964e-04 -8.919011e-03 4.133940e-03 -8.594936e-04 1.616099e-03 -2.025394e-03 7.515957e-05 1.353993e-03 1.431321e-03 1.467395e-03 2.104118e-04 5.175728e-04 -1.386093e-03 4.139212e-04 1.116380e-03 -1.810974e-03
<VARIANCE> 39
 2.886150e+01 5.508226e+01 6.669572e+01 5.533418e+01 6.249746e+01 6.995439e+01 6.184792e+01 6.501376e+01 6.231776e+01 4.554420e+01 4.726746e+01 4.975013e+01 5.903730e+01 1.521560e+00 2.511771e+00 2.617988e+00 3.105562e+00 3.168328e+00 3.272051e+00 3.370744e+00 4.017809e+00 3.422431e+00 2.892807e+00 3.101304e+00 2.624829e+00 2.223178e+00 2.494015e-01 3.943746e-01 4.250209e-01 5.378876e-01 5.711685e-01 5.808148e-01 6.152197e-01 7.330161e-01 6.161956e-01 5.446473e-01 5.781794e-01 4.817101e-01 3.370768e-01
<GCONST> 1.281532e+02
<TRANSP> 5
 0.000000e+00 1.000000e+00 0.000000e+00 0.000000e+00 0.000000e+00
 0.000000e+00 5.927637e-01 4.072363e-01 0.000000e+00 0.000000e+00
 0.000000e+00 0.000000e+00 5.927623e-01 4.072377e-01 0.000000e+00
 0.000000e+00 0.000000e+00 0.000000e+00 7.147347e-01 2.852652e-01
 0.000000e+00 0.000000e+00 0.000000e+00 0.000000e+00 0.000000e+00
<ENDHMM>
~h "a"
<BEGINHMM>
<NUMSTATES> 5
<STATE> 2
<MEAN> 39
 4.099212e-01 -1.642948e+00 1.259193e+00 -1.236170e+00 -5.653864e+00 -1.003630e+00 -6.948278e+00 9.488872e-01 -4.112749e+00 -3.455658e-01 -8.282001e-01 -6.511253e+00 6.096922e+01 2.050090e-03 8.562619e-03 7.881991e-03 2.129835e-03 -1.278309e-02 3.491655e-03 -5.336491e-03 -1.030908e-02 -4.072587e-03 -5.733822e-03 8.822555e-03 3.517611e-03 -5.134307e-03 -1.099681e-03 3.308132e-03 9.208446e-04 3.353910e-03 -1.445095e-03 1.566651e-03 -1.152186e-03 -1.416684e-03 -2.846228e-04 -9.902404e-04 6.136643e-04 1.917108e-03 -4.512743e-03
<VARIANCE> 39
 2.576771e+01 5.567095e+01 6.614639e+01 5.865524e+01 6.084926e+01 6.643585e+01 5.938910e+01 6.309815e+01 5.873915e+01 4.790783e+01 4.826162e+01 5.015900e+01 6.292085e+01 1.369008e+00 2.509572e+00 2.588108e+00 3.092195e+00 3.085779e+00 3.162350e+00 3.313871e+00 3.897973e+00 3.330367e+00 2.880676e+00 2.999136e+00 2.568285e+00 2.157353e+00 2.272192e-01 3.922791e-01 4.194745e-01 5.251573e-01 5.543982e-01 5.663648e-01 6.099429e-01 7.169399e-01 6.001286e-01 5.421436e-01 5.606943e-01 4.719981e-01 3.242248e-01
<GCONST> 1.273467e+02
<STATE> 3
<MEAN> 39
 4.102711e-01 -1.611217e+00 1.276253e+00 -1.216784e+00 -5.688891e+00 -9.925119e-01 -6.962297e+00 9.188399e-01 -4.123028e+00 -3.629665e-01 -8.053238e-01 -6.496581e+00 6.094057e+01 -7.264508e-04 1.545564e-02 9.042863e-03 9.365851e-03 -1.466179e-02 6.111907e-03 -6.979465e-03 -1.353741e-02 -4.499091e-03 -6.947785e-03 9.665451e-03 7.727472e-03 -1.453760e-02 -1.100640e-03 2.490056e-03 3.502537e-04 2.436377e-03 -4.894395e-04 9.294897e-04 -7.265820e-04 -1.082196e-03 1.362395e-04 -1.096002e-04 8.950438e-05 1.513792e-03 -3.344338e-03
<VARIANCE> 39
 2.577077e+01 5.543848e+01 6.628566e+01 5.848259e+01 6.063018e+01 6.627905e+01 5.933228e+01 6.298503e+01 5.876209e+01 4.775054e+01 4.826205e+01 5.013406e+01 6.263313e+01 1.365024e+00 2.488448e+00 2.588253e+00 3.076653e+00 3.076357e+00 3.151540e+00 3.312612e+00 3.889343e+00 3.329310e+00 2.878643e+00 3.003681e+00 2.562093e+00 2.131058e+00 2.265056e-01 3.892550e-01 4.197585e-01 5.234329e-01 5.523682e-01 5.649014e-01 6.092201e-01 7.149631e-01 6.004372e-01 5.412718e-01 5.618805e-01 4.711648e-01 3.215684e-01
<GCONST> 1.272527e+02
<STATE> 4
<MEAN> 39
 2.053121e-01 -1.170612e+00 1.094295e+00 -1.070269e+00 -5.559550e+00 -7.287102e-01 -6.579362e+00 1.108709e+00 -4.811505e+00 -1.727378e-01 -5.779109e-01 -6.277256e+00 6.043002e+01 -3.472654e-03 1.752516e-02 6.856476e-03 1.285381e-02 -1.097030e-02 5.569095e-03 -5.549646e-03 -1.275549e-02 -3.216537e-03 -4.590580e-03 7.439160e-03 1.017470e-02 -1.881427e-02 -8.147418e-04 1.314843e-03 -7.311777e-05 8.964207e-04 6.492112e-04 1.770248e-04 -2.199758e-04 -1.705233e-04 4.235061e-04 5.998770e-04 -2.099291e-04 1.102802e-03 -1.769588e-03
<VARIANCE> 39
 2.617535e+01 5.603951e+01 6.535979e+01 6.180853e+01 6.024253e+01 6.663468e+01 5.791671e+01 6.102635e+01 6.179049e+01 4.646365e+01 4.673671e+01 4.874814e+01 7.085767e+01 1.351047e+00 2.354785e+00 2.535607e+00 3.008457e+00 3.061806e+00 3.138197e+00 3.191842e+00 3.819916e+00 3.304126e+00 2.839746e+00 2.938077e+00 2.465407e+00 2.080068e+00 2.257210e-01 3.674648e-01 4.117516e-01 5.128340e-01 5.491678e-01 5.643063e-01 5.880552e-01 7.044151e-01 6.007326e-01 5.354604e-01 5.521827e-01 4.547786e-01 3.130638e-01
<GCONST> 1.268234e+02
<TRANSP> 5
 0.000000e+00 1.000000e+00 0.000000e+00 0.000000e+00 0.000000e+00
 0.000000e+00 5.982145e-01 4.017855e-01 0.000000e+00 0.000000e+00
 0.000000e+00 0.000000e+00 5.982214e-01 4.017786e-01 0.000000e+00
 0.000000e+00 0.000000e+00 0.000000e+00 7.511192e-01 2.488808e-01
 0.000000e+00 0.000000e+00 0.000000e+00 0.000000e+00 0.000000e+00
<ENDHMM>
~h "b"
<BEGINHMM>
<NUMSTATES> 5
<STATE> 2
<MEAN> 39
 9.364714e-01 -4.158341e-01 2.221814e+00 -8.145178e-01 -6.121957e+00 -1.122980e+00 -8.558071e+00 -3.896173e-01 -4.501068e+00 -8.893731e-02 -1.913390e-01 -6.437858e+00 6.080967e+01 5.516934e-03 -1.655704e-02 2.026462e-02 -1.914566e-02 -6.691406e-03 -2.618919e-02 -1.478189e-02 1.660265e-02 3.089153e-03 6.573857e-03 -9.935779e-03 -2.955366e-02 3.636169e-02 -2.108037e-03 -3.764284e-03 1.138085e-03 2.041196e-03 -1.083805e-03 1.646252e-03 -6.972818e-04 2.340706e-03 1.394469e-03 1.008529e-03 -2.997646e-03 4.885848e-04 -3.197865e-05
<VARIANCE> 39
 2.765104e+01 5.554342e+01 6.822256e+01 5.869772e+01 6.071088e+01 6.539548e+01 6.414068e+01 6.054905e+01 6.067447e+01 4.981353e+01 4.930621e+01 5.119812e+01 5.625397e+01 1.339014e+00 2.713737e+00 2.639378e+00 3.587066e+00 3.174128e+00 3.261261e+00 3.739020e+00 4.002471e+00 3.669250e+00 3.258431e+00 3.260747e+00 2.773104e+00 2.232301e+00 2.121468e-01 4.194220e-01 4.262826e-01 6.171026e-01 5.813761e-01 5.759143e-01 6.899133e-01 7.343716e-01 6.553423e-01 6.199293e-01 6.209432e-01 5.151898e-01 3.335022e-01
<GCONST> 1.291376e+02
<STATE> 3
<MEAN> 39
 9.484057e-01 -4.731099e-01 2.279603e+00 -8.635893e-01 -6.142464e+00 -1.177210e+00 -8.590475e+00 -3.447042e-01 -4.495735e+00 -6.281275e-02 -2.356388e-01 -6.512246e+00 6.090757e+01 1.702872e-04 -2.315077e-02 2.412708e-02 -1.170099e-02 -9.240495e-03 -2.070520e-02 -1.157531e-02 2.172026e-02 4.006325e-03 1.049949e-02 -1.998797e-02 -2.886370e-02 3.397734e-02 -1.752986e-03 -1.778041e-03 1.694402e-03 3.931530e-03 -1.751880e-03 1.817057e-03 1.969852e-03 2.066786e-03 -7.375063e-04 9.722625e-04 -4.639386e-03 6.719766e-04 -1.821394e-03
<VARIANCE> 39
 2.752921e+01 5.566038e+01 6.774941e+01 5.892213e+01 6.057697e+01 6.505825e+01 6.397722e+01 6.153931e+01 6.097814e+01 5.010935e+01 4.957313e+01 5.139513e+01 5.582145e+01 1.333673e+00 2.723571e+00 2.653446e+00 3.594989e+00 3.158004e+00 3.244413e+00 3.736617e+00 4.052416e+00 3.696532e+00 3.286562e+00 3.252203e+00 2.773871e+00 2.239155e+00 2.116652e-01 4.194179e-01 4.290009e-01 6.174403e-01 5.768514e-01 5.721005e-01 6.884710e-01 7.434881e-01 6.591311e-01 6.256932e-01 6.187848e-01 5.159837e-01 3.338741e-01
<GCONST> 1.291908e+02
<STATE> 4
<MEAN> 39
 7.129530e-01 -4.750029e-01 2.138909e+00 -8.995189e-01 -5.999969e+00 -1.223258e+00 -8.049856e+00 6.582612e-02 -5.078775e+00 1.112537e-01 -2.797580e-01 -6.335098e+00 6.070877e+01 -3.976260e-03 -2.094501e-02 2.262460e-02 -2.326023e-03 -9.755579e-03 -1.445734e-02 -1.626809e-03 2.172641e-02 6.527376e-04 1.243455e-02 -2.732886e-02 -1.937700e-02 2.222633e-02 -1.141106e-03 6.162586e-04 1.225136e-04 3.213329e-03 -8.829042e-04 6.656568e-04 2.950327e-03 9.199465e-04 -1.689183e-03 2.672189e-04 -2.686491e-03 2.307465e-03 -3.311326e-03
<VARIANCE> 39
 2.753627e+01 5.553717e+01 6.671736e+01 6.289966e+01 6.053619e+01 6.645425e+01 6.453873e+01 6.170836e+01 6.420181e+01 4.898115e+01 4.865815e+01 5.000151e+01 6.365401e+01 1.298586e+00 2.587181e+00 2.608330e+00 3.512067e+00 3.104674e+00 3.233518e+00 3.572628e+00 4.034724e+00 3.653267e+00 3.186597e+00 3.163965e+00 2.653029e+00 2.211571e+00 2.083711e-01 3.997517e-01 4.226751e-01 5.987211e-01 5.642175e-01 5.718365e-01 6.591350e-01 7.444862e-01 6.567039e-01 6.048025e-01 6.019005e-01 4.955784e-01 3.289505e-01
<GCONST> 1.287749e+02
<TRANSP> 5
 0.000000e+00 1.000000e+00 0.000000e+00 0.000000e+00 0.000000e+00
 0.000000e+00 5.974694e-01 4.025306e-01 0.000000e+00 0.000000e+00
 0.000000e+00 0.000000e+00 5.974681e-01 4.025320e-01 0.000000e+00
 0.000000e+00 0.000000e+00 0.000000e+00 7.396176e-01 2.603824e-01
 0.000000e+00 0.000000e+00 0.000000e+00 0.000000e+00 0.000000e+00
<ENDHMM>
~h "c"
<BEGINHMM>
<NUMSTATES> 5
<STATE> 2
<MEAN> 39
 -3.756420e-01 -8.402867e-01 2.662411e+00 -9.733317e-01 -6.278738e+00 -2.301823e+00 -7.759803e+00 1.871353e-02 -3.571174e+00 -1.110477e+00 3.179112e-02 -5.255332e+00 6.097065e+01 3.253768e-02 -4.685728e-02 1.880190e-02 -2.981106e-02 -3.635240e-02 1.909613e-02 -1.076420e-02 1.958042e-02 -2.697480e-02 1.049374e-03 1.947189e-02 -2.610357e-02 4.541657e-02 1.531630e-03 -5.250402e-03 -2.843538e-03 -7.729194e-04 1.687338e-03 -4.418968e-03 -3.553165e-03 4.496167e-03 2.411406e-03 -2.162236e-03 -1.844792e-03 -2.009044e-04 3.492854e-03
<VARIANCE> 39
 3.171340e+01 5.194454e+01 5.932203e+01 4.895503e+01 5.004937e+01 7.422474e+01 5.644542e+01 6.556597e+01 5.562868e+01 4.764094e+01 4.369267e+01 4.411279e+01 5.657236e+01 2.627724e+00 2.983213e+00 2.646793e+00 3.384195e+00 3.329665e+00 3.365334e+00 3.742627e+00 3.924627e+00 3.308434e+00 3.002882e+00 3.089505e+00 2.709126e+00 2.657564e+00 5.026855e-01 5.017836e-01 4.427115e-01 6.118022e-01 6.220487e-01 6.140256e-01 7.101733e-01 7.338027e-01 6.025480e-01 5.869403e-01 6.057361e-01 5.100306e-01 4.189337e-01
<GCONST> 1.303476e+02
<STATE> 3
<MEAN> 39
 -2.882112e-01 -9.690317e-01 2.691195e+00 -1.040768e+00 -6.361788e+00 -2.262593e+00 -7.796298e+00 6.768250e-02 -3.614666e+00 -1.124191e+00 6.735316e-02 -5.313414e+00 6.109227e+01 4.011323e-02 -5.162694e-02 5.698897e-03 -2.377359e-02 -2.963011e-02 1.171489e-02 -1.139821e-02 2.598207e-02 -2.223416e-02 -3.510259e-03 1.025945e-02 -2.599304e-02 4.415378e-02 2.792375e-03 -4.992198e-04 -5.890720e-03 3.563125e-03 3.626972e-03 -2.788676e-03 4.080733e-04 1.778161e-03 1.026062e-03 -1.165968e-03 -3.609717e-03 8.370131e-05 -2.413453e-03
<VARIANCE> 39
 3.148671e+01 5.264666e+01 5.977814e+01 4.950848e+01 5.050608e+01 7.458307e+01 5.579474e+01 6.604393e+01 5.576404e+01 4.762899e+01 4.395244e+01 4.438310e+01 5.575927e+01 2.610083e+00 3.014157e+00 2.702365e+00 3.446668e+00 3.330392e+00 3.399871e+00 3.728664e+00 3.930954e+00 3.339481e+00 3.005544e+00 3.135912e+00 2.722255e+00 2.671669e+00 4.991086e-01 5.050871e-01 4.469878e-01 6.212204e-01 6.235756e-01 6.173658e-01 7.090330e-01 7.369090e-01 6.089074e-01 5.897412e-01 6.123176e-01 5.124652e-01 4.189559e-01
<GCONST> 1.305339e+02
<STATE> 4
<MEAN> 39
 -2.205717e-01 -1.059575e+00 2.673250e+00 -1.072410e+00 -6.409170e+00 -2.213216e+00 -7.782866e+00 1.731186e-01 -3.547336e+00 -1.231488e+00 7.567397e-02 -5.324737e+00 6.113086e+01 4.751232e-02 -3.836816e-02 -1.732354e-02 -8.126154e-03 -1.960985e-02 1.703298e-02 1.363020e-03 1.924646e-02 -1.784560e-02 2.012041e-03 7.698475e-05 -2.968499e-02 2.423172e-02 1.722869e-03 4.539963e-03 -6.680526e-03 4.579178e-03 3.517229e-03 1.745777e-03 3.861770e-03 -1.890770e-03 -5.011461e-04 2.012103e-03 -2.628463e-03 -1.526398e-03 -6.879718e-03
<VARIANCE> 39
 3.059987e+01 5.319609e+01 6.048827e+01 4.953626e+01 5.111177e+01 7.459561e+01 5.486241e+01 6.623732e+01 5.576850e+01 4.695902e+01 4.412196e+01 4.481575e+01 5.521791e+01 2.531311e+00 3.000936e+00 2.725834e+00 3.452299e+00 3.309995e+00 3.428309e+00 3.650944e+00 3.897217e+00 3.390690e+00 2.984483e+00 3.142802e+00 2.735569e+00 2.646039e+00 4.853396e-01 5.005692e-01 4.465049e-01 6.209617e-01 6.230022e-01 6.187620e-01 6.942902e-01 7.294427e-01 6.177701e-01 5.880831e-01 6.099119e-01 5.123665e-01 4.149996e-01
<GCONST> 1.303990e+02
<TRANSP> 5
 0.000000e+00 1.000000e+00 0.000000e+00 0.000000e+00 0.000000e+00
 0.000000e+00 5.914559e-01 4.085441e-01 0.000000e+00 0.000000e+00
 0.000000e+00 0.000000e+00 5.914555e-01 4.085445e-01 0.000000e+00
 0.000000e+00 0.000000e+00 0.000000e+00 6.945205e-01 3.054795e-01
 0.000000e+00 0.000000e+00 0.000000e+00 0.000000e+00 0.000000e+00
<ENDHMM>
~h "d"
<BEGINHMM>
<NUMSTATES> 5
<STATE> 2
<MEAN> 39
 3.451641e-01 -7.747691e-01 3.898153e+00 1.028794e-01 -7.452347e+00 -2.356134e+00 -8.586418e+00 1.025786e+00 -4.181223e+00 -1.130883e+00 -1.081091e-01 -6.011781e+00 6.069655e+01 7.263917e-03 -3.246838e-03 1.103252e-02 -2.257864e-02 -1.140777e-02 1.288055e-02 9.487237e-03 -8.510470e-03 -1.421845e-02 3.452427e-03 1.466691e-03 -1.813589e-02 1.727202e-02 -1.615167e-03 1.015742e-03 -1.268818e-03 -7.860489e-04 -1.964767e-04 2.077978e-03 -3.532883e-04 -5.530593e-03 4.926847e-04 2.057912e-03 4.367774e-04 -8.750282e-04 -3.417992e-05
<VARIANCE> 39
 2.419789e+01 5.478362e+01 7.552465e+01 5.478829e+01 6.473311e+01 6.604887e+01 6.472931e+01 7.105714e+01 5.794361e+01 4.820386e+01 5.791775e+01 4.927932e+01 6.011456e+01 1.271839e+00 2.614428e+00 2.882449e+00 3.237396e+00 3.263154e+00 3.189488e+00 3.736591e+00 4.183673e+00 3.368814e+00 2.926960e+00 3.505522e+00 2.589379e+00 2.347360e+00 2.065227e-01 4.302612e-01 4.712688e-01 5.535574e-01 6.017877e-01 5.748200e-01 6.953687e-01 7.624233e-01 6.059829e-01 5.410339e-01 6.457692e-01 4.837363e-01 3.641588e-01
<GCONST> 1.291019e+02
<STATE> 3
<MEAN> 39
 3.591900e-01 -7.708308e-01 3.919549e+00 4.771686e-02 -7.483025e+00 -2.318933e+00 -8.564980e+00 9.805849e-01 -4.218482e+00 -1.113564e+00 -9.278896e-02 -6.057143e+00 6.073285e+01 4.266912e-03 -1.158072e-03 7.142297e-03 -2.415776e-02 -1.181893e-02 1.565816e-02 1.006901e-02 -2.120113e-02 -1.277774e-02 9.445274e-03 3.438521e-03 -2.015627e-02 1.715117e-02 -9.904639e-04 1.973360e-04 -1.552282e-03 -8.325055e-04 2.142115e-04 -1.768087e-05 1.489749e-05 -4.588950e-03 7.774613e-04 2.175083e-03 5.212438e-04 -7.349596e-04 6.260566e-04
<VARIANCE> 39
 2.423115e+01 5.484012e+01 7.541356e+01 5.498817e+01 6.494521e+01 6.612441e+01 6.444611e+01 7.057387e+01 5.791487e+01 4.864020e+01 5.811139e+01 4.948339e+01 5.942093e+01 1.285021e+00 2.605860e+00 2.902975e+00 3.247663e+00 3.277634e+00 3.194905e+00 3.727351e+00 4.185580e+00 3.377538e+00 2.950576e+00 3.515969e+00 2.612292e+00 2.334537e+00 2.090085e-01 4.278595e-01 4.724038e-01 5.557118e-01 6.030778e-01 5.745639e-01 6.931413e-01 7.637581e-01 6.071978e-01 5.430778e-01 6.466681e-01 4.874434e-01 3.609592e-01
<GCONST> 1.291612e+02
<STATE> 4
<MEAN> 39
 3.310523e-01 -7.096912e-01 3.900511e+00 -1.982045e-02 -7.468247e+00 -2.226219e+00 -8.473155e+00 8.690875e-01 -4.214606e+00 -1.117869e+00 -8.993340e-02 -6.050955e+00 6.068939e+01 8.925019e-04 -1.379976e-03 -1.623484e-03 -2.444683e-02 -7.100255e-03 1.333729e-02 1.455352e-02 -2.772510e-02 -1.054913e-02 1.035672e-02 7.018683e-03 -1.826303e-02 1.486806e-02 -6.917013e-04 -1.006307e-03 -2.636066e-03 -4.334940e-04 1.778221e-03 -1.017259e-03 1.096398e-03 -1.699590e-03 9.072081e-04 -9.504380e-05 6.344701e-04 3.578615e-04 2.082295e-04
<VARIANCE> 39
 2.418650e+01 5.474406e+01 7.559014e+01 5.531637e+01 6.532919e+01 6.652326e+01 6.380681e+01 6.985703e+01 5.765136e+01 4.889177e+01 5.865821e+01 4.981786e+01 5.884719e+01 1.283572e+00 2.571983e+00 2.890422e+00 3.240224e+00 3.275515e+00 3.190935e+00 3.685171e+00 4.158660e+00 3.358133e+00 2.947043e+00 3.527223e+00 2.635740e+00 2.297410e+00 2.084385e-01 4.197200e-01 4.679389e-01 5.532337e-01 6.010118e-01 5.703280e-01 6.845756e-01 7.592457e-01 6.025878e-01 5.394619e-01 6.460286e-01 4.904161e-01 3.524751e-01
<GCONST> 1.290151e+02
<TRANSP> 5
 0.000000e+00 1.000000e+00 0.000000e+00 0.000000e+00 0.000000e+00
 0.000000e+00 5.984001e-01 4.016000e-01 0.000000e+00 0.000000e+00
 0.000000e+00 0.000000e+00 5.984006e-01 4.015995e-01 0.000000e+00
 0.000000e+00 0.000000e+00 0.000000e+00 7.042839e-01 2.957161e-01
 0.000000e+00 0.000000e+00 0.000000e+00 0.000000e+00 0.000000e+00
<ENDHMM>
~h "e"
<BEGINHMM>
<NUMSTATES> 5
<STATE> 2
<MEAN> 39
 -6.375597e-01 -7.361109e-01 2.894789e+00 -3.193771e-01 -6.681691e+00 -2.542551e+00 -5.706083e+00 8.738733e-01 -4.668218e+00 -4.498124e-01 -1.329902e-01 -4.987851e+00 5.996029e+01 -1.297464e-03 -1.164009e-02 1.142182e-02 1.662629e-02 -2.837629e-02 -3.544125e-02 1.682491e-03 4.948878e-03 -1.724059e-03 -1.186918e-02 -2.756324e-03 1.127488e-03 3.032562e-04 -6.220098e-04 2.777660e-03 -3.412190e-03 9.352781e-04 3.421528e-03 5.997547e-03 3.207328e-03 -1.176249e-03 3.397511e-03 -4.201094e-04 -8.819179e-04 3.396262e-03 -2.198277e-03
<VARIANCE> 39
 2.479204e+01 4.958498e+01 7.565905e+01 5.391746e+01 5.548719e+01 7.861477e+01 5.046970e+01 6.381815e+01 5.657089e+01 4.923621e+01 5.015631e+01 4.064527e+01 5.867961e+01 1.447923e+00 2.384233e+00 2.558087e+00 2.675413e+00 3.001806e+00 3.341739e+00 2.938824e+00 3.715377e+00 2.903810e+00 2.856749e+00 2.715687e+00 2.349741e+00 2.110716e+00 2.378545e-01 3.744645e-01 4.008500e-01 4.615612e-01 5.380982e-01 5.603723e-01 5.452507e-01 6.628550e-01 5.229125e-01 5.376127e-01 4.842008e-01 4.285957e-01 3.097402e-01
<GCONST> 1.254264e+02
<STATE> 3
<MEAN> 39
 -6.377367e-01 -7.417074e-01 2.891338e+00 -2.578937e-01 -6.726066e+00 -2.607371e+00 -5.688217e+00 8.860195e-01 -4.654230e+00 -4.834512e-01 -1.499162e-01 -4.967393e+00 5.993293e+01 -1.496172e-03 -9.093032e-04 -3.320685e-03 1.890750e-02 -1.203973e-02 -1.208952e-02 1.086272e-02 2.100845e-03 7.152831e-03 -1.271606e-02 -6.001198e-03 1.051093e-02 -1.213382e-02 -2.109068e-04 3.687541e-03 -5.399306e-03 7.015232e-04 6.235597e-03 9.462069e-03 3.340931e-03 -5.910405e-04 2.670851e-03 -5.948720e-04 -1.125391e-03 4.132838e-03 -5.329978e-03
<VARIANCE> 39
 2.480558e+01 4.931669e+01 7.446516e+01 5.299941e+01 5.541854e+01 7.825491e+01 4.988688e+01 6.314519e+01 5.668381e+01 4.882468e+01 5.086957e+01 4.077479e+01 5.874586e+01 1.424983e+00 2.352549e+00 2.499051e+00 2.655716e+00 3.006228e+00 3.246343e+00 2.924057e+00 3.712835e+00 2.908924e+00 2.849264e+00 2.706774e+00 2.342335e+00 2.043126e+00 2.343073e-01 3.683537e-01 3.921730e-01 4.612672e-01 5.395684e-01 5.477172e-01 5.438320e-01 6.635677e-01 5.241947e-01 5.352467e-01 4.836808e-01 4.279937e-01 3.003474e-01
<GCONST> 1.251284e+02
<STATE> 4
<MEAN> 39
 -7.061482e-01 -5.687128e-01 2.899547e+00 -2.381018e-01 -6.751028e+00 -2.558839e+00 -5.507434e+00 9.278929e-01 -4.633150e+00 -4.489784e-01 -1.744904e-01 -4.746169e+00 5.965725e+01 7.760576e-04 1.417064e-02 -3.287197e-02 2.629432e-02 1.734297e-02 2.187076e-02 2.019250e-02 2.775891e-03 1.778300e-02 -1.608743e-02 -1.206802e-02 2.071659e-02 -3.717428e-02 3.261868e-04 2.696323e-03 -6.400159e-03 1.483406e-03 6.151572e-03 8.754862e-03 1.939263e-03 3.276736e-05 1.264697e-03 -9.599281e-04 -1.725217e-03 2.829723e-03 -6.344680e-03
<VARIANCE> 39
 2.403844e+01 4.838162e+01 7.366916e+01 5.144362e+01 5.447140e+01 7.655011e+01 4.854779e+01 6.036429e+01 5.588000e+01 4.796149e+01 5.132432e+01 4.035540e+01 5.921274e+01 1.348604e+00 2.244433e+00 2.378762e+00 2.553736e+00 2.921746e+00 3.038270e+00 2.827274e+00 3.586501e+00 2.879906e+00 2.810780e+00 2.640705e+00 2.276319e+00 1.905607e+00 2.228097e-01 3.503270e-01 3.738617e-01 4.442011e-01 5.243480e-01 5.185331e-01 5.279121e-01 6.464331e-01 5.202986e-01 5.253336e-01 4.732502e-01 4.164407e-01 2.795826e-01
<GCONST> 1.239277e+02
<TRANSP> 5
 0.000000e+00 1.000000e+00 0.000000e+00 0.000000e+00 0.000000e+00
 0.000000e+00 6.151293e-01 3.848707e-01 0.000000e+00 0.000000e+00
 0.000000e+00 0.000000e+00 6.151283e-01 3.848717e-01 0.000000e+00
 0.000000e+00 0.000000e+00 0.000000e+00 7.301002e-01 2.698998e-01
 0.000000e+00 0.000000e+00 0.000000e+00 0.000000e+00 0.000000e+00
<ENDHMM>
~h "f"
<BEGINHMM>
<NUMSTATES> 5
<STATE> 2
<MEAN> 39
 -8.427547e-01 -1.129498e+00 4.230092e+00 -5.006304e-01 -8.269249e+00 -1.545694e+00 -7.606060e+00 -4.280654e-01 -3.847101e+00 -1.946627e+00 1.389120e+00 -7.071213e+00 6.122491e+01 2.252653e-03 3.343614e-03 4.250866e-02 -9.747904e-03 -3.492834e-02 2.221027e-02 1.680596e-02 3.688878e-02 -5.194087e-02 -3.442546e-02 1.451884e-02 1.458254e-02 -6.541715e-03 -1.851823e-03 1.754527e-03 -1.513044e-03 3.269297e-03 6.216526e-03 -1.560436e-03 3.026786e-03 -2.387604e-03 -6.942411e-04 8.130478e-04 -1.590764e-03 -1.436480e-03 -1.793345e-04
<VARIANCE> 39
 3.130182e+01 4.957131e+01 9.565126e+01 4.811264e+01 6.652875e+01 6.446695e+01 6.555627e+01 6.175827e+01 6.892059e+01 4.364545e+01 4.835892e+01 4.228236e+01 5.884806e+01 1.683156e+00 2.110288e+00 2.799542e+00 2.546147e+00 3.370570e+00 2.910165e+00 3.327053e+00 3.601517e+00 3.531970e+00 2.889339e+00 2.924145e+00 2.324940e+00 1.679211e+00 2.619273e-01 3.189319e-01 4.290480e-01 4.102801e-01 5.842869e-01 5.001843e-01 5.641280e-01 6.463233e-01 6.285062e-01 5.297774e-01 5.190042e-01 4.046830e-01 2.436896e-01
<GCONST> 1.260610e+02
<STATE> 3
<MEAN> 39
 -8.574215e-01 -1.116250e+00 4.329024e+00 -5.132233e-01 -8.339514e+00 -1.514676e+00 -7.538806e+00 -3.253778e-01 -3.963315e+00 -2.038426e+00 1.408447e+00 -7.036953e+00 6.121160e+01 -1.421135e-03 8.944062e-03 3.834492e-02 -7.968447e-04 -2.167444e-02 2.048987e-02 2.613150e-02 3.007204e-02 -5.474261e-02 -3.239203e-02 1.004130e-02 1.150343e-02 -9.831511e-03 -1.415444e-03 1.978585e-03 -7.160819e-04 4.401353e-03 4.896163e-03 -2.187775e-03 3.325337e-03 -2.379484e-03 -8.741279e-04 2.533619e-03 -1.450928e-03 -5.138475e-04 -1.355000e-03
<VARIANCE> 39
 3.156099e+01 5.007342e+01 9.462119e+01 4.783771e+01 6.761526e+01 6.296435e+01 6.547189e+01 6.128481e+01 6.817764e+01 4.380643e+01 4.932286e+01 4.212255e+01 5.888184e+01 1.648986e+00 2.097536e+00 2.735570e+00 2.535049e+00 3.324450e+00 2.880202e+00 3.275224e+00 3.589312e+00 3.529142e+00 2.895790e+00 2.972561e+00 2.314578e+00 1.680905e+00 2.554516e-01 3.173435e-01 4.176776e-01 4.082175e-01 5.746779e-01 4.958828e-01 5.537208e-01 6.425989e-01 6.317767e-01 5.326926e-01 5.278475e-01 4.033219e-01 2.422206e-01
<GCONST> 1.258795e+02
<STATE> 4
<MEAN> 39
 -9.688547e-01 -1.077097e+00 4.312381e+00 -5.320731e-01 -8.317912e+00 -1.444032e+00 -7.343746e+00 -2.122651e-01 -4.027553e+00 -2.196140e+00 1.407598e+00 -7.000566e+00 6.115223e+01 -4.054412e-03 1.599785e-02 3.452776e-02 1.284162e-02 -1.334820e-02 1.477119e-02 3.931341e-02 2.540099e-02 -5.526391e-02 -2.587525e-02 2.157451e-03 1.143017e-02 -1.808492e-02 1.136237e-04 1.592877e-03 -2.405317e-04 4.876130e-03 2.136972e-03 -1.755325e-03 2.507091e-03 -1.462091e-03 3.732109e-04 4.223517e-03 -1.615071e-03 6.998710e-04 -2.643949e-03
<VARIANCE> 39
 3.228600e+01 5.068908e+01 9.274261e+01 4.723354e+01 6.877794e+01 6.146711e+01 6.568294e+01 6.123491e+01 6.725855e+01 4.431044e+01 5.069604e+01 4.214254e+01 5.902704e+01 1.608585e+00 2.083189e+00 2.646539e+00 2.516977e+00 3.261726e+00 2.842874e+00 3.203694e+00 3.571168e+00 3.509038e+00 2.904801e+00 3.040812e+00 2.297440e+00 1.697248e+00 2.474498e-01 3.150834e-01 4.026427e-01 4.049871e-01 5.614415e-01 4.892153e-01 5.421349e-01 6.387894e-01 6.325063e-01 5.355569e-01 5.428843e-01 3.998887e-01 2.409282e-01
<GCONST> 1.256696e+02
<TRANSP> 5
 0.000000e+00 1.000000e+00 0.000000e+00 0.000000e+00 0.000000e+00
 0.000000e+00 6.074171e-01 3.925828e-01 0.000000e+00 0.000000e+00
 0.000000e+00 0.000000e+00 6.074175e-01 3.925825e-01 0.000000e+00
 0.000000e+00 0.000000e+00 0.000000e+00 7.119182e-01 2.880819e-01
 0.000000e+00 0.000000e+00 0.000000e+00 0.000000e+00 0.000000e+00
<ENDHMM>
~h "g"
<BEGINHMM>
<NUMSTATES> 5
<STATE> 2
<MEAN> 39
 2.970825e-01 1.399884e-01 3.630735e+00 -7.297164e-01 -7.259394e+00 -1.883040e+00 -8.761218e+00 -1.363546e-02 -4.697755e+00 -4.131533e-01 8.062375e-01 -6.869662e+00 6.071973e+01 -6.441944e-03 -1.151896e-02 -2.417305e-02 -1.605722e-04 2.769090e-02 -9.294711e-03 6.380231e-03 1.311205e-02 -3.044783e-04 2.204098e-02 -9.374687e-03 2.667790e-03 -1.680382e-03 -1.624001e-03 -2.735445e-03 -5.327841e-03 1.313185e-03 4.954095e-03 3.899194e-03 5.039650e-03 8.163576e-04 3.989290e-03 -1.306666e-03 -3.763502e-03 4.875258e-03 -3.896737e-03
<VARIANCE> 39
 2.593117e+01 5.289706e+01 6.917645e+01 5.725890e+01 6.200619e+01 6.414731e+01 6.386217e+01 6.266288e+01 5.992084e+01 5.075962e+01 5.567194e+01 5.267835e+01 5.683425e+01 1.344158e+00 2.361259e+00 2.895660e+00 3.109610e+00 3.408170e+00 3.300240e+00 3.625837e+00 3.855586e+00 3.579474e+00 2.949433e+00 3.610198e+00 2.716444e+00 2.231314e+00 2.196319e-01 3.577980e-01 4.672526e-01 5.206143e-01 6.262133e-01 5.937997e-01 6.743319e-01 7.050170e-01 6.450711e-01 5.510422e-01 6.765131e-01 4.981713e-01 3.323753e-01
<GCONST> 1.287516e+02
<STATE> 3
<MEAN> 39
 2.867393e-01 8.891922e-02 3.545135e+00 -7.410775e-01 -7.186620e+00 -1.869255e+00 -8.734724e+00 3.083283e-02 -4.681461e+00 -3.579937e-01 7.791734e-01 -6.861741e+00 6.070767e+01 -1.087058e-02 -1.529197e-02 -3.612347e-02 1.636337e-03 3.607284e-02 -2.242783e-04 1.893282e-02 1.479241e-02 1.193234e-02 1.685266e-02 -1.729616e-02 1.388005e-02 -1.235217e-02 -1.628607e-03 -1.160473e-03 -4.329680e-03 7.987000e-04 2.191124e-03 2.954370e-03 3.855673e-03 -3.747283e-04 5.551139e-03 -3.436327e-03 -3.165632e-03 4.322741e-03 -4.311112e-03
<VARIANCE> 39
 2.622143e+01 5.304307e+01 6.867315e+01 5.684618e+01 6.206018e+01 6.441386e+01 6.371715e+01 6.280361e+01 5.963177e+01 5.065585e+01 5.555428e+01 5.225159e+01 5.730125e+01 1.338909e+00 2.357111e+00 2.814766e+00 3.085832e+00 3.368854e+00 3.255161e+00 3.609168e+00 3.855294e+00 3.550544e+00 2.942235e+00 3.585624e+00 2.692433e+00 2.188716e+00 2.178083e-01 3.574664e-01 4.547555e-01 5.160258e-01 6.201146e-01 5.837384e-01 6.687706e-01 7.078361e-01 6.401264e-01 5.488604e-01 6.714965e-01 4.942218e-01 3.267596e-01
<GCONST> 1.285092e+02
<STATE> 4
<MEAN> 39
 2.237168e-01 9.048539e-02 3.365267e+00 -7.384918e-01 -6.982270e+00 -1.695493e+00 -8.645250e+00 1.007822e-01 -4.588885e+00 -4.483050e-01 7.266823e-01 -6.726477e+00 6.051142e+01 -1.481753e-02 -1.645771e-02 -4.369137e-02 2.975399e-03 3.145936e-02 8.392083e-03 2.721441e-02 1.699026e-02 2.150190e-02 5.011410e-03 -1.860727e-02 1.923327e-02 -2.323235e-02 -1.309760e-03 2.239164e-04 -1.856744e-03 1.758936e-03 -1.720664e-03 5.982324e-04 1.769267e-03 5.632476e-05 3.607425e-03 -5.050439e-03 -1.099918e-03 2.663496e-03 -3.547165e-03
<VARIANCE> 39
 2.650777e+01 5.305505e+01 6.770638e+01 5.690705e+01 6.170617e+01 6.454237e+01 6.339951e+01 6.242431e+01 5.883266e+01 5.013867e+01 5.617274e+01 5.173498e+01 5.845084e+01 1.315069e+00 2.317088e+00 2.693611e+00 3.022597e+00 3.291733e+00 3.151687e+00 3.540857e+00 3.788861e+00 3.452868e+00 2.892159e+00 3.505121e+00 2.644143e+00 2.109043e+00 2.139274e-01 3.523105e-01 4.326440e-01 5.056345e-01 6.054740e-01 5.602256e-01 6.528000e-01 6.964810e-01 6.214752e-01 5.378053e-01 6.547749e-01 4.859738e-01 3.131573e-01
<GCONST> 1.278324e+02
<TRANSP> 5
 0.000000e+00 1.000000e+00 0.000000e+00 0.000000e+00 0.000000e+00
 0.000000e+00 6.013506e-01 3.986494e-01 0.000000e+00 0.000000e+00
 0.000000e+00 0.000000e+00 6.013499e-01 3.986501e-01 0.000000e+00
 0.000000e+00 0.000000e+00 0.000000e+00 7.100891e-01 2.899109e-01
 0.000000e+00 0.000000e+00 0.000000e+00 0.000000e+00 0.000000e+00
<ENDHMM>
~h "h"
<BEGINHMM>
<NUMSTATES> 5
<STATE> 2
<MEAN> 39
 -5.411174e-01 -1.008622e+00 1.525213e+00 -6.690227e-01 -5.312931e+00 -1.124222e+00 -5.590684e+00 1.229224e+00 -4.059792e+00 -7.904263e-01 -1.135239e+00 -5.099448e+00 6.001217e+01 1.188609e-03 -1.339574e-02 -1.036629e-02 2.140355e-02 6.511779e-03 1.195707e-02 6.649784e-03 -6.782659e-04 3.839002e-03 4.284623e-03 -8.864721e-04 -8.065857e-03 -1.389561e-02 -4.553329e-04 4.997687e-03 1.820323e-03 4.048512e-03 -1.815336e-03 -2.957258e-03 -2.271795e-03 -2.826630e-03 -2.986558e-03 5.463879e-04 3.267249e-03 8.732155e-04 -3.967930e-03
<VARIANCE> 39
 2.318029e+01 5.379770e+01 6.936472e+01 5.891718e+01 5.947485e+01 6.680714e+01 5.686290e+01 5.713240e+01 5.965826e+01 4.187322e+01 4.959947e+01 4.499852e+01 7.168008e+01 1.075153e+00 1.992477e+00 2.282076e+00 2.759127e+00 2.725002e+00 2.811462e+00 2.950849e+00 3.141298e+00 2.907465e+00 2.510470e+00 2.717749e+00 2.303082e+00 1.826843e+00 1.709011e-01 3.133365e-01 3.579384e-01 4.607438e-01 4.778254e-01 4.958531e-01 5.339574e-01 5.734590e-01 5.244751e-01 4.660318e-01 5.027154e-01 4.168019e-01 2.504880e-01
<GCONST> 1.228808e+02
<STATE> 3
<MEAN> 39
 -5.403245e-01 -1.035401e+00 1.518054e+00 -5.943943e-01 -5.306784e+00 -1.099187e+00 -5.591462e+00 1.221338e+00 -4.062492e+00 -7.799525e-01 -1.122515e+00 -5.122142e+00 5.996316e+01 7.036584e-04 -1.843825e-03 -4.910654e-03 2.913380e-02 1.908060e-03 4.588496e-03 2.600843e-04 -8.362204e-03 -2.176051e-03 5.642092e-03 6.215884e-03 -6.552950e-03 -2.208138e-02 -5.416424e-04 4.959160e-03 2.968865e-03 2.314401e-03 -1.980382e-03 -3.102649e-03 -3.181116e-03 -2.782955e-03 -9.709154e-04 1.238709e-04 2.439356e-03 -6.190372e-05 -2.559557e-03
<VARIANCE> 39
 2.306705e+01 5.320152e+01 6.898875e+01 5.813943e+01 5.933577e+01 6.600627e+01 5.663941e+01 5.687173e+01 5.888945e+01 4.176271e+01 4.884266e+01 4.560231e+01 7.110611e+01 1.079788e+00 1.980126e+00 2.287176e+00 2.729200e+00 2.699894e+00 2.808195e+00 2.937184e+00 3.150832e+00 2.921181e+00 2.519131e+00 2.696429e+00 2.318981e+00 1.807601e+00 1.719677e-01 3.105066e-01 3.596890e-01 4.578853e-01 4.735171e-01 4.949914e-01 5.329356e-01 5.768418e-01 5.263211e-01 4.688992e-01 5.007603e-01 4.200439e-01 2.497815e-01
<GCONST> 1.227710e+02
<STATE> 4
<MEAN> 39
 -5.626226e-01 -8.756917e-01 1.397232e+00 -5.557982e-01 -5.262278e+00 -1.000276e+00 -5.476346e+00 1.348806e+00 -4.605235e+00 -6.001128e-01 -8.715345e-01 -5.111935e+00 5.968539e+01 -1.648928e-04 8.822463e-03 2.220103e-03 2.958431e-02 -5.093297e-03 -2.336084e-03 -6.442378e-03 -1.215092e-02 -8.774862e-04 3.950085e-03 1.280399e-02 -4.412648e-03 -2.557550e-02 -9.306233e-04 3.593371e-03 2.049316e-03 4.476669e-04 -2.208130e-03 -2.090363e-03 -2.667777e-03 -1.466348e-03 2.483344e-03 -6.538567e-04 1.804900e-03 -6.439406e-04 -1.260836e-03
<VARIANCE> 39
 2.296638e+01 5.309755e+01 6.834520e+01 6.052489e+01 5.911994e+01 6.523771e+01 5.603469e+01 5.556857e+01 6.063124e+01 4.130103e+01 4.746749e+01 4.499106e+01 7.619122e+01 1.068671e+00 1.918209e+00 2.249842e+00 2.686029e+00 2.673933e+00 2.806617e+00 2.855006e+00 3.185913e+00 2.915248e+00 2.495360e+00 2.649143e+00 2.262142e+00 1.803769e+00 1.720796e-01 2.984473e-01 3.557862e-01 4.490922e-01 4.700282e-01 4.963011e-01 5.201283e-01 5.889295e-01 5.280203e-01 4.664476e-01 4.951355e-01 4.128928e-01 2.513220e-01
<GCONST> 1.225312e+02
<TRANSP> 5
 0.000000e+00 1.000000e+00 0.000000e+00 0.000000e+00 0.000000e+00
 0.000000e+00 6.075603e-01 3.924397e-01 0.000000e+00 0.000000e+00
 0.000000e+00 0.000000e+00 6.075616e-01 3.924384e-01 0.000000e+00
 0.000000e+00 0.000000e+00 0.000000e+00 7.473781e-01 2.526219e-01
 0.000000e+00 0.000000e+00 0.000000e+00 0.000000e+00 0.000000e+00
<ENDHMM>
~h "i"
<BEGINHMM>
<NUMSTATES> 5
<STATE> 2
<MEAN> 39
 -6.206965e-01 -2.226675e-02 4.634240e+00 -3.536104e-01 -7.598529e+00 -2.151136e+00 -7.561658e+00 1.765835e-01 -5.434599e+00 -1.152197e+00 5.109253e-01 -5.787627e+00 6.033066e+01 5.938155e-03 -5.829284e-03 -2.482044e-02 2.449891e-04 1.492492e-02 1.656336e-02 -1.039239e-03 -3.944611e-03 1.491657e-02 3.992690e-03 -1.003200e-02 -5.886694e-04 -8.776093e-03 7.193909e-04 -9.715511e-04 -5.825473e-03 6.160986e-04 1.853491e-03 1.851427e-03 9.352813e-04 2.062197e-03 3.435638e-03 3.040646e-05 -1.299645e-03 1.485347e-03 -2.401325e-03
<VARIANCE> 39
 2.869529e+01 5.091849e+01 8.485738e+01 5.403123e+01 6.643347e+01 6.680363e+01 6.062125e+01 6.026675e+01 6.216941e+01 4.823703e+01 5.223822e+01 4.546144e+01 5.949832e+01 1.465804e+00 2.276475e+00 3.218582e+00 2.957134e+00 3.411797e+00 3.187772e+00 3.431250e+00 3.740549e+00 3.465570e+00 2.861605e+00 3.196577e+00 2.511649e+00 1.993906e+00 2.365387e-01 3.581016e-01 4.948832e-01 5.002778e-01 6.099537e-01 5.653130e-01 6.248035e-01 6.845385e-01 6.277985e-01 5.306203e-01 5.913932e-01 4.628604e-01 2.989550e-01
<GCONST> 1.279440e+02
<STATE> 3
<MEAN> 39
 -6.034824e-01 -3.761888e-02 4.561807e+00 -3.524908e-01 -7.557179e+00 -2.103927e+00 -7.563688e+00 1.757972e-01 -5.391959e+00 -1.141095e+00 4.876154e-01 -5.787080e+00 6.030289e+01 7.252133e-03 -8.132788e-03 -3.851502e-02 2.197358e-03 1.963716e-02 2.082035e-02 1.623762e-03 1.914833e-03 2.225672e-02 4.686044e-03 -1.325929e-02 3.185655e-03 -1.502305e-02 6.879342e-04 -9.208628e-04 -5.223739e-03 8.052792e-04 1.300898e-03 1.435120e-03 1.018058e-03 1.940698e-03 2.469954e-03 4.532085e-04 -1.038448e-03 1.287447e-03 -2.607434e-03
<VARIANCE> 39
 2.843328e+01 5.097609e+01 8.437251e+01 5.395162e+01 6.625081e+01 6.653384e+01 6.056788e+01 6.010361e+01 6.196982e+01 4.828460e+01 5.223886e+01 4.570764e+01 5.983730e+01 1.446582e+00 2.262068e+00 3.160788e+00 2.941546e+00 3.374877e+00 3.170102e+00 3.413515e+00 3.732445e+00 3.451611e+00 2.857185e+00 3.182701e+00 2.509566e+00 1.975332e+00 2.337399e-01 3.555136e-01 4.871878e-01 4.981016e-01 6.043144e-01 5.616229e-01 6.217814e-01 6.837255e-01 6.251776e-01 5.301675e-01 5.893211e-01 4.620048e-01 2.960244e-01
<GCONST> 1.277590e+02
<STATE> 4
<MEAN> 39
 -6.088595e-01 -1.672149e-03 4.189381e+00 -4.714547e-01 -7.309949e+00 -1.912361e+00 -7.391296e+00 2.952675e-01 -5.529009e+00 -1.021917e+00 5.187242e-01 -5.774682e+00 6.014672e+01 8.399240e-03 -9.756159e-03 -4.825216e-02 4.106864e-03 2.148483e-02 2.326056e-02 4.315336e-03 7.852154e-03 2.542500e-02 6.554550e-03 -1.453871e-02 5.478344e-03 -2.056242e-02 3.826640e-04 -5.221587e-04 -3.649234e-03 8.303201e-04 7.362304e-04 1.058254e-03 1.222140e-03 1.331219e-03 1.271986e-03 6.425772e-04 -5.046055e-04 5.831569e-04 -2.185133e-03
<VARIANCE> 39
 2.818231e+01 5.165806e+01 8.419196e+01 5.617529e+01 6.670045e+01 6.650280e+01 6.022435e+01 5.958910e+01 6.268632e+01 4.815136e+01 5.222855e+01 4.612613e+01 6.263261e+01 1.418786e+00 2.226926e+00 3.049158e+00 2.903940e+00 3.321377e+00 3.144166e+00 3.344870e+00 3.693941e+00 3.405842e+00 2.835592e+00 3.133669e+00 2.479229e+00 1.961829e+00 2.308318e-01 3.486637e-01 4.718806e-01 4.915814e-01 5.937462e-01 5.573941e-01 6.101730e-01 6.774246e-01 6.160254e-01 5.268238e-01 5.807798e-01 4.555772e-01 2.924466e-01
<GCONST> 1.274706e+02
<TRANSP> 5
 0.000000e+00 1.000000e+00 0.000000e+00 0.000000e+00 0.000000e+00
 0.000000e+00 5.988058e-01 4.011941e-01 0.000000e+00 0.000000e+00
 0.000000e+00 0.000000e+00 5.988050e-01 4.011950e-01 0.000000e+00
 0.000000e+00 0.000000e+00 0.000000e+00 7.205179e-01 2.794821e-01
 0.000000e+00 0.000000e+00 0.000000e+00 0.000000e+00 0.000000e+00
<ENDHMM>
~h "j"
<BEGINHMM>
<NUMSTATES> 5
<STATE> 2
<MEAN> 39
 1.967456e-01 8.195740e-02 3.675429e+00 7.617694e-02 -6.450550e+00 -2.466498e+00 -8.661403e+00 1.230015e+00 -4.911105e+00 -6.900145e-01 1.805853e-01 -5.139017e+00 6.028307e+01 1.010530e-02 2.138929e-02 3.539040e-03 1.533259e-02 -2.488498e-03 2.308918e-02 -6.265596e-03 -1.504427e-02 1.221388e-02 2.211529e-02 2.644893e-02 1.474324e-03 -1.622763e-02 -4.849883e-04 -2.281538e-03 -1.513823e-03 -4.619413e-03 -1.004796e-03 -2.220847e-03 9.313169e-04 1.360503e-03 -3.407405e-03 5.829015e-03 4.275520e-03 -2.962454e-03 2.366803e-03
<VARIANCE> 39
 2.115566e+01 5.033111e+01 7.260551e+01 5.239502e+01 5.476246e+01 6.267463e+01 6.908820e+01 6.187746e+01 5.708441e+01 5.265772e+01 5.035964e+01 4.512797e+01 6.435051e+01 1.310415e+00 2.309675e+00 3.038141e+00 2.880863e+00 3.291848e+00 3.454775e+00 3.954570e+00 3.734225e+00 3.012831e+00 2.844855e+00 3.244006e+00 2.619687e+00 2.212831e+00 2.336837e-01 3.628190e-01 5.208110e-01 4.903721e-01 6.260497e-01 6.320314e-01 7.284777e-01 6.836442e-01 5.547231e-01 5.346466e-01 6.194565e-01 4.959218e-01 3.391588e-01
<GCONST> 1.278436e+02
<STATE> 3
<MEAN> 39
 2.124130e-01 1.234311e-01 3.667213e+00 9.385395e-02 -6.466728e+00 -2.432712e+00 -8.676435e+00 1.206457e+00 -4.878996e+00 -6.173402e-01 2.481039e-01 -5.140114e+00 6.024828e+01 5.383912e-03 1.533450e-02 -1.832821e-03 5.327574e-03 -6.052162e-03 1.804302e-02 -1.913719e-03 -1.119694e-02 5.655102e-03 3.150031e-02 3.486146e-02 -2.996270e-03 -1.345652e-02 -2.287154e-03 -3.331874e-03 -2.324086e-03 -3.903103e-03 -5.470058e-04 -1.925694e-03 2.768171e-03 2.150805e-03 -3.111463e-03 3.011577e-03 2.758501e-03 -2.105927e-03 1.169427e-03
<VARIANCE> 39
 2.106976e+01 5.009601e+01 7.291851e+01 5.227749e+01 5.494425e+01 6.205206e+01 6.853320e+01 6.110215e+01 5.698194e+01 5.325802e+01 5.026995e+01 4.505692e+01 6.399488e+01 1.298904e+00 2.305642e+00 3.033857e+00 2.880119e+00 3.331272e+00 3.478613e+00 3.949750e+00 3.735163e+00 3.021569e+00 2.830154e+00 3.223267e+00 2.599082e+00 2.228967e+00 2.311729e-01 3.609702e-01 5.194677e-01 4.899582e-01 6.330651e-01 6.345962e-01 7.296724e-01 6.836647e-01 5.572214e-01 5.315240e-01 6.147127e-01 4.914183e-01 3.406766e-01
<GCONST> 1.277902e+02
<STATE> 4
<MEAN> 39
 -4.951439e-02 2.820899e-01 2.747620e+00 -3.578868e-01 -6.049288e+00 -2.001276e+00 -7.518262e+00 1.349470e+00 -6.268229e+00 3.425282e-02 7.545311e-01 -5.489071e+00 5.996352e+01 -2.298058e-03 6.435613e-03 -7.727626e-03 2.939739e-03 -8.421513e-03 1.444031e-02 8.326892e-03 -7.021233e-03 -1.499947e-03 2.121307e-02 2.922714e-02 -4.483131e-03 -1.314726e-02 -1.831521e-03 -2.038735e-03 -1.457242e-03 -4.623511e-04 -7.049533e-04 6.592030e-04 3.035327e-03 2.964794e-04 -2.852138e-03 -8.097400e-04 3.097774e-04 -1.134793e-03 -8.652249e-04
<VARIANCE> 39
 2.482133e+01 5.344142e+01 7.500069e+01 6.076892e+01 5.980164e+01 6.525394e+01 6.575030e+01 5.775867e+01 6.455155e+01 5.159536e+01 4.813414e+01 4.569370e+01 7.346971e+01 1.412142e+00 2.299458e+00 2.913940e+00 2.823440e+00 3.465730e+00 3.523192e+00 3.658394e+00 3.744338e+00 3.212053e+00 2.857526e+00 3.126833e+00 2.497317e+00 2.230143e+00 2.502646e-01 3.598428e-01 4.949872e-01 4.800185e-01 6.414077e-01 6.440668e-01 6.803204e-01 6.890667e-01 5.950927e-01 5.388511e-01 5.960960e-01 4.691170e-01 3.404498e-01
<GCONST> 1.284110e+02
<TRANSP> 5
 0.000000e+00 1.000000e+00 0.000000e+00 0.000000e+00 0.000000e+00
 0.000000e+00 5.991639e-01 4.008361e-01 0.000000e+00 0.000000e+00
 0.000000e+00 0.000000e+00 5.991645e-01 4.008355e-01 0.000000e+00
 0.000000e+00 0.000000e+00 0.000000e+00 7.796045e-01 2.203955e-01
 0.000000e+00 0.000000e+00 0.000000e+00 0.000000e+00 0.000000e+00
<ENDHMM>
~h "k"
<BEGINHMM>
<NUMSTATES> 5
<STATE> 2
<MEAN> 39
 5.003099e-01 -1.102165e+00 4.400983e-01 -1.660417e+00 -5.681021e+00 -6.169133e-01 -6.785298e+00 3.355705e-01 -4.708821e+00 1.057741e-01 -3.896911e-01 -5.883253e+00 6.018394e+01 7.191033e-03 5.353206e-03 -1.286078e-03 -1.142515e-02 -1.710196e-02 -7.941667e-04 -6.670196e-03 -2.357632e-02 4.091209e-03 -1.061955e-02 3.329114e-03 1.787349e-03 2.910131e-02 -1.082392e-03 -8.996704e-04 4.769516e-03 -2.706323e-04 3.378527e-05 -9.845498e-04 3.695107e-04 -5.875382e-05 -3.197963e-03 5.742739e-04 -1.268707e-03 -3.691527e-04 1.597773e-03
<VARIANCE> 39
 2.489215e+01 5.099826e+01 6.649040e+01 6.591473e+01 6.289903e+01 6.862614e+01 5.862476e+01 5.865101e+01 5.591629e+01 4.561946e+01 4.656915e+01 4.736474e+01 5.799945e+01 1.416339e+00 2.441473e+00 2.765980e+00 3.493996e+00 3.432615e+00 3.201375e+00 3.418674e+00 3.784242e+00 3.379286e+00 2.978033e+00 3.030081e+00 2.657532e+00 2.403537e+00 2.430070e-01 3.891535e-01 4.520954e-01 5.919819e-01 6.329827e-01 5.736968e-01 6.297688e-01 7.049621e-01 6.223712e-01 5.634332e-01 5.686038e-01 4.938056e-01 3.642800e-01
<GCONST> 1.282339e+02
<STATE> 3
<MEAN> 39
 5.118354e-01 -1.087539e+00 4.555651e-01 -1.677442e+00 -5.715967e+00 -6.310891e-01 -6.800916e+00 2.856085e-01 -4.708303e+00 8.803344e-02 -3.906574e-01 -5.877082e+00 6.024834e+01 3.638667e-03 4.757413e-03 1.162081e-02 -1.066768e-02 -1.683171e-02 -4.772584e-03 -7.351592e-03 -2.054118e-02 -2.649972e-03 -8.111840e-03 7.286391e-04 2.015346e-04 2.956825e-02 -1.377531e-03 -9.942961e-05 5.753947e-03 3.291777e-04 5.651587e-04 -1.632368e-03 -7.814264e-04 2.023135e-03 -2.684752e-03 1.591499e-03 -9.520321e-04 -8.202599e-04 -2.339454e-04
<VARIANCE> 39
 2.518157e+01 5.110733e+01 6.653919e+01 6.595687e+01 6.279182e+01 6.888810e+01 5.890001e+01 5.903608e+01 5.617316e+01 4.563181e+01 4.661509e+01 4.738659e+01 5.790107e+01 1.433744e+00 2.441389e+00 2.768350e+00 3.475007e+00 3.457039e+00 3.218504e+00 3.435277e+00 3.788319e+00 3.384566e+00 2.978908e+00 3.034591e+00 2.652606e+00 2.376256e+00 2.451268e-01 3.891492e-01 4.521488e-01 5.916870e-01 6.359531e-01 5.785608e-01 6.318726e-01 7.058644e-01 6.225073e-01 5.643348e-01 5.678967e-01 4.920595e-01 3.624203e-01
<GCONST> 1.283008e+02
<STATE> 4
<MEAN> 39
 2.636487e-01 -6.306521e-01 5.360502e-01 -1.297885e+00 -5.650611e+00 -3.678269e-01 -6.519320e+00 4.615002e-01 -4.826255e+00 8.953065e-03 -4.618090e-01 -5.665816e+00 5.965548e+01 -1.910788e-03 6.233363e-03 2.313655e-02 -1.479492e-03 -1.402665e-02 -9.881286e-03 -9.849070e-03 -1.066965e-02 -2.807677e-03 -6.424475e-03 -9.360577e-04 -6.564632e-04 2.067556e-02 -1.596548e-03 4.582227e-04 4.408171e-03 1.494543e-03 2.788833e-04 -1.419295e-03 -1.572867e-03 2.489152e-03 -1.451812e-04 8.224474e-04 2.645820e-05 -5.973945e-04 -1.311727e-03
<VARIANCE> 39
 2.518547e+01 5.197956e+01 6.426330e+01 6.713507e+01 6.103505e+01 6.810873e+01 5.927676e+01 5.844944e+01 5.629634e+01 4.492096e+01 4.585453e+01 4.638479e+01 6.441834e+01 1.369768e+00 2.317939e+00 2.654080e+00 3.306502e+00 3.319920e+00 3.125914e+00 3.294785e+00 3.669394e+00 3.289434e+00 2.903443e+00 2.955527e+00 2.559010e+00 2.227806e+00 2.338106e-01 3.685134e-01 4.323283e-01 5.653698e-01 6.086517e-01 5.631735e-01 6.061750e-01 6.844455e-01 6.061963e-01 5.498746e-01 5.533396e-01 4.737940e-01 3.372054e-01
<GCONST> 1.272754e+02
<TRANSP> 5
 0.000000e+00 1.000000e+00 0.000000e+00 0.000000e+00 0.000000e+00
 0.000000e+00 5.974984e-01 4.025015e-01 0.000000e+00 0.000000e+00
 0.000000e+00 0.000000e+00 5.974961e-01 4.025040e-01 0.000000e+00
 0.000000e+00 0.000000e+00 0.000000e+00 7.310073e-01 2.689927e-01
 0.000000e+00 0.000000e+00 0.000000e+00 0.000000e+00 0.000000e+00
<ENDHMM>
~h "l"
<BEGINHMM>
<NUMSTATES> 5
<STATE> 2
<MEAN> 39
 4.537361e-01 -1.439375e+00 2.159123e+00 -2.048855e+00 -6.425783e+00 -9.284661e-01 -8.129789e+00 -6.618732e-02 -3.702001e+00 -7.173976e-02 -2.346092e-01 -6.843661e+00 6.146301e+01 -1.077269e-02 5.272370e-03 2.993020e-03 1.282249e-02 1.855858e-02 -8.704188e-03 9.755511e-04 -4.456938e-03 -6.033240e-03 -2.581069e-03 -8.956097e-03 -7.244470e-03 3.513487e-03 -2.228067e-03 3.765650e-03 -8.195800e-04 1.829759e-03 1.360307e-03 4.050424e-04 2.838609e-03 1.180291e-03 -3.248637e-04 -2.721950e-03 -1.517044e-03 1.625572e-03 -3.758578e-03
<VARIANCE> 39
 2.534091e+01 5.268052e+01 6.849440e+01 6.388527e+01 6.145343e+01 6.798766e+01 6.684007e+01 6.705729e+01 6.621750e+01 4.916769e+01 5.327675e+01 5.390403e+01 6.069325e+01 1.336547e+00 2.235110e+00 2.525248e+00 3.147435e+00 3.103878e+00 3.285478e+00 3.467764e+00 4.014421e+00 3.506184e+00 3.028861e+00 3.300800e+00 2.594444e+00 1.911566e+00 2.206590e-01 3.426381e-01 4.054177e-01 5.180102e-01 5.581698e-01 5.834545e-01 6.151670e-01 7.301025e-01 6.198223e-01 5.619902e-01 6.122077e-01 4.654262e-01 2.722175e-01
<GCONST> 1.277646e+02
<STATE> 3
<MEAN> 39
 4.239353e-01 -1.424397e+00 2.169739e+00 -2.008045e+00 -6.384992e+00 -9.521598e-01 -8.110338e+00 -6.674200e-02 -3.721372e+00 -9.167638e-02 -2.684727e-01 -6.855724e+00 6.146260e+01 -1.529833e-02 1.465595e-02 5.710893e-04 1.977683e-02 2.118064e-02 -5.612794e-03 8.670635e-03 -2.666023e-03 -7.769377e-03 -9.373615e-03 -1.275609e-02 -2.088493e-03 -7.859459e-03 -1.776126e-03 3.722711e-03 -1.294353e-03 2.472905e-03 8.522664e-04 6.057736e-04 2.574631e-03 1.206230e-03 -7.856486e-04 -3.067630e-03 -7.831925e-04 2.387196e-03 -4.467638e-03
<VARIANCE> 39
 2.548619e+01 5.267113e+01 6.790570e+01 6.337953e+01 6.121313e+01 6.825379e+01 6.688664e+01 6.689491e+01 6.615394e+01 4.877803e+01 5.380289e+01 5.348266e+01 6.042511e+01 1.352736e+00 2.238979e+00 2.519401e+00 3.134501e+00 3.097027e+00 3.268806e+00 3.472507e+00 3.974249e+00 3.480259e+00 3.006318e+00 3.304878e+00 2.584678e+00 1.908069e+00 2.234140e-01 3.435971e-01 4.050308e-01 5.182712e-01 5.583557e-01 5.803888e-01 6.186108e-01 7.228266e-01 6.156813e-01 5.575836e-01 6.149017e-01 4.638575e-01 2.724027e-01
<GCONST> 1.277050e+02
<STATE> 4
<MEAN> 39
 3.263052e-01 -1.306340e+00 2.113685e+00 -1.907501e+00 -6.268630e+00 -8.939224e-01 -8.015224e+00 -5.983794e-02 -3.654589e+00 -2.328426e-01 -3.680668e-01 -6.810005e+00 6.128419e+01 -1.758638e-02 2.430478e-02 -3.198785e-03 3.011585e-02 2.177996e-02 -1.245588e-04 1.707263e-02 7.432845e-04 -1.215253e-02 -1.776412e-02 -1.399877e-02 5.352871e-03 -2.420042e-02 -1.070727e-03 3.352187e-03 -1.547651e-03 2.785495e-03 7.049430e-04 9.911681e-04 1.684335e-03 1.022371e-03 -1.224649e-03 -2.437884e-03 6.200342e-04 2.488194e-03 -5.031814e-03
<VARIANCE> 39
 2.537735e+01 5.250381e+01 6.744183e+01 6.290063e+01 6.067583e+01 6.800835e+01 6.632980e+01 6.639679e+01 6.568378e+01 4.796166e+01 5.457900e+01 5.309385e+01 6.105466e+01 1.344154e+00 2.213740e+00 2.480903e+00 3.089894e+00 3.046104e+00 3.206364e+00 3.421209e+00 3.889657e+00 3.408674e+00 2.950906e+00 3.288221e+00 2.561818e+00 1.877821e+00 2.218636e-01 3.399295e-01 3.986841e-01 5.125844e-01 5.505888e-01 5.692415e-01 6.110917e-01 7.058738e-01 6.035872e-01 5.464400e-01 6.128047e-01 4.601042e-01 2.681008e-01
<GCONST> 1.272779e+02
<TRANSP> 5
 0.000000e+00 1.000000e+00 0.000000e+00 0.000000e+00 0.000000e+00
 0.000000e+00 5.953472e-01 4.046527e-01 0.000000e+00 0.000000e+00
 0.000000e+00 0.000000e+00 5.953432e-01 4.046568e-01 0.000000e+00
 0.000000e+00 0.000000e+00 0.000000e+00 7.012293e-01 2.987708e-01
 0.000000e+00 0.000000e+00 0.000000e+00 0.000000e+00 0.000000e+00
<ENDHMM>
~h "m"
<BEGINHMM>
<NUMSTATES> 5
<STATE> 2
<MEAN> 39
 9.379516e-01 -1.195573e+00 2.249072e+00 -1.160941e+00 -6.489008e+00 4.536085e-01 -7.193538e+00 -7.133182e-01 -5.367673e+00 -4.049879e-01 -4.325713e-01 -6.768844e+00 6.103772e+01 1.245033e-02 -1.414567e-02 3.817265e-03 -1.825542e-02 -1.034898e-02 -1.060792e-02 -4.946925e-03 1.313614e-02 -5.105969e-03 2.022269e-02 -9.554375e-05 -1.854423e-02 1.196452e-02 -3.141994e-03 9.050668e-04 -1.934380e-03 7.478597e-04 2.398806e-03 -1.757210e-03 8.707762e-04 2.601838e-03 1.925148e-03 -5.585922e-04 1.324651e-03 4.935296e-04 -1.905263e-03
<VARIANCE> 39
 2.728925e+01 5.276416e+01 6.608159e+01 5.753945e+01 6.770377e+01 6.979713e+01 5.885578e+01 6.184848e+01 6.208459e+01 4.575321e+01 4.713162e+01 4.827691e+01 5.538535e+01 1.400015e+00 2.254879e+00 2.648688e+00 3.051798e+00 3.143796e+00 3.316221e+00 3.281704e+00 4.003682e+00 3.720613e+00 2.922997e+00 3.008912e+00 2.479108e+00 1.900325e+00 2.313370e-01 3.570346e-01 4.343974e-01 5.245991e-01 5.595471e-01 5.730634e-01 5.954348e-01 7.267560e-01 6.627700e-01 5.507128e-01 5.637093e-01 4.583212e-01 2.861609e-01
<GCONST> 1.271864e+02
<STATE> 3
<MEAN> 39
 9.568948e-01 -1.222087e+00 2.256524e+00 -1.201452e+00 -6.512943e+00 4.282144e-01 -7.207373e+00 -6.873743e-01 -5.373368e+00 -3.578296e-01 -4.253391e-01 -6.805744e+00 6.105738e+01 4.234972e-03 -1.124830e-02 -1.525602e-04 -1.419133e-02 -6.454412e-03 -1.330328e-02 -3.432230e-03 1.799386e-02 5.681965e-04 1.715005e-02 3.885495e-03 -1.486300e-02 4.375931e-03 -3.756542e-03 1.208262e-03 -9.330540e-04 2.447186e-03 1.426647e-03 -1.394879e-03 1.505468e-03 1.872441e-03 2.015587e-03 -1.490544e-03 1.788719e-03 1.655777e-03 -2.931221e-03
<VARIANCE> 39
 2.715553e+01 5.294567e+01 6.597900e+01 5.755272e+01 6.750763e+01 6.993893e+01 5.881337e+01 6.249707e+01 6.171242e+01 4.601591e+01 4.726505e+01 4.841021e+01 5.529126e+01 1.393476e+00 2.259429e+00 2.642879e+00 3.058082e+00 3.152569e+00 3.309108e+00 3.268717e+00 4.015822e+00 3.711733e+00 2.930964e+00 3.018698e+00 2.474411e+00 1.893046e+00 2.295705e-01 3.576095e-01 4.328285e-01 5.254207e-01 5.608892e-01 5.740388e-01 5.939313e-01 7.283583e-01 6.610496e-01 5.520360e-01 5.651028e-01 4.587191e-01 2.859851e-01
<GCONST> 1.271889e+02
<STATE> 4
<MEAN> 39
 8.679693e-01 -1.145999e+00 2.226591e+00 -1.161170e+00 -6.411471e+00 4.275955e-01 -7.192157e+00 -6.066361e-01 -5.295354e+00 -3.934873e-01 -4.262460e-01 -6.752720e+00 6.089061e+01 -6.133007e-03 -6.449108e-03 -2.963629e-03 -5.228041e-03 -4.229212e-03 -1.710868e-02 1.087108e-03 2.117442e-02 8.034893e-03 1.287320e-02 9.521990e-03 -6.560396e-03 -6.197516e-03 -3.717201e-03 1.210770e-03 -3.862604e-04 3.386218e-03 9.345686e-04 -1.910703e-03 1.939826e-03 1.954128e-03 2.327922e-03 -1.393445e-03 1.419969e-03 2.282940e-03 -2.749590e-03
<VARIANCE> 39
 2.694733e+01 5.290496e+01 6.571848e+01 5.726239e+01 6.673584e+01 6.959271e+01 5.881696e+01 6.272987e+01 6.104507e+01 4.599005e+01 4.741767e+01 4.884991e+01 5.612269e+01 1.359857e+00 2.232343e+00 2.603784e+00 3.024045e+00 3.113307e+00 3.258311e+00 3.233264e+00 3.960789e+00 3.653917e+00 2.914125e+00 3.014901e+00 2.452940e+00 1.858881e+00 2.237971e-01 3.520136e-01 4.250409e-01 5.195667e-01 5.531901e-01 5.671508e-01 5.885492e-01 7.180198e-01 6.500909e-01 5.477558e-01 5.638160e-01 4.558053e-01 2.803999e-01
<GCONST> 1.268369e+02
<TRANSP> 5
 0.000000e+00 1.000000e+00 0.000000e+00 0.000000e+00 0.000000e+00
 0.000000e+00 5.943210e-01 4.056790e-01 0.000000e+00 0.000000e+00
 0.000000e+00 0.000000e+00 5.943211e-01 4.056788e-01 0.000000e+00
 0.000000e+00 0.000000e+00 0.000000e+00 7.010192e-01 2.989808e-01
 0.000000e+00 0.000000e+00 0.000000e+00 0.000000e+00 0.000000e+00
<ENDHMM>
~h "n"
<BEGINHMM>
<NUMSTATES> 5
<STATE> 2
<MEAN> 39
 4.761332e-01 -1.405909e+00 2.775009e+00 8.405173e-02 -6.757926e+00 -1.024536e+00 -7.248159e+00 4.319872e-01 -4.543162e+00 -3.208267e-01 -9.814893e-01 -6.707192e+00 6.054268e+01 -1.777160e-02 3.506046e-02 -1.626194e-02 1.574647e-02 1.418232e-02 5.942579e-03 5.559812e-03 7.436560e-03 1.267861e-02 -1.332758e-02 6.640385e-03 3.308000e-02 -4.332584e-02 8.154851e-05 1.764264e-04 -3.387463e-03 -1.739443e-03 9.178997e-04 1.214446e-03 -2.633001e-04 3.458167e-04 2.708294e-03 -2.123293e-04 1.710618e-03 8.191225e-04 -5.717549e-04
<VARIANCE> 39
 2.503674e+01 5.479243e+01 6.764866e+01 5.208226e+01 6.019123e+01 6.123979e+01 5.919197e+01 6.876157e+01 5.756288e+01 4.859198e+01 4.996088e+01 5.016695e+01 5.842772e+01 1.295087e+00 2.411696e+00 2.644058e+00 2.993527e+00 3.014896e+00 3.046422e+00 3.225186e+00 4.401916e+00 3.342463e+00 2.961116e+00 3.134373e+00 2.525180e+00 1.984806e+00 2.147547e-01 3.809065e-01 4.280666e-01 5.157228e-01 5.420420e-01 5.522292e-01 5.933612e-01 8.046007e-01 5.987525e-01 5.554119e-01 5.744177e-01 4.624193e-01 3.005690e-01
<GCONST> 1.269591e+02
<STATE> 3
<MEAN> 39
 4.344580e-01 -1.320843e+00 2.722551e+00 1.181469e-01 -6.723347e+00 -1.003309e+00 -7.230950e+00 4.509605e-01 -4.505062e+00 -3.499744e-01 -9.606512e-01 -6.623594e+00 6.043389e+01 -1.776158e-02 3.507391e-02 -2.481677e-02 1.178942e-02 1.612278e-02 8.157448e-03 6.761262e-03 7.492484e-03 1.811715e-02 -1.347529e-02 1.065888e-02 3.510845e-02 -4.498385e-02 2.135040e-04 -2.432482e-04 -3.411625e-03 -1.509575e-03 6.870803e-04 6.299205e-04 5.879832e-04 -2.807699e-04 1.479401e-03 5.255838e-04 1.314608e-03 3.388770e-04 -6.934500e-04
<VARIANCE> 39
 2.508386e+01 5.473603e+01 6.784928e+01 5.186610e+01 5.980837e+01 6.102154e+01 5.920661e+01 6.831770e+01 5.727699e+01 4.830354e+01 4.948586e+01 5.021170e+01 5.912313e+01 1.289397e+00 2.390151e+00 2.624564e+00 2.963326e+00 2.998199e+00 3.019673e+00 3.224029e+00 4.358265e+00 3.316121e+00 2.944894e+00 3.109778e+00 2.519066e+00 1.965983e+00 2.139307e-01 3.778332e-01 4.239684e-01 5.115164e-01 5.385828e-01 5.476315e-01 5.932654e-01 7.976636e-01 5.932474e-01 5.531134e-01 5.708103e-01 4.614580e-01 2.979410e-01
<GCONST> 1.267621e+02
<STATE> 4
<MEAN> 39
 2.626124e-01 -1.108318e+00 2.387519e+00 6.465775e-02 -6.466678e+00 -8.919703e-01 -6.916043e+00 5.537701e-01 -4.787506e+00 -3.176284e-01 -7.851452e-01 -6.431267e+00 6.014837e+01 -1.619448e-02 3.165532e-02 -3.287411e-02 7.740399e-03 1.556842e-02 9.467032e-03 1.040046e-02 5.902886e-03 1.785281e-02 -1.083167e-02 1.292327e-02 3.282275e-02 -4.392616e-02 1.211580e-04 -5.249848e-04 -2.368735e-03 -9.464159e-04 3.869738e-04 3.025363e-04 8.808376e-04 -2.829836e-04 -2.026242e-04 7.863137e-04 6.865071e-04 -3.437728e-04 -5.271654e-04
<VARIANCE> 39
 2.570146e+01 5.491496e+01 6.817677e+01 5.346075e+01 6.043970e+01 6.115069e+01 5.901617e+01 6.685897e+01 5.925109e+01 4.764799e+01 4.875006e+01 5.011296e+01 6.325930e+01 1.286336e+00 2.318121e+00 2.572013e+00 2.894912e+00 2.986950e+00 3.006077e+00 3.174007e+00 4.216849e+00 3.287360e+00 2.900246e+00 3.055044e+00 2.476558e+00 1.950353e+00 2.141898e-01 3.657042e-01 4.155987e-01 4.990924e-01 5.348321e-01 5.446790e-01 5.849931e-01 7.724071e-01 5.892159e-01 5.449139e-01 5.629375e-01 4.540948e-01 2.938427e-01
<GCONST> 1.264831e+02
<TRANSP> 5
 0.000000e+00 1.000000e+00 0.000000e+00 0.000000e+00 0.000000e+00
 0.000000e+00 5.932318e-01 4.067682e-01 0.000000e+00 0.000000e+00
 0.000000e+00 0.000000e+00 5.932319e-01 4.067680e-01 0.000000e+00
 0.000000e+00 0.000000e+00 0.000000e+00 7.182106e-01 2.817893e-01
 0.000000e+00 0.000000e+00 0.000000e+00 0.000000e+00 0.000000e+00
<ENDHMM>
~h "o"
<BEGINHMM>
<NUMSTATES> 5
<STATE> 2
<MEAN> 39
 8.490859e-01 -1.638743e-01 -4.989254e-01 -2.590533e+00 -6.292470e+00 1.278478e+00 -6.201410e+00 -8.019978e-02 -4.151808e+00 4.591832e-01 1.861235e-01 -5.354947e+00 5.953429e+01 1.030371e-02 -2.879724e-02 3.987212e-02 -5.980286e-02 -2.771104e-02 -1.405086e-02 -1.698015e-02 -5.321632e-03 -1.379213e-02 -7.532792e-03 1.599689e-03 -6.721296e-03 6.709807e-02 -6.215062e-03 7.811487e-04 6.188937e-03 9.526655e-03 1.487908e-03 -3.982696e-03 -2.549327e-03 1.152241e-03 3.359067e-03 -4.678774e-03 6.606690e-04 -1.369262e-03 -3.266769e-03
<VARIANCE> 39
 2.615623e+01 4.808826e+01 5.294400e+01 8.246604e+01 5.396090e+01 6.711872e+01 5.269498e+01 5.517795e+01 5.461052e+01 4.579667e+01 4.322586e+01 4.677470e+01 6.709097e+01 1.358211e+00 1.972605e+00 2.258512e+00 3.903986e+00 3.062937e+00 3.052114e+00 3.074220e+00 3.444791e+00 3.040646e+00 2.893879e+00 2.795504e+00 2.220658e+00 1.929936e+00 2.230323e-01 3.092179e-01 3.680040e-01 6.173748e-01 5.420225e-01 5.466472e-01 5.551851e-01 6.380128e-01 5.489335e-01 5.355421e-01 5.173478e-01 4.068627e-01 2.718237e-01
<GCONST> 1.249278e+02
<STATE> 3
<MEAN> 39
 8.456264e-01 -2.459926e-01 -3.611126e-01 -2.717220e+00 -6.357444e+00 1.218387e+00 -6.261479e+00 -8.604497e-02 -4.184762e+00 4.265026e-01 1.960456e-01 -5.394679e+00 5.970621e+01 -6.171272e-03 -2.881338e-02 5.279946e-02 -3.171768e-02 -2.274853e-02 -3.036252e-02 -2.270776e-02 2.474458e-03 -4.995080e-03 -1.664302e-02 1.874059e-03 -1.255926e-02 5.775469e-02 -6.009277e-03 7.072022e-04 3.885438e-03 1.070816e-02 2.072585e-03 -5.860361e-03 -1.143115e-03 2.938342e-03 2.605072e-03 -4.065888e-03 2.926674e-04 -7.294584e-04 -4.176791e-03
<VARIANCE> 39
 2.635145e+01 4.859044e+01 5.475539e+01 8.268571e+01 5.444307e+01 6.917236e+01 5.341505e+01 5.599278e+01 5.484899e+01 4.596915e+01 4.377481e+01 4.703142e+01 6.651342e+01 1.353793e+00 1.986357e+00 2.317180e+00 3.828598e+00 3.070644e+00 3.082747e+00 3.076605e+00 3.453878e+00 3.052510e+00 2.902322e+00 2.810707e+00 2.235585e+00 1.915436e+00 2.213720e-01 3.106027e-01 3.750530e-01 6.000264e-01 5.426707e-01 5.471775e-01 5.540004e-01 6.370882e-01 5.501148e-01 5.364714e-01 5.182680e-01 4.083362e-01 2.682037e-01
<GCONST> 1.250858e+02
<STATE> 4
<MEAN> 39
 4.749006e-01 1.416056e-01 2.370341e-01 -2.239332e+00 -6.293984e+00 9.650347e-01 -6.145251e+00 6.892054e-01 -5.690561e+00 7.381694e-01 3.890112e-01 -5.558140e+00 5.956024e+01 -1.728564e-02 -2.207545e-02 4.568074e-02 8.058981e-03 -1.032360e-02 -3.885017e-02 -1.649975e-02 9.922829e-03 -9.347749e-04 -1.558537e-02 1.315348e-03 -9.603756e-03 2.894495e-02 -2.744307e-03 2.045154e-04 1.473689e-03 7.676288e-03 1.153958e-03 -4.556413e-03 2.280629e-05 1.853965e-03 2.345933e-04 -2.023058e-03 -3.514314e-04 3.182780e-04 -2.896719e-03
<VARIANCE> 39
 2.722869e+01 5.186906e+01 6.087901e+01 8.367635e+01 5.731393e+01 7.212598e+01 5.219120e+01 5.668755e+01 5.939862e+01 4.520149e+01 4.221641e+01 4.540360e+01 7.842336e+01 1.343627e+00 1.912056e+00 2.458819e+00 3.364981e+00 3.152156e+00 3.231904e+00 2.944702e+00 3.574753e+00 3.143071e+00 2.881322e+00 2.768067e+00 2.213173e+00 1.906392e+00 2.238575e-01 2.969941e-01 3.948366e-01 5.453555e-01 5.677433e-01 5.770887e-01 5.346730e-01 6.619021e-01 5.808782e-01 5.424678e-01 5.141906e-01 4.066369e-01 2.755323e-01
<GCONST> 1.255844e+02
<TRANSP> 5
 0.000000e+00 1.000000e+00 0.000000e+00 0.000000e+00 0.000000e+00
 0.000000e+00 6.094654e-01 3.905346e-01 0.000000e+00 0.000000e+00
 0.000000e+00 0.000000e+00 6.094643e-01 3.905357e-01 0.000000e+00
 0.000000e+00 0.000000e+00 0.000000e+00 8.133128e-01 1.866873e-01
 0.000000e+00 0.000000e+00 0.000000e+00 0.000000e+00 0.000000e+00
<ENDHMM>
~h "p"
<BEGINHMM>
<NUMSTATES> 5
<STATE> 2
<MEAN> 39
 3.267406e-01 -9.215993e-01 8.284442e-01 -1.468917e+00 -5.436700e+00 -5.779138e-01 -7.193223e+00 2.429947e-01 -4.294328e+00 1.774758e-03 -5.073752e-01 -6.071881e+00 5.996008e+01 -5.902959e-04 1.832225e-03 7.251111e-02 -1.761576e-02 -4.066809e-02 -2.528017e-02 -2.302388e-02 -4.235684e-03 -3.337475e-02 2.591873e-04 6.776077e-03 -6.831895e-03 3.448464e-02 -3.392699e-03 2.198317e-03 4.083374e-03 3.159792e-03 -2.480517e-04 -2.413703e-03 2.310711e-03 3.224658e-04 -8.087238e-04 -2.388925e-03 6.097514e-04 4.553528e-03 -8.782913e-05
<VARIANCE> 39
 2.545271e+01 4.973478e+01 6.996665e+01 5.959480e+01 5.782354e+01 6.669289e+01 5.635809e+01 5.746319e+01 5.851447e+01 4.498322e+01 4.327876e+01 4.550308e+01 5.851743e+01 1.373271e+00 2.574407e+00 2.958661e+00 3.416965e+00 3.126188e+00 3.466062e+00 3.468115e+00 3.583758e+00 3.246578e+00 2.955250e+00 2.983461e+00 2.612540e+00 2.513147e+00 2.335404e-01 4.136280e-01 4.755841e-01 6.001621e-01 5.626481e-01 6.298255e-01 6.300626e-01 6.659701e-01 5.917827e-01 5.599188e-01 5.552382e-01 4.853207e-01 3.875763e-01
<GCONST> 1.278818e+02
<STATE> 3
<MEAN> 39
 3.177889e-01 -9.092324e-01 1.009033e+00 -1.499072e+00 -5.537763e+00 -6.409296e-01 -7.249682e+00 2.313714e-01 -4.368829e+00 -8.716822e-03 -4.851124e-01 -6.073193e+00 6.003817e+01 -6.271755e-03 4.588949e-03 7.902072e-02 -1.183909e-02 -4.294018e-02 -2.516969e-02 -1.879688e-02 -3.595721e-03 -3.267192e-02 -8.182906e-03 1.028375e-02 2.640855e-03 3.450845e-02 -1.939806e-03 1.361039e-04 2.058811e-03 2.085124e-03 -4.086617e-04 5.762264e-04 1.411383e-03 3.826286e-04 8.396955e-04 -3.785209e-03 1.600557e-03 4.008034e-03 3.654115e-04
<VARIANCE> 39
 2.563951e+01 4.977088e+01 7.143687e+01 5.977936e+01 5.837492e+01 6.674515e+01 5.656120e+01 5.803455e+01 5.938682e+01 4.578466e+01 4.355760e+01 4.549019e+01 5.826094e+01 1.381500e+00 2.563144e+00 3.000290e+00 3.410851e+00 3.150291e+00 3.456676e+00 3.472047e+00 3.597328e+00 3.259597e+00 2.978996e+00 3.004260e+00 2.608461e+00 2.476750e+00 2.348847e-01 4.114052e-01 4.814645e-01 6.004186e-01 5.659330e-01 6.292257e-01 6.309438e-01 6.670299e-01 5.931859e-01 5.645521e-01 5.597935e-01 4.846144e-01 3.832934e-01
<GCONST> 1.280253e+02
<STATE> 4
<MEAN> 39
 2.349382e-01 -8.056229e-01 1.206766e+00 -1.503591e+00 -5.613105e+00 -6.211207e-01 -7.276601e+00 2.407679e-01 -4.363891e+00 -1.201507e-01 -4.809287e-01 -5.953043e+00 5.997130e+01 -7.530265e-03 1.459515e-04 7.481660e-02 -4.629303e-03 -4.254452e-02 -1.785172e-02 -1.652469e-02 -1.640285e-03 -2.390863e-02 -2.118334e-02 1.314869e-02 1.017754e-02 3.237939e-02 1.274496e-04 -2.614854e-03 -5.331685e-04 1.886540e-03 1.950991e-04 1.661146e-03 -4.570764e-04 3.707866e-04 2.398691e-03 -4.018781e-03 8.119788e-04 2.114713e-03 4.314270e-04
<VARIANCE> 39
 2.569303e+01 4.991853e+01 7.316857e+01 5.977208e+01 5.858989e+01 6.657795e+01 5.674902e+01 5.798745e+01 5.947583e+01 4.652052e+01 4.396374e+01 4.607583e+01 5.896058e+01 1.358498e+00 2.507497e+00 2.976988e+00 3.357897e+00 3.129697e+00 3.378645e+00 3.431084e+00 3.554147e+00 3.216150e+00 2.965473e+00 3.005883e+00 2.587197e+00 2.401844e+00 2.307846e-01 3.998432e-01 4.756313e-01 5.912031e-01 5.610548e-01 6.153136e-01 6.239040e-01 6.566721e-01 5.837422e-01 5.613444e-01 5.605044e-01 4.794805e-01 3.705702e-01
<GCONST> 1.277408e+02
<TRANSP> 5
 0.000000e+00 1.000000e+00 0.000000e+00 0.000000e+00 0.000000e+00
 0.000000e+00 5.958918e-01 4.041083e-01 0.000000e+00 0.000000e+00
 0.000000e+00 0.000000e+00 5.958934e-01 4.041066e-01 0.000000e+00
 0.000000e+00 0.000000e+00 0.000000e+00 7.035770e-01 2.964230e-01
 0.000000e+00 0.000000e+00 0.000000e+00 0.000000e+00 0.000000e+00
<ENDHMM>
~h "r"
<BEGINHMM>
<NUMSTATES> 5
<STATE> 2
<MEAN> 39
 5.730512e-01 -1.711884e+00 1.486161e+00 -4.277565e-01 -6.020200e+00 -1.542694e+00 -7.543106e+00 5.060736e-01 -3.751803e+00 -2.419808e-01 -3.821275e-01 -6.786745e+00 6.117821e+01 -1.371969e-02 1.726400e-02 1.435180e-02 -2.253453e-03 5.997545e-03 2.281081e-02 1.723679e-02 -3.800206e-04 -1.086123e-02 -1.527117e-02 -8.270753e-03 1.793981e-02 -2.020026e-02 -2.059784e-03 2.852828e-03 -1.948539e-03 -5.648525e-04 1.648814e-03 3.023899e-03 2.194188e-03 5.553702e-04 -4.389423e-04 -1.568549e-03 4.526871e-04 1.804498e-03 -3.840465e-03
<VARIANCE> 39
 2.767876e+01 5.539951e+01 6.926386e+01 5.383213e+01 6.009867e+01 6.468378e+01 5.888398e+01 6.580472e+01 6.356713e+01 4.827933e+01 4.889904e+01 4.886776e+01 5.741026e+01 1.501569e+00 2.538360e+00 2.628336e+00 3.126981e+00 3.196737e+00 3.211325e+00 3.247412e+00 4.016147e+00 3.469926e+00 2.927355e+00 3.188927e+00 2.657009e+00 2.147375e+00 2.476688e-01 3.934589e-01 4.154269e-01 5.480667e-01 5.739606e-01 5.754421e-01 5.870034e-01 7.267702e-01 6.157902e-01 5.497879e-01 5.977956e-01 4.935388e-01 3.275622e-01
<GCONST> 1.279953e+02
<STATE> 3
<MEAN> 39
 5.349904e-01 -1.666919e+00 1.516112e+00 -4.343275e-01 -6.006257e+00 -1.480069e+00 -7.500719e+00 5.057386e-01 -3.778698e+00 -2.833620e-01 -3.994909e-01 -6.740788e+00 6.112232e+01 -1.720394e-02 2.400373e-02 9.389760e-03 -1.768766e-03 8.684501e-03 2.772288e-02 2.121741e-02 5.527838e-04 -1.338755e-02 -1.904617e-02 -7.101657e-03 2.054783e-02 -2.921860e-02 -1.152514e-03 2.960610e-03 -2.405408e-03 2.541458e-04 7.479537e-04 1.177909e-03 1.151127e-03 3.531610e-04 -9.233947e-04 -1.653632e-03 7.468791e-04 7.459795e-04 -3.496460e-03
<VARIANCE> 39
 2.785690e+01 5.534534e+01 6.907375e+01 5.404058e+01 6.006956e+01 6.456898e+01 5.891307e+01 6.520408e+01 6.373734e+01 4.825809e+01 4.882544e+01 4.878856e+01 5.744502e+01 1.492772e+00 2.520406e+00 2.610589e+00 3.099624e+00 3.181938e+00 3.207564e+00 3.238504e+00 3.983988e+00 3.456585e+00 2.918720e+00 3.171493e+00 2.639265e+00 2.119787e+00 2.461635e-01 3.903413e-01 4.121662e-01 5.418169e-01 5.709944e-01 5.737714e-01 5.851129e-01 7.204138e-01 6.135882e-01 5.481021e-01 5.942547e-01 4.893199e-01 3.233740e-01
<GCONST> 1.278260e+02
<STATE> 4
<MEAN> 39
 3.135481e-01 -1.102728e+00 1.402388e+00 -5.419385e-01 -5.964128e+00 -8.908714e-01 -7.089017e+00 7.946094e-01 -4.770322e+00 -7.656872e-03 -1.462857e-01 -6.569849e+00 6.061712e+01 -1.417395e-02 2.371151e-02 2.500722e-03 1.358615e-03 6.225407e-03 2.224165e-02 1.797853e-02 2.272130e-04 -1.334578e-02 -1.679203e-02 -4.526037e-03 1.648658e-02 -2.958766e-02 -1.035451e-04 1.871488e-03 -1.840314e-03 9.306388e-04 -1.585411e-04 -1.284067e-04 -4.608402e-05 -1.108107e-04 -5.392407e-04 -4.730964e-04 3.500724e-04 5.208406e-04 -2.348975e-03
<VARIANCE> 39
 2.809506e+01 5.640777e+01 6.743375e+01 6.006477e+01 6.075646e+01 6.703670e+01 5.758424e+01 6.283113e+01 6.631050e+01 4.760831e+01 4.651767e+01 4.791607e+01 6.782999e+01 1.469426e+00 2.358790e+00 2.600179e+00 3.020946e+00 3.222686e+00 3.283507e+00 3.148946e+00 3.922342e+00 3.426811e+00 2.913436e+00 3.056878e+00 2.536906e+00 2.084633e+00 2.450680e-01 3.647775e-01 4.140956e-01 5.261900e-01 5.835881e-01 5.924324e-01 5.726776e-01 7.150058e-01 6.185875e-01 5.523426e-01 5.739359e-01 4.704037e-01 3.186069e-01
<GCONST> 1.276819e+02
<TRANSP> 5
 0.000000e+00 1.000000e+00 0.000000e+00 0.000000e+00 0.000000e+00
 0.000000e+00 5.938945e-01 4.061055e-01 0.000000e+00 0.000000e+00
 0.000000e+00 0.000000e+00 5.938918e-01 4.061082e-01 0.000000e+00
 0.000000e+00 0.000000e+00 0.000000e+00 7.575364e-01 2.424636e-01
 0.000000e+00 0.000000e+00 0.000000e+00 0.000000e+00 0.000000e+00
<ENDHMM>
~h "s"
<BEGINHMM>
<NUMSTATES> 5
<STATE> 2
<MEAN> 39
 -1.986154e+00 1.940649e-01 2.266946e+00 -1.066730e+00 -4.728797e+00 -2.949101e+00 -6.736870e+00 1.567838e-01 -3.859294e+00 -1.142161e+00 -3.330844e-01 -5.571087e+00 6.109826e+01 2.321832e-02 -2.335397e-02 9.363500e-03 8.532087e-03 -2.568091e-02 -3.005879e-03 -1.055344e-02 1.082604e-02 -6.294475e-03 -3.195906e-04 -3.001491e-03 -2.799671e-03 -7.403806e-04 7.979127e-03 -4.676524e-03 -6.098614e-04 1.022878e-03 -5.683035e-03 5.200355e-03 -2.642489e-04 1.032067e-03 -1.042428e-03 2.648317e-03 -5.496905e-04 -1.254483e-03 -1.735255e-03
<VARIANCE> 39
 4.591215e+01 5.659064e+01 7.178844e+01 4.811087e+01 6.888651e+01 6.936182e+01 6.316909e+01 5.992164e+01 6.005164e+01 4.470710e+01 4.520093e+01 4.456038e+01 5.653842e+01 2.574529e+00 2.785826e+00 2.765544e+00 2.748884e+00 3.614166e+00 3.234678e+00 3.650067e+00 3.658336e+00 3.223300e+00 2.818015e+00 2.933495e+00 2.550705e+00 1.878041e+00 3.909302e-01 4.277091e-01 4.366394e-01 4.812420e-01 6.124536e-01 5.696367e-01 6.547316e-01 6.690525e-01 5.769304e-01 5.285274e-01 5.473151e-01 4.678706e-01 2.809414e-01
<GCONST> 1.287877e+02
<STATE> 3
<MEAN> 39
 -1.906016e+00 1.196649e-01 2.289924e+00 -1.047259e+00 -4.802487e+00 -2.946471e+00 -6.762500e+00 1.923788e-01 -3.876956e+00 -1.134763e+00 -3.435509e-01 -5.580076e+00 6.109574e+01 4.100220e-02 -3.157284e-02 6.146705e-03 1.148227e-02 -3.563289e-02 1.033641e-02 -1.058870e-02 1.321730e-02 -8.458467e-03 6.328594e-03 -4.361591e-03 -4.044272e-03 -6.329152e-03 6.777551e-03 -2.871938e-03 -1.682076e-03 1.489960e-03 -3.627560e-03 5.397781e-03 2.002054e-04 7.736855e-04 -6.293730e-04 2.885113e-03 -7.255768e-04 -4.282094e-04 -2.505714e-03
<VARIANCE> 39
 4.515507e+01 5.632402e+01 7.195213e+01 4.798984e+01 6.845113e+01 6.915357e+01 6.295346e+01 6.026738e+01 6.023502e+01 4.461058e+01 4.544667e+01 4.433076e+01 5.667898e+01 2.534486e+00 2.771246e+00 2.758174e+00 2.736113e+00 3.583226e+00 3.232199e+00 3.618953e+00 3.654607e+00 3.214653e+00 2.791155e+00 2.926771e+00 2.534658e+00 1.882033e+00 3.852540e-01 4.263709e-01 4.353573e-01 4.781125e-01 6.072001e-01 5.702603e-01 6.502661e-01 6.656318e-01 5.759144e-01 5.238142e-01 5.457043e-01 4.648204e-01 2.813967e-01
<GCONST> 1.286314e+02
<STATE> 4
<MEAN> 39
 -1.552779e+00 -1.222694e-02 1.862327e+00 -1.055969e+00 -4.834809e+00 -2.469909e+00 -6.424577e+00 5.460456e-01 -4.721027e+00 -7.253906e-01 -1.589434e-01 -5.625123e+00 6.071869e+01 4.620053e-02 -2.876990e-02 1.963659e-05 1.334170e-02 -3.391124e-02 2.153279e-02 -8.877867e-03 1.223859e-02 -9.949999e-03 1.149433e-02 -3.302210e-03 -4.557602e-03 -1.279871e-02 3.335207e-03 -3.763577e-04 -1.855195e-03 1.427767e-03 -1.191411e-03 4.222431e-03 -2.232293e-06 4.126008e-04 -3.945606e-04 2.008322e-03 -7.714919e-05 -2.706197e-04 -2.737480e-03
<VARIANCE> 39
 4.155378e+01 5.640264e+01 7.057480e+01 5.349849e+01 6.657728e+01 6.995651e+01 6.077843e+01 5.933017e+01 6.454974e+01 4.427390e+01 4.473368e+01 4.367440e+01 6.716128e+01 2.252669e+00 2.604963e+00 2.658857e+00 2.779696e+00 3.442931e+00 3.216458e+00 3.403798e+00 3.647243e+00 3.204587e+00 2.745873e+00 2.889037e+00 2.430994e+00 1.940187e+00 3.468481e-01 4.021675e-01 4.228728e-01 4.765393e-01 5.880060e-01 5.691739e-01 6.160503e-01 6.660647e-01 5.800971e-01 5.170341e-01 5.416214e-01 4.473149e-01 2.887042e-01
<GCONST> 1.281107e+02
<TRANSP> 5
 0.000000e+00 1.000000e+00 0.000000e+00 0.000000e+00 0.000000e+00
 0.000000e+00 5.979058e-01 4.020941e-01 0.000000e+00 0.000000e+00
 0.000000e+00 0.000000e+00 5.979023e-01 4.020977e-01 0.000000e+00
 0.000000e+00 0.000000e+00 0.000000e+00 7.493480e-01 2.506519e-01
 0.000000e+00 0.000000e+00 0.000000e+00 0.000000e+00 0.000000e+00
<ENDHMM>
~h "t"
<BEGINHMM>
<NUMSTATES> 5
<STATE> 2
<MEAN> 39
 7.393976e-02 -4.381316e-01 1.210292e+00 -1.189402e+00 -5.583597e+00 -9.049801e-01 -7.267056e+00 2.575586e-01 -4.052598e+00 -1.258883e-01 -3.823070e-01 -5.751124e+00 5.977227e+01 1.431646e-03 -1.835324e-02 -2.851312e-03 4.450568e-03 1.838398e-03 7.244599e-03 -6.173462e-04 1.231269e-02 6.656589e-03 -4.336752e-04 -5.471835e-03 5.709859e-03 4.463489e-03 8.026441e-04 -1.061142e-04 -1.457374e-03 1.228273e-03 2.281591e-04 2.071095e-03 2.341182e-04 1.510302e-05 6.319311e-04 -7.866293e-04 3.983724e-04 -9.250173e-04 -8.483094e-04
<VARIANCE> 39
 2.468431e+01 5.019832e+01 6.501118e+01 5.843875e+01 5.379600e+01 6.552283e+01 5.706556e+01 6.032759e+01 5.943431e+01 4.572438e+01 4.596524e+01 4.613216e+01 6.069810e+01 1.375971e+00 2.374523e+00 2.603435e+00 3.197240e+00 3.027802e+00 3.335132e+00 3.455318e+00 3.609092e+00 3.281286e+00 2.845340e+00 2.934963e+00 2.602878e+00 2.449113e+00 2.349683e-01 3.756995e-01 4.131266e-01 5.435063e-01 5.514520e-01 6.092665e-01 6.385590e-01 6.667359e-01 5.998750e-01 5.407668e-01 5.463135e-01 4.842324e-01 3.740010e-01
<GCONST> 1.270234e+02
<STATE> 3
<MEAN> 39
 7.668806e-02 -4.747681e-01 1.195883e+00 -1.163324e+00 -5.576463e+00 -8.800467e-01 -7.261138e+00 2.890510e-01 -4.033967e+00 -1.378459e-01 -4.033521e-01 -5.733941e+00 5.976712e+01 9.103791e-04 -1.693951e-02 -6.507947e-03 9.539270e-03 3.860199e-03 1.057380e-02 1.929564e-03 1.127892e-02 9.609300e-03 -5.213716e-03 -5.488906e-03 6.806369e-03 -2.091831e-04 -1.810912e-04 8.238321e-04 -1.115926e-03 2.088159e-03 1.655493e-04 1.707741e-03 3.195617e-04 -6.870502e-04 1.376320e-03 -1.944720e-03 3.061349e-04 4.478469e-04 -2.218167e-03
<VARIANCE> 39
 2.447929e+01 5.066335e+01 6.495837e+01 5.842194e+01 5.360652e+01 6.509962e+01 5.686933e+01 6.029189e+01 5.949843e+01 4.568612e+01 4.582292e+01 4.600484e+01 6.125811e+01 1.364706e+00 2.363006e+00 2.588135e+00 3.178385e+00 3.011074e+00 3.309203e+00 3.436445e+00 3.590945e+00 3.278679e+00 2.831558e+00 2.932650e+00 2.580057e+00 2.426264e+00 2.328262e-01 3.743084e-01 4.107672e-01 5.398195e-01 5.489304e-01 6.043032e-01 6.344905e-01 6.625574e-01 5.995271e-01 5.373333e-01 5.456707e-01 4.791767e-01 3.711732e-01
<GCONST> 1.268623e+02
<STATE> 4
<MEAN> 39
 -3.334062e-02 -3.065926e-01 1.078757e+00 -9.965051e-01 -5.419824e+00 -5.990316e-01 -6.885004e+00 7.161208e-01 -4.569052e+00 -8.112854e-02 -4.381298e-01 -5.595550e+00 5.952852e+01 -2.267738e-03 -1.060922e-02 -8.225186e-03 1.568884e-02 5.471944e-03 9.929325e-03 5.169577e-03 8.937165e-03 1.410359e-02 -8.929786e-03 -6.779538e-03 9.637443e-03 -8.086387e-03 -4.729508e-04 1.308481e-03 3.602682e-05 2.026261e-03 -2.648364e-04 7.185242e-04 -1.973468e-04 -4.778015e-04 1.612195e-03 -1.182481e-03 -2.865832e-04 6.157811e-04 -2.129869e-03
<VARIANCE> 39
 2.472756e+01 5.264176e+01 6.398576e+01 6.205444e+01 5.420647e+01 6.533735e+01 5.506480e+01 6.003900e+01 6.170250e+01 4.443722e+01 4.445747e+01 4.449765e+01 6.910299e+01 1.349455e+00 2.264973e+00 2.542032e+00 3.093298e+00 2.999751e+00 3.232310e+00 3.265098e+00 3.548116e+00 3.246076e+00 2.770927e+00 2.857069e+00 2.462988e+00 2.308658e+00 2.306397e-01 3.553711e-01 4.040599e-01 5.259089e-01 5.448780e-01 5.876874e-01 6.026472e-01 6.552302e-01 5.961197e-01 5.255470e-01 5.341834e-01 4.566370e-01 3.491933e-01
<GCONST> 1.262966e+02
<TRANSP> 5
 0.000000e+00 1.000000e+00 0.000000e+00 0.000000e+00 0.000000e+00
 0.000000e+00 5.965403e-01 4.034596e-01 0.000000e+00 0.000000e+00
 0.000000e+00 0.000000e+00 5.965399e-01 4.034601e-01 0.000000e+00
 0.000000e+00 0.000000e+00 0.000000e+00 7.438278e-01 2.561723e-01
 0.000000e+00 0.000000e+00 0.000000e+00 0.000000e+00 0.000000e+00
<ENDHMM>
~h "u"
<BEGINHMM>
<NUMSTATES> 5
<STATE> 2
<MEAN> 39
 7.085997e-01 2.210925e-01 1.686805e+00 -1.522170e+00 -6.098366e+00 -1.132537e-01 -8.553511e+00 -9.460539e-01 -5.020844e+00 -1.762172e-01 2.979952e-01 -5.610840e+00 6.008147e+01 -1.135989e-02 -1.773591e-02 -1.079281e-02 2.630276e-02 5.165798e-03 -9.452904e-03 1.441573e-02 1.810794e-02 1.658767e-02 1.650765e-03 -8.882792e-03 -8.301647e-03 -9.962256e-04 -1.327358e-03 4.205724e-04 1.022585e-03 3.246127e-03 5.724936e-05 -9.294087e-04 4.178230e-03 1.794638e-03 8.311446e-04 -1.565642e-03 -2.296273e-03 -2.108097e-05 -2.310363e-03
<VARIANCE> 39
 2.734160e+01 4.912039e+01 6.328091e+01 6.322411e+01 6.160956e+01 6.440075e+01 6.740516e+01 6.343726e+01 5.791989e+01 4.728786e+01 5.038411e+01 4.630835e+01 5.589353e+01 1.486132e+00 2.269209e+00 2.528888e+00 3.357748e+00 3.275212e+00 3.275941e+00 3.749621e+00 3.786580e+00 3.376912e+00 3.058575e+00 3.245376e+00 2.595503e+00 1.997158e+00 2.467027e-01 3.617761e-01 4.136135e-01 5.733636e-01 5.891838e-01 5.897847e-01 6.810798e-01 6.929104e-01 6.195323e-01 5.773719e-01 6.072925e-01 4.803295e-01 3.011626e-01
<GCONST> 1.279296e+02
<STATE> 3
<MEAN> 39
 6.749184e-01 1.743968e-01 1.657183e+00 -1.440920e+00 -6.090546e+00 -1.333762e-01 -8.496979e+00 -8.949139e-01 -4.971960e+00 -1.801368e-01 2.689253e-01 -5.627611e+00 6.006598e+01 -1.392743e-02 -1.699155e-02 -8.636235e-03 3.215091e-02 4.310477e-03 -9.955477e-03 2.336215e-02 2.121887e-02 1.866276e-02 -2.155051e-03 -1.327020e-02 -8.638196e-03 -5.837301e-03 -1.030189e-03 3.671448e-04 1.218246e-03 2.093650e-03 -5.017114e-04 -2.420150e-04 3.367688e-03 1.680018e-03 5.747609e-04 -1.248617e-03 -1.821325e-03 -3.270677e-04 -1.966771e-03
<VARIANCE> 39
 2.741581e+01 4.922657e+01 6.276806e+01 6.254274e+01 6.149408e+01 6.451746e+01 6.711678e+01 6.378576e+01 5.753849e+01 4.719907e+01 5.019576e+01 4.654174e+01 5.631587e+01 1.476725e+00 2.275976e+00 2.516355e+00 3.294586e+00 3.259202e+00 3.261302e+00 3.724213e+00 3.789376e+00 3.356755e+00 3.040441e+00 3.231722e+00 2.595215e+00 1.985910e+00 2.451312e-01 3.623468e-01 4.114771e-01 5.631186e-01 5.868992e-01 5.870126e-01 6.778091e-01 6.923594e-01 6.154991e-01 5.750160e-01 6.041351e-01 4.806448e-01 2.998560e-01
<GCONST> 1.277905e+02
<STATE> 4
<MEAN> 39
 4.053095e-01 1.883079e-01 1.380419e+00 -1.251180e+00 -5.850554e+00 -1.527570e-01 -7.756145e+00 -4.662054e-01 -5.486446e+00 4.585475e-03 2.859831e-01 -5.591130e+00 5.973152e+01 -1.413194e-02 -1.408041e-02 -7.701999e-03 3.086302e-02 2.591902e-03 -5.689805e-03 2.903564e-02 2.129092e-02 1.839652e-02 -5.860024e-03 -1.457265e-02 -6.930793e-03 -1.035656e-02 -4.931062e-04 8.369033e-05 4.569750e-04 5.577416e-04 -1.913455e-04 1.365830e-05 2.222148e-03 1.350198e-03 8.219793e-05 -5.442231e-04 -9.212862e-04 -1.162067e-05 -1.312115e-03
<VARIANCE> 39
 2.778990e+01 5.028981e+01 6.170432e+01 6.404054e+01 6.122446e+01 6.531960e+01 6.774185e+01 6.328414e+01 6.013831e+01 4.658854e+01 4.897178e+01 4.674580e+01 6.371133e+01 1.443936e+00 2.223282e+00 2.459508e+00 3.144523e+00 3.213541e+00 3.225260e+00 3.540791e+00 3.736414e+00 3.308321e+00 2.970971e+00 3.136367e+00 2.515874e+00 1.973287e+00 2.418107e-01 3.521277e-01 4.033127e-01 5.358639e-01 5.779645e-01 5.811548e-01 6.479545e-01 6.846272e-01 6.087233e-01 5.634046e-01 5.879499e-01 4.664547e-01 2.971555e-01
<GCONST> 1.273742e+02
<TRANSP> 5
 0.000000e+00 1.000000e+00 0.000000e+00 0.000000e+00 0.000000e+00
 0.000000e+00 5.992775e-01 4.007225e-01 0.000000e+00 0.000000e+00
 0.000000e+00 0.000000e+00 5.992789e-01 4.007211e-01 0.000000e+00
 0.000000e+00 0.000000e+00 0.000000e+00 7.437665e-01 2.562335e-01
 0.000000e+00 0.000000e+00 0.000000e+00 0.000000e+00 0.000000e+00
<ENDHMM>
~h "v"
<BEGINHMM>
<NUMSTATES> 5
<STATE> 2
<MEAN> 39
 7.903662e-04 -6.079456e-01 1.670089e+00 -6.705837e-01 -5.929818e+00 -8.820225e-01 -6.906881e+00 5.931143e-01 -4.574426e+00 -3.940755e-01 -3.854154e-01 -5.847453e+00 5.993814e+01 5.024984e-04 -6.478592e-05 9.522401e-04 -6.048587e-04 -1.305029e-03 -9.148303e-04 -9.999124e-04 -6.995694e-04 3.150678e-04 8.832195e-04 -1.229102e-04 -1.829845e-05 4.304752e-04 -1.024714e-04 5.090495e-05 -4.314321e-05 5.499199e-04 2.475645e-04 2.544455e-04 -3.161734e-04 -1.009587e-04 -7.179174e-05 -5.594532e-04 -1.336834e-04 -6.698545e-06 -3.952787e-04
<VARIANCE> 39
 2.681136e+01 5.325134e+01 6.824250e+01 5.887592e+01 6.062508e+01 6.608533e+01 5.928268e+01 6.068991e+01 5.916120e+01 4.597362e+01 4.705821e+01 4.804106e+01 6.619385e+01 1.372020e+00 2.288023e+00 2.566274e+00 2.987463e+00 3.078158e+00 3.116328e+00 3.250192e+00 3.738113e+00 3.266875e+00 2.829993e+00 2.967949e+00 2.476121e+00 2.021681e+00 2.264445e-01 3.584008e-01 4.122588e-01 5.086471e-01 5.519696e-01 5.562619e-01 5.942494e-01 6.847889e-01 5.904057e-01 5.307208e-01 5.528100e-01 4.553457e-01 3.018115e-01
<GCONST> 1.265182e+02
<STATE> 3
<MEAN> 39
 7.903662e-04 -6.079456e-01 1.670089e+00 -6.705837e-01 -5.929818e+00 -8.820225e-01 -6.906881e+00 5.931143e-01 -4.574426e+00 -3.940755e-01 -3.854154e-01 -5.847453e+00 5.993814e+01 5.024984e-04 -6.478592e-05 9.522401e-04 -6.048587e-04 -1.305029e-03 -9.148303e-04 -9.999124e-04 -6.995694e-04 3.150678e-04 8.832195e-04 -1.229102e-04 -1.829845e-05 4.304752e-04 -1.024714e-04 5.090495e-05 -4.314321e-05 5.499199e-04 2.475645e-04 2.544455e-04 -3.161734e-04 -1.009587e-04 -7.179174e-05 -5.594532e-04 -1.336834e-04 -6.698545e-06 -3.952787e-04
<VARIANCE> 39
 2.681136e+01 5.325134e+01 6.824250e+01 5.887592e+01 6.062508e+01 6.608533e+01 5.928268e+01 6.068991e+01 5.916120e+01 4.597362e+01 4.705821e+01 4.804106e+01 6.619385e+01 1.372020e+00 2.288023e+00 2.566274e+00 2.987463e+00 3.078158e+00 3.116328e+00 3.250192e+00 3.738113e+00 3.266875e+00 2.829993e+00 2.967949e+00 2.476121e+00 2.021681e+00 2.264445e-01 3.584008e-01 4.122588e-01 5.086471e-01 5.519696e-01 5.562619e-01 5.942494e-01 6.847889e-01 5.904057e-01 5.307208e-01 5.528100e-01 4.553457e-01 3.018115e-01
<GCONST> 1.265182e+02
<STATE> 4
<MEAN> 39
 7.903662e-04 -6.079456e-01 1.670089e+00 -6.705837e-01 -5.929818e+00 -8.820225e-01 -6.906881e+00 5.931143e-01 -4.574426e+00 -3.940755e-01 -3.854154e-01 -5.847453e+00 5.993814e+01 5.024984e-04 -6.478592e-05 9.522401e-04 -6.048587e-04 -1.305029e-03 -9.148303e-04 -9.999124e-04 -6.995694e-04 3.150678e-04 8.832195e-04 -1.229102e-04 -1.829845e-05 4.304752e-04 -1.024714e-04 5.090495e-05 -4.314321e-05 5.499199e-04 2.475645e-04 2.544455e-04 -3.161734e-04 -1.009587e-04 -7.179174e-05 -5.594532e-04 -1.336834e-04 -6.698545e-06 -3.952787e-04
<VARIANCE> 39
 2.681136e+01 5.325134e+01 6.824250e+01 5.887592e+01 6.062508e+01 6.608533e+01 5.928268e+01 6.068991e+01 5.916120e+01 4.597362e+01 4.705821e+01 4.804106e+01 6.619385e+01 1.372020e+00 2.288023e+00 2.566274e+00 2.987463e+00 3.078158e+00 3.116328e+00 3.250192e+00 3.738113e+00 3.266875e+00 2.829993e+00 2.967949e+00 2.476121e+00 2.021681e+00 2.264445e-01 3.584008e-01 4.122588e-01 5.086471e-01 5.519696e-01 5.562619e-01 5.942494e-01 6.847889e-01 5.904057e-01 5.307208e-01 5.528100e-01 4.553457e-01 3.018115e-01
<GCONST> 1.265182e+02
<TRANSP> 5
 0.000000e+00 1.000000e+00 0.000000e+00 0.000000e+00 0.000000e+00
 0.000000e+00 6.000000e-01 4.000000e-01 0.000000e+00 0.000000e+00
 0.000000e+00 0.000000e+00 6.000000e-01 4.000000e-01 0.000000e+00
 0.000000e+00 0.000000e+00 0.000000e+00 7.000000e-01 3.000000e-01
 0.000000e+00 0.000000e+00 0.000000e+00 0.000000e+00 0.000000e+00
<ENDHMM>
~h "w"
<BEGINHMM>
<NUMSTATES> 5
<STATE> 2
<MEAN> 39
 2.692614e-01 -8.820087e-02 -7.925091e-01 -1.356297e+00 -5.772656e+00 2.038681e+00 -6.831161e+00 -1.884365e-01 -2.765553e+00 -4.510561e-01 7.473655e-01 -5.327299e+00 5.827381e+01 3.658212e-02 -3.573810e-02 -3.028035e-02 -1.012859e-01 -1.442676e-02 4.747672e-02 -4.786943e-02 -1.469295e-02 -1.109705e-02 6.868986e-03 3.877271e-02 -5.826544e-03 4.860632e-02 7.127856e-03 -4.856382e-03 1.174287e-03 1.032472e-03 -8.067995e-03 -1.284883e-03 -8.624226e-03 4.053549e-03 3.403623e-03 3.102425e-03 -1.037954e-02 -3.426304e-03 4.418378e-03
<VARIANCE> 39
 2.299772e+01 4.715262e+01 5.263746e+01 8.102084e+01 5.710969e+01 5.703220e+01 5.438002e+01 5.933196e+01 4.377205e+01 4.333949e+01 4.714870e+01 4.993057e+01 7.229642e+01 1.011411e+00 1.946765e+00 1.970790e+00 2.950330e+00 2.506825e+00 2.695753e+00 2.791048e+00 3.140965e+00 2.804334e+00 2.528636e+00 2.644592e+00 2.614580e+00 1.841614e+00 1.655325e-01 2.969978e-01 3.097386e-01 4.530501e-01 4.458293e-01 4.703019e-01 5.014300e-01 5.626418e-01 4.946158e-01 4.479157e-01 4.757955e-01 4.706476e-01 2.578272e-01
<GCONST> 1.216442e+02
<STATE> 3
<MEAN> 39
 3.973927e-01 -2.387743e-01 -8.551469e-01 -1.663552e+00 -5.854551e+00 2.149978e+00 -7.008925e+00 -2.229800e-01 -2.780890e+00 -3.865030e-01 7.986941e-01 -5.386552e+00 5.847499e+01 5.265407e-02 -4.750880e-02 -3.112059e-02 -9.667695e-02 -3.381956e-02 4.216117e-02 -5.739743e-02 1.783476e-03 -1.832345e-03 2.258350e-02 1.094165e-02 -2.194272e-02 6.039082e-02 4.582580e-03 -3.872388e-03 -3.433668e-04 3.735330e-03 -5.681829e-03 -2.582777e-03 -9.801954e-04 4.632151e-03 2.625978e-03 5.800789e-03 -9.645812e-03 -6.141853e-03 3.177255e-03
<VARIANCE> 39
 2.253926e+01 4.892744e+01 5.158785e+01 8.337335e+01 5.636823e+01 5.691224e+01 5.380511e+01 5.989138e+01 4.436793e+01 4.362736e+01 4.792703e+01 5.013085e+01 7.286189e+01 9.769127e-01 1.961370e+00 1.934788e+00 3.134545e+00 2.437777e+00 2.687381e+00 2.883653e+00 3.155894e+00 2.794213e+00 2.569608e+00 2.675967e+00 2.635331e+00 1.879535e+00 1.594452e-01 2.958478e-01 3.046181e-01 4.732547e-01 4.340291e-01 4.689253e-01 5.159857e-01 5.616544e-01 4.909339e-01 4.509677e-01 4.829441e-01 4.686238e-01 2.536806e-01
<GCONST> 1.217517e+02
<STATE> 4
<MEAN> 39
 5.335829e-01 -4.394704e-01 -1.018345e+00 -2.018434e+00 -5.958342e+00 2.335129e+00 -7.091005e+00 -2.574196e-01 -2.769001e+00 -2.007092e-01 8.317846e-01 -5.458797e+00 5.870657e+01 5.855357e-02 -5.624168e-02 -3.526714e-02 -8.641293e-02 -3.798926e-02 3.727711e-02 -4.137485e-02 4.251517e-03 -4.672199e-04 4.032474e-02 -6.248830e-03 -3.940030e-02 6.950671e-02 9.404837e-04 3.664602e-04 -1.388063e-03 6.797260e-03 -4.338429e-04 -3.261456e-03 6.402373e-03 -4.994050e-04 -8.092745e-04 3.246379e-03 -5.105659e-03 -4.526020e-03 -1.034905e-03
<VARIANCE> 39
 2.218623e+01 5.121471e+01 4.949465e+01 8.552071e+01 5.400996e+01 5.706522e+01 5.322053e+01 6.099840e+01 4.535685e+01 4.428518e+01 4.955318e+01 5.046892e+01 7.381302e+01 9.476650e-01 1.956992e+00 1.888457e+00 3.245833e+00 2.417286e+00 2.681901e+00 2.906442e+00 3.155382e+00 2.802295e+00 2.580668e+00 2.743713e+00 2.666791e+00 1.886984e+00 1.528713e-01 2.932569e-01 2.977943e-01 4.864779e-01 4.274773e-01 4.676883e-01 5.207199e-01 5.570149e-01 4.887774e-01 4.532186e-01 4.950630e-01 4.686695e-01 2.476711e-01
<GCONST> 1.217847e+02
<TRANSP> 5
 0.000000e+00 1.000000e+00 0.000000e+00 0.000000e+00 0.000000e+00
 0.000000e+00 6.161198e-01 3.838801e-01 0.000000e+00 0.000000e+00
 0.000000e+00 0.000000e+00 6.161193e-01 3.838807e-01 0.000000e+00
 0.000000e+00 0.000000e+00 0.000000e+00 7.220117e-01 2.779883e-01
 0.000000e+00 0.000000e+00 0.000000e+00 0.000000e+00 0.000000e+00
<ENDHMM>
~h "y"
<BEGINHMM>
<NUMSTATES> 5
<STATE> 2
<MEAN> 39
 -5.417963e-01 -1.486731e+00 3.683560e+00 -8.563402e-01 -7.537834e+00 -2.439821e+00 -6.787254e+00 2.194910e+00 -4.729676e+00 -1.130854e+00 1.860546e-01 -5.698527e+00 6.089915e+01 5.192514e-03 8.377177e-03 -1.228668e-02 -1.049036e-02 3.906127e-03 -3.583419e-02 -3.148979e-02 6.564748e-03 2.706844e-02 -3.060336e-03 -7.624921e-03 -1.489513e-02 1.925845e-02 3.556666e-03 -1.201598e-03 -9.122192e-03 1.945652e-03 1.513283e-03 3.937685e-03 2.587683e-03 -1.063596e-03 2.564187e-03 3.739374e-03 -4.829795e-04 2.125834e-03 -3.664748e-03
<VARIANCE> 39
 2.077168e+01 5.633509e+01 8.808194e+01 5.637500e+01 6.149574e+01 6.663604e+01 6.267331e+01 6.332338e+01 5.647006e+01 4.975494e+01 4.744444e+01 4.705969e+01 7.633002e+01 1.009508e+00 2.054464e+00 3.006588e+00 2.485223e+00 3.003118e+00 3.088181e+00 2.917920e+00 3.697469e+00 3.055331e+00 2.710726e+00 2.800967e+00 2.481246e+00 1.760816e+00 1.642844e-01 3.053713e-01 4.285336e-01 4.117780e-01 5.249029e-01 5.226389e-01 5.231937e-01 6.534463e-01 5.395672e-01 4.972495e-01 5.044436e-01 4.475119e-01 2.320645e-01
<GCONST> 1.244502e+02
<STATE> 3
<MEAN> 39
 -5.128471e-01 -1.461266e+00 3.607183e+00 -8.822809e-01 -7.520793e+00 -2.516806e+00 -6.867199e+00 2.208984e+00 -4.638277e+00 -1.126067e+00 1.617997e-01 -5.726600e+00 6.094004e+01 1.285227e-02 6.799052e-03 -3.512635e-02 -2.637395e-03 4.208975e-03 -2.416463e-02 -2.136011e-02 2.704808e-03 3.268187e-02 5.017772e-03 -1.028118e-02 -1.133990e-02 8.321355e-03 3.778674e-03 -8.766877e-04 -6.570039e-03 3.218065e-03 -1.262789e-03 5.901087e-03 3.019825e-03 -2.510167e-03 5.273593e-04 3.527537e-03 -2.178478e-04 6.965991e-04 -4.077069e-03
<VARIANCE> 39
 2.129087e+01 5.709644e+01 8.697394e+01 5.613490e+01 6.221138e+01 6.614217e+01 6.293289e+01 6.336032e+01 5.639155e+01 4.982055e+01 4.862420e+01 4.727699e+01 7.571314e+01 1.031199e+00 2.067689e+00 2.951807e+00 2.479762e+00 3.034687e+00 3.068161e+00 2.934769e+00 3.700955e+00 3.036910e+00 2.726107e+00 2.838382e+00 2.486643e+00 1.759823e+00 1.671485e-01 3.091971e-01 4.259328e-01 4.106398e-01 5.301765e-01 5.167625e-01 5.270798e-01 6.575689e-01 5.378386e-01 4.979234e-01 5.114111e-01 4.478493e-01 2.334888e-01
<GCONST> 1.245854e+02
<STATE> 4
<MEAN> 39
 -6.645666e-01 -1.238699e+00 2.693084e+00 -8.679401e-01 -6.518159e+00 -2.043564e+00 -6.067216e+00 2.186395e+00 -5.256912e+00 -5.698106e-01 -2.140789e-01 -5.231867e+00 6.033577e+01 1.472538e-02 5.145793e-03 -4.335964e-02 9.707484e-03 4.737839e-03 -3.335302e-03 -4.012316e-03 -7.097016e-03 2.739063e-02 6.376314e-03 -1.099624e-02 -8.100525e-03 -3.874796e-03 1.830674e-03 -4.258483e-04 -2.505420e-03 3.043944e-03 -2.677070e-04 5.095897e-03 2.460580e-03 -3.070840e-03 -1.328786e-03 1.170959e-03 1.247237e-04 -4.375159e-04 -2.727967e-03
<VARIANCE> 39
 2.227716e+01 5.678576e+01 8.035740e+01 5.830736e+01 6.262339e+01 6.622186e+01 6.316680e+01 6.186028e+01 5.802477e+01 4.755394e+01 4.815861e+01 4.589742e+01 8.000332e+01 1.085331e+00 1.985635e+00 2.704267e+00 2.388830e+00 2.883361e+00 2.971977e+00 2.803219e+00 3.522062e+00 2.943846e+00 2.602754e+00 2.700697e+00 2.340106e+00 1.712100e+00 1.756195e-01 2.978169e-01 3.986677e-01 3.976822e-01 4.979583e-01 5.073121e-01 5.088506e-01 6.325405e-01 5.259464e-01 4.797479e-01 4.955535e-01 4.255601e-01 2.308059e-01
<GCONST> 1.236663e+02
<TRANSP> 5
 0.000000e+00 1.000000e+00 0.000000e+00 0.000000e+00 0.000000e+00
 0.000000e+00 6.086627e-01 3.913373e-01 0.000000e+00 0.000000e+00
 0.000000e+00 0.000000e+00 6.086631e-01 3.913369e-01 0.000000e+00
 0.000000e+00 0.000000e+00 0.000000e+00 7.789549e-01 2.210452e-01
 0.000000e+00 0.000000e+00 0.000000e+00 0.000000e+00 0.000000e+00
<ENDHMM>
~h "z"
<BEGINHMM>
<NUMSTATES> 5
<STATE> 2
<MEAN> 39
 -2.112155e-01 -8.781648e-02 7.122166e+00 -1.111244e+00 -5.931376e+00 -8.406436e-01 -1.155198e+01 1.328422e-01 -5.495105e+00 9.162775e-01 -6.620786e-02 -6.375441e+00 6.038661e+01 6.193082e-02 -1.661807e-01 -1.039983e-03 -1.998698e-01 1.412860e-02 2.662909e-01 -7.171384e-02 9.158408e-02 2.595877e-02 7.899815e-02 -1.740680e-02 -8.860146e-02 4.562629e-02 2.529977e-03 -2.519146e-03 -1.157275e-02 -5.248548e-03 4.323684e-03 -3.658636e-03 1.212844e-02 3.329200e-02 6.067118e-03 -8.591669e-03 -2.903420e-02 1.308123e-02 -5.621635e-03
<VARIANCE> 39
 2.073083e+01 4.976301e+01 7.499412e+01 8.497593e+01 3.221699e+01 6.332471e+01 6.434119e+01 5.050143e+01 5.282709e+01 6.165000e+01 3.392443e+01 3.520998e+01 3.666650e+01 9.684269e-01 2.311073e+00 2.437521e+00 2.559357e+00 1.593176e+00 2.217956e+00 3.412060e+00 3.196413e+00 2.986495e+00 3.088499e+00 3.161341e+00 2.015597e+00 1.081361e+00 1.524359e-01 3.174746e-01 4.130888e-01 2.958411e-01 3.109444e-01 3.260193e-01 5.031709e-01 4.951616e-01 5.057689e-01 5.537398e-01 6.584063e-01 3.461570e-01 1.285323e-01
<GCONST> 1.186865e+02
<STATE> 3
<MEAN> 39
 -5.333438e-02 -4.978237e-01 7.059297e+00 -1.604115e+00 -5.868408e+00 -1.875737e-01 -1.167869e+01 4.419521e-01 -5.377818e+00 1.090919e+00 -1.791266e-01 -6.551878e+00 6.047893e+01 6.988690e-02 -1.628530e-01 -3.785543e-02 -2.042064e-01 2.487257e-02 2.519003e-01 -3.652447e-02 1.782771e-01 3.846544e-02 4.710933e-02 -9.237910e-02 -5.140898e-02 2.356730e-02 1.767594e-03 3.039477e-03 -1.786567e-02 7.883755e-03 3.830181e-03 -5.800454e-03 1.489362e-02 2.581670e-02 2.669939e-03 -1.875198e-02 -2.800334e-02 1.305269e-02 -9.180815e-03
<VARIANCE> 39
 1.884655e+01 4.943624e+01 7.635252e+01 8.472234e+01 3.334501e+01 6.611774e+01 6.323764e+01 5.447906e+01 5.047076e+01 6.193365e+01 3.458698e+01 3.715559e+01 3.859673e+01 9.153914e-01 2.262147e+00 2.378379e+00 2.446446e+00 1.551976e+00 2.146152e+00 3.417861e+00 3.318087e+00 3.047221e+00 3.105754e+00 3.043599e+00 1.985392e+00 1.058113e+00 1.457818e-01 3.134587e-01 4.073628e-01 2.815596e-01 3.037724e-01 3.152700e-01 5.100462e-01 5.062358e-01 5.148891e-01 5.425757e-01 6.308254e-01 3.374582e-01 1.231873e-01
<GCONST> 1.183473e+02
<STATE> 4
<MEAN> 39
 4.018195e-02 -8.500932e-01 6.842045e+00 -2.030776e+00 -5.623477e+00 5.327226e-01 -1.159037e+01 9.972329e-01 -5.306279e+00 1.049701e+00 -5.471699e-01 -6.484362e+00 6.033550e+01 7.612250e-02 -1.387221e-01 -1.031851e-01 -1.626825e-01 4.054834e-02 2.273200e-01 9.872957e-03 2.522742e-01 5.078995e-02 -1.679986e-02 -1.710736e-01 -7.023548e-03 -1.373645e-02 3.461363e-04 6.947708e-03 -2.303897e-02 2.571881e-02 5.129792e-03 -6.543007e-03 1.313743e-02 1.294771e-02 1.486848e-03 -2.414750e-02 -2.421055e-02 1.151000e-02 -1.190869e-02
<VARIANCE> 39
 1.666457e+01 4.878671e+01 7.602147e+01 8.180730e+01 3.477530e+01 6.857272e+01 6.226702e+01 6.093344e+01 4.607396e+01 6.352684e+01 3.572004e+01 4.010252e+01 4.230511e+01 8.185459e-01 2.136764e+00 2.234404e+00 2.298419e+00 1.524460e+00 2.047581e+00 3.316805e+00 3.429859e+00 3.025608e+00 3.031923e+00 2.875600e+00 1.910369e+00 9.939972e-01 1.321957e-01 3.003687e-01 3.856161e-01 2.629637e-01 2.992809e-01 3.005223e-01 5.020853e-01 5.163057e-01 5.118023e-01 5.153010e-01 5.908278e-01 3.225105e-01 1.127008e-01
<GCONST> 1.173568e+02
<TRANSP> 5
 0.000000e+00 1.000000e+00 0.000000e+00 0.000000e+00 0.000000e+00
 0.000000e+00 6.024413e-01 3.975587e-01 0.000000e+00 0.000000e+00
 0.000000e+00 0.000000e+00 6.024414e-01 3.975587e-01 0.000000e+00
 0.000000e+00 0.000000e+00 0.000000e+00 7.034100e-01 2.965900e-01
 0.000000e+00 0.000000e+00 0.000000e+00 0.000000e+00 0.000000e+00
<ENDHMM>
~h "aw"
<BEGINHMM>
<NUMSTATES> 5
<STATE> 2
<MEAN> 39
 1.494885e+00 -1.308740e+00 2.473881e+00 -4.399222e+00 -7.816455e+00 1.350528e+00 -9.357950e+00 -3.349700e+00 -3.654448e+00 1.868192e+00 1.456790e+00 -7.177471e+00 6.278462e+01 3.716917e-02 -4.950312e-02 1.148051e-01 -8.055212e-02 -1.226814e-02 4.467529e-02 -8.315720e-02 2.851410e-02 -6.031249e-02 1.649557e-02 7.493677e-02 -6.647086e-02 1.291732e-01 -8.317918e-03 1.007339e-02 2.607823e-04 3.173526e-02 8.337955e-03 -3.327952e-03 1.252221e-02 1.510768e-02 -1.173650e-02 -1.151202e-02 -5.867609e-03 9.881066e-03 -2.108590e-02
<VARIANCE> 39
 3.104672e+01 5.044074e+01 6.419811e+01 7.702744e+01 6.990687e+01 6.468956e+01 6.103499e+01 7.742090e+01 6.161617e+01 5.166387e+01 4.188369e+01 4.878566e+01 4.791984e+01 1.725369e+00 2.413420e+00 2.397985e+00 4.184208e+00 3.906767e+00 3.493661e+00 3.933163e+00 4.234918e+00 3.710218e+00 2.912020e+00 3.484524e+00 3.432829e+00 2.676781e+00 2.682149e-01 3.677225e-01 3.597380e-01 6.472911e-01 7.430624e-01 6.297606e-01 7.053186e-01 7.573674e-01 6.518318e-01 5.211207e-01 6.888150e-01 6.286612e-01 3.695798e-01
<GCONST> 1.309076e+02
<STATE> 3
<MEAN> 39
 1.549275e+00 -1.369111e+00 2.741350e+00 -4.467202e+00 -7.788539e+00 1.433630e+00 -9.556204e+00 -3.210778e+00 -3.844820e+00 1.846276e+00 1.620081e+00 -7.299824e+00 6.299897e+01 1.629709e-02 -1.624861e-02 1.085939e-01 1.808968e-03 6.673436e-03 2.843479e-02 -5.419846e-02 5.592146e-02 -8.817765e-02 -1.504552e-02 5.783974e-02 -4.172792e-02 6.687407e-02 -9.016898e-03 1.329286e-02 -6.317475e-04 3.503748e-02 6.330569e-03 -8.266049e-03 1.184039e-02 7.468635e-03 -9.533749e-03 -1.224502e-02 -7.934517e-03 8.228915e-03 -2.523193e-02
<VARIANCE> 39
 3.028109e+01 5.126859e+01 6.348803e+01 7.398347e+01 6.799038e+01 6.655923e+01 6.233218e+01 7.796312e+01 6.305985e+01 5.230670e+01 4.204569e+01 4.923831e+01 4.693419e+01 1.736732e+00 2.406272e+00 2.492719e+00 4.068026e+00 3.818238e+00 3.523167e+00 4.132270e+00 4.251359e+00 3.730678e+00 2.931594e+00 3.580692e+00 3.437299e+00 2.585335e+00 2.680243e-01 3.724867e-01 3.771482e-01 6.355543e-01 7.175968e-01 6.285363e-01 7.411376e-01 7.632375e-01 6.469773e-01 5.315809e-01 7.124797e-01 6.315375e-01 3.648694e-01
<GCONST> 1.310624e+02
<STATE> 4
<MEAN> 39
 1.484918e+00 -1.227615e+00 3.144781e+00 -4.377425e+00 -7.775329e+00 1.542311e+00 -9.675619e+00 -2.961334e+00 -4.166593e+00 1.615236e+00 1.816375e+00 -7.377250e+00 6.303522e+01 1.041785e-03 1.626318e-02 9.177767e-02 8.291516e-02 1.891488e-02 -4.053851e-03 -3.173576e-02 7.294680e-02 -9.987187e-02 -4.503839e-02 3.272947e-02 -2.228954e-02 -8.183715e-04 -5.572262e-03 8.706897e-03 -1.748285e-03 2.646471e-02 1.050682e-03 -1.115799e-02 9.137952e-03 1.253944e-03 -1.961001e-03 -8.101370e-03 -9.208574e-03 3.576246e-03 -1.914204e-02
<VARIANCE> 39
 3.007967e+01 5.227235e+01 6.566038e+01 7.117878e+01 6.623880e+01 7.071139e+01 6.333814e+01 7.818742e+01 6.365262e+01 5.272517e+01 4.241188e+01 4.940310e+01 4.706979e+01 1.764232e+00 2.373915e+00 2.596450e+00 3.892834e+00 3.709461e+00 3.588833e+00 4.263385e+00 4.253138e+00 3.647527e+00 2.973274e+00 3.636832e+00 3.418349e+00 2.446720e+00 2.688994e-01 3.727964e-01 3.925496e-01 6.169897e-01 6.856810e-01 6.289601e-01 7.652995e-01 7.619331e-01 6.223097e-01 5.440744e-01 7.277559e-01 6.308932e-01 3.558561e-01
<GCONST> 1.311018e+02
<TRANSP> 5
 0.000000e+00 1.000000e+00 0.000000e+00 0.000000e+00 0.000000e+00
 0.000000e+00 6.038052e-01 3.961949e-01 0.000000e+00 0.000000e+00
 0.000000e+00 0.000000e+00 6.038053e-01 3.961947e-01 0.000000e+00
 0.000000e+00 0.000000e+00 0.000000e+00 7.081168e-01 2.918832e-01
 0.000000e+00 0.000000e+00 0.000000e+00 0.000000e+00 0.000000e+00
<ENDHMM>
~h "ay"
<BEGINHMM>
<NUMSTATES> 5
<STATE> 2
<MEAN> 39
 -4.678021e-02 -2.418275e+00 2.975797e+00 -5.798322e-01 -7.863741e+00 -2.800580e+00 -8.128727e+00 1.913126e+00 -3.339781e+00 -1.720994e+00 2.786714e-01 -6.880271e+00 6.201854e+01 -1.964832e-02 4.179342e-02 -3.684732e-02 3.106880e-02 1.584357e-02 1.632828e-02 1.072183e-03 3.125200e-02 9.395592e-03 2.919281e-03 -4.463928e-02 4.950935e-03 -7.162558e-02 -4.305030e-03 7.861396e-04 -7.425263e-04 -8.216390e-04 2.139334e-03 7.860929e-04 4.475626e-03 5.016104e-03 3.805023e-03 -2.461044e-03 -1.897785e-03 6.623243e-03 7.805488e-04
<VARIANCE> 39
 2.815042e+01 5.618176e+01 7.493896e+01 4.966138e+01 6.687956e+01 6.600467e+01 6.611919e+01 7.290430e+01 6.824893e+01 4.848783e+01 5.274750e+01 4.890069e+01 6.081755e+01 1.398047e+00 2.464412e+00 2.534267e+00 2.429940e+00 3.422074e+00 3.014447e+00 3.060182e+00 4.331490e+00 3.300358e+00 2.663301e+00 3.166260e+00 2.559706e+00 1.821048e+00 2.247432e-01 3.688932e-01 3.851686e-01 4.105381e-01 5.814880e-01 5.150263e-01 5.540005e-01 7.594765e-01 5.775359e-01 4.720191e-01 5.814747e-01 4.673316e-01 2.571757e-01
<GCONST> 1.266780e+02
<STATE> 3
<MEAN> 39
 -1.177349e-01 -2.322427e+00 2.860707e+00 -5.043861e-01 -7.791744e+00 -2.742914e+00 -8.078382e+00 2.036458e+00 -3.323891e+00 -1.715428e+00 1.623700e-01 -6.846070e+00 6.182673e+01 -3.041618e-02 4.371775e-02 -3.559115e-02 2.828635e-02 1.918650e-02 1.684118e-02 1.515307e-02 4.618137e-02 1.827281e-02 -4.871053e-03 -4.673930e-02 2.151250e-02 -6.867746e-02 -3.994546e-03 1.946115e-04 -6.791031e-05 -1.306867e-03 2.792449e-03 1.965876e-03 6.258624e-03 4.219498e-03 1.938737e-03 -2.667065e-03 -4.227162e-05 7.591761e-03 8.823045e-04
<VARIANCE> 39
 2.795588e+01 5.566629e+01 7.575443e+01 4.956648e+01 6.720553e+01 6.608750e+01 6.730291e+01 7.130078e+01 6.864932e+01 4.886579e+01 5.323035e+01 4.901126e+01 6.159436e+01 1.387358e+00 2.448955e+00 2.529197e+00 2.429779e+00 3.416930e+00 2.995273e+00 3.041419e+00 4.266348e+00 3.259392e+00 2.662095e+00 3.124149e+00 2.553533e+00 1.781863e+00 2.234503e-01 3.666427e-01 3.881620e-01 4.113139e-01 5.836182e-01 5.145566e-01 5.504974e-01 7.525681e-01 5.700091e-01 4.731442e-01 5.720241e-01 4.632084e-01 2.508343e-01
<GCONST> 1.265383e+02
<STATE> 4
<MEAN> 39
 -3.539602e-01 -2.080482e+00 2.529747e+00 -3.134554e-01 -7.462133e+00 -2.423588e+00 -7.741224e+00 2.265987e+00 -3.131150e+00 -1.937092e+00 -7.038087e-02 -6.562481e+00 6.131372e+01 -3.834117e-02 4.499886e-02 -3.337528e-02 2.123535e-02 2.247039e-02 2.225742e-02 3.853113e-02 5.966964e-02 1.639435e-02 -1.436438e-02 -3.802176e-02 4.062583e-02 -6.757782e-02 -1.291386e-03 6.175154e-04 -9.503140e-04 -1.121057e-03 1.871585e-03 3.677362e-03 6.179080e-03 -9.886787e-04 -3.185058e-03 -3.124287e-03 2.247382e-03 5.693965e-03 -4.793314e-04
<VARIANCE> 39
 2.739184e+01 5.455272e+01 7.475038e+01 4.990670e+01 6.745309e+01 6.597189e+01 6.698955e+01 6.831376e+01 6.702103e+01 4.809542e+01 5.323544e+01 4.882986e+01 6.472888e+01 1.342006e+00 2.374076e+00 2.447484e+00 2.350614e+00 3.303956e+00 2.881599e+00 2.912480e+00 4.065982e+00 3.124168e+00 2.605454e+00 3.014215e+00 2.523833e+00 1.701362e+00 2.167681e-01 3.549804e-01 3.789824e-01 3.969388e-01 5.653361e-01 4.970798e-01 5.285271e-01 7.238142e-01 5.473809e-01 4.637001e-01 5.478765e-01 4.559974e-01 2.361710e-01
<GCONST> 1.255523e+02
<TRANSP> 5
 0.000000e+00 1.000000e+00 0.000000e+00 0.000000e+00 0.000000e+00
 0.000000e+00 6.200179e-01 3.799820e-01 0.000000e+00 0.000000e+00
 0.000000e+00 0.000000e+00 6.200182e-01 3.799818e-01 0.000000e+00
 0.000000e+00 0.000000e+00 0.000000e+00 7.330734e-01 2.669266e-01
 0.000000e+00 0.000000e+00 0.000000e+00 0.000000e+00 0.000000e+00
<ENDHMM>
~h "kh"
<BEGINHMM>
<NUMSTATES> 5
<STATE> 2
<MEAN> 39
 2.334220e-01 -3.493264e-01 4.506891e-01 -6.591992e-01 -5.411276e+00 -1.930893e+00 -5.576319e+00 -6.621550e-01 -2.343388e+00 -1.050470e+00 -2.247748e+00 -4.690028e+00 5.971130e+01 2.119656e-02 -3.335630e-02 8.797318e-02 3.569662e-02 -3.925672e-02 -2.519972e-02 -1.613276e-01 6.798170e-02 6.198281e-02 5.392655e-02 1.242311e-02 4.261423e-02 -1.884483e-02 -8.846103e-03 -9.667367e-03 2.493874e-04 6.652369e-03 1.538265e-02 5.859023e-03 -9.425235e-03 -1.748625e-03 1.216177e-02 -5.254990e-03 -1.635770e-02 6.064586e-03 -4.279161e-03
<VARIANCE> 39
