~h "a"
<BEGINHMM>
<NUMSTATES> 5
<STATE> 2
<MEAN> 39
 7.903662e-04 -6.079456e-01 1.670089e+00 -6.705837e-01 -5.929818e+00 -8.820225e-01 -6.906881e+00 5.931143e-01 -4.574426e+00 -3.940755e-01 -3.854154e-01 -5.847453e+00 5.993814e+01 5.024984e-04 -6.478592e-05 9.522401e-04 -6.048587e-04 -1.305029e-03 -9.148303e-04 -9.999124e-04 -6.995694e-04 3.150678e-04 8.832195e-04 -1.229102e-04 -1.829845e-05 4.304752e-04 -1.024714e-04 5.090495e-05 -4.314321e-05 5.499199e-04 2.475645e-04 2.544455e-04 -3.161734e-04 -1.009587e-04 -7.179174e-05 -5.594532e-04 -1.336834e-04 -6.698545e-06 -3.952787e-04
<VARIANCE> 39
 2.681136e+01 5.325134e+01 6.824250e+01 5.887592e+01 6.062508e+01 6.608533e+01 5.928268e+01 6.068991e+01 5.916120e+01 4.597362e+01 4.705821e+01 4.804106e+01 6.619385e+01 1.372020e+00 2.288023e+00 2.566274e+00 2.987463e+00 3.078158e+00 3.116328e+00 3.250192e+00 3.738113e+00 3.266875e+00 2.829993e+00 2.967949e+00 2.476121e+00 2.021681e+00 2.264445e-01 3.584008e-01 4.122588e-01 5.086471e-01 5.519696e-01 5.562619e-01 5.942494e-01 6.847889e-01 5.904057e-01 5.307208e-01 5.528100e-01 4.553457e-01 3.018115e-01
<GCONST> 1.265182e+02
<STATE> 3
<MEAN> 39
 7.903662e-04 -6.079456e-01 1.670089e+00 -6.705837e-01 -5.929818e+00 -8.820225e-01 -6.906881e+00 5.931143e-01 -4.574426e+00 -3.940755e-01 -3.854154e-01 -5.847453e+00 5.993814e+01 5.024984e-04 -6.478592e-05 9.522401e-04 -6.048587e-04 -1.305029e-03 -9.148303e-04 -9.999124e-04 -6.995694e-04 3.150678e-04 8.832195e-04 -1.229102e-04 -1.829845e-05 4.304752e-04 -1.024714e-04 5.090495e-05 -4.314321e-05 5.499199e-04 2.475645e-04 2.544455e-04 -3.161734e-04 -1.009587e-04 -7.179174e-05 -5.594532e-04 -1.336834e-04 -6.698545e-06 -3.952787e-04
<VARIANCE> 39
 2.681136e+01 5.325134e+01 6.824250e+01 5.887592e+01 6.062508e+01 6.608533e+01 5.928268e+01 6.068991e+01 5.916120e+01 4.597362e+01 4.705821e+01 4.804106e+01 6.619385e+01 1.372020e+00 2.288023e+00 2.566274e+00 2.987463e+00 3.078158e+00 3.116328e+00 3.250192e+00 3.738113e+00 3.266875e+00 2.829993e+00 2.967949e+00 2.476121e+00 2.021681e+00 2.264445e-01 3.584008e-01 4.122588e-01 5.086471e-01 5.519696e-01 5.562619e-01 5.942494e-01 6.847889e-01 5.904057e-01 5.307208e-01 5.528100e-01 4.553457e-01 3.018115e-01
<GCONST> 1.265182e+02
<STATE> 4
<MEAN> 39
 7.903662e-04 -6.079456e-01 1.670089e+00 -6.705837e-01 -5.929818e+00 -8.820225e-01 -6.906881e+00 5.931143e-01 -4.574426e+00 -3.940755e-01 -3.854154e-01 -5.847453e+00 5.993814e+01 5.024984e-04 -6.478592e-05 9.522401e-04 -6.048587e-04 -1.305029e-03 -9.148303e-04 -9.999124e-04 -6.995694e-04 3.150678e-04 8.832195e-04 -1.229102e-04 -1.829845e-05 4.304752e-04 -1.024714e-04 5.090495e-05 -4.314321e-05 5.499199e-04 2.475645e-04 2.544455e-04 -3.161734e-04 -1.009587e-04 -7.179174e-05 -5.594532e-04 -1.336834e-04 -6.698545e-06 -3.952787e-04
<VARIANCE> 39
 2.681136e+01 5.325134e+01 6.824250e+01 5.887592e+01 6.062508e+01 6.608533e+01 5.928268e+01 6.068991e+01 5.916120e+01 4.597362e+01 4.705821e+01 4.804106e+01 6.619385e+01 1.372020e+00 2.288023e+00 2.566274e+00 2.987463e+00 3.078158e+00 3.116328e+00 3.250192e+00 3.738113e+00 3.266875e+00 2.829993e+00 2.967949e+00 2.476121e+00 2.021681e+00 2.264445e-01 3.584008e-01 4.122588e-01 5.086471e-01 5.519696e-01 5.562619e-01 5.942494e-01 6.847889e-01 5.904057e-01 5.307208e-01 5.528100e-01 4.553457e-01 3.018115e-01
<GCONST> 1.265182e+02
<TRANSP> 5
 0.000000e+00 1.000000e+00 0.000000e+00 0.000000e+00 0.000000e+00
 0.000000e+00 6.000000e-01 4.000000e-01 0.000000e+00 0.000000e+00
 0.000000e+00 0.000000e+00 6.000000e-01 4.000000e-01 0.000000e+00
 0.000000e+00 0.000000e+00 0.000000e+00 7.000000e-01 3.000000e-01
 0.000000e+00 0.000000e+00 0.000000e+00 0.000000e+00 0.000000e+00
<ENDHMM>
~h "sp"
<BEGINHMM>
<NUMSTATES> 5
<STATE> 2
<MEAN> 39
 7.903662e-04 -6.079456e-01 1.670089e+00 -6.705837e-01 -5.929818e+00 -8.820225e-01 -6.906881e+00 5.931143e-01 -4.574426e+00 -3.940755e-01 -3.854154e-01 -5.847453e+00 5.993814e+01 5.024984e-04 -6.478592e-05 9.522401e-04 -6.048587e-04 -1.305029e-03 -9.148303e-04 -9.999124e-04 -6.995694e-04 3.150678e-04 8.832195e-04 -1.229102e-04 -1.829845e-05 4.304752e-04 -1.024714e-04 5.090495e-05 -4.314321e-05 5.499199e-04 2.475645e-04 2.544455e-04 -3.161734e-04 -1.009587e-04 -7.179174e-05 -5.594532e-04 -1.336834e-04 -6.698545e-06 -3.952787e-04
<VARIANCE> 39
 2.681136e+01 5.325134e+01 6.824250e+01 5.887592e+01 6.062508e+01 6.608533e+01 5.928268e+01 6.068991e+01 5.916120e+01 4.597362e+01 4.705821e+01 4.804106e+01 6.619385e+01 1.372020e+00 2.288023e+00 2.566274e+00 2.987463e+00 3.078158e+00 3.116328e+00 3.250192e+00 3.738113e+00 3.266875e+00 2.829993e+00 2.967949e+00 2.476121e+00 2.021681e+00 2.264445e-01 3.584008e-01 4.122588e-01 5.086471e-01 5.519696e-01 5.562619e-01 5.942494e-01 6.847889e-01 5.904057e-01 5.307208e-01 5.528100e-01 4.553457e-01 3.018115e-01
<GCONST> 1.265182e+02
<STATE> 3
<MEAN> 39
 7.903662e-04 -6.079456e-01 1.670089e+00 -6.705837e-01 -5.929818e+00 -8.820225e-01 -6.906881e+00 5.931143e-01 -4.574426e+00 -3.940755e-01 -3.854154e-01 -5.847453e+00 5.993814e+01 5.024984e-04 -6.478592e-05 9.522401e-04 -6.048587e-04 -1.305029e-03 -9.148303e-04 -9.999124e-04 -6.995694e-04 3.150678e-04 8.832195e-04 -1.229102e-04 -1.829845e-05 4.304752e-04 -1.024714e-04 5.090495e-05 -4.314321e-05 5.499199e-04 2.475645e-04 2.544455e-04 -3.161734e-04 -1.009587e-04 -7.179174e-05 -5.594532e-04 -1.336834e-04 -6.698545e-06 -3.952787e-04
<VARIANCE> 39
 2.681136e+01 5.325134e+01 6.824250e+01 5.887592e+01 6.062508e+01 6.608533e+01 5.928268e+01 6.068991e+01 5.916120e+01 4.597362e+01 4.705821e+01 4.804106e+01 6.619385e+01 1.372020e+00 2.288023e+00 2.566274e+00 2.987463e+00 3.078158e+00 3.116328e+00 3.250192e+00 3.738113e+00 3.266875e+00 2.829993e+00 2.967949e+00 2.476121e+00 2.021681e+00 2.264445e-01 3.584008e-01 4.122588e-01 5.086471e-01 5.519696e-01 5.562619e-01 5.942494e-01 6.847889e-01 5.904057e-01 5.307208e-01 5.528100e-01 4.553457e-01 3.018115e-01
<GCONST> 1.265182e+02
<STATE> 4
<MEAN> 39
 7.903662e-04 -6.079456e-01 1.670089e+00 -6.705837e-01 -5.929818e+00 -8.820225e-01 -6.906881e+00 5.931143e-01 -4.574426e+00 -3.940755e-01 -3.854154e-01 -5.847453e+00 5.993814e+01 5.024984e-04 -6.478592e-05 9.522401e-04 -6.048587e-04 -1.305029e-03 -9.148303e-04 -9.999124e-04 -6.995694e-04 3.150678e-04 8.832195e-04 -1.229102e-04 -1.829845e-05 4.304752e-04 -1.024714e-04 5.090495e-05 -4.314321e-05 5.499199e-04 2.475645e-04 2.544455e-04 -3.161734e-04 -1.009587e-04 -7.179174e-05 -5.594532e-04 -1.336834e-04 -6.698545e-06 -3.952787e-04
<VARIANCE> 39
 2.681136e+01 5.325134e+01 6.824250e+01 5.887592e+01 6.062508e+01 6.608533e+01 5.928268e+01 6.068991e+01 5.916120e+01 4.597362e+01 4.705821e+01 4.804106e+01 6.619385e+01 1.372020e+00 2.288023e+00 2.566274e+00 2.987463e+00 3.078158e+00 3.116328e+00 3.250192e+00 3.738113e+00 3.266875e+00 2.829993e+00 2.967949e+00 2.476121e+00 2.021681e+00 2.264445e-01 3.584008e-01 4.122588e-01 5.086471e-01 5.519696e-01 5.562619e-01 5.942494e-01 6.847889e-01 5.904057e-01 5.307208e-01 5.528100e-01 4.553457e-01 3.018115e-01
<GCONST> 1.265182e+02
<TRANSP> 5
 0.000000e+00 1.000000e+00 0.000000e+00 0.000000e+00 0.000000e+00
 0.000000e+00 6.000000e-01 4.000000e-01 0.000000e+00 0.000000e+00
 0.000000e+00 0.000000e+00 6.000000e-01 4.000000e-01 0.000000e+00
 0.000000e+00 0.000000e+00 0.000000e+00 7.000000e-01 3.000000e-01
 0.000000e+00 0.000000e+00 0.000000e+00 0.000000e+00 0.000000e+00
<ENDHMM>
~h "k"
<BEGINHMM>
<NUMSTATES> 5
<STATE> 2
<MEAN> 39
 7.903662e-04 -6.079456e-01 1.670089e+00 -6.705837e-01 -5.929818e+00 -8.820225e-01 -6.906881e+00 5.931143e-01 -4.574426e+00 -3.940755e-01 -3.854154e-01 -5.847453e+00 5.993814e+01 5.024984e-04 -6.478592e-05 9.522401e-04 -6.048587e-04 -1.305029e-03 -9.148303e-04 -9.999124e-04 -6.995694e-04 3.150678e-04 8.832195e-04 -1.229102e-04 -1.829845e-05 4.304752e-04 -1.024714e-04 5.090495e-05 -4.314321e-05 5.499199e-04 2.475645e-04 2.544455e-04 -3.161734e-04 -1.009587e-04 -7.179174e-05 -5.594532e-04 -1.336834e-04 -6.698545e-06 -3.952787e-04
<VARIANCE> 39
 2.681136e+01 5.325134e+01 6.824250e+01 5.887592e+01 6.062508e+01 6.608533e+01 5.928268e+01 6.068991e+01 5.916120e+01 4.597362e+01 4.705821e+01 4.804106e+01 6.619385e+01 1.372020e+00 2.288023e+00 2.566274e+00 2.987463e+00 3.078158e+00 3.116328e+00 3.250192e+00 3.738113e+00 3.266875e+00 2.829993e+00 2.967949e+00 2.476121e+00 2.021681e+00 2.264445e-01 3.584008e-01 4.122588e-01 5.086471e-01 5.519696e-01 5.562619e-01 5.942494e-01 6.847889e-01 5.904057e-01 5.307208e-01 5.528100e-01 4.553457e-01 3.018115e-01
<GCONST> 1.265182e+02
<STATE> 3
<MEAN> 39
 7.903662e-04 -6.079456e-01 1.670089e+00 -6.705837e-01 -5.929818e+00 -8.820225e-01 -6.906881e+00 5.931143e-01 -4.574426e+00 -3.940755e-01 -3.854154e-01 -5.847453e+00 5.993814e+01 5.024984e-04 -6.478592e-05 9.522401e-04 -6.048587e-04 -1.305029e-03 -9.148303e-04 -9.999124e-04 -6.995694e-04 3.150678e-04 8.832195e-04 -1.229102e-04 -1.829845e-05 4.304752e-04 -1.024714e-04 5.090495e-05 -4.314321e-05 5.499199e-04 2.475645e-04 2.544455e-04 -3.161734e-04 -1.009587e-04 -7.179174e-05 -5.594532e-04 -1.336834e-04 -6.698545e-06 -3.952787e-04
<VARIANCE> 39
 2.681136e+01 5.325134e+01 6.824250e+01 5.887592e+01 6.062508e+01 6.608533e+01 5.928268e+01 6.068991e+01 5.916120e+01 4.597362e+01 4.705821e+01 4.804106e+01 6.619385e+01 1.372020e+00 2.288023e+00 2.566274e+00 2.987463e+00 3.078158e+00 3.116328e+00 3.250192e+00 3.738113e+00 3.266875e+00 2.829993e+00 2.967949e+00 2.476121e+00 2.021681e+00 2.264445e-01 3.584008e-01 4.122588e-01 5.086471e-01 5.519696e-01 5.562619e-01 5.942494e-01 6.847889e-01 5.904057e-01 5.307208e-01 5.528100e-01 4.553457e-01 3.018115e-01
<GCONST> 1.265182e+02
<STATE> 4
<MEAN> 39
 7.903662e-04 -6.079456e-01 1.670089e+00 -6.705837e-01 -5.929818e+00 -8.820225e-01 -6.906881e+00 5.931143e-01 -4.574426e+00 -3.940755e-01 -3.854154e-01 -5.847453e+00 5.993814e+01 5.024984e-04 -6.478592e-05 9.522401e-04 -6.048587e-04 -1.305029e-03 -9.148303e-04 -9.999124e-04 -6.995694e-04 3.150678e-04 8.832195e-04 -1.229102e-04 -1.829845e-05 4.304752e-04 -1.024714e-04 5.090495e-05 -4.314321e-05 5.499199e-04 2.475645e-04 2.544455e-04 -3.161734e-04 -1.009587e-04 -7.179174e-05 -5.594532e-04 -1.336834e-04 -6.698545e-06 -3.952787e-04
<VARIANCE> 39
 2.681136e+01 5.325134e+01 6.824250e+01 5.887592e+01 6.062508e+01 6.608533e+01 5.928268e+01 6.068991e+01 5.916120e+01 4.597362e+01 4.705821e+01 4.804106e+01 6.619385e+01 1.372020e+00 2.288023e+00 2.566274e+00 2.987463e+00 3.078158e+00 3.116328e+00 3.250192e+00 3.738113e+00 3.266875e+00 2.829993e+00 2.967949e+00 2.476121e+00 2.021681e+00 2.264445e-01 3.584008e-01 4.122588e-01 5.086471e-01 5.519696e-01 5.562619e-01 5.942494e-01 6.847889e-01 5.904057e-01 5.307208e-01 5.528100e-01 4.553457e-01 3.018115e-01
<GCONST> 1.265182e+02
<TRANSP> 5
 0.000000e+00 1.000000e+00 0.000000e+00 0.000000e+00 0.000000e+00
 0.000000e+00 6.000000e-01 4.000000e-01 0.000000e+00 0.000000e+00
 0.000000e+00 0.000000e+00 6.000000e-01 4.000000e-01 0.000000e+00
 0.000000e+00 0.000000e+00 0.000000e+00 7.000000e-01 3.000000e-01
 0.000000e+00 0.000000e+00 0.000000e+00 0.000000e+00 0.000000e+00
<ENDHMM>
~h "u"
<BEGINHMM>
<NUMSTATES> 5
<STATE> 2
<MEAN> 39
 7.903662e-04 -6.079456e-01 1.670089e+00 -6.705837e-01 -5.929818e+00 -8.820225e-01 -6.906881e+00 5.931143e-01 -4.574426e+00 -3.940755e-01 -3.854154e-01 -5.847453e+00 5.993814e+01 5.024984e-04 -6.478592e-05 9.522401e-04 -6.048587e-04 -1.305029e-03 -9.148303e-04 -9.999124e-04 -6.995694e-04 3.150678e-04 8.832195e-04 -1.229102e-04 -1.829845e-05 4.304752e-04 -1.024714e-04 5.090495e-05 -4.314321e-05 5.499199e-04 2.475645e-04 2.544455e-04 -3.161734e-04 -1.009587e-04 -7.179174e-05 -5.594532e-04 -1.336834e-04 -6.698545e-06 -3.952787e-04
<VARIANCE> 39
 2.681136e+01 5.325134e+01 6.824250e+01 5.887592e+01 6.062508e+01 6.608533e+01 5.928268e+01 6.068991e+01 5.916120e+01 4.597362e+01 4.705821e+01 4.804106e+01 6.619385e+01 1.372020e+00 2.288023e+00 2.566274e+00 2.987463e+00 3.078158e+00 3.116328e+00 3.250192e+00 3.738113e+00 3.266875e+00 2.829993e+00 2.967949e+00 2.476121e+00 2.021681e+00 2.264445e-01 3.584008e-01 4.122588e-01 5.086471e-01 5.519696e-01 5.562619e-01 5.942494e-01 6.847889e-01 5.904057e-01 5.307208e-01 5.528100e-01 4.553457e-01 3.018115e-01
<GCONST> 1.265182e+02
<STATE> 3
<MEAN> 39
 7.903662e-04 -6.079456e-01 1.670089e+00 -6.705837e-01 -5.929818e+00 -8.820225e-01 -6.906881e+00 5.931143e-01 -4.574426e+00 -3.940755e-01 -3.854154e-01 -5.847453e+00 5.993814e+01 5.024984e-04 -6.478592e-05 9.522401e-04 -6.048587e-04 -1.305029e-03 -9.148303e-04 -9.999124e-04 -6.995694e-04 3.150678e-04 8.832195e-04 -1.229102e-04 -1.829845e-05 4.304752e-04 -1.024714e-04 5.090495e-05 -4.314321e-05 5.499199e-04 2.475645e-04 2.544455e-04 -3.161734e-04 -1.009587e-04 -7.179174e-05 -5.594532e-04 -1.336834e-04 -6.698545e-06 -3.952787e-04
<VARIANCE> 39
 2.681136e+01 5.325134e+01 6.824250e+01 5.887592e+01 6.062508e+01 6.608533e+01 5.928268e+01 6.068991e+01 5.916120e+01 4.597362e+01 4.705821e+01 4.804106e+01 6.619385e+01 1.372020e+00 2.288023e+00 2.566274e+00 2.987463e+00 3.078158e+00 3.116328e+00 3.250192e+00 3.738113e+00 3.266875e+00 2.829993e+00 2.967949e+00 2.476121e+00 2.021681e+00 2.264445e-01 3.584008e-01 4.122588e-01 5.086471e-01 5.519696e-01 5.562619e-01 5.942494e-01 6.847889e-01 5.904057e-01 5.307208e-01 5.528100e-01 4.553457e-01 3.018115e-01
<GCONST> 1.265182e+02
<STATE> 4
<MEAN> 39
 7.903662e-04 -6.079456e-01 1.670089e+00 -6.705837e-01 -5.929818e+00 -8.820225e-01 -6.906881e+00 5.931143e-01 -4.574426e+00 -3.940755e-01 -3.854154e-01 -5.847453e+00 5.993814e+01 5.024984e-04 -6.478592e-05 9.522401e-04 -6.048587e-04 -1.305029e-03 -9.148303e-04 -9.999124e-04 -6.995694e-04 3.150678e-04 8.832195e-04 -1.229102e-04 -1.829845e-05 4.304752e-04 -1.024714e-04 5.090495e-05 -4.314321e-05 5.499199e-04 2.475645e-04 2.544455e-04 -3.161734e-04 -1.009587e-04 -7.179174e-05 -5.594532e-04 -1.336834e-04 -6.698545e-06 -3.952787e-04
<VARIANCE> 39
 2.681136e+01 5.325134e+01 6.824250e+01 5.887592e+01 6.062508e+01 6.608533e+01 5.928268e+01 6.068991e+01 5.916120e+01 4.597362e+01 4.705821e+01 4.804106e+01 6.619385e+01 1.372020e+00 2.288023e+00 2.566274e+00 2.987463e+00 3.078158e+00 3.116328e+00 3.250192e+00 3.738113e+00 3.266875e+00 2.829993e+00 2.967949e+00 2.476121e+00 2.021681e+00 2.264445e-01 3.584008e-01 4.122588e-01 5.086471e-01 5.519696e-01 5.562619e-01 5.942494e-01 6.847889e-01 5.904057e-01 5.307208e-01 5.528100e-01 4.553457e-01 3.018115e-01
<GCONST> 1.265182e+02
<TRANSP> 5
 0.000000e+00 1.000000e+00 0.000000e+00 0.000000e+00 0.000000e+00
 0.000000e+00 6.000000e-01 4.000000e-01 0.000000e+00 0.000000e+00
 0.000000e+00 0.000000e+00 6.000000e-01 4.000000e-01 0.000000e+00
 0.000000e+00 0.000000e+00 0.000000e+00 7.000000e-01 3.000000e-01
 0.000000e+00 0.000000e+00 0.000000e+00 0.000000e+00 0.000000e+00
<ENDHMM>
~h "n"
<BEGINHMM>
<NUMSTATES> 5
<STATE> 2
<MEAN> 39
 7.903662e-04 -6.079456e-01 1.670089e+00 -6.705837e-01 -5.929818e+00 -8.820225e-01 -6.906881e+00 5.931143e-01 -4.574426e+00 -3.940755e-01 -3.854154e-01 -5.847453e+00 5.993814e+01 5.024984e-04 -6.478592e-05 9.522401e-04 -6.048587e-04 -1.305029e-03 -9.148303e-04 -9.999124e-04 -6.995694e-04 3.150678e-04 8.832195e-04 -1.229102e-04 -1.829845e-05 4.304752e-04 -1.024714e-04 5.090495e-05 -4.314321e-05 5.499199e-04 2.475645e-04 2.544455e-04 -3.161734e-04 -1.009587e-04 -7.179174e-05 -5.594532e-04 -1.336834e-04 -6.698545e-06 -3.952787e-04
<VARIANCE> 39
 2.681136e+01 5.325134e+01 6.824250e+01 5.887592e+01 6.062508e+01 6.608533e+01 5.928268e+01 6.068991e+01 5.916120e+01 4.597362e+01 4.705821e+01 4.804106e+01 6.619385e+01 1.372020e+00 2.288023e+00 2.566274e+00 2.987463e+00 3.078158e+00 3.116328e+00 3.250192e+00 3.738113e+00 3.266875e+00 2.829993e+00 2.967949e+00 2.476121e+00 2.021681e+00 2.264445e-01 3.584008e-01 4.122588e-01 5.086471e-01 5.519696e-01 5.562619e-01 5.942494e-01 6.847889e-01 5.904057e-01 5.307208e-01 5.528100e-01 4.553457e-01 3.018115e-01
<GCONST> 1.265182e+02
<STATE> 3
<MEAN> 39
 7.903662e-04 -6.079456e-01 1.670089e+00 -6.705837e-01 -5.929818e+00 -8.820225e-01 -6.906881e+00 5.931143e-01 -4.574426e+00 -3.940755e-01 -3.854154e-01 -5.847453e+00 5.993814e+01 5.024984e-04 -6.478592e-05 9.522401e-04 -6.048587e-04 -1.305029e-03 -9.148303e-04 -9.999124e-04 -6.995694e-04 3.150678e-04 8.832195e-04 -1.229102e-04 -1.829845e-05 4.304752e-04 -1.024714e-04 5.090495e-05 -4.314321e-05 5.499199e-04 2.475645e-04 2.544455e-04 -3.161734e-04 -1.009587e-04 -7.179174e-05 -5.594532e-04 -1.336834e-04 -6.698545e-06 -3.952787e-04
<VARIANCE> 39
 2.681136e+01 5.325134e+01 6.824250e+01 5.887592e+01 6.062508e+01 6.608533e+01 5.928268e+01 6.068991e+01 5.916120e+01 4.597362e+01 4.705821e+01 4.804106e+01 6.619385e+01 1.372020e+00 2.288023e+00 2.566274e+00 2.987463e+00 3.078158e+00 3.116328e+00 3.250192e+00 3.738113e+00 3.266875e+00 2.829993e+00 2.967949e+00 2.476121e+00 2.021681e+00 2.264445e-01 3.584008e-01 4.122588e-01 5.086471e-01 5.519696e-01 5.562619e-01 5.942494e-01 6.847889e-01 5.904057e-01 5.307208e-01 5.528100e-01 4.553457e-01 3.018115e-01
<GCONST> 1.265182e+02
<STATE> 4
<MEAN> 39
 7.903662e-04 -6.079456e-01 1.670089e+00 -6.705837e-01 -5.929818e+00 -8.820225e-01 -6.906881e+00 5.931143e-01 -4.574426e+00 -3.940755e-01 -3.854154e-01 -5.847453e+00 5.993814e+01 5.024984e-04 -6.478592e-05 9.522401e-04 -6.048587e-04 -1.305029e-03 -9.148303e-04 -9.999124e-04 -6.995694e-04 3.150678e-04 8.832195e-04 -1.229102e-04 -1.829845e-05 4.304752e-04 -1.024714e-04 5.090495e-05 -4.314321e-05 5.499199e-04 2.475645e-04 2.544455e-04 -3.161734e-04 -1.009587e-04 -7.179174e-05 -5.594532e-04 -1.336834e-04 -6.698545e-06 -3.952787e-04
<VARIANCE> 39
 2.681136e+01 5.325134e+01 6.824250e+01 5.887592e+01 6.062508e+01 6.608533e+01 5.928268e+01 6.068991e+01 5.916120e+01 4.597362e+01 4.705821e+01 4.804106e+01 6.619385e+01 1.372020e+00 2.288023e+00 2.566274e+00 2.987463e+00 3.078158e+00 3.116328e+00 3.250192e+00 3.738113e+00 3.266875e+00 2.829993e+00 2.967949e+00 2.476121e+00 2.021681e+00 2.264445e-01 3.584008e-01 4.122588e-01 5.086471e-01 5.519696e-01 5.562619e-01 5.942494e-01 6.847889e-01 5.904057e-01 5.307208e-01 5.528100e-01 4.553457e-01 3.018115e-01
<GCONST> 1.265182e+02
<TRANSP> 5
 0.000000e+00 1.000000e+00 0.000000e+00 0.000000e+00 0.000000e+00
 0.000000e+00 6.000000e-01 4.000000e-01 0.000000e+00 0.000000e+00
 0.000000e+00 0.000000e+00 6.000000e-01 4.000000e-01 0.000000e+00
 0.000000e+00 0.000000e+00 0.000000e+00 7.000000e-01 3.000000e-01
 0.000000e+00 0.000000e+00 0.000000e+00 0.000000e+00 0.000000e+00
<ENDHMM>
~h "b"
<BEGINHMM>
<NUMSTATES> 5
<STATE> 2
<MEAN> 39
 7.903662e-04 -6.079456e-01 1.670089e+00 -6.705837e-01 -5.929818e+00 -8.820225e-01 -6.906881e+00 5.931143e-01 -4.574426e+00 -3.940755e-01 -3.854154e-01 -5.847453e+00 5.993814e+01 5.024984e-04 -6.478592e-05 9.522401e-04 -6.048587e-04 -1.305029e-03 -9.148303e-04 -9.999124e-04 -6.995694e-04 3.150678e-04 8.832195e-04 -1.229102e-04 -1.829845e-05 4.304752e-04 -1.024714e-04 5.090495e-05 -4.314321e-05 5.499199e-04 2.475645e-04 2.544455e-04 -3.161734e-04 -1.009587e-04 -7.179174e-05 -5.594532e-04 -1.336834e-04 -6.698545e-06 -3.952787e-04
<VARIANCE> 39
 2.681136e+01 5.325134e+01 6.824250e+01 5.887592e+01 6.062508e+01 6.608533e+01 5.928268e+01 6.068991e+01 5.916120e+01 4.597362e+01 4.705821e+01 4.804106e+01 6.619385e+01 1.372020e+00 2.288023e+00 2.566274e+00 2.987463e+00 3.078158e+00 3.116328e+00 3.250192e+00 3.738113e+00 3.266875e+00 2.829993e+00 2.967949e+00 2.476121e+00 2.021681e+00 2.264445e-01 3.584008e-01 4.122588e-01 5.086471e-01 5.519696e-01 5.562619e-01 5.942494e-01 6.847889e-01 5.904057e-01 5.307208e-01 5.528100e-01 4.553457e-01 3.018115e-01
<GCONST> 1.265182e+02
<STATE> 3
<MEAN> 39
 7.903662e-04 -6.079456e-01 1.670089e+00 -6.705837e-01 -5.929818e+00 -8.820225e-01 -6.906881e+00 5.931143e-01 -4.574426e+00 -3.940755e-01 -3.854154e-01 -5.847453e+00 5.993814e+01 5.024984e-04 -6.478592e-05 9.522401e-04 -6.048587e-04 -1.305029e-03 -9.148303e-04 -9.999124e-04 -6.995694e-04 3.150678e-04 8.832195e-04 -1.229102e-04 -1.829845e-05 4.304752e-04 -1.024714e-04 5.090495e-05 -4.314321e-05 5.499199e-04 2.475645e-04 2.544455e-04 -3.161734e-04 -1.009587e-04 -7.179174e-05 -5.594532e-04 -1.336834e-04 -6.698545e-06 -3.952787e-04
<VARIANCE> 39
 2.681136e+01 5.325134e+01 6.824250e+01 5.887592e+01 6.062508e+01 6.608533e+01 5.928268e+01 6.068991e+01 5.916120e+01 4.597362e+01 4.705821e+01 4.804106e+01 6.619385e+01 1.372020e+00 2.288023e+00 2.566274e+00 2.987463e+00 3.078158e+00 3.116328e+00 3.250192e+00 3.738113e+00 3.266875e+00 2.829993e+00 2.967949e+00 2.476121e+00 2.021681e+00 2.264445e-01 3.584008e-01 4.122588e-01 5.086471e-01 5.519696e-01 5.562619e-01 5.942494e-01 6.847889e-01 5.904057e-01 5.307208e-01 5.528100e-01 4.553457e-01 3.018115e-01
<GCONST> 1.265182e+02
<STATE> 4
<MEAN> 39
 7.903662e-04 -6.079456e-01 1.670089e+00 -6.705837e-01 -5.929818e+00 -8.820225e-01 -6.906881e+00 5.931143e-01 -4.574426e+00 -3.940755e-01 -3.854154e-01 -5.847453e+00 5.993814e+01 5.024984e-04 -6.478592e-05 9.522401e-04 -6.048587e-04 -1.305029e-03 -9.148303e-04 -9.999124e-04 -6.995694e-04 3.150678e-04 8.832195e-04 -1.229102e-04 -1.829845e-05 4.304752e-04 -1.024714e-04 5.090495e-05 -4.314321e-05 5.499199e-04 2.475645e-04 2.544455e-04 -3.161734e-04 -1.009587e-04 -7.179174e-05 -5.594532e-04 -1.336834e-04 -6.698545e-06 -3.952787e-04
<VARIANCE> 39
 2.681136e+01 5.325134e+01 6.824250e+01 5.887592e+01 6.062508e+01 6.608533e+01 5.928268e+01 6.068991e+01 5.916120e+01 4.597362e+01 4.705821e+01 4.804106e+01 6.619385e+01 1.372020e+00 2.288023e+00 2.566274e+00 2.987463e+00 3.078158e+00 3.116328e+00 3.250192e+00 3.738113e+00 3.266875e+00 2.829993e+00 2.967949e+00 2.476121e+00 2.021681e+00 2.264445e-01 3.584008e-01 4.122588e-01 5.086471e-01 5.519696e-01 5.562619e-01 5.942494e-01 6.847889e-01 5.904057e-01 5.307208e-01 5.528100e-01 4.553457e-01 3.018115e-01
<GCONST> 1.265182e+02
<TRANSP> 5
 0.000000e+00 1.000000e+00 0.000000e+00 0.000000e+00 0.000000e+00
 0.000000e+00 6.000000e-01 4.000000e-01 0.000000e+00 0.000000e+00
 0.000000e+00 0.000000e+00 6.000000e-01 4.000000e-01 0.000000e+00
 0.000000e+00 0.000000e+00 0.000000e+00 7.000000e-01 3.000000e-01
 0.000000e+00 0.000000e+00 0.000000e+00 0.000000e+00 0.000000e+00
<ENDHMM>
~h "w"
<BEGINHMM>
<NUMSTATES> 5
<STATE> 2
<MEAN> 39
 7.903662e-04 -6.079456e-01 1.670089e+00 -6.705837e-01 -5.929818e+00 -8.820225e-01 -6.906881e+00 5.931143e-01 -4.574426e+00 -3.940755e-01 -3.854154e-01 -5.847453e+00 5.993814e+01 5.024984e-04 -6.478592e-05 9.522401e-04 -6.048587e-04 -1.305029e-03 -9.148303e-04 -9.999124e-04 -6.995694e-04 3.150678e-04 8.832195e-04 -1.229102e-04 -1.829845e-05 4.304752e-04 -1.024714e-04 5.090495e-05 -4.314321e-05 5.499199e-04 2.475645e-04 2.544455e-04 -3.161734e-04 -1.009587e-04 -7.179174e-05 -5.594532e-04 -1.336834e-04 -6.698545e-06 -3.952787e-04
<VARIANCE> 39
 2.681136e+01 5.325134e+01 6.824250e+01 5.887592e+01 6.062508e+01 6.608533e+01 5.928268e+01 6.068991e+01 5.916120e+01 4.597362e+01 4.705821e+01 4.804106e+01 6.619385e+01 1.372020e+00 2.288023e+00 2.566274e+00 2.987463e+00 3.078158e+00 3.116328e+00 3.250192e+00 3.738113e+00 3.266875e+00 2.829993e+00 2.967949e+00 2.476121e+00 2.021681e+00 2.264445e-01 3.584008e-01 4.122588e-01 5.086471e-01 5.519696e-01 5.562619e-01 5.942494e-01 6.847889e-01 5.904057e-01 5.307208e-01 5.528100e-01 4.553457e-01 3.018115e-01
<GCONST> 1.265182e+02
<STATE> 3
<MEAN> 39
 7.903662e-04 -6.079456e-01 1.670089e+00 -6.705837e-01 -5.929818e+00 -8.820225e-01 -6.906881e+00 5.931143e-01 -4.574426e+00 -3.940755e-01 -3.854154e-01 -5.847453e+00 5.993814e+01 5.024984e-04 -6.478592e-05 9.522401e-04 -6.048587e-04 -1.305029e-03 -9.148303e-04 -9.999124e-04 -6.995694e-04 3.150678e-04 8.832195e-04 -1.229102e-04 -1.829845e-05 4.304752e-04 -1.024714e-04 5.090495e-05 -4.314321e-05 5.499199e-04 2.475645e-04 2.544455e-04 -3.161734e-04 -1.009587e-04 -7.179174e-05 -5.594532e-04 -1.336834e-04 -6.698545e-06 -3.952787e-04
<VARIANCE> 39
 2.681136e+01 5.325134e+01 6.824250e+01 5.887592e+01 6.062508e+01 6.608533e+01 5.928268e+01 6.068991e+01 5.916120e+01 4.597362e+01 4.705821e+01 4.804106e+01 6.619385e+01 1.372020e+00 2.288023e+00 2.566274e+00 2.987463e+00 3.078158e+00 3.116328e+00 3.250192e+00 3.738113e+00 3.266875e+00 2.829993e+00 2.967949e+00 2.476121e+00 2.021681e+00 2.264445e-01 3.584008e-01 4.122588e-01 5.086471e-01 5.519696e-01 5.562619e-01 5.942494e-01 6.847889e-01 5.904057e-01 5.307208e-01 5.528100e-01 4.553457e-01 3.018115e-01
<GCONST> 1.265182e+02
<STATE> 4
<MEAN> 39
 7.903662e-04 -6.079456e-01 1.670089e+00 -6.705837e-01 -5.929818e+00 -8.820225e-01 -6.906881e+00 5.931143e-01 -4.574426e+00 -3.940755e-01 -3.854154e-01 -5.847453e+00 5.993814e+01 5.024984e-04 -6.478592e-05 9.522401e-04 -6.048587e-04 -1.305029e-03 -9.148303e-04 -9.999124e-04 -6.995694e-04 3.150678e-04 8.832195e-04 -1.229102e-04 -1.829845e-05 4.304752e-04 -1.024714e-04 5.090495e-05 -4.314321e-05 5.499199e-04 2.475645e-04 2.544455e-04 -3.161734e-04 -1.009587e-04 -7.179174e-05 -5.594532e-04 -1.336834e-04 -6.698545e-06 -3.952787e-04
<VARIANCE> 39
 2.681136e+01 5.325134e+01 6.824250e+01 5.887592e+01 6.062508e+01 6.608533e+01 5.928268e+01 6.068991e+01 5.916120e+01 4.597362e+01 4.705821e+01 4.804106e+01 6.619385e+01 1.372020e+00 2.288023e+00 2.566274e+00 2.987463e+00 3.078158e+00 3.116328e+00 3.250192e+00 3.738113e+00 3.266875e+00 2.829993e+00 2.967949e+00 2.476121e+00 2.021681e+00 2.264445e-01 3.584008e-01 4.122588e-01 5.086471e-01 5.519696e-01 5.562619e-01 5.942494e-01 6.847889e-01 5.904057e-01 5.307208e-01 5.528100e-01 4.553457e-01 3.018115e-01
<GCONST> 1.265182e+02
<TRANSP> 5
 0.000000e+00 1.000000e+00 0.000000e+00 0.000000e+00 0.000000e+00
 0.000000e+00 6.000000e-01 4.000000e-01 0.000000e+00 0.000000e+00
 0.000000e+00 0.000000e+00 6.000000e-01 4.000000e-01 0.000000e+00
 0.000000e+00 0.000000e+00 0.000000e+00 7.000000e-01 3.000000e-01
 0.000000e+00 0.000000e+00 0.000000e+00 0.000000e+00 0.000000e+00
<ENDHMM>
~h "@"
<BEGINHMM>
<NUMSTATES> 5
<STATE> 2
<MEAN> 39
 7.903662e-04 -6.079456e-01 1.670089e+00 -6.705837e-01 -5.929818e+00 -8.820225e-01 -6.906881e+00 5.931143e-01 -4.574426e+00 -3.940755e-01 -3.854154e-01 -5.847453e+00 5.993814e+01 5.024984e-04 -6.478592e-05 9.522401e-04 -6.048587e-04 -1.305029e-03 -9.148303e-04 -9.999124e-04 -6.995694e-04 3.150678e-04 8.832195e-04 -1.229102e-04 -1.829845e-05 4.304752e-04 -1.024714e-04 5.090495e-05 -4.314321e-05 5.499199e-04 2.475645e-04 2.544455e-04 -3.161734e-04 -1.009587e-04 -7.179174e-05 -5.594532e-04 -1.336834e-04 -6.698545e-06 -3.952787e-04
<VARIANCE> 39
 2.681136e+01 5.325134e+01 6.824250e+01 5.887592e+01 6.062508e+01 6.608533e+01 5.928268e+01 6.068991e+01 5.916120e+01 4.597362e+01 4.705821e+01 4.804106e+01 6.619385e+01 1.372020e+00 2.288023e+00 2.566274e+00 2.987463e+00 3.078158e+00 3.116328e+00 3.250192e+00 3.738113e+00 3.266875e+00 2.829993e+00 2.967949e+00 2.476121e+00 2.021681e+00 2.264445e-01 3.584008e-01 4.122588e-01 5.086471e-01 5.519696e-01 5.562619e-01 5.942494e-01 6.847889e-01 5.904057e-01 5.307208e-01 5.528100e-01 4.553457e-01 3.018115e-01
<GCONST> 1.265182e+02
<STATE> 3
<MEAN> 39
 7.903662e-04 -6.079456e-01 1.670089e+00 -6.705837e-01 -5.929818e+00 -8.820225e-01 -6.906881e+00 5.931143e-01 -4.574426e+00 -3.940755e-01 -3.854154e-01 -5.847453e+00 5.993814e+01 5.024984e-04 -6.478592e-05 9.522401e-04 -6.048587e-04 -1.305029e-03 -9.148303e-04 -9.999124e-04 -6.995694e-04 3.150678e-04 8.832195e-04 -1.229102e-04 -1.829845e-05 4.304752e-04 -1.024714e-04 5.090495e-05 -4.314321e-05 5.499199e-04 2.475645e-04 2.544455e-04 -3.161734e-04 -1.009587e-04 -7.179174e-05 -5.594532e-04 -1.336834e-04 -6.698545e-06 -3.952787e-04
<VARIANCE> 39
 2.681136e+01 5.325134e+01 6.824250e+01 5.887592e+01 6.062508e+01 6.608533e+01 5.928268e+01 6.068991e+01 5.916120e+01 4.597362e+01 4.705821e+01 4.804106e+01 6.619385e+01 1.372020e+00 2.288023e+00 2.566274e+00 2.987463e+00 3.078158e+00 3.116328e+00 3.250192e+00 3.738113e+00 3.266875e+00 2.829993e+00 2.967949e+00 2.476121e+00 2.021681e+00 2.264445e-01 3.584008e-01 4.122588e-01 5.086471e-01 5.519696e-01 5.562619e-01 5.942494e-01 6.847889e-01 5.904057e-01 5.307208e-01 5.528100e-01 4.553457e-01 3.018115e-01
<GCONST> 1.265182e+02
<STATE> 4
<MEAN> 39
 7.903662e-04 -6.079456e-01 1.670089e+00 -6.705837e-01 -5.929818e+00 -8.820225e-01 -6.906881e+00 5.931143e-01 -4.574426e+00 -3.940755e-01 -3.854154e-01 -5.847453e+00 5.993814e+01 5.024984e-04 -6.478592e-05 9.522401e-04 -6.048587e-04 -1.305029e-03 -9.148303e-04 -9.999124e-04 -6.995694e-04 3.150678e-04 8.832195e-04 -1.229102e-04 -1.829845e-05 4.304752e-04 -1.024714e-04 5.090495e-05 -4.314321e-05 5.499199e-04 2.475645e-04 2.544455e-04 -3.161734e-04 -1.009587e-04 -7.179174e-05 -5.594532e-04 -1.336834e-04 -6.698545e-06 -3.952787e-04
<VARIANCE> 39
 2.681136e+01 5.325134e+01 6.824250e+01 5.887592e+01 6.062508e+01 6.608533e+01 5.928268e+01 6.068991e+01 5.916120e+01 4.597362e+01 4.705821e+01 4.804106e+01 6.619385e+01 1.372020e+00 2.288023e+00 2.566274e+00 2.987463e+00 3.078158e+00 3.116328e+00 3.250192e+00 3.738113e+00 3.266875e+00 2.829993e+00 2.967949e+00 2.476121e+00 2.021681e+00 2.264445e-01 3.584008e-01 4.122588e-01 5.086471e-01 5.519696e-01 5.562619e-01 5.942494e-01 6.847889e-01 5.904057e-01 5.307208e-01 5.528100e-01 4.553457e-01 3.018115e-01
<GCONST> 1.265182e+02
<TRANSP> 5
 0.000000e+00 1.000000e+00 0.000000e+00 0.000000e+00 0.000000e+00
 0.000000e+00 6.000000e-01 4.000000e-01 0.000000e+00 0.000000e+00
 0.000000e+00 0.000000e+00 6.000000e-01 4.000000e-01 0.000000e+00
 0.000000e+00 0.000000e+00 0.000000e+00 7.000000e-01 3.000000e-01
 0.000000e+00 0.000000e+00 0.000000e+00 0.000000e+00 0.000000e+00
<ENDHMM>
~h "l"
<BEGINHMM>
<NUMSTATES> 5
<STATE> 2
<MEAN> 39
 7.903662e-04 -6.079456e-01 1.670089e+00 -6.705837e-01 -5.929818e+00 -8.820225e-01 -6.906881e+00 5.931143e-01 -4.574426e+00 -3.940755e-01 -3.854154e-01 -5.847453e+00 5.993814e+01 5.024984e-04 -6.478592e-05 9.522401e-04 -6.048587e-04 -1.305029e-03 -9.148303e-04 -9.999124e-04 -6.995694e-04 3.150678e-04 8.832195e-04 -1.229102e-04 -1.829845e-05 4.304752e-04 -1.024714e-04 5.090495e-05 -4.314321e-05 5.499199e-04 2.475645e-04 2.544455e-04 -3.161734e-04 -1.009587e-04 -7.179174e-05 -5.594532e-04 -1.336834e-04 -6.698545e-06 -3.952787e-04
<VARIANCE> 39
 2.681136e+01 5.325134e+01 6.824250e+01 5.887592e+01 6.062508e+01 6.608533e+01 5.928268e+01 6.068991e+01 5.916120e+01 4.597362e+01 4.705821e+01 4.804106e+01 6.619385e+01 1.372020e+00 2.288023e+00 2.566274e+00 2.987463e+00 3.078158e+00 3.116328e+00 3.250192e+00 3.738113e+00 3.266875e+00 2.829993e+00 2.967949e+00 2.476121e+00 2.021681e+00 2.264445e-01 3.584008e-01 4.122588e-01 5.086471e-01 5.519696e-01 5.562619e-01 5.942494e-01 6.847889e-01 5.904057e-01 5.307208e-01 5.528100e-01 4.553457e-01 3.018115e-01
<GCONST> 1.265182e+02
<STATE> 3
<MEAN> 39
 7.903662e-04 -6.079456e-01 1.670089e+00 -6.705837e-01 -5.929818e+00 -8.820225e-01 -6.906881e+00 5.931143e-01 -4.574426e+00 -3.940755e-01 -3.854154e-01 -5.847453e+00 5.993814e+01 5.024984e-04 -6.478592e-05 9.522401e-04 -6.048587e-04 -1.305029e-03 -9.148303e-04 -9.999124e-04 -6.995694e-04 3.150678e-04 8.832195e-04 -1.229102e-04 -1.829845e-05 4.304752e-04 -1.024714e-04 5.090495e-05 -4.314321e-05 5.499199e-04 2.475645e-04 2.544455e-04 -3.161734e-04 -1.009587e-04 -7.179174e-05 -5.594532e-04 -1.336834e-04 -6.698545e-06 -3.952787e-04
<VARIANCE> 39
 2.681136e+01 5.325134e+01 6.824250e+01 5.887592e+01 6.062508e+01 6.608533e+01 5.928268e+01 6.068991e+01 5.916120e+01 4.597362e+01 4.705821e+01 4.804106e+01 6.619385e+01 1.372020e+00 2.288023e+00 2.566274e+00 2.987463e+00 3.078158e+00 3.116328e+00 3.250192e+00 3.738113e+00 3.266875e+00 2.829993e+00 2.967949e+00 2.476121e+00 2.021681e+00 2.264445e-01 3.584008e-01 4.122588e-01 5.086471e-01 5.519696e-01 5.562619e-01 5.942494e-01 6.847889e-01 5.904057e-01 5.307208e-01 5.528100e-01 4.553457e-01 3.018115e-01
<GCONST> 1.265182e+02
<STATE> 4
<MEAN> 39
 7.903662e-04 -6.079456e-01 1.670089e+00 -6.705837e-01 -5.929818e+00 -8.820225e-01 -6.906881e+00 5.931143e-01 -4.574426e+00 -3.940755e-01 -3.854154e-01 -5.847453e+00 5.993814e+01 5.024984e-04 -6.478592e-05 9.522401e-04 -6.048587e-04 -1.305029e-03 -9.148303e-04 -9.999124e-04 -6.995694e-04 3.150678e-04 8.832195e-04 -1.229102e-04 -1.829845e-05 4.304752e-04 -1.024714e-04 5.090495e-05 -4.314321e-05 5.499199e-04 2.475645e-04 2.544455e-04 -3.161734e-04 -1.009587e-04 -7.179174e-05 -5.594532e-04 -1.336834e-04 -6.698545e-06 -3.952787e-04
<VARIANCE> 39
 2.681136e+01 5.325134e+01 6.824250e+01 5.887592e+01 6.062508e+01 6.608533e+01 5.928268e+01 6.068991e+01 5.916120e+01 4.597362e+01 4.705821e+01 4.804106e+01 6.619385e+01 1.372020e+00 2.288023e+00 2.566274e+00 2.987463e+00 3.078158e+00 3.116328e+00 3.250192e+00 3.738113e+00 3.266875e+00 2.829993e+00 2.967949e+00 2.476121e+00 2.021681e+00 2.264445e-01 3.584008e-01 4.122588e-01 5.086471e-01 5.519696e-01 5.562619e-01 5.942494e-01 6.847889e-01 5.904057e-01 5.307208e-01 5.528100e-01 4.553457e-01 3.018115e-01
<GCONST> 1.265182e+02
<TRANSP> 5
 0.000000e+00 1.000000e+00 0.000000e+00 0.000000e+00 0.000000e+00
 0.000000e+00 6.000000e-01 4.000000e-01 0.000000e+00 0.000000e+00
 0.000000e+00 0.000000e+00 6.000000e-01 4.000000e-01 0.000000e+00
 0.000000e+00 0.000000e+00 0.000000e+00 7.000000e-01 3.000000e-01
 0.000000e+00 0.000000e+00 0.000000e+00 0.000000e+00 0.000000e+00
<ENDHMM>
~h "r"
<BEGINHMM>
<NUMSTATES> 5
<STATE> 2
<MEAN> 39
 7.903662e-04 -6.079456e-01 1.670089e+00 -6.705837e-01 -5.929818e+00 -8.820225e-01 -6.906881e+00 5.931143e-01 -4.574426e+00 -3.940755e-01 -3.854154e-01 -5.847453e+00 5.993814e+01 5.024984e-04 -6.478592e-05 9.522401e-04 -6.048587e-04 -1.305029e-03 -9.148303e-04 -9.999124e-04 -6.995694e-04 3.150678e-04 8.832195e-04 -1.229102e-04 -1.829845e-05 4.304752e-04 -1.024714e-04 5.090495e-05 -4.314321e-05 5.499199e-04 2.475645e-04 2.544455e-04 -3.161734e-04 -1.009587e-04 -7.179174e-05 -5.594532e-04 -1.336834e-04 -6.698545e-06 -3.952787e-04
<VARIANCE> 39
 2.681136e+01 5.325134e+01 6.824250e+01 5.887592e+01 6.062508e+01 6.608533e+01 5.928268e+01 6.068991e+01 5.916120e+01 4.597362e+01 4.705821e+01 4.804106e+01 6.619385e+01 1.372020e+00 2.288023e+00 2.566274e+00 2.987463e+00 3.078158e+00 3.116328e+00 3.250192e+00 3.738113e+00 3.266875e+00 2.829993e+00 2.967949e+00 2.476121e+00 2.021681e+00 2.264445e-01 3.584008e-01 4.122588e-01 5.086471e-01 5.519696e-01 5.562619e-01 5.942494e-01 6.847889e-01 5.904057e-01 5.307208e-01 5.528100e-01 4.553457e-01 3.018115e-01
<GCONST> 1.265182e+02
<STATE> 3
<MEAN> 39
 7.903662e-04 -6.079456e-01 1.670089e+00 -6.705837e-01 -5.929818e+00 -8.820225e-01 -6.906881e+00 5.931143e-01 -4.574426e+00 -3.940755e-01 -3.854154e-01 -5.847453e+00 5.993814e+01 5.024984e-04 -6.478592e-05 9.522401e-04 -6.048587e-04 -1.305029e-03 -9.148303e-04 -9.999124e-04 -6.995694e-04 3.150678e-04 8.832195e-04 -1.229102e-04 -1.829845e-05 4.304752e-04 -1.024714e-04 5.090495e-05 -4.314321e-05 5.499199e-04 2.475645e-04 2.544455e-04 -3.161734e-04 -1.009587e-04 -7.179174e-05 -5.594532e-04 -1.336834e-04 -6.698545e-06 -3.952787e-04
<VARIANCE> 39
 2.681136e+01 5.325134e+01 6.824250e+01 5.887592e+01 6.062508e+01 6.608533e+01 5.928268e+01 6.068991e+01 5.916120e+01 4.597362e+01 4.705821e+01 4.804106e+01 6.619385e+01 1.372020e+00 2.288023e+00 2.566274e+00 2.987463e+00 3.078158e+00 3.116328e+00 3.250192e+00 3.738113e+00 3.266875e+00 2.829993e+00 2.967949e+00 2.476121e+00 2.021681e+00 2.264445e-01 3.584008e-01 4.122588e-01 5.086471e-01 5.519696e-01 5.562619e-01 5.942494e-01 6.847889e-01 5.904057e-01 5.307208e-01 5.528100e-01 4.553457e-01 3.018115e-01
<GCONST> 1.265182e+02
<STATE> 4
<MEAN> 39
 7.903662e-04 -6.079456e-01 1.670089e+00 -6.705837e-01 -5.929818e+00 -8.820225e-01 -6.906881e+00 5.931143e-01 -4.574426e+00 -3.940755e-01 -3.854154e-01 -5.847453e+00 5.993814e+01 5.024984e-04 -6.478592e-05 9.522401e-04 -6.048587e-04 -1.305029e-03 -9.148303e-04 -9.999124e-04 -6.995694e-04 3.150678e-04 8.832195e-04 -1.229102e-04 -1.829845e-05 4.304752e-04 -1.024714e-04 5.090495e-05 -4.314321e-05 5.499199e-04 2.475645e-04 2.544455e-04 -3.161734e-04 -1.009587e-04 -7.179174e-05 -5.594532e-04 -1.336834e-04 -6.698545e-06 -3.952787e-04
<VARIANCE> 39
 2.681136e+01 5.325134e+01 6.824250e+01 5.887592e+01 6.062508e+01 6.608533e+01 5.928268e+01 6.068991e+01 5.916120e+01 4.597362e+01 4.705821e+01 4.804106e+01 6.619385e+01 1.372020e+00 2.288023e+00 2.566274e+00 2.987463e+00 3.078158e+00 3.116328e+00 3.250192e+00 3.738113e+00 3.266875e+00 2.829993e+00 2.967949e+00 2.476121e+00 2.021681e+00 2.264445e-01 3.584008e-01 4.122588e-01 5.086471e-01 5.519696e-01 5.562619e-01 5.942494e-01 6.847889e-01 5.904057e-01 5.307208e-01 5.528100e-01 4.553457e-01 3.018115e-01
<GCONST> 1.265182e+02
<TRANSP> 5
 0.000000e+00 1.000000e+00 0.000000e+00 0.000000e+00 0.000000e+00
 0.000000e+00 6.000000e-01 4.000000e-01 0.000000e+00 0.000000e+00
 0.000000e+00 0.000000e+00 6.000000e-01 4.000000e-01 0.000000e+00
 0.000000e+00 0.000000e+00 0.000000e+00 7.000000e-01 3.000000e-01
 0.000000e+00 0.000000e+00 0.000000e+00 0.000000e+00 0.000000e+00
<ENDHMM>
~h "d"
<BEGINHMM>
<NUMSTATES> 5
<STATE> 2
<MEAN> 39
 7.903662e-04 -6.079456e-01 1.670089e+00 -6.705837e-01 -5.929818e+00 -8.820225e-01 -6.906881e+00 5.931143e-01 -4.574426e+00 -3.940755e-01 -3.854154e-01 -5.847453e+00 5.993814e+01 5.024984e-04 -6.478592e-05 9.522401e-04 -6.048587e-04 -1.305029e-03 -9.148303e-04 -9.999124e-04 -6.995694e-04 3.150678e-04 8.832195e-04 -1.229102e-04 -1.829845e-05 4.304752e-04 -1.024714e-04 5.090495e-05 -4.314321e-05 5.499199e-04 2.475645e-04 2.544455e-04 -3.161734e-04 -1.009587e-04 -7.179174e-05 -5.594532e-04 -1.336834e-04 -6.698545e-06 -3.952787e-04
<VARIANCE> 39
 2.681136e+01 5.325134e+01 6.824250e+01 5.887592e+01 6.062508e+01 6.608533e+01 5.928268e+01 6.068991e+01 5.916120e+01 4.597362e+01 4.705821e+01 4.804106e+01 6.619385e+01 1.372020e+00 2.288023e+00 2.566274e+00 2.987463e+00 3.078158e+00 3.116328e+00 3.250192e+00 3.738113e+00 3.266875e+00 2.829993e+00 2.967949e+00 2.476121e+00 2.021681e+00 2.264445e-01 3.584008e-01 4.122588e-01 5.086471e-01 5.519696e-01 5.562619e-01 5.942494e-01 6.847889e-01 5.904057e-01 5.307208e-01 5.528100e-01 4.553457e-01 3.018115e-01
<GCONST> 1.265182e+02
<STATE> 3
<MEAN> 39
 7.903662e-04 -6.079456e-01 1.670089e+00 -6.705837e-01 -5.929818e+00 -8.820225e-01 -6.906881e+00 5.931143e-01 -4.574426e+00 -3.940755e-01 -3.854154e-01 -5.847453e+00 5.993814e+01 5.024984e-04 -6.478592e-05 9.522401e-04 -6.048587e-04 -1.305029e-03 -9.148303e-04 -9.999124e-04 -6.995694e-04 3.150678e-04 8.832195e-04 -1.229102e-04 -1.829845e-05 4.304752e-04 -1.024714e-04 5.090495e-05 -4.314321e-05 5.499199e-04 2.475645e-04 2.544455e-04 -3.161734e-04 -1.009587e-04 -7.179174e-05 -5.594532e-04 -1.336834e-04 -6.698545e-06 -3.952787e-04
<VARIANCE> 39
 2.681136e+01 5.325134e+01 6.824250e+01 5.887592e+01 6.062508e+01 6.608533e+01 5.928268e+01 6.068991e+01 5.916120e+01 4.597362e+01 4.705821e+01 4.804106e+01 6.619385e+01 1.372020e+00 2.288023e+00 2.566274e+00 2.987463e+00 3.078158e+00 3.116328e+00 3.250192e+00 3.738113e+00 3.266875e+00 2.829993e+00 2.967949e+00 2.476121e+00 2.021681e+00 2.264445e-01 3.584008e-01 4.122588e-01 5.086471e-01 5.519696e-01 5.562619e-01 5.942494e-01 6.847889e-01 5.904057e-01 5.307208e-01 5.528100e-01 4.553457e-01 3.018115e-01
<GCONST> 1.265182e+02
<STATE> 4
<MEAN> 39
 7.903662e-04 -6.079456e-01 1.670089e+00 -6.705837e-01 -5.929818e+00 -8.820225e-01 -6.906881e+00 5.931143e-01 -4.574426e+00 -3.940755e-01 -3.854154e-01 -5.847453e+00 5.993814e+01 5.024984e-04 -6.478592e-05 9.522401e-04 -6.048587e-04 -1.305029e-03 -9.148303e-04 -9.999124e-04 -6.995694e-04 3.150678e-04 8.832195e-04 -1.229102e-04 -1.829845e-05 4.304752e-04 -1.024714e-04 5.090495e-05 -4.314321e-05 5.499199e-04 2.475645e-04 2.544455e-04 -3.161734e-04 -1.009587e-04 -7.179174e-05 -5.594532e-04 -1.336834e-04 -6.698545e-06 -3.952787e-04
<VARIANCE> 39
 2.681136e+01 5.325134e+01 6.824250e+01 5.887592e+01 6.062508e+01 6.608533e+01 5.928268e+01 6.068991e+01 5.916120e+01 4.597362e+01 4.705821e+01 4.804106e+01 6.619385e+01 1.372020e+00 2.288023e+00 2.566274e+00 2.987463e+00 3.078158e+00 3.116328e+00 3.250192e+00 3.738113e+00 3.266875e+00 2.829993e+00 2.967949e+00 2.476121e+00 2.021681e+00 2.264445e-01 3.584008e-01 4.122588e-01 5.086471e-01 5.519696e-01 5.562619e-01 5.942494e-01 6.847889e-01 5.904057e-01 5.307208e-01 5.528100e-01 4.553457e-01 3.018115e-01
<GCONST> 1.265182e+02
<TRANSP> 5
 0.000000e+00 1.000000e+00 0.000000e+00 0.000000e+00 0.000000e+00
 0.000000e+00 6.000000e-01 4.000000e-01 0.000000e+00 0.000000e+00
 0.000000e+00 0.000000e+00 6.000000e-01 4.000000e-01 0.000000e+00
 0.000000e+00 0.000000e+00 0.000000e+00 7.000000e-01 3.000000e-01
 0.000000e+00 0.000000e+00 0.000000e+00 0.000000e+00 0.000000e+00
<ENDHMM>
~h "m"
<BEGINHMM>
<NUMSTATES> 5
<STATE> 2
<MEAN> 39
 7.903662e-04 -6.079456e-01 1.670089e+00 -6.705837e-01 -5.929818e+00 -8.820225e-01 -6.906881e+00 5.931143e-01 -4.574426e+00 -3.940755e-01 -3.854154e-01 -5.847453e+00 5.993814e+01 5.024984e-04 -6.478592e-05 9.522401e-04 -6.048587e-04 -1.305029e-03 -9.148303e-04 -9.999124e-04 -6.995694e-04 3.150678e-04 8.832195e-04 -1.229102e-04 -1.829845e-05 4.304752e-04 -1.024714e-04 5.090495e-05 -4.314321e-05 5.499199e-04 2.475645e-04 2.544455e-04 -3.161734e-04 -1.009587e-04 -7.179174e-05 -5.594532e-04 -1.336834e-04 -6.698545e-06 -3.952787e-04
<VARIANCE> 39
 2.681136e+01 5.325134e+01 6.824250e+01 5.887592e+01 6.062508e+01 6.608533e+01 5.928268e+01 6.068991e+01 5.916120e+01 4.597362e+01 4.705821e+01 4.804106e+01 6.619385e+01 1.372020e+00 2.288023e+00 2.566274e+00 2.987463e+00 3.078158e+00 3.116328e+00 3.250192e+00 3.738113e+00 3.266875e+00 2.829993e+00 2.967949e+00 2.476121e+00 2.021681e+00 2.264445e-01 3.584008e-01 4.122588e-01 5.086471e-01 5.519696e-01 5.562619e-01 5.942494e-01 6.847889e-01 5.904057e-01 5.307208e-01 5.528100e-01 4.553457e-01 3.018115e-01
<GCONST> 1.265182e+02
<STATE> 3
<MEAN> 39
 7.903662e-04 -6.079456e-01 1.670089e+00 -6.705837e-01 -5.929818e+00 -8.820225e-01 -6.906881e+00 5.931143e-01 -4.574426e+00 -3.940755e-01 -3.854154e-01 -5.847453e+00 5.993814e+01 5.024984e-04 -6.478592e-05 9.522401e-04 -6.048587e-04 -1.305029e-03 -9.148303e-04 -9.999124e-04 -6.995694e-04 3.150678e-04 8.832195e-04 -1.229102e-04 -1.829845e-05 4.304752e-04 -1.024714e-04 5.090495e-05 -4.314321e-05 5.499199e-04 2.475645e-04 2.544455e-04 -3.161734e-04 -1.009587e-04 -7.179174e-05 -5.594532e-04 -1.336834e-04 -6.698545e-06 -3.952787e-04
<VARIANCE> 39
 2.681136e+01 5.325134e+01 6.824250e+01 5.887592e+01 6.062508e+01 6.608533e+01 5.928268e+01 6.068991e+01 5.916120e+01 4.597362e+01 4.705821e+01 4.804106e+01 6.619385e+01 1.372020e+00 2.288023e+00 2.566274e+00 2.987463e+00 3.078158e+00 3.116328e+00 3.250192e+00 3.738113e+00 3.266875e+00 2.829993e+00 2.967949e+00 2.476121e+00 2.021681e+00 2.264445e-01 3.584008e-01 4.122588e-01 5.086471e-01 5.519696e-01 5.562619e-01 5.942494e-01 6.847889e-01 5.904057e-01 5.307208e-01 5.528100e-01 4.553457e-01 3.018115e-01
<GCONST> 1.265182e+02
<STATE> 4
<MEAN> 39
 7.903662e-04 -6.079456e-01 1.670089e+00 -6.705837e-01 -5.929818e+00 -8.820225e-01 -6.906881e+00 5.931143e-01 -4.574426e+00 -3.940755e-01 -3.854154e-01 -5.847453e+00 5.993814e+01 5.024984e-04 -6.478592e-05 9.522401e-04 -6.048587e-04 -1.305029e-03 -9.148303e-04 -9.999124e-04 -6.995694e-04 3.150678e-04 8.832195e-04 -1.229102e-04 -1.829845e-05 4.304752e-04 -1.024714e-04 5.090495e-05 -4.314321e-05 5.499199e-04 2.475645e-04 2.544455e-04 -3.161734e-04 -1.009587e-04 -7.179174e-05 -5.594532e-04 -1.336834e-04 -6.698545e-06 -3.952787e-04
<VARIANCE> 39
 2.681136e+01 5.325134e+01 6.824250e+01 5.887592e+01 6.062508e+01 6.608533e+01 5.928268e+01 6.068991e+01 5.916120e+01 4.597362e+01 4.705821e+01 4.804106e+01 6.619385e+01 1.372020e+00 2.288023e+00 2.566274e+00 2.987463e+00 3.078158e+00 3.116328e+00 3.250192e+00 3.738113e+00 3.266875e+00 2.829993e+00 2.967949e+00 2.476121e+00 2.021681e+00 2.264445e-01 3.584008e-01 4.122588e-01 5.086471e-01 5.519696e-01 5.562619e-01 5.942494e-01 6.847889e-01 5.904057e-01 5.307208e-01 5.528100e-01 4.553457e-01 3.018115e-01
<GCONST> 1.265182e+02
<TRANSP> 5
 0.000000e+00 1.000000e+00 0.000000e+00 0.000000e+00 0.000000e+00
 0.000000e+00 6.000000e-01 4.000000e-01 0.000000e+00 0.000000e+00
 0.000000e+00 0.000000e+00 6.000000e-01 4.000000e-01 0.000000e+00
 0.000000e+00 0.000000e+00 0.000000e+00 7.000000e-01 3.000000e-01
 0.000000e+00 0.000000e+00 0.000000e+00 0.000000e+00 0.000000e+00
<ENDHMM>
~h "i"
<BEGINHMM>
<NUMSTATES> 5
<STATE> 2
<MEAN> 39
 7.903662e-04 -6.079456e-01 1.670089e+00 -6.705837e-01 -5.929818e+00 -8.820225e-01 -6.906881e+00 5.931143e-01 -4.574426e+00 -3.940755e-01 -3.854154e-01 -5.847453e+00 5.993814e+01 5.024984e-04 -6.478592e-05 9.522401e-04 -6.048587e-04 -1.305029e-03 -9.148303e-04 -9.999124e-04 -6.995694e-04 3.150678e-04 8.832195e-04 -1.229102e-04 -1.829845e-05 4.304752e-04 -1.024714e-04 5.090495e-05 -4.314321e-05 5.499199e-04 2.475645e-04 2.544455e-04 -3.161734e-04 -1.009587e-04 -7.179174e-05 -5.594532e-04 -1.336834e-04 -6.698545e-06 -3.952787e-04
<VARIANCE> 39
 2.681136e+01 5.325134e+01 6.824250e+01 5.887592e+01 6.062508e+01 6.608533e+01 5.928268e+01 6.068991e+01 5.916120e+01 4.597362e+01 4.705821e+01 4.804106e+01 6.619385e+01 1.372020e+00 2.288023e+00 2.566274e+00 2.987463e+00 3.078158e+00 3.116328e+00 3.250192e+00 3.738113e+00 3.266875e+00 2.829993e+00 2.967949e+00 2.476121e+00 2.021681e+00 2.264445e-01 3.584008e-01 4.122588e-01 5.086471e-01 5.519696e-01 5.562619e-01 5.942494e-01 6.847889e-01 5.904057e-01 5.307208e-01 5.528100e-01 4.553457e-01 3.018115e-01
<GCONST> 1.265182e+02
<STATE> 3
<MEAN> 39
 7.903662e-04 -6.079456e-01 1.670089e+00 -6.705837e-01 -5.929818e+00 -8.820225e-01 -6.906881e+00 5.931143e-01 -4.574426e+00 -3.940755e-01 -3.854154e-01 -5.847453e+00 5.993814e+01 5.024984e-04 -6.478592e-05 9.522401e-04 -6.048587e-04 -1.305029e-03 -9.148303e-04 -9.999124e-04 -6.995694e-04 3.150678e-04 8.832195e-04 -1.229102e-04 -1.829845e-05 4.304752e-04 -1.024714e-04 5.090495e-05 -4.314321e-05 5.499199e-04 2.475645e-04 2.544455e-04 -3.161734e-04 -1.009587e-04 -7.179174e-05 -5.594532e-04 -1.336834e-04 -6.698545e-06 -3.952787e-04
<VARIANCE> 39
 2.681136e+01 5.325134e+01 6.824250e+01 5.887592e+01 6.062508e+01 6.608533e+01 5.928268e+01 6.068991e+01 5.916120e+01 4.597362e+01 4.705821e+01 4.804106e+01 6.619385e+01 1.372020e+00 2.288023e+00 2.566274e+00 2.987463e+00 3.078158e+00 3.116328e+00 3.250192e+00 3.738113e+00 3.266875e+00 2.829993e+00 2.967949e+00 2.476121e+00 2.021681e+00 2.264445e-01 3.584008e-01 4.122588e-01 5.086471e-01 5.519696e-01 5.562619e-01 5.942494e-01 6.847889e-01 5.904057e-01 5.307208e-01 5.528100e-01 4.553457e-01 3.018115e-01
<GCONST> 1.265182e+02
<STATE> 4
<MEAN> 39
 7.903662e-04 -6.079456e-01 1.670089e+00 -6.705837e-01 -5.929818e+00 -8.820225e-01 -6.906881e+00 5.931143e-01 -4.574426e+00 -3.940755e-01 -3.854154e-01 -5.847453e+00 5.993814e+01 5.024984e-04 -6.478592e-05 9.522401e-04 -6.048587e-04 -1.305029e-03 -9.148303e-04 -9.999124e-04 -6.995694e-04 3.150678e-04 8.832195e-04 -1.229102e-04 -1.829845e-05 4.304752e-04 -1.024714e-04 5.090495e-05 -4.314321e-05 5.499199e-04 2.475645e-04 2.544455e-04 -3.161734e-04 -1.009587e-04 -7.179174e-05 -5.594532e-04 -1.336834e-04 -6.698545e-06 -3.952787e-04
<VARIANCE> 39
 2.681136e+01 5.325134e+01 6.824250e+01 5.887592e+01 6.062508e+01 6.608533e+01 5.928268e+01 6.068991e+01 5.916120e+01 4.597362e+01 4.705821e+01 4.804106e+01 6.619385e+01 1.372020e+00 2.288023e+00 2.566274e+00 2.987463e+00 3.078158e+00 3.116328e+00 3.250192e+00 3.738113e+00 3.266875e+00 2.829993e+00 2.967949e+00 2.476121e+00 2.021681e+00 2.264445e-01 3.584008e-01 4.122588e-01 5.086471e-01 5.519696e-01 5.562619e-01 5.942494e-01 6.847889e-01 5.904057e-01 5.307208e-01 5.528100e-01 4.553457e-01 3.018115e-01
<GCONST> 1.265182e+02
<TRANSP> 5
 0.000000e+00 1.000000e+00 0.000000e+00 0.000000e+00 0.000000e+00
 0.000000e+00 6.000000e-01 4.000000e-01 0.000000e+00 0.000000e+00
 0.000000e+00 0.000000e+00 6.000000e-01 4.000000e-01 0.000000e+00
 0.000000e+00 0.000000e+00 0.000000e+00 7.000000e-01 3.000000e-01
 0.000000e+00 0.000000e+00 0.000000e+00 0.000000e+00 0.000000e+00
<ENDHMM>
~h "g"
<BEGINHMM>
<NUMSTATES> 5
<STATE> 2
<MEAN> 39
 7.903662e-04 -6.079456e-01 1.670089e+00 -6.705837e-01 -5.929818e+00 -8.820225e-01 -6.906881e+00 5.931143e-01 -4.574426e+00 -3.940755e-01 -3.854154e-01 -5.847453e+00 5.993814e+01 5.024984e-04 -6.478592e-05 9.522401e-04 -6.048587e-04 -1.305029e-03 -9.148303e-04 -9.999124e-04 -6.995694e-04 3.150678e-04 8.832195e-04 -1.229102e-04 -1.829845e-05 4.304752e-04 -1.024714e-04 5.090495e-05 -4.314321e-05 5.499199e-04 2.475645e-04 2.544455e-04 -3.161734e-04 -1.009587e-04 -7.179174e-05 -5.594532e-04 -1.336834e-04 -6.698545e-06 -3.952787e-04
<VARIANCE> 39
 2.681136e+01 5.325134e+01 6.824250e+01 5.887592e+01 6.062508e+01 6.608533e+01 5.928268e+01 6.068991e+01 5.916120e+01 4.597362e+01 4.705821e+01 4.804106e+01 6.619385e+01 1.372020e+00 2.288023e+00 2.566274e+00 2.987463e+00 3.078158e+00 3.116328e+00 3.250192e+00 3.738113e+00 3.266875e+00 2.829993e+00 2.967949e+00 2.476121e+00 2.021681e+00 2.264445e-01 3.584008e-01 4.122588e-01 5.086471e-01 5.519696e-01 5.562619e-01 5.942494e-01 6.847889e-01 5.904057e-01 5.307208e-01 5.528100e-01 4.553457e-01 3.018115e-01
<GCONST> 1.265182e+02
<STATE> 3
<MEAN> 39
 7.903662e-04 -6.079456e-01 1.670089e+00 -6.705837e-01 -5.929818e+00 -8.820225e-01 -6.906881e+00 5.931143e-01 -4.574426e+00 -3.940755e-01 -3.854154e-01 -5.847453e+00 5.993814e+01 5.024984e-04 -6.478592e-05 9.522401e-04 -6.048587e-04 -1.305029e-03 -9.148303e-04 -9.999124e-04 -6.995694e-04 3.150678e-04 8.832195e-04 -1.229102e-04 -1.829845e-05 4.304752e-04 -1.024714e-04 5.090495e-05 -4.314321e-05 5.499199e-04 2.475645e-04 2.544455e-04 -3.161734e-04 -1.009587e-04 -7.179174e-05 -5.594532e-04 -1.336834e-04 -6.698545e-06 -3.952787e-04
<VARIANCE> 39
 2.681136e+01 5.325134e+01 6.824250e+01 5.887592e+01 6.062508e+01 6.608533e+01 5.928268e+01 6.068991e+01 5.916120e+01 4.597362e+01 4.705821e+01 4.804106e+01 6.619385e+01 1.372020e+00 2.288023e+00 2.566274e+00 2.987463e+00 3.078158e+00 3.116328e+00 3.250192e+00 3.738113e+00 3.266875e+00 2.829993e+00 2.967949e+00 2.476121e+00 2.021681e+00 2.264445e-01 3.584008e-01 4.122588e-01 5.086471e-01 5.519696e-01 5.562619e-01 5.942494e-01 6.847889e-01 5.904057e-01 5.307208e-01 5.528100e-01 4.553457e-01 3.018115e-01
<GCONST> 1.265182e+02
<STATE> 4
<MEAN> 39
 7.903662e-04 -6.079456e-01 1.670089e+00 -6.705837e-01 -5.929818e+00 -8.820225e-01 -6.906881e+00 5.931143e-01 -4.574426e+00 -3.940755e-01 -3.854154e-01 -5.847453e+00 5.993814e+01 5.024984e-04 -6.478592e-05 9.522401e-04 -6.048587e-04 -1.305029e-03 -9.148303e-04 -9.999124e-04 -6.995694e-04 3.150678e-04 8.832195e-04 -1.229102e-04 -1.829845e-05 4.304752e-04 -1.024714e-04 5.090495e-05 -4.314321e-05 5.499199e-04 2.475645e-04 2.544455e-04 -3.161734e-04 -1.009587e-04 -7.179174e-05 -5.594532e-04 -1.336834e-04 -6.698545e-06 -3.952787e-04
<VARIANCE> 39
 2.681136e+01 5.325134e+01 6.824250e+01 5.887592e+01 6.062508e+01 6.608533e+01 5.928268e+01 6.068991e+01 5.916120e+01 4.597362e+01 4.705821e+01 4.804106e+01 6.619385e+01 1.372020e+00 2.288023e+00 2.566274e+00 2.987463e+00 3.078158e+00 3.116328e+00 3.250192e+00 3.738113e+00 3.266875e+00 2.829993e+00 2.967949e+00 2.476121e+00 2.021681e+00 2.264445e-01 3.584008e-01 4.122588e-01 5.086471e-01 5.519696e-01 5.562619e-01 5.942494e-01 6.847889e-01 5.904057e-01 5.307208e-01 5.528100e-01 4.553457e-01 3.018115e-01
<GCONST> 1.265182e+02
<TRANSP> 5
 0.000000e+00 1.000000e+00 0.000000e+00 0.000000e+00 0.000000e+00
 0.000000e+00 6.000000e-01 4.000000e-01 0.000000e+00 0.000000e+00
 0.000000e+00 0.000000e+00 6.000000e-01 4.000000e-01 0.000000e+00
 0.000000e+00 0.000000e+00 0.000000e+00 7.000000e-01 3.000000e-01
 0.000000e+00 0.000000e+00 0.000000e+00 0.000000e+00 0.000000e+00
<ENDHMM>
~h "t"
<BEGINHMM>
<NUMSTATES> 5
<STATE> 2
<MEAN> 39
 7.903662e-04 -6.079456e-01 1.670089e+00 -6.705837e-01 -5.929818e+00 -8.820225e-01 -6.906881e+00 5.931143e-01 -4.574426e+00 -3.940755e-01 -3.854154e-01 -5.847453e+00 5.993814e+01 5.024984e-04 -6.478592e-05 9.522401e-04 -6.048587e-04 -1.305029e-03 -9.148303e-04 -9.999124e-04 -6.995694e-04 3.150678e-04 8.832195e-04 -1.229102e-04 -1.829845e-05 4.304752e-04 -1.024714e-04 5.090495e-05 -4.314321e-05 5.499199e-04 2.475645e-04 2.544455e-04 -3.161734e-04 -1.009587e-04 -7.179174e-05 -5.594532e-04 -1.336834e-04 -6.698545e-06 -3.952787e-04
<VARIANCE> 39
 2.681136e+01 5.325134e+01 6.824250e+01 5.887592e+01 6.062508e+01 6.608533e+01 5.928268e+01 6.068991e+01 5.916120e+01 4.597362e+01 4.705821e+01 4.804106e+01 6.619385e+01 1.372020e+00 2.288023e+00 2.566274e+00 2.987463e+00 3.078158e+00 3.116328e+00 3.250192e+00 3.738113e+00 3.266875e+00 2.829993e+00 2.967949e+00 2.476121e+00 2.021681e+00 2.264445e-01 3.584008e-01 4.122588e-01 5.086471e-01 5.519696e-01 5.562619e-01 5.942494e-01 6.847889e-01 5.904057e-01 5.307208e-01 5.528100e-01 4.553457e-01 3.018115e-01
<GCONST> 1.265182e+02
<STATE> 3
<MEAN> 39
 7.903662e-04 -6.079456e-01 1.670089e+00 -6.705837e-01 -5.929818e+00 -8.820225e-01 -6.906881e+00 5.931143e-01 -4.574426e+00 -3.940755e-01 -3.854154e-01 -5.847453e+00 5.993814e+01 5.024984e-04 -6.478592e-05 9.522401e-04 -6.048587e-04 -1.305029e-03 -9.148303e-04 -9.999124e-04 -6.995694e-04 3.150678e-04 8.832195e-04 -1.229102e-04 -1.829845e-05 4.304752e-04 -1.024714e-04 5.090495e-05 -4.314321e-05 5.499199e-04 2.475645e-04 2.544455e-04 -3.161734e-04 -1.009587e-04 -7.179174e-05 -5.594532e-04 -1.336834e-04 -6.698545e-06 -3.952787e-04
<VARIANCE> 39
 2.681136e+01 5.325134e+01 6.824250e+01 5.887592e+01 6.062508e+01 6.608533e+01 5.928268e+01 6.068991e+01 5.916120e+01 4.597362e+01 4.705821e+01 4.804106e+01 6.619385e+01 1.372020e+00 2.288023e+00 2.566274e+00 2.987463e+00 3.078158e+00 3.116328e+00 3.250192e+00 3.738113e+00 3.266875e+00 2.829993e+00 2.967949e+00 2.476121e+00 2.021681e+00 2.264445e-01 3.584008e-01 4.122588e-01 5.086471e-01 5.519696e-01 5.562619e-01 5.942494e-01 6.847889e-01 5.904057e-01 5.307208e-01 5.528100e-01 4.553457e-01 3.018115e-01
<GCONST> 1.265182e+02
<STATE> 4
<MEAN> 39
 7.903662e-04 -6.079456e-01 1.670089e+00 -6.705837e-01 -5.929818e+00 -8.820225e-01 -6.906881e+00 5.931143e-01 -4.574426e+00 -3.940755e-01 -3.854154e-01 -5.847453e+00 5.993814e+01 5.024984e-04 -6.478592e-05 9.522401e-04 -6.048587e-04 -1.305029e-03 -9.148303e-04 -9.999124e-04 -6.995694e-04 3.150678e-04 8.832195e-04 -1.229102e-04 -1.829845e-05 4.304752e-04 -1.024714e-04 5.090495e-05 -4.314321e-05 5.499199e-04 2.475645e-04 2.544455e-04 -3.161734e-04 -1.009587e-04 -7.179174e-05 -5.594532e-04 -1.336834e-04 -6.698545e-06 -3.952787e-04
<VARIANCE> 39
 2.681136e+01 5.325134e+01 6.824250e+01 5.887592e+01 6.062508e+01 6.608533e+01 5.928268e+01 6.068991e+01 5.916120e+01 4.597362e+01 4.705821e+01 4.804106e+01 6.619385e+01 1.372020e+00 2.288023e+00 2.566274e+00 2.987463e+00 3.078158e+00 3.116328e+00 3.250192e+00 3.738113e+00 3.266875e+00 2.829993e+00 2.967949e+00 2.476121e+00 2.021681e+00 2.264445e-01 3.584008e-01 4.122588e-01 5.086471e-01 5.519696e-01 5.562619e-01 5.942494e-01 6.847889e-01 5.904057e-01 5.307208e-01 5.528100e-01 4.553457e-01 3.018115e-01
<GCONST> 1.265182e+02
<TRANSP> 5
 0.000000e+00 1.000000e+00 0.000000e+00 0.000000e+00 0.000000e+00
 0.000000e+00 6.000000e-01 4.000000e-01 0.000000e+00 0.000000e+00
 0.000000e+00 0.000000e+00 6.000000e-01 4.000000e-01 0.000000e+00
 0.000000e+00 0.000000e+00 0.000000e+00 7.000000e-01 3.000000e-01
 0.000000e+00 0.000000e+00 0.000000e+00 0.000000e+00 0.000000e+00
<ENDHMM>
~h "ng"
<BEGINHMM>
<NUMSTATES> 5
<STATE> 2
<MEAN> 39
 7.903662e-04 -6.079456e-01 1.670089e+00 -6.705837e-01 -5.929818e+00 -8.820225e-01 -6.906881e+00 5.931143e-01 -4.574426e+00 -3.940755e-01 -3.854154e-01 -5.847453e+00 5.993814e+01 5.024984e-04 -6.478592e-05 9.522401e-04 -6.048587e-04 -1.305029e-03 -9.148303e-04 -9.999124e-04 -6.995694e-04 3.150678e-04 8.832195e-04 -1.229102e-04 -1.829845e-05 4.304752e-04 -1.024714e-04 5.090495e-05 -4.314321e-05 5.499199e-04 2.475645e-04 2.544455e-04 -3.161734e-04 -1.009587e-04 -7.179174e-05 -5.594532e-04 -1.336834e-04 -6.698545e-06 -3.952787e-04
<VARIANCE> 39
 2.681136e+01 5.325134e+01 6.824250e+01 5.887592e+01 6.062508e+01 6.608533e+01 5.928268e+01 6.068991e+01 5.916120e+01 4.597362e+01 4.705821e+01 4.804106e+01 6.619385e+01 1.372020e+00 2.288023e+00 2.566274e+00 2.987463e+00 3.078158e+00 3.116328e+00 3.250192e+00 3.738113e+00 3.266875e+00 2.829993e+00 2.967949e+00 2.476121e+00 2.021681e+00 2.264445e-01 3.584008e-01 4.122588e-01 5.086471e-01 5.519696e-01 5.562619e-01 5.942494e-01 6.847889e-01 5.904057e-01 5.307208e-01 5.528100e-01 4.553457e-01 3.018115e-01
<GCONST> 1.265182e+02
<STATE> 3
<MEAN> 39
 7.903662e-04 -6.079456e-01 1.670089e+00 -6.705837e-01 -5.929818e+00 -8.820225e-01 -6.906881e+00 5.931143e-01 -4.574426e+00 -3.940755e-01 -3.854154e-01 -5.847453e+00 5.993814e+01 5.024984e-04 -6.478592e-05 9.522401e-04 -6.048587e-04 -1.305029e-03 -9.148303e-04 -9.999124e-04 -6.995694e-04 3.150678e-04 8.832195e-04 -1.229102e-04 -1.829845e-05 4.304752e-04 -1.024714e-04 5.090495e-05 -4.314321e-05 5.499199e-04 2.475645e-04 2.544455e-04 -3.161734e-04 -1.009587e-04 -7.179174e-05 -5.594532e-04 -1.336834e-04 -6.698545e-06 -3.952787e-04
<VARIANCE> 39
 2.681136e+01 5.325134e+01 6.824250e+01 5.887592e+01 6.062508e+01 6.608533e+01 5.928268e+01 6.068991e+01 5.916120e+01 4.597362e+01 4.705821e+01 4.804106e+01 6.619385e+01 1.372020e+00 2.288023e+00 2.566274e+00 2.987463e+00 3.078158e+00 3.116328e+00 3.250192e+00 3.738113e+00 3.266875e+00 2.829993e+00 2.967949e+00 2.476121e+00 2.021681e+00 2.264445e-01 3.584008e-01 4.122588e-01 5.086471e-01 5.519696e-01 5.562619e-01 5.942494e-01 6.847889e-01 5.904057e-01 5.307208e-01 5.528100e-01 4.553457e-01 3.018115e-01
<GCONST> 1.265182e+02
<STATE> 4
<MEAN> 39
 7.903662e-04 -6.079456e-01 1.670089e+00 -6.705837e-01 -5.929818e+00 -8.820225e-01 -6.906881e+00 5.931143e-01 -4.574426e+00 -3.940755e-01 -3.854154e-01 -5.847453e+00 5.993814e+01 5.024984e-04 -6.478592e-05 9.522401e-04 -6.048587e-04 -1.305029e-03 -9.148303e-04 -9.999124e-04 -6.995694e-04 3.150678e-04 8.832195e-04 -1.229102e-04 -1.829845e-05 4.304752e-04 -1.024714e-04 5.090495e-05 -4.314321e-05 5.499199e-04 2.475645e-04 2.544455e-04 -3.161734e-04 -1.009587e-04 -7.179174e-05 -5.594532e-04 -1.336834e-04 -6.698545e-06 -3.952787e-04
<VARIANCE> 39
 2.681136e+01 5.325134e+01 6.824250e+01 5.887592e+01 6.062508e+01 6.608533e+01 5.928268e+01 6.068991e+01 5.916120e+01 4.597362e+01 4.705821e+01 4.804106e+01 6.619385e+01 1.372020e+00 2.288023e+00 2.566274e+00 2.987463e+00 3.078158e+00 3.116328e+00 3.250192e+00 3.738113e+00 3.266875e+00 2.829993e+00 2.967949e+00 2.476121e+00 2.021681e+00 2.264445e-01 3.584008e-01 4.122588e-01 5.086471e-01 5.519696e-01 5.562619e-01 5.942494e-01 6.847889e-01 5.904057e-01 5.307208e-01 5.528100e-01 4.553457e-01 3.018115e-01
<GCONST> 1.265182e+02
<TRANSP> 5
 0.000000e+00 1.000000e+00 0.000000e+00 0.000000e+00 0.000000e+00
 0.000000e+00 6.000000e-01 4.000000e-01 0.000000e+00 0.000000e+00
 0.000000e+00 0.000000e+00 6.000000e-01 4.000000e-01 0.000000e+00
 0.000000e+00 0.000000e+00 0.000000e+00 7.000000e-01 3.000000e-01
 0.000000e+00 0.000000e+00 0.000000e+00 0.000000e+00 0.000000e+00
<ENDHMM>
~h "z"
<BEGINHMM>
<NUMSTATES> 5
<STATE> 2
<MEAN> 39
 7.903662e-04 -6.079456e-01 1.670089e+00 -6.705837e-01 -5.929818e+00 -8.820225e-01 -6.906881e+00 5.931143e-01 -4.574426e+00 -3.940755e-01 -3.854154e-01 -5.847453e+00 5.993814e+01 5.024984e-04 -6.478592e-05 9.522401e-04 -6.048587e-04 -1.305029e-03 -9.148303e-04 -9.999124e-04 -6.995694e-04 3.150678e-04 8.832195e-04 -1.229102e-04 -1.829845e-05 4.304752e-04 -1.024714e-04 5.090495e-05 -4.314321e-05 5.499199e-04 2.475645e-04 2.544455e-04 -3.161734e-04 -1.009587e-04 -7.179174e-05 -5.594532e-04 -1.336834e-04 -6.698545e-06 -3.952787e-04
<VARIANCE> 39
 2.681136e+01 5.325134e+01 6.824250e+01 5.887592e+01 6.062508e+01 6.608533e+01 5.928268e+01 6.068991e+01 5.916120e+01 4.597362e+01 4.705821e+01 4.804106e+01 6.619385e+01 1.372020e+00 2.288023e+00 2.566274e+00 2.987463e+00 3.078158e+00 3.116328e+00 3.250192e+00 3.738113e+00 3.266875e+00 2.829993e+00 2.967949e+00 2.476121e+00 2.021681e+00 2.264445e-01 3.584008e-01 4.122588e-01 5.086471e-01 5.519696e-01 5.562619e-01 5.942494e-01 6.847889e-01 5.904057e-01 5.307208e-01 5.528100e-01 4.553457e-01 3.018115e-01
<GCONST> 1.265182e+02
<STATE> 3
<MEAN> 39
 7.903662e-04 -6.079456e-01 1.670089e+00 -6.705837e-01 -5.929818e+00 -8.820225e-01 -6.906881e+00 5.931143e-01 -4.574426e+00 -3.940755e-01 -3.854154e-01 -5.847453e+00 5.993814e+01 5.024984e-04 -6.478592e-05 9.522401e-04 -6.048587e-04 -1.305029e-03 -9.148303e-04 -9.999124e-04 -6.995694e-04 3.150678e-04 8.832195e-04 -1.229102e-04 -1.829845e-05 4.304752e-04 -1.024714e-04 5.090495e-05 -4.314321e-05 5.499199e-04 2.475645e-04 2.544455e-04 -3.161734e-04 -1.009587e-04 -7.179174e-05 -5.594532e-04 -1.336834e-04 -6.698545e-06 -3.952787e-04
<VARIANCE> 39
 2.681136e+01 5.325134e+01 6.824250e+01 5.887592e+01 6.062508e+01 6.608533e+01 5.928268e+01 6.068991e+01 5.916120e+01 4.597362e+01 4.705821e+01 4.804106e+01 6.619385e+01 1.372020e+00 2.288023e+00 2.566274e+00 2.987463e+00 3.078158e+00 3.116328e+00 3.250192e+00 3.738113e+00 3.266875e+00 2.829993e+00 2.967949e+00 2.476121e+00 2.021681e+00 2.264445e-01 3.584008e-01 4.122588e-01 5.086471e-01 5.519696e-01 5.562619e-01 5.942494e-01 6.847889e-01 5.904057e-01 5.307208e-01 5.528100e-01 4.553457e-01 3.018115e-01
<GCONST> 1.265182e+02
<STATE> 4
<MEAN> 39
 7.903662e-04 -6.079456e-01 1.670089e+00 -6.705837e-01 -5.929818e+00 -8.820225e-01 -6.906881e+00 5.931143e-01 -4.574426e+00 -3.940755e-01 -3.854154e-01 -5.847453e+00 5.993814e+01 5.024984e-04 -6.478592e-05 9.522401e-04 -6.048587e-04 -1.305029e-03 -9.148303e-04 -9.999124e-04 -6.995694e-04 3.150678e-04 8.832195e-04 -1.229102e-04 -1.829845e-05 4.304752e-04 -1.024714e-04 5.090495e-05 -4.314321e-05 5.499199e-04 2.475645e-04 2.544455e-04 -3.161734e-04 -1.009587e-04 -7.179174e-05 -5.594532e-04 -1.336834e-04 -6.698545e-06 -3.952787e-04
<VARIANCE> 39
 2.681136e+01 5.325134e+01 6.824250e+01 5.887592e+01 6.062508e+01 6.608533e+01 5.928268e+01 6.068991e+01 5.916120e+01 4.597362e+01 4.705821e+01 4.804106e+01 6.619385e+01 1.372020e+00 2.288023e+00 2.566274e+00 2.987463e+00 3.078158e+00 3.116328e+00 3.250192e+00 3.738113e+00 3.266875e+00 2.829993e+00 2.967949e+00 2.476121e+00 2.021681e+00 2.264445e-01 3.584008e-01 4.122588e-01 5.086471e-01 5.519696e-01 5.562619e-01 5.942494e-01 6.847889e-01 5.904057e-01 5.307208e-01 5.528100e-01 4.553457e-01 3.018115e-01
<GCONST> 1.265182e+02
<TRANSP> 5
 0.000000e+00 1.000000e+00 0.000000e+00 0.000000e+00 0.000000e+00
 0.000000e+00 6.000000e-01 4.000000e-01 0.000000e+00 0.000000e+00
 0.000000e+00 0.000000e+00 6.000000e-01 4.000000e-01 0.000000e+00
 0.000000e+00 0.000000e+00 0.000000e+00 7.000000e-01 3.000000e-01
 0.000000e+00 0.000000e+00 0.000000e+00 0.000000e+00 0.000000e+00
<ENDHMM>
~h "h"
<BEGINHMM>
<NUMSTATES> 5
<STATE> 2
<MEAN> 39
 7.903662e-04 -6.079456e-01 1.670089e+00 -6.705837e-01 -5.929818e+00 -8.820225e-01 -6.906881e+00 5.931143e-01 -4.574426e+00 -3.940755e-01 -3.854154e-01 -5.847453e+00 5.993814e+01 5.024984e-04 -6.478592e-05 9.522401e-04 -6.048587e-04 -1.305029e-03 -9.148303e-04 -9.999124e-04 -6.995694e-04 3.150678e-04 8.832195e-04 -1.229102e-04 -1.829845e-05 4.304752e-04 -1.024714e-04 5.090495e-05 -4.314321e-05 5.499199e-04 2.475645e-04 2.544455e-04 -3.161734e-04 -1.009587e-04 -7.179174e-05 -5.594532e-04 -1.336834e-04 -6.698545e-06 -3.952787e-04
<VARIANCE> 39
 2.681136e+01 5.325134e+01 6.824250e+01 5.887592e+01 6.062508e+01 6.608533e+01 5.928268e+01 6.068991e+01 5.916120e+01 4.597362e+01 4.705821e+01 4.804106e+01 6.619385e+01 1.372020e+00 2.288023e+00 2.566274e+00 2.987463e+00 3.078158e+00 3.116328e+00 3.250192e+00 3.738113e+00 3.266875e+00 2.829993e+00 2.967949e+00 2.476121e+00 2.021681e+00 2.264445e-01 3.584008e-01 4.122588e-01 5.086471e-01 5.519696e-01 5.562619e-01 5.942494e-01 6.847889e-01 5.904057e-01 5.307208e-01 5.528100e-01 4.553457e-01 3.018115e-01
<GCONST> 1.265182e+02
<STATE> 3
<MEAN> 39
 7.903662e-04 -6.079456e-01 1.670089e+00 -6.705837e-01 -5.929818e+00 -8.820225e-01 -6.906881e+00 5.931143e-01 -4.574426e+00 -3.940755e-01 -3.854154e-01 -5.847453e+00 5.993814e+01 5.024984e-04 -6.478592e-05 9.522401e-04 -6.048587e-04 -1.305029e-03 -9.148303e-04 -9.999124e-04 -6.995694e-04 3.150678e-04 8.832195e-04 -1.229102e-04 -1.829845e-05 4.304752e-04 -1.024714e-04 5.090495e-05 -4.314321e-05 5.499199e-04 2.475645e-04 2.544455e-04 -3.161734e-04 -1.009587e-04 -7.179174e-05 -5.594532e-04 -1.336834e-04 -6.698545e-06 -3.952787e-04
<VARIANCE> 39
 2.681136e+01 5.325134e+01 6.824250e+01 5.887592e+01 6.062508e+01 6.608533e+01 5.928268e+01 6.068991e+01 5.916120e+01 4.597362e+01 4.705821e+01 4.804106e+01 6.619385e+01 1.372020e+00 2.288023e+00 2.566274e+00 2.987463e+00 3.078158e+00 3.116328e+00 3.250192e+00 3.738113e+00 3.266875e+00 2.829993e+00 2.967949e+00 2.476121e+00 2.021681e+00 2.264445e-01 3.584008e-01 4.122588e-01 5.086471e-01 5.519696e-01 5.562619e-01 5.942494e-01 6.847889e-01 5.904057e-01 5.307208e-01 5.528100e-01 4.553457e-01 3.018115e-01
<GCONST> 1.265182e+02
<STATE> 4
<MEAN> 39
 7.903662e-04 -6.079456e-01 1.670089e+00 -6.705837e-01 -5.929818e+00 -8.820225e-01 -6.906881e+00 5.931143e-01 -4.574426e+00 -3.940755e-01 -3.854154e-01 -5.847453e+00 5.993814e+01 5.024984e-04 -6.478592e-05 9.522401e-04 -6.048587e-04 -1.305029e-03 -9.148303e-04 -9.999124e-04 -6.995694e-04 3.150678e-04 8.832195e-04 -1.229102e-04 -1.829845e-05 4.304752e-04 -1.024714e-04 5.090495e-05 -4.314321e-05 5.499199e-04 2.475645e-04 2.544455e-04 -3.161734e-04 -1.009587e-04 -7.179174e-05 -5.594532e-04 -1.336834e-04 -6.698545e-06 -3.952787e-04
<VARIANCE> 39
 2.681136e+01 5.325134e+01 6.824250e+01 5.887592e+01 6.062508e+01 6.608533e+01 5.928268e+01 6.068991e+01 5.916120e+01 4.597362e+01 4.705821e+01 4.804106e+01 6.619385e+01 1.372020e+00 2.288023e+00 2.566274e+00 2.987463e+00 3.078158e+00 3.116328e+00 3.250192e+00 3.738113e+00 3.266875e+00 2.829993e+00 2.967949e+00 2.476121e+00 2.021681e+00 2.264445e-01 3.584008e-01 4.122588e-01 5.086471e-01 5.519696e-01 5.562619e-01 5.942494e-01 6.847889e-01 5.904057e-01 5.307208e-01 5.528100e-01 4.553457e-01 3.018115e-01
<GCONST> 1.265182e+02
<TRANSP> 5
 0.000000e+00 1.000000e+00 0.000000e+00 0.000000e+00 0.000000e+00
 0.000000e+00 6.000000e-01 4.000000e-01 0.000000e+00 0.000000e+00
 0.000000e+00 0.000000e+00 6.000000e-01 4.000000e-01 0.000000e+00
 0.000000e+00 0.000000e+00 0.000000e+00 7.000000e-01 3.000000e-01
 0.000000e+00 0.000000e+00 0.000000e+00 0.000000e+00 0.000000e+00
<ENDHMM>
~h "j"
<BEGINHMM>
<NUMSTATES> 5
<STATE> 2
<MEAN> 39
 7.903662e-04 -6.079456e-01 1.670089e+00 -6.705837e-01 -5.929818e+00 -8.820225e-01 -6.906881e+00 5.931143e-01 -4.574426e+00 -3.940755e-01 -3.854154e-01 -5.847453e+00 5.993814e+01 5.024984e-04 -6.478592e-05 9.522401e-04 -6.048587e-04 -1.305029e-03 -9.148303e-04 -9.999124e-04 -6.995694e-04 3.150678e-04 8.832195e-04 -1.229102e-04 -1.829845e-05 4.304752e-04 -1.024714e-04 5.090495e-05 -4.314321e-05 5.499199e-04 2.475645e-04 2.544455e-04 -3.161734e-04 -1.009587e-04 -7.179174e-05 -5.594532e-04 -1.336834e-04 -6.698545e-06 -3.952787e-04
<VARIANCE> 39
 2.681136e+01 5.325134e+01 6.824250e+01 5.887592e+01 6.062508e+01 6.608533e+01 5.928268e+01 6.068991e+01 5.916120e+01 4.597362e+01 4.705821e+01 4.804106e+01 6.619385e+01 1.372020e+00 2.288023e+00 2.566274e+00 2.987463e+00 3.078158e+00 3.116328e+00 3.250192e+00 3.738113e+00 3.266875e+00 2.829993e+00 2.967949e+00 2.476121e+00 2.021681e+00 2.264445e-01 3.584008e-01 4.122588e-01 5.086471e-01 5.519696e-01 5.562619e-01 5.942494e-01 6.847889e-01 5.904057e-01 5.307208e-01 5.528100e-01 4.553457e-01 3.018115e-01
<GCONST> 1.265182e+02
<STATE> 3
<MEAN> 39
 7.903662e-04 -6.079456e-01 1.670089e+00 -6.705837e-01 -5.929818e+00 -8.820225e-01 -6.906881e+00 5.931143e-01 -4.574426e+00 -3.940755e-01 -3.854154e-01 -5.847453e+00 5.993814e+01 5.024984e-04 -6.478592e-05 9.522401e-04 -6.048587e-04 -1.305029e-03 -9.148303e-04 -9.999124e-04 -6.995694e-04 3.150678e-04 8.832195e-04 -1.229102e-04 -1.829845e-05 4.304752e-04 -1.024714e-04 5.090495e-05 -4.314321e-05 5.499199e-04 2.475645e-04 2.544455e-04 -3.161734e-04 -1.009587e-04 -7.179174e-05 -5.594532e-04 -1.336834e-04 -6.698545e-06 -3.952787e-04
<VARIANCE> 39
 2.681136e+01 5.325134e+01 6.824250e+01 5.887592e+01 6.062508e+01 6.608533e+01 5.928268e+01 6.068991e+01 5.916120e+01 4.597362e+01 4.705821e+01 4.804106e+01 6.619385e+01 1.372020e+00 2.288023e+00 2.566274e+00 2.987463e+00 3.078158e+00 3.116328e+00 3.250192e+00 3.738113e+00 3.266875e+00 2.829993e+00 2.967949e+00 2.476121e+00 2.021681e+00 2.264445e-01 3.584008e-01 4.122588e-01 5.086471e-01 5.519696e-01 5.562619e-01 5.942494e-01 6.847889e-01 5.904057e-01 5.307208e-01 5.528100e-01 4.553457e-01 3.018115e-01
<GCONST> 1.265182e+02
<STATE> 4
<MEAN> 39
 7.903662e-04 -6.079456e-01 1.670089e+00 -6.705837e-01 -5.929818e+00 -8.820225e-01 -6.906881e+00 5.931143e-01 -4.574426e+00 -3.940755e-01 -3.854154e-01 -5.847453e+00 5.993814e+01 5.024984e-04 -6.478592e-05 9.522401e-04 -6.048587e-04 -1.305029e-03 -9.148303e-04 -9.999124e-04 -6.995694e-04 3.150678e-04 8.832195e-04 -1.229102e-04 -1.829845e-05 4.304752e-04 -1.024714e-04 5.090495e-05 -4.314321e-05 5.499199e-04 2.475645e-04 2.544455e-04 -3.161734e-04 -1.009587e-04 -7.179174e-05 -5.594532e-04 -1.336834e-04 -6.698545e-06 -3.952787e-04
<VARIANCE> 39
 2.681136e+01 5.325134e+01 6.824250e+01 5.887592e+01 6.062508e+01 6.608533e+01 5.928268e+01 6.068991e+01 5.916120e+01 4.597362e+01 4.705821e+01 4.804106e+01 6.619385e+01 1.372020e+00 2.288023e+00 2.566274e+00 2.987463e+00 3.078158e+00 3.116328e+00 3.250192e+00 3.738113e+00 3.266875e+00 2.829993e+00 2.967949e+00 2.476121e+00 2.021681e+00 2.264445e-01 3.584008e-01 4.122588e-01 5.086471e-01 5.519696e-01 5.562619e-01 5.942494e-01 6.847889e-01 5.904057e-01 5.307208e-01 5.528100e-01 4.553457e-01 3.018115e-01
<GCONST> 1.265182e+02
<TRANSP> 5
 0.000000e+00 1.000000e+00 0.000000e+00 0.000000e+00 0.000000e+00
 0.000000e+00 6.000000e-01 4.000000e-01 0.000000e+00 0.000000e+00
 0.000000e+00 0.000000e+00 6.000000e-01 4.000000e-01 0.000000e+00
 0.000000e+00 0.000000e+00 0.000000e+00 7.000000e-01 3.000000e-01
 0.000000e+00 0.000000e+00 0.000000e+00 0.000000e+00 0.000000e+00
<ENDHMM>
~h "y"
<BEGINHMM>
<NUMSTATES> 5
<STATE> 2
<MEAN> 39
 7.903662e-04 -6.079456e-01 1.670089e+00 -6.705837e-01 -5.929818e+00 -8.820225e-01 -6.906881e+00 5.931143e-01 -4.574426e+00 -3.940755e-01 -3.854154e-01 -5.847453e+00 5.993814e+01 5.024984e-04 -6.478592e-05 9.522401e-04 -6.048587e-04 -1.305029e-03 -9.148303e-04 -9.999124e-04 -6.995694e-04 3.150678e-04 8.832195e-04 -1.229102e-04 -1.829845e-05 4.304752e-04 -1.024714e-04 5.090495e-05 -4.314321e-05 5.499199e-04 2.475645e-04 2.544455e-04 -3.161734e-04 -1.009587e-04 -7.179174e-05 -5.594532e-04 -1.336834e-04 -6.698545e-06 -3.952787e-04
<VARIANCE> 39
 2.681136e+01 5.325134e+01 6.824250e+01 5.887592e+01 6.062508e+01 6.608533e+01 5.928268e+01 6.068991e+01 5.916120e+01 4.597362e+01 4.705821e+01 4.804106e+01 6.619385e+01 1.372020e+00 2.288023e+00 2.566274e+00 2.987463e+00 3.078158e+00 3.116328e+00 3.250192e+00 3.738113e+00 3.266875e+00 2.829993e+00 2.967949e+00 2.476121e+00 2.021681e+00 2.264445e-01 3.584008e-01 4.122588e-01 5.086471e-01 5.519696e-01 5.562619e-01 5.942494e-01 6.847889e-01 5.904057e-01 5.307208e-01 5.528100e-01 4.553457e-01 3.018115e-01
<GCONST> 1.265182e+02
<STATE> 3
<MEAN> 39
 7.903662e-04 -6.079456e-01 1.670089e+00 -6.705837e-01 -5.929818e+00 -8.820225e-01 -6.906881e+00 5.931143e-01 -4.574426e+00 -3.940755e-01 -3.854154e-01 -5.847453e+00 5.993814e+01 5.024984e-04 -6.478592e-05 9.522401e-04 -6.048587e-04 -1.305029e-03 -9.148303e-04 -9.999124e-04 -6.995694e-04 3.150678e-04 8.832195e-04 -1.229102e-04 -1.829845e-05 4.304752e-04 -1.024714e-04 5.090495e-05 -4.314321e-05 5.499199e-04 2.475645e-04 2.544455e-04 -3.161734e-04 -1.009587e-04 -7.179174e-05 -5.594532e-04 -1.336834e-04 -6.698545e-06 -3.952787e-04
<VARIANCE> 39
 2.681136e+01 5.325134e+01 6.824250e+01 5.887592e+01 6.062508e+01 6.608533e+01 5.928268e+01 6.068991e+01 5.916120e+01 4.597362e+01 4.705821e+01 4.804106e+01 6.619385e+01 1.372020e+00 2.288023e+00 2.566274e+00 2.987463e+00 3.078158e+00 3.116328e+00 3.250192e+00 3.738113e+00 3.266875e+00 2.829993e+00 2.967949e+00 2.476121e+00 2.021681e+00 2.264445e-01 3.584008e-01 4.122588e-01 5.086471e-01 5.519696e-01 5.562619e-01 5.942494e-01 6.847889e-01 5.904057e-01 5.307208e-01 5.528100e-01 4.553457e-01 3.018115e-01
<GCONST> 1.265182e+02
<STATE> 4
<MEAN> 39
 7.903662e-04 -6.079456e-01 1.670089e+00 -6.705837e-01 -5.929818e+00 -8.820225e-01 -6.906881e+00 5.931143e-01 -4.574426e+00 -3.940755e-01 -3.854154e-01 -5.847453e+00 5.993814e+01 5.024984e-04 -6.478592e-05 9.522401e-04 -6.048587e-04 -1.305029e-03 -9.148303e-04 -9.999124e-04 -6.995694e-04 3.150678e-04 8.832195e-04 -1.229102e-04 -1.829845e-05 4.304752e-04 -1.024714e-04 5.090495e-05 -4.314321e-05 5.499199e-04 2.475645e-04 2.544455e-04 -3.161734e-04 -1.009587e-04 -7.179174e-05 -5.594532e-04 -1.336834e-04 -6.698545e-06 -3.952787e-04
<VARIANCE> 39
 2.681136e+01 5.325134e+01 6.824250e+01 5.887592e+01 6.062508e+01 6.608533e+01 5.928268e+01 6.068991e+01 5.916120e+01 4.597362e+01 4.705821e+01 4.804106e+01 6.619385e+01 1.372020e+00 2.288023e+00 2.566274e+00 2.987463e+00 3.078158e+00 3.116328e+00 3.250192e+00 3.738113e+00 3.266875e+00 2.829993e+00 2.967949e+00 2.476121e+00 2.021681e+00 2.264445e-01 3.584008e-01 4.122588e-01 5.086471e-01 5.519696e-01 5.562619e-01 5.942494e-01 6.847889e-01 5.904057e-01 5.307208e-01 5.528100e-01 4.553457e-01 3.018115e-01
<GCONST> 1.265182e+02
<TRANSP> 5
 0.000000e+00 1.000000e+00 0.000000e+00 0.000000e+00 0.000000e+00
 0.000000e+00 6.000000e-01 4.000000e-01 0.000000e+00 0.000000e+00
 0.000000e+00 0.000000e+00 6.000000e-01 4.000000e-01 0.000000e+00
 0.000000e+00 0.000000e+00 0.000000e+00 7.000000e-01 3.000000e-01
 0.000000e+00 0.000000e+00 0.000000e+00 0.000000e+00 0.000000e+00
<ENDHMM>
~h "p"
<BEGINHMM>
<NUMSTATES> 5
<STATE> 2
<MEAN> 39
 7.903662e-04 -6.079456e-01 1.670089e+00 -6.705837e-01 -5.929818e+00 -8.820225e-01 -6.906881e+00 5.931143e-01 -4.574426e+00 -3.940755e-01 -3.854154e-01 -5.847453e+00 5.993814e+01 5.024984e-04 -6.478592e-05 9.522401e-04 -6.048587e-04 -1.305029e-03 -9.148303e-04 -9.999124e-04 -6.995694e-04 3.150678e-04 8.832195e-04 -1.229102e-04 -1.829845e-05 4.304752e-04 -1.024714e-04 5.090495e-05 -4.314321e-05 5.499199e-04 2.475645e-04 2.544455e-04 -3.161734e-04 -1.009587e-04 -7.179174e-05 -5.594532e-04 -1.336834e-04 -6.698545e-06 -3.952787e-04
<VARIANCE> 39
 2.681136e+01 5.325134e+01 6.824250e+01 5.887592e+01 6.062508e+01 6.608533e+01 5.928268e+01 6.068991e+01 5.916120e+01 4.597362e+01 4.705821e+01 4.804106e+01 6.619385e+01 1.372020e+00 2.288023e+00 2.566274e+00 2.987463e+00 3.078158e+00 3.116328e+00 3.250192e+00 3.738113e+00 3.266875e+00 2.829993e+00 2.967949e+00 2.476121e+00 2.021681e+00 2.264445e-01 3.584008e-01 4.122588e-01 5.086471e-01 5.519696e-01 5.562619e-01 5.942494e-01 6.847889e-01 5.904057e-01 5.307208e-01 5.528100e-01 4.553457e-01 3.018115e-01
<GCONST> 1.265182e+02
<STATE> 3
<MEAN> 39
 7.903662e-04 -6.079456e-01 1.670089e+00 -6.705837e-01 -5.929818e+00 -8.820225e-01 -6.906881e+00 5.931143e-01 -4.574426e+00 -3.940755e-01 -3.854154e-01 -5.847453e+00 5.993814e+01 5.024984e-04 -6.478592e-05 9.522401e-04 -6.048587e-04 -1.305029e-03 -9.148303e-04 -9.999124e-04 -6.995694e-04 3.150678e-04 8.832195e-04 -1.229102e-04 -1.829845e-05 4.304752e-04 -1.024714e-04 5.090495e-05 -4.314321e-05 5.499199e-04 2.475645e-04 2.544455e-04 -3.161734e-04 -1.009587e-04 -7.179174e-05 -5.594532e-04 -1.336834e-04 -6.698545e-06 -3.952787e-04
<VARIANCE> 39
 2.681136e+01 5.325134e+01 6.824250e+01 5.887592e+01 6.062508e+01 6.608533e+01 5.928268e+01 6.068991e+01 5.916120e+01 4.597362e+01 4.705821e+01 4.804106e+01 6.619385e+01 1.372020e+00 2.288023e+00 2.566274e+00 2.987463e+00 3.078158e+00 3.116328e+00 3.250192e+00 3.738113e+00 3.266875e+00 2.829993e+00 2.967949e+00 2.476121e+00 2.021681e+00 2.264445e-01 3.584008e-01 4.122588e-01 5.086471e-01 5.519696e-01 5.562619e-01 5.942494e-01 6.847889e-01 5.904057e-01 5.307208e-01 5.528100e-01 4.553457e-01 3.018115e-01
<GCONST> 1.265182e+02
<STATE> 4
<MEAN> 39
 7.903662e-04 -6.079456e-01 1.670089e+00 -6.705837e-01 -5.929818e+00 -8.820225e-01 -6.906881e+00 5.931143e-01 -4.574426e+00 -3.940755e-01 -3.854154e-01 -5.847453e+00 5.993814e+01 5.024984e-04 -6.478592e-05 9.522401e-04 -6.048587e-04 -1.305029e-03 -9.148303e-04 -9.999124e-04 -6.995694e-04 3.150678e-04 8.832195e-04 -1.229102e-04 -1.829845e-05 4.304752e-04 -1.024714e-04 5.090495e-05 -4.314321e-05 5.499199e-04 2.475645e-04 2.544455e-04 -3.161734e-04 -1.009587e-04 -7.179174e-05 -5.594532e-04 -1.336834e-04 -6.698545e-06 -3.952787e-04
<VARIANCE> 39
 2.681136e+01 5.325134e+01 6.824250e+01 5.887592e+01 6.062508e+01 6.608533e+01 5.928268e+01 6.068991e+01 5.916120e+01 4.597362e+01 4.705821e+01 4.804106e+01 6.619385e+01 1.372020e+00 2.288023e+00 2.566274e+00 2.987463e+00 3.078158e+00 3.116328e+00 3.250192e+00 3.738113e+00 3.266875e+00 2.829993e+00 2.967949e+00 2.476121e+00 2.021681e+00 2.264445e-01 3.584008e-01 4.122588e-01 5.086471e-01 5.519696e-01 5.562619e-01 5.942494e-01 6.847889e-01 5.904057e-01 5.307208e-01 5.528100e-01 4.553457e-01 3.018115e-01
<GCONST> 1.265182e+02
<TRANSP> 5
 0.000000e+00 1.000000e+00 0.000000e+00 0.000000e+00 0.000000e+00
 0.000000e+00 6.000000e-01 4.000000e-01 0.000000e+00 0.000000e+00
 0.000000e+00 0.000000e+00 6.000000e-01 4.000000e-01 0.000000e+00
 0.000000e+00 0.000000e+00 0.000000e+00 7.000000e-01 3.000000e-01
 0.000000e+00 0.000000e+00 0.000000e+00 0.000000e+00 0.000000e+00
<ENDHMM>
~h "o"
<BEGINHMM>
<NUMSTATES> 5
<STATE> 2
<MEAN> 39
 7.903662e-04 -6.079456e-01 1.670089e+00 -6.705837e-01 -5.929818e+00 -8.820225e-01 -6.906881e+00 5.931143e-01 -4.574426e+00 -3.940755e-01 -3.854154e-01 -5.847453e+00 5.993814e+01 5.024984e-04 -6.478592e-05 9.522401e-04 -6.048587e-04 -1.305029e-03 -9.148303e-04 -9.999124e-04 -6.995694e-04 3.150678e-04 8.832195e-04 -1.229102e-04 -1.829845e-05 4.304752e-04 -1.024714e-04 5.090495e-05 -4.314321e-05 5.499199e-04 2.475645e-04 2.544455e-04 -3.161734e-04 -1.009587e-04 -7.179174e-05 -5.594532e-04 -1.336834e-04 -6.698545e-06 -3.952787e-04
<VARIANCE> 39
 2.681136e+01 5.325134e+01 6.824250e+01 5.887592e+01 6.062508e+01 6.608533e+01 5.928268e+01 6.068991e+01 5.916120e+01 4.597362e+01 4.705821e+01 4.804106e+01 6.619385e+01 1.372020e+00 2.288023e+00 2.566274e+00 2.987463e+00 3.078158e+00 3.116328e+00 3.250192e+00 3.738113e+00 3.266875e+00 2.829993e+00 2.967949e+00 2.476121e+00 2.021681e+00 2.264445e-01 3.584008e-01 4.122588e-01 5.086471e-01 5.519696e-01 5.562619e-01 5.942494e-01 6.847889e-01 5.904057e-01 5.307208e-01 5.528100e-01 4.553457e-01 3.018115e-01
<GCONST> 1.265182e+02
<STATE> 3
<MEAN> 39
 7.903662e-04 -6.079456e-01 1.670089e+00 -6.705837e-01 -5.929818e+00 -8.820225e-01 -6.906881e+00 5.931143e-01 -4.574426e+00 -3.940755e-01 -3.854154e-01 -5.847453e+00 5.993814e+01 5.024984e-04 -6.478592e-05 9.522401e-04 -6.048587e-04 -1.305029e-03 -9.148303e-04 -9.999124e-04 -6.995694e-04 3.150678e-04 8.832195e-04 -1.229102e-04 -1.829845e-05 4.304752e-04 -1.024714e-04 5.090495e-05 -4.314321e-05 5.499199e-04 2.475645e-04 2.544455e-04 -3.161734e-04 -1.009587e-04 -7.179174e-05 -5.594532e-04 -1.336834e-04 -6.698545e-06 -3.952787e-04
<VARIANCE> 39
 2.681136e+01 5.325134e+01 6.824250e+01 5.887592e+01 6.062508e+01 6.608533e+01 5.928268e+01 6.068991e+01 5.916120e+01 4.597362e+01 4.705821e+01 4.804106e+01 6.619385e+01 1.372020e+00 2.288023e+00 2.566274e+00 2.987463e+00 3.078158e+00 3.116328e+00 3.250192e+00 3.738113e+00 3.266875e+00 2.829993e+00 2.967949e+00 2.476121e+00 2.021681e+00 2.264445e-01 3.584008e-01 4.122588e-01 5.086471e-01 5.519696e-01 5.562619e-01 5.942494e-01 6.847889e-01 5.904057e-01 5.307208e-01 5.528100e-01 4.553457e-01 3.018115e-01
<GCONST> 1.265182e+02
<STATE> 4
<MEAN> 39
 7.903662e-04 -6.079456e-01 1.670089e+00 -6.705837e-01 -5.929818e+00 -8.820225e-01 -6.906881e+00 5.931143e-01 -4.574426e+00 -3.940755e-01 -3.854154e-01 -5.847453e+00 5.993814e+01 5.024984e-04 -6.478592e-05 9.522401e-04 -6.048587e-04 -1.305029e-03 -9.148303e-04 -9.999124e-04 -6.995694e-04 3.150678e-04 8.832195e-04 -1.229102e-04 -1.829845e-05 4.304752e-04 -1.024714e-04 5.090495e-05 -4.314321e-05 5.499199e-04 2.475645e-04 2.544455e-04 -3.161734e-04 -1.009587e-04 -7.179174e-05 -5.594532e-04 -1.336834e-04 -6.698545e-06 -3.952787e-04
<VARIANCE> 39
 2.681136e+01 5.325134e+01 6.824250e+01 5.887592e+01 6.062508e+01 6.608533e+01 5.928268e+01 6.068991e+01 5.916120e+01 4.597362e+01 4.705821e+01 4.804106e+01 6.619385e+01 1.372020e+00 2.288023e+00 2.566274e+00 2.987463e+00 3.078158e+00 3.116328e+00 3.250192e+00 3.738113e+00 3.266875e+00 2.829993e+00 2.967949e+00 2.476121e+00 2.021681e+00 2.264445e-01 3.584008e-01 4.122588e-01 5.086471e-01 5.519696e-01 5.562619e-01 5.942494e-01 6.847889e-01 5.904057e-01 5.307208e-01 5.528100e-01 4.553457e-01 3.018115e-01
<GCONST> 1.265182e+02
<TRANSP> 5
 0.000000e+00 1.000000e+00 0.000000e+00 0.000000e+00 0.000000e+00
 0.000000e+00 6.000000e-01 4.000000e-01 0.000000e+00 0.000000e+00
 0.000000e+00 0.000000e+00 6.000000e-01 4.000000e-01 0.000000e+00
 0.000000e+00 0.000000e+00 0.000000e+00 7.000000e-01 3.000000e-01
 0.000000e+00 0.000000e+00 0.000000e+00 0.000000e+00 0.000000e+00
<ENDHMM>
~h "s"
<BEGINHMM>
<NUMSTATES> 5
<STATE> 2
<MEAN> 39
 7.903662e-04 -6.079456e-01 1.670089e+00 -6.705837e-01 -5.929818e+00 -8.820225e-01 -6.906881e+00 5.931143e-01 -4.574426e+00 -3.940755e-01 -3.854154e-01 -5.847453e+00 5.993814e+01 5.024984e-04 -6.478592e-05 9.522401e-04 -6.048587e-04 -1.305029e-03 -9.148303e-04 -9.999124e-04 -6.995694e-04 3.150678e-04 8.832195e-04 -1.229102e-04 -1.829845e-05 4.304752e-04 -1.024714e-04 5.090495e-05 -4.314321e-05 5.499199e-04 2.475645e-04 2.544455e-04 -3.161734e-04 -1.009587e-04 -7.179174e-05 -5.594532e-04 -1.336834e-04 -6.698545e-06 -3.952787e-04
<VARIANCE> 39
 2.681136e+01 5.325134e+01 6.824250e+01 5.887592e+01 6.062508e+01 6.608533e+01 5.928268e+01 6.068991e+01 5.916120e+01 4.597362e+01 4.705821e+01 4.804106e+01 6.619385e+01 1.372020e+00 2.288023e+00 2.566274e+00 2.987463e+00 3.078158e+00 3.116328e+00 3.250192e+00 3.738113e+00 3.266875e+00 2.829993e+00 2.967949e+00 2.476121e+00 2.021681e+00 2.264445e-01 3.584008e-01 4.122588e-01 5.086471e-01 5.519696e-01 5.562619e-01 5.942494e-01 6.847889e-01 5.904057e-01 5.307208e-01 5.528100e-01 4.553457e-01 3.018115e-01
<GCONST> 1.265182e+02
<STATE> 3
<MEAN> 39
 7.903662e-04 -6.079456e-01 1.670089e+00 -6.705837e-01 -5.929818e+00 -8.820225e-01 -6.906881e+00 5.931143e-01 -4.574426e+00 -3.940755e-01 -3.854154e-01 -5.847453e+00 5.993814e+01 5.024984e-04 -6.478592e-05 9.522401e-04 -6.048587e-04 -1.305029e-03 -9.148303e-04 -9.999124e-04 -6.995694e-04 3.150678e-04 8.832195e-04 -1.229102e-04 -1.829845e-05 4.304752e-04 -1.024714e-04 5.090495e-05 -4.314321e-05 5.499199e-04 2.475645e-04 2.544455e-04 -3.161734e-04 -1.009587e-04 -7.179174e-05 -5.594532e-04 -1.336834e-04 -6.698545e-06 -3.952787e-04
<VARIANCE> 39
 2.681136e+01 5.325134e+01 6.824250e+01 5.887592e+01 6.062508e+01 6.608533e+01 5.928268e+01 6.068991e+01 5.916120e+01 4.597362e+01 4.705821e+01 4.804106e+01 6.619385e+01 1.372020e+00 2.288023e+00 2.566274e+00 2.987463e+00 3.078158e+00 3.116328e+00 3.250192e+00 3.738113e+00 3.266875e+00 2.829993e+00 2.967949e+00 2.476121e+00 2.021681e+00 2.264445e-01 3.584008e-01 4.122588e-01 5.086471e-01 5.519696e-01 5.562619e-01 5.942494e-01 6.847889e-01 5.904057e-01 5.307208e-01 5.528100e-01 4.553457e-01 3.018115e-01
<GCONST> 1.265182e+02
<STATE> 4
<MEAN> 39
 7.903662e-04 -6.079456e-01 1.670089e+00 -6.705837e-01 -5.929818e+00 -8.820225e-01 -6.906881e+00 5.931143e-01 -4.574426e+00 -3.940755e-01 -3.854154e-01 -5.847453e+00 5.993814e+01 5.024984e-04 -6.478592e-05 9.522401e-04 -6.048587e-04 -1.305029e-03 -9.148303e-04 -9.999124e-04 -6.995694e-04 3.150678e-04 8.832195e-04 -1.229102e-04 -1.829845e-05 4.304752e-04 -1.024714e-04 5.090495e-05 -4.314321e-05 5.499199e-04 2.475645e-04 2.544455e-04 -3.161734e-04 -1.009587e-04 -7.179174e-05 -5.594532e-04 -1.336834e-04 -6.698545e-06 -3.952787e-04
<VARIANCE> 39
 2.681136e+01 5.325134e+01 6.824250e+01 5.887592e+01 6.062508e+01 6.608533e+01 5.928268e+01 6.068991e+01 5.916120e+01 4.597362e+01 4.705821e+01 4.804106e+01 6.619385e+01 1.372020e+00 2.288023e+00 2.566274e+00 2.987463e+00 3.078158e+00 3.116328e+00 3.250192e+00 3.738113e+00 3.266875e+00 2.829993e+00 2.967949e+00 2.476121e+00 2.021681e+00 2.264445e-01 3.584008e-01 4.122588e-01 5.086471e-01 5.519696e-01 5.562619e-01 5.942494e-01 6.847889e-01 5.904057e-01 5.307208e-01 5.528100e-01 4.553457e-01 3.018115e-01
<GCONST> 1.265182e+02
<TRANSP> 5
 0.000000e+00 1.000000e+00 0.000000e+00 0.000000e+00 0.000000e+00
 0.000000e+00 6.000000e-01 4.000000e-01 0.000000e+00 0.000000e+00
 0.000000e+00 0.000000e+00 6.000000e-01 4.000000e-01 0.000000e+00
 0.000000e+00 0.000000e+00 0.000000e+00 7.000000e-01 3.000000e-01
 0.000000e+00 0.000000e+00 0.000000e+00 0.000000e+00 0.000000e+00
<ENDHMM>
~h "ny"
<BEGINHMM>
<NUMSTATES> 5
<STATE> 2
<MEAN> 39
 7.903662e-04 -6.079456e-01 1.670089e+00 -6.705837e-01 -5.929818e+00 -8.820225e-01 -6.906881e+00 5.931143e-01 -4.574426e+00 -3.940755e-01 -3.854154e-01 -5.847453e+00 5.993814e+01 5.024984e-04 -6.478592e-05 9.522401e-04 -6.048587e-04 -1.305029e-03 -9.148303e-04 -9.999124e-04 -6.995694e-04 3.150678e-04 8.832195e-04 -1.229102e-04 -1.829845e-05 4.304752e-04 -1.024714e-04 5.090495e-05 -4.314321e-05 5.499199e-04 2.475645e-04 2.544455e-04 -3.161734e-04 -1.009587e-04 -7.179174e-05 -5.594532e-04 -1.336834e-04 -6.698545e-06 -3.952787e-04
<VARIANCE> 39
 2.681136e+01 5.325134e+01 6.824250e+01 5.887592e+01 6.062508e+01 6.608533e+01 5.928268e+01 6.068991e+01 5.916120e+01 4.597362e+01 4.705821e+01 4.804106e+01 6.619385e+01 1.372020e+00 2.288023e+00 2.566274e+00 2.987463e+00 3.078158e+00 3.116328e+00 3.250192e+00 3.738113e+00 3.266875e+00 2.829993e+00 2.967949e+00 2.476121e+00 2.021681e+00 2.264445e-01 3.584008e-01 4.122588e-01 5.086471e-01 5.519696e-01 5.562619e-01 5.942494e-01 6.847889e-01 5.904057e-01 5.307208e-01 5.528100e-01 4.553457e-01 3.018115e-01
<GCONST> 1.265182e+02
<STATE> 3
<MEAN> 39
 7.903662e-04 -6.079456e-01 1.670089e+00 -6.705837e-01 -5.929818e+00 -8.820225e-01 -6.906881e+00 5.931143e-01 -4.574426e+00 -3.940755e-01 -3.854154e-01 -5.847453e+00 5.993814e+01 5.024984e-04 -6.478592e-05 9.522401e-04 -6.048587e-04 -1.305029e-03 -9.148303e-04 -9.999124e-04 -6.995694e-04 3.150678e-04 8.832195e-04 -1.229102e-04 -1.829845e-05 4.304752e-04 -1.024714e-04 5.090495e-05 -4.314321e-05 5.499199e-04 2.475645e-04 2.544455e-04 -3.161734e-04 -1.009587e-04 -7.179174e-05 -5.594532e-04 -1.336834e-04 -6.698545e-06 -3.952787e-04
<VARIANCE> 39
 2.681136e+01 5.325134e+01 6.824250e+01 5.887592e+01 6.062508e+01 6.608533e+01 5.928268e+01 6.068991e+01 5.916120e+01 4.597362e+01 4.705821e+01 4.804106e+01 6.619385e+01 1.372020e+00 2.288023e+00 2.566274e+00 2.987463e+00 3.078158e+00 3.116328e+00 3.250192e+00 3.738113e+00 3.266875e+00 2.829993e+00 2.967949e+00 2.476121e+00 2.021681e+00 2.264445e-01 3.584008e-01 4.122588e-01 5.086471e-01 5.519696e-01 5.562619e-01 5.942494e-01 6.847889e-01 5.904057e-01 5.307208e-01 5.528100e-01 4.553457e-01 3.018115e-01
<GCONST> 1.265182e+02
<STATE> 4
<MEAN> 39
 7.903662e-04 -6.079456e-01 1.670089e+00 -6.705837e-01 -5.929818e+00 -8.820225e-01 -6.906881e+00 5.931143e-01 -4.574426e+00 -3.940755e-01 -3.854154e-01 -5.847453e+00 5.993814e+01 5.024984e-04 -6.478592e-05 9.522401e-04 -6.048587e-04 -1.305029e-03 -9.148303e-04 -9.999124e-04 -6.995694e-04 3.150678e-04 8.832195e-04 -1.229102e-04 -1.829845e-05 4.304752e-04 -1.024714e-04 5.090495e-05 -4.314321e-05 5.499199e-04 2.475645e-04 2.544455e-04 -3.161734e-04 -1.009587e-04 -7.179174e-05 -5.594532e-04 -1.336834e-04 -6.698545e-06 -3.952787e-04
<VARIANCE> 39
 2.681136e+01 5.325134e+01 6.824250e+01 5.887592e+01 6.062508e+01 6.608533e+01 5.928268e+01 6.068991e+01 5.916120e+01 4.597362e+01 4.705821e+01 4.804106e+01 6.619385e+01 1.372020e+00 2.288023e+00 2.566274e+00 2.987463e+00 3.078158e+00 3.116328e+00 3.250192e+00 3.738113e+00 3.266875e+00 2.829993e+00 2.967949e+00 2.476121e+00 2.021681e+00 2.264445e-01 3.584008e-01 4.122588e-01 5.086471e-01 5.519696e-01 5.562619e-01 5.942494e-01 6.847889e-01 5.904057e-01 5.307208e-01 5.528100e-01 4.553457e-01 3.018115e-01
<GCONST> 1.265182e+02
<TRANSP> 5
 0.000000e+00 1.000000e+00 0.000000e+00 0.000000e+00 0.000000e+00
 0.000000e+00 6.000000e-01 4.000000e-01 0.000000e+00 0.000000e+00
 0.000000e+00 0.000000e+00 6.000000e-01 4.000000e-01 0.000000e+00
 0.000000e+00 0.000000e+00 0.000000e+00 7.000000e-01 3.000000e-01
 0.000000e+00 0.000000e+00 0.000000e+00 0.000000e+00 0.000000e+00
<ENDHMM>
~h "ay"
<BEGINHMM>
<NUMSTATES> 5
<STATE> 2
<MEAN> 39
 7.903662e-04 -6.079456e-01 1.670089e+00 -6.705837e-01 -5.929818e+00 -8.820225e-01 -6.906881e+00 5.931143e-01 -4.574426e+00 -3.940755e-01 -3.854154e-01 -5.847453e+00 5.993814e+01 5.024984e-04 -6.478592e-05 9.522401e-04 -6.048587e-04 -1.305029e-03 -9.148303e-04 -9.999124e-04 -6.995694e-04 3.150678e-04 8.832195e-04 -1.229102e-04 -1.829845e-05 4.304752e-04 -1.024714e-04 5.090495e-05 -4.314321e-05 5.499199e-04 2.475645e-04 2.544455e-04 -3.161734e-04 -1.009587e-04 -7.179174e-05 -5.594532e-04 -1.336834e-04 -6.698545e-06 -3.952787e-04
<VARIANCE> 39
 2.681136e+01 5.325134e+01 6.824250e+01 5.887592e+01 6.062508e+01 6.608533e+01 5.928268e+01 6.068991e+01 5.916120e+01 4.597362e+01 4.705821e+01 4.804106e+01 6.619385e+01 1.372020e+00 2.288023e+00 2.566274e+00 2.987463e+00 3.078158e+00 3.116328e+00 3.250192e+00 3.738113e+00 3.266875e+00 2.829993e+00 2.967949e+00 2.476121e+00 2.021681e+00 2.264445e-01 3.584008e-01 4.122588e-01 5.086471e-01 5.519696e-01 5.562619e-01 5.942494e-01 6.847889e-01 5.904057e-01 5.307208e-01 5.528100e-01 4.553457e-01 3.018115e-01
<GCONST> 1.265182e+02
<STATE> 3
<MEAN> 39
 7.903662e-04 -6.079456e-01 1.670089e+00 -6.705837e-01 -5.929818e+00 -8.820225e-01 -6.906881e+00 5.931143e-01 -4.574426e+00 -3.940755e-01 -3.854154e-01 -5.847453e+00 5.993814e+01 5.024984e-04 -6.478592e-05 9.522401e-04 -6.048587e-04 -1.305029e-03 -9.148303e-04 -9.999124e-04 -6.995694e-04 3.150678e-04 8.832195e-04 -1.229102e-04 -1.829845e-05 4.304752e-04 -1.024714e-04 5.090495e-05 -4.314321e-05 5.499199e-04 2.475645e-04 2.544455e-04 -3.161734e-04 -1.009587e-04 -7.179174e-05 -5.594532e-04 -1.336834e-04 -6.698545e-06 -3.952787e-04
<VARIANCE> 39
 2.681136e+01 5.325134e+01 6.824250e+01 5.887592e+01 6.062508e+01 6.608533e+01 5.928268e+01 6.068991e+01 5.916120e+01 4.597362e+01 4.705821e+01 4.804106e+01 6.619385e+01 1.372020e+00 2.288023e+00 2.566274e+00 2.987463e+00 3.078158e+00 3.116328e+00 3.250192e+00 3.738113e+00 3.266875e+00 2.829993e+00 2.967949e+00 2.476121e+00 2.021681e+00 2.264445e-01 3.584008e-01 4.122588e-01 5.086471e-01 5.519696e-01 5.562619e-01 5.942494e-01 6.847889e-01 5.904057e-01 5.307208e-01 5.528100e-01 4.553457e-01 3.018115e-01
<GCONST> 1.265182e+02
<STATE> 4
<MEAN> 39
 7.903662e-04 -6.079456e-01 1.670089e+00 -6.705837e-01 -5.929818e+00 -8.820225e-01 -6.906881e+00 5.931143e-01 -4.574426e+00 -3.940755e-01 -3.854154e-01 -5.847453e+00 5.993814e+01 5.024984e-04 -6.478592e-05 9.522401e-04 -6.048587e-04 -1.305029e-03 -9.148303e-04 -9.999124e-04 -6.995694e-04 3.150678e-04 8.832195e-04 -1.229102e-04 -1.829845e-05 4.304752e-04 -1.024714e-04 5.090495e-05 -4.314321e-05 5.499199e-04 2.475645e-04 2.544455e-04 -3.161734e-04 -1.009587e-04 -7.179174e-05 -5.594532e-04 -1.336834e-04 -6.698545e-06 -3.952787e-04
<VARIANCE> 39
 2.681136e+01 5.325134e+01 6.824250e+01 5.887592e+01 6.062508e+01 6.608533e+01 5.928268e+01 6.068991e+01 5.916120e+01 4.597362e+01 4.705821e+01 4.804106e+01 6.619385e+01 1.372020e+00 2.288023e+00 2.566274e+00 2.987463e+00 3.078158e+00 3.116328e+00 3.250192e+00 3.738113e+00 3.266875e+00 2.829993e+00 2.967949e+00 2.476121e+00 2.021681e+00 2.264445e-01 3.584008e-01 4.122588e-01 5.086471e-01 5.519696e-01 5.562619e-01 5.942494e-01 6.847889e-01 5.904057e-01 5.307208e-01 5.528100e-01 4.553457e-01 3.018115e-01
<GCONST> 1.265182e+02
<TRANSP> 5
 0.000000e+00 1.000000e+00 0.000000e+00 0.000000e+00 0.000000e+00
 0.000000e+00 6.000000e-01 4.000000e-01 0.000000e+00 0.000000e+00
 0.000000e+00 0.000000e+00 6.000000e-01 4.000000e-01 0.000000e+00
 0.000000e+00 0.000000e+00 0.000000e+00 7.000000e-01 3.000000e-01
 0.000000e+00 0.000000e+00 0.000000e+00 0.000000e+00 0.000000e+00
<ENDHMM>
~h "e"
<BEGINHMM>
<NUMSTATES> 5
<STATE> 2
<MEAN> 39
 7.903662e-04 -6.079456e-01 1.670089e+00 -6.705837e-01 -5.929818e+00 -8.820225e-01 -6.906881e+00 5.931143e-01 -4.574426e+00 -3.940755e-01 -3.854154e-01 -5.847453e+00 5.993814e+01 5.024984e-04 -6.478592e-05 9.522401e-04 -6.048587e-04 -1.305029e-03 -9.148303e-04 -9.999124e-04 -6.995694e-04 3.150678e-04 8.832195e-04 -1.229102e-04 -1.829845e-05 4.304752e-04 -1.024714e-04 5.090495e-05 -4.314321e-05 5.499199e-04 2.475645e-04 2.544455e-04 -3.161734e-04 -1.009587e-04 -7.179174e-05 -5.594532e-04 -1.336834e-04 -6.698545e-06 -3.952787e-04
<VARIANCE> 39
 2.681136e+01 5.325134e+01 6.824250e+01 5.887592e+01 6.062508e+01 6.608533e+01 5.928268e+01 6.068991e+01 5.916120e+01 4.597362e+01 4.705821e+01 4.804106e+01 6.619385e+01 1.372020e+00 2.288023e+00 2.566274e+00 2.987463e+00 3.078158e+00 3.116328e+00 3.250192e+00 3.738113e+00 3.266875e+00 2.829993e+00 2.967949e+00 2.476121e+00 2.021681e+00 2.264445e-01 3.584008e-01 4.122588e-01 5.086471e-01 5.519696e-01 5.562619e-01 5.942494e-01 6.847889e-01 5.904057e-01 5.307208e-01 5.528100e-01 4.553457e-01 3.018115e-01
<GCONST> 1.265182e+02
<STATE> 3
<MEAN> 39
 7.903662e-04 -6.079456e-01 1.670089e+00 -6.705837e-01 -5.929818e+00 -8.820225e-01 -6.906881e+00 5.931143e-01 -4.574426e+00 -3.940755e-01 -3.854154e-01 -5.847453e+00 5.993814e+01 5.024984e-04 -6.478592e-05 9.522401e-04 -6.048587e-04 -1.305029e-03 -9.148303e-04 -9.999124e-04 -6.995694e-04 3.150678e-04 8.832195e-04 -1.229102e-04 -1.829845e-05 4.304752e-04 -1.024714e-04 5.090495e-05 -4.314321e-05 5.499199e-04 2.475645e-04 2.544455e-04 -3.161734e-04 -1.009587e-04 -7.179174e-05 -5.594532e-04 -1.336834e-04 -6.698545e-06 -3.952787e-04
<VARIANCE> 39
 2.681136e+01 5.325134e+01 6.824250e+01 5.887592e+01 6.062508e+01 6.608533e+01 5.928268e+01 6.068991e+01 5.916120e+01 4.597362e+01 4.705821e+01 4.804106e+01 6.619385e+01 1.372020e+00 2.288023e+00 2.566274e+00 2.987463e+00 3.078158e+00 3.116328e+00 3.250192e+00 3.738113e+00 3.266875e+00 2.829993e+00 2.967949e+00 2.476121e+00 2.021681e+00 2.264445e-01 3.584008e-01 4.122588e-01 5.086471e-01 5.519696e-01 5.562619e-01 5.942494e-01 6.847889e-01 5.904057e-01 5.307208e-01 5.528100e-01 4.553457e-01 3.018115e-01
<GCONST> 1.265182e+02
<STATE> 4
<MEAN> 39
 7.903662e-04 -6.079456e-01 1.670089e+00 -6.705837e-01 -5.929818e+00 -8.820225e-01 -6.906881e+00 5.931143e-01 -4.574426e+00 -3.940755e-01 -3.854154e-01 -5.847453e+00 5.993814e+01 5.024984e-04 -6.478592e-05 9.522401e-04 -6.048587e-04 -1.305029e-03 -9.148303e-04 -9.999124e-04 -6.995694e-04 3.150678e-04 8.832195e-04 -1.229102e-04 -1.829845e-05 4.304752e-04 -1.024714e-04 5.090495e-05 -4.314321e-05 5.499199e-04 2.475645e-04 2.544455e-04 -3.161734e-04 -1.009587e-04 -7.179174e-05 -5.594532e-04 -1.336834e-04 -6.698545e-06 -3.952787e-04
<VARIANCE> 39
 2.681136e+01 5.325134e+01 6.824250e+01 5.887592e+01 6.062508e+01 6.608533e+01 5.928268e+01 6.068991e+01 5.916120e+01 4.597362e+01 4.705821e+01 4.804106e+01 6.619385e+01 1.372020e+00 2.288023e+00 2.566274e+00 2.987463e+00 3.078158e+00 3.116328e+00 3.250192e+00 3.738113e+00 3.266875e+00 2.829993e+00 2.967949e+00 2.476121e+00 2.021681e+00 2.264445e-01 3.584008e-01 4.122588e-01 5.086471e-01 5.519696e-01 5.562619e-01 5.942494e-01 6.847889e-01 5.904057e-01 5.307208e-01 5.528100e-01 4.553457e-01 3.018115e-01
<GCONST> 1.265182e+02
<TRANSP> 5
 0.000000e+00 1.000000e+00 0.000000e+00 0.000000e+00 0.000000e+00
 0.000000e+00 6.000000e-01 4.000000e-01 0.000000e+00 0.000000e+00
 0.000000e+00 0.000000e+00 6.000000e-01 4.000000e-01 0.000000e+00
 0.000000e+00 0.000000e+00 0.000000e+00 7.000000e-01 3.000000e-01
 0.000000e+00 0.000000e+00 0.000000e+00 0.000000e+00 0.000000e+00
<ENDHMM>
~h "kh"
<BEGINHMM>
<NUMSTATES> 5
<STATE> 2
<MEAN> 39
 7.903662e-04 -6.079456e-01 1.670089e+00 -6.705837e-01 -5.929818e+00 -8.820225e-01 -6.906881e+00 5.931143e-01 -4.574426e+00 -3.940755e-01 -3.854154e-01 -5.847453e+00 5.993814e+01 5.024984e-04 -6.478592e-05 9.522401e-04 -6.048587e-04 -1.305029e-03 -9.148303e-04 -9.999124e-04 -6.995694e-04 3.150678e-04 8.832195e-04 -1.229102e-04 -1.829845e-05 4.304752e-04 -1.024714e-04 5.090495e-05 -4.314321e-05 5.499199e-04 2.475645e-04 2.544455e-04 -3.161734e-04 -1.009587e-04 -7.179174e-05 -5.594532e-04 -1.336834e-04 -6.698545e-06 -3.952787e-04
<VARIANCE> 39
 2.681136e+01 5.325134e+01 6.824250e+01 5.887592e+01 6.062508e+01 6.608533e+01 5.928268e+01 6.068991e+01 5.916120e+01 4.597362e+01 4.705821e+01 4.804106e+01 6.619385e+01 1.372020e+00 2.288023e+00 2.566274e+00 2.987463e+00 3.078158e+00 3.116328e+00 3.250192e+00 3.738113e+00 3.266875e+00 2.829993e+00 2.967949e+00 2.476121e+00 2.021681e+00 2.264445e-01 3.584008e-01 4.122588e-01 5.086471e-01 5.519696e-01 5.562619e-01 5.942494e-01 6.847889e-01 5.904057e-01 5.307208e-01 5.528100e-01 4.553457e-01 3.018115e-01
<GCONST> 1.265182e+02
<STATE> 3
<MEAN> 39
 7.903662e-04 -6.079456e-01 1.670089e+00 -6.705837e-01 -5.929818e+00 -8.820225e-01 -6.906881e+00 5.931143e-01 -4.574426e+00 -3.940755e-01 -3.854154e-01 -5.847453e+00 5.993814e+01 5.024984e-04 -6.478592e-05 9.522401e-04 -6.048587e-04 -1.305029e-03 -9.148303e-04 -9.999124e-04 -6.995694e-04 3.150678e-04 8.832195e-04 -1.229102e-04 -1.829845e-05 4.304752e-04 -1.024714e-04 5.090495e-05 -4.314321e-05 5.499199e-04 2.475645e-04 2.544455e-04 -3.161734e-04 -1.009587e-04 -7.179174e-05 -5.594532e-04 -1.336834e-04 -6.698545e-06 -3.952787e-04
<VARIANCE> 39
 2.681136e+01 5.325134e+01 6.824250e+01 5.887592e+01 6.062508e+01 6.608533e+01 5.928268e+01 6.068991e+01 5.916120e+01 4.597362e+01 4.705821e+01 4.804106e+01 6.619385e+01 1.372020e+00 2.288023e+00 2.566274e+00 2.987463e+00 3.078158e+00 3.116328e+00 3.250192e+00 3.738113e+00 3.266875e+00 2.829993e+00 2.967949e+00 2.476121e+00 2.021681e+00 2.264445e-01 3.584008e-01 4.122588e-01 5.086471e-01 5.519696e-01 5.562619e-01 5.942494e-01 6.847889e-01 5.904057e-01 5.307208e-01 5.528100e-01 4.553457e-01 3.018115e-01
<GCONST> 1.265182e+02
<STATE> 4
<MEAN> 39
 7.903662e-04 -6.079456e-01 1.670089e+00 -6.705837e-01 -5.929818e+00 -8.820225e-01 -6.906881e+00 5.931143e-01 -4.574426e+00 -3.940755e-01 -3.854154e-01 -5.847453e+00 5.993814e+01 5.024984e-04 -6.478592e-05 9.522401e-04 -6.048587e-04 -1.305029e-03 -9.148303e-04 -9.999124e-04 -6.995694e-04 3.150678e-04 8.832195e-04 -1.229102e-04 -1.829845e-05 4.304752e-04 -1.024714e-04 5.090495e-05 -4.314321e-05 5.499199e-04 2.475645e-04 2.544455e-04 -3.161734e-04 -1.009587e-04 -7.179174e-05 -5.594532e-04 -1.336834e-04 -6.698545e-06 -3.952787e-04
<VARIANCE> 39
 2.681136e+01 5.325134e+01 6.824250e+01 5.887592e+01 6.062508e+01 6.608533e+01 5.928268e+01 6.068991e+01 5.916120e+01 4.597362e+01 4.705821e+01 4.804106e+01 6.619385e+01 1.372020e+00 2.288023e+00 2.566274e+00 2.987463e+00 3.078158e+00 3.116328e+00 3.250192e+00 3.738113e+00 3.266875e+00 2.829993e+00 2.967949e+00 2.476121e+00 2.021681e+00 2.264445e-01 3.584008e-01 4.122588e-01 5.086471e-01 5.519696e-01 5.562619e-01 5.942494e-01 6.847889e-01 5.904057e-01 5.307208e-01 5.528100e-01 4.553457e-01 3.018115e-01
<GCONST> 1.265182e+02
<TRANSP> 5
 0.000000e+00 1.000000e+00 0.000000e+00 0.000000e+00 0.000000e+00
 0.000000e+00 6.000000e-01 4.000000e-01 0.000000e+00 0.000000e+00
 0.000000e+00 0.000000e+00 6.000000e-01 4.000000e-01 0.000000e+00
 0.000000e+00 0.000000e+00 0.000000e+00 7.000000e-01 3.000000e-01
 0.000000e+00 0.000000e+00 0.000000e+00 0.000000e+00 0.000000e+00
<ENDHMM>
~h "f"
<BEGINHMM>
<NUMSTATES> 5
<STATE> 2
<MEAN> 39
 7.903662e-04 -6.079456e-01 1.670089e+00 -6.705837e-01 -5.929818e+00 -8.820225e-01 -6.906881e+00 5.931143e-01 -4.574426e+00 -3.940755e-01 -3.854154e-01 -5.847453e+00 5.993814e+01 5.024984e-04 -6.478592e-05 9.522401e-04 -6.048587e-04 -1.305029e-03 -9.148303e-04 -9.999124e-04 -6.995694e-04 3.150678e-04 8.832195e-04 -1.229102e-04 -1.829845e-05 4.304752e-04 -1.024714e-04 5.090495e-05 -4.314321e-05 5.499199e-04 2.475645e-04 2.544455e-04 -3.161734e-04 -1.009587e-04 -7.179174e-05 -5.594532e-04 -1.336834e-04 -6.698545e-06 -3.952787e-04
<VARIANCE> 39
