~o
<STREAMINFO> 1 39
<VECSIZE> 39<NULLD><MFCC_D_A_0><DIAGC>
~h "@"
<BEGINHMM>
<NUMSTATES> 5
<STATE> 2
<MEAN> 39
 1.069119e+00 -2.587525e+00 1.501006e+00 -2.982205e-01 -6.085333e+00 -3.868175e+00 -8.725082e+00 -3.817580e-01 -2.048705e+00 6.332085e-01 -3.253529e-01 -7.186557e+00 6.244694e+01 2.116693e-01 -5.169823e-01 1.724677e-01 -1.367559e-01 -2.232596e-01 -3.208389e-01 -1.626543e-01 6.557915e-02 1.741314e-01 7.633556e-02 1.791893e-02 -3.005089e-01 5.866308e-01 -1.595548e-02 1.024996e-01 5.727082e-02 9.477326e-03 -1.460909e-02 1.491831e-01 5.058744e-02 -1.064561e-02 -1.478388e-01 -4.529997e-02 -1.288593e-02 2.215075e-02 -7.499403e-02
<VARIANCE> 39
 2.043372e+01 4.962408e+01 5.001612e+01 4.657629e+01 6.285592e+01 7.132225e+01 6.416032e+01 7.534678e+01 6.088197e+01 4.119062e+01 4.327235e+01 5.255260e+01 4.348754e+01 1.804067e+00 3.383694e+00 2.880396e+00 3.880316e+00 4.146163e+00 5.019755e+00 4.625178e+00 5.980776e+00 4.880109e+00 3.677071e+00 3.792864e+00 3.664563e+00 3.821829e+00 3.654149e-01 5.889151e-01 4.801859e-01 6.597388e-01 7.745932e-01 8.304434e-01 8.370769e-01 1.022778e+00 8.237723e-01 6.800072e-01 7.213811e-01 6.677085e-01 5.951656e-01
<GCONST> 1.349000e+02
<STATE> 3
<MEAN> 39
 1.453591e+00 -3.318352e+00 1.943006e+00 -5.836796e-01 -6.503523e+00 -4.260619e+00 -9.011848e+00 -1.957223e-01 -2.060168e+00 7.030473e-01 -2.903820e-01 -7.667267e+00 6.334695e+01 2.418660e-01 -2.380501e-01 2.228762e-01 -4.690253e-02 -2.284215e-01 4.927360e-02 -7.582884e-02 -1.059541e-02 -1.168603e-01 2.705956e-02 -7.568684e-03 -1.838924e-01 3.070345e-01 -4.367500e-02 1.680664e-01 5.688563e-04 4.871255e-02 3.187348e-02 1.981336e-01 7.100458e-02 -3.988852e-02 -1.328282e-01 -5.187730e-02 -1.161585e-02 7.644783e-02 -1.696028e-01
<VARIANCE> 39
 1.849705e+01 4.975243e+01 4.976111e+01 4.958192e+01 6.158796e+01 7.321941e+01 6.489552e+01 8.300327e+01 6.646154e+01 4.374497e+01 4.503469e+01 5.254334e+01 3.802040e+01 1.645830e+00 3.378886e+00 2.785102e+00 3.915963e+00 3.911915e+00 4.686279e+00 4.501762e+00 5.672038e+00 4.582851e+00 3.570257e+00 3.897200e+00 3.605240e+00 3.608811e+00 3.233780e-01 5.641747e-01 4.786829e-01 6.909356e-01 7.588597e-01 7.825364e-01 8.035412e-01 1.056215e+00 8.117502e-01 6.793382e-01 7.228272e-01 6.690806e-01 5.545650e-01
<GCONST> 1.342712e+02
<STATE> 4
<MEAN> 39
 1.758072e+00 -3.332635e+00 2.270554e+00 -4.702410e-01 -6.740478e+00 -4.048474e+00 -8.757904e+00 -7.563245e-02 -2.630581e+00 6.079999e-01 -4.435027e-01 -7.631527e+00 6.339472e+01 1.410205e-01 7.745562e-02 1.331951e-01 9.411980e-02 -1.163243e-01 3.770029e-01 6.429569e-02 -1.574076e-01 -2.584279e-01 -3.924667e-02 -4.353643e-02 -2.669652e-02 -4.261242e-02 -8.466676e-02 1.007259e-01 -3.613929e-02 2.620348e-04 5.095293e-02 9.939560e-02 4.525555e-02 -1.899544e-02 -4.326539e-02 -4.377310e-02 4.212047e-03 4.892416e-02 -1.036076e-01
<VARIANCE> 39
 1.667879e+01 4.896622e+01 4.975468e+01 5.226765e+01 5.698859e+01 7.715979e+01 6.452023e+01 8.348056e+01 6.848802e+01 4.463982e+01 4.607465e+01 5.039334e+01 3.801164e+01 1.494429e+00 3.001744e+00 2.544307e+00 3.560965e+00 3.609600e+00 3.871310e+00 3.947517e+00 5.044637e+00 3.986616e+00 3.196358e+00 3.613940e+00 3.122855e+00 2.755388e+00 2.592376e-01 4.941444e-01 4.407728e-01 6.605328e-01 6.540111e-01 7.001675e-01 7.225999e-01 9.450905e-01 7.551796e-01 6.331292e-01 6.803454e-01 6.014565e-01 4.920251e-01
<GCONST> 1.311632e+02
<TRANSP> 5
 0.000000e+00 1.000000e+00 0.000000e+00 0.000000e+00 0.000000e+00
 0.000000e+00 3.100529e-01 6.899472e-01 0.000000e+00 0.000000e+00
 0.000000e+00 0.000000e+00 3.099993e-01 6.900008e-01 0.000000e+00
 0.000000e+00 0.000000e+00 0.000000e+00 3.515779e-01 6.484221e-01
 0.000000e+00 0.000000e+00 0.000000e+00 0.000000e+00 0.000000e+00
<ENDHMM>
~h "a"
<BEGINHMM>
<NUMSTATES> 5
<STATE> 2
<MEAN> 39
 1.891901e+00 -7.738874e+00 -4.309412e-01 -5.147722e+00 -4.856338e+00 -1.495299e+00 -8.329238e+00 3.997188e+00 -1.725043e+00 4.039526e-01 -2.101939e+00 -1.017380e+01 6.653842e+01 1.292454e-01 -2.201089e-01 -1.541215e-01 4.616095e-02 1.802126e-01 1.607035e-01 2.037013e-01 1.893952e-01 -2.035179e-02 -3.852012e-02 -3.513448e-01 -1.887654e-01 7.787880e-02 -4.466096e-02 3.608434e-01 1.284210e-01 2.770277e-01 -4.697100e-02 -5.419380e-03 3.020702e-02 -2.546160e-01 -1.795132e-01 -1.059458e-02 8.476437e-02 2.206576e-01 -3.157256e-01
<VARIANCE> 39
 1.208486e+01 4.462717e+01 4.396862e+01 5.221726e+01 5.340673e+01 7.159195e+01 5.659742e+01 6.533834e+01 6.583424e+01 5.952379e+01 4.573453e+01 5.612965e+01 4.211695e+01 8.857077e-01 3.199033e+00 2.205238e+00 3.360435e+00 2.978724e+00 3.479891e+00 3.181457e+00 4.609247e+00 3.364514e+00 3.104225e+00 2.971687e+00 3.293897e+00 2.727220e+00 1.698086e-01 4.827503e-01 3.513685e-01 5.422476e-01 5.219784e-01 5.669610e-01 5.657086e-01 8.099833e-01 6.190792e-01 5.913264e-01 5.434828e-01 5.722496e-01 3.722828e-01
<GCONST> 1.264159e+02
<STATE> 3
<MEAN> 39
 2.096577e+00 -7.308889e+00 -4.889650e-01 -4.477943e+00 -4.691896e+00 -1.269285e+00 -7.978076e+00 3.802300e+00 -2.106060e+00 3.757938e-01 -2.480081e+00 -9.976435e+00 6.596077e+01 6.912643e-02 4.492087e-01 5.573970e-02 5.255753e-01 1.898168e-02 1.131211e-01 2.234614e-01 -2.439154e-01 -2.676200e-01 1.484748e-02 -1.458939e-01 2.225482e-01 -5.012037e-01 -4.741506e-02 2.829986e-01 1.070728e-01 1.833337e-01 -7.530628e-02 -1.395576e-02 6.197106e-03 -2.170691e-01 -9.989455e-02 1.186247e-02 9.805809e-02 1.566177e-01 -2.314427e-01
<VARIANCE> 39
 1.132132e+01 4.487761e+01 4.304760e+01 5.153987e+01 5.113514e+01 6.791649e+01 5.474920e+01 6.392108e+01 6.507725e+01 5.746044e+01 4.453850e+01 5.441985e+01 4.169626e+01 7.598221e-01 2.576318e+00 2.029727e+00 2.912413e+00 2.688517e+00 3.197395e+00 2.929675e+00 4.186873e+00 3.049524e+00 2.902876e+00 2.714891e+00 2.778007e+00 2.256178e+00 1.453039e-01 4.468843e-01 3.325760e-01 5.034125e-01 4.761567e-01 5.398191e-01 5.415033e-01 7.822538e-01 5.764371e-01 5.583894e-01 5.133154e-01 5.203449e-01 3.409364e-01
<GCONST> 1.235285e+02
<STATE> 4
<MEAN> 39
 1.979545e+00 -4.964016e+00 -1.079971e+00 -2.400769e+00 -4.262605e+00 -4.781738e-01 -6.677104e+00 2.971800e+00 -3.209574e+00 5.255851e-01 -2.606889e+00 -8.533839e+00 6.305566e+01 -1.556097e-02 6.922756e-01 1.505175e-01 6.224948e-01 -1.231414e-01 1.027269e-01 1.872699e-01 -4.551261e-01 -2.380814e-01 1.769472e-02 -3.800715e-03 3.275299e-01 -6.901232e-01 -4.942577e-02 7.251268e-02 5.647445e-02 -4.147827e-03 -3.987801e-02 -2.500368e-02 -2.692419e-02 -1.036395e-01 -5.306729e-03 1.190754e-03 5.428525e-02 2.779645e-02 -2.050482e-02
<VARIANCE> 39
 1.250816e+01 4.941199e+01 4.325076e+01 5.704622e+01 4.788326e+01 6.054379e+01 4.969368e+01 5.792859e+01 6.174220e+01 4.986945e+01 3.993739e+01 4.968825e+01 5.831947e+01 7.370050e-01 1.902054e+00 1.883682e+00 2.414151e+00 2.482930e+00 2.734060e+00 2.634901e+00 3.604214e+00 2.845679e+00 2.633139e+00 2.416792e+00 2.254776e+00 1.620767e+00 1.393886e-01 3.512858e-01 2.996010e-01 4.422714e-01 4.237048e-01 4.907328e-01 4.861291e-01 6.794366e-01 5.132795e-01 4.897777e-01 4.564276e-01 4.252820e-01 2.862647e-01
<GCONST> 1.197671e+02
<TRANSP> 5
 0.000000e+00 1.000000e+00 0.000000e+00 0.000000e+00 0.000000e+00
 0.000000e+00 4.022537e-01 5.977463e-01 0.000000e+00 0.000000e+00
 0.000000e+00 0.000000e+00 3.924664e-01 6.075336e-01 0.000000e+00
 0.000000e+00 0.000000e+00 0.000000e+00 5.106941e-01 4.893059e-01
 0.000000e+00 0.000000e+00 0.000000e+00 0.000000e+00 0.000000e+00
<ENDHMM>
~h "b"
<BEGINHMM>
<NUMSTATES> 5
<STATE> 2
<MEAN> 39
 4.684052e+00 3.861212e+00 2.052242e+00 1.597462e+00 -5.265219e+00 1.397367e+00 -9.274588e+00 -4.081576e+00 -7.305440e+00 1.655140e-01 -2.331195e-01 -5.923562e+00 5.849561e+01 2.632270e-01 -5.422060e-01 -1.965202e-01 -9.273931e-01 -4.314366e-02 -2.878690e-01 -9.523220e-01 -2.522731e-01 3.721269e-01 5.041618e-01 6.705192e-01 -1.736047e-01 7.973575e-01 -1.371978e-01 -5.048628e-01 6.175696e-02 -4.422078e-01 -1.654607e-01 -1.684101e-01 -2.923493e-01 2.476243e-01 3.006626e-01 2.137893e-01 1.253184e-01 -1.942683e-01 4.046923e-01
<VARIANCE> 39
 1.106469e+01 4.201938e+01 2.921510e+01 5.942193e+01 4.377841e+01 4.508715e+01 5.740172e+01 3.988404e+01 4.404038e+01 4.279328e+01 4.346381e+01 3.624764e+01 2.987447e+01 9.217086e-01 4.692662e+00 2.297422e+00 7.304702e+00 3.541639e+00 4.070274e+00 5.779630e+00 4.284567e+00 5.244164e+00 5.107821e+00 4.934906e+00 3.897588e+00 3.530962e+00 1.535808e-01 6.849951e-01 3.967701e-01 1.170165e+00 6.192934e-01 6.925308e-01 1.081234e+00 8.208923e-01 8.935001e-01 9.850872e-01 1.025919e+00 7.356657e-01 5.147423e-01
<GCONST> 1.315135e+02
<STATE> 3
<MEAN> 39
 4.809082e+00 7.252458e-01 1.699371e+00 -2.168528e+00 -5.785903e+00 3.257003e-01 -1.260110e+01 -3.745258e+00 -5.171480e+00 2.490142e+00 1.639999e+00 -7.182875e+00 6.167548e+01 -1.448100e-01 -1.422549e+00 3.850975e-02 -1.274959e+00 -3.527027e-01 -5.870990e-01 -1.055607e+00 6.938179e-01 1.036585e+00 6.963776e-01 4.018083e-01 -7.417226e-01 1.319779e+00 -1.639943e-01 -6.208166e-02 1.357455e-01 1.418726e-01 -5.411689e-02 -6.848612e-02 2.184782e-01 3.063951e-01 2.957887e-02 -1.628304e-01 -2.507882e-01 -4.644547e-02 -1.280168e-02
<VARIANCE> 39
 9.596846e+00 5.247730e+01 3.027068e+01 8.300806e+01 5.052182e+01 5.536097e+01 6.802362e+01 4.556434e+01 6.145589e+01 6.148711e+01 6.044614e+01 4.994644e+01 3.447975e+01 9.539673e-01 5.360757e+00 2.714669e+00 8.558655e+00 3.680562e+00 4.898476e+00 6.526883e+00 5.748349e+00 6.567163e+00 6.676750e+00 6.178034e+00 5.230659e+00 3.692363e+00 1.482071e-01 8.718078e-01 4.374440e-01 1.443488e+00 7.011978e-01 7.688319e-01 1.238966e+00 9.747664e-01 1.121484e+00 1.272154e+00 1.238112e+00 9.421228e-01 6.283506e-01
<GCONST> 1.384600e+02
<STATE> 4
<MEAN> 39
 4.047805e+00 -1.193667e+00 1.961921e+00 -3.788527e+00 -5.640219e+00 -1.227718e+00 -1.310136e+01 -1.197233e+00 -4.083948e+00 3.466201e+00 5.750350e-01 -8.036267e+00 6.334064e+01 -3.424497e-01 -7.408515e-01 2.934023e-01 -2.775000e-01 -2.695950e-01 -5.063094e-01 -1.417983e-01 8.148216e-01 4.687769e-01 -1.356415e-01 -2.154663e-01 -2.932453e-01 6.223879e-01 -7.275527e-02 2.294935e-01 1.015992e-01 2.909023e-01 1.386610e-02 3.628781e-02 2.680643e-01 -8.880492e-02 -2.057778e-01 -2.325334e-01 -9.788281e-02 1.956341e-01 -2.244429e-01
<VARIANCE> 39
 9.716481e+00 5.894794e+01 3.774255e+01 9.058189e+01 5.407095e+01 6.296902e+01 6.187806e+01 5.155240e+01 7.357832e+01 6.972278e+01 5.979559e+01 5.628912e+01 3.810423e+01 8.878999e-01 3.828353e+00 3.061571e+00 6.426596e+00 3.316242e+00 4.338291e+00 5.315144e+00 5.502004e+00 5.401859e+00 5.550848e+00 5.216055e+00 4.017819e+00 2.927998e+00 1.415314e-01 6.775995e-01 4.590093e-01 1.156499e+00 6.440334e-01 7.696720e-01 9.761518e-01 9.066371e-01 1.024575e+00 1.073421e+00 9.753208e-01 7.890967e-01 4.964441e-01
<GCONST> 1.357638e+02
<TRANSP> 5
 0.000000e+00 1.000000e+00 0.000000e+00 0.000000e+00 0.000000e+00
 0.000000e+00 5.333475e-01 4.666526e-01 0.000000e+00 0.000000e+00
 0.000000e+00 0.000000e+00 5.420658e-01 4.579342e-01 0.000000e+00
 0.000000e+00 0.000000e+00 0.000000e+00 4.925270e-01 5.074730e-01
 0.000000e+00 0.000000e+00 0.000000e+00 0.000000e+00 0.000000e+00
<ENDHMM>
~h "c"
<BEGINHMM>
<NUMSTATES> 5
<STATE> 2
<MEAN> 39
 -4.459829e+00 3.136066e+00 1.287307e+00 -8.583837e-01 -2.970031e+00 -4.009981e+00 -5.587912e+00 -2.413287e-01 -2.299653e+00 -1.733475e+00 -8.805581e-01 -3.038580e+00 5.856707e+01 -1.537162e+00 -4.905201e-02 4.984160e-01 -9.318021e-01 5.602043e-01 -9.269483e-01 1.748475e-01 -1.243137e-01 2.404040e-01 -2.354305e-01 3.856385e-01 2.088436e-01 1.167882e+00 1.210712e-01 -2.797038e-01 2.549457e-01 -1.115530e-01 -2.075370e-01 -2.323036e-01 -2.300811e-01 3.897444e-02 6.362176e-02 -1.951681e-02 8.116479e-02 -5.503923e-02 4.318235e-01
<VARIANCE> 39
 5.302153e+01 3.104784e+01 3.456167e+01 3.875640e+01 4.373994e+01 5.950762e+01 4.370422e+01 4.732944e+01 3.647363e+01 3.260147e+01 3.069198e+01 2.487358e+01 3.769555e+01 7.182446e+00 3.562235e+00 3.186805e+00 4.108072e+00 4.936593e+00 4.352699e+00 4.287714e+00 3.616157e+00 3.499018e+00 3.307064e+00 2.744226e+00 2.379595e+00 3.519227e+00 1.899318e+00 6.328114e-01 6.086375e-01 8.633303e-01 1.020210e+00 9.455495e-01 8.137502e-01 7.045430e-01 7.332299e-01 7.115909e-01 5.688146e-01 5.267802e-01 6.813031e-01
<GCONST> 1.330452e+02
<STATE> 3
<MEAN> 39
 -6.965782e+00 1.401060e+00 3.724016e+00 -3.280349e+00 -3.033104e+00 -7.026889e+00 -6.518457e+00 -6.778885e-02 -1.346608e+00 -2.534134e+00 2.663192e-01 -2.772755e+00 6.322459e+01 5.561503e-01 -1.057099e+00 5.878753e-01 -4.221919e-01 -6.824683e-01 -6.866966e-01 -8.508438e-01 1.406655e-01 2.990391e-01 -6.023356e-02 3.624493e-01 -1.640850e-01 1.390856e+00 7.233779e-01 -2.156991e-01 -1.508026e-01 1.808035e-01 -2.948161e-01 3.540503e-01 -1.867279e-01 2.802447e-02 -1.073082e-01 1.175214e-01 -1.882391e-02 -1.750808e-01 -1.823936e-01
<VARIANCE> 39
 6.021345e+01 4.568473e+01 3.990571e+01 3.474955e+01 4.711474e+01 5.450290e+01 5.380020e+01 4.874082e+01 3.978373e+01 3.611583e+01 2.795114e+01 2.333659e+01 3.193161e+01 1.148700e+01 5.200424e+00 3.803951e+00 4.450775e+00 5.782752e+00 4.840027e+00 5.377457e+00 4.820609e+00 4.436651e+00 3.822819e+00 3.200535e+00 3.160638e+00 3.414244e+00 1.924001e+00 9.748322e-01 6.677436e-01 8.283816e-01 1.128462e+00 9.280397e-01 1.098535e+00 7.686875e-01 8.363966e-01 7.760447e-01 6.526296e-01 6.394579e-01 6.766595e-01
<GCONST> 1.378646e+02
<STATE> 4
<MEAN> 39
 -1.695716e+00 -2.776789e+00 4.250967e+00 -3.403886e+00 -6.133193e+00 -6.945968e+00 -1.010113e+01 6.598131e-01 -1.002147e+00 -1.884091e+00 1.256244e+00 -4.323039e+00 6.593684e+01 1.668958e+00 -9.419969e-01 -2.166461e-01 -4.330314e-02 -7.136936e-01 8.006032e-01 -6.501074e-01 -5.151915e-02 -3.102041e-01 3.271213e-01 2.569754e-01 -5.995907e-01 2.705606e-01 -1.794910e-01 3.133229e-01 -1.618974e-01 1.017957e-01 1.744834e-01 3.816746e-01 3.700082e-01 -1.018034e-01 -2.159700e-01 -1.757833e-02 -8.765896e-02 -3.250128e-02 -4.083142e-01
<VARIANCE> 39
 4.023189e+01 5.172417e+01 4.986678e+01 3.358995e+01 4.037331e+01 5.232493e+01 5.978306e+01 7.039555e+01 5.128150e+01 4.509172e+01 3.274903e+01 2.914840e+01 3.078787e+01 5.178287e+00 5.305468e+00 3.166787e+00 3.706161e+00 4.535518e+00 4.563301e+00 5.238851e+00 4.586958e+00 4.517220e+00 3.729647e+00 3.455738e+00 3.785168e+00 3.675226e+00 1.329388e+00 9.843236e-01 5.510530e-01 7.086599e-01 8.606240e-01 8.068271e-01 1.102603e+00 8.640839e-01 7.798902e-01 7.742330e-01 7.065969e-01 6.998117e-01 5.958299e-01
<GCONST> 1.366474e+02
<TRANSP> 5
 0.000000e+00 1.000000e+00 0.000000e+00 0.000000e+00 0.000000e+00
 0.000000e+00 6.992248e-01 3.007752e-01 0.000000e+00 0.000000e+00
 0.000000e+00 0.000000e+00 6.701806e-01 3.298194e-01 0.000000e+00
 0.000000e+00 0.000000e+00 0.000000e+00 6.757759e-01 3.242241e-01
 0.000000e+00 0.000000e+00 0.000000e+00 0.000000e+00 0.000000e+00
<ENDHMM>
~h "d"
<BEGINHMM>
<NUMSTATES> 5
<STATE> 2
<MEAN> 39
 2.538760e+00 -1.706849e-01 7.168839e+00 3.597931e+00 -9.528172e+00 -4.722167e+00 -1.118218e+01 2.382474e+00 -4.232590e+00 -2.800862e+00 -8.890052e-01 -6.155782e+00 6.074027e+01 2.159932e-02 -3.244503e-01 5.033945e-01 -1.964048e-04 -3.026549e-01 -4.821437e-01 -5.697904e-01 4.502365e-01 7.236336e-02 -2.900127e-01 4.311798e-01 7.873885e-02 3.728721e-01 -1.223604e-01 -2.793056e-01 7.108647e-02 -3.729329e-01 -1.174443e-01 -8.137892e-02 -1.243284e-01 4.308252e-02 5.743532e-03 1.024406e-01 2.281487e-01 -6.398044e-02 3.062461e-01
<VARIANCE> 39
 1.162490e+01 5.928267e+01 5.595584e+01 4.767044e+01 5.342189e+01 4.970792e+01 7.164083e+01 8.794219e+01 4.921062e+01 4.084499e+01 6.688515e+01 4.444609e+01 4.375488e+01 1.106444e+00 4.730578e+00 3.716869e+00 4.810351e+00 4.447770e+00 4.475440e+00 5.764220e+00 6.383050e+00 4.026029e+00 3.300299e+00 5.313645e+00 2.937005e+00 4.372177e+00 1.850614e-01 8.544891e-01 7.017817e-01 8.303777e-01 8.580487e-01 8.738814e-01 1.155781e+00 1.221908e+00 6.984590e-01 6.091448e-01 1.020153e+00 5.902890e-01 7.391983e-01
<GCONST> 1.360699e+02
<STATE> 3
<MEAN> 39
 2.197115e+00 -1.667204e+00 8.439149e+00 2.458925e+00 -1.062882e+01 -5.983135e+00 -1.264151e+01 3.359306e+00 -4.090745e+00 -3.046538e+00 8.109748e-01 -6.133371e+00 6.243387e+01 -2.218672e-01 -7.501587e-01 5.373420e-01 -7.972698e-01 -5.316823e-01 -4.959256e-01 -6.785442e-01 3.598780e-01 3.154565e-02 8.331977e-02 7.963505e-01 -1.872451e-01 9.023868e-01 -7.016687e-02 -2.367461e-02 -5.806784e-02 -2.164859e-01 1.031275e-02 7.387346e-02 6.373954e-02 -8.658306e-02 -6.090444e-02 1.421465e-01 2.776826e-02 -9.074327e-02 8.063424e-02
<VARIANCE> 39
 1.159828e+01 5.234464e+01 5.845860e+01 5.109756e+01 5.333331e+01 5.213391e+01 8.049674e+01 1.002561e+02 5.473166e+01 4.679261e+01 6.856099e+01 4.636489e+01 3.980124e+01 1.104325e+00 4.649917e+00 4.603256e+00 5.427114e+00 4.563737e+00 4.883490e+00 6.328600e+00 7.466642e+00 4.479496e+00 3.912183e+00 6.237127e+00 3.474927e+00 4.505431e+00 1.922563e-01 8.346958e-01 7.867970e-01 9.298652e-01 9.175769e-01 9.485176e-01 1.257314e+00 1.294312e+00 7.857265e-01 6.782538e-01 1.143281e+00 6.732299e-01 7.916310e-01
<GCONST> 1.389505e+02
<STATE> 4
<MEAN> 39
 1.447289e+00 -2.896366e+00 9.507508e+00 3.567933e-01 -1.204756e+01 -6.664289e+00 -1.356468e+01 3.374113e+00 -4.295567e+00 -2.670850e+00 2.762163e+00 -6.838732e+00 6.420826e+01 -2.499100e-01 -3.550531e-01 1.682216e-01 -8.101491e-01 -1.998575e-01 -6.112562e-02 -1.684269e-01 -8.574678e-02 -1.550049e-01 3.012501e-01 4.267128e-01 -3.142163e-01 5.965138e-01 9.299927e-03 1.900574e-01 -1.522294e-01 8.473252e-02 1.598126e-01 1.662189e-01 2.284952e-01 -1.459117e-01 -8.394297e-02 3.896079e-02 -1.897909e-01 2.820342e-02 -1.836054e-01
<VARIANCE> 39
 1.197420e+01 4.589722e+01 6.567234e+01 5.220024e+01 5.295258e+01 5.759253e+01 7.494780e+01 1.106451e+02 6.245542e+01 5.645636e+01 7.326362e+01 5.031956e+01 3.571689e+01 1.049942e+00 3.352399e+00 4.841374e+00 4.752951e+00 4.438155e+00 4.768414e+00 5.845982e+00 6.700347e+00 4.396612e+00 3.797219e+00 6.233276e+00 3.568234e+00 3.808032e+00 1.792646e-01 6.046243e-01 7.745134e-01 8.082737e-01 8.395895e-01 8.485362e-01 1.124629e+00 1.253070e+00 7.725580e-01 6.836491e-01 1.097600e+00 6.952486e-01 6.540261e-01
<GCONST> 1.374770e+02
<TRANSP> 5
 0.000000e+00 1.000000e+00 0.000000e+00 0.000000e+00 0.000000e+00
 0.000000e+00 5.643624e-01 4.356376e-01 0.000000e+00 0.000000e+00
 0.000000e+00 0.000000e+00 5.546183e-01 4.453817e-01 0.000000e+00
 0.000000e+00 0.000000e+00 0.000000e+00 6.128502e-01 3.871498e-01
 0.000000e+00 0.000000e+00 0.000000e+00 0.000000e+00 0.000000e+00
<ENDHMM>
~h "e"
<BEGINHMM>
<NUMSTATES> 5
<STATE> 2
<MEAN> 39
 -5.420881e-01 -4.236056e+00 5.665496e+00 -1.106018e+00 -8.741239e+00 -7.605009e+00 -4.785621e+00 4.373676e+00 -6.072901e+00 -1.331303e-01 9.424861e-01 -5.029706e+00 6.338174e+01 6.834201e-02 -2.237420e-01 5.035555e-01 -9.320874e-02 -4.441578e-01 -4.903785e-01 2.002218e-01 2.779916e-01 -1.148705e-01 -7.847410e-03 1.554812e-02 1.450430e-01 3.425903e-01 1.280946e-03 1.479432e-01 -1.709304e-01 8.312967e-02 1.073451e-01 1.812229e-01 2.060021e-02 -1.720977e-01 1.273139e-01 -2.259847e-02 -1.005813e-01 -1.458266e-02 -1.169585e-01
<VARIANCE> 39
 1.401954e+01 4.521816e+01 6.721811e+01 4.422369e+01 4.959427e+01 9.377880e+01 6.385498e+01 7.594133e+01 6.268524e+01 6.142676e+01 4.511018e+01 3.342637e+01 5.202302e+01 9.763064e-01 2.625027e+00 3.224165e+00 2.544478e+00 3.011281e+00 3.913250e+00 3.462378e+00 3.816321e+00 3.190527e+00 2.834416e+00 2.919262e+00 2.277395e+00 3.028602e+00 2.025127e-01 4.552892e-01 5.347427e-01 4.347239e-01 5.899379e-01 5.945809e-01 6.278448e-01 7.163048e-01 5.751941e-01 5.533141e-01 5.023848e-01 4.004181e-01 3.900180e-01
<GCONST> 1.265024e+02
<STATE> 3
<MEAN> 39
 -2.319306e-01 -4.520616e+00 6.544979e+00 -1.271386e+00 -9.569300e+00 -8.207601e+00 -4.772322e+00 4.563138e+00 -5.977022e+00 -1.891348e-01 7.541136e-01 -5.049247e+00 6.418375e+01 8.820967e-02 2.155249e-01 3.505899e-02 2.109105e-01 -6.358878e-02 7.305102e-02 1.679156e-01 -1.343215e-01 1.009903e-01 -7.001337e-02 -2.028233e-01 1.149037e-01 -1.314783e-01 -2.626392e-02 1.469805e-01 -1.492258e-01 1.006669e-01 1.632075e-01 1.763952e-01 -2.021615e-04 -1.704779e-01 7.106630e-02 -1.322833e-03 -5.464766e-02 -3.412360e-02 -1.352486e-01
<VARIANCE> 39
 1.204074e+01 4.189539e+01 6.301930e+01 4.529330e+01 4.675355e+01 9.266340e+01 5.528809e+01 8.007182e+01 5.953599e+01 5.975963e+01 5.038171e+01 3.099518e+01 4.564892e+01 8.320771e-01 2.282964e+00 2.272480e+00 2.190862e+00 2.798203e+00 2.857796e+00 2.896153e+00 3.777448e+00 2.666722e+00 2.518590e+00 2.479715e+00 1.958341e+00 2.304456e+00 1.622751e-01 3.649816e-01 4.007332e-01 4.028900e-01 4.830963e-01 4.932178e-01 5.121814e-01 6.422237e-01 4.976537e-01 5.000637e-01 4.527684e-01 3.631440e-01 2.831765e-01
<GCONST> 1.213618e+02
<STATE> 4
<MEAN> 39
 -1.307671e+00 -9.055463e-01 5.956345e+00 3.391613e-01 -8.144912e+00 -5.277420e+00 -3.447813e+00 3.096590e+00 -6.356048e+00 1.056243e+00 8.949636e-01 -3.055903e+00 5.921100e+01 2.883620e-02 2.559004e-01 -2.234029e-01 2.612293e-01 1.894452e-01 2.948980e-01 7.233092e-02 -1.916554e-01 1.145815e-01 -2.782307e-02 -1.339223e-01 5.657587e-02 -3.013468e-01 -1.390416e-02 3.423704e-03 -2.465435e-02 -1.240193e-02 3.041733e-02 1.934531e-02 -2.547180e-02 -3.084539e-02 8.368485e-03 -1.570313e-03 1.109036e-02 -2.452482e-02 9.084111e-03
<VARIANCE> 39
 1.062604e+01 4.164606e+01 7.935394e+01 4.592942e+01 4.882931e+01 7.759691e+01 3.501277e+01 5.195022e+01 4.490570e+01 4.842144e+01 5.454142e+01 2.578265e+01 6.861617e+01 5.023378e-01 1.191443e+00 1.438834e+00 1.436360e+00 1.851352e+00 1.803240e+00 1.997166e+00 2.343333e+00 2.005633e+00 1.953389e+00 1.772623e+00 1.505934e+00 8.660631e-01 9.372272e-02 2.034091e-01 2.357996e-01 2.632853e-01 3.076958e-01 3.198426e-01 3.674595e-01 4.214768e-01 3.773201e-01 3.738158e-01 3.206491e-01 2.844167e-01 1.364784e-01
<GCONST> 1.087754e+02
<TRANSP> 5
 0.000000e+00 1.000000e+00 0.000000e+00 0.000000e+00 0.000000e+00
 0.000000e+00 4.810373e-01 5.189626e-01 0.000000e+00 0.000000e+00
 0.000000e+00 0.000000e+00 4.690871e-01 5.309129e-01 0.000000e+00
 0.000000e+00 0.000000e+00 0.000000e+00 8.462670e-01 1.537330e-01
 0.000000e+00 0.000000e+00 0.000000e+00 0.000000e+00 0.000000e+00
<ENDHMM>
~h "f"
<BEGINHMM>
<NUMSTATES> 5
<STATE> 2
<MEAN> 39
 -4.088832e+00 -1.223198e+00 5.136739e+00 6.098912e-01 -7.696094e+00 -4.107825e+00 -7.245303e+00 -1.631643e+00 -1.393515e+00 -2.765440e+00 9.504488e-01 -5.938019e+00 6.208513e+01 -3.198944e-01 -1.973401e-01 4.932513e-01 1.348965e-01 -2.900732e-01 -3.132899e-01 -1.976663e-01 6.173050e-02 2.328386e-01 -4.065159e-01 2.304350e-01 -1.918767e-02 3.413939e-01 2.159567e-01 -1.226662e-01 1.256298e-01 -8.511894e-03 -1.710158e-01 -3.038269e-02 -1.292722e-01 3.468722e-02 -1.429848e-01 1.284154e-02 7.529260e-02 -5.889912e-02 1.008747e-01
<VARIANCE> 39
 3.705691e+01 2.826914e+01 8.928175e+01 3.254351e+01 7.225990e+01 5.706808e+01 6.365922e+01 4.659866e+01 4.960858e+01 4.401887e+01 4.863550e+01 3.384336e+01 2.290162e+01 3.729740e+00 2.026888e+00 3.915395e+00 2.152054e+00 4.552589e+00 2.786971e+00 5.003626e+00 3.079632e+00 3.346282e+00 2.552294e+00 3.093945e+00 2.240016e+00 1.491006e+00 5.286018e-01 2.782766e-01 5.733390e-01 3.703280e-01 8.621275e-01 4.498678e-01 8.551260e-01 5.202749e-01 5.966007e-01 4.861620e-01 5.444030e-01 3.659237e-01 2.080024e-01
<GCONST> 1.254169e+02
<STATE> 3
<MEAN> 39
 -3.632348e+00 -1.728203e+00 7.112584e+00 7.460926e-01 -9.289236e+00 -4.333001e+00 -7.982209e+00 -1.208578e+00 -2.611786e+00 -3.756414e+00 2.174718e+00 -6.396867e+00 6.285648e+01 -3.625422e-03 -2.103206e-01 5.238452e-01 5.162195e-02 -4.072253e-01 -3.334899e-01 -2.578627e-01 5.506022e-02 -1.607978e-01 -2.436048e-01 2.751413e-01 -9.297639e-02 3.093187e-01 1.910891e-01 -7.058541e-02 5.986045e-02 -5.876166e-02 -6.949787e-02 -9.897316e-03 -1.115922e-01 -1.050646e-02 -1.193250e-01 9.499272e-02 7.077756e-02 -4.976087e-02 3.658385e-02
<VARIANCE> 39
 3.706182e+01 2.748361e+01 1.101208e+02 3.450947e+01 7.340132e+01 5.901138e+01 7.378517e+01 4.692986e+01 6.474555e+01 4.346419e+01 5.633741e+01 3.673258e+01 2.052996e+01 2.979806e+00 1.794633e+00 3.976475e+00 2.278136e+00 4.643132e+00 2.833484e+00 4.507670e+00 3.016648e+00 3.780100e+00 2.696086e+00 3.444420e+00 2.176898e+00 1.313306e+00 5.186203e-01 2.609668e-01 6.112930e-01 3.400982e-01 8.108566e-01 4.634318e-01 7.233117e-01 5.718310e-01 6.934401e-01 4.690881e-01 6.085016e-01 3.544655e-01 1.705089e-01
<GCONST> 1.257869e+02
<STATE> 4
<MEAN> 39
 -2.877821e+00 -1.132478e+00 1.078408e+01 -4.390601e-01 -1.255827e+01 -3.281579e+00 -8.645400e+00 -9.984645e-01 -6.613209e+00 -5.273273e+00 4.817544e+00 -7.682332e+00 6.349409e+01 1.647699e-01 -1.576670e-01 2.142131e-01 -3.370754e-02 -1.635698e-01 -2.273235e-01 -2.191431e-01 -2.344640e-02 -7.341937e-02 5.072387e-03 1.382683e-01 -3.210330e-02 1.740068e-01 1.330343e-01 -3.407102e-02 2.255506e-02 -5.308580e-02 -3.738129e-02 5.808691e-03 -1.039631e-01 -2.101208e-02 -4.118365e-02 7.358976e-02 4.866733e-02 -2.600110e-02 1.175383e-02
<VARIANCE> 39
 3.049214e+01 2.291961e+01 1.151172e+02 4.040546e+01 9.778265e+01 5.668785e+01 7.225166e+01 4.498018e+01 1.072398e+02 4.324258e+01 7.249017e+01 3.326538e+01 1.947696e+01 2.027818e+00 1.413531e+00 3.282397e+00 2.302586e+00 4.190512e+00 2.685032e+00 3.614640e+00 2.801168e+00 3.526663e+00 2.813984e+00 3.311230e+00 1.994142e+00 1.142417e+00 3.607812e-01 2.168826e-01 5.034758e-01 3.057239e-01 7.405493e-01 4.074394e-01 5.691503e-01 5.282695e-01 6.870281e-01 4.535595e-01 5.987179e-01 3.396600e-01 1.499600e-01
<GCONST> 1.232289e+02
<TRANSP> 5
 0.000000e+00 1.000000e+00 0.000000e+00 0.000000e+00 0.000000e+00
 0.000000e+00 5.798017e-01 4.201983e-01 0.000000e+00 0.000000e+00
 0.000000e+00 0.000000e+00 5.444527e-01 4.555473e-01 0.000000e+00
 0.000000e+00 0.000000e+00 0.000000e+00 7.331265e-01 2.668735e-01
 0.000000e+00 0.000000e+00 0.000000e+00 0.000000e+00 0.000000e+00
<ENDHMM>
~h "g"
<BEGINHMM>
<NUMSTATES> 5
<STATE> 2
<MEAN> 39
 1.929021e+00 1.151888e+00 6.803869e+00 -2.070802e-01 -8.806728e+00 -2.750659e+00 -1.204582e+01 -1.360743e+00 -6.984720e+00 1.365142e-01 3.253874e+00 -9.321004e+00 6.171400e+01 -2.119554e-01 -5.009345e-01 4.086085e-01 -5.150099e-01 -2.598394e-01 -8.623402e-01 -9.308287e-01 2.766164e-01 2.820318e-01 6.850296e-02 9.122237e-01 -4.883451e-01 8.084752e-01 -1.020810e-02 -1.838665e-01 -5.573082e-02 -1.755000e-01 -1.181824e-01 4.718614e-02 1.510488e-02 1.354635e-01 2.000944e-01 2.863039e-02 -2.115832e-02 -6.040814e-02 1.656267e-01
<VARIANCE> 39
 1.327711e+01 4.085048e+01 5.392253e+01 4.739414e+01 6.804511e+01 6.677667e+01 6.937940e+01 6.144852e+01 5.446066e+01 4.840538e+01 7.874168e+01 4.786100e+01 3.318971e+01 1.129479e+00 3.474305e+00 4.433139e+00 4.316923e+00 6.448220e+00 5.136986e+00 5.240398e+00 4.429431e+00 5.691321e+00 3.620290e+00 6.805031e+00 3.346117e+00 3.736355e+00 1.975680e-01 4.580014e-01 7.916216e-01 7.122856e-01 1.201159e+00 9.401637e-01 1.048977e+00 7.635894e-01 9.055851e-01 6.230003e-01 1.463018e+00 6.240091e-01 5.422249e-01
<GCONST> 1.362938e+02
<STATE> 3
<MEAN> 39
 1.616485e+00 -5.404717e-01 7.002190e+00 -1.766586e+00 -9.577364e+00 -4.291601e+00 -1.371557e+01 -3.015361e-01 -5.577682e+00 8.414855e-01 4.737070e+00 -1.053269e+01 6.384515e+01 -1.590303e-01 -6.385989e-01 7.707134e-02 -6.443495e-01 -3.464800e-01 -3.717649e-01 -3.503334e-01 5.668477e-01 6.000852e-01 1.535657e-01 2.755387e-01 -3.542281e-01 7.503357e-01 1.036580e-02 -2.056208e-02 -1.032412e-01 1.008372e-02 3.914404e-02 2.121418e-01 2.938999e-01 4.915594e-02 -6.515426e-04 -1.396099e-02 -2.943401e-01 1.330828e-01 -8.005952e-02
<VARIANCE> 39
 1.286449e+01 4.188557e+01 5.280661e+01 4.438737e+01 6.098176e+01 6.288550e+01 6.852491e+01 6.442685e+01 6.256087e+01 5.407299e+01 8.362479e+01 5.322799e+01 3.398504e+01 1.098669e+00 3.097563e+00 4.447758e+00 4.347120e+00 5.857916e+00 4.680353e+00 5.305928e+00 4.894163e+00 5.365941e+00 3.836114e+00 6.871566e+00 3.587564e+00 3.356621e+00 1.921134e-01 4.010271e-01 7.157009e-01 7.068610e-01 1.084983e+00 8.248927e-01 9.902629e-01 8.316500e-01 9.223465e-01 6.391168e-01 1.332901e+00 6.468725e-01 4.844081e-01
<GCONST> 1.356677e+02
<STATE> 4
<MEAN> 39
 1.453186e+00 -1.613154e+00 6.472237e+00 -2.968035e+00 -9.739792e+00 -4.080220e+00 -1.341872e+01 1.009600e+00 -4.235985e+00 1.271755e+00 3.865670e+00 -1.077747e+01 6.466187e+01 -1.631822e-01 -3.995187e-01 -4.382500e-02 -3.706293e-01 -6.329328e-03 8.230940e-02 4.005914e-01 4.160862e-01 2.450407e-01 -1.980988e-02 -4.715653e-01 9.623797e-02 2.918738e-01 -8.550160e-03 7.860887e-02 4.440605e-03 1.301820e-01 1.034023e-01 9.597433e-02 1.735181e-01 -1.165442e-01 -1.636419e-01 -7.985128e-02 -1.407282e-01 1.616808e-01 -1.500728e-01
<VARIANCE> 39
 1.310046e+01 4.859184e+01 5.295097e+01 4.704765e+01 5.451405e+01 5.744672e+01 6.375042e+01 6.899872e+01 6.506378e+01 5.576610e+01 7.672360e+01 5.841174e+01 3.830177e+01 1.066070e+00 2.410275e+00 3.871510e+00 3.800996e+00 4.077305e+00 3.541795e+00 4.282839e+00 4.622942e+00 4.322946e+00 3.415232e+00 5.544150e+00 3.268101e+00 2.483092e+00 1.914262e-01 3.558827e-01 6.270568e-01 6.532746e-01 8.065222e-01 6.533495e-01 8.344641e-01 7.690451e-01 7.523384e-01 5.750934e-01 1.015226e+00 5.678788e-01 4.071955e-01
<GCONST> 1.314788e+02
<TRANSP> 5
 0.000000e+00 1.000000e+00 0.000000e+00 0.000000e+00 0.000000e+00
 0.000000e+00 5.592664e-01 4.407335e-01 0.000000e+00 0.000000e+00
 0.000000e+00 0.000000e+00 4.884423e-01 5.115577e-01 0.000000e+00
 0.000000e+00 0.000000e+00 0.000000e+00 4.867657e-01 5.132343e-01
 0.000000e+00 0.000000e+00 0.000000e+00 0.000000e+00 0.000000e+00
<ENDHMM>
~h "h"
<BEGINHMM>
<NUMSTATES> 5
<STATE> 2
<MEAN> 39
 -5.547442e-01 -4.288446e+00 1.691107e+00 -2.427087e+00 -3.223024e+00 -2.216507e+00 -3.839448e+00 1.895446e+00 -3.478106e+00 -1.397424e+00 -3.598030e+00 -5.825916e+00 6.415836e+01 -6.292386e-02 1.407641e-01 -2.498423e-01 4.006972e-01 1.998797e-01 1.455855e-01 4.089265e-01 -2.481962e-02 7.784585e-02 -1.201188e-01 -2.241990e-01 2.175045e-01 -4.577945e-01 3.636739e-02 -1.205239e-04 1.684430e-02 -5.951717e-03 -1.069739e-01 -2.254253e-02 -1.137036e-01 -2.665150e-02 7.328782e-04 2.670847e-02 8.590827e-02 -2.930259e-02 -2.246439e-02
<VARIANCE> 39
 1.437806e+01 4.915620e+01 5.692168e+01 4.835000e+01 6.313346e+01 6.561478e+01 5.880012e+01 6.203931e+01 6.755644e+01 4.770483e+01 5.341990e+01 3.780667e+01 4.764740e+01 5.711852e-01 1.401451e+00 1.640412e+00 1.842196e+00 2.053035e+00 2.064969e+00 2.131393e+00 2.273591e+00 2.175475e+00 1.878510e+00 2.018421e+00 1.826214e+00 1.060574e+00 9.149568e-02 2.374065e-01 2.494519e-01 3.262736e-01 3.433688e-01 3.618749e-01 3.803491e-01 4.158537e-01 3.989249e-01 3.482307e-01 3.623904e-01 3.154956e-01 1.375010e-01
<GCONST> 1.125245e+02
<STATE> 3
<MEAN> 39
 -5.490063e-01 -3.625275e+00 1.041750e+00 -1.141364e+00 -3.184125e+00 -1.666267e+00 -3.242730e+00 1.661262e+00 -3.407631e+00 -1.453792e+00 -3.688216e+00 -5.245944e+00 6.238700e+01 3.552041e-02 1.892515e-01 -1.986857e-01 3.721370e-01 1.090966e-03 1.015799e-01 1.437719e-01 -3.515200e-02 1.290210e-02 -2.509362e-02 -2.734909e-02 1.582044e-01 -4.935907e-01 2.616166e-02 9.575576e-03 2.354366e-02 -3.405192e-02 -7.635473e-02 -4.037157e-02 -1.116550e-01 -2.159357e-02 -1.404077e-02 2.181616e-02 7.963564e-02 -3.156751e-02 2.397199e-02
<VARIANCE> 39
 1.442201e+01 4.830070e+01 5.318876e+01 4.457445e+01 5.428284e+01 5.836483e+01 5.367204e+01 5.535667e+01 6.338177e+01 4.396741e+01 4.740348e+01 3.799292e+01 5.037768e+01 5.494111e-01 1.264393e+00 1.562727e+00 1.749042e+00 1.884646e+00 2.057119e+00 2.085787e+00 2.228916e+00 2.171614e+00 1.935027e+00 1.846347e+00 1.793804e+00 9.905145e-01 8.637263e-02 2.159778e-01 2.387190e-01 2.996279e-01 3.275478e-01 3.519311e-01 3.681514e-01 4.084521e-01 3.954659e-01 3.678628e-01 3.469181e-01 3.119062e-01 1.213421e-01
<GCONST> 1.106218e+02
<STATE> 4
<MEAN> 39
 -9.107823e-01 -5.172837e-02 -1.358484e+00 2.057137e+00 -3.369905e+00 5.454183e-01 -3.125435e+00 1.844002e+00 -3.438772e+00 -1.422008e+00 -2.519041e+00 -3.245703e+00 5.592905e+01 2.375542e-02 1.745173e-01 -7.861941e-02 1.669907e-01 -5.567041e-02 6.118444e-02 -2.559868e-02 -3.077833e-02 1.561093e-02 -1.005370e-03 7.404827e-02 6.647409e-02 -2.554067e-01 3.183775e-03 -1.200842e-02 2.787566e-02 -3.315918e-02 -2.001919e-02 -2.686199e-02 -4.011627e-02 -1.562069e-02 -5.219488e-04 -2.095447e-03 2.230888e-02 -2.349351e-02 5.259522e-02
<VARIANCE> 39
 1.201024e+01 4.687777e+01 3.796529e+01 4.240040e+01 3.604943e+01 4.206765e+01 3.651726e+01 3.823383e+01 4.747555e+01 3.207810e+01 3.108282e+01 3.537837e+01 6.248125e+01 4.148601e-01 9.699071e-01 1.174393e+00 1.398163e+00 1.581331e+00 1.719200e+00 1.814838e+00 2.062500e+00 2.004807e+00 1.761202e+00 1.626533e+00 1.625132e+00 6.689061e-01 7.183955e-02 1.581220e-01 1.973997e-01 2.508678e-01 2.784483e-01 3.118835e-01 3.513904e-01 3.893602e-01 3.800758e-01 3.460218e-01 3.186519e-01 3.079746e-01 9.067815e-02
<GCONST> 1.034968e+02
<TRANSP> 5
 0.000000e+00 1.000000e+00 0.000000e+00 0.000000e+00 0.000000e+00
 0.000000e+00 5.738153e-01 4.261847e-01 0.000000e+00 0.000000e+00
 0.000000e+00 0.000000e+00 5.734813e-01 4.265188e-01 0.000000e+00
 0.000000e+00 0.000000e+00 0.000000e+00 8.617600e-01 1.382400e-01
 0.000000e+00 0.000000e+00 0.000000e+00 0.000000e+00 0.000000e+00
<ENDHMM>
~h "i"
<BEGINHMM>
<NUMSTATES> 5
<STATE> 2
<MEAN> 39
 -1.938840e+00 -1.242927e-01 1.530197e+01 -1.010784e+00 -1.384137e+01 -6.725618e+00 -1.069685e+01 -1.152248e+00 -9.903358e+00 -3.034914e+00 5.292193e+00 -6.780815e+00 6.380042e+01 -1.388668e-01 -1.287710e-01 1.378258e+00 -4.816191e-01 -9.467819e-01 -2.136979e-01 -6.313373e-01 9.091777e-02 -6.764104e-01 -1.441395e-01 7.859154e-01 -1.992037e-01 5.033244e-01 8.307344e-02 1.050094e-01 -4.846030e-01 1.032500e-01 2.980258e-01 2.120218e-01 1.645856e-01 3.528446e-02 1.636851e-01 1.418391e-01 -2.748783e-01 1.975137e-02 -2.124425e-01
<VARIANCE> 39
 1.609603e+01 3.257090e+01 7.729533e+01 4.200252e+01 6.404823e+01 5.486726e+01 6.141898e+01 5.811681e+01 6.268893e+01 5.460013e+01 5.816332e+01 3.571161e+01 2.692525e+01 1.672867e+00 1.943784e+00 7.553508e+00 3.444047e+00 5.341370e+00 3.917382e+00 4.773735e+00 4.066941e+00 4.669651e+00 3.580035e+00 4.758769e+00 2.660043e+00 2.354394e+00 2.800867e-01 3.234777e-01 1.146800e+00 6.014237e-01 1.009548e+00 7.042869e-01 8.829006e-01 7.429321e-01 8.253098e-01 6.195554e-01 8.381803e-01 4.939451e-01 3.439732e-01
<GCONST> 1.319398e+02
<STATE> 3
<MEAN> 39
 -1.715490e+00 -5.333461e-04 1.612223e+01 -1.520180e+00 -1.465268e+01 -6.340435e+00 -1.138332e+01 -8.309245e-01 -1.068049e+01 -2.668369e+00 5.778318e+00 -6.981681e+00 6.389701e+01 1.595572e-01 1.168455e-01 -4.009113e-01 8.830307e-02 1.873164e-01 2.063483e-01 1.388400e-01 1.211084e-01 -2.451677e-02 2.249682e-01 -2.195806e-01 3.867097e-02 -2.658446e-01 4.918402e-02 6.656541e-02 -5.056801e-01 1.527276e-01 3.597781e-01 1.363456e-01 2.383333e-01 -3.895311e-02 2.231883e-01 7.957006e-02 -3.081087e-01 5.456675e-02 -1.984164e-01
<VARIANCE> 39
 1.225232e+01 3.238049e+01 6.605318e+01 4.259308e+01 5.739328e+01 5.663451e+01 5.740175e+01 5.959451e+01 5.872587e+01 5.788973e+01 5.594731e+01 3.549665e+01 2.716184e+01 1.114370e+00 1.804929e+00 5.291207e+00 2.943681e+00 4.206365e+00 3.478097e+00 3.957565e+00 3.709489e+00 3.782248e+00 2.898828e+00 3.824349e+00 2.333802e+00 1.998387e+00 1.960195e-01 2.938678e-01 8.196344e-01 5.123773e-01 7.959145e-01 6.372157e-01 7.260807e-01 6.852651e-01 7.112564e-01 5.534546e-01 7.069072e-01 4.372349e-01 2.937762e-01
<GCONST> 1.265138e+02
<STATE> 4
<MEAN> 39
 -1.142979e+00 1.061116e+00 1.329046e+01 -8.616536e-01 -1.300265e+01 -4.472383e+00 -9.726551e+00 -8.516670e-01 -1.053770e+01 -1.450594e+00 3.878734e+00 -6.359899e+00 6.155644e+01 1.946278e-01 1.208509e-01 -1.143877e+00 3.735262e-01 6.922947e-01 3.458062e-01 5.019055e-01 5.327688e-02 4.158361e-01 2.180517e-01 -6.509393e-01 1.518305e-01 -5.132892e-01 -3.647919e-02 -2.125102e-02 -1.284888e-01 -6.510267e-03 1.190532e-01 1.879161e-02 3.531703e-02 -4.336772e-02 1.223997e-01 -1.684982e-02 -7.615503e-02 -3.062394e-03 1.926176e-02
<VARIANCE> 39
 1.220693e+01 3.500671e+01 6.887723e+01 4.692572e+01 5.535770e+01 5.892804e+01 5.210144e+01 6.028844e+01 6.044783e+01 5.225179e+01 5.339877e+01 3.613632e+01 3.979187e+01 9.066459e-01 1.733028e+00 3.102798e+00 2.423152e+00 3.155152e+00 3.097056e+00 3.187514e+00 3.481313e+00 3.235239e+00 2.585540e+00 2.937505e+00 2.177653e+00 1.502998e+00 1.510808e-01 2.620052e-01 5.474980e-01 4.346612e-01 5.931048e-01 5.547472e-01 5.812769e-01 6.226830e-01 5.906383e-01 4.632344e-01 5.418215e-01 3.781983e-01 2.500199e-01
<GCONST> 1.217472e+02
<TRANSP> 5
 0.000000e+00 1.000000e+00 0.000000e+00 0.000000e+00 0.000000e+00
 0.000000e+00 6.234599e-01 3.765400e-01 0.000000e+00 0.000000e+00
 0.000000e+00 0.000000e+00 5.773304e-01 4.226697e-01 0.000000e+00
 0.000000e+00 0.000000e+00 0.000000e+00 6.733865e-01 3.266134e-01
 0.000000e+00 0.000000e+00 0.000000e+00 0.000000e+00 0.000000e+00
<ENDHMM>
~h "j"
<BEGINHMM>
<NUMSTATES> 5
<STATE> 2
<MEAN> 39
 3.633400e-01 1.896399e+00 9.136363e+00 1.422288e+00 -7.129990e+00 -5.525016e+00 -1.106264e+01 1.836777e+00 -5.174389e+00 -3.035424e+00 -6.861442e-01 -3.519562e+00 6.104893e+01 -2.263566e-01 1.656325e-01 8.121791e-01 9.929857e-03 -1.456481e-01 -3.947529e-01 -5.134062e-01 -1.554973e-01 -1.672369e-01 -1.938681e-01 2.314370e-01 1.924304e-01 1.962341e-01 7.222678e-03 -2.037870e-01 -1.110679e-01 -1.643352e-01 -7.418881e-02 -3.336839e-02 -1.156020e-01 6.762792e-02 2.386516e-02 1.401834e-01 1.179038e-01 -1.345346e-01 1.704828e-01
<VARIANCE> 39
 1.448357e+01 3.996898e+01 5.970924e+01 3.789112e+01 4.541955e+01 5.538919e+01 7.252200e+01 6.003528e+01 3.842608e+01 4.370609e+01 4.144977e+01 3.224616e+01 3.877012e+01 1.969796e+00 3.308774e+00 5.150710e+00 3.508233e+00 4.866087e+00 5.641455e+00 6.515013e+00 3.777950e+00 3.001271e+00 3.474878e+00 3.689740e+00 3.040301e+00 3.492509e+00 4.073891e-01 4.792183e-01 1.092952e+00 5.696287e-01 1.016007e+00 1.127680e+00 1.308899e+00 6.871116e-01 6.245588e-01 6.927764e-01 7.505099e-01 6.540647e-01 5.357385e-01
<GCONST> 1.332997e+02
<STATE> 3
<MEAN> 39
 -2.925149e-01 1.332536e+00 1.097624e+01 7.641246e-01 -8.188731e+00 -6.725649e+00 -1.311632e+01 1.652728e+00 -5.543891e+00 -2.816817e+00 7.610930e-01 -3.409903e+00 6.236169e+01 -8.723947e-02 -4.492449e-01 2.478954e-01 -4.703554e-01 -3.930816e-01 -3.987689e-01 -7.161663e-01 2.162736e-01 -9.242224e-02 3.080537e-01 5.895997e-01 -2.056724e-01 6.466821e-01 7.343562e-02 -9.004991e-02 -3.206991e-01 -1.396707e-01 7.406914e-02 1.555557e-01 1.252377e-01 8.168851e-02 3.700544e-02 1.489524e-01 -2.670468e-03 -1.419428e-01 2.228884e-02
<VARIANCE> 39
 1.320387e+01 3.756721e+01 5.829031e+01 3.725231e+01 5.038244e+01 5.197597e+01 8.309576e+01 5.848230e+01 3.898168e+01 4.781951e+01 4.409528e+01 3.552396e+01 3.669151e+01 2.009880e+00 3.638511e+00 6.271042e+00 3.394044e+00 5.930356e+00 5.672630e+00 7.549628e+00 4.289733e+00 3.418552e+00 3.826278e+00 4.189308e+00 3.444408e+00 3.566846e+00 4.015766e-01 5.291059e-01 1.136523e+00 5.629495e-01 1.212170e+00 1.143512e+00 1.457802e+00 7.546528e-01 6.265748e-01 7.204227e-01 8.463035e-01 6.941474e-01 5.452068e-01
<GCONST> 1.354615e+02
<STATE> 4
<MEAN> 39
 -1.123644e+00 1.128211e+00 1.039036e+01 -1.381212e+00 -8.113743e+00 -7.773284e+00 -1.155439e+01 1.474308e+00 -6.828069e+00 -2.606245e-01 2.285109e+00 -3.685657e+00 6.385086e+01 9.858785e-02 -6.106439e-01 -3.353899e-01 -6.956465e-01 -1.726347e-01 -1.027287e-01 -3.261542e-01 4.305356e-01 1.107923e-01 4.675004e-01 3.104399e-01 -3.373913e-01 6.409607e-01 1.247854e-01 -6.063825e-04 -2.261320e-01 4.288191e-02 1.469568e-01 2.721758e-01 1.510322e-01 -1.477029e-02 8.112071e-02 -2.578069e-02 -1.924065e-01 -8.119576e-02 -1.379207e-01
<VARIANCE> 39
 1.889753e+01 4.958166e+01 5.817855e+01 4.395561e+01 5.898951e+01 5.869291e+01 7.425928e+01 6.427754e+01 5.212204e+01 5.155693e+01 4.289880e+01 3.630771e+01 4.138107e+01 2.448136e+00 3.392878e+00 5.553288e+00 3.102954e+00 6.363285e+00 5.759394e+00 5.543205e+00 4.674866e+00 3.759049e+00 3.683046e+00 4.372572e+00 3.101265e+00 2.744787e+00 4.683086e-01 5.206971e-01 9.054260e-01 5.698581e-01 1.327324e+00 1.069297e+00 1.132916e+00 8.916285e-01 6.647571e-01 6.845100e-01 7.766114e-01 5.705595e-01 4.550368e-01
<GCONST> 1.359203e+02
<TRANSP> 5
 0.000000e+00 1.000000e+00 0.000000e+00 0.000000e+00 0.000000e+00
 0.000000e+00 6.283128e-01 3.716873e-01 0.000000e+00 0.000000e+00
 0.000000e+00 0.000000e+00 6.263896e-01 3.736105e-01 0.000000e+00
 0.000000e+00 0.000000e+00 0.000000e+00 6.163189e-01 3.836811e-01
 0.000000e+00 0.000000e+00 0.000000e+00 0.000000e+00 0.000000e+00
<ENDHMM>
~h "k"
<BEGINHMM>
<NUMSTATES> 5
<STATE> 2
<MEAN> 39
 6.877959e-01 -6.563296e-01 -3.438346e+00 -1.298739e+00 -3.084071e+00 7.386887e-02 -6.126389e+00 -1.178656e-01 -4.779458e+00 1.434724e+00 -9.013723e-01 -5.438131e+00 5.797529e+01 -1.286851e-01 -3.356119e-01 -4.842804e-01 -5.137471e-01 5.850565e-01 -2.913903e-01 -2.259648e-01 -6.238378e-02 1.720379e-01 1.643617e-01 5.479876e-02 -1.146128e-01 5.150487e-01 3.978758e-02 -1.817221e-01 2.410805e-01 -2.509436e-01 -1.502117e-01 -1.103076e-01 -1.040491e-01 1.814374e-02 -2.886242e-02 5.148287e-03 6.598268e-02 -1.297686e-01 3.736813e-01
<VARIANCE> 39
 1.531029e+01 3.765543e+01 4.312727e+01 6.089730e+01 5.731256e+01 5.813971e+01 4.985811e+01 4.480714e+01 4.249662e+01 3.880109e+01 3.723154e+01 3.688292e+01 3.961514e+01 1.537076e+00 3.623842e+00 3.317746e+00 5.429563e+00 5.428971e+00 4.484505e+00 3.970801e+00 4.100523e+00 4.035515e+00 3.622756e+00 3.103094e+00 3.392525e+00 4.339578e+00 2.847560e-01 5.601114e-01 5.665507e-01 8.643242e-01 1.086388e+00 7.859661e-01 7.169089e-01 7.780340e-01 7.519805e-01 6.801952e-01 5.932228e-01 6.337509e-01 6.038066e-01
<GCONST> 1.316929e+02
<STATE> 3
<MEAN> 39
 5.136878e-01 -1.833066e+00 -3.717072e+00 -3.082471e+00 -2.287375e+00 -9.151553e-01 -6.898898e+00 -1.874627e-01 -4.517126e+00 1.833782e+00 -5.484427e-01 -6.032553e+00 6.009486e+01 8.058490e-02 -4.902805e-01 2.204691e-01 -8.221696e-01 -1.061981e-01 -3.303252e-01 -2.757510e-01 5.138285e-02 2.511762e-02 6.432069e-02 1.444005e-01 -3.337978e-01 9.832128e-01 1.155711e-01 -3.625192e-02 3.005085e-01 -3.334561e-02 -3.414931e-01 5.378504e-02 -1.631284e-02 5.313586e-02 -7.452623e-02 -8.088548e-02 5.130715e-02 -7.767071e-02 1.127599e-01
<VARIANCE> 39
 1.889693e+01 3.909332e+01 4.852874e+01 7.127274e+01 6.112395e+01 6.651761e+01 5.648156e+01 5.009283e+01 4.770989e+01 4.229509e+01 4.040749e+01 3.981858e+01 4.046106e+01 1.974671e+00 3.896053e+00 4.039247e+00 5.872810e+00 6.491142e+00 5.088967e+00 4.338687e+00 4.734801e+00 4.790114e+00 3.827742e+00 3.565338e+00 3.985799e+00 4.431516e+00 3.692124e-01 5.955619e-01 6.743764e-01 1.008090e+00 1.249226e+00 8.801230e-01 8.401986e-01 9.113014e-01 8.600805e-01 7.577336e-01 6.863531e-01 7.115449e-01 6.566581e-01
<GCONST> 1.365227e+02
<STATE> 4
<MEAN> 39
 8.512923e-01 -1.207850e+00 -2.894925e+00 -3.137615e+00 -3.526228e+00 -3.864853e-01 -6.356858e+00 2.061530e-01 -4.685488e+00 1.217103e+00 -5.964734e-01 -5.899938e+00 5.987198e+01 1.979722e-01 -2.341762e-01 5.058997e-01 -4.943030e-01 -5.271783e-01 -1.091744e-01 -2.124262e-01 4.137804e-02 -5.017383e-02 -1.321197e-01 1.512704e-01 -2.484972e-01 6.674592e-01 5.108327e-02 -2.043695e-02 1.451545e-01 4.938591e-02 -1.376180e-01 3.111634e-02 -6.959819e-02 -8.531956e-03 -3.284785e-02 -3.131625e-02 5.685852e-02 -3.433078e-02 2.962500e-02
<VARIANCE> 39
 1.895131e+01 4.488641e+01 4.787046e+01 7.459501e+01 5.191591e+01 6.499355e+01 5.120990e+01 4.566784e+01 4.839616e+01 3.979853e+01 3.841335e+01 4.078726e+01 4.993942e+01 1.670826e+00 3.113128e+00 3.346746e+00 4.599457e+00 5.125299e+00 3.993124e+00 3.976284e+00 4.334997e+00 4.184559e+00 3.382346e+00 3.324841e+00 3.488609e+00 3.248406e+00 3.076253e-01 4.686414e-01 5.417488e-01 8.344506e-01 9.420700e-01 7.102764e-01 7.312657e-01 7.864234e-01 7.523082e-01 6.449557e-01 6.209347e-01 5.906141e-01 5.051119e-01
<GCONST> 1.317486e+02
<TRANSP> 5
 0.000000e+00 1.000000e+00 0.000000e+00 0.000000e+00 0.000000e+00
 0.000000e+00 4.660212e-01 5.339788e-01 0.000000e+00 0.000000e+00
 0.000000e+00 0.000000e+00 4.623488e-01 5.376511e-01 0.000000e+00
 0.000000e+00 0.000000e+00 0.000000e+00 4.675624e-01 5.324377e-01
 0.000000e+00 0.000000e+00 0.000000e+00 0.000000e+00 0.000000e+00
<ENDHMM>
~h "l"
<BEGINHMM>
<NUMSTATES> 5
<STATE> 2
<MEAN> 39
 2.310410e+00 -5.399023e+00 3.186650e+00 -7.599648e+00 -7.306238e+00 -1.627265e+00 -1.400296e+01 -2.583156e+00 -1.854141e-01 3.733147e+00 2.057963e+00 -1.126639e+01 6.694131e+01 7.709096e-02 -1.454941e-01 5.492710e-02 -2.860037e-01 -4.245316e-02 1.503418e-01 -3.903567e-01 -1.260473e-01 2.071760e-01 3.664728e-01 9.509738e-02 -3.273644e-01 1.555618e-01 -6.024211e-02 5.196857e-02 -4.612252e-02 1.122662e-01 1.975090e-02 3.426662e-02 2.429687e-01 1.780094e-01 -1.443499e-01 -2.300946e-01 -8.523244e-02 1.136847e-01 -7.556705e-02
<VARIANCE> 39
 1.100795e+01 4.238062e+01 6.045486e+01 6.489103e+01 5.271742e+01 6.329582e+01 8.638163e+01 8.829275e+01 8.762483e+01 5.415184e+01 5.776332e+01 6.735480e+01 2.712068e+01 6.636523e-01 1.952730e+00 2.368417e+00 3.138616e+00 2.569561e+00 3.895040e+00 4.185980e+00 5.130434e+00 3.812684e+00 3.684894e+00 3.658089e+00 2.764025e+00 1.216401e+00 1.197477e-01 2.887027e-01 3.147382e-01 4.869748e-01 4.684922e-01 6.098706e-01 7.032744e-01 8.789647e-01 6.741481e-01 6.194062e-01 6.988783e-01 4.908456e-01 1.628588e-01
<GCONST> 1.252364e+02
<STATE> 3
<MEAN> 39
 2.332243e+00 -5.642646e+00 2.975350e+00 -7.847968e+00 -7.200182e+00 -1.214390e+00 -1.410159e+01 -2.129305e+00 -1.221135e-01 3.659336e+00 1.937787e+00 -1.163142e+01 6.710992e+01 -2.475784e-02 -8.804435e-02 -3.824747e-02 -2.719675e-02 1.735146e-02 2.653202e-01 2.128262e-01 2.961735e-01 -1.388313e-01 -2.263559e-01 -2.030519e-01 -6.167382e-02 1.791282e-02 -4.399365e-02 6.985040e-02 -1.826385e-02 1.405038e-01 2.535685e-02 2.158703e-02 2.513071e-01 1.216416e-01 -1.760918e-01 -2.135332e-01 -1.089961e-01 1.443602e-01 -8.730495e-02
<VARIANCE> 39
 1.079414e+01 4.069768e+01 5.750741e+01 6.295708e+01 5.148922e+01 6.194128e+01 8.459869e+01 8.677142e+01 9.207571e+01 5.538120e+01 6.210029e+01 6.896496e+01 2.588494e+01 5.996777e-01 1.950691e+00 2.202855e+00 2.908124e+00 2.312628e+00 3.601994e+00 3.863262e+00 4.622973e+00 3.817786e+00 3.397793e+00 3.808707e+00 2.564822e+00 1.189591e+00 1.029308e-01 2.905105e-01 3.166629e-01 4.744763e-01 4.256405e-01 5.759484e-01 6.795422e-01 8.178239e-01 6.736072e-01 6.075239e-01 7.107677e-01 4.846840e-01 1.604451e-01
<GCONST> 1.239229e+02
<STATE> 4
<MEAN> 39
 2.145003e+00 -5.597304e+00 2.416915e+00 -7.533207e+00 -6.808162e+00 -3.035017e-01 -1.295693e+01 -1.336807e+00 -3.030241e-01 2.188873e+00 1.088544e+00 -1.156796e+01 6.684306e+01 -5.610860e-02 1.133575e-01 -2.438750e-03 3.272832e-01 6.002428e-02 2.217075e-01 5.811390e-01 3.662788e-01 -5.135622e-01 -4.746132e-01 -3.868987e-01 2.772534e-01 -2.388428e-01 -1.273640e-02 1.113047e-01 1.646912e-02 1.341896e-01 -3.984855e-03 -6.330331e-02 1.042464e-01 -1.000256e-02 -1.394703e-01 -2.923813e-02 -9.260808e-03 1.284494e-01 -1.059251e-01
<VARIANCE> 39
 1.110122e+01 4.201687e+01 5.722293e+01 6.416037e+01 4.865002e+01 6.531050e+01 7.701637e+01 8.596513e+01 9.097942e+01 5.526204e+01 6.673076e+01 6.595565e+01 2.956682e+01 5.801974e-01 1.837896e+00 1.929711e+00 2.732547e+00 2.318214e+00 3.274362e+00 3.287639e+00 3.921417e+00 3.701888e+00 3.078076e+00 3.884934e+00 2.469976e+00 1.276498e+00 9.565051e-02 2.818700e-01 3.069132e-01 4.626508e-01 4.159817e-01 5.414264e-01 5.943909e-01 7.192451e-01 6.201059e-01 5.706009e-01 7.019752e-01 4.502823e-01 1.740711e-01
<GCONST> 1.225957e+02
<TRANSP> 5
 0.000000e+00 1.000000e+00 0.000000e+00 0.000000e+00 0.000000e+00
 0.000000e+00 4.940329e-01 5.059670e-01 0.000000e+00 0.000000e+00
 0.000000e+00 0.000000e+00 4.733507e-01 5.266494e-01 0.000000e+00
 0.000000e+00 0.000000e+00 0.000000e+00 5.440497e-01 4.559503e-01
 0.000000e+00 0.000000e+00 0.000000e+00 0.000000e+00 0.000000e+00
<ENDHMM>
~h "m"
<BEGINHMM>
<NUMSTATES> 5
<STATE> 2
<MEAN> 39
 4.209415e+00 -2.769621e+00 3.765111e+00 -9.472340e-01 -8.812344e+00 5.912988e+00 -6.650153e+00 -5.594676e+00 -1.041083e+01 1.569907e-01 -8.916360e-02 -9.184639e+00 6.272063e+01 1.492558e-01 4.203424e-02 3.711908e-01 2.604692e-01 -1.916193e-01 4.902615e-01 1.663297e-01 -4.991388e-01 -5.933374e-01 -8.274071e-02 -1.771616e-01 -9.512608e-02 -9.464027e-02 -6.818940e-02 -9.290671e-02 -1.496763e-01 -2.250450e-01 6.597677e-02 -2.504228e-01 -1.190805e-01 2.941005e-01 3.661732e-01 3.206877e-02 4.980669e-02 -1.435323e-02 1.238781e-01
<VARIANCE> 39
 9.674937e+00 3.350055e+01 4.203538e+01 4.379790e+01 5.617765e+01 5.262252e+01 4.575614e+01 5.034506e+01 6.623486e+01 3.548041e+01 4.335560e+01 4.374654e+01 2.358118e+01 6.292984e-01 1.668520e+00 2.691942e+00 2.962972e+00 2.423571e+00 3.024280e+00 2.622504e+00 3.981378e+00 5.331019e+00 2.563024e+00 3.029394e+00 2.196917e+00 1.304270e+00 1.177456e-01 2.078191e-01 4.102210e-01 4.659662e-01 4.239603e-01 4.915602e-01 4.671240e-01 6.374927e-01 8.280058e-01 4.893808e-01 5.638673e-01 4.006920e-01 1.514219e-01
<GCONST> 1.179963e+02
<STATE> 3
<MEAN> 39
 4.363242e+00 -2.926848e+00 4.027816e+00 -1.191433e+00 -9.156689e+00 6.347278e+00 -6.667794e+00 -5.807822e+00 -1.048818e+01 1.050041e-01 -2.297100e-01 -9.446140e+00 6.288228e+01 5.200443e-02 -1.354942e-01 -1.505393e-01 -2.126042e-01 -3.145954e-02 -4.129665e-02 -6.745270e-02 2.163643e-01 3.470418e-01 3.000292e-02 -9.362770e-03 -8.749025e-02 1.228480e-01 -5.922092e-02 -6.727533e-02 -1.769238e-01 -1.516259e-01 8.168506e-02 -2.389233e-01 -7.947209e-02 2.967626e-01 3.433191e-01 2.560311e-02 4.184816e-02 8.515181e-03 8.135246e-02
<VARIANCE> 39
 9.297067e+00 3.439138e+01 4.419007e+01 4.358308e+01 6.038840e+01 5.397338e+01 4.383946e+01 5.124208e+01 6.589585e+01 3.701407e+01 4.261004e+01 4.510538e+01 2.187249e+01 5.528486e-01 1.739910e+00 2.634392e+00 2.904548e+00 2.468475e+00 2.825979e+00 2.456319e+00 3.863868e+00 5.200716e+00 2.529671e+00 2.926273e+00 2.292346e+00 1.190485e+00 1.114705e-01 2.156220e-01 4.129753e-01 4.739176e-01 4.371023e-01 4.895872e-01 4.450650e-01 6.287286e-01 8.496346e-01 4.844800e-01 5.433040e-01 4.106393e-01 1.422045e-01
<GCONST> 1.175905e+02
<STATE> 4
<MEAN> 39
 4.295222e+00 -3.239394e+00 3.071070e+00 -2.291457e+00 -9.257648e+00 6.469904e+00 -7.115855e+00 -4.571393e+00 -8.422740e+00 -1.483603e-01 -3.036798e-01 -9.966719e+00 6.318433e+01 -6.073431e-02 -1.564119e-01 -4.046854e-01 -2.464297e-01 1.511306e-01 -4.287792e-01 -1.408867e-01 6.450772e-01 7.983655e-01 -4.115776e-03 -1.812031e-03 4.179447e-03 1.215742e-01 -6.424079e-02 -1.183865e-02 -1.493953e-03 1.470415e-03 5.306779e-02 -1.488098e-01 -3.074747e-02 1.269679e-01 9.248486e-02 -2.137343e-02 -5.585828e-03 2.963667e-02 1.467452e-02
<VARIANCE> 39
 9.374443e+00 4.279741e+01 4.513899e+01 4.654844e+01 6.897095e+01 5.646681e+01 4.442667e+01 5.482252e+01 6.676278e+01 4.096068e+01 4.455696e+01 4.890466e+01 2.569624e+01 5.635839e-01 1.734988e+00 2.251523e+00 2.600698e+00 2.511607e+00 2.662144e+00 2.432379e+00 3.646696e+00 4.640200e+00 2.554994e+00 2.828501e+00 2.336836e+00 1.109519e+00 1.063865e-01 2.520087e-01 3.981588e-01 4.807397e-01 4.377897e-01 4.560612e-01 4.448214e-01 6.236807e-01 7.903906e-01 4.716148e-01 5.147491e-01 4.127249e-01 1.508208e-01
<GCONST> 1.179338e+02
<TRANSP> 5
 0.000000e+00 1.000000e+00 0.000000e+00 0.000000e+00 0.000000e+00
 0.000000e+00 4.984972e-01 5.015028e-01 0.000000e+00 0.000000e+00
 0.000000e+00 0.000000e+00 5.011233e-01 4.988767e-01 0.000000e+00
 0.000000e+00 0.000000e+00 0.000000e+00 6.225815e-01 3.774185e-01
 0.000000e+00 0.000000e+00 0.000000e+00 0.000000e+00 0.000000e+00
<ENDHMM>
~h "n"
<BEGINHMM>
<NUMSTATES> 5
<STATE> 2
<MEAN> 39
 3.167492e+00 -4.384722e+00 5.764542e+00 1.796846e+00 -9.650949e+00 -1.517593e+00 -8.966033e+00 -8.119582e-01 -5.348021e+00 2.020959e+00 -4.270381e+00 -1.026055e+01 6.331206e+01 1.535730e-01 6.511608e-01 3.419097e-01 6.612637e-01 -1.948526e-01 3.723532e-01 1.658665e-01 -9.742240e-01 -3.788700e-01 2.755669e-01 -4.606872e-01 2.248616e-01 -5.963975e-01 -8.337957e-02 -5.789859e-02 -1.428372e-01 -2.075230e-01 8.988941e-02 -1.210239e-02 6.229706e-02 1.987864e-01 8.518802e-02 -1.801244e-01 1.567648e-01 5.010638e-02 7.976083e-02
<VARIANCE> 39
 8.301443e+00 4.414921e+01 4.121818e+01 3.534347e+01 4.995786e+01 4.187887e+01 5.036192e+01 9.964488e+01 5.194454e+01 5.589504e+01 4.739427e+01 4.904294e+01 2.697409e+01 5.481067e-01 2.271023e+00 2.625607e+00 2.630392e+00 2.390742e+00 2.529500e+00 2.661161e+00 7.797513e+00 3.120306e+00 3.882084e+00 3.160053e+00 2.391515e+00 1.423540e+00 1.039805e-01 3.818551e-01 4.077799e-01 4.288277e-01 4.041728e-01 4.595759e-01 5.049968e-01 1.503490e+00 5.436392e-01 7.140754e-01 5.622704e-01 4.314327e-01 2.249057e-01
<GCONST> 1.211218e+02
<STATE> 3
<MEAN> 39
 3.242897e+00 -3.032204e+00 5.842374e+00 2.671409e+00 -9.556267e+00 -7.192086e-01 -8.312382e+00 -2.162512e+00 -5.813316e+00 1.998374e+00 -4.864026e+00 -9.452391e+00 6.212179e+01 -2.950971e-02 4.089487e-01 -1.212191e-01 1.787882e-01 9.222293e-02 2.612959e-01 2.822852e-01 -1.517979e-01 -1.322240e-01 -2.528304e-01 -2.010891e-02 2.421422e-01 -3.793676e-01 -1.054308e-01 -1.149986e-01 -1.539296e-01 -2.414982e-01 1.214681e-01 -8.751507e-02 1.948102e-02 3.503714e-01 9.041460e-02 -1.973326e-01 2.116521e-01 6.808519e-03 1.153275e-01
<VARIANCE> 39
 8.450017e+00 4.146254e+01 3.917628e+01 3.345831e+01 4.983540e+01 4.041550e+01 4.772299e+01 8.756135e+01 4.959810e+01 5.663062e+01 4.684996e+01 4.522091e+01 2.644441e+01 5.901190e-01 2.233074e+00 2.367772e+00 2.570623e+00 2.322266e+00 2.289162e+00 2.554849e+00 7.328628e+00 2.886755e+00 3.699828e+00 3.045434e+00 2.284001e+00 1.466993e+00 1.091100e-01 3.470461e-01 4.005209e-01 4.303790e-01 4.160086e-01 4.383552e-01 4.844424e-01 1.262925e+00 5.181416e-01 6.805244e-01 5.682120e-01 4.133089e-01 2.039375e-01
<GCONST> 1.196020e+02
<STATE> 4
<MEAN> 39
 2.363119e+00 -1.158877e+00 3.772653e+00 3.567653e+00 -7.983025e+00 2.720104e-01 -6.701291e+00 -1.451777e+00 -5.474328e+00 8.091530e-01 -4.667500e+00 -7.843886e+00 5.939766e+01 -2.038383e-01 2.405280e-01 -3.286033e-01 -1.472905e-01 2.760105e-01 6.572241e-02 2.189269e-01 3.399859e-01 3.321660e-02 -4.416405e-01 3.130926e-01 2.334406e-01 -2.472279e-01 -9.488387e-02 -9.027309e-02 -1.538322e-02 -1.778032e-01 6.517636e-02 -1.142515e-01 -4.627294e-02 1.570081e-01 6.225961e-02 -5.036736e-02 1.310248e-01 -7.009258e-03 1.180281e-01
<VARIANCE> 39
 1.179010e+01 4.373253e+01 4.412932e+01 3.503467e+01 4.842678e+01 3.878783e+01 4.300520e+01 7.584859e+01 4.800669e+01 5.004891e+01 4.565642e+01 4.332175e+01 4.182789e+01 6.553177e-01 1.813631e+00 2.111150e+00 2.301652e+00 2.285311e+00 2.169922e+00 2.363458e+00 5.050339e+00 2.652914e+00 3.109713e+00 2.844486e+00 2.132830e+00 1.281280e+00 1.274839e-01 3.010939e-01 3.509993e-01 4.148583e-01 4.111353e-01 4.360684e-01 4.618122e-01 9.432281e-01 4.910136e-01 5.912641e-01 5.461605e-01 4.014474e-01 1.925502e-01
<GCONST> 1.178587e+02
<TRANSP> 5
 0.000000e+00 1.000000e+00 0.000000e+00 0.000000e+00 0.000000e+00
 0.000000e+00 4.934992e-01 5.065009e-01 0.000000e+00 0.000000e+00
 0.000000e+00 0.000000e+00 4.738644e-01 5.261356e-01 0.000000e+00
 0.000000e+00 0.000000e+00 0.000000e+00 5.855258e-01 4.144742e-01
 0.000000e+00 0.000000e+00 0.000000e+00 0.000000e+00 0.000000e+00
<ENDHMM>
~h "o"
<BEGINHMM>
<NUMSTATES> 5
<STATE> 2
<MEAN> 39
 3.689452e+00 -7.928042e-01 -3.769433e+00 -8.438681e+00 -7.238348e+00 5.171386e+00 -6.781441e+00 -1.867587e+00 -4.034744e+00 2.072752e+00 1.495198e+00 -5.590265e+00 6.133341e+01 3.352015e-01 -4.799292e-02 -1.310873e-01 -7.935029e-01 -2.032393e-01 5.017856e-01 3.099761e-02 7.856956e-02 -1.760974e-01 1.326540e-01 1.247382e-01 -2.061558e-02 2.510771e-01 -1.054236e-01 2.899556e-02 1.077476e-01 3.076717e-01 1.182524e-01 -1.397663e-01 -3.039814e-02 -4.898052e-03 -2.137088e-03 -3.741208e-02 -8.672163e-02 -3.381768e-02 -9.885663e-02
<VARIANCE> 39
 1.313656e+01 3.734685e+01 2.478369e+01 1.093035e+02 4.505323e+01 5.439739e+01 4.873529e+01 4.746087e+01 4.903833e+01 4.375068e+01 4.351340e+01 3.804193e+01 5.003202e+01 1.128620e+00 1.755638e+00 1.597236e+00 7.346411e+00 3.029545e+00 3.311734e+00 3.142775e+00 2.967108e+00 2.895907e+00 2.859272e+00 2.732684e+00 1.949063e+00 2.453697e+00 1.874636e-01 2.642701e-01 2.942073e-01 1.050268e+00 5.192823e-01 6.019018e-01 5.521933e-01 5.337949e-01 5.048922e-01 5.203932e-01 4.852450e-01 3.774014e-01 3.020879e-01
<GCONST> 1.218971e+02
<STATE> 3
<MEAN> 39
 4.169606e+00 -1.198878e+00 -3.623357e+00 -9.463350e+00 -7.585291e+00 5.965877e+00 -7.016987e+00 -2.214256e+00 -4.185758e+00 2.177681e+00 1.958228e+00 -6.077724e+00 6.233191e+01 1.485948e-02 3.196280e-02 4.812040e-02 3.687590e-01 1.393799e-01 -4.684185e-02 1.000904e-03 -8.609048e-03 -1.009137e-01 6.844337e-02 -1.148187e-01 -1.029569e-01 -9.718347e-02 -1.044862e-01 4.523706e-02 8.546043e-02 3.524159e-01 9.249763e-02 -1.919180e-01 -1.579909e-02 -1.598815e-02 1.431829e-02 -3.454659e-02 -8.190718e-02 -1.651588e-02 -1.225032e-01
<VARIANCE> 39
 1.122348e+01 3.834911e+01 2.558224e+01 1.063802e+02 4.583350e+01 5.513522e+01 5.062931e+01 4.990528e+01 5.033519e+01 4.670743e+01 4.392192e+01 4.084922e+01 4.424002e+01 7.774320e-01 1.607641e+00 1.585749e+00 5.268195e+00 2.605253e+00 2.881791e+00 2.938529e+00 2.751815e+00 2.566546e+00 2.911425e+00 2.537992e+00 1.998850e+00 1.911487e+00 1.436762e-01 2.411893e-01 2.957145e-01 8.143393e-01 4.866374e-01 5.446320e-01 5.074634e-01 5.271227e-01 4.882244e-01 5.176414e-01 4.525386e-01 3.623638e-01 2.384736e-01
<GCONST> 1.190502e+02
<STATE> 4
<MEAN> 39
 2.946712e+00 8.986892e-01 -3.454477e+00 -5.881666e+00 -6.471590e+00 4.235712e+00 -5.403725e+00 -7.162393e-01 -5.874312e+00 1.980789e+00 6.166459e-01 -5.137017e+00 5.912477e+01 -1.541588e-01 9.613201e-02 1.569848e-01 7.868941e-01 1.844818e-01 -2.998421e-01 1.187241e-03 -4.385619e-02 7.483765e-02 -8.452138e-02 -1.753601e-01 -3.350166e-02 -3.062749e-01 -4.212969e-02 4.980595e-03 6.461586e-02 6.914086e-02 2.308295e-03 -7.069749e-02 -2.976342e-03 -1.127169e-02 3.611614e-02 -5.154609e-02 -2.586430e-02 2.360080e-02 -7.362058e-03
<VARIANCE> 39
 1.544070e+01 4.507259e+01 2.841315e+01 9.955296e+01 4.106049e+01 4.571509e+01 4.787640e+01 4.197313e+01 4.897034e+01 4.209569e+01 3.537803e+01 3.667712e+01 6.553585e+01 6.300015e-01 1.242885e+00 1.696645e+00 3.134831e+00 2.305929e+00 2.828319e+00 2.447524e+00 2.616077e+00 2.628501e+00 2.742404e+00 2.164961e+00 1.824626e+00 1.240271e+00 1.187858e-01 2.215809e-01 2.717309e-01 5.091590e-01 4.391285e-01 5.433732e-01 4.508584e-01 4.995562e-01 5.154219e-01 5.347343e-01 4.063264e-01 3.375145e-01 1.998513e-01
<GCONST> 1.155935e+02
<TRANSP> 5
 0.000000e+00 1.000000e+00 0.000000e+00 0.000000e+00 0.000000e+00
 0.000000e+00 6.553792e-01 3.446208e-01 0.000000e+00 0.000000e+00
 0.000000e+00 0.000000e+00 6.190223e-01 3.809777e-01 0.000000e+00
 0.000000e+00 0.000000e+00 0.000000e+00 7.361919e-01 2.638080e-01
 0.000000e+00 0.000000e+00 0.000000e+00 0.000000e+00 0.000000e+00
<ENDHMM>
~h "p"
<BEGINHMM>
<NUMSTATES> 5
<STATE> 2
<MEAN> 39
 1.609408e+00 5.892534e-01 -3.542106e+00 -1.452600e-01 -4.214856e+00 1.507226e+00 -6.090384e+00 -5.642400e-01 -3.694107e+00 2.664182e-01 -1.400793e+00 -5.479684e+00 5.638317e+01 -2.071255e-02 -4.024058e-01 -6.511094e-02 -4.391688e-01 2.143037e-03 -3.164445e-01 -1.346034e-01 -1.583496e-01 2.747770e-01 1.100643e-01 1.846698e-01 2.153356e-02 4.505961e-01 3.723606e-02 -3.455938e-01 2.445463e-01 -3.388379e-01 -8.526097e-02 -1.491815e-01 -1.921887e-01 -9.789668e-03 -2.346532e-02 5.503292e-02 1.160612e-01 -1.418130e-01 5.214511e-01
<VARIANCE> 39
 1.342494e+01 3.322159e+01 3.248353e+01 4.184933e+01 3.157391e+01 4.952551e+01 3.642563e+01 3.415493e+01 3.862367e+01 2.951809e+01 2.726596e+01 3.330501e+01 3.451369e+01 1.317309e+00 3.537595e+00 2.481693e+00 5.061610e+00 2.739003e+00 4.022069e+00 3.572093e+00 3.057468e+00 3.146840e+00 3.038856e+00 2.553509e+00 2.976614e+00 4.500034e+00 2.381983e-01 5.361091e-01 4.779209e-01 8.606645e-01 5.496939e-01 7.456253e-01 6.359258e-01 6.362327e-01 6.007110e-01 5.919396e-01 5.305832e-01 5.525514e-01 6.129678e-01
<GCONST> 1.240213e+02
<STATE> 3
<MEAN> 39
 1.662409e+00 -9.469216e-01 -3.084357e+00 -1.899573e+00 -4.399869e+00 4.890269e-01 -6.727016e+00 -9.229312e-01 -3.323761e+00 6.856328e-01 -7.893025e-01 -5.742762e+00 5.846195e+01 9.339910e-02 -9.550903e-01 5.018312e-01 -9.245670e-01 -2.564445e-01 -5.333350e-01 -5.027689e-01 -7.459246e-02 1.359750e-01 1.744013e-01 3.463064e-01 -2.699473e-01 1.321286e+00 3.544673e-02 -1.426750e-01 2.792859e-01 -7.286792e-02 -1.548863e-01 -5.220949e-02 -1.536170e-01 7.791153e-02 -9.114814e-02 -1.923025e-02 5.129758e-02 -1.219036e-01 2.577905e-01
<VARIANCE> 39
 1.582619e+01 3.887491e+01 4.022589e+01 5.606038e+01 3.402639e+01 6.194451e+01 4.238228e+01 3.748228e+01 4.328502e+01 3.352374e+01 2.823047e+01 3.558924e+01 4.185017e+01 1.704774e+00 4.249465e+00 4.212348e+00 6.349374e+00 3.689795e+00 5.315238e+00 4.439161e+00 3.894207e+00 4.007675e+00 3.627501e+00 3.352519e+00 3.808439e+00 5.021523e+00 2.975792e-01 6.882355e-01 6.361300e-01 1.154816e+00 6.974033e-01 9.173052e-01 7.884878e-01 7.428149e-01 7.101460e-01 6.722917e-01 6.642345e-01 6.588871e-01 8.359202e-01
<GCONST> 1.320802e+02
<STATE> 4
<MEAN> 39
 1.815433e+00 -2.450555e+00 -1.818905e+00 -3.303547e+00 -4.998026e+00 -3.386057e-01 -7.712460e+00 -8.534589e-01 -3.228946e+00 8.513352e-01 -3.117412e-01 -6.247473e+00 6.070768e+01 1.072603e-01 -8.825088e-01 9.150811e-01 -6.333451e-01 -5.300231e-01 -5.491515e-01 -6.422499e-01 1.073010e-01 -3.966555e-02 1.414619e-02 3.162535e-01 -3.714968e-01 1.325289e+00 -7.909902e-03 1.048405e-01 1.476081e-01 1.788944e-01 -1.141724e-01 3.835438e-02 -3.119983e-02 6.757324e-02 -8.321087e-02 -6.280641e-02 5.774679e-03 -4.048827e-02 -8.563319e-02
<VARIANCE> 39
 1.684213e+01 4.468720e+01 5.461445e+01 6.591227e+01 4.074914e+01 7.352451e+01 4.984571e+01 4.359509e+01 5.324688e+01 3.921697e+01 3.287860e+01 3.982995e+01 4.723465e+01 1.654226e+00 3.865272e+00 5.486708e+00 5.940027e+00 4.486320e+00 5.426458e+00 4.814234e+00 4.498518e+00 4.476170e+00 3.709319e+00 4.288345e+00 3.965770e+00 4.421781e+00 3.133046e-01 7.060698e-01 7.038123e-01 1.196112e+00 7.726560e-01 9.696330e-01 8.548557e-01 7.876969e-01 7.482659e-01 7.056205e-01 7.205634e-01 7.173176e-01 8.454719e-01
<GCONST> 1.357603e+02
<TRANSP> 5
 0.000000e+00 1.000000e+00 0.000000e+00 0.000000e+00 0.000000e+00
 0.000000e+00 4.741433e-01 5.258567e-01 0.000000e+00 0.000000e+00
 0.000000e+00 0.000000e+00 4.414864e-01 5.585137e-01 0.000000e+00
 0.000000e+00 0.000000e+00 0.000000e+00 4.480728e-01 5.519272e-01
 0.000000e+00 0.000000e+00 0.000000e+00 0.000000e+00 0.000000e+00
<ENDHMM>
~h "r"
<BEGINHMM>
<NUMSTATES> 5
<STATE> 2
<MEAN> 39
 2.960385e+00 -5.927907e+00 -8.416140e-01 5.968785e-01 -6.995640e+00 -4.125730e+00 -1.006773e+01 6.439309e-01 -4.554200e-02 9.919554e-01 6.158162e-01 -8.902952e+00 6.445236e+01 1.576582e-01 2.686112e-02 -2.164853e-02 4.410404e-01 -1.328524e-02 -2.589612e-02 -2.199968e-02 1.226937e-01 -1.581365e-01 -8.616598e-02 -4.278511e-02 -1.199609e-02 -2.388330e-01 -7.257027e-02 8.231369e-02 1.056876e-01 -1.728872e-01 3.253966e-02 1.048181e-01 1.043338e-01 7.840168e-03 -2.368798e-01 6.947844e-03 -1.828482e-02 3.921311e-02 -1.408331e-02
<VARIANCE> 39
 1.559522e+01 4.156430e+01 4.786771e+01 4.769667e+01 4.630605e+01 5.596153e+01 6.471754e+01 8.344691e+01 6.451468e+01 4.627299e+01 5.296516e+01 5.802985e+01 3.422713e+01 1.162426e+00 2.588868e+00 2.383634e+00 3.722770e+00 3.366560e+00 3.801159e+00 3.313849e+00 4.995182e+00 4.119712e+00 3.220814e+00 3.750672e+00 3.701447e+00 2.473585e+00 2.113725e-01 4.157877e-01 3.896430e-01 6.365340e-01 6.264124e-01 5.996091e-01 6.131721e-01 8.753352e-01 7.209732e-01 6.175799e-01 7.321786e-01 7.041902e-01 4.314402e-01
<GCONST> 1.289267e+02
<STATE> 3
<MEAN> 39
 3.093628e+00 -5.624094e+00 -7.871479e-01 1.096716e+00 -6.853294e+00 -3.876237e+00 -9.758898e+00 7.819595e-01 -7.386818e-01 9.255751e-01 3.059304e-01 -8.678410e+00 6.392453e+01 1.437770e-03 1.616265e-01 1.820392e-01 7.478991e-02 8.861468e-03 1.755866e-01 2.126127e-01 9.154468e-02 -5.474704e-01 -4.437336e-02 -1.020850e-01 8.564789e-02 -2.121444e-01 -9.040863e-02 6.591512e-02 1.080713e-01 -1.840155e-01 1.406255e-02 6.379405e-02 8.519500e-02 -2.881014e-02 -1.587857e-01 3.650689e-03 1.091194e-02 4.270031e-02 2.710804e-02
<VARIANCE> 39
 1.599646e+01 4.587883e+01 5.019740e+01 4.608721e+01 4.735142e+01 5.802078e+01 6.271124e+01 8.261212e+01 6.513042e+01 4.626396e+01 5.128466e+01 5.671032e+01 3.466885e+01 1.097791e+00 2.511043e+00 2.523131e+00 3.344508e+00 3.359867e+00 3.601644e+00 3.338065e+00 4.768369e+00 3.832412e+00 3.208699e+00 3.714131e+00 3.487324e+00 2.264575e+00 2.120785e-01 4.127979e-01 3.899707e-01 5.776237e-01 6.333442e-01 6.099487e-01 5.992314e-01 8.271630e-01 7.098442e-01 6.058877e-01 7.376160e-01 6.496176e-01 3.841721e-01
<GCONST> 1.282054e+02
<STATE> 4
<MEAN> 39
 2.883770e+00 -4.613970e+00 -5.071661e-01 1.107896e+00 -6.482829e+00 -3.091227e+00 -8.709570e+00 6.283569e-01 -2.355559e+00 1.145732e+00 -1.664238e-01 -8.008977e+00 6.302172e+01 -1.361451e-01 2.673044e-01 3.402910e-01 -1.517511e-01 1.702136e-03 2.111764e-01 2.480191e-01 -1.176450e-02 -6.275644e-01 -7.590891e-02 -4.213309e-02 1.620521e-01 -1.789423e-01 -7.398655e-02 3.436875e-02 6.583315e-02 -1.052135e-01 5.468585e-04 -2.154082e-02 2.258129e-04 -4.722994e-02 -6.824306e-03 -2.232116e-02 5.380535e-02 2.308178e-02 4.312955e-02
<VARIANCE> 39
 1.715942e+01 5.180741e+01 5.491726e+01 4.937751e+01 5.200575e+01 6.317196e+01 5.684291e+01 7.916135e+01 6.572069e+01 4.639335e+01 4.637277e+01 5.083360e+01 4.161078e+01 1.097208e+00 2.166634e+00 2.672345e+00 2.829260e+00 3.529316e+00 3.480610e+00 3.265814e+00 4.278891e+00 3.652405e+00 3.111871e+00 3.593347e+00 2.830920e+00 1.900987e+00 2.116031e-01 4.172002e-01 4.060511e-01 5.545703e-01 6.543050e-01 6.431714e-01 5.787171e-01 7.770810e-01 6.862151e-01 6.088262e-01 6.655570e-01 5.691090e-01 3.646823e-01
<GCONST> 1.273898e+02
<TRANSP> 5
 0.000000e+00 1.000000e+00 0.000000e+00 0.000000e+00 0.000000e+00
 0.000000e+00 3.807087e-01 6.192912e-01 0.000000e+00 0.000000e+00
 0.000000e+00 0.000000e+00 3.647060e-01 6.352940e-01 0.000000e+00
 0.000000e+00 0.000000e+00 0.000000e+00 3.806708e-01 6.193292e-01
 0.000000e+00 0.000000e+00 0.000000e+00 0.000000e+00 0.000000e+00
<ENDHMM>
~h "s"
<BEGINHMM>
<NUMSTATES> 5
<STATE> 2
<MEAN> 39
 -1.038836e+01 5.987213e+00 1.220735e+00 -1.682036e+00 1.936080e+00 -7.920504e+00 -2.751197e+00 -6.601088e-01 -1.466078e+00 -3.007297e+00 -9.431640e-01 -3.397087e+00 6.291752e+01 -1.671390e+00 9.962582e-01 -3.587816e-01 -2.774288e-01 9.687899e-01 -5.315322e-01 5.582665e-01 -1.179193e-01 3.405364e-01 -4.623652e-01 6.611515e-02 2.670475e-01 1.172692e-02 3.334994e-01 -3.380213e-01 6.714547e-02 -3.315137e-02 -3.495447e-01 1.557754e-01 -2.678882e-01 4.695763e-02 -1.064219e-01 8.143202e-02 4.715563e-02 -1.556550e-01 4.568648e-02
<VARIANCE> 39
 6.076929e+01 4.353647e+01 3.947439e+01 2.897670e+01 4.936770e+01 5.316035e+01 5.312777e+01 4.395251e+01 4.298719e+01 3.592329e+01 3.085912e+01 2.872113e+01 1.944818e+01 5.922881e+00 4.533016e+00 2.711809e+00 2.395852e+00 4.478572e+00 3.410039e+00 4.540421e+00 3.337692e+00 3.010936e+00 3.225032e+00 2.386374e+00 2.535843e+00 1.041105e+00 1.004308e+00 6.150707e-01 4.228845e-01 4.791411e-01 6.733674e-01 5.882298e-01 7.589790e-01 6.136406e-01 5.478668e-01 6.135622e-01 4.514537e-01 4.757848e-01 1.620030e-01
<GCONST> 1.258285e+02
<STATE> 3
<MEAN> 39
 -1.206113e+01 5.906464e+00 8.292501e-01 -2.167257e+00 2.101267e+00 -8.471247e+00 -3.061409e+00 -5.050230e-01 -8.617275e-01 -3.559258e+00 -8.408915e-01 -3.456546e+00 6.300041e+01 1.115098e+00 -8.246370e-01 1.941651e-01 -5.616471e-02 -7.001842e-01 1.122982e-01 -5.681803e-01 -9.053523e-02 -6.272016e-02 2.636906e-01 4.366367e-02 -2.251213e-01 1.033930e-01 5.740216e-01 -3.294358e-01 1.319759e-01 -5.452748e-03 -3.641007e-01 1.626450e-01 -2.223371e-01 -1.780840e-02 -1.183969e-01 1.507545e-01 4.881886e-02 -1.252037e-01 7.430042e-02
<VARIANCE> 39
 4.557912e+01 3.629815e+01 3.688472e+01 2.618694e+01 4.427541e+01 4.379603e+01 4.834351e+01 3.506184e+01 3.685495e+01 3.064862e+01 2.733256e+01 2.632521e+01 1.715895e+01 7.011600e+00 3.899283e+00 2.924019e+00 2.187815e+00 4.093187e+00 3.223637e+00 4.096199e+00 3.245066e+00 3.129376e+00 2.953609e+00 2.402725e+00 2.435092e+00 1.484930e+00 8.465270e-01 5.271798e-01 4.157583e-01 4.082031e-01 5.672499e-01 5.740598e-01 7.287337e-01 6.048512e-01 5.587440e-01 5.436407e-01 4.514238e-01 4.397069e-01 2.094374e-01
<GCONST> 1.232411e+02
<STATE> 4
<MEAN> 39
 -5.315821e+00 2.417573e+00 1.136994e+00 -1.969634e+00 -9.189239e-01 -6.555714e+00 -4.976175e+00 -6.024637e-01 -1.794873e+00 -1.643758e+00 -7.211840e-01 -4.322038e+00 6.205278e+01 1.867410e+00 -1.170047e+00 4.171554e-01 -7.168011e-02 -1.314630e+00 6.101683e-01 -7.914588e-01 -1.275328e-01 -4.004303e-01 4.442975e-01 2.199241e-01 -4.251464e-01 2.096228e-01 -2.437550e-01 9.650566e-02 5.952407e-02 -1.705969e-02 7.356508e-03 1.101625e-01 4.857827e-02 2.569306e-02 -6.787679e-02 -9.065301e-02 6.706959e-02 -2.762638e-02 8.745853e-03
<VARIANCE> 39
 4.197785e+01 4.535122e+01 5.124627e+01 3.417293e+01 5.466442e+01 5.222698e+01 5.217714e+01 4.014822e+01 4.690967e+01 3.525187e+01 3.041238e+01 2.978316e+01 4.401513e+01 3.111807e+00 3.160782e+00 3.494133e+00 2.747892e+00 3.797412e+00 3.433563e+00 4.077006e+00 3.796761e+00 3.512081e+00 2.877605e+00 2.763845e+00 2.577270e+00 2.254450e+00 6.702543e-01 4.910581e-01 4.338698e-01 4.151146e-01 6.099964e-01 5.537754e-01 7.003154e-01 6.035628e-01 6.081724e-01 5.073647e-01 4.688008e-01 4.335640e-01 3.279652e-01
<GCONST> 1.265938e+02
<TRANSP> 5
 0.000000e+00 1.000000e+00 0.000000e+00 0.000000e+00 0.000000e+00
 0.000000e+00 8.142983e-01 1.857017e-01 0.000000e+00 0.000000e+00
 0.000000e+00 0.000000e+00 7.384055e-01 2.615945e-01 0.000000e+00
 0.000000e+00 0.000000e+00 0.000000e+00 5.685575e-01 4.314426e-01
 0.000000e+00 0.000000e+00 0.000000e+00 0.000000e+00 0.000000e+00
<ENDHMM>
~h "t"
<BEGINHMM>
<NUMSTATES> 5
<STATE> 2
<MEAN> 39
 3.595241e-01 9.451946e-01 -8.791910e-01 2.955569e-01 -4.437161e+00 -1.735804e+00 -6.874361e+00 -4.332497e-01 -3.256545e+00 5.112735e-01 -1.652009e+00 -5.394331e+00 5.725242e+01 -2.224821e-01 -1.509639e-02 -3.958093e-01 -1.617225e-01 3.657174e-01 -5.478294e-02 1.640177e-01 -8.704899e-02 4.536683e-01 -1.482394e-01 -1.199304e-01 1.266447e-01 -1.122321e-01 -3.697327e-02 -2.544837e-01 1.346598e-01 -2.718312e-01 -7.067617e-03 -1.365435e-01 -1.159163e-01 4.568142e-03 7.840262e-02 -1.872049e-03 7.706759e-02 -1.268047e-01 4.241947e-01
<VARIANCE> 39
 1.458093e+01 2.974597e+01 3.986729e+01 3.984561e+01 3.506583e+01 5.215627e+01 4.268270e+01 4.355133e+01 5.199906e+01 3.431202e+01 3.379512e+01 3.677691e+01 3.845338e+01 1.373089e+00 2.576274e+00 2.153845e+00 3.693791e+00 2.887368e+00 4.504486e+00 3.652633e+00 3.251179e+00 3.768829e+00 2.968368e+00 2.590881e+00 2.817066e+00 4.558663e+00 2.744260e-01 3.824579e-01 3.825775e-01 5.938349e-01 5.672193e-01 8.954577e-01 7.202837e-01 6.484408e-01 6.865828e-01 5.682120e-01 4.861228e-01 5.452800e-01 6.353510e-01
<GCONST> 1.248199e+02
<STATE> 3
<MEAN> 39
 -5.926989e-03 3.847606e-01 -1.324569e+00 -5.014914e-01 -3.885228e+00 -2.079433e+00 -6.876005e+00 -4.487836e-01 -2.259173e+00 2.570414e-01 -1.767039e+00 -5.489549e+00 5.789853e+01 -2.028038e-01 -3.943146e-01 -1.248261e-01 -5.677149e-01 2.763911e-01 -2.084014e-01 -6.026480e-02 -5.028975e-02 4.828046e-01 -1.581418e-01 4.869032e-02 -1.082752e-01 5.826703e-01 3.700205e-02 -1.781677e-01 1.764187e-01 -1.848151e-01 -9.179711e-02 -6.830603e-02 -1.611175e-01 -5.526132e-04 -4.955380e-02 3.144654e-02 1.188843e-01 -1.247277e-01 3.447999e-01
<VARIANCE> 39
 1.597398e+01 3.101884e+01 3.654130e+01 4.284792e+01 3.429861e+01 5.086520e+01 4.264311e+01 4.103049e+01 5.247389e+01 3.305262e+01 3.279907e+01 3.698930e+01 4.221732e+01 1.674228e+00 2.928268e+00 2.391474e+00 4.181936e+00 3.037335e+00 4.779276e+00 4.183813e+00 3.716040e+00 4.160405e+00 3.090261e+00 2.751291e+00 3.302068e+00 5.002680e+00 3.339825e-01 4.286215e-01 4.341165e-01 6.498110e-01 6.145275e-01 9.698998e-01 8.057430e-01 6.989827e-01 7.645756e-01 5.904854e-01 5.116391e-01 6.005384e-01 7.061027e-01
<GCONST> 1.275304e+02
<STATE> 4
<MEAN> 39
 -7.486520e-01 1.415274e+00 -1.657985e+00 3.456717e-01 -3.654310e+00 -7.128482e-01 -6.110339e+00 1.652920e-02 -2.122053e+00 -3.168386e-01 -1.615293e+00 -4.427861e+00 5.608852e+01 -1.269467e-01 -3.367970e-01 1.778153e-01 -4.755831e-01 9.559656e-02 -2.146314e-01 -1.657069e-01 -9.576559e-02 2.201280e-01 -8.168809e-02 1.881911e-01 -1.417947e-01 6.421835e-01 7.169829e-02 -7.284755e-02 1.567470e-01 -7.976101e-02 -1.195376e-01 -1.494364e-02 -1.541651e-01 -4.741194e-02 -9.626523e-02 5.886658e-02 9.731003e-02 -8.811124e-02 1.749659e-01
<VARIANCE> 39
 1.638648e+01 3.621925e+01 3.865269e+01 4.685090e+01 3.136843e+01 5.083430e+01 3.589960e+01 3.903402e+01 4.349183e+01 3.044872e+01 2.960979e+01 3.598425e+01 5.630649e+01 1.449587e+00 2.275023e+00 2.457220e+00 3.304148e+00 2.780653e+00 3.975754e+00 3.688531e+00 3.531879e+00 3.482211e+00 2.724725e+00 2.589186e+00 2.858390e+00 3.308401e+00 2.734654e-01 3.486783e-01 4.119531e-01 5.504611e-01 5.471448e-01 7.376143e-01 6.792092e-01 6.283070e-01 6.622926e-01 5.283358e-01 4.821946e-01 5.068328e-01 5.286583e-01
<GCONST> 1.233911e+02
<TRANSP> 5
 0.000000e+00 1.000000e+00 0.000000e+00 0.000000e+00 0.000000e+00
 0.000000e+00 4.209226e-01 5.790774e-01 0.000000e+00 0.000000e+00
 0.000000e+00 0.000000e+00 4.067490e-01 5.932510e-01 0.000000e+00
 0.000000e+00 0.000000e+00 0.000000e+00 6.011094e-01 3.988907e-01
 0.000000e+00 0.000000e+00 0.000000e+00 0.000000e+00 0.000000e+00
<ENDHMM>
~h "u"
<BEGINHMM>
<NUMSTATES> 5
<STATE> 2
<MEAN> 39
 3.588751e+00 1.791461e+00 1.265708e+00 -5.711607e+00 -7.506476e+00 1.929741e+00 -1.368418e+01 -6.048398e+00 -6.506124e+00 6.036981e-01 3.432754e+00 -5.663378e+00 6.165639e+01 3.411514e-01 6.437059e-02 8.470535e-02 -3.755946e-01 -2.520640e-01 4.188787e-01 -5.779079e-01 -4.101297e-01 -2.722926e-01 1.460780e-01 4.078766e-01 -2.102354e-02 1.957920e-01 -1.048090e-01 -1.461666e-02 -1.447281e-03 2.793520e-01 7.050720e-02 -5.144469e-02 2.652367e-01 1.793693e-01 6.542319e-02 -3.238263e-02 -1.994149e-01 -9.422397e-03 -1.439004e-01
<VARIANCE> 39
 1.874883e+01 3.224659e+01 3.585126e+01 7.602168e+01 6.105581e+01 6.046323e+01 7.706644e+01 5.944749e+01 5.955632e+01 5.167153e+01 6.204559e+01 3.999536e+01 2.530883e+01 1.473716e+00 2.163325e+00 2.435993e+00 5.572004e+00 4.111545e+00 4.458987e+00 6.498380e+00 4.454790e+00 4.784057e+00 4.085333e+00 4.916826e+00 3.299988e+00 2.453923e+00 3.004251e-01 3.554361e-01 3.874898e-01 8.674579e-01 7.911820e-01 8.611701e-01 1.124201e+00 8.015546e-01 8.871264e-01 7.722525e-01 8.660504e-01 6.020139e-01 3.387311e-01
<GCONST> 1.324870e+02
<STATE> 3
<MEAN> 39
 4.130635e+00 1.921059e+00 1.244600e+00 -5.381802e+00 -7.983890e+00 2.666521e+00 -1.373586e+01 -6.165658e+00 -6.858837e+00 8.365692e-01 3.466724e+00 -5.563004e+00 6.143873e+01 -9.093108e-03 4.650630e-02 2.886930e-02 4.187710e-01 5.963470e-02 6.033665e-02 2.638610e-01 1.086564e-01 -6.594393e-03 3.781192e-02 -2.652673e-01 1.730738e-02 -2.090072e-01 -1.579973e-01 -2.821363e-02 1.130258e-02 2.045151e-01 1.171504e-01 -1.594062e-01 2.550802e-01 1.840977e-01 1.084191e-01 -6.922829e-02 -1.969089e-01 -8.624536e-03 -7.215992e-02
<VARIANCE> 39
 1.377566e+01 3.478327e+01 3.417294e+01 7.539818e+01 5.671080e+01 5.823339e+01 7.278859e+01 5.821290e+01 5.554869e+01 5.198997e+01 6.260022e+01 4.256630e+01 2.706775e+01 1.090862e+00 2.080175e+00 2.162553e+00 4.500335e+00 3.594205e+00 3.936877e+00 5.131877e+00 3.934354e+00 4.075582e+00 3.804329e+00 4.098449e+00 3.142546e+00 1.946828e+00 2.007216e-01 3.360285e-01 3.445598e-01 7.667748e-01 6.732637e-01 7.090457e-01 9.625774e-01 7.417863e-01 7.260402e-01 7.241487e-01 8.014199e-01 5.800984e-01 2.926441e-01
<GCONST> 1.282834e+02
<STATE> 4
<MEAN> 39
 3.697537e+00 3.186733e+00 5.014138e-01 -3.597705e+00 -7.092327e+00 2.519252e+00 -1.107566e+01 -4.499807e+00 -7.413745e+00 6.301094e-01 1.871678e+00 -4.425442e+00 5.916152e+01 -2.789400e-01 -2.303335e-02 2.297926e-02 6.461239e-01 2.496962e-01 -1.989385e-01 5.227971e-01 3.082295e-01 2.404716e-01 -6.417197e-02 -4.362720e-01 1.699083e-02 -2.695712e-01 -9.217737e-02 -6.821426e-02 2.989513e-02 -3.993800e-02 3.382023e-02 -1.021843e-01 -1.148328e-03 6.966837e-02 7.215618e-02 -3.813527e-02 9.138912e-03 -2.318569e-02 7.688754e-02
<VARIANCE> 39
 1.463511e+01 4.028381e+01 3.243164e+01 7.708351e+01 5.207150e+01 5.366483e+01 6.228931e+01 5.074330e+01 5.324726e+01 4.869293e+01 5.372495e+01 4.263203e+01 3.813323e+01 8.433497e-01 1.736713e+00 1.871922e+00 3.143221e+00 3.006041e+00 3.118371e+00 3.573153e+00 3.319293e+00 3.151838e+00 3.044486e+00 3.066771e+00 2.535481e+00 1.388842e+00 1.714972e-01 3.031915e-01 2.971880e-01 5.842353e-01 5.561185e-01 5.694010e-01 7.074660e-01 6.444200e-01 5.941972e-01 6.092595e-01 5.993401e-01 4.713516e-01 2.459358e-01
<GCONST> 1.222927e+02
<TRANSP> 5
 0.000000e+00 1.000000e+00 0.000000e+00 0.000000e+00 0.000000e+00
 0.000000e+00 5.301980e-01 4.698020e-01 0.000000e+00 0.000000e+00
 0.000000e+00 0.000000e+00 4.920310e-01 5.079690e-01 0.000000e+00
 0.000000e+00 0.000000e+00 0.000000e+00 5.959771e-01 4.040229e-01
 0.000000e+00 0.000000e+00 0.000000e+00 0.000000e+00 0.000000e+00
<ENDHMM>
~h "v"
<BEGINHMM>
<NUMSTATES> 5
<STATE> 2
<MEAN> 39
 7.903662e-04 -6.079456e-01 1.670089e+00 -6.705837e-01 -5.929818e+00 -8.820225e-01 -6.906881e+00 5.931143e-01 -4.574426e+00 -3.940755e-01 -3.854154e-01 -5.847453e+00 5.993814e+01 5.024984e-04 -6.478592e-05 9.522401e-04 -6.048587e-04 -1.305029e-03 -9.148303e-04 -9.999124e-04 -6.995694e-04 3.150678e-04 8.832195e-04 -1.229102e-04 -1.829845e-05 4.304752e-04 -1.024714e-04 5.090495e-05 -4.314321e-05 5.499199e-04 2.475645e-04 2.544455e-04 -3.161734e-04 -1.009587e-04 -7.179174e-05 -5.594532e-04 -1.336834e-04 -6.698545e-06 -3.952787e-04
<VARIANCE> 39
 2.681136e+01 5.325134e+01 6.824250e+01 5.887592e+01 6.062508e+01 6.608533e+01 5.928268e+01 6.068991e+01 5.916120e+01 4.597362e+01 4.705821e+01 4.804106e+01 6.619385e+01 1.372020e+00 2.288023e+00 2.566274e+00 2.987463e+00 3.078158e+00 3.116328e+00 3.250192e+00 3.738113e+00 3.266875e+00 2.829993e+00 2.967949e+00 2.476121e+00 2.021681e+00 2.264445e-01 3.584008e-01 4.122588e-01 5.086471e-01 5.519696e-01 5.562619e-01 5.942494e-01 6.847889e-01 5.904057e-01 5.307208e-01 5.528100e-01 4.553457e-01 3.018115e-01
<GCONST> 1.265182e+02
<STATE> 3
<MEAN> 39
 7.903662e-04 -6.079456e-01 1.670089e+00 -6.705837e-01 -5.929818e+00 -8.820225e-01 -6.906881e+00 5.931143e-01 -4.574426e+00 -3.940755e-01 -3.854154e-01 -5.847453e+00 5.993814e+01 5.024984e-04 -6.478592e-05 9.522401e-04 -6.048587e-04 -1.305029e-03 -9.148303e-04 -9.999124e-04 -6.995694e-04 3.150678e-04 8.832195e-04 -1.229102e-04 -1.829845e-05 4.304752e-04 -1.024714e-04 5.090495e-05 -4.314321e-05 5.499199e-04 2.475645e-04 2.544455e-04 -3.161734e-04 -1.009587e-04 -7.179174e-05 -5.594532e-04 -1.336834e-04 -6.698545e-06 -3.952787e-04
<VARIANCE> 39
 2.681136e+01 5.325134e+01 6.824250e+01 5.887592e+01 6.062508e+01 6.608533e+01 5.928268e+01 6.068991e+01 5.916120e+01 4.597362e+01 4.705821e+01 4.804106e+01 6.619385e+01 1.372020e+00 2.288023e+00 2.566274e+00 2.987463e+00 3.078158e+00 3.116328e+00 3.250192e+00 3.738113e+00 3.266875e+00 2.829993e+00 2.967949e+00 2.476121e+00 2.021681e+00 2.264445e-01 3.584008e-01 4.122588e-01 5.086471e-01 5.519696e-01 5.562619e-01 5.942494e-01 6.847889e-01 5.904057e-01 5.307208e-01 5.528100e-01 4.553457e-01 3.018115e-01
<GCONST> 1.265182e+02
<STATE> 4
<MEAN> 39
 7.903662e-04 -6.079456e-01 1.670089e+00 -6.705837e-01 -5.929818e+00 -8.820225e-01 -6.906881e+00 5.931143e-01 -4.574426e+00 -3.940755e-01 -3.854154e-01 -5.847453e+00 5.993814e+01 5.024984e-04 -6.478592e-05 9.522401e-04 -6.048587e-04 -1.305029e-03 -9.148303e-04 -9.999124e-04 -6.995694e-04 3.150678e-04 8.832195e-04 -1.229102e-04 -1.829845e-05 4.304752e-04 -1.024714e-04 5.090495e-05 -4.314321e-05 5.499199e-04 2.475645e-04 2.544455e-04 -3.161734e-04 -1.009587e-04 -7.179174e-05 -5.594532e-04 -1.336834e-04 -6.698545e-06 -3.952787e-04
<VARIANCE> 39
 2.681136e+01 5.325134e+01 6.824250e+01 5.887592e+01 6.062508e+01 6.608533e+01 5.928268e+01 6.068991e+01 5.916120e+01 4.597362e+01 4.705821e+01 4.804106e+01 6.619385e+01 1.372020e+00 2.288023e+00 2.566274e+00 2.987463e+00 3.078158e+00 3.116328e+00 3.250192e+00 3.738113e+00 3.266875e+00 2.829993e+00 2.967949e+00 2.476121e+00 2.021681e+00 2.264445e-01 3.584008e-01 4.122588e-01 5.086471e-01 5.519696e-01 5.562619e-01 5.942494e-01 6.847889e-01 5.904057e-01 5.307208e-01 5.528100e-01 4.553457e-01 3.018115e-01
<GCONST> 1.265182e+02
<TRANSP> 5
 0.000000e+00 1.000000e+00 0.000000e+00 0.000000e+00 0.000000e+00
 0.000000e+00 6.000000e-01 4.000000e-01 0.000000e+00 0.000000e+00
 0.000000e+00 0.000000e+00 6.000000e-01 4.000000e-01 0.000000e+00
 0.000000e+00 0.000000e+00 0.000000e+00 7.000000e-01 3.000000e-01
 0.000000e+00 0.000000e+00 0.000000e+00 0.000000e+00 0.000000e+00
<ENDHMM>
~h "w"
<BEGINHMM>
<NUMSTATES> 5
<STATE> 2
<MEAN> 39
 -5.778823e-01 2.262055e+00 -1.877496e+00 2.521453e+00 -5.262682e+00 4.267735e+00 -4.240381e+00 6.593066e-01 -3.695429e+00 -1.233238e+00 9.213656e-02 -2.717268e+00 5.322109e+01 8.656098e-02 1.663273e-01 -1.666938e-01 -2.700658e-01 -3.305761e-02 2.457601e-01 7.660130e-02 4.420725e-03 -2.049638e-01 5.241899e-02 2.710637e-01 1.806669e-01 -8.781466e-02 -4.428784e-03 -4.199269e-02 1.813952e-02 -5.467488e-02 2.276848e-02 -4.121057e-02 -5.449733e-02 3.185754e-02 8.793349e-03 -6.866306e-03 -2.900965e-03 -3.001534e-02 5.745972e-02
<VARIANCE> 39
 1.775146e+01 4.245697e+01 2.860526e+01 7.160612e+01 3.182681e+01 2.511558e+01 4.208988e+01 4.385695e+01 2.831179e+01 3.590221e+01 3.560729e+01 4.173800e+01 6.525542e+01 5.498536e-01 1.072685e+00 1.144662e+00 2.454794e+00 1.379790e+00 1.343972e+00 1.825187e+00 1.815048e+00 2.177668e+00 2.157637e+00 2.106767e+00 1.929304e+00 8.955861e-01 7.279709e-02 1.822323e-01 1.797475e-01 3.504547e-01 2.278239e-01 2.700131e-01 3.278051e-01 3.230537e-01 3.915671e-01 4.137911e-01 3.709903e-01 3.381263e-01 1.066661e-01
<GCONST> 1.054427e+02
<STATE> 3
<MEAN> 39
 2.218150e+00 7.364954e-01 -3.116159e+00 -4.395175e+00 -7.185629e+00 6.097664e+00 -6.827480e+00 -1.533308e+00 -4.418319e+00 3.930226e-01 3.340082e+00 -5.001733e+00 5.784186e+01 2.064129e-01 -4.842506e-02 -1.392156e-01 -8.183960e-01 -2.801379e-02 3.368126e-01 -2.427590e-01 -1.564102e-02 -2.519883e-01 1.363249e-01 3.932068e-01 -1.743453e-02 3.393427e-01 -7.175742e-02 -1.406394e-01 4.739010e-02 7.458112e-02 8.602095e-02 -4.860570e-02 -5.425026e-02 7.918523e-02 1.050720e-01 3.411368e-02 -8.521837e-02 -1.275546e-01 6.470402e-02
<VARIANCE> 39
 2.281219e+01 4.362241e+01 2.711306e+01 1.103357e+02 4.892902e+01 3.633870e+01 5.399159e+01 4.212726e+01 3.439813e+01 3.944324e+01 4.465816e+01 4.932366e+01 7.410033e+01 9.388615e-01 1.937560e+00 9.781855e-01 4.564024e+00 1.854736e+00 1.859715e+00 2.530987e+00 1.981017e+00 2.496261e+00 2.011008e+00 2.688159e+00 3.322468e+00 2.132212e+00 1.141713e-01 2.706188e-01 1.576513e-01 4.687547e-01 2.936493e-01 3.267545e-01 4.135347e-01 3.639254e-01 4.500048e-01 3.835514e-01 4.430921e-01 4.944271e-01 1.464493e-01
<GCONST> 1.150011e+02
<STATE> 4
<MEAN> 39
 2.384826e+00 -1.715988e-03 -3.638898e+00 -7.582329e+00 -5.287498e+00 6.783867e+00 -8.372965e+00 -9.701912e-01 -3.392127e+00 9.599299e-01 2.064440e+00 -6.506677e+00 5.946207e+01 -7.578640e-02 -1.080059e-01 -3.297329e-02 1.139184e-01 1.595070e-01 -7.168501e-02 6.945069e-02 7.383026e-02 6.870260e-02 1.011699e-03 -1.108067e-01 -1.070406e-01 3.459129e-02 -2.083996e-02 5.369033e-03 1.640539e-02 8.324049e-02 1.553142e-02 -5.431337e-02 2.949872e-02 8.278970e-03 2.409406e-02 -1.457740e-02 -4.276976e-02 6.064808e-03 -2.705654e-02
<VARIANCE> 39
 1.665896e+01 4.645771e+01 1.885979e+01 1.273566e+02 5.269382e+01 4.185641e+01 4.875942e+01 4.040477e+01 4.130155e+01 4.845534e+01 6.136018e+01 6.766174e+01 7.371746e+01 4.921411e-01 1.596932e+00 8.159439e-01 2.792915e+00 1.728546e+00 1.789451e+00 1.957931e+00 1.981685e+00 2.101728e+00 2.267143e+00 2.372577e+00 2.810868e+00 1.296120e+00 7.685911e-02 2.112823e-01 1.529100e-01 4.087765e-01 2.744825e-01 3.073601e-01 3.134410e-01 3.398382e-01 3.637364e-01 4.105034e-01 4.022016e-01 4.272035e-01 1.355242e-01
<GCONST> 1.111498e+02
<TRANSP> 5
 0.000000e+00 1.000000e+00 0.000000e+00 0.000000e+00 0.000000e+00
 0.000000e+00 8.221999e-01 1.778001e-01 0.000000e+00 0.000000e+00
 0.000000e+00 0.000000e+00 6.683829e-01 3.316171e-01 0.000000e+00
 0.000000e+00 0.000000e+00 0.000000e+00 9.368078e-01 6.319223e-02
 0.000000e+00 0.000000e+00 0.000000e+00 0.000000e+00 0.000000e+00
<ENDHMM>
~h "y"
<BEGINHMM>
<NUMSTATES> 5
<STATE> 2
<MEAN> 39
 -1.616907e+00 -5.652674e+00 1.266600e+01 -5.025086e+00 -1.475613e+01 -7.727593e+00 -9.806490e+00 6.056407e+00 -5.799634e+00 -3.828396e+00 4.878152e+00 -7.200550e+00 6.784660e+01 -3.941528e-03 -3.153587e-01 2.722338e-01 -2.034440e-01 -3.634048e-01 -3.878962e-01 9.387586e-02 6.144980e-01 -2.939923e-03 1.153881e-02 1.914625e-01 1.120875e-01 2.929398e-01 6.847012e-02 8.659878e-03 -2.987919e-01 5.755597e-02 2.086803e-01 1.241539e-01 2.144258e-02 -9.166085e-02 9.728830e-02 8.077385e-02 -1.880358e-01 -9.535433e-02 -7.387117e-02
<VARIANCE> 39
 8.843576e+00 4.530726e+01 8.178828e+01 3.214709e+01 5.393422e+01 5.432213e+01 6.294131e+01 7.077126e+01 6.226252e+01 6.506274e+01 5.069861e+01 4.007109e+01 3.384251e+01 4.884799e-01 1.704931e+00 4.539537e+00 1.422978e+00 2.859912e+00 2.690337e+00 2.695373e+00 3.668700e+00 2.824931e+00 2.231233e+00 2.920286e+00 2.218493e+00 1.108776e+00 7.329478e-02 2.095541e-01 5.095499e-01 2.389312e-01 4.432611e-01 4.306571e-01 4.207931e-01 6.205894e-01 4.227363e-01 3.944091e-01 4.560387e-01 3.481186e-01 1.240347e-01
<GCONST> 1.162019e+02
<STATE> 3
<MEAN> 39
 -1.093484e+00 -7.125339e+00 1.075043e+01 -5.226542e+00 -1.466354e+01 -8.254362e+00 -9.276247e+00 8.227691e+00 -4.478413e+00 -3.478078e+00 4.319367e+00 -7.822877e+00 6.856187e+01 2.137207e-01 -2.890978e-01 -7.999545e-01 3.260743e-02 4.717616e-01 1.442771e-01 3.239927e-01 3.316194e-01 3.023944e-01 1.525466e-01 -5.710325e-01 -2.779542e-01 3.626396e-03 5.122618e-02 8.704432e-02 -1.895794e-01 9.060685e-02 2.009421e-01 1.688042e-01 1.495538e-02 -2.023004e-01 2.236229e-03 4.271773e-02 -1.604820e-01 -5.692439e-02 -1.218704e-01
<VARIANCE> 39
 7.853054e+00 3.726491e+01 6.420491e+01 3.136563e+01 5.443361e+01 5.285231e+01 6.015516e+01 7.152529e+01 5.400510e+01 6.232387e+01 5.457509e+01 4.350081e+01 3.089316e+01 3.465706e-01 1.532500e+00 3.317005e+00 1.267008e+00 2.660709e+00 2.423935e+00 2.172641e+00 3.781978e+00 2.662341e+00 2.097977e+00 2.920087e+00 2.076690e+00 1.006312e+00 5.923587e-02 1.863412e-01 4.336964e-01 2.014784e-01 4.079616e-01 3.835122e-01 3.703043e-01 6.437129e-01 3.951309e-01 3.727644e-01 4.483286e-01 3.459480e-01 1.071918e-01
<GCONST> 1.126767e+02
<STATE> 4
<MEAN> 39
 -4.745820e-01 -3.714904e+00 2.762267e+00 -1.377171e+00 -7.186043e+00 -3.198976e+00 -4.660514e+00 5.977458e+00 -3.867254e+00 -1.604358e+00 -1.677959e+00 -5.516422e+00 6.133067e+01 1.146799e-01 1.997557e-01 -4.857081e-01 2.863137e-01 4.398636e-01 3.444510e-01 1.182433e-01 -2.149898e-01 8.039188e-02 1.074182e-01 -3.408004e-01 -1.064580e-02 -4.059415e-01 2.312779e-03 6.408104e-02 3.208295e-02 4.772276e-02 -2.212886e-02 3.233784e-02 -4.336578e-02 -1.167311e-01 -3.265766e-02 3.210915e-02 3.773011e-02 2.707291e-02 -4.701650e-02
<VARIANCE> 39
 8.962965e+00 5.498333e+01 5.289198e+01 5.932372e+01 4.749448e+01 6.338388e+01 4.219104e+01 5.622863e+01 4.747996e+01 4.799341e+01 4.165702e+01 4.423560e+01 8.826917e+01 3.520139e-01 1.068446e+00 1.699453e+00 1.198074e+00 1.828531e+00 1.851368e+00 1.782142e+00 2.636371e+00 1.937017e+00 1.913622e+00 2.059391e+00 1.701381e+00 7.039062e-01 5.734139e-02 1.635270e-01 2.478230e-01 2.084924e-01 3.047160e-01 3.351640e-01 3.190116e-01 4.906322e-01 3.342354e-01 3.408464e-01 3.371226e-01 3.027556e-01 9.219138e-02
<GCONST> 1.075467e+02
<TRANSP> 5
 0.000000e+00 1.000000e+00 0.000000e+00 0.000000e+00 0.000000e+00
 0.000000e+00 7.088422e-01 2.911578e-01 0.000000e+00 0.000000e+00
 0.000000e+00 0.000000e+00 6.956124e-01 3.043875e-01 0.000000e+00
 0.000000e+00 0.000000e+00 0.000000e+00 8.096130e-01 1.903870e-01
 0.000000e+00 0.000000e+00 0.000000e+00 0.000000e+00 0.000000e+00
<ENDHMM>
~h "z"
<BEGINHMM>
<NUMSTATES> 5
<STATE> 2
<MEAN> 39
 1.307447e+00 8.113834e+00 1.117019e+01 2.245160e+00 -7.474164e+00 -6.785060e+00 -6.729942e+00 -2.887372e+00 -9.267550e+00 3.996364e-01 -1.067144e+00 -3.722817e+00 5.851408e+01 4.466918e-02 3.020277e-01 1.626319e-01 -3.151755e-01 1.630100e-01 7.071742e-01 -5.306008e-01 -2.448081e-01 -3.200524e-01 -7.197206e-02 5.899458e-01 -2.211019e-02 -1.278972e-01 -4.306442e-02 -1.155748e-01 6.098026e-02 -1.741906e-01 -4.507345e-02 9.459562e-02 -7.891838e-02 6.244642e-02 8.562528e-02 2.120542e-02 -8.419908e-02 5.863956e-02 4.662609e-02
<VARIANCE> 39
 8.569448e+00 3.712187e+01 5.069617e+01 5.356887e+01 1.427225e+01 3.514592e+01 8.915823e+01 3.279709e+01 4.089194e+01 5.668959e+01 1.864702e+01 2.227075e+01 2.377397e+01 7.648752e-01 2.466699e+00 3.643916e+00 4.187121e+00 1.588655e+00 1.997635e+00 2.168743e+00 3.037986e+00 2.461489e+00 2.545026e+00 2.202785e+00 1.449789e+00 7.957586e-01 1.071044e-01 3.239853e-01 3.958069e-01 3.721922e-01 2.884129e-01 3.395892e-01 2.327164e-01 2.817122e-01 3.809940e-01 4.674175e-01 4.722692e-01 2.185227e-01 8.823346e-02
<GCONST> 1.089101e+02
<STATE> 3
<MEAN> 39
 9.053483e-01 2.287845e+00 1.174713e+01 -7.821153e+00 -6.123016e+00 -1.090599e+00 -1.708600e+01 -2.427726e+00 -5.983861e+00 6.226480e+00 -6.803378e-01 -6.213013e+00 6.348000e+01 -1.111568e-01 -9.044017e-02 1.795678e-01 -7.481856e-01 -8.946710e-02 9.763412e-01 -3.252154e-01 -1.440997e-01 -9.777628e-03 2.151345e-01 2.429873e-01 4.742475e-01 -1.248708e-02 7.033875e-02 -3.720217e-02 -3.346559e-01 1.950729e-01 -4.214260e-02 -1.616710e-01 1.370980e-01 4.808106e-01 5.226577e-02 3.235028e-02 -1.674575e-01 9.650404e-02 -8.166298e-02
<VARIANCE> 39
 5.836023e+00 7.117886e+00 1.239100e+02 6.523022e+01 1.949427e+01 8.602407e+01 5.861758e+01 2.293132e+01 5.228424e+01 2.946861e+01 8.321913e+00 1.386181e+01 1.385679e+01 5.262148e-01 1.427803e+00 2.205813e+00 1.886008e+00 1.271541e+00 3.018295e+00 2.295840e+00 2.658956e+00 2.508388e+00 2.391443e+00 1.681041e+00 1.049811e+00 7.988151e-01 1.016369e-01 2.705256e-01 3.616141e-01 3.672548e-01 3.088865e-01 5.215683e-01 3.979346e-01 2.422531e-01 3.749012e-01 5.236300e-01 2.055665e-01 2.172723e-01 9.421933e-02
<GCONST> 1.032987e+02
<STATE> 4
<MEAN> 39
 -6.758224e-01 5.622275e+00 8.485085e+00 -4.696002e+00 -5.572858e+00 7.946433e+00 -1.002031e+01 -1.611402e+00 -5.603851e+00 -1.563059e+00 -5.695081e+00 -5.707822e+00 5.549296e+01 1.050182e-01 3.056499e-01 -4.737459e-01 5.964645e-01 2.910409e-02 -1.139749e-01 3.510588e-01 1.446951e-01 5.278976e-02 -1.219961e-01 -1.480022e-01 1.111627e-01 -3.736836e-01 -1.180853e-02 4.003492e-02 7.751215e-03 7.991143e-02 -1.745210e-02 -2.569228e-02 7.865464e-02 6.230764e-03 3.240152e-03 -2.380403e-02 4.838649e-04 -1.085754e-02 -3.249021e-02
<VARIANCE> 39
 6.194934e+00 2.658343e+01 7.890006e+01 1.044156e+02 9.217423e+00 6.217802e+01 5.957241e+01 1.863082e+01 2.074141e+01 4.014265e+01 2.302042e+01 2.203825e+01 5.294050e+01 3.880424e-01 8.682836e-01 1.286797e+00 1.143799e+00 6.705306e-01 1.514796e+00 1.547139e+00 1.544698e+00 1.536178e+00 1.190467e+00 1.781523e+00 1.724484e+00 5.152246e-01 4.723724e-02 1.542929e-01 1.717274e-01 1.709538e-01 1.404468e-01 2.363358e-01 2.468357e-01 2.659184e-01 2.452606e-01 2.407536e-01 3.211752e-01 2.366246e-01 4.078223e-02
<GCONST> 9.414746e+01
<TRANSP> 5
 0.000000e+00 1.000000e+00 0.000000e+00 0.000000e+00 0.000000e+00
 0.000000e+00 8.625686e-01 1.374314e-01 0.000000e+00 0.000000e+00
 0.000000e+00 0.000000e+00 5.819900e-01 4.180100e-01 0.000000e+00
 0.000000e+00 0.000000e+00 0.000000e+00 9.208289e-01 7.917108e-02
 0.000000e+00 0.000000e+00 0.000000e+00 0.000000e+00 0.000000e+00
<ENDHMM>
~h "aw"
<BEGINHMM>
<NUMSTATES> 5
<STATE> 2
<MEAN> 39
 2.022112e+00 -2.733060e+00 6.309004e-01 -9.732619e+00 -6.054104e+00 1.915993e+00 -1.046625e+01 -4.985576e+00 3.269458e-02 3.643908e+00 2.523693e+00 -8.664418e+00 6.517647e+01 3.146538e-01 -3.658610e-01 5.344122e-01 -7.923041e-01 -7.768596e-01 -6.353921e-02 -7.538260e-01 -5.158509e-01 3.217396e-01 5.181810e-01 8.562604e-01 -3.512689e-01 1.036711e+00 9.381019e-02 1.253348e-01 -1.387955e-01 2.670765e-01 1.488005e-03 1.958477e-01 1.834044e-02 1.193673e-01 -2.295443e-01 -3.405109e-02 -1.528040e-01 9.116992e-02 -2.276495e-01
<VARIANCE> 39
 1.978800e+01 4.167406e+01 3.365974e+01 5.265960e+01 8.652432e+01 6.439582e+01 5.976160e+01 3.983557e+01 5.624932e+01 5.485805e+01 3.246058e+01 4.958658e+01 3.235108e+01 1.862544e+00 2.528502e+00 2.196118e+00 6.759759e+00 4.001178e+00 4.235685e+00 5.463139e+00 4.222410e+00 4.222219e+00 2.941200e+00 3.997167e+00 4.421261e+00 4.450363e+00 4.639891e-01 4.616915e-01 3.897203e-01 8.898335e-01 9.183349e-01 8.294715e-01 9.546837e-01 7.988630e-01 7.372082e-01 5.595326e-01 7.897170e-01 7.465876e-01 5.619165e-01
<GCONST> 1.331347e+02
<STATE> 3
<MEAN> 39
 3.503733e+00 -3.470138e+00 2.111560e+00 -9.484217e+00 -9.322618e+00 3.211598e+00 -1.250998e+01 -6.408234e+00 9.097099e-03 5.034023e+00 3.758907e+00 -8.352069e+00 6.657814e+01 3.089935e-01 -5.762422e-02 1.795838e-01 2.924801e-01 -3.946018e-01 3.310471e-01 -3.560483e-01 -2.910236e-02 -3.370648e-01 4.785794e-02 3.934269e-02 1.355084e-01 5.331324e-02 -8.534406e-02 1.414502e-01 -4.233802e-02 2.685362e-01 1.689931e-01 -7.349865e-02 1.774862e-01 1.162388e-01 -1.343398e-01 -1.437279e-01 -2.451508e-01 1.431665e-01 -2.580214e-01
<VARIANCE> 39
 1.081522e+01 3.789025e+01 3.188916e+01 5.048887e+01 6.856696e+01 5.987993e+01 6.595260e+01 6.263993e+01 8.157574e+01 5.426993e+01 3.566096e+01 5.770542e+01 2.500539e+01 1.182421e+00 2.247448e+00 2.197183e+00 4.571941e+00 4.070840e+00 3.877761e+00 5.384058e+00 5.089225e+00 4.469193e+00 3.484838e+00 4.272397e+00 4.257828e+00 2.433153e+00 2.186340e-01 3.956052e-01 3.541205e-01 8.572102e-01 7.185454e-01 7.170259e-01 9.673167e-01 8.660531e-01 8.179731e-01 5.992315e-01 8.625472e-01 8.593107e-01 4.303800e-01
<GCONST> 1.305216e+02
<STATE> 4
<MEAN> 39
 3.726149e+00 -3.755885e+00 3.968505e+00 -6.723035e+00 -1.098641e+01 3.961757e+00 -1.382441e+01 -5.365469e+00 -1.264085e+00 3.676637e+00 3.624537e+00 -9.087362e+00 6.553325e+01 -3.294465e-02 1.875969e-02 2.161941e-01 6.787708e-01 4.371827e-02 -3.892050e-01 -3.827177e-04 4.758941e-01 -1.831953e-01 -3.685013e-01 -2.352590e-01 -1.350065e-01 -1.922034e-01 -8.275002e-02 9.005795e-03 5.572466e-03 6.777370e-02 8.325183e-02 -1.533353e-01 1.078256e-01 8.501608e-02 -1.883524e-02 8.226205e-03 -3.208804e-02 -2.691891e-02 -2.529045e-02
<VARIANCE> 39
 9.772951e+00 4.101392e+01 3.613553e+01 4.504115e+01 3.882686e+01 5.896519e+01 9.014287e+01 7.615793e+01 7.982268e+01 4.681678e+01 5.222433e+01 6.710548e+01 3.073141e+01 1.130910e+00 2.384359e+00 2.439377e+00 4.457856e+00 3.320191e+00 3.962181e+00 6.728259e+00 5.272344e+00 4.728396e+00 3.076931e+00 6.392826e+00 5.280772e+00 2.481377e+00 2.128791e-01 4.020387e-01 3.872057e-01 7.776402e-01 6.500001e-01 8.019573e-01 1.284126e+00 1.041707e+00 7.874159e-01 5.025861e-01 1.299616e+00 1.015211e+00 4.080240e-01
<GCONST> 1.325132e+02
<TRANSP> 5
 0.000000e+00 1.000000e+00 0.000000e+00 0.000000e+00 0.000000e+00
 0.000000e+00 7.104271e-01 2.895730e-01 0.000000e+00 0.000000e+00
 0.000000e+00 0.000000e+00 7.114971e-01 2.885029e-01 0.000000e+00
 0.000000e+00 0.000000e+00 0.000000e+00 8.478076e-01 1.521924e-01
 0.000000e+00 0.000000e+00 0.000000e+00 0.000000e+00 0.000000e+00
<ENDHMM>
~h "ay"
<BEGINHMM>
<NUMSTATES> 5
<STATE> 2
<MEAN> 39
 3.627843e-01 -1.127073e+01 7.467581e+00 -4.781179e+00 -1.410788e+01 -7.271634e+00 -1.153401e+01 1.040266e+01 -7.859199e-01 -5.249733e+00 2.674579e+00 -1.067105e+01 7.045970e+01 -2.128786e-01 3.189358e-02 8.967640e-01 1.497688e-01 -8.730703e-01 -4.794381e-01 2.530173e-02 7.437068e-01 -4.940634e-01 -4.270642e-01 5.294998e-01 2.276128e-01 -1.174703e-02 1.174088e-02 3.190423e-01 -1.278739e-02 6.628496e-02 1.641703e-01 1.523627e-01 4.813772e-02 -3.381249e-01 -2.794534e-01 1.385479e-01 1.369203e-02 1.096234e-01 -2.427169e-01
<VARIANCE> 39
 8.225636e+00 3.359329e+01 6.349808e+01 2.310308e+01 5.565657e+01 5.465015e+01 4.951780e+01 6.683712e+01 7.347591e+01 5.042402e+01 6.239915e+01 4.397752e+01 1.528941e+01 5.661811e-01 1.973349e+00 2.749898e+00 1.323581e+00 2.991420e+00 3.112158e+00 2.373342e+00 5.812475e+00 3.148379e+00 2.324097e+00 3.688120e+00 2.654312e+00 1.019932e+00 1.113060e-01 2.802680e-01 3.936595e-01 2.130614e-01 5.169117e-01 4.642710e-01 4.294158e-01 8.797521e-01 5.728236e-01 4.182952e-01 7.290870e-01 4.826033e-01 1.583495e-01
<GCONST> 1.174630e+02
<STATE> 3
<MEAN> 39
 -1.261461e-01 -8.766140e+00 1.023038e+01 -4.251625e+00 -1.561159e+01 -7.855969e+00 -1.154556e+01 9.464596e+00 -3.380126e+00 -5.272194e+00 4.598915e+00 -8.947554e+00 6.900026e+01 1.794900e-02 5.763969e-01 3.470353e-01 3.249826e-01 -8.162449e-02 1.657851e-01 1.394591e-01 -3.070711e-01 -6.685034e-01 8.657546e-02 9.107271e-02 2.087367e-01 -5.396827e-01 6.264008e-02 1.356871e-01 -2.195866e-01 7.194052e-02 2.586068e-01 1.940447e-01 6.660976e-02 -2.888717e-01 -3.521633e-02 1.295029e-01 -1.769511e-01 -3.577750e-03 -1.589916e-01
<VARIANCE> 39
 8.049845e+00 3.437268e+01 6.462851e+01 2.890902e+01 5.772928e+01 5.039059e+01 6.051915e+01 6.357910e+01 7.830898e+01 5.264810e+01 6.029389e+01 3.796669e+01 1.928199e+01 5.763671e-01 1.529271e+00 3.214149e+00 1.413230e+00 3.292274e+00 2.823504e+00 2.654407e+00 4.822265e+00 3.079700e+00 2.384358e+00 3.674496e+00 2.427316e+00 1.065037e+00 9.361937e-02 2.514820e-01 3.803102e-01 2.431992e-01 5.045113e-01 4.077252e-01 4.691648e-01 8.256324e-01 5.158463e-01 4.009018e-01 6.575966e-01 4.518188e-01 1.590890e-01
<GCONST> 1.172072e+02
<STATE> 4
<MEAN> 39
 4.339648e-01 -6.417625e+00 8.730828e+00 -2.113062e+00 -1.349513e+01 -6.588161e+00 -9.982991e+00 7.147625e+00 -4.212790e+00 -4.204584e+00 2.091398e+00 -7.191676e+00 6.583186e+01 1.582962e-01 5.773182e-01 -3.456737e-01 5.017462e-01 4.078588e-01 5.311853e-01 3.374701e-01 -6.375637e-01 -4.059067e-01 2.648481e-01 -3.761614e-01 1.445291e-01 -7.375703e-01 2.298313e-03 8.124461e-03 -1.384997e-01 -6.297871e-03 1.107965e-01 7.221290e-02 4.999877e-02 -1.275105e-01 2.794401e-02 7.780623e-02 -7.495147e-02 3.222201e-03 -1.797067e-02
<VARIANCE> 39
 8.010050e+00 3.477062e+01 6.500742e+01 3.529070e+01 6.067966e+01 4.395425e+01 6.156459e+01 5.929188e+01 7.168483e+01 4.218606e+01 4.879579e+01 3.970842e+01 3.294892e+01 5.408829e-01 1.415197e+00 2.606818e+00 1.576171e+00 2.510008e+00 2.312161e+00 2.554290e+00 3.341487e+00 2.782823e+00 2.235324e+00 2.518193e+00 2.281709e+00 8.880713e-01 9.470432e-02 2.088076e-01 3.038450e-01 2.968101e-01 3.585861e-01 3.898837e-01 4.261912e-01 5.846323e-01 4.647365e-01 3.788122e-01 4.087243e-01 4.076702e-01 1.263281e-01
<GCONST> 1.134365e+02
<TRANSP> 5
 0.000000e+00 1.000000e+00 0.000000e+00 0.000000e+00 0.000000e+00
 0.000000e+00 7.531053e-01 2.468947e-01 0.000000e+00 0.000000e+00
 0.000000e+00 0.000000e+00 6.920257e-01 3.079743e-01 0.000000e+00
 0.000000e+00 0.000000e+00 0.000000e+00 7.527832e-01 2.472168e-01
 0.000000e+00 0.000000e+00 0.000000e+00 0.000000e+00 0.000000e+00
<ENDHMM>
~h "kh"
<BEGINHMM>
<NUMSTATES> 5
<STATE> 2
<MEAN> 39
 6.337972e-01 -3.219857e+00 -1.993939e+00 1.986013e+00 -4.915386e+00 -3.774910e+00 -1.737520e+00 1.076779e+00 -2.266041e+00 -2.307197e+00 -3.617239e+00 -3.915920e+00 6.010556e+01 -3.024422e-01 4.447612e-01 4.066747e-01 8.508822e-02 -3.277750e-01 1.880658e-01 -2.262573e-02 -3.154616e-01 -9.938033e-02 1.847116e-02 1.291736e-01 1.984884e-01 -3.620043e-01 -7.288715e-03 -1.539343e-01 1.179035e-01 -1.080045e-01 2.916796e-03 -6.126421e-02 -9.793247e-02 -4.087223e-02 1.049750e-02 -1.374715e-03 2.004920e-02 -5.748536e-02 1.686926e-01
<VARIANCE> 39
